{"version":1,"layers":[{"Relu":[784,128]},{"Softmax":[128,10]}],"seed":"3618478356","error_function_type":"CrossEntropy","meta_data":{"accuracy":0.9762,"error":0.013951912,"epochs":10,"duration":{"secs":148,"nanos":277634041}},"weights":[{"v":1,"dim":[128,784],"data":[-0.057452656,0.0061542634,-0.0016391075,0.041210134,-0.05502737,0.040594786,-0.056180015,-0.094157666,0.032169033,-0.06717126,0.06958363,0.054420967,0.02587958,0.070612065,-0.018432619,-0.05843145,-0.03255142,-0.005294766,-0.112076595,-0.03945281,-0.028287968,0.01726778,-0.035654474,-0.061259456,0.05338244,-0.0772959,0.030433483,-0.012154016,-0.024205409,0.06703394,0.020572878,0.013332633,-0.008043897,-0.0025113127,0.039115496,0.07553063,0.0027426276,0.019687565,0.013371092,0.09776859,-0.012709681,0.08346788,0.065575436,-0.07589517,-0.04256661,0.006764713,-0.062650785,-0.0016332143,-0.010630513,-0.028472975,-0.07122099,0.01548488,0.017873103,-0.013112102,-0.057198778,0.023929583,-0.027720196,0.00074351236,0.079906456,0.035914153,0.020055084,-0.048937853,-0.012177068,0.009363255,0.08712757,-0.060229488,0.0010419145,0.05464633,-0.037526887,-0.0038392632,-0.076338425,-0.016703062,0.080195084,0.023141611,0.047019225,0.08500013,0.023030633,-0.051387418,0.05280659,-0.0664406,0.027569095,-0.012166002,0.036254793,0.033121057,0.0020040148,0.027392242,0.015636804,0.052512273,0.021914335,-0.022889888,-0.029532913,-0.034987953,0.031394813,-0.121133015,-0.07595073,-0.07583477,-0.061634623,0.012826794,-0.008244975,0.07333854,0.049703274,0.06832464,-0.011186495,0.0529209,-0.036898687,0.026060492,-0.012301381,-0.030344553,-0.13688725,0.019805847,-0.028844634,-0.07593217,0.032004833,0.00386954,-0.0044084215,-0.006305599,0.03104091,0.007985321,0.07231216,-0.0033511783,-0.008632347,-0.00986696,0.022613537,0.055385087,0.18012561,0.116648026,0.089548476,0.14294158,-0.13719516,-0.0627391,-0.13400926,-0.105777614,-0.13108343,-0.03007606,0.037336327,0.0061199768,0.029244265,0.047430184,-0.00744388,0.002700943,-0.0073770313,-0.055094764,-0.012084008,0.018723197,0.032694913,0.08424416,0.16526532,-0.0002277275,0.014920001,-0.012472541,0.04924019,0.2196836,0.031592693,0.13139625,-0.055431694,0.0817388,0.2013911,-0.14697939,-0.19032599,-0.15365233,-0.00017451933,-0.16755459,0.045704186,-0.05171532,-0.025863422,0.010325405,0.043763977,-0.015023899,-0.10366139,-0.022329058,0.07606083,-0.010170409,0.07292211,0.048661012,0.12162831,0.08764043,0.0005451128,-0.14610592,-0.03339419,0.09912989,0.036897223,0.19461171,-0.06361498,-0.13421716,-0.03820224,0.04850206,-0.09365504,-0.085182615,-0.073436245,-0.069570035,-0.07299641,0.10233243,-0.073188156,0.019396365,0.012934767,0.0007354263,0.035943527,0.06583047,0.03498373,0.01620496,0.061908606,0.114307895,0.01879494,-0.035666548,0.019254686,-0.08503323,-0.076948814,0.07952514,0.1461996,0.12163813,0.21680607,-0.14277606,0.0191191,-0.17527248,-0.095442876,-0.06272187,0.1538062,-0.0014957965,-0.18481229,-0.015408582,-0.023505813,-0.03160169,0.0113472575,-0.06492945,0.059758462,0.016163822,-0.07262259,0.011837066,0.0075363475,0.115154915,0.006395263,-0.18128344,-0.07455194,0.099158615,0.054455627,-0.0057870722,0.13086902,-0.032127954,-0.0010079022,-0.06352285,0.08858557,-0.13813724,-0.2026489,-0.27056596,-0.060539097,-0.05601778,-0.1283974,-0.13259079,-0.0135228075,0.021535909,0.044697516,0.06403193,0.0018368326,-0.062500045,0.08167677,-0.08157074,-0.0004988023,-0.003261211,0.03774457,0.043765422,0.0013727903,0.19515888,-0.10437508,-0.037629474,-0.1486932,-0.052699737,-0.11491347,-0.043718923,-0.1507136,-0.19103839,-0.1437835,-0.23931244,-0.119264446,-0.1614309,-0.012808274,-0.055321917,0.017000804,0.09673853,-0.053359006,-0.06960226,-0.0048068753,-0.013155166,-0.045193437,0.042196672,-0.1308952,-0.09435171,0.010020098,0.1215523,0.049051918,-0.097486,-0.037566733,-0.11576127,0.05840301,0.10701214,0.12459919,-0.14839377,-0.13612196,-0.0151111595,0.015543376,-0.12964402,0.021869833,0.022651363,-0.06951505,-0.044514935,-0.07443457,0.0366738,0.01493706,-0.045725886,-0.06370453,-0.057924308,-0.012103384,-0.009103528,-0.06718772,-0.11955609,-0.10418802,0.15311806,-0.06229151,-0.14151618,-0.06772064,-0.07338472,0.15633331,0.36782178,0.1280291,0.026678609,-0.07288277,0.11942703,0.08686789,-0.03299985,-0.09659832,-0.15753952,-0.19030836,-0.13376977,0.032030888,0.0753963,-0.041782945,-0.052142017,-0.029095706,0.06814371,0.03729993,-0.13353953,-0.055556554,-0.15838435,-0.02399585,0.041887324,-0.078233205,0.096049614,0.104658686,0.24512981,0.20877436,0.25082225,0.027964607,-0.20220394,-0.025458373,-0.09270391,-0.025942605,-0.2615959,-0.1243702,-0.10344784,-0.033445563,-0.0727843,-0.075392656,-0.015621517,-0.007795767,-0.037895057,-0.050660502,0.010106721,0.0010314363,-0.017504927,-0.085639164,0.002790905,0.11428412,0.04426127,0.046767995,0.17015085,-0.06990195,0.08535041,0.16234191,-0.006676303,0.17514484,-0.10453988,-0.13547643,-0.10816321,-0.12097129,-0.23610082,-0.17267354,-0.15617506,-0.1876956,-0.12672651,0.058504336,-0.050445978,0.06599176,-0.04538793,0.0021934782,-0.012136945,-0.026754357,-0.055807076,-0.06783334,0.05948315,0.038587205,0.13891368,0.07350574,0.120196536,-0.01497017,0.01047923,0.035897736,-0.111845024,0.24625081,0.097468965,-0.1351329,-0.18692066,-0.043583803,-0.1956384,-0.11367652,-0.12654975,-0.13769646,-0.027055336,-0.079693735,0.026470527,0.03182805,0.033139765,0.030120207,0.025384437,0.0483855,0.001988269,-0.089250766,-0.06406837,-0.11051458,-0.054117203,-0.20188397,0.027609473,0.1342922,0.10870693,0.17745192,0.011980338,-0.046011407,-0.16387857,-0.16553918,-0.00038123736,0.019176079,-0.15240784,-0.0061985645,0.08335406,0.03944677,0.17304403,0.00012265438,-0.033898734,0.04811963,0.0015073547,-0.007892431,0.007329582,0.04733434,-0.13215442,-0.14481582,-0.16640706,-0.30429575,-0.34956473,-0.44453055,-0.35987663,-0.09636105,-0.009645366,0.16449586,0.0020452423,-0.089206345,-0.15530284,-0.1179577,-0.10043434,0.13078746,-0.081019655,-0.032111395,0.056316923,0.052639898,0.020869222,0.07144724,0.07447587,-0.019392462,0.072868295,0.03858026,-0.023811985,0.031951733,0.024574991,-0.18389155,-0.3021466,-0.45205995,-0.451959,-0.6721032,-0.75341743,-0.8665173,-0.6865365,-0.51815695,-0.3585622,-0.16880287,-0.18732943,-0.26889908,-0.09326732,0.09393309,-0.051275145,0.015204034,-0.02835037,0.06689261,0.106035806,-0.04943805,0.032037452,0.028362852,-0.06802787,0.07281378,0.053061787,0.120710626,0.072929494,-0.07133759,-0.17618494,-0.33837408,-0.40687668,-0.5197802,-0.7418672,-0.68375534,-0.80497247,-0.6927472,-0.58491343,-0.30105785,-0.084729195,0.07821341,0.052985884,-0.0062068407,-0.020433359,0.07620991,0.06877914,0.05220561,-0.07301763,-0.03929333,0.0649494,-0.024160564,-0.0717389,-0.011818669,-0.056896716,0.027887173,0.03340495,-0.059525523,-0.14813311,-0.29913458,-0.2447283,-0.19270198,-0.27110973,-0.38975912,-0.506112,-0.5200717,-0.47276425,-0.10403708,0.25799066,0.37458244,0.04325763,0.03256471,0.00027737385,0.078508,0.07913686,0.06592842,-0.061852608,0.02691344,0.034079082,-0.025274744,-0.13004918,-0.040331412,0.05398609,0.03571977,0.10410146,0.09287022,-0.064190425,-0.2560944,-0.12415476,0.055513553,0.09159631,0.02334314,-0.23836823,-0.19920082,-0.07608107,0.09423734,0.39440045,0.16787885,0.2535368,0.20530584,0.100134365,0.16375595,0.10304832,0.10366589,0.14943837,-0.023004564,0.013452904,-0.11536729,-0.0120664425,0.0664179,-0.004477945,0.011765829,0.049772903,0.06183871,0.043367494,0.026583884,0.06821141,0.18537578,0.13179865,0.21528874,0.22516046,0.4184481,0.0859085,0.14430739,0.39359543,0.19258353,0.14995097,0.091127954,0.10378329,0.05734243,-0.13135259,0.05494365,-0.017416554,0.038077842,-0.021113247,0.042823296,0.010081534,-0.012243753,0.009699504,-0.030381264,0.024600653,0.10925364,0.15649053,0.19441876,0.121523306,0.17131889,-0.025370877,0.2208421,0.37641054,0.26049525,0.09747053,-0.046482753,0.044688944,-0.012818575,-0.0014874812,0.07840708,-0.06985719,0.04260454,-0.08324333,-0.035933584,0.031019842,-0.012317823,0.0030014243,0.05928525,-0.0855821,-0.0088618,0.08887953,-0.10749863,-0.07052604,-0.0060942327,0.17109114,0.08499112,0.19301823,0.2429481,0.13579054,0.33912274,0.33146557,0.3366229,0.17374842,0.2127728,-0.004935523,-0.0057642786,0.08420748,0.018719299,-0.052053835,-0.087227404,0.058119528,-0.025128808,-0.07496106,-0.021812312,0.0058011287,0.037317436,-0.0006699747,-0.043935373,-0.058031857,-0.035153445,0.051223148,0.06900205,0.05504735,0.12626313,0.29537734,0.24817912,0.30613855,0.26135442,0.31983042,0.19744046,0.032357763,0.094566286,0.057286285,-0.017664082,0.16290067,-0.0014195045,-0.22267388,-0.25072265,0.037844557,0.05286796,-0.023975013,-0.08415832,-0.04739861,-0.011122193,0.057303477,0.056822862,0.09412472,-0.03075055,0.012747839,0.00424593,0.024785563,0.06965386,0.19766876,0.15311651,0.10459396,0.099966794,-0.014034372,0.19948009,0.14806578,-0.0083629275,0.14805324,0.04913827,0.0019774337,-0.108785786,-0.040623233,0.09206949,-0.10286793,-0.0056448802,0.020038314,0.03777261,-0.069417946,-0.1324956,-0.03273419,-0.031883463,0.0752955,-0.015193867,-0.01009256,0.039261512,0.0302531,0.0025520236,0.04605426,-0.05461398,-0.023187537,0.05738113,0.1147392,-0.026871098,-0.06400584,-0.047894605,0.14269236,0.061920274,0.1344986,0.064283416,0.045407508,-0.028801784,0.052122768,0.030852793,-0.011024799,0.06323828,0.013291748,0.053969044,0.032492206,0.025712134,0.004923729,-0.018908646,-0.07292576,-0.015645495,-0.077449426,0.032134254,0.032446057,-0.08009469,0.0066071167,-0.01740459,-0.07112593,0.0260454,0.0016868644,-0.088263765,0.119484715,-0.053623762,-0.03749027,0.07533356,-0.13637182,0.000030653086,0.05850319,0.0288173,-0.039238147,-0.008426118,0.03951014,0.061635833,-0.03801052,-0.05852854,0.01970091,-0.0054830937,0.008511124,0.0020755567,0.095151894,0.06848986,0.02542699,-0.07609117,-0.041966293,-0.026983647,-0.046504606,-0.030582404,-0.064613976,0.010305076,-0.020010957,-0.018546324,0.011595974,-0.028911257,-0.016578887,-0.01660687,-0.04737293,0.08075765,-0.041062415,0.09659124,0.020804124,-0.003323229,0.03116372,-0.049565725,-0.00059231586,0.0027763117,-0.13195099,-0.09649472,0.021461982,-0.028280942,0.032573525,0.007538171,0.00029121287,-0.09883718,0.0053129448,0.05032701,0.09349631,0.008476679,0.09570206,-0.011740541,0.1000158,0.020347433,-0.06192856,0.118000366,0.07485451,-0.0034743068,0.0003410638,-0.045506638,0.083172165,0.038943257,-0.044770256,0.1019274,-0.074452184,-0.051008,0.023264706,-0.06288129,-0.12598038,-0.070577234,0.018118257,0.017941102,-0.0545443,-0.0017795379,0.029529989,0.069379054,-0.0025863547,-0.075144455,-0.054741114,-0.04452549,0.059218105,-0.020042332,0.08683325,0.04206987,-0.02139092,-0.05968235,0.08545877,-0.023788435,0.06873657,-0.0069030924,0.082962915,-0.036627535,-0.030963354,-0.04201968,-0.014445512,-0.059297007,-0.061789375,0.0077464716,0.014259242,-0.0255124,-0.038305834,-0.049377367,-0.017618664,-0.15112823,-0.016849432,-0.14210907,-0.052573863,-0.15403852,-0.08364753,-0.05530785,-0.07667239,-0.09450843,-0.0060458253,-0.0327458,-0.028128577,-0.021398194,-0.003127908,-0.038167212,-0.017550115,-0.013573636,0.036409374,0.03788598,-0.07397197,0.069847524,0.018053701,0.0673648,0.020653453,0.013484435,0.12865505,0.09010891,-0.046990093,-0.01975246,-0.10078702,-0.25239047,-0.2710664,-0.2310266,-0.26630685,-0.060553964,-0.17482346,-0.13848053,-0.1400289,-0.04459514,-0.070414566,0.07960938,0.04092136,0.06948166,-0.013172991,-0.09589253,-0.063741505,-0.11979073,0.0069805714,-0.026405381,-0.02550167,0.017825767,-0.12385682,0.014124103,0.05801992,0.045684904,-0.05091216,-0.1150441,0.01816246,-0.088786274,-0.07791962,-0.23213382,-0.4062287,-0.2532187,-0.1061945,-0.085790634,-0.055646304,-0.12286589,-0.10410059,-0.036480613,-0.08395003,0.15542242,0.010632749,-0.0073798364,0.10527952,0.009898301,0.031394605,0.06489511,-0.03167458,-0.022538543,-0.061941735,-0.117942326,0.072757736,0.042947717,0.09916071,0.10724167,0.11808214,-0.014770657,0.0060857492,-0.092979364,-0.10178078,-0.23447597,-0.26540044,-0.16433185,-0.16658983,-0.11056146,-0.15942283,-0.033362318,0.009850944,-0.006801103,0.075706,-0.081326455,-0.046061054,-0.09401148,0.032416124,0.02370851,-0.025931425,-0.019974953,-0.12949497,-0.06329437,0.019944265,-0.0057256944,0.037651796,0.15270852,0.33773825,0.14719348,0.14078361,-0.030580688,-0.13862242,-0.32799655,-0.3614283,-0.2875596,-0.24448988,-0.30614308,-0.07743901,-0.07737111,-0.005263393,-0.04607462,0.06484653,0.0052190614,0.01289279,-0.018506508,0.0431269,0.10283517,-0.071867906,0.03561236,-0.03510508,0.18003218,0.12383223,0.25259852,0.15977009,0.17259505,0.2520505,0.31524968,0.21204628,0.22601086,0.17205358,0.10446629,-0.18633461,-0.23995219,-0.27925235,-0.12591958,-0.13883126,-0.16491728,-0.019661142,-0.08295591,0.03734331,0.03227215,0.012201499,-0.07324667,0.09126729,0.025649652,-0.012469246,-0.023602214,0.072250456,0.03760867,0.12446145,0.34695005,0.012756627,-0.07851123,0.15639518,0.06400253,0.14321248,0.35137922,0.31410274,0.10773011,0.07830096,-0.16260368,-0.1791205,-0.17048435,-0.116841994,-0.15318294,-0.041494507,0.005037114,0.0305434,0.009126035,-0.018075801,-0.005822898,0.03811599,0.10136897,0.016392492,0.0058730305,0.07374787,0.033981945,0.2111943,0.08510363,-0.19505177,-0.23748061,-0.015109485,0.27913433,0.17003813,0.4868338,0.2871192,0.043525126,-0.015561038,-0.14681241,-0.15734512,-0.13963452,-0.120658234,-0.01117709,-0.0853374,0.023499083,-0.04975596,0.07909973,0.05127468,-0.018067896,-0.07319803,-0.037422743,0.043774575,0.1383708,-0.0076211216,-0.034018137,-0.015262272,-0.19229108,-0.18993416,-0.113394365,0.13069771,0.137413,0.26248762,0.21919836,0.16262597,0.13291511,0.046095055,0.07809795,-0.003322334,-0.1603559,-0.14790301,-0.016928375,-0.018312167,-0.058283314,0.042741477,-0.015888538,0.0025048319,-0.10857442,0.008312697,0.008338981,0.17614467,0.025644716,0.058101196,-0.2470017,-0.03776108,-0.1883725,-0.2840249,-0.10941786,-0.032297578,0.149067,0.18755025,0.12670648,0.3472501,0.11240361,0.13926664,0.08559144,0.040930945,-0.05758991,-0.07409695,-0.046553984,-0.05281456,0.03938799,0.042021852,-0.053659882,0.010285242,-0.07438714,-0.015810894,-0.06480193,-0.012424281,0.007429012,0.048737463,-0.026356254,-0.10225488,-0.09404094,-0.2127852,-0.090872854,-0.13209492,-0.21496512,-0.05012486,0.053628396,0.2153004,0.19727775,0.01770838,0.006998001,0.045448586,-0.079331435,-0.14265147,-0.057581734,-0.14122294,0.0065848576,-0.033436,-0.090389065,0.025156045,-0.07012034,0.052748445,-0.022417415,-0.03333041,-0.032405972,-0.05133635,-0.13052405,-0.13261612,-0.14028515,-0.034336813,0.062262613,-0.14910646,-0.26469347,-0.102628924,-0.1899,-0.014024503,0.23631911,0.03909932,-0.037995875,-0.017145403,-0.0820059,-0.12241549,0.080611825,0.013916247,-0.048770715,0.010834595,-0.060582776,0.042977132,-0.01427593,0.040286086,0.14526929,0.05226583,0.06552635,-0.07919596,-0.030238466,-0.14661305,-0.07807695,-0.09199094,-0.15928113,-0.11190873,-0.0740928,-0.0051275427,-0.09160646,0.028542217,-0.08996113,-0.04698116,0.11409818,0.088058814,0.09002089,-0.054626662,0.053843025,0.017588608,-0.03517495,0.0020837928,0.029424472,-0.012579223,-0.047181547,-0.0017633422,0.1276445,-0.1339806,0.031828582,0.09053374,-0.080281734,-0.088055395,0.05548469,0.20676601,-0.033283122,-0.13373631,-0.10968867,0.0009763869,-0.104854256,-0.03297883,-0.0395436,-0.06044557,0.06480141,0.09507625,0.04575302,-0.035237093,0.16594826,-0.060676165,-0.02683434,-0.033150904,-0.036487527,-0.0006003796,0.018026687,-0.0005604823,0.03041443,0.057834886,0.019257363,0.07417521,-0.07333047,-0.121655464,0.026645292,0.02294412,-0.031331092,-0.09904073,-0.16020763,-0.16761725,0.0042053075,0.03488946,0.029688777,-0.023148343,-0.03760734,0.0059830383,0.026880825,-0.04512864,0.013721244,0.022633893,0.0682457,0.07385606,-0.04654047,-0.020867568,-0.003246849,0.10404022,0.016205877,0.05117565,-0.06136197,-0.013134568,-0.14809197,-0.090046495,-0.0051909685,0.20848711,0.015498406,-0.14292978,-0.2353167,-0.06733567,-0.021529935,-0.012964435,0.035150085,-0.053637993,0.07198859,0.013821488,0.062358744,-0.13227569,-0.09276019,-0.004601031,-0.02555155,-0.03457988,-0.004441828,0.05309228,-0.027065419,-0.0058132433,-0.032847505,0.004602652,-0.05080159,-0.031019932,-0.18529955,-0.2830557,-0.031842772,0.089058906,0.15065841,-0.13843673,-0.06318652,-0.052706264,-0.039774388,-0.10470724,0.017951962,0.121819995,0.1985721,0.18166482,0.22706075,-0.08781796,-0.059826963,0.08375202,-0.079938285,0.027197655,-0.007124123,-0.02661913,-0.06843099,-0.02279022,0.06201674,-0.05583407,-0.09426012,-0.07216462,-0.048907273,-0.30038068,-0.060996268,-0.06347732,-0.06067438,-0.11001895,0.0325606,0.011516902,0.009423121,-0.23312916,-0.12722284,0.02848373,0.21795033,0.08006448,0.060492113,-0.052258495,0.035763104,-0.02102483,-0.01655902,0.10246297,0.011316182,0.018099032,-0.06097309,-0.023564145,0.10822587,0.11247449,0.05563083,-0.015995027,0.013848311,-0.19038548,-0.088048406,-0.124558695,-0.13208528,-0.20706777,-0.06563451,0.03001038,-0.016865801,0.006845616,-0.0073768846,0.02776315,-0.02010739,-0.15370426,-0.013852233,0.06902894,-0.036267772,-0.067973524,-0.0053447415,-0.04088564,-0.012431677,0.009344881,0.029857768,0.099070385,-0.035096657,-0.022685453,0.034212302,-0.025274519,-0.015120015,-0.15118955,-0.14120775,-0.034082472,-0.060252868,-0.04843557,0.20012096,0.047998678,-0.10706814,0.08393975,-0.087615825,-0.14663295,0.0028533055,-0.028005969,-0.07391213,0.018355574,0.005527673,0.009618309,-0.026058583,0.007669337,0.05212522,0.061917823,0.04730842,0.050106067,-0.06670009,0.03359871,0.043323413,-0.045026373,-0.047026273,-0.14497954,-0.12922789,0.03447195,0.04977796,0.017605415,0.003451389,0.086108014,-0.060077894,-0.041004524,-0.013328283,-0.15536644,-0.10492416,-0.066073425,-0.049719535,-0.1017049,0.07319378,0.03952059,-0.00376454,0.015117046,0.028422404,0.014946058,0.05274651,-0.009342378,0.10395092,0.024855891,0.021952271,0.0554046,0.07203441,-0.060580883,-0.01087419,-0.057912778,-0.0703013,0.041041296,-0.054032497,0.023886902,0.05272817,-0.121393815,-0.119451314,-0.12423817,-0.06880313,-0.039754957,-0.08333859,-0.074765414,-0.054381195,0.024540821,0.11797542,0.11557161,0.08959947,0.037612945,-0.00060152076,-0.05057207,-0.004989675,0.06079555,0.084025756,0.08021599,-0.046929892,0.034166235,0.047192674,0.027216757,-0.05487673,-0.00727534,-0.047050364,-0.092908934,-0.06079458,0.016701244,0.014637493,0.10015446,0.071775675,0.011152731,-0.07577987,0.0056200633,-0.06922333,-0.0132386945,0.0018512139,-0.06602383,0.09941897,-0.07323025,-0.064679675,-0.041637648,0.00030388145,-0.068385735,0.1267768,0.001214191,0.015635328,0.106244996,0.037301574,0.08931559,0.077728055,0.012016565,-0.0013097221,-0.031370107,0.113361195,0.1289701,0.028512932,0.021184165,-0.038023327,0.025161486,0.0039463625,0.0018151085,-0.018053703,0.008581002,0.111833714,0.012349632,0.10082301,0.03530737,-0.0117018195,-0.028696679,0.05468753,-0.032754447,0.015978638,0.00025674832,0.034796864,-0.010532305,-0.012850516,-0.086201824,0.074404895,0.07713909,0.043928254,0.047673758,-0.05320865,-0.0032420014,0.013546118,-0.011574243,0.12779394,0.033262208,0.048960913,-0.0057458975,-0.030368134,0.038275093,-0.024398664,-0.10032684,-0.015051633,-0.13353409,0.039339583,0.055098698,0.08531267,-0.018618101,-0.017822284,-0.07427158,0.008989098,0.016756503,-0.024985854,0.079471454,-0.0515125,0.024140187,-0.04476537,-0.089281105,-0.06021522,-0.031916756,0.058860987,-0.01750112,-0.069696024,-0.010788634,-0.026049495,-0.043377005,0.02622481,-0.026759988,0.045190886,0.039669555,-0.07534589,-0.05221667,0.020843856,0.0029892235,-0.002937373,-0.066956855,0.08784596,-0.037741747,0.02799676,0.006131965,-0.0014405363,-0.022323411,0.034933183,0.056866094,0.039393842,0.061754975,-0.069684036,-0.021705022,0.06541162,-0.011500795,0.003467898,-0.03567959,0.070241645,-0.038088277,-0.053386096,0.05028033,0.019671412,-0.06436015,-0.024472179,-0.11416137,-0.0019089602,-0.060912665,0.061465777,-0.020084959,-0.0185869,-0.012844012,0.04519955,-0.0045949877,0.00096051925,0.103080474,-0.0547699,0.06292098,0.024395624,-0.032445814,-0.03857455,0.00083211885,-0.112165704,0.020279849,-0.060454596,-0.0010898509,-0.0001048216,0.065356165,0.021175098,0.050218787,0.079832345,0.011215182,-0.06883229,0.062779784,-0.07982781,-0.037239894,0.030058082,-0.052127343,-0.027286965,0.056644555,0.03686826,0.053373944,-0.08777459,0.009463731,0.06014534,0.021622095,0.06663358,0.005817399,-0.049491853,0.005509216,-0.062155586,-0.029493893,-0.035707094,-0.01197563,0.0029114285,-0.049270343,-0.022857077,-0.028612105,0.057854317,-0.12422901,-0.09121087,-0.015640287,-0.06688581,0.013931896,0.02706575,-0.040297076,-0.04699134,0.028775755,-0.04259272,-0.024889734,0.04858017,0.069713615,0.0020051147,0.006550199,0.046980366,-0.012284342,0.0034384602,-0.050123196,0.043559104,0.037356827,0.002489206,0.009572164,-0.08190521,-0.032915145,-0.03825838,-0.058458406,-0.049745895,-0.013752169,-0.094006725,0.011352287,-0.027206626,-0.0455392,-0.06704973,-0.0021038076,-0.025224134,-0.1265138,-0.015508359,-0.042898282,-0.02629685,-0.11766298,0.06505441,0.0143522825,-0.0690449,-0.08987216,-0.009098441,0.008612728,0.047160655,0.06266853,0.05143776,0.033662096,-0.011699986,0.053942464,-0.03660643,0.012581946,-0.0072901985,-0.011692721,0.0007212605,-0.031309728,0.036017027,0.032172088,0.06044362,-0.059079614,-0.008543321,-0.10932986,-0.04535148,-0.017080363,0.028558843,-0.060858574,-0.009099154,-0.013351247,-0.018776855,0.08281179,-0.015539437,-0.019427761,-0.02261935,0.089966774,0.07366995,0.00040970522,-0.007840832,0.028250897,-0.031394888,0.080419526,0.011402217,0.0358247,0.012708041,-0.03490959,-0.008932196,0.01873152,-0.08543168,-0.027902082,-0.0123644965,-0.00006332114,-0.0889911,-0.051560417,-0.1079387,0.028941335,-0.08991326,-0.059336953,-0.111048765,-0.0073106242,0.08792423,0.13335614,-0.023573255,0.050817285,0.08492985,0.13925613,0.1721908,-0.07188624,0.08253258,-0.021025108,-0.03913425,0.03906286,0.058300007,0.08487177,0.0051890616,0.018565506,-0.012186001,-0.038116544,-0.018348554,0.011271928,0.00006686557,0.058790065,-0.105551176,0.012464317,-0.026582977,-0.000621895,0.060714733,0.08507917,-0.065147385,-0.060246475,-0.09026123,0.08760998,0.097628616,0.023111776,-0.10593596,-0.048770912,-0.024358602,-0.1081702,0.00917605,0.08768683,0.059262857,0.023169225,-0.016295368,0.0793256,0.022294153,-0.011291293,-0.03870868,0.020166822,0.027816638,-0.0059446977,0.017370934,-0.02443331,0.09373625,0.05395029,-0.027573507,-0.02978465,-0.03396339,0.017939428,0.009024584,-0.02217271,0.15036654,-0.07438094,-0.06358951,-0.038136806,-0.035411984,0.009459392,0.01773684,0.1016557,-0.07488108,-0.07960509,0.11643817,0.03054237,-0.045680776,-0.091365464,-0.080529094,0.0075625796,-0.15299469,-0.024300039,-0.107281126,-0.0175588,-0.091133684,-0.050304502,-0.07149277,-0.0704124,-0.10558751,-0.07678462,-0.042754263,0.07258417,0.0725187,0.06151568,0.0039127055,-0.12135193,-0.0020831176,0.07268862,0.036179908,-0.06585565,-0.0030429042,-0.018246287,-0.0057134693,0.04029583,0.030998852,-0.03933472,-0.038660165,0.09880542,-0.022270504,-0.030525243,-0.09302176,-0.04846238,-0.034727577,0.11685083,0.059393648,-0.033636812,-0.115963235,-0.16774242,-0.1161821,0.009841102,-0.003076826,0.10131896,-0.07750896,0.014930505,-0.10565442,0.0156087205,0.06863994,0.012452955,-0.041565754,0.014612478,-0.08587316,-0.05995934,-0.02291187,-0.07387403,-0.032449204,-0.061062332,-0.028446415,-0.03210118,-0.09965344,-0.22487567,-0.17316662,-0.17212196,-0.019039664,-0.15316518,-0.16313246,-0.061566185,-0.07407799,-0.11459977,-0.07468003,-0.08200371,0.081632406,-0.069286935,0.019934747,0.04445889,0.09895965,0.09348375,-0.06629132,-0.030411826,-0.008056422,-0.017030446,-0.018004531,0.03626029,-0.021639898,-0.11037995,-0.09328606,-0.021594068,0.033080105,-0.06509485,-0.06721303,-0.0068160137,-0.12888022,-0.031338997,-0.09069426,-0.11499113,-0.13607863,-0.15698639,-0.0025988983,0.0021179314,-0.05005467,-0.07659558,0.0538098,0.03880689,0.019806825,-0.05072396,0.055156462,0.0012362637,-0.013330649,0.021180457,0.0025340675,-0.07896037,-0.06287577,-0.25244102,-0.047327153,-0.031213155,-0.049470186,0.08053999,0.040403944,-0.0465988,-0.055014003,-0.07989996,-0.0032070042,-0.09794601,-0.04913037,-0.11797982,-0.1405236,-0.11350266,-0.06679904,-0.035339624,0.050074454,-0.00025601208,0.12797964,0.029991195,-0.071402855,-0.009350409,-0.04517124,-0.013810947,0.079892874,-0.097716235,-0.098886065,-0.15018076,-0.0075634248,0.003268497,0.12719153,0.09807365,0.023087876,0.010763755,-0.01111384,-0.020988852,-0.06473932,-0.12950711,-0.08722478,-0.07030782,-0.09360559,-0.003069544,-0.1043971,-0.04028923,0.030181201,0.012746179,0.043838568,-0.0083493,0.048866037,0.008849213,0.054353587,0.026727213,0.0011594673,-0.04243139,0.01796177,0.12460986,-0.005846304,0.10488642,0.07814019,0.059920132,0.19479136,0.08290437,-0.10277139,-0.13149004,0.032858994,0.00020248555,-0.026777415,-0.183418,-0.1301258,0.03509088,0.09639207,0.0818466,0.0030537492,0.17389266,0.068889,-0.0783736,-0.0016680317,0.027936788,0.002202917,0.07413434,-0.03849789,-0.08607496,0.15210584,0.08907077,0.11716739,0.18279506,0.057942282,0.16679825,0.12519823,0.049225286,-0.0033352324,-0.020457545,0.0029847454,-0.13889182,0.005042419,-0.046989355,-0.08265046,0.09429502,0.031130413,0.032649204,0.034448486,0.14207858,0.020784078,0.020940823,-0.0039847395,-0.018620694,0.00236805,0.07897294,0.039222628,-0.0056131403,0.1112216,0.138376,0.1709345,0.08483639,0.05221737,0.16908242,0.23613782,0.026358517,-0.05987268,-0.05738089,-0.027851056,0.0054769334,-0.04724545,-0.103166126,-0.053466808,-0.079761595,0.028230602,-0.061298966,0.10009918,0.002895755,0.024211837,0.0032411327,-0.0846977,0.048139315,0.052551184,-0.005707804,0.027254084,0.13633169,0.15378639,-0.010351793,-0.06798432,0.06451719,0.057042833,0.13396285,0.05355417,-0.051323514,-0.04997094,-0.04870649,-0.06050956,0.02459041,-0.051429555,-0.053668164,0.040848583,0.0019316316,0.06959781,-0.033473082,-0.04995495,0.028494114,0.04365842,0.08165478,0.012811921,0.0353606,-0.0046720393,0.10821109,0.062231895,0.08465344,0.101586975,0.051570702,-0.01564692,0.13673183,-0.045182116,0.07485287,-0.018497018,0.07857675,0.050017025,0.11653393,0.16093317,0.14161344,0.043060653,-0.031461176,-0.08491571,-0.015224928,0.104884,-0.016176041,-0.036858022,-0.056358915,-0.018516943,0.023533266,0.053310327,0.0073577017,0.06738721,0.012818407,0.073942795,0.12206622,0.092141554,0.13485627,-0.0032914327,0.09962833,0.0018738337,0.04693184,0.014090348,0.022209488,0.03247482,0.080788635,0.13494477,0.14692768,0.007835537,-0.0414245,-0.055142753,-0.01765735,-0.05246863,0.07537637,0.072873645,0.069143,-0.0061014057,-0.055716027,-0.07507284,0.030834114,-0.015401394,0.038483623,0.06067001,0.07492043,-0.028315488,0.034413286,-0.03095319,-0.046737816,-0.041803014,0.024683665,0.07782059,0.0050970367,0.024121108,0.071448185,0.09825874,0.013678478,0.056992024,-0.0077800103,0.1066037,0.0132339755,-0.014574774,0.07505938,0.08260972,-0.11469523,-0.007566647,0.06990381,-0.029281132,-0.052590244,-0.01764972,0.08465654,0.026614187,-0.048583902,0.01106105,-0.052128367,-0.11084793,-0.13983537,-0.1321349,-0.028941134,-0.02120954,-0.19487485,-0.07603097,-0.04011311,-0.026419802,-0.09082196,0.014828765,0.05314531,0.01695011,0.027015075,-0.004713983,0.052392542,0.021569887,0.029936621,-0.01596189,0.036509756,-0.034382675,-0.04523319,0.02734102,0.049417958,0.007891659,-0.026499266,-0.035952225,-0.053087026,-0.16600731,-0.07124433,-0.11361563,-0.07583565,-0.055243928,-0.027514374,-0.07596188,-0.10610194,-0.00542258,0.016059227,-0.07176952,-0.0112383375,0.035441462,-0.003112466,0.027366275,-0.13564003,-0.023829754,-0.019232724,0.09860208,0.077463865,0.06793835,-0.018057643,0.015623384,-0.08476365,-0.07154173,-0.031012908,-0.12079352,0.0023345607,0.057883028,-0.06894864,-0.054820735,-0.00889773,-0.049286947,0.07286799,-0.022714913,-0.040291775,0.0089060925,0.052904714,-0.031854022,0.01178962,0.0725941,0.030135995,0.022387972,0.075559676,-0.016000621,-0.0043945177,0.09089747,0.035786364,-0.035999212,-0.055583227,-0.047322,0.04204328,-0.0054312404,0.056015715,0.07555893,0.050414532,-0.078478284,0.026050758,0.026617955,0.05676686,-0.043034166,0.006923959,-0.012735354,0.021381443,-0.029695528,-0.011991006,0.00933874,-0.054805674,0.02168464,-0.034609918,0.08883646,0.039030563,0.011393006,-0.049632955,0.005254802,-0.035308104,-0.054790627,-0.008095677,0.01751256,-0.01326161,0.053404175,0.070765615,0.012120691,-0.09550966,0.009680938,0.04755233,0.031178322,0.094128385,0.06404062,0.02664507,-0.012822013,-0.0550326,0.07315453,0.04687236,-0.010583648,0.058515437,0.026915915,-0.029066833,-0.03379854,0.026713673,-0.03867055,-0.0051276446,-0.02416314,0.004094413,0.06669023,0.051009137,-0.0019042332,0.04756279,-0.06795079,-0.02535211,-0.0028174175,0.060251523,0.01495843,0.060639147,-0.10306986,-0.04614667,-0.020177009,0.021905832,0.06180104,-0.07729914,0.028479433,0.049131103,-0.026789088,-0.08741479,-0.06538063,0.15199916,0.09713759,-0.07355775,0.025618995,0.05832992,0.10970372,-0.08322354,0.033473432,0.04675184,-0.061414786,-0.021462614,0.045222994,0.033375412,-0.10554673,-0.054729093,-0.03621041,0.030107116,0.05835332,-0.10374769,0.059589796,-0.06533552,0.046831965,-0.026515648,-0.03621156,-0.08048776,0.005171895,-0.06067127,-0.04303092,0.014873992,0.046307582,0.010374795,-0.01736533,0.00048995425,0.092263944,0.028199764,-0.009045842,0.021090463,-0.01219167,-0.11885413,0.071797304,0.10504544,-0.06345361,-0.06463944,-0.028905924,0.0417995,-0.020088157,0.041957512,-0.020695273,0.010238476,0.075238705,0.07589634,-0.09495191,0.062011126,-0.14306635,-0.032484043,0.074968435,-0.024172412,-0.037367593,-0.005130845,-0.06353607,0.03122505,-0.010386627,-0.019184187,0.0477425,0.07172354,-0.042683348,0.003399448,0.028695652,-0.0110088615,-0.07113667,-0.06211495,0.017560508,0.039046805,0.011167286,0.04470217,-0.004827304,0.0943654,0.07344882,0.04907281,0.0636346,-0.03526796,-0.036110796,-0.004393755,-0.12834738,-0.04007624,0.059055768,0.041717518,-0.011616945,0.052541617,-0.054300014,-0.04688524,-0.015677853,-0.07799976,-0.058954395,0.021424428,-0.06770517,0.025409076,0.009062144,0.020034663,0.01856896,0.01402102,0.08891319,0.035208236,0.041843787,-0.023804564,0.004115312,-0.05522303,-0.117258415,0.055227343,0.07935455,0.098896585,0.04609388,-0.06531518,-0.13992073,-0.08100763,-0.11857683,-0.04696346,-0.0035391655,0.093455434,-0.049757335,0.04915712,0.036274087,-0.01055845,-0.036048356,-0.14131615,-0.15187761,-0.065859325,-0.08456554,-0.03993199,0.03628826,-0.038658593,-0.074377485,0.08760816,0.1195937,0.11134223,0.118744045,0.062370725,0.011411269,0.08875757,-0.10033454,0.024225626,-0.0023788013,0.06917477,-0.0022356217,-0.017979946,0.15390366,-0.075374246,0.059313007,-0.0057684593,-0.02080539,0.007812713,-0.118318416,-0.048110887,-0.055859715,-0.03814857,-0.015087134,-0.10998295,-0.05029877,0.037338387,-0.048773702,0.02230947,0.08209065,-0.03206099,-0.0063432828,0.03976114,0.035653785,0.09267954,0.04674154,0.0239275,0.105433784,-0.014559213,0.08126273,-0.02961371,-0.02379447,0.036987934,-0.035617188,0.070234485,0.010437476,-0.051790576,-0.05142017,0.019517096,-0.08948976,-0.07713641,-0.08791032,-0.000050036462,-0.04600421,-0.082280524,-0.0061111865,-0.025704445,-0.02131943,-0.10096445,-0.008867898,0.090637125,0.12468334,0.05801052,0.027727922,0.05497966,0.053263903,0.07778293,0.13319056,0.036347114,0.0020497867,0.08941827,0.08301897,-0.057336338,0.053105462,0.004215542,0.012960493,-0.07306756,0.001950736,0.0018830927,-0.13063627,-0.051743485,-0.08661851,-0.028967455,-0.09162384,-0.107226886,0.22079144,-0.056990713,0.07881795,0.1767262,0.25771484,0.14173432,0.116948,0.04893068,-0.048708238,0.051802594,0.18678565,-0.0011333367,-0.024741225,-0.018958615,0.057494093,0.04958685,-0.039867874,0.0012028046,-0.013976958,0.00046899292,-0.0303688,0.10264426,-0.17506188,-0.05228721,-0.1217807,-0.20858562,-0.14226608,-0.13557208,-0.059300892,-0.08730548,-0.13921773,-0.18715166,0.17438105,0.3793365,0.13081285,0.06305866,0.025927002,0.12551628,0.067003496,0.117442034,0.05437956,-0.0038217886,0.06487685,-0.0145685235,-0.005587885,-0.06758357,-0.099770755,0.003900309,-0.011856693,-0.013852617,-0.024757283,0.045295216,-0.11742239,-0.03124746,-0.021515692,-0.0705019,-0.05697301,0.010548329,-0.10152764,-0.06324235,0.26471704,-0.055916272,-0.0068921186,0.11594884,-0.029235866,0.14876261,0.003159382,-0.065702096,-0.05963566,0.06255528,-0.02166586,-0.011960652,-0.043358527,-0.056251884,-0.048399057,-0.021377543,-0.20039198,-0.07004919,-0.07384568,0.09612733,-0.121690765,-0.07917211,-0.059061084,-0.063133195,-0.20053029,-0.26878566,-0.3968126,-0.44295815,-0.039081972,0.118938036,0.015580684,0.071328774,-0.02108986,0.13150586,-0.047261517,-0.016836243,0.14754365,0.00070137484,0.0027860359,0.045372225,-0.014525297,-0.05102308,0.029916791,-0.11933923,-0.011941256,-0.11488987,0.026855368,0.0480247,-0.18758565,-0.09353116,-0.016910203,-0.08194121,-0.14597899,-0.36287323,-0.617983,-0.43404225,-0.20687641,-0.0018030576,-0.091247156,-0.118296415,-0.078483455,0.042222265,-0.042915266,-0.026351402,-0.00925878,0.0006473538,0.0069491016,-0.026494076,0.055463307,-0.07782873,0.047246076,-0.17248848,-0.034313597,-0.060183875,0.048797354,0.14093544,0.06052469,-0.06192668,-0.08803486,-0.059497923,-0.15829928,-0.32018226,-0.72787726,-0.5864088,-0.3331316,-0.16009651,-0.08234652,-0.0572905,0.016443891,0.0045066434,-0.0057941754,-0.04094112,0.104405664,-0.004745131,0.00095391227,0.028136428,0.024344623,-0.08582907,-0.09285909,0.06732027,0.0081213545,-0.007981731,0.15963256,0.052674912,-0.1432129,0.044064272,-0.00023979403,0.03583735,0.058692202,-0.13149545,-0.61446387,-0.4133856,-0.100345895,-0.0060451888,-0.027382597,-0.085190244,-0.060529463,-0.08797502,0.044019748,-0.074445955,-0.012589319,0.0112726325,-0.06074238,-0.051644254,0.00008541893,-0.0042534764,-0.08940945,0.0058465763,-0.044680726,-0.01158279,0.03889349,0.08300732,-0.051270135,0.087484464,0.27396598,0.12982881,-0.0059732855,-0.325118,-0.26766858,-0.36291793,-0.041029878,-0.053795427,0.050643384,0.14892879,-0.04538971,-0.015116746,0.040094342,-0.017964639,-0.057825215,-0.09650383,0.0076647373,-0.05026871,-0.05201855,-0.09916715,-0.02139712,0.01781232,-0.11863559,-0.090261355,-0.0478748,0.034197323,-0.20490724,0.022713786,0.26680562,0.03775925,-0.27621257,-0.3509727,-0.35283172,-0.28613356,0.061428905,0.011982625,0.15559223,0.000276562,0.017049372,-0.07040296,0.010682137,0.010613446,0.08273836,-0.03300784,-0.068926066,0.01138919,0.014955941,-0.010153659,-0.013814072,-0.11333147,-0.017831422,0.062478226,0.008723108,-0.0035964572,-0.0064261286,-0.21679692,-0.1280471,-0.06708918,-0.4201119,-0.36171484,-0.21175417,-0.02395192,0.19983588,0.15817274,-0.053183418,-0.029009726,0.03365319,0.0013491283,0.050255425,0.012815194,-0.111145444,-0.065951355,0.047385436,0.04167323,-0.07690441,0.015102378,-0.11969316,-0.0026523038,0.12802076,0.08595791,0.19700636,0.2183547,0.06262308,-0.27293214,-0.23311745,-0.48639226,-0.6272723,-0.23170826,0.03523668,0.050021823,0.11475352,0.03427418,0.029320955,0.15497003,0.1055069,0.035959646,-0.024342008,0.06192292,-0.053110793,-0.046193123,0.0033926147,0.023309732,-0.044844124,0.024536349,-0.029409138,0.069865495,0.23187827,-0.032900278,0.009423311,0.15155171,0.13593623,0.11744795,-0.05067166,-0.15684997,-0.18915847,0.026369097,0.030663645,0.16200924,0.08783404,0.117140464,0.073806904,0.043187596,0.09298342,-0.0913582,-0.07232086,0.032131102,-0.0073516117,0.015934426,0.0018364016,-0.008284025,-0.026217852,0.026483012,0.037340682,0.021780549,0.080309175,-0.13379166,0.013752498,0.31826246,0.21479557,0.0984027,0.24056531,0.11728309,0.18800887,0.23621114,0.15028794,0.04298957,0.0026036121,-0.03745936,-0.12262591,0.08514396,0.032104045,-0.006806229,-0.042940114,0.07348494,0.032916546,0.03534977,-0.013764021,-0.027478343,0.03687169,0.11059061,0.075480476,-0.003739003,0.004139031,-0.102400824,0.16553052,0.24734776,0.1835766,0.20540348,0.33998856,0.27469224,0.54240483,0.34971252,0.20434435,0.09288068,-0.110130645,-0.13402176,0.07118718,0.10022477,-0.047714867,0.092345394,0.004297365,0.023739474,0.001926007,0.0102679655,0.02901722,0.08406686,-0.04526217,0.042150576,0.058441125,0.08822796,0.03778767,0.020902619,0.1922489,0.23755863,0.14120162,0.4398014,0.3477284,0.17655572,0.27889913,0.22809792,0.23909247,0.10581327,-0.07578599,-0.0213237,0.033013575,-0.056213457,-0.0005630063,0.112363495,0.06445205,0.02087687,0.04501266,0.010583279,0.04257712,-0.06812696,-0.0062996093,-0.04344712,0.04345362,-0.015105927,0.16997305,0.091468014,0.2612325,0.16159518,0.17729436,0.2657013,0.21671359,0.08134141,0.09918786,0.16336341,0.04752094,0.09434397,0.03060238,-0.121548355,-0.041199207,0.028872766,0.05037417,0.04515172,-0.047281157,-0.013945566,0.08035763,-0.023915812,-0.024726458,-0.046163905,-0.05391782,-0.021851912,0.050130144,-0.004645304,0.09585089,0.012492005,0.13519357,0.30344787,0.14384215,0.17159733,0.11763181,-0.010015967,-0.0152280545,0.10131256,0.045615636,-0.019805646,-0.053038478,-0.1150236,-0.07225345,0.006930935,0.0030323397,-0.003246539,-0.042704444,0.030245831,0.009825401,0.017984305,0.00987189,-0.11834939,-0.0157451,0.110554375,0.00639286,-0.08503878,-0.027277173,0.02245993,-0.03500222,-0.053490758,-0.0012516493,-0.06387569,-0.04163997,-0.13770288,-0.11089768,-0.16111484,-0.15147176,-0.06171556,-0.07597302,-0.0536649,0.053237263,-0.06498056,-0.14017561,-0.0703058,-0.0015086929,-0.008631112,-0.0011961359,0.11047608,-0.07714894,0.023880837,-0.021949038,0.03989296,-0.026264641,-0.024233887,-0.024342708,0.012957878,-0.014817215,-0.07152282,0.02767395,-0.10222461,-0.043668635,-0.08228845,-0.045338176,-0.07690043,-0.025079532,-0.03895785,-0.053175367,-0.041340545,-0.019596461,0.03303507,0.04201631,0.02009601,-0.0049705342,-0.020806642,0.046123635,-0.12457895,0.01248991,-0.06484261,-0.07028359,0.031020248,-0.10035135,0.047453728,0.005810045,-0.09428321,0.067159384,0.004166709,-0.018203659,0.007326016,0.10770795,0.0007803077,0.012604213,0.0032370845,-0.1470476,-0.0041442993,-0.026642278,-0.044675358,0.0005095872,0.047394495,0.08936974,0.04518667,-0.029136436,-0.02187466,0.031832784,0.05380683,-0.017884517,-0.017271364,-0.05381524,0.08875462,0.018016392,0.0051470995,0.005571131,0.02287282,0.062441934,-0.037637632,0.0086744195,0.028076457,0.031681,0.044828653,0.04955184,-0.0033277408,0.0725956,0.052274503,-0.0011824276,-0.022585226,0.066657476,0.08456012,-0.012282913,-0.0019359223,-0.104387835,0.00009680417,-0.02306082,0.07341742,0.036885254,0.067723,-0.08378702,-0.0050047836,-0.102904096,-0.018194074,-0.03244391,-0.07096068,-0.018811569,0.035742484,-0.05433148,0.04086148,0.01260851,-0.008832695,-0.10713645,-0.04958741,-0.032522704,0.002835502,-0.049498912,0.052561216,0.027358308,0.07592073,0.033972718,-0.013390156,0.019700097,0.019807393,0.034780636,0.01126918,0.01613297,0.006471853,0.0038219632,-0.081473164,0.0102491025,-0.038872942,-0.00028339188,0.06782098,0.019853719,0.05256118,0.028961683,-0.006687299,0.050621085,-0.07932794,-0.032622363,-0.07010152,-0.045045074,-0.0130252885,0.0030128148,0.024360087,-0.005650139,-0.110345855,-0.012537416,-0.08691375,-0.046464596,-0.032853507,0.050076425,-0.11977019,0.028034136,0.058548488,-0.051625904,0.06484705,0.08231097,0.020386493,0.0015554596,-0.03876824,0.059385523,0.11402742,-0.07820806,0.060441677,-0.07197809,-0.0609085,-0.061840277,-0.12626174,-0.14234217,-0.016381504,-0.041432317,-0.0050439597,-0.018960161,-0.10143195,-0.017147977,-0.007210526,-0.0143675,0.05449952,-0.0050818315,-0.05930302,0.018521583,0.0031070325,0.007843152,-0.061359398,0.08603369,0.064934276,-0.102634095,-0.010903114,0.055699077,-0.018650228,-0.03651325,-0.046176195,-0.056181077,-0.08797938,-0.06612684,-0.12315749,0.039028917,0.10988888,0.078232534,0.0721711,0.07127112,-0.08116638,-0.0027206086,-0.042524185,-0.033936676,-0.010127952,-0.06105164,-0.007905297,-0.007667604,-0.054635786,-0.0014430785,0.024071941,0.054320358,0.023562577,0.0770802,-0.04756951,0.001883094,-0.033310935,-0.025104238,-0.053067096,-0.04144523,-0.0005298818,-0.0039546867,-0.07900675,0.03842297,-0.005448356,-0.040687833,0.0081597995,-0.17656277,-0.076104045,-0.08538996,-0.06535931,-0.02191698,-0.001674067,-0.034212027,0.005816322,-0.03548257,-0.04322133,0.047146995,0.00020692537,0.077708766,-0.042617135,-0.023513291,0.06535078,-0.01919572,0.04732178,0.010598483,-0.012467464,0.07248824,0.08785676,0.040969685,-0.03718908,0.05426655,-0.02102714,-0.016844617,0.13290429,0.013600651,0.08741082,-0.009235706,-0.079519145,-0.0513019,-0.072486155,-0.05764347,0.05614467,0.007405969,0.03769096,0.015349455,-0.018971436,0.07375436,-0.05275444,0.015893463,-0.045300834,-0.05325103,-0.022417936,-0.015831145,-0.06648809,0.023767572,0.049297854,0.06915724,-0.028212404,0.09010954,0.03746232,-0.052452616,-0.06947108,0.05964631,-0.0048001725,0.12619379,0.019627094,-0.057991955,-0.13421562,-0.053432506,-0.057073582,0.014869549,-0.0049297246,0.09255907,-0.08144771,0.017334953,-0.0821328,-0.044007543,-0.021610972,-0.04172657,-0.047077745,-0.061108068,-0.07269829,-0.02737217,-0.070622526,0.00052411534,0.09014085,0.0775074,0.008172589,-0.102283515,-0.068549626,-0.10440915,-0.058896016,-0.08800866,-0.106724374,-0.013278755,0.0048150215,-0.020312993,0.0027435552,0.01963697,-0.026749559,0.015544003,0.015460952,0.035489377,-0.025643472,-0.014560962,-0.03888352,-0.011205214,-0.04282194,-0.082784325,-0.08220725,-0.07360591,-0.18084931,-0.013928172,0.117454946,0.15065767,0.04385408,0.043872923,0.027796963,-0.039282046,0.061439738,-0.09995077,-0.06829245,-0.024808206,-0.010629754,0.009793011,0.026084818,0.045613173,-0.045423016,-0.10501299,0.005771819,-0.04008899,-0.05629016,0.031287465,-0.02884545,0.10073982,-0.06409843,-0.1351803,-0.1518431,-0.13081019,-0.09873311,-0.07461845,0.14115547,0.18887372,0.04782747,0.047098543,0.07844588,0.24021623,0.12752911,0.03370989,0.014062373,0.054620218,-0.06705014,0.04499217,0.05968827,0.08023015,0.003512815,-0.005214302,-0.010235417,-0.058525596,-0.067926295,0.005110444,-0.014003732,-0.017921343,-0.03628163,-0.03071068,-0.082401685,-0.11273712,-0.038719244,0.05614978,0.17786807,-0.026185902,0.023955354,0.10486131,0.10131556,0.20848483,0.13606682,0.07941915,0.11775919,0.019743012,0.037755333,0.0023259341,-0.062314007,-0.0979738,0.035372943,0.027282868,-0.03261093,-0.019231664,-0.09571517,0.023114592,-0.06371049,-0.08994072,-0.03515802,-0.17451692,-0.03747163,0.0065379147,-0.002374363,0.069987506,0.107408606,-0.05102552,0.01328288,0.060344435,0.029737178,0.0819622,0.08827119,-0.04175991,0.0476226,0.044739936,0.00032356032,0.03511854,0.01379807,-0.057375927,0.029378626,-0.09386884,-0.064009786,-0.032851927,0.0404862,0.040958326,-0.00992664,-0.08565468,0.018696314,-0.0049946546,0.023022242,-0.010769329,0.16924854,0.042284288,-0.07498271,-0.10987445,0.009939825,-0.012779948,0.089918174,0.056338143,-0.027065054,-0.17326133,-0.04233491,-0.030498238,-0.09873933,-0.022763213,-0.0043352097,-0.04768142,0.004290843,0.045967747,0.013202301,-0.06310486,-0.030129872,0.033025622,-0.019315157,0.08069567,0.08634683,0.044298857,0.05803123,0.10299386,0.075780906,-0.109290175,0.049253322,-0.04552532,-0.0108802905,-0.011371742,-0.007901571,0.022987494,-0.03440762,-0.04199173,-0.106348336,-0.043266986,-0.013129712,-0.06769177,0.02107992,0.038461607,-0.025180623,0.015384515,-0.022032056,-0.03654051,-0.011505641,0.039104965,-0.02540184,0.034674022,0.05543782,-0.10288993,0.015550995,0.122262225,0.06623913,-0.14785087,-0.110010274,-0.13024318,-0.055053674,-0.049502477,-0.06339454,-0.015832683,-0.020349616,-0.040052447,0.012613582,-0.14018053,0.021810409,-0.054008044,-0.07843213,-0.12066118,0.012167963,-0.072980866,-0.0049036816,-0.07735981,-0.04467074,0.073341005,0.0439433,-0.02701686,-0.08410695,-0.014105281,0.088915266,0.21827091,0.08922629,-0.12802505,-0.10864036,-0.009304581,0.009190821,-0.15716527,-0.0053403974,-0.07857301,-0.027433978,0.008889674,0.011480308,-0.07834793,-0.036759175,0.035071462,0.0159464,0.07502704,-0.12889823,0.080506474,-0.043856736,-0.024954421,0.04315767,-0.033088945,-0.060483236,-0.046780765,0.044826668,0.056623112,0.15260579,0.23454404,-0.006551032,-0.2562071,-0.12543786,-0.11466379,-0.15914562,-0.057882972,-0.1099629,0.040474407,-0.045638874,-0.011571105,0.0992281,0.051237,0.011684892,-0.01760569,-0.034697626,-0.03595521,0.013609442,0.04160494,0.014327249,0.046611242,-0.020346029,-0.12847154,-0.043456256,-0.020489182,0.02908829,0.12864316,0.3081247,0.17087215,-0.09945603,-0.36245352,-0.149578,0.023802625,-0.115763634,-0.027528597,-0.08575528,-0.1336416,-0.003551465,-0.041570954,-0.0031922406,-0.064519085,0.10986401,0.10834259,-0.021394491,-0.058782358,0.058971275,0.0037064974,0.01643017,0.054628685,-0.020235667,0.044218153,-0.015313298,0.07521277,0.08558164,0.06135366,0.2691157,0.14089422,-0.23312064,-0.37049887,-0.22172861,-0.11808534,-0.042791277,-0.12961681,-0.04961397,-0.04597111,-0.0727903,-0.052983787,0.0070889248,0.056979403,-0.012196275,0.042972352,-0.044596102,-0.02627696,-0.017821586,-0.07949092,0.027456772,0.008509085,-0.033933047,0.05753266,-0.06861438,-0.045573287,0.06862658,0.20235685,0.21673629,0.043026004,-0.22973636,-0.2729764,-0.24616212,-0.06652623,-0.19246319,-0.12853666,-0.09174335,-0.041519444,0.023231974,0.028153928,-0.04959913,0.013881912,-0.03105363,-0.04719796,0.041264027,-0.042820547,0.0353424,-0.05385246,-0.033395614,-0.020397762,0.104654774,-0.034339838,0.0246589,-0.0023308406,0.14324205,0.16232201,-0.0042239306,-0.075376436,-0.25021926,-0.22941335,-0.16599533,-0.13815416,-0.1396816,-0.11666547,-0.032482445,0.12426054,0.13926205,0.030248001,0.0065311384,0.04923535,0.12932238,0.04504101,0.029461948,0.040226106,-0.11742582,0.030021293,0.002388864,-0.062862724,-0.012060368,0.11297374,0.09503048,0.08158934,0.15079767,-0.025304435,0.072899595,-0.042422604,-0.24695146,-0.1661906,-0.1764225,-0.17117725,-0.16232347,-0.042011783,-0.016501788,0.038021076,0.004151243,0.13264672,-0.010930968,-0.009075723,0.02749271,0.07188681,-0.07059866,-0.0503542,-0.034178782,0.016413912,0.01699777,-0.055154484,0.024883764,0.15687983,0.096963145,0.07712898,0.08541773,0.06409707,0.23008052,-0.029162616,-0.22584231,-0.1628151,-0.034427486,-0.13337211,-0.17138682,-0.09938648,-0.057874203,0.048410285,-0.0072643273,0.037693005,0.017465713,0.053791635,0.09595588,-0.03874874,0.011829415,0.022517322,-0.04583892,0.024274146,-0.009647345,-0.018169004,0.121673405,0.050667062,0.021390803,0.14034778,0.09093639,0.05711167,0.0401193,-0.16881582,-0.07798484,-0.09782329,-0.059261333,-0.0723192,-0.078425005,-0.012887657,0.05228305,-0.06732987,-0.08465009,-0.02679504,-0.081509106,0.11673545,0.01568979,-0.019745082,0.043034304,-0.01613553,0.016812488,0.084830336,0.08009555,0.12348216,0.108074114,-0.11348557,-0.027835194,0.0740032,0.06490323,0.0022721107,-0.09480878,-0.05828402,-0.01643574,-0.054728057,0.04086095,-0.12109652,-0.04543626,-0.05768319,-0.005541512,-0.09005189,0.007621934,-0.03419196,0.053622548,0.031029083,-0.009014211,0.053985402,-0.0015461773,-0.060638856,-0.073562376,0.017617607,-0.027856791,0.011278652,-0.08773917,-0.012351358,0.07800185,-0.006649625,0.072059505,0.04966737,-0.013894239,0.04665701,0.0023846547,-0.021724017,-0.01228233,0.018177588,-0.025342196,0.045300595,0.08732079,-0.032800384,-0.062416516,0.00879533,-0.008121564,0.0147341415,-0.075059995,0.0018121774,-0.04388088,0.05802742,0.018013136,-0.0065386156,0.07326251,-0.023033861,-0.0042996197,-0.056926385,0.0044397553,-0.06263612,-0.010943011,-0.052560844,0.031494513,-0.041503366,-0.005592296,0.017117074,-0.022499386,0.067173675,0.06254985,-0.01934971,-0.0037300643,-0.0018583515,0.04053985,0.025751136,0.017305983,0.051585414,0.01690432,0.0041202744,-0.050166465,0.063193604,-0.08149112,0.013929434,-0.0000039276943,-0.06869611,-0.09733589,0.07646563,0.01248097,0.0392285,-0.01866191,0.029800499,0.05361068,-0.14318757,0.021042313,0.06856005,0.023980899,-0.017041381,0.018956065,0.06367194,-0.02006025,-0.0050365357,-0.0134500135,0.09165289,0.03755734,-0.06469583,0.024297606,0.027223643,-0.0017695456,-0.041538846,-0.058341958,0.062032804,0.004671474,-0.0027758144,-0.09226756,-0.0038380662,-0.033949994,0.020043982,-0.061574265,-0.0013048985,0.000013122767,-0.06335706,-0.06837514,-0.037835553,0.026212115,0.03991167,-0.017586315,0.025459578,-0.0699188,-0.02246195,0.037676618,0.041660786,0.01926347,0.018618695,0.03879169,-0.014459336,-0.05840194,-0.10572545,0.057411462,0.043882996,0.05052867,-0.039464816,0.09330507,-0.010275031,-0.066316836,0.031049179,0.061014038,0.10036846,-0.04177331,-0.040709358,0.023696655,0.024175795,-0.06426925,-0.022493415,0.0075296434,0.0903601,-0.017253906,0.046042576,-0.015504692,-0.08503381,0.041119393,-0.08092125,-0.037123986,-0.019172324,0.054148614,0.015354747,-0.03539263,-0.00585975,-0.06374302,-0.0249858,-0.03295535,-0.020798296,-0.06739117,0.045350328,0.030689234,0.030027363,-0.009798878,-0.06754784,-0.04514504,-0.0009902004,-0.0017712341,-0.05244259,-0.019547423,0.07790911,0.04860159,-0.035951633,-0.0007305636,0.043178834,0.03478091,0.02636828,-0.037869304,0.053148404,-0.06050002,0.018122045,0.11362312,0.000089782254,0.12003665,0.008548044,-0.016465094,0.07484193,0.04488126,0.02408821,-0.012521392,-0.080032185,0.034385193,-0.04164156,-0.08032685,-0.022451982,0.014712132,-0.016225873,-0.029994814,0.011351527,0.0517845,0.01406193,0.006642783,0.03906561,0.019678354,-0.06114491,-0.023544637,0.03277867,-0.05708389,0.009657638,0.0121181,-0.0023204098,0.01601248,-0.030668158,-0.061934657,0.0034527963,0.0051368326,-0.14180282,-0.023091655,-0.013904453,-0.023511462,0.057953734,-0.02637606,0.03975784,-0.052501198,0.038189776,-0.070696436,0.008563785,-0.011111815,0.010949012,-0.056150243,-0.044732023,-0.12352047,-0.073461205,-0.02780477,-0.0011238678,-0.025940133,0.035179377,-0.059279397,0.03059095,-0.04205568,-0.09165834,-0.07432277,0.02207326,-0.003591054,0.0040576304,0.037346937,0.13580449,0.23899035,0.29960957,0.18545392,0.058468204,0.00734073,-0.10396053,0.0036657902,-0.04189836,-0.107923314,-0.010877873,-0.036757242,0.013974013,-0.0113660805,0.06180531,-0.06574944,0.06312081,0.048313674,-0.018800547,0.034300853,0.016495982,-0.09087945,-0.0076788855,-0.04322188,0.043068573,-0.020031324,0.013907098,0.11551188,0.05233446,0.21938603,0.0051978314,0.07953328,0.019883987,-0.0006115149,-0.105489306,-0.08589525,-0.096827514,-0.083414085,-0.050030705,-0.015882423,-0.06914303,-0.09530225,-0.009349034,-0.0281519,0.0736496,0.026112327,-0.06295427,-0.021703849,-0.052550413,-0.11377655,-0.019616935,-0.09070745,-0.03179983,-0.040995106,0.01593324,0.15561649,0.112950265,-0.040367205,-0.06161686,0.0017960197,0.033838302,-0.09541528,-0.14791064,-0.057217043,-0.077501684,-0.03657601,-0.030964082,-0.006206474,-0.045307085,0.023699833,-0.04592907,0.027856665,0.0033786995,-0.05767498,-0.027598243,0.0017342628,0.03994176,0.06372584,0.024519634,0.035723653,-0.00455621,0.0644777,-0.0025464774,-0.060135975,0.11321464,-0.052665673,-0.03911062,0.048037972,-0.012488431,0.10579193,0.049087793,-0.0721759,-0.06863922,0.0131768705,-0.10061302,-0.117639236,-0.053035337,0.011443891,0.027057841,0.025357245,-0.09122199,0.062275812,-0.02744625,-0.053484417,0.031169878,-0.0068679284,0.042585686,-0.03901573,0.065246455,-0.025400609,-0.055848546,-0.017837783,-0.2168289,-0.15281111,-0.054183424,-0.07108001,0.025680127,-0.049423013,0.048649352,0.058844607,0.078879,-0.02867974,0.021026606,-0.038346156,-0.082313955,-0.024507588,-0.10703848,-0.0166067,0.013910355,0.06732314,-0.006204281,0.019979158,0.071505316,-0.06159938,0.044923484,0.050592504,0.017886052,-0.065049164,-0.08877387,0.049981184,-0.100033164,-0.17423172,-0.13410166,-0.03776876,-0.028038409,-0.13282628,0.03367222,0.09403555,0.041982606,-0.0841415,-0.03674214,-0.06966335,-0.06340784,0.003304621,0.1011265,-0.060424376,-0.078753315,-0.034500137,-0.07115053,-0.039421957,-0.04707831,-0.04026608,0.06361204,-0.039218746,0.041564707,-0.003138378,-0.019434089,-0.10621423,-0.02726797,-0.18794863,-0.19098523,0.004025765,-0.007965077,0.011227468,0.07019019,0.02123374,0.010082202,-0.009126936,-0.020022886,-0.015599055,-0.020362845,0.017343292,0.03516257,-0.0295785,-0.04215655,0.019297166,0.026961472,0.030866452,0.04448626,0.026720528,0.030666318,-0.0009992268,0.0022754478,0.0065000854,0.015653338,-0.0061942535,0.02995405,-0.021695608,0.05274876,-0.04401481,-0.045526467,0.09881939,0.06964108,-0.026173243,0.10098623,0.13071832,-0.032583334,-0.067561366,-0.020175096,-0.019166559,0.07141757,0.026002243,0.056481607,-0.09392196,-0.013877866,0.07215611,-0.124280736,0.010171208,-0.045022637,-0.004201851,-0.094824746,0.034770925,0.05774097,0.009042507,-0.04592264,-0.046243668,-0.046229675,-0.038856048,0.044696763,0.038879164,0.0771232,-0.002283264,0.040337183,-0.0097846445,-0.048682865,-0.012938921,-0.076426126,-0.0029973867,-0.016820392,0.053388596,0.022864232,-0.020719448,0.06140614,0.124273665,-0.05837251,-0.048740778,0.09163602,0.09512164,0.05722642,0.02559845,0.063224696,0.04040179,-0.012432825,0.09389235,-0.07957309,0.060586467,-0.014624485,0.027346162,-0.0067048953,0.011723126,-0.10222318,0.1341736,-0.044156753,0.007310233,0.05614158,-0.10221924,-0.0627437,-0.027155427,0.0014120636,0.0064569092,-0.024530707,0.08422656,-0.015140457,0.1371569,0.05372163,0.0047394307,-0.05637689,-0.062003225,-0.012598028,-0.0038184824,-0.02801572,0.10266188,0.035861462,0.060127832,-0.061709765,-0.026954824,-0.049576547,0.032211762,0.07120575,-0.07989105,-0.04599759,-0.061167233,-0.086507544,0.029192036,-0.009241508,0.05273995,-0.042891923,-0.08149686,0.110167734,-0.03843948,0.030677339,-0.01705197,-0.03623654,0.023985732,0.015043218,-0.07256756,0.11515605,-0.0028099436,-0.0039651357,0.040531892,0.0026240798,0.12080977,-0.045360457,0.07406645,0.01000404,0.013177351,-0.0763339,0.0052659786,0.024094313,-0.03517183,-0.06976732,-0.052534506,0.027347915,-0.075674936,-0.061379336,0.0031514184,0.04039176,0.08794627,0.10718637,0.036550064,0.07698645,-0.012298079,0.066436954,-0.0176203,-0.07572285,0.02971719,-0.0038118556,0.09558115,0.04548563,0.022132246,0.045101307,0.06464263,-0.091607496,0.001177717,-0.098477624,0.011287789,-0.047921836,-0.024626499,-0.013254826,0.028378882,-0.005994544,0.015058103,0.0006972902,-0.01579397,0.06284711,-0.026502106,-0.043722134,-0.0004152393,0.058868255,-0.0053444616,-0.025014149,-0.016960835,0.05971023,0.0063201,-0.046805695,0.07664091,-0.0066543366,0.06089914,0.103819445,-0.03553653,-0.1403948,-0.20987599,-0.073566504,0.019339886,0.07582284,0.023202656,0.0777745,-0.08280649,-0.031043695,0.013401874,-0.036860894,0.020703524,0.027491607,0.08730061,-0.096595466,-0.034247138,0.047536023,0.024416192,-0.0062984857,-0.024442976,-0.0014531547,-0.042237088,0.07927653,0.017606614,-0.057552658,-0.058602512,-0.07159139,-0.006724955,-0.083907954,0.0005543306,-0.010513639,-0.019863626,0.0011011296,0.04651693,0.05292323,-0.05323243,0.0875037,0.067536205,-0.02644028,0.056679808,0.024727987,-0.06576673,0.055705976,0.01832458,0.043063406,-0.06945125,-0.07274137,-0.08758663,-0.009746493,-0.113303624,-0.052476466,-0.055414844,-0.03686437,-0.06338832,0.041249037,0.0033480634,-0.013129709,-0.062054407,-0.064072296,-0.035314586,-0.0020625072,-0.043810055,0.016438635,0.013100241,0.0333642,-0.022151299,0.059255008,-0.09486325,-0.072764404,-0.019634489,0.02166782,0.016644346,0.08408353,0.093624495,0.066782355,-0.0777592,-0.054200087,-0.07921952,-0.08351802,-0.18238714,-0.10771753,-0.009398421,0.034869403,-0.058392894,-0.09766238,0.024704812,0.1615246,-0.055885676,-0.06692538,0.07423484,-0.0045893528,-0.041229136,0.09530541,-0.03366416,0.09372829,-0.040179126,0.022737006,0.037465796,0.018760638,0.032106593,-0.018741062,-0.0062399087,-0.040220853,-0.1095299,-0.012027756,0.057782695,-0.1095154,-0.07019295,-0.030716114,0.027099514,-0.042654473,-0.021396864,-0.070451744,0.062406443,0.17016785,0.014653916,0.13142279,0.07125185,0.12128775,-0.0138948755,-0.031467557,-0.005402409,0.015609481,0.0641789,0.029391553,0.060989592,0.05620204,0.027375739,-0.1108925,0.05862237,-0.029471017,-0.050572272,0.007140866,-0.051513966,-0.06384192,-0.03076581,-0.051198132,-0.047503214,-0.05907692,-0.052936506,-0.012027826,-0.023869256,0.09211456,0.049948603,0.037675492,0.036228854,-0.000017859373,-0.06429708,-0.07108345,-0.0706416,0.02208796,-0.0068769027,0.018936554,0.047316216,0.048137285,0.00030145826,0.029785626,-0.031401426,-0.03360168,0.0072734323,0.018443553,-0.023616869,-0.059252393,0.023234928,-0.10316462,-0.011362366,-0.007857628,-0.18078369,-0.111714594,0.084408484,0.07843738,0.0331746,0.10406052,0.015790783,-0.020171301,-0.039317224,-0.049653627,0.024375832,-0.0062367176,-0.004072114,0.074038245,-0.08034844,-0.056765813,-0.015987482,0.014927453,0.00810353,-0.043622755,0.0631832,-0.06532185,-0.03485497,0.015286972,0.0008428344,0.003915039,0.07445373,-0.08857662,-0.0621943,0.058972362,-0.10122942,0.074223295,-0.0062263454,0.09178392,0.043869406,0.07767644,-0.036933996,-0.041675285,-0.008671102,0.033376064,0.08865236,0.014941667,0.014913167,-0.09483138,-0.08656643,0.0067966883,-0.03316257,-0.061234836,-0.017865198,-0.09552783,0.0919617,0.12718987,-0.015092007,0.019760171,-0.053302206,-0.017641531,0.14280455,-0.06877383,-0.003269006,0.02853763,0.019666448,-0.07991786,-0.028379891,-0.07083199,-0.037956025,-0.020702273,-0.03483105,0.0033847664,-0.0588637,-0.03692312,0.04585008,0.01782108,0.019747036,-0.049912117,0.04636287,-0.014764775,-0.031800166,0.07421579,-0.03508666,0.028097115,0.015852852,-0.043895893,-0.017260168,-0.044074625,0.016116707,-0.14649488,0.09753463,-0.017027307,-0.03943986,0.048694436,0.026733104,0.016077735,-0.03196362,0.009768695,-0.10279939,0.07086271,0.061191346,0.024927646,-0.097472556,0.057252213,0.016965557,-0.007076942,-0.04784042,0.023150867,-0.016079081,-0.008624238,-0.101375096,-0.01095002,-0.020572694,-0.038639832,-0.08989846,0.035003193,-0.046579372,-0.050841603,0.042036228,-0.13442957,-0.048162732,0.032872476,0.013061558,-0.06990965,0.014190167,-0.062634796,0.0048973914,-0.062274504,0.04173997,0.03893994,0.0211293,-0.013517447,-0.05626369,-0.07509762,-0.008206584,-0.012763676,-0.0723995,0.03845364,-0.020266334,-0.0020609205,0.007482099,-0.02345618,0.020534238,0.064330444,-0.09395368,0.06956519,0.0055350517,-0.00071047974,0.046154775,0.028732542,-0.0051186234,-0.099563345,0.005598181,0.017377751,-0.09660678,0.084806025,-0.028012069,0.080827855,-0.029084215,0.056952942,-0.014010435,-0.02679789,-0.037482228,0.0034683542,-0.075158134,-0.006769137,-0.017459363,-0.006308184,-0.04848034,0.0010444261,-0.06825105,-0.07481143,0.022467257,-0.04869195,0.044340108,-0.011249172,0.028055511,-0.060296915,0.08506264,0.029153269,0.0012219758,0.016038435,0.01860893,-0.007777324,0.06627733,0.062410656,0.03168182,-0.030397091,-0.067218274,0.028768757,-0.027467173,-0.04816762,0.0043475064,0.007221782,0.044795565,0.069972984,0.046937324,-0.037347045,-0.082494214,-0.15443717,-0.13757753,-0.028336413,-0.009030507,0.10367883,0.08376626,0.07765168,-0.079618365,0.033672594,0.07361614,-0.029373363,0.05434781,-0.0001270359,-0.026165737,-0.0027116972,0.06745336,-0.017487273,0.064349875,0.027448237,0.10931481,0.0066337087,0.0096650785,0.0013357184,-0.002570713,0.28211412,0.06775382,0.03020649,-0.048780754,-0.2095064,-0.26929626,-0.17228052,0.041449655,0.076748475,0.20953703,0.12866017,0.02298605,-0.006368813,-0.008798263,0.03734734,-0.016092433,-0.03313637,0.04057248,0.01727199,0.021162946,0.09885429,-0.02304134,-0.11054189,0.024604753,0.12959188,0.08636358,-0.029028207,0.038839053,0.011608515,-0.08146715,-0.13509488,-0.13367216,-0.2204931,-0.24590482,-0.26585948,-0.06472713,0.1996512,0.21533866,0.21767382,0.04247716,-0.031248977,0.026136136,-0.023358492,0.06068168,0.013086123,-0.06422041,-0.0035335862,-0.07054242,-0.03906654,-0.005311718,-0.011358624,-0.0128881065,0.023810368,-0.055527456,-0.097102046,0.11493076,-0.01301694,-0.17353006,-0.19754826,-0.079901226,-0.18697193,-0.26457453,-0.024752108,0.14107947,0.17667122,0.1581361,0.13557081,-0.041250944,-0.056016225,-0.044273198,-0.063790455,-0.012368175,0.03112462,-0.03224673,0.020975586,0.026261102,-0.046848003,0.0008838195,0.010622031,0.08496486,-0.061823472,-0.19238535,0.018000996,0.028593935,0.023814244,-0.08766478,-0.0901946,-0.18990155,-0.31566402,-0.26377723,0.029250298,0.37767094,0.16166794,0.08913311,-0.116179146,-0.04481072,-0.052139077,0.022763062,-0.0769167,0.046626125,-0.0050829356,0.031489845,0.050209656,-0.033717558,-0.07905251,0.034270406,0.028194822,0.09721927,-0.056274917,-0.12008981,0.061278574,0.12374846,0.07402877,-0.05305451,0.0021263133,-0.25123975,-0.33621627,-0.235774,0.22113734,0.26764008,0.078258045,-0.08882931,-0.12116701,-0.091796614,-0.032389335,-0.04203976,0.03168189,-0.060589865,0.0395703,-0.02154821,0.006415743,-0.009926085,-0.07531387,-0.005547238,0.011058493,-0.004961202,-0.06814643,-0.06838339,0.16546899,0.13661557,0.08774079,0.01870603,-0.08471905,-0.26771194,-0.2231025,-0.13746426,0.18856142,0.34246355,0.15303597,0.02000374,-0.21417913,-0.06762625,-0.08461272,0.029807227,-0.12147688,-0.085811146,-0.0048017106,-0.0037811825,-0.01698539,0.09443845,0.04972395,0.07830822,0.04844713,0.0017490385,-0.048638403,-0.03673832,-0.011803731,0.05616132,-0.14115164,-0.05965397,-0.0832102,-0.281225,-0.2070985,-0.09988484,0.15895642,0.24293692,0.21598841,0.013627374,0.0255696,0.005320554,-0.03485999,-0.11243658,-0.0111030545,-0.018157944,-0.051229402,-0.018128568,0.03460818,0.00027627553,-0.0050154636,-0.013689575,0.011494275,-0.004671858,0.034431234,0.0073619653,0.0148954755,-0.11272918,0.079600714,-0.03694605,-0.20641826,-0.18730134,-0.19378905,-0.09018391,0.1847951,0.25263977,0.101155974,-0.0038746055,0.022156727,0.00436687,0.01627379,0.051005922,0.105230704,-0.07691214,0.041213118,0.0282157,-0.060031243,-0.01789309,0.08762621,0.0207269,0.07303038,0.009332737,0.018729469,0.022337638,0.022961093,0.03111336,-0.08362395,-0.05274515,-0.15346362,-0.06422176,-0.08534239,-0.020160927,0.15591913,0.16360563,0.040817548,-0.018662807,-0.010886795,0.08214791,0.11652494,0.12937015,0.017674392,-0.016204704,-0.04567744,0.08997695,-0.0033946778,0.0074646035,0.04330465,0.03444201,0.046923306,0.0150459595,-0.056899138,0.010950389,0.023583129,0.12775813,0.050259862,-0.026734043,-0.11969955,0.03007422,0.10937108,0.07660496,0.20764016,0.15439725,-0.011866186,0.038497716,-0.006381056,0.040694263,0.012261366,0.035159912,-0.006607322,0.038643274,0.019632274,0.023308715,0.017653598,0.023866259,0.06039772,0.03134552,0.07838275,0.10802143,-0.17799553,0.07320528,-0.0055235946,0.047224734,0.12081405,0.08212522,-0.046631925,0.11561005,0.1389869,0.19372053,0.079788014,-0.12356876,-0.036389235,-0.032100115,-0.08564638,-0.034890424,-0.035064433,0.025793627,-0.06259494,-0.017584734,0.07761842,0.0021397115,0.04270661,0.047690578,0.004531948,0.014123633,-0.031834435,-0.014806481,-0.034763757,-0.05251502,0.0023289782,0.09127415,0.019428944,-0.06781402,0.012363805,0.0122866165,0.19750983,0.0728749,-0.074668385,-0.045701694,-0.18345653,0.022842968,-0.036537204,-0.029912183,-0.028124355,-0.013512817,0.05510807,0.034907173,0.10056103,0.0052701402,0.032860387,-0.011858981,0.04014588,-0.007569453,-0.0062268074,0.012861439,-0.07665953,-0.03614659,-0.038372293,0.123109326,0.04884073,0.031339545,0.017387688,-0.11925268,-0.06209872,-0.078066856,-0.085506886,-0.28136963,-0.0863936,-0.10928791,0.00609152,-0.06895345,0.059100904,-0.007602531,0.05356583,-0.007146461,-0.07976064,-0.05483155,0.13653062,0.008027966,-0.056012593,-0.06264256,-0.054111842,-0.05495981,-0.084690005,-0.04003992,-0.10650481,-0.040865634,0.025229078,0.025341107,-0.027344717,-0.21207967,-0.13202417,-0.14293319,-0.16063593,-0.11299726,-0.06714078,-0.20365803,-0.16165482,-0.049981333,-0.066374734,0.06448154,0.07245107,-0.0082605425,-0.0027636196,-0.06226748,-0.016222449,0.015049096,0.045290615,0.044441223,-0.024933206,0.015975628,0.08119417,0.06307616,-0.029059734,0.011507672,-0.008232007,0.011858968,-0.05020152,-0.0033553676,-0.060513075,-0.0129953865,0.003985106,0.041323062,-0.019013181,-0.12390569,-0.08579756,0.04684767,0.062162694,0.052703753,0.11433385,0.023927204,0.111475505,-0.0712497,0.050605774,0.0543651,0.02812226,0.066211075,-0.046961054,0.02206049,0.048238758,0.07065379,0.054838177,-0.06409279,-0.00036966428,-0.008227126,-0.032968186,-0.0032142566,-0.06254206,0.01051048,0.040608086,0.113250464,0.07148137,0.11872877,0.0834266,0.07344419,0.11435123,0.14649811,0.012534055,-0.052394986,-0.015058662,0.022277705,0.040887866,0.05932497,0.0009059022,-0.049054153,-0.023760311,0.17317428,0.11463857,0.082806714,0.07171838,-0.010293415,0.04015044,-0.045345604,-0.09220398,-0.043288257,-0.053785913,-0.016827129,0.08828165,0.10393622,0.08884737,-0.018765766,0.051966522,0.12548041,0.0408007,0.067142956,0.15272076,-0.040158838,-0.08943111,0.10396216,-0.04686581,-0.021542631,0.042212892,0.0683958,0.054884177,0.11383155,0.13029143,0.08239498,0.0942491,0.013339202,-0.042765114,0.022293448,-0.0951409,-0.020787906,-0.055842698,-0.040932894,0.131491,-0.043279726,-0.109981604,-0.12861432,-0.029345345,0.005395786,0.042495154,-0.011676949,0.07086221,-0.00024783722,-0.026114728,0.040235363,0.059765104,0.0029377386,0.054593086,0.1062842,0.008921607,-0.045230832,-0.03753316,0.09212729,0.04290908,-0.021522986,0.09416969,0.014167461,0.052887533,-0.010792459,-0.026956754,-0.029292727,0.039655194,0.03912143,-0.074379474,-0.09393615,-0.14004269,-0.06249439,-0.059326023,-0.048232142,-0.10058637,0.01866915,0.04214605,-0.08939049,0.009646908,-0.042517077,0.00088942307,-0.06979297,0.0054756985,-0.13875447,-0.14776462,-0.04371491,-0.044354707,0.057647653,-0.06618829,-0.014151548,-0.013155347,-0.058391135,-0.11537176,-0.031716783,0.0339111,0.05205136,0.08746118,-0.015790183,0.053934984,-0.035845365,-0.025614683,-0.03853598,-0.062259957,-0.056047305,-0.00996741,-0.009179696,-0.085987605,0.022321885,-0.03821223,-0.015758041,-0.00868233,-0.093754806,-0.077821136,-0.03742427,-0.002748716,0.01061727,-0.06997573,-0.011710984,0.14155707,-0.0087739015,-0.033547938,-0.11329978,-0.037312478,0.03847802,-0.048630632,-0.050127316,-0.061117075,-0.055406954,-0.042393982,0.09741276,-0.062647775,-0.07482247,0.038725078,0.023953369,-0.11577802,0.09943928,0.069684215,0.012141813,-0.11266613,-0.014950849,0.03282899,0.012039799,-0.011573771,0.059707098,0.090679705,-0.048721645,-0.0035329766,-0.019952023,-0.039951134,-0.05022021,-0.13059615,0.00971504,0.026529334,-0.0129933385,-0.04616039,0.058398336,-0.045168225,0.059582636,0.035090372,0.031636346,-0.032125615,0.04015551,0.04493107,0.070415616,-0.027875394,0.032568794,0.015407083,-0.033677615,0.010929504,-0.082260855,-0.022877326,-0.11074423,0.08114031,-0.063136674,-0.012497398,0.028954795,0.08796098,-0.088191554,0.07951066,0.02013079,0.021897422,-0.078648426,0.06873005,-0.05938716,0.03899267,-0.055110622,-0.007724501,0.034511443,-0.051980745,0.035842106,-0.11318526,0.0014838424,0.058592066,0.043472297,-0.016915608,-0.038760986,0.059816655,-0.058603507,-0.03097782,0.02908063,-0.003164668,-0.044027347,-0.015315346,0.092639655,0.037667457,0.013146179,-0.010227882,-0.009914593,-0.01969402,0.009373093,-0.001429455,-0.022994157,-0.12083722,-0.064372115,-0.08665651,0.0015753034,0.07358101,-0.032933604,-0.02460108,-0.054621093,0.010267757,0.039548438,-0.023761008,0.07830076,0.016811363,0.037666958,0.019125815,0.0031856343,0.036167517,0.016847938,0.07797083,0.08633869,0.055056907,0.07615378,0.054141797,0.09931392,-0.040787283,-0.048572104,-0.0020322723,0.09811918,-0.07070351,-0.06837716,0.068373434,-0.042084545,0.0107569415,-0.0031942117,0.023848042,-0.0493127,0.0077290647,-0.0016859582,-0.01631621,-0.038106278,-0.002542244,0.09790394,0.06629885,0.0594724,0.0986676,0.038923517,0.18545686,0.1666299,0.083113946,-0.012226816,0.053052254,0.11850159,-0.016414309,0.02271145,-0.022809412,0.025983965,0.0059705856,0.06426662,-0.031905066,0.08558925,-0.0067052273,-0.0006915503,0.013927529,0.031928513,-0.14134075,-0.041092347,0.010496231,0.042342924,0.052916642,-0.024007471,0.036366843,0.12468541,-0.0030168726,0.07642826,0.024622794,0.18253553,0.10439344,0.10849599,0.12854506,-0.045956645,-0.10560095,0.050435644,0.0012980063,-0.11802094,0.00010865043,-0.0021640086,0.0042160857,-0.00055875187,0.065027975,-0.02858472,0.046463218,0.003994004,-0.082491174,0.008529886,-0.051944986,0.029665746,-0.05358834,0.03389682,0.0743789,0.056289766,0.11302223,0.13868913,0.1411428,0.12426223,0.31979626,0.06423136,0.057186745,-0.070744395,-0.15823962,-0.23573174,-0.14578915,-0.13300371,-0.123006225,-0.11938369,-0.13154075,-0.04880759,0.043266963,-0.045627233,0.008964646,-0.05779213,-0.100594945,0.105385624,0.050127804,0.002270051,0.056372736,0.060497474,0.014523491,-0.023325142,0.08790145,0.09927964,0.0819688,0.23771286,0.1821815,0.15692255,-0.013224741,0.0027416144,-0.08859013,-0.13705023,-0.13280426,-0.13198799,-0.24710925,-0.07749472,0.029755283,0.010595385,0.0123174,-0.04392885,0.05722599,-0.11885712,-0.011197629,-0.008650321,-0.01096131,0.004865498,0.028098846,0.024925757,-0.118468486,-0.058629457,0.16364202,0.40707436,0.31454593,0.34782594,0.044353668,-0.12839262,-0.12302504,-0.18943039,-0.3010862,-0.18061836,-0.23396267,-0.145411,-0.1958778,-0.064562045,0.0102351885,-0.10412241,-0.07983756,-0.019306509,0.018502928,-0.028239578,0.009382459,-0.08433319,-0.040442,-0.09633144,-0.1759237,-0.024608044,0.0026232365,0.05110429,0.15746816,0.34153196,0.29268143,0.28036553,-0.15170678,-0.40512577,-0.1472677,-0.28005424,-0.44194588,-0.25159252,-0.13692302,-0.07169282,-0.1465212,-0.27287436,-0.11879435,0.0078982245,-0.034696277,0.08635154,-0.046532564,0.060644507,-0.03401808,-0.014979989,-0.09086472,-0.061102707,0.020453047,-0.095305555,0.17179057,0.22735769,0.20193635,0.36257187,-0.011073686,-0.12916492,-0.23561847,-0.3226712,-0.3371969,-0.21507993,-0.25025213,-0.04800153,-0.1848587,-0.017862322,-0.1213494,-0.2027085,-0.0993858,-0.055472497,-0.0114631,0.014661955,0.036816437,0.03164112,0.015869627,-0.07908149,-0.05626032,-0.012175898,0.09411737,0.08255638,0.076936625,0.046162426,0.2199801,0.12210265,-0.096201144,-0.31442654,-0.21343876,-0.11450934,-0.19770402,0.04608317,0.1265061,0.086091004,-0.17076653,-0.16335765,-0.09740125,-0.14073151,-0.04467831,-0.089135125,-0.057853393,0.0061781607,0.0018883842,0.049508963,-0.06825705,0.06228269,0.05062996,0.08916049,0.041951973,0.06267077,0.028042477,-0.028625432,-0.10959737,-0.22293642,-0.36369878,-0.21621872,0.026222218,0.021897065,0.12129417,0.12894444,0.32400668,0.13638663,0.09912575,0.106043346,-0.13806392,-0.00086956576,0.12370998,-0.015027323,-0.02334474,0.022859234,0.039091244,0.0059890375,0.0018107474,-0.084824614,0.03643843,0.1130624,0.06949072,0.075428724,0.06879245,0.035825107,-0.17537914,-0.17743532,-0.15265383,-0.0060554747,0.16339955,0.21406935,0.3106821,0.13725543,0.21825469,0.20383409,0.15476835,0.06466858,-0.07306052,0.079771765,0.06507352,-0.07803661,-0.002145534,-0.082964346,0.10092787,-0.092265025,0.00096945016,-0.064440496,0.09177792,0.114232995,-0.061117567,0.08862606,-0.07217285,0.028431123,-0.1415345,-0.15785205,-0.14251009,-0.06934218,-0.08052288,-0.0063033355,0.090872355,0.115092814,-0.15314288,0.12515597,-0.15848659,0.056901366,0.023306204,0.041054994,0.09620426,0.09503913,0.008472118,0.025753347,-0.00474348,-0.10932367,0.02966919,-0.056618832,0.016676726,0.019360995,-0.073916085,0.03629997,-0.07566812,-0.07645801,-0.03328361,-0.08340987,-0.18698706,-0.231863,-0.090538554,-0.062191676,0.18091393,-0.029867172,-0.18650225,0.13541144,0.01973421,-0.025607657,0.066525266,0.17780006,0.0973098,0.079688005,-0.023219302,-0.025506092,0.06119636,-0.020885028,0.024439858,-0.035760723,0.035262216,-0.10282578,0.0700179,0.06550753,0.06555766,-0.046549328,0.07228799,0.0061825183,-0.16199318,-0.25413528,-0.18081924,-0.041914083,0.16282956,-0.022649182,0.18669012,-0.1910417,-0.092425,0.01975569,0.10526398,0.021379018,-0.067502044,-0.07311141,-0.058417488,0.010124533,0.04978681,-0.09173731,-0.052340146,0.06454099,-0.13257435,-0.02924968,0.00033187063,0.12795381,0.12657523,0.04225888,0.025935708,0.11047954,-0.14673696,-0.13709041,0.033936806,-0.030937074,0.08292634,0.10934318,0.05964683,-0.043449376,-0.028384315,-0.06448152,0.02527894,0.003280771,0.011393496,0.05657119,-0.14102857,-0.0170082,-0.02551034,-0.06256808,-0.05498526,0.037967794,-0.040763516,-0.06727339,-0.064973,-0.04269235,0.08776115,-0.1318134,0.03276833,0.12771481,-0.037009656,-0.086003855,0.05052569,0.030669637,0.11444483,-0.01015709,0.021893827,-0.03790668,0.05086391,0.013373671,-0.05630946,0.07549304,-0.01858143,0.22593509,0.062000528,0.025381308,0.08331964,-0.0012047398,-0.03351744,-0.12663844,-0.046163745,0.025497701,-0.08251466,-0.089573324,0.025067223,-0.10589425,-0.22795996,-0.06624326,-0.04891747,0.0034605532,-0.08043699,-0.052397355,0.19467792,-0.022781217,-0.086969584,-0.12020405,-0.003284503,0.022322362,-0.049868383,-0.113050066,0.06670533,0.0034282862,-0.029541986,0.011814205,0.051935844,-0.014746335,-0.014453157,-0.023024913,0.03472155,-0.13452698,0.03577958,-0.018294368,-0.086066365,-0.09090256,0.007380222,-0.21045011,-0.13252497,0.00086993165,0.036794085,0.09234049,0.11858788,0.036135633,-0.19801879,-0.09437499,-0.025385693,0.009398403,-0.0064311894,-0.10688182,-0.06677512,0.14837189,0.0066887527,0.08104818,-0.013183106,-0.019895384,-0.065506876,-0.14317475,0.030855792,-0.1068045,-0.07203224,0.049217455,-0.032077886,-0.01008191,0.012407988,-0.04162415,-0.18370314,0.041681997,-0.008646016,0.077981785,0.1933581,0.08512309,-0.032624964,-0.19448811,0.090967216,-0.029380297,0.110956654,0.09253897,0.05494791,0.02386007,-0.04186565,0.030456273,-0.015927788,0.0017728304,-0.039909463,-0.081274964,0.039906293,-0.004869366,-0.04403562,-0.19799753,0.019324437,-0.016988507,-0.05202276,-0.1200023,0.12656836,0.08317271,0.13023935,0.1181777,0.21541032,0.13948235,0.044223607,-0.005529394,0.09449178,0.020983616,0.047588218,0.12879422,-0.00346906,-0.04377904,0.03228114,-0.08515497,-0.032764673,-0.07650485,0.11676006,-0.0628191,-0.04403928,0.08358211,-0.013428946,-0.122747295,-0.035092123,0.02310896,0.00056584337,-0.07324549,0.06315689,0.1708761,0.20787604,0.097297035,0.24570814,0.16443759,-0.03608296,-0.103896566,0.04239296,-0.0048704334,-0.046207752,0.058437005,-0.027832264,-0.0126799,0.09316922,0.016347602,0.08932368,-0.044200648,0.01679318,-0.06761821,-0.06875412,0.13476288,-0.035120796,-0.09764599,0.02908932,0.04937352,0.056608457,-0.13552009,-0.20307998,-0.14640199,-0.10791728,-0.12790601,0.07000887,0.07924006,0.005878658,-0.18145096,-0.021138698,-0.090591155,0.05637349,-0.052902155,-0.089754716,-0.01451722,0.01699784,0.017374845,0.07014344,-0.045649994,-0.14676262,-0.049778692,-0.03379784,-0.08185387,-0.05662595,-0.06397517,-0.017888848,0.07268791,-0.03674733,-0.1663812,-0.08704604,-0.16287315,-0.21034414,-0.22088689,-0.18890946,-0.120421104,-0.14354527,-0.14038531,0.03267601,0.023547452,0.0244844,-0.007634844,-0.05191104,0.032057766,-0.085760966,-0.014700904,-0.044623163,-0.019417088,0.067492925,-0.037661284,-0.024140332,-0.069452785,-0.0061206883,-0.11784775,-0.09302202,0.1105008,0.11421781,0.021591613,-0.120496824,-0.18222249,-0.31978306,-0.123546086,-0.17424056,-0.15460911,-0.030866852,0.12191264,0.09229028,-0.0134422155,-0.005035976,0.008691384,-0.039951246,0.023882907,0.03849344,0.041442893,0.012067455,0.007540344,0.009868541,-0.059383597,0.053478595,-0.0712531,-0.003276127,-0.079850346,-0.019313656,0.035105675,0.071853735,-0.010256552,-0.07038738,-0.15521151,0.0015469803,-0.0470134,-0.060573682,-0.049660716,-0.03132379,0.047482274,0.019280255,0.16743545,-0.06595415,-0.0788752,0.012411325,-0.053849965,-0.080662936,0.03856514,0.0025095295,-0.08267993,0.0073221293,0.08614937,0.018671067,0.12736073,0.05982402,-0.070921406,0.0050091622,0.030003704,0.05186647,0.11185417,-0.0016894443,-0.16235621,0.09741201,0.0317466,0.056210075,0.034307506,0.019328883,-0.020630147,0.07249131,0.037051447,-0.08412688,-0.069509126,0.019133467,0.09436487,0.05371162,0.03668212,0.046923913,0.06324893,0.064413615,0.0013171058,0.0074349777,0.014920964,0.084778026,0.027590327,-0.11200999,-0.029511258,-0.06603192,0.07335224,-0.016273191,-0.09746694,0.03805871,0.011516992,0.060207,0.098242395,-0.0050141565,0.011733507,-0.07289439,0.076181225,0.07880371,0.046266686,-0.04562872,0.11538023,-0.037916835,-0.05587034,-0.07506043,0.074532434,0.04019785,-0.051730573,-0.06705941,-0.04473236,-0.011088703,0.0960898,-0.10221171,-0.010369952,0.0749905,-0.13517028,0.040191535,0.03892458,-0.07330599,0.11507635,0.0061189258,-0.01660008,0.0020163048,-0.030838374,0.02705007,-0.060276616,0.016049733,-0.12827869,-0.030458882,0.045772824,0.028682237,0.03261785,0.04766012,-0.02212595,0.025004314,0.010767783,0.0021818213,-0.07547357,0.013593405,0.05713486,-0.05158388,0.0044174525,0.016619135,-0.02794697,0.026698718,-0.0035007508,-0.020431828,-0.060810823,-0.106348634,-0.020207245,0.036694534,0.046983182,0.056561664,0.022511275,-0.054516423,0.0009125114,-0.04808077,0.009407186,0.033705603,0.09051963,-0.0068482533,0.021907162,0.062170886,0.08640308,-0.0027043654,-0.061301664,-0.05731283,0.002812788,-0.04660492,-0.011679605,-0.014037396,0.09266374,0.071085684,0.027774876,0.050560106,0.027000917,0.043562774,0.11491831,0.048017036,-0.08414373,0.033136766,0.026101174,0.008951841,0.029026536,-0.08004422,-0.033508915,-0.004205484,0.18704568,-0.01719206,0.004755494,0.041190807,0.08525737,0.013397715,0.042577125,0.040613238,0.014726527,-0.051599715,-0.040965255,-0.019805914,-0.0082154535,0.05865151,-0.055377986,0.07046217,0.01173141,0.100816555,0.07786188,-0.05107605,0.029550454,-0.085122265,0.014041933,0.095435254,0.026327016,-0.019946584,-0.03175922,-0.0033596247,-0.028677104,-0.12236848,-0.008429296,0.0201131,-0.10199069,-0.060276706,-0.035483055,-0.09321704,0.061999723,0.0036951487,0.016550012,-0.006162894,-0.033412576,-0.04071487,0.011069683,0.051608253,-0.041887987,0.051991742,0.05067675,-0.008505494,0.037754074,0.048572656,0.08705429,-0.049718335,-0.05251896,-0.08108893,-0.040420875,-0.029367438,0.027782174,0.005561955,-0.05543074,0.09496288,0.08844887,-0.004660097,0.045971777,0.017190423,-0.1057674,-0.03631965,-0.025913376,-0.14707713,-0.07360165,-0.08471106,-0.080971606,-0.03416038,0.043770973,0.04160839,0.11283235,0.0056460816,0.07429983,-0.016139925,0.011182275,-0.051597204,0.0019435744,0.05290855,0.011023096,0.092080094,-0.028369928,0.00043639613,0.048998132,0.054165196,0.007902776,-0.077042386,-0.016696606,-0.029163323,0.04168353,-0.16824776,-0.14921354,-0.0500369,-0.07667512,-0.032395232,-0.14428155,-0.21043992,0.05470654,0.0238581,0.07992502,0.01559858,-0.091991715,-0.03352862,-0.04860377,-0.013661432,0.014253454,0.049669214,-0.029559206,-0.026905872,0.06648712,0.048774984,-0.036347702,0.076002166,0.047338184,-0.08456762,-0.097103015,-0.026218902,-0.026302923,-0.050463974,-0.08035994,-0.012721956,-0.019408265,-0.08519105,-0.03921454,-0.029795058,-0.10835306,-0.06679415,-0.0180853,-0.13914274,-0.15557174,-0.116247706,-0.023697203,-0.0028200375,-0.022399671,-0.09698366,-0.06955297,-0.0490721,0.049276292,0.013913911,-0.02595034,-0.046827167,-0.059317615,-0.09346288,0.024541227,-0.07648136,-0.1266731,-0.11371821,-0.071075305,0.03821134,0.02608816,-0.13085306,0.16690603,-0.009109249,-0.078360625,-0.079676695,0.020149598,-0.19646466,-0.17944713,-0.19047178,-0.20710337,-0.040795792,-0.07050011,-0.058575828,-0.040490367,0.055880416,-0.0151799945,0.0884405,-0.020425044,-0.114350446,0.09579039,-0.025899773,0.0036785353,-0.08036807,0.066117205,-0.015219454,0.049979616,-0.04445321,-0.0978408,0.04236654,0.12415763,0.0903029,0.033941854,0.037962418,-0.09292069,-0.11455818,-0.11374613,-0.22302838,-0.19768494,-0.21715325,-0.103471056,0.020913523,-0.027939111,-0.020605467,-0.055272758,0.009011101,-0.029555658,-0.060011864,0.031131148,0.059265904,-0.029836986,-0.046235994,-0.012146422,0.034069747,-0.057804532,0.03234571,0.00375282,0.08954497,0.1447388,0.13457707,0.10630335,-0.055255402,0.011127542,-0.08384801,-0.054052833,-0.053146895,-0.24445996,-0.21252611,-0.04437972,-0.15609641,-0.042534735,-0.08234626,-0.011608764,-0.02415697,-0.054809183,0.04620928,-0.070988744,-0.12512952,-0.027244441,-0.023951875,-0.04718777,-0.037842173,-0.015436236,-0.15851042,0.01909554,0.09216928,0.15501024,0.10785008,0.14442249,0.07401417,-0.1615272,-0.016449038,-0.04098056,-0.10836708,-0.1937648,-0.061190803,-0.15634622,-0.10982391,-0.07111494,-0.06248097,-0.0012454471,0.010357761,0.00065211236,-0.009813993,-0.06398206,0.08417482,0.0010331392,-0.03213156,-0.10123526,0.066121146,-0.043454178,-0.10889951,0.0017489288,-0.017087948,0.06357517,0.15790887,0.17210189,0.120323285,0.004778671,-0.18866445,-0.20229709,-0.067033246,-0.07293527,-0.065493174,-0.08052103,0.011458483,0.024027007,-0.030599361,-0.01824548,0.012075275,-0.028341834,0.054250654,-0.04515649,-0.09228308,0.0037666138,-0.122684434,-0.07866617,0.05160188,-0.0025766983,-0.100359604,0.020418264,0.10192596,0.18994626,0.022140326,0.13698901,0.128407,-0.13132136,-0.14203642,-0.18955892,-0.090345174,-0.053610433,-0.043451097,0.053058684,-0.013923053,-0.020081894,-0.016705614,-0.057025127,0.10872097,0.024771536,-0.020335034,0.0008635255,-0.065386385,-0.025210923,-0.117436334,-0.032586757,0.016089426,0.059928693,0.101097174,0.11779968,0.1340478,0.11023349,0.10245519,-0.062162194,-0.06012797,-0.18405347,-0.17168623,-0.17822093,-0.107801944,0.009425169,-0.10710203,0.00355195,-0.014384436,0.12701546,0.011263727,0.015550596,0.05853706,-0.047403846,0.0812068,0.038053866,-0.046247263,-0.046483714,-0.12786292,-0.032584604,0.08879375,0.066755995,0.09652054,0.19452405,0.1422354,0.081977405,0.0014784486,-0.15192698,-0.24662204,-0.3069869,-0.25812948,-0.17404155,0.00090521504,-0.011156689,-0.07488447,-0.02377987,0.023391848,0.03423251,-0.1034244,0.0541402,0.06107967,0.09168652,0.00088094105,0.008796427,-0.012017433,-0.093049325,-0.0034662934,0.07974802,0.063857384,0.18760794,0.15226425,0.18512022,0.079845674,0.050780453,0.09382625,-0.20268334,-0.32155225,-0.32518527,-0.21584548,-0.12203801,-0.123828374,-0.06750604,0.077682465,-0.021423269,0.01656277,-0.00864744,0.0010378134,0.09698688,0.023191513,-0.040662274,-0.00011625891,-0.02654832,0.0045228484,-0.066968925,-0.19902608,-0.016243784,0.054292236,0.087332316,0.16098186,0.093579605,0.06401635,0.082159504,0.037914697,-0.11091347,-0.19613346,-0.2696706,-0.118280694,0.11723712,0.023398649,-0.05345413,0.01600077,-0.054129176,0.032020446,0.07093802,-0.042844765,0.08528891,-0.019147446,0.11566789,0.03180921,-0.0741399,-0.048023276,-0.119836055,-0.1158163,-0.061838888,0.045160525,0.31436428,0.114166036,-0.059475992,-0.008821144,0.1280451,0.017044203,-0.18039751,-0.17121357,-0.036629688,0.1246428,0.013370224,0.004024625,0.16277233,0.07990373,-0.011669579,0.024574326,0.05675265,-0.0027643924,-0.025215149,0.02697012,-0.0059044617,0.017254971,-0.05330507,-0.045676835,-0.07008835,-0.11953104,-0.020000158,-0.0029984985,0.1228073,0.11135944,0.13676962,-0.068363816,-0.0848452,-0.21631019,-0.079356074,0.018065192,0.10828646,0.13651091,0.041977867,0.12725079,0.072263405,0.07821269,0.056875132,0.028757729,0.0413841,0.07416933,0.008966623,-0.03632701,0.06425408,-0.0005961014,0.117414996,0.100673795,-0.04789891,0.03417325,0.07484137,-0.04238071,0.019620635,0.14582142,0.06581011,0.047125533,-0.10379425,0.05022848,0.017420646,0.122857675,0.15949789,0.2073568,0.07498338,0.13089222,0.050448336,0.021051036,0.02566614,-0.022383062,-0.020404978,0.015954748,0.0461662,-0.05044566,0.025896175,-0.006549301,0.016648488,0.10610478,0.040227424,-0.0665147,0.14967291,0.07130339,0.06977905,0.11468889,-0.004336172,-0.0020094416,0.043756757,0.10519334,0.029168976,0.033542782,0.019147797,-0.0075815893,0.13241434,0.12317236,0.16348559,0.078511044,0.10248961,0.022948759,-0.11249639,-0.08734746,-0.010066644,-0.015206196,-0.02364012,0.020090058,-0.0180719,-0.016382543,0.07676723,0.03944778,-0.057609588,0.2088924,-0.17026702,-0.036043826,-0.097760946,-0.006384987,-0.09135527,-0.04073468,0.072783485,0.007617,-0.11907955,0.05239768,0.095386885,0.06870377,0.03017434,0.11899328,0.12364487,0.015077542,-0.03162927,0.036607616,-0.041249003,-0.03050333,-0.12617697,0.058441482,0.058509722,0.05058811,0.050624263,0.009002528,-0.022975102,-0.0646913,-0.04809143,-0.20481987,-0.1621479,-0.09819339,-0.22680473,-0.12824021,-0.08982964,-0.000118892836,-0.088567495,0.04683994,-0.007062372,0.11339083,0.039898373,0.04761234,-0.00596448,0.0063192076,0.01879781,-0.018956274,-0.052657988,-0.08370781,0.0378238,0.0098411925,0.006366762,0.031447362,-0.039620765,-0.04606743,-0.08200115,-0.10888951,-0.0940618,-0.047414493,-0.22086374,-0.07620862,-0.18356997,-0.11932735,-0.058496017,-0.19472033,-0.1748257,-0.020391181,-0.012634417,-0.07227978,-0.09944632,-0.075261824,0.08546733,0.03842001,0.01132915,0.047205485,0.036416646,0.04629849,-0.17245074,-0.09210611,0.020287935,0.041947607,-0.0043463116,-0.03601711,-0.019321257,-0.04487698,-0.08479139,-0.19055954,-0.063506685,-0.08778595,-0.08314338,-0.09072078,-0.19147849,-0.064644456,-0.0461644,-0.05959791,-0.04046318,0.027234104,0.027942521,-0.06848903,-0.050676465,-0.033332344,0.029107582,0.008844636,0.011258782,-0.070466705,0.017026855,-0.028999489,0.009931375,-0.061888292,-0.043087844,0.055935062,-0.022086104,-0.0577596,-0.024183875,0.058757376,-0.051602166,0.019647377,0.0034323756,-0.064897135,0.0011712934,-0.07033093,-0.093484946,0.049876634,-0.0815441,-0.070545346,-0.0471493,-0.002013793,0.040979832,-0.026719758,-0.1239773,-0.015195435,-0.022513375,0.03605621,0.050995085,-0.034865823,0.09858623,0.0882449,0.030999059,-0.03162406,-0.01680035,0.031129295,-0.03342756,-0.061897315,-0.011350133,0.026186632,-0.09873429,0.028150205,-0.047869004,0.05852864,0.038297005,0.042606745,0.061604492,0.08302705,0.13684489,-0.0020503115,-0.059117213,0.025194043,0.094762586,0.09389646,0.00963537,0.016155265,-0.0019523583,-0.016852839,0.050842274,0.06424991,0.07750069,-0.008508835,-0.016677266,-0.046519253,0.06409038,0.027662653,-0.0065781143,0.03744121,0.0072524776,-0.068848535,0.016803002,0.09496659,-0.014726067,0.056174234,-0.0477999,-0.07579577,0.04583631,0.031215684,0.024083588,-0.01373787,-0.04881489,-0.0107854605,0.03423904,-0.019603088,0.12207458,-0.016399106,-0.043549493,0.03270872,0.037771862,-0.030696979,0.025501912,0.023193665,0.071818724,0.016008599,0.08962691,0.0073277783,-0.020978779,0.004034792,0.046109527,0.012780387,0.046673756,0.03683966,-0.012099716,0.015184111,0.02478688,-0.018032812,0.031782486,0.0358156,0.009467799,0.051079236,0.1383637,-0.059774887,0.0007490467,-0.07624523,-0.044823177,-0.00022241689,-0.02520102,-0.033300437,0.044648103,0.0072055873,-0.028599922,0.029247561,0.004571088,-0.09205839,0.0212096,0.04210671,0.09043384,0.056788422,0.05931979,0.1474397,0.072785586,0.07650236,0.06466696,-0.018508537,-0.036023278,0.010555357,-0.03247535,0.00040114002,-0.0047441316,0.028389871,-0.034759767,0.05938157,0.008097212,0.052108027,0.04060441,0.033053238,0.05801127,-0.082257666,-0.029818395,-0.05735633,0.008360909,-0.1490465,-0.08465068,0.0028454098,-0.0026832414,0.049237434,0.07981725,0.043017086,-0.028249243,0.07243681,0.13418825,0.10521595,0.11179205,0.0042783865,0.09250132,0.033095106,-0.049719326,-0.02503462,0.034202725,-0.014142773,-0.058347996,0.0373379,0.051555764,0.06381371,0.021815449,0.008366811,-0.0077068643,-0.111554846,-0.261415,-0.2794902,-0.18216722,-0.13256249,-0.1932654,0.099208,0.17503797,0.2125852,0.27912906,0.2713608,0.13811263,0.098663986,0.119134344,-0.049295064,-0.071659796,-0.038110618,0.022113616,0.007915955,-0.042159498,0.020798508,-0.011426155,0.03648394,0.0015574577,-0.13830706,0.062207468,-0.1002714,-0.12348568,-0.27721572,-0.37397823,-0.1412858,-0.1574818,0.007949763,0.2149044,0.1766155,0.03470193,0.01949576,0.27016085,0.21472096,0.17313233,0.2133654,0.05025216,0.03897141,-0.058503293,0.027918017,0.074165165,0.012222815,-0.018415911,-0.028173309,0.039312694,0.044759568,0.012157788,-0.066218324,-0.049442828,-0.19485842,-0.37043762,-0.36028787,-0.21394256,-0.11076438,-0.15396331,0.14176352,0.10554558,-0.19980757,-0.13648334,-0.14688513,-0.16259277,-0.12389537,-0.03398272,-0.065888494,-0.084097445,-0.070421815,-0.002491359,-0.09401146,-0.05824451,0.018211713,-0.03990853,-0.028065821,-0.006421951,-0.049415097,-0.0103506455,0.055515144,0.0222946,-0.29487836,-0.3310888,-0.28227705,-0.15863188,0.08515017,0.14510511,0.2740998,0.19143069,-0.09475792,-0.16118905,-0.17147848,-0.23034069,-0.16287811,-0.20407784,-0.04774556,-0.01914643,-0.04676168,-0.024692927,-0.032807805,0.014347093,-0.012578824,-0.033372004,0.009056346,0.06015143,-0.1201102,-0.008592901,-0.09475169,0.068293154,-0.22429436,-0.40770438,-0.33959028,-0.18352151,0.012585214,0.26538268,0.17907774,-0.05826696,-0.18131225,-0.17836298,-0.08586602,-0.23979469,-0.23115121,-0.20440325,-0.09808164,-0.07798845,0.0062950854,-0.13987538,0.0018746718,-0.05149607,0.0012127645,-0.014012771,-0.046225205,-0.049457908,-0.08956769,-0.051381864,0.0051688002,0.07476641,-0.07937696,-0.16551419,-0.377686,-0.14816318,-0.026169142,0.12424416,-0.09562099,-0.15467158,-0.2204339,-0.06866573,-0.0901543,-0.30976787,-0.31451237,-0.1649577,-0.0789449,0.0034869672,-0.103548124,-0.07461562,0.0067311735,0.050196584,0.007711559,0.003386959,0.0023445815,-0.11896558,-0.12362464,-0.11414268,0.03535068,0.010460483,-0.024474217,-0.10891947,-0.100029156,-0.20118342,-0.09594974,0.06718412,0.037005715,-0.0691399,-0.18852502,0.09672582,-0.074647866,-0.23709649,-0.43886313,-0.11037846,-0.104654916,-0.05452612,-0.14142331,-0.08313137,-0.06539032,-0.08513503,-0.065135606,-0.028882893,-0.07935813,-0.03891464,-0.14396156,-0.019556321,0.19182894,0.0054503744,-0.05273223,-0.068827346,-0.032848768,-0.23203415,-0.0033301038,0.0364511,-0.044075474,-0.21062693,0.033085596,-0.20255373,-0.18159191,-0.15167466,-0.12125364,-0.07458232,-0.033580936,0.012299789,-0.08126961,0.030280212,-0.00769304,-0.035812616,0.057350475,-0.0911751,0.04068719,-0.004042648,-0.024718856,0.07933614,0.15717974,0.18184853,0.13635649,-0.020034024,-0.035070486,0.08996688,0.06447131,-0.009570881,-0.00032575522,-0.21544117,-0.07816759,-0.08364054,-0.08567947,-0.06786609,0.06911605,-0.012657066,-0.039133064,0.016813813,0.0011088756,-0.023344073,-0.060205292,-0.04404997,0.054102905,-0.06097729,0.04629726,-0.057558075,-0.036629636,0.026091862,0.27769703,0.27099675,0.12595898,0.26166886,0.018739102,0.058781687,-0.07828086,0.010456457,-0.017259017,-0.015783262,-0.11428592,-0.01023386,-0.056060106,0.07222107,0.014145011,0.058145493,0.078084484,0.008076441,0.0039576446,-0.04595348,0.016213447,0.04700939,0.057838917,-0.052532554,0.031764217,-0.032373697,0.14232008,0.14074278,0.25014535,0.26964638,0.25321645,0.13401306,0.12820788,-0.051054776,-0.14914627,0.0071240063,0.07570967,0.04709178,0.04832649,0.04057014,0.0087486245,-0.10191148,-0.056309573,-0.118203826,-0.0038086087,-0.055659056,-0.03290102,-0.014242208,-0.17998284,-0.050772004,0.108518496,0.054711767,-0.013899089,0.06896117,0.119641654,0.028968204,0.17503496,0.25509185,0.2516561,0.1741021,-0.085737996,-0.18096074,-0.07042983,0.16126712,0.24279541,0.09556055,-0.0122445505,-0.16097155,-0.039872333,-0.056930516,-0.040685244,-0.07092713,-0.007042395,-0.02335575,-0.038104273,0.0048983255,0.0049456195,0.032567564,0.0074576344,-0.055326004,-0.019608777,0.07725016,-0.005764659,0.03622176,0.01636982,0.12790443,-0.0065994514,0.07224188,-0.12905821,-0.17585222,-0.0053205495,0.16723786,0.25704983,0.07529581,0.039273035,-0.13140751,-0.12053885,-0.0052706865,-0.010756385,0.035033047,-0.056095008,-0.07012804,0.014233435,-0.09573108,0.018075753,0.044185776,0.04641119,0.03138012,0.03712339,0.04725332,-0.07660982,-0.043004524,-0.20315209,-0.07385172,0.033758253,-0.045581456,-0.18870328,-0.21463147,-0.04075293,0.2031831,0.39487168,0.20067334,0.22837092,-0.12121956,-0.17774768,0.17307207,0.18455143,-0.043624938,-0.08813985,-0.05806246,-0.06107352,-0.104794726,0.12842183,-0.091087036,-0.042496398,-0.13897584,-0.033512957,-0.02684166,-0.14378864,-0.16580246,-0.14862585,-0.21509917,-0.15214787,-0.04406645,-0.23739682,-0.1560703,0.07174252,0.20927657,0.32923952,0.09866418,0.12116478,-0.008957158,0.08773162,0.2173649,0.12533844,-0.029438619,-0.094909556,-0.23851025,-0.025943251,-0.074486256,-0.088205494,-0.07388924,-0.024650568,-0.0010097033,0.011791311,0.090981394,-0.15708348,-0.08275214,-0.10508602,-0.085859835,-0.21881224,0.06366205,-0.102536544,0.09147172,-0.029076755,0.062443703,0.1728082,0.0270192,0.20644724,0.070332214,0.12139889,0.14202131,0.13362671,-0.047167726,-0.10499531,-0.06941869,-0.0065849335,0.06348252,0.004634291,0.0055727544,0.03730352,0.028806876,0.0773754,0.07847306,-0.023736686,-0.12712818,-0.025115008,-0.17229076,-0.27130505,-0.1545919,0.10314585,0.059342694,0.12674601,0.12045577,0.1525832,0.14608832,0.15520003,0.2658522,0.23599039,0.13778478,0.16812952,0.054370936,-0.15194222,-0.077926636,-0.06292594,-0.011975933,-0.032809947,-0.008763576,0.042671043,-0.007893877,-0.016840346,0.074030966,-0.0021296507,-0.11044652,0.0025666833,-0.046788346,-0.075947724,0.09366689,-0.0047433763,0.05124059,0.14631693,0.26741418,0.12702245,0.13631402,0.011303316,0.073056094,0.11302189,0.07952872,0.17866826,-0.0016110337,0.0059827133,-0.019799266,-0.057315253,0.053874206,0.09340538,-0.023731628,-0.040262163,0.070478074,-0.06639996,0.008464275,-0.05475328,-0.056660157,-0.046988413,-0.10494202,-0.03335027,0.046491154,-0.006265262,0.07804939,0.022811282,-0.056320783,0.061174147,0.036139466,0.08372803,0.16123497,0.08196346,0.067549646,0.15237851,0.019090764,0.032133017,-0.06403341,-0.020839738,-0.06366846,0.06988646,-0.044187162,-0.02662297,0.022038084,0.017395906,-0.0045925067,-0.011323632,-0.03480257,0.011532059,-0.07218811,-0.0416503,0.13978569,0.010779501,-0.11963709,0.011660718,-0.05893657,-0.14785463,0.016112816,0.11968253,0.05696592,0.031164007,0.018519409,0.18450314,0.019301035,0.06355457,0.064084046,-0.10970841,0.0056518703,-0.048534557,0.08968473,-0.00639581,0.032693245,0.017046222,-0.015024951,-0.029592032,-0.07022009,-0.02355276,0.0064800745,-0.0256572,-0.081747696,-0.12255749,-0.01647422,-0.04969418,-0.2871363,-0.2597167,-0.16904816,-0.06853541,-0.059073314,0.13045019,0.063098855,0.016218979,0.0014796568,0.0017045862,0.122531995,0.029562712,0.008904216,-0.10301039,0.04141461,-0.041825846,-0.09716181,0.115767196,0.02342912,-0.029334618,0.023462927,-0.034371685,-0.015096017,-0.0811988,-0.045819987,-0.15916896,-0.082000926,-0.10643406,-0.15497768,-0.05128217,-0.11147626,-0.29215944,-0.21705496,-0.03218679,-0.018972235,0.042193897,0.08652824,0.03053626,0.016036,0.13463067,0.012535203,-0.03577394,0.016589463,0.0014701734,0.0031267556,0.070524074,-0.036079966,0.01185792,-0.025777124,0.038175642,-0.07756287,-0.02274838,-0.06124168,-0.03992521,-0.05748625,-0.0830089,-0.031033525,-0.056241564,0.012410656,-0.0197082,-0.006780855,-0.01813474,-0.0606953,0.11744518,-0.0021305224,0.09256575,0.02879741,0.024520813,0.038204696,0.045645967,-0.06700473,-0.10581479,0.10162227,-0.050635464,-0.06444244,-0.02519368,-0.011103757,0.027326036,-0.104440935,0.03440447,0.004608787,0.0022061102,0.005474686,-0.10030009,-0.006973868,0.026554849,0.052453782,-0.0039723814,0.00068840716,0.05819185,0.023222465,-0.022683501,0.050063197,0.039315164,-0.07990217,-0.033747584,0.077123165,0.03639352,0.02020235,-0.053154245,-0.005217677,0.016703483,0.054639883,0.11543062,0.062931076,0.0037045225,0.07612998,-0.062152483,0.04912712,0.055789284,0.021237101,0.01956342,-0.020098092,0.002095734,0.0075314725,0.09164315,-0.016951561,-0.045215234,-0.054291546,0.047604237,0.08161454,-0.012580804,-0.07879717,-0.085324,-0.041942883,0.0019372355,0.010888564,-0.018945161,0.06722771,-0.078772195,-0.0053155436,0.0048213317,0.11665542,-0.08261912,-0.05089737,0.005368047,0.03428307,-0.063879855,0.025112934,-0.01752824,0.03963952,-0.0710016,-0.022545226,0.0049701636,-0.064743936,-0.012429783,-0.089884125,0.005447386,-0.03779244,0.0893335,0.021376459,0.06109122,0.12301414,0.061191462,-0.0077766236,0.02415147,-0.06636858,0.07321504,0.053897895,-0.07415158,-0.040178508,-0.020681389,-0.0034013053,-0.019075923,0.022965545,0.02971542,-0.058517892,-0.0080511505,-0.007051182,-0.021519538,-0.035978243,-0.00053093914,-0.00691446,0.036348008,0.022673283,-0.014560378,-0.08018415,-0.00044770824,-0.05687475,0.081321135,-0.02520916,0.07629897,0.031744003,0.08967423,-0.074271336,0.08128773,-0.018960372,-0.0011340049,-0.025484,0.07523251,-0.020961383,-0.0682373,0.024491716,0.050354414,0.0057266685,-0.083264664,0.091536224,-0.030663883,0.016032541,0.040091667,-0.0024109199,-0.15465267,-0.1499132,-0.11112855,0.0094968965,0.010453555,-0.011239923,0.01851125,0.068595625,-0.032193504,-0.038063426,-0.034648992,0.002010175,0.03511767,0.021454342,0.054593306,-0.039993722,0.0489897,-0.05161465,-0.043257937,-0.03684522,-0.05405524,0.016388467,-0.046858937,0.07154741,-0.030502778,0.04104972,-0.014380166,-0.077982634,-0.08792202,-0.13090342,-0.18195947,-0.0848446,-0.16855913,0.03640008,-0.030121353,0.07011756,-0.061738454,-0.061414566,-0.056932505,-0.06343866,-0.019280106,-0.0045456346,0.018972235,-0.097377434,-0.0063010915,0.010529203,-0.049299292,-0.05564505,-0.045656554,-0.038722426,-0.21130344,-0.069201715,-0.11911744,-0.10853286,-0.16220878,-0.06719036,-0.19546054,-0.14393438,-0.0071491604,0.067060985,-0.055895377,-0.07396493,-0.12287738,0.02285448,-0.051683642,-0.11382882,0.027736519,0.047647327,0.024751049,0.020665172,-0.014796188,0.022465808,-0.0717206,-0.09966458,-0.114434175,-0.12749672,-0.23702464,-0.14781705,-0.17909177,-0.17216678,-0.10916446,-0.1689393,-0.22922479,0.01855426,0.117443606,-0.12820737,-0.0592381,0.025600916,0.0745315,0.02228385,-0.10936363,0.009827287,-0.010678967,0.039640658,0.035138283,-0.0064952127,0.0037017812,-0.02604225,0.032984477,0.03342835,-0.051999666,-0.032668125,-0.12129695,-0.22704603,-0.26870707,-0.26944005,-0.040253595,-0.018583005,-0.08459361,0.2198103,0.22258742,0.2932086,0.18867326,0.053463105,0.085346326,0.116319865,0.047607407,0.13356912,-0.06691618,-0.026290216,-0.07601062,0.008045116,-0.0066262833,-0.032649145,0.017859802,0.0055031106,0.045320556,-0.09260753,-0.0652719,-0.07790616,-0.13940604,-0.1326499,-0.039599866,-0.08396038,0.03553991,0.07210748,0.2560019,0.3143324,0.39800838,0.2998482,0.16039342,0.14826365,0.06803382,-0.028356936,0.057970326,0.11580486,-0.0145746805,0.024410807,-0.0800712,0.07152763,-0.052583985,-0.054653548,-0.0023325002,-0.041910216,-0.026379725,-0.14688006,-0.09409143,-0.07126911,-0.09721466,0.03715089,0.08383535,0.064026885,0.19152974,0.22110903,0.29784748,0.0912975,0.11108236,0.089259185,0.007255143,0.023906901,0.089621976,0.070880085,0.086375855,0.16556026,0.08586416,0.006646615,0.019016556,-0.02116908,-0.0051221475,0.021668583,0.023497954,0.045080494,-0.07470035,-0.086485766,-0.017121756,-0.062457863,0.13592128,0.12178413,-0.03976818,-0.026631715,0.020233154,0.08980216,0.15155122,0.053878672,0.04065932,-0.037508953,-0.098566726,0.04129424,0.057354648,-0.0028412729,0.12188067,0.1588199,0.027689248,-0.038971923,0.04504317,-0.05012525,-0.09335416,-0.0073681003,0.10440786,0.042030618,0.023573313,-0.0026833182,-0.022146396,-0.07183812,0.011233092,-0.101551056,0.014548948,-0.05320195,-0.25481454,-0.051980317,0.02574561,0.05054893,-0.06662381,-0.016366439,0.047361135,0.19551079,0.17846268,0.07170113,0.087021165,0.20391873,0.124777675,0.102677315,0.037909284,-0.06576685,0.055019088,0.08331995,-0.10046681,-0.074989684,0.0060659484,-0.004983532,-0.004030467,-0.024916656,-0.12320994,-0.056053754,-0.120982714,-0.1277069,-0.34486574,-0.23607112,-0.014040841,0.023840457,0.071717426,0.09109377,0.07148352,0.36654386,0.028930098,-0.06828875,0.094792984,0.14511022,-0.04774284,-0.019630037,0.08608313,0.021426575,0.030325742,-0.04569479,-0.048721615,-0.06299233,-0.007859855,0.004366921,0.030675262,-0.12218444,0.10129259,-0.02471587,-0.022888731,-0.09027703,-0.040098667,-0.09807318,0.0033066133,0.19680186,0.0960262,0.17353658,-0.024130203,0.06870268,0.035324827,-0.03279467,0.05974593,-0.05571171,0.041655518,-0.02875546,0.009617839,-0.09235233,-0.01847619,-0.013763862,0.018122504,0.06946021,-0.0050482936,-0.041241035,0.049107097,-0.019771302,-0.09791936,-0.06161322,-0.037785836,-0.01092115,-0.10434492,-0.041486632,0.09672779,0.23385416,0.11250721,0.07059938,0.04702226,-0.07354636,0.031718235,-0.007966682,-0.056058332,-0.016024597,0.008967317,-0.07712576,-0.11568558,-0.11283036,0.02444235,-0.08213163,0.030670136,-0.026364513,-0.058767844,