{"version":1,"layers":[{"Relu":[784,128]},{"Softmax":[128,10]}],"seed":"116359486","error_function_type":"CrossEntropy","meta_data":{"accuracy":0.9785,"error":0.013386951,"epochs":10,"duration":{"secs":180,"nanos":410805625}},"weights":[{"v":1,"dim":[128,784],"data":[-0.043342862,-0.043796334,0.0015019668,0.025249392,-0.018454539,-0.020028757,0.11115291,0.038851902,0.013206038,0.007044362,0.14084536,0.0898954,0.024426315,0.069321245,0.10869875,0.10480384,0.022020288,0.005951154,0.028570717,-0.027143152,-0.006323959,-0.0012825091,-0.010907159,0.008885319,-0.041026793,-0.011030273,0.020088682,0.008028203,-0.069584854,-0.07032688,0.022516899,0.046113364,0.06249621,0.007268113,0.024341473,-0.066137746,-0.027609674,0.042328477,0.0402017,-0.011882355,-0.012324347,-0.034744762,-0.0029904367,0.048590552,0.06668272,-0.022016898,-0.04753197,0.08114895,0.077520356,-0.0018381308,0.0035950304,0.021178594,0.02631564,-0.001136266,0.029098924,0.07357186,0.062043406,-0.036127724,0.0074731284,0.046787802,0.059741016,0.011134963,-0.09252368,0.017779658,-0.1041792,-0.06545249,-0.10923398,-0.043818526,-0.076493554,-0.058621895,0.0427044,0.024092669,0.009777086,0.084687725,0.113016345,0.082564905,0.0356939,0.039517887,0.01589732,0.032390572,0.083495975,0.03732583,0.019425407,0.004249242,-0.018669939,0.032034166,0.04668201,-0.024138678,0.0026776537,0.01689282,-0.057841178,-0.10700707,0.017119182,-0.058120962,-0.14048803,-0.11979809,-0.15535721,-0.030760536,-0.02378998,0.030966358,0.051323835,0.28844175,0.12636042,0.04067801,0.00295274,-0.028366217,0.035614252,0.0041161054,0.065900855,-0.049580116,0.075281434,0.032250635,0.047023773,-0.072361596,0.031073483,0.018369878,0.012081896,0.009096604,0.084612206,-0.04065258,-0.07339724,-0.055604327,-0.16167134,-0.3588532,-0.312661,-0.13474587,-0.007502111,-0.11615931,0.18340918,0.14834926,0.14257936,0.027431322,0.014918069,0.118788764,0.06640284,0.0808127,0.030095942,-0.065354854,-0.023193618,-0.045705795,-0.0010778313,-0.032586485,-0.03873235,-0.009040541,0.0003687654,-0.003919993,-0.046698116,-0.19983776,-0.15710625,-0.2520985,-0.24671528,-0.2537063,-0.2459322,-0.07960088,-0.060519014,0.030943818,0.075028576,0.07096626,0.11966956,0.1180669,0.10009374,0.114415534,0.0894764,0.11620678,0.061504383,-0.07066053,0.01578463,0.0031740472,-0.13830923,-0.07634477,-0.030133652,-0.005304117,-0.053549092,0.0071592033,-0.13552561,-0.11189288,-0.21201235,-0.24883308,-0.38109183,-0.2997583,-0.079930045,0.011847903,0.26972163,0.29824397,0.12911078,-0.0042921975,0.047910415,-0.12289618,0.1200363,0.10539999,0.12831643,-0.04478779,-0.018740896,-0.110134654,0.049471907,-0.098483264,-0.049209837,0.0015006043,-0.042166512,-0.04062221,-0.040614594,-0.045505285,-0.16769475,-0.16655095,-0.22398342,-0.27639866,-0.29054067,-0.039751064,0.18687232,0.35460755,0.43120232,0.20371445,-0.12647931,-0.09805793,-0.07294152,-0.13419943,0.024167208,0.0016867712,0.0034336909,0.084420495,0.003516279,0.069296174,0.06538446,-0.046475038,-0.007954012,0.011461422,-0.032794,0.0031210068,-0.07128371,-0.07879923,-0.028515093,-0.08863151,-0.30720305,-0.31743822,-0.27479804,0.08026452,0.1478971,0.33748525,0.17934854,-0.041107796,-0.24563833,-0.2651339,-0.20597613,-0.011015709,-0.13096465,-0.022441987,-0.034753736,-0.07374047,0.07478869,0.046076935,0.09506066,0.11306885,-0.045260407,0.017350985,0.005049826,0.11458188,0.00019371272,-0.09919262,-0.098761775,-0.14591087,-0.2617067,-0.1726014,-0.082214475,0.25589618,0.3021921,0.20323002,0.030135324,-0.013795174,0.047079183,-0.3585159,-0.36339393,-0.35297036,-0.29231238,-0.075932,-0.030906552,-0.14302737,-0.09436768,-0.016939405,-0.13002057,-0.03203026,0.021799635,-0.033401266,-0.07422729,-0.15772755,-0.069741234,-0.08564042,-0.064887345,-0.13879818,-0.23874144,-0.23025267,0.060050063,0.2787552,0.24372171,0.01797141,-0.07728306,-0.119581774,-0.10434317,-0.34037867,-0.33335248,-0.16793923,-0.20297836,-0.042998023,-0.10019838,-0.16867642,-0.09544061,-0.05226434,-0.005778887,0.05616811,0.03678902,-0.026007766,-0.010162937,0.05524017,-0.013062534,-0.095151834,-0.15223482,-0.1856104,-0.20904183,-0.119107835,0.20483692,0.103839196,0.25890195,0.028112635,-0.15789853,-0.031678103,0.030581921,-0.24959363,-0.30843273,-0.13206656,0.06330068,0.10507856,0.020160476,-0.15779684,-0.064972125,0.018036388,0.040102586,0.032324042,-0.05325534,-0.07055789,-0.121063486,-0.05699509,-0.007872108,-0.06584817,-0.073565036,-0.10843225,-0.17137885,-0.08058208,0.24237248,0.44024187,0.31142312,0.18772925,-0.13867168,0.12477901,0.18030149,0.006937257,-0.086459965,-0.10467061,0.15961818,0.20402785,0.025112448,-0.0007578153,-0.056791347,-0.09588603,-0.07734521,0.05296139,-0.040271606,-0.0043733213,0.026412964,-0.018042337,-0.0019647875,-0.082960434,-0.058573578,0.009875843,-0.042250115,0.014425514,0.0766876,0.32027495,0.2595727,0.06867457,0.1584714,0.18354367,0.09528601,-0.1152669,-0.18761036,-0.04856712,0.04306641,0.060837608,0.05006209,-0.10781634,-0.038403466,-0.08110923,0.12048746,-0.035239853,-0.19411048,-0.048882023,-0.06467216,0.1446863,-0.007830994,0.08021764,-0.08717753,0.01795272,-0.114504926,-0.0042167334,-0.0052779955,0.19425432,-0.10984511,0.09816363,0.07452281,-0.0005322204,-0.037228204,-0.22521922,-0.12813814,-0.05003442,-0.019488504,0.019157935,-0.08520972,-0.0908553,0.0089494735,0.06134562,0.07557731,0.06346831,0.025388017,0.030911984,-0.00484595,-0.02552216,-0.05202934,-0.010664635,-0.018334018,-0.07134736,0.083831064,-0.02103336,-0.102587275,-0.06367444,-0.104067005,0.06990932,0.18357176,0.14825825,-0.05160421,-0.37631038,0.009249749,0.04711844,-0.025766177,-0.014512333,0.00287084,-0.25472078,-0.036772575,-0.057575263,-0.024726022,0.013774765,0.06865805,-0.035933163,-0.020999724,0.0061223223,-0.043050367,-0.049915552,-0.073709734,-0.08309637,0.0479774,0.020004706,-0.00004180537,0.024630545,-0.13500082,-0.052159723,0.022134122,0.10088735,-0.0183243,-0.11923685,-0.16538855,-0.02447311,-0.015094956,-0.107646845,-0.03971004,-0.105649814,-0.01888325,-0.14144975,-0.12615259,0.006172056,0.034355912,0.08090541,0.04225454,-0.03803224,-0.06783908,0.034895644,0.12150887,0.0818879,0.080530204,0.10769826,0.049943343,-0.16590884,-0.17780985,-0.14392126,0.20554222,0.18234807,-0.23709443,-0.104528524,-0.09369285,0.04062792,0.14281078,0.03978972,-0.021871984,-0.072974734,-0.11447083,-0.08008184,-0.0163889,0.0036823459,-0.028990045,-0.06456383,-0.012299325,-0.02330599,-0.09354329,0.00017527615,-0.029152995,0.13412619,0.08543373,0.14615282,-0.2062917,-0.2825976,-0.010165131,0.21714337,0.21258089,0.04752827,-0.20362325,0.007873784,-0.03464761,0.018445916,0.01175573,0.060669567,-0.073948696,-0.07314794,-0.058992486,0.024570433,0.04010102,-0.00046419137,0.015822275,0.05368272,0.05146177,0.022303019,-0.01984285,-0.00043351858,-0.043525744,-0.026786622,-0.16226277,-0.021197444,-0.07264778,-0.023171682,0.13641042,0.05461162,-0.008548372,-0.047279794,0.029008498,-0.03345489,-0.22346896,0.022237837,-0.09249673,-0.028775688,-0.15751731,-0.03636506,-0.06361369,0.10817685,0.070052385,-0.064412855,0.032554556,0.005244863,0.0020505097,-0.006048841,-0.0038888855,0.005323877,0.051712155,-0.11856199,-0.15555999,-0.1647827,-0.109113954,-0.065320164,0.05158122,-0.14296405,-0.013705267,-0.08333635,-0.033103924,0.07301699,0.00005903765,0.022911424,-0.09436283,0.010209508,-0.059377465,-0.0761143,0.0045228326,0.051787246,-0.041069515,0.010044551,0.06848323,-0.0075132675,0.0027721175,0.019931758,-0.10022504,-0.03203453,0.05510964,-0.1319027,-0.023538923,-0.06046613,-0.11172097,0.025573712,0.15084438,0.11572317,0.014900525,-0.1640916,-0.12088314,0.068253346,-0.03362031,0.014750121,0.006290679,-0.059398636,-0.010842021,-0.11822161,0.047587074,-0.060102146,-0.020383267,-0.030862348,0.008782909,-0.0014328671,-0.0092772795,0.0400811,0.026902974,0.013548518,0.0019741277,-0.08006565,0.043284692,-0.016336624,0.009546527,-0.051305365,-0.019368889,0.06859486,0.0879315,0.06283389,0.13236657,0.08015844,0.14840333,0.0015067924,-0.016062528,0.044928826,-0.03164998,0.0006430788,0.007500234,-0.047845207,0.06054296,-0.11187897,0.03823041,0.022045063,0.022350421,-0.060913492,0.04344443,0.03831385,0.059303116,-0.091311194,0.031529896,-0.04637282,-0.12045783,-0.083649665,0.017229548,0.024081755,-0.047662545,0.11595777,0.17988604,0.0739533,0.102699585,-0.002429649,0.015249487,-0.006517517,-0.016353305,0.033855755,-0.080317415,0.03222889,0.025676396,-0.044359148,0.015620187,0.04556392,0.016246988,-0.03838296,-0.04308259,-0.105241805,0.050745547,-0.046396013,0.024611617,-0.022985915,-0.048086528,-0.14423372,0.0091904905,-0.10741168,-0.03039608,0.13613464,0.08422941,-0.09434299,-0.02422003,-0.017120693,-0.022341806,0.004845841,0.0058782124,0.02158421,-0.055722278,-0.009497311,-0.01605234,-0.0606476,-0.054187115,0.10231424,0.025692174,-0.020592093,-0.020462979,-0.049297605,-0.092739694,-0.032157607,-0.07071794,-0.029816626,-0.009186897,-0.021696523,0.007255981,-0.10116353,0.056008715,0.016572062,-0.10868342,-0.044100914,0.10490631,-0.043542765,0.08806406,0.002867746,0.017507661,-0.0070633274,0.011263151,-0.031111956,-0.013030579,-0.009741051,0.04646004,-0.021813244,0.008739403,0.08149812,0.12571567,-0.05410582,0.11718249,0.04209682,-0.066602096,-0.005130381,-0.059796818,-0.055502646,-0.009770911,-0.115713656,-0.021986272,-0.037062645,0.0033964803,0.081661254,0.0092399595,0.09709608,0.07764619,0.06971901,0.033466525,-0.05947789,-0.011544911,-0.04719999,-0.14214481,-0.0027458656,-0.044761192,-0.11836404,0.060982227,-0.04421733,-0.017250272,-0.046976067,-0.0067665367,-0.0545973,0.027322004,0.055184055,-0.0073181544,0.043422457,-0.042490408,0.03375961,-0.0071821557,0.016258067,-0.0058949953,-0.05717988,0.100821376,-0.03550876,-0.017490046,-0.005282524,-0.052165095,-0.049432408,0.0038304427,-0.0077617825,0.051773127,0.03343062,0.04315304,0.019926514,0.0064018257,-0.0133617325,0.1478962,-0.0544156,-0.07388525,0.05408108,0.0014189947,-0.050084557,-0.009409275,-0.05180021,0.062789716,0.077956356,-0.090701744,-0.028117727,0.0024621387,-0.06863928,-0.079256214,-0.015827287,0.09820049,-0.023821983,-0.03664551,0.13148892,-0.09583224,0.07201772,0.023190064,0.10168705,0.021333154,0.0031335312,-0.044379734,0.023025641,-0.06369123,-0.06973204,-0.026189374,-0.0015153484,-0.05733363,0.0014583622,0.0798707,-0.0890539,0.015072175,-0.0024532203,-0.06331128,0.054628763,0.062828854,0.014675843,0.05116777,-0.06508808,0.040002152,0.031210957,0.026740704,-0.058313966,0.037366424,-0.005115398,-0.042452484,-0.077285714,-0.0813093,0.047259644,0.009416855,-0.009751067,-0.013746801,0.016784843,-0.07100238,0.014548783,-0.087170996,-0.03486267,-0.029872973,-0.02278411,0.02692282,0.05660559,-0.122188926,0.051721774,-0.034599848,-0.045805193,-0.0079382695,0.06323715,0.08462287,0.024728728,-0.06231762,0.045808643,-0.046554852,-0.027525445,0.017061783,0.023286227,-0.081254326,-0.010209045,0.06750786,0.09165299,-0.030626418,0.014881651,-0.03269898,0.010864564,0.032446686,0.08562145,-0.014484909,0.012356465,0.050088827,0.037318535,-0.010067506,-0.100421086,-0.045852687,0.07810725,-0.040529333,0.049359374,-0.025004067,-0.0599795,0.0009698996,0.065815754,0.027273014,0.0065306653,0.00790169,0.08565475,-0.015705828,0.03733231,-0.04084633,0.005014572,0.027173506,-0.045606893,-0.0076909536,0.0673724,0.032412328,-0.05515876,-0.049970377,-0.12848395,-0.02565962,-0.15199825,-0.048719462,-0.050084457,-0.16253063,-0.053553335,-0.055448726,0.0045148125,-0.08300523,-0.03252138,-0.040017333,0.022610152,0.059981946,-0.05077118,-0.10818636,0.09465012,-0.002549258,0.07122812,-0.0011668935,0.04918997,0.07734826,-0.062123153,0.044464853,-0.015739193,-0.0026078557,0.036094785,-0.12912674,-0.07197963,-0.15143134,-0.13189064,-0.15359816,-0.113057666,-0.14592707,-0.09231359,-0.13286065,-0.14757138,-0.06426271,-0.07615987,-0.034535706,-0.0049565323,-0.051739838,-0.0743073,-0.000548326,-0.0015056486,-0.0678223,0.016938569,0.038019285,0.008344552,0.085427985,-0.04180991,-0.010641917,0.0062476825,0.12132411,-0.031372134,-0.08227723,-0.11240107,-0.05575092,-0.045088146,-0.038306434,-0.15110455,-0.067867525,-0.09771389,-0.17302242,-0.2000939,-0.19593772,-0.043544836,-0.014849188,-0.055689123,-0.010482324,0.05246909,-0.034533966,-0.08664045,0.1714968,0.007415892,0.052488614,0.0011872099,0.06781265,0.037550673,0.026511582,-0.08114221,0.030166084,-0.042707395,-0.12124571,-0.061468374,0.0005913305,-0.06934809,-0.006911868,-0.051499475,-0.072421975,0.019027019,-0.051489744,-0.16972212,-0.10048002,0.008892385,0.041281316,-0.07907907,-0.00050829165,0.08360376,0.0048085153,0.051919468,0.023167932,-0.01959144,0.09383463,-0.011581324,-0.01850531,-0.00021647317,0.02706638,-0.0023660546,0.078398965,-0.08429335,-0.06702817,0.031264275,0.025915526,0.0909202,-0.07623131,0.04219984,0.06964688,0.02961766,0.053414684,0.048051953,0.008089975,0.007971314,-0.0571937,0.016938863,0.044701155,0.07470514,-0.019418653,-0.009103857,-0.0483016,0.018642552,-0.0154244555,0.020028261,-0.06280405,0.08324356,-0.017597392,0.021655522,0.06201436,-0.028916204,0.00032427465,-0.07606855,0.09198983,0.15575995,0.11318233,0.063061476,-0.040116355,0.08151444,-0.062829815,-0.064830996,0.06210401,0.027325435,-0.030662434,-0.072722815,0.0041758004,-0.0018319692,0.065433584,-0.018199626,-0.0271984,0.054827154,0.05784938,0.04891075,0.073995054,0.005132553,-0.008570764,0.076358505,0.066513315,-0.09036465,0.00026310032,0.12143494,0.15334499,-0.07354675,-0.08839653,-0.14460775,-0.16718858,-0.20799963,-0.09911665,-0.009960515,0.07999171,0.1822061,-0.0029217023,-0.010073219,0.028234387,0.060829874,0.0142670935,0.03751469,-0.0024421026,0.0489216,-0.04701961,-0.006424073,-0.08377547,0.10971382,-0.020809783,0.23714752,0.12609394,-0.05592587,-0.048586834,-0.002036926,0.02581465,-0.1904101,-0.08486,-0.06057456,0.01774685,-0.04892988,-0.15310393,-0.014035498,0.07055156,0.1035181,0.12660435,-0.066170335,0.012277593,-0.0010793478,-0.07313528,0.01696915,0.031432867,-0.058406983,-0.034790244,-0.057825074,-0.009523372,0.028034428,-0.074531525,0.14080861,0.15323047,-0.072607435,0.057816107,-0.10144134,-0.12232494,0.0027949072,-0.02107196,-0.062293544,-0.1920013,-0.000587239,-0.010025292,-0.012033464,0.13164933,0.07039851,0.13937797,0.06637923,-0.0044978647,-0.036737587,-0.045445416,-0.01192915,-0.0348791,0.013507632,-0.088411406,-0.04730846,-0.038562477,0.026640091,0.049816947,0.14939052,-0.00990733,-0.051404826,0.14015399,0.1293881,0.14045565,0.21497148,0.28416276,0.12962669,-0.025335653,0.124023885,0.12026529,0.030520009,0.002816383,-0.0049225087,0.05677342,0.11375919,0.059785843,-0.04808095,-0.060816403,0.043605596,0.030921236,0.011186725,0.0073222807,-0.045658924,-0.05523138,0.022393242,0.072193295,0.037746746,0.06371586,0.1609817,0.23793213,0.23949327,0.32620665,0.3377863,0.30222383,0.26020512,0.007278471,-0.026187155,0.12279722,0.07908874,0.092237875,0.08316829,0.048039503,0.050735556,-0.017280588,0.0707374,-0.004974521,0.06245908,0.0024085734,-0.07847926,-0.038815916,0.0008394502,-0.024525978,0.01723773,-0.05222778,0.09210428,0.024585431,0.14807282,0.42886207,0.40727377,0.3764094,0.2581631,0.23719382,-0.0005827183,-0.0044519273,0.06316849,0.20209861,-0.09561265,-0.011308849,0.12395173,-0.036721647,-0.10581614,0.03764966,0.06595221,0.007642717,0.07103517,0.044143148,0.024368519,-0.014051089,-0.07318382,0.024894001,-0.04538393,-0.10091199,-0.17488562,-0.08156108,-0.16334407,0.054614227,0.0146808205,0.057720073,-0.077650174,-0.0641326,-0.17137004,-0.06504467,0.05512561,-0.021681625,-0.053400315,-0.09339724,-0.0015740449,-0.09587569,0.045014687,-0.016330393,-0.01786165,-0.022317579,0.068874516,-0.011366859,-0.0846338,0.06461052,-0.08847194,-0.04139731,-0.100885384,-0.19543537,-0.21206476,-0.24768247,-0.3151346,-0.35289305,-0.3336484,-0.35525832,-0.42613256,-0.3887031,-0.12597622,0.0059444173,0.003933441,0.04385723,-0.017224392,-0.09060974,-0.13778898,0.01575962,-0.0869606,-0.04789642,0.008226816,-0.08046423,0.057354614,-0.04938318,0.07926801,-0.046551906,-0.0052048336,0.039279893,-0.22735682,-0.18512331,-0.21721941,-0.32764694,-0.33710602,-0.3570467,-0.090935074,-0.26860172,-0.33063662,-0.109476335,-0.043490585,0.044986457,-0.026646117,-0.03159483,-0.020799862,-0.03240727,0.0676432,-0.023166928,-0.029695561,-0.09271232,0.052143715,0.012625232,-0.04762067,-0.0014225947,0.06834633,0.08777319,-0.08014247,-0.092187285,-0.13904284,0.0020018488,-0.012101021,-0.10524198,-0.17496745,-0.172384,-0.18667038,-0.3181818,-0.2603311,-0.18214773,-0.037439395,-0.12946613,-0.07049613,0.005288717,-0.06000007,-0.0025591967,-0.044212684,-0.12820847,-0.058421366,-0.023647957,0.00819774,0.083260484,0.0056183953,-0.08149198,-0.021627624,-0.029532172,-0.040739644,-0.011795778,-0.04363562,0.043450464,0.014783494,-0.044948976,0.00023535885,-0.05797914,-0.060319547,-0.122636676,0.03981994,0.033617187,-0.110442325,-0.008402024,-0.02890456,-0.10112248,-0.08976413,-0.14133298,-0.13193958,-0.007935027,0.10580378,-0.05326775,0.064184316,-0.007686513,-0.02679384,-0.031796727,-0.03346795,-0.039092086,0.10023091,0.11185542,0.102208994,-0.010523085,0.023607232,-0.004293739,0.09623376,-0.08821029,-0.0681503,0.002746143,0.112317,-0.002981894,-0.085134275,-0.108946785,-0.11959812,0.006317622,-0.18146482,-0.13642152,-0.110486455,0.0076708444,0.05138817,0.07892386,0.04704813,0.02564322,-0.043894403,0.016901974,0.050233252,0.0013444622,-0.16166344,-0.0008229961,-0.04562565,-0.012362427,0.023170076,0.10176643,0.04426917,0.010658127,0.11253565,0.1109545,0.035282303,-0.04450832,-0.060639653,-0.084723905,-0.14308496,-0.09406852,-0.14386897,-0.06340692,-0.11934862,0.090426326,0.09683731,0.073678456,0.04428491,0.026244305,-0.04762492,0.013320364,-0.044952583,-0.01251276,0.01597034,-0.037917405,0.057712756,-0.0004995433,0.17788702,0.06920699,0.03062014,0.0011452575,0.1114709,0.08494396,0.04664247,0.14066888,0.06000058,-0.100191765,-0.027478151,-0.10617837,-0.086941324,-0.09546251,0.024025902,0.064810954,0.038081568,0.019642299,0.0034764993,0.0654868,0.045987792,0.03253737,-0.058383904,0.057624903,-0.012950598,-0.000027863527,0.036415625,0.002592743,0.004194003,0.14870478,-0.054600693,0.058331493,-0.018164556,-0.039229814,0.13328418,0.23043506,-0.05451089,-0.099209346,-0.059572455,-0.030517222,-0.018290488,0.008130857,0.08475816,0.048952498,-0.009755315,-0.035458155,0.044333722,0.110076055,-0.04721441,0.035377096,0.013011073,0.060684443,0.080048196,-0.02495279,0.024512254,0.025023445,0.072572276,-0.05019622,-0.13049227,-0.075563766,-0.084872395,0.021104367,0.10545401,-0.0011471293,-0.14900826,-0.022199541,-0.032207802,-0.06580012,-0.020317294,0.06457769,0.00807375,0.054702792,-0.05976472,0.04776364,0.015780102,0.03630625,0.01307218,-0.06518336,0.0037114485,-0.03167479,0.015426776,0.017388409,0.05711257,0.10720703,0.06187563,-0.009311035,-0.001829658,-0.06685595,-0.07680579,-0.05289469,0.077974014,0.058137693,-0.087173454,-0.018926986,-0.041676186,0.003504836,-0.034488898,0.0076205265,-0.041797616,-0.0019134423,0.027670693,-0.03228659,0.02042898,0.07811369,0.005446311,0.012206609,0.03024657,-0.03258916,-0.09555957,0.039663173,-0.049190097,-0.041396894,-0.04622834,0.012704093,-0.045659497,-0.085819274,0.0055325674,0.082497135,0.029246634,0.030396812,0.0121089,-0.062468164,-0.05291507,-0.048757445,-0.020129152,0.027326945,-0.095848136,-0.06441279,-0.02544737,-0.044192,0.085980326,-0.069376975,0.07677054,-0.040857296,-0.029143099,0.044166595,0.06307046,-0.052777156,0.009419722,-0.042001642,0.008944242,0.09142014,0.02557488,0.0060324604,0.10996129,0.044834897,-0.028291373,0.033493012,-0.0035765714,-0.013648158,-0.047743574,-0.0145717235,-0.03785412,-0.046983022,0.04447452,-0.026587987,0.0958493,0.018301133,-0.016020669,0.024400046,-0.052595004,0.048024613,-0.06898536,-0.106347516,0.04788701,-0.030406384,-0.036321577,0.05506293,-0.11314864,-0.0021756578,-0.028015796,0.07408189,-0.08520006,-0.033966027,0.032854676,0.018868877,-0.029592931,0.030901928,0.019306814,-0.0223633,-0.00660585,0.11699962,0.009259025,0.037588578,-0.036052477,-0.054199595,-0.023650717,0.07850841,-0.007728388,0.007920237,-0.098238125,-0.03758313,-0.004539214,-0.006079262,0.017856037,-0.04760329,0.04689696,0.053990882,-0.025788829,0.031253137,0.017976517,-0.03882045,0.05189945,0.100060225,-0.04287405,0.041209977,0.13694325,0.004869966,0.044582553,0.049555708,0.120882235,0.10862729,0.0865075,0.0139109595,-0.03250679,-0.000349862,-0.028315486,-0.054602742,0.022031067,0.0019069784,-0.038116045,0.030369315,-0.08753887,0.039270673,0.027878793,0.01708985,0.049539257,-0.0005847407,0.027287362,-0.06792751,0.010124073,0.035104502,0.09596068,0.055992957,0.030379357,0.14241509,0.08492313,0.10699256,0.022513835,-0.037486278,0.0065541044,-0.029059526,-0.019443313,0.009289125,0.050911196,-0.027588695,0.04579063,-0.0027509711,0.005111652,-0.025174264,0.028628312,-0.015011779,-0.031610988,-0.055904258,0.012305752,0.16496292,0.06951721,0.07505072,0.0049209334,0.022098169,0.22758655,-0.015908798,-0.042714536,0.041564625,0.18887177,0.11368814,0.12561671,0.024965767,0.003313222,0.088198654,0.0018813368,0.044894498,-0.10763817,0.012646949,0.08643857,0.0025514024,-0.10363716,-0.020164428,0.026482582,-0.05118983,-0.02750468,-0.010670805,0.0659237,0.029847153,0.16439256,-0.014322579,-0.06409703,-0.031809438,0.11910678,0.01180355,0.100382514,0.164952,0.022969142,0.15839884,0.1834591,0.12155264,0.10642992,0.040023815,0.050581057,-0.053671725,0.06724076,-0.0019733855,-0.041832205,0.024821403,0.030558951,-0.009616872,0.040433776,-0.02543815,-0.056192905,0.029206796,0.054325506,0.19052632,0.3819956,0.21234812,0.25639248,0.24489598,0.26252204,0.07287887,0.121953234,0.012594144,0.018285863,0.1828632,-0.0042048213,-0.02069702,-0.06800926,-0.029566098,0.02330338,-0.014234295,0.06990436,0.059428316,-0.050273526,-0.05958645,0.05806846,-0.16738495,-0.1975048,-0.075071625,0.026461517,0.090752766,0.16880514,0.3584613,0.3107345,0.37346858,0.2643512,0.28790343,0.012316051,-0.037184246,-0.14968213,-0.09313203,-0.041478544,0.08671742,-0.02660928,-0.15452792,-0.2290865,-0.07180911,0.088196605,-0.029419512,0.08761705,0.07204468,-0.08727554,-0.067785606,-0.051584862,-0.120112546,-0.13027233,0.008534808,-0.09805598,0.25855318,0.06680544,0.12587644,0.24430782,0.1545872,-0.0210994,-0.11142959,-0.14739837,-0.19148564,-0.24791569,-0.19088463,-0.14258234,-0.25488785,-0.18260899,-0.22239307,-0.21191543,-0.025719259,0.07724285,-0.027424166,0.021077076,0.07897554,0.061286062,-0.13466574,0.02370141,-0.03800157,-0.02168763,0.15238538,0.092875384,0.14069904,0.10099727,0.26534128,0.258559,0.016269665,-0.19075803,-0.17216393,-0.22368261,-0.37356278,-0.23767246,-0.18259193,-0.36068666,-0.27761576,-0.22211215,-0.2545908,-0.21038571,-0.08060404,0.011084994,0.12308525,0.006156937,0.027228327,0.010345513,0.0070786243,-0.000012179149,-0.03139595,-0.0018682418,0.13287818,0.060887028,0.09726489,0.0057303617,-0.076798275,-0.08726453,-0.13592319,-0.06466528,-0.23677503,-0.29049107,-0.16733451,-0.22683166,-0.056444086,-0.21802425,-0.013169093,-0.13635854,-0.19859008,-0.107499115,-0.09151656,-0.09793081,0.01431438,-0.012976944,-0.026107462,0.0637038,0.030991234,-0.022744553,0.10891842,0.029396063,0.030670002,0.042113844,-0.11893294,-0.14295003,-0.045806494,-0.12103376,-0.045674417,0.18950842,0.102083825,0.0016028663,0.1494756,0.26556143,0.0050565866,-0.026642146,-0.024731606,-0.07775375,-0.038936157,-0.055578962,0.014832666,-0.01695307,0.029279439,-0.11549401,-0.0050395764,0.0057173916,-0.060266487,0.07659422,0.07738786,0.017416734,0.06066916,-0.01733176,0.1769995,0.07861929,-0.01734756,-0.0012732155,0.04957303,0.14466844,0.14261901,0.016513921,0.08635135,-0.016677313,0.13432646,0.12285064,0.06566612,0.0031587933,-0.07112318,0.016039941,-0.1412127,-0.08909576,-0.039989755,0.0827283,0.05542636,-0.017722165,-0.08841973,-0.06031566,0.015861861,-0.10915062,-0.09123099,0.05884959,0.017958594,0.09717559,0.11422381,-0.09761357,-0.14817,0.0012613368,0.1323057,0.014024494,-0.00025965532,-0.1510464,-0.0940942,0.06712466,0.10981864,-0.10767984,-0.0064982697,0.018872593,0.08057838,-0.009322245,0.1046278,0.058957897,0.027146367,-0.004640805,0.125757,0.005474696,-0.04647863,-0.21966358,-0.09112944,0.017770233,-0.15212764,-0.17975558,-0.1143258,-0.1612105,-0.14188914,-0.062667,0.013024836,-0.05702125,0.0009230251,-0.1024318,0.112913966,-0.12251525,0.08093915,-0.02913982,-0.027042566,-0.0789876,0.04960277,-0.052977163,-0.04397707,-0.0671182,0.029407524,-0.0392058,-0.064807296,0.0023263632,-0.0874843,-0.17033389,-0.19272469,-0.15802826,-0.07649879,0.0767736,-0.09034793,-0.21255182,-0.15336145,0.09948878,0.067476876,0.049762513,0.09022586,0.06294687,0.16550015,0.054241195,0.05581435,0.111529276,0.054157887,-0.08705025,0.05741898,-0.0119468225,-0.028600028,-0.03810046,0.02931142,-0.034829184,0.070113435,0.02830514,0.021368459,-0.1339531,-0.20137782,-0.29083312,-0.19040018,-0.19297446,-0.19246237,-0.067147605,-0.06265247,-0.091949746,0.18989734,-0.019282069,0.07715652,0.068959884,0.25298634,0.02054837,0.09038489,0.036961656,0.03366165,-0.016962482,0.044908997,0.09122172,-0.016861299,0.0012425078,-0.0818481,0.017381454,0.06881349,0.095536046,-0.067517385,-0.043837033,-0.04744351,-0.11581396,0.033151448,-0.0412687,-0.05980011,-0.080566354,-0.18962601,-0.121175274,0.11705253,0.13698485,0.016768917,0.053601835,0.026827408,0.0522101,0.050464492,0.062777966,-0.03703322,-0.025203465,0.029949814,-0.054966472,-0.11893366,0.032576174,-0.08528299,0.041774713,0.034420166,0.0013000281,0.064618714,-0.08611607,0.004004329,-0.020602329,-0.016640747,0.10481356,0.025839595,-0.20363656,-0.089730486,-0.19009596,0.24947406,0.13608713,-0.009821289,0.012294924,-0.05333909,0.054003373,0.12094573,-0.006451556,0.034979854,0.0055874544,0.08445425,-0.10610932,0.059133966,0.029475112,0.013509986,-0.12048584,0.019329494,0.036872968,0.042412326,-0.08126442,-0.04072322,0.027213417,0.23174442,0.22997633,0.03773328,-0.102006875,-0.119802214,-0.15272303,0.06368541,0.099644296,0.05629609,-0.030838197,0.04535351,0.099853,0.05070997,0.019877074,-0.023273734,0.1442476,0.1403104,0.05758942,-0.013620248,-0.07728301,-0.064588636,0.1442444,0.003520999,0.013648842,0.02824456,0.044625353,0.08563453,-0.136645,0.0013389961,0.06358844,0.019664375,-0.15355287,-0.22019498,-0.14614892,-0.022172496,0.026703352,0.039243173,-0.048386376,0.021790292,0.14787255,0.019913644,0.03571379,0.08432779,0.05696597,0.12827986,0.06964346,-0.0016440708,0.006401004,0.051236875,-0.030049587,0.035538998,-0.013557117,0.048150122,0.075659126,0.03956233,0.1092963,0.03730069,0.022189522,0.07622842,-0.11611084,-0.12684941,-0.14443924,-0.121309705,-0.13858509,-0.040356025,0.026785752,0.08233782,-0.008530276,0.15072457,0.07072167,-0.005432542,0.01969136,0.049353432,0.014554568,-0.0011606939,0.017718272,0.14764178,0.020160768,0.022531446,-0.0026460695,-0.025279075,0.043981966,-0.07303251,-0.072818704,0.055136945,-0.05235508,-0.055681817,-0.0018002857,-0.09643405,-0.101521894,-0.17778438,-0.008493327,-0.06325477,-0.017415324,0.037837435,0.0143264625,0.184707,-0.116267,-0.058527358,0.07312177,0.02106352,0.01823516,0.0042556236,-0.011898693,-0.018299047,-0.008312858,-0.048402812,0.06046364,-0.017902292,0.033326548,-0.05187858,-0.05295454,-0.0455521,-0.055963658,-0.021791339,-0.05842169,-0.16105026,-0.07762004,-0.06914928,-0.109872974,-0.065517776,0.026583966,0.0010597396,0.115232155,0.1455693,0.13552968,-0.008993875,0.08548491,0.016333213,0.11668867,0.08134322,-0.04052084,-0.0029662254,-0.035020426,0.06520353,-0.0037671598,-0.032570314,0.053982597,0.078786716,0.048901998,-0.0353529,-0.0843646,-0.020453608,-0.12748055,-0.08944062,-0.20967753,-0.22315855,0.0075244685,0.01904919,-0.0057237567,0.13996537,0.19709904,0.09456693,0.12990963,0.021257855,-0.0921128,0.056958497,-0.02083854,-0.023207089,-0.018297354,-0.02197069,0.0036342272,0.023928493,0.07544799,-0.09307995,0.010209496,-0.047999755,-0.032558475,-0.016622644,-0.03318252,-0.043535788,0.03888649,0.20212242,0.10234424,0.06466211,0.11252538,0.18482907,0.14894937,0.15066253,0.17423889,0.14758714,0.071079575,0.044606894,0.068278536,-0.068982475,0.021456689,-0.013139946,0.15225856,0.028859122,0.004367274,0.02071035,0.08301392,0.03556501,-0.039481383,0.034586906,-0.04212642,0.017402694,0.009240023,0.07724848,0.043695617,-0.019447474,0.010640755,0.12580518,0.08279182,0.10875961,0.09388275,-0.0185873,-0.05138315,0.028642092,0.00058077974,-0.020170957,-0.0052793734,-0.034904324,0.005832301,-0.008738884,-0.023695368,0.0047595464,0.0096552,0.03007688,-0.10881442,0.056553908,0.0771854,-0.041959155,-0.013348854,-0.011385396,0.034877323,0.10233223,0.079148315,-0.014668578,-0.020945814,-0.11068577,0.034002636,0.02486805,-0.100386724,-0.08585939,-0.025410904,-0.053205267,0.04051275,0.054005843,-0.03800021,0.008565089,-0.03277408,0.0028616283,0.07223733,0.0001281839,0.052883517,0.045938622,0.005449689,0.0018615752,0.0014171975,0.0028806652,-0.0650461,0.010588434,-0.012314049,0.009584392,0.021456439,-0.0041710483,0.022920016,0.014528052,-0.016144013,0.031809803,0.030245952,-0.0043035625,-0.033882186,0.033597324,0.06873592,-0.062477253,-0.07547948,-0.12723494,0.021558397,-0.00887474,-0.038031537,-0.08323622,-0.05354955,0.08077258,-0.05189521,0.01588168,0.031603083,0.025195496,-0.021612447,-0.019227833,-0.09079644,-0.00045033178,0.08490613,0.019297425,0.07209612,0.013480097,0.054875605,-0.065323554,-0.042469025,0.011277867,0.046535842,-0.16772021,0.018710632,0.0045087985,-0.038386557,0.032765765,0.008976836,0.008158445,0.0021902642,-0.027348857,-0.019968292,0.009636244,-0.02664188,-0.010834128,0.09338478,0.091449015,0.009001613,0.023621658,-0.01952895,-0.030691506,-0.12302996,0.003379416,-0.045919992,-0.02603458,-0.02767177,0.021038724,-0.06356166,0.056810006,-0.008871857,-0.012885955,-0.0450751,0.027759098,-0.078268506,-0.09425822,-0.05361496,0.028292872,0.00075631804,0.04881261,0.0026205732,0.00782022,-0.009728161,0.009808241,0.02388093,0.009614587,-0.009898655,-0.022393903,-0.030776197,-0.008069542,0.01932274,-0.030276163,0.0697327,-0.11290213,-0.019074876,-0.016624318,-0.05327189,-0.051040076,-0.06960434,0.049226746,-0.0021029974,-0.040720567,-0.04334344,0.040468156,0.037242442,0.006521792,-0.01596637,-0.009721977,0.0025722256,-0.030505287,-0.005635747,0.020529639,0.03445901,-0.007918138,-0.044474084,-0.13644782,-0.084922664,-0.06527986,-0.020868372,-0.17279428,-0.3374283,-0.19259189,-0.114853226,-0.06446938,-0.0016637641,0.069648944,0.087469995,0.03727688,0.0040457956,-0.10033816,-0.0071864165,-0.01344538,0.043753803,0.0013054184,-0.02029764,0.020782726,-0.022737134,-0.14022125,-0.052645016,-0.0006228749,-0.08475521,-0.01787913,-0.005872013,-0.29410362,-0.26184407,-0.27620685,-0.19687495,-0.2232624,-0.28029788,-0.20003864,-0.41157904,0.0040753484,0.02273193,-0.10490201,-0.07131583,-0.058518916,-0.06984183,0.05764784,0.0037468825,-0.03483976,-0.012239323,-0.06515881,0.021510994,-0.079222135,0.0033768746,0.042884775,0.08145712,0.02786558,0.041022286,0.02354006,-0.10826976,-0.013357272,0.07542045,0.19117932,0.0671502,-0.00077839335,0.05831739,0.37088874,0.21310894,0.10292225,0.05609701,0.13245048,-0.00925685,0.123513564,0.07003939,0.016759856,-0.02842337,0.057928063,0.05212348,0.025480708,-0.0019334093,-0.066404596,-0.023539819,0.017693529,0.012504834,0.048901033,-0.05957,-0.016764065,-0.00927108,0.062048867,0.123701714,0.2826495,0.16820435,0.29130876,0.48436707,0.36699197,0.51651275,0.21268262,0.31237105,0.11541954,0.0038307533,0.12329015,-0.0787941,-0.071584985,-0.047524452,-0.07863481,-0.020991888,-0.03780211,0.07904695,0.030404111,-0.021599824,0.022139886,0.010988766,0.0063699502,-0.16594972,-0.20687948,-0.05918228,-0.022871697,0.1246983,0.17159656,0.21719627,0.50970614,0.3436695,0.26492894,0.30915183,0.30048686,0.045264643,0.0040434073,-0.05923293,-0.040814772,-0.16583697,-0.17668995,-0.1633527,0.016221829,-0.032553565,-0.0027056749,0.014139444,-0.07618991,-0.017736947,0.035128463,-0.10557863,0.060831167,-0.03352141,-0.09563656,-0.09654419,0.11420268,0.12823084,0.027326943,0.15604474,0.1318094,0.002281152,0.16885877,0.12699322,0.12876733,0.08546497,0.06595529,-0.086829804,0.029437717,-0.23433425,-0.27375832,-0.114487916,-0.047760755,0.08560096,-0.04102572,-0.073587716,-0.0572337,0.033888623,-0.04605567,-0.020915998,0.019183045,-0.0028552813,0.0409742,0.020418594,0.1181857,0.2686819,0.05399891,0.006085672,-0.05700433,-0.034357876,-0.13399588,-0.23064907,-0.004852216,0.04820051,-0.08412658,-0.12593427,0.022313612,-0.19226132,-0.13422836,-0.11162398,-0.06765746,0.049277052,-0.05499358,0.0369031,-0.06729322,-0.0875612,0.06610583,0.005717528,0.039281614,-0.025675032,0.08554283,0.0023723359,0.092057295,0.16151856,-0.13539574,0.037492678,-0.053440273,-0.04654095,-0.24270138,-0.018887023,-0.11200612,-0.13464275,-0.11010227,-0.13762972,-0.061283074,-0.069402285,-0.0015237342,-0.047854204,-0.029190289,-0.054593876,0.11000349,0.0185555,0.023569405,0.056298487,0.049458407,-0.057698146,-0.008670748,-0.02219888,0.18752587,-0.05618339,0.083380654,-0.016460506,-0.15056548,-0.058638774,-0.1342414,-0.18143633,0.044158813,0.20148434,-0.027480777,-0.017359104,0.026310692,-0.056100562,-0.0030065344,-0.10649768,-0.025824359,0.04528252,-0.15096341,-0.07455441,0.02472199,0.022344634,-0.06803113,0.08897106,-0.012269265,0.013272521,0.0757366,-0.07220377,0.011999994,-0.049037486,0.09605499,-0.12734495,-0.26415038,-0.046353586,-0.025715472,0.22638604,0.20928094,0.096093185,-0.060824603,0.030111928,0.08554763,-0.024634793,0.022133335,-0.097623885,-0.24116494,-0.04083677,-0.19175118,0.042133622,-0.008417083,0.022755694,-0.05669896,-0.0010090874,0.09824012,-0.09377996,-0.028008824,-0.09105337,-0.09439185,-0.15696312,-0.068003014,-0.12577817,-0.10508011,-0.05529174,0.015932094,0.17080463,-0.061838564,0.19247593,-0.13626723,-0.018305644,-0.040734585,0.050719928,0.20978732,-0.1758124,-0.18448421,-0.21844876,-0.11357388,-0.028197976,0.047305588,0.0056505906,0.012636219,0.0072399424,0.07438452,-0.018119654,-0.056730594,-0.049698044,-0.04328684,0.07854728,0.015442637,-0.099858776,-0.13219802,-0.13540806,-0.12737812,-0.024955539,0.10868758,0.13070542,-0.06029171,-0.0319726,0.00073321717,0.059907176,0.049043946,0.06782236,-0.08126727,-0.09521384,-0.18856846,-0.12429584,-0.10676982,-0.055181313,0.014567723,-0.062416073,0.038015,-0.001487415,-0.08388682,-0.15781416,-0.08458249,-0.035361506,0.011901262,0.005983571,0.13966945,0.08755727,0.061002385,0.056621913,-0.091762505,-0.15176724,-0.30507386,-0.26852986,0.13686794,0.08278528,-0.0889024,0.07721389,-0.0026246929,-0.022873048,-0.11686375,-0.1580309,-0.10351701,-0.015906606,0.060672544,0.09675084,-0.077659085,-0.033053637,-0.19960952,-0.12025586,-0.052983534,-0.12542553,0.062759236,0.033603266,-0.10230842,0.012589998,0.1911979,0.19560078,-0.03492297,-0.064280465,-0.31833822,-0.03822668,0.09195337,-0.09181932,0.058211572,0.014455753,0.049533248,-0.069551446,-0.12944445,-0.114504665,-0.04687317,-0.017881738,0.097070865,0.045234043,0.04315687,-0.00915972,-0.11766297,-0.20589589,-0.1930663,-0.16927032,-0.009181158,0.03514427,0.22093774,0.25568357,0.09430352,-0.021899998,-0.073011495,-0.16873682,-0.2574542,0.016409872,-0.21238433,-0.09643704,0.11037362,0.02580554,0.0724514,-0.17184967,-0.24338719,-0.13438697,0.0013286169,-0.11433393,-0.018852647,-0.030283708,0.003194249,-0.0818691,-0.10723194,-0.28861558,-0.3528577,-0.36842567,-0.13590202,-0.060405824,0.0049016103,-0.13907395,-0.17227821,-0.34330496,-0.21168853,-0.073361434,-0.308757,-0.014144254,-0.113804445,0.0527509,0.11534426,0.026621513,-0.10873444,-0.11246194,-0.10132555,-0.018270258,-0.032788392,0.042824347,0.0087497765,-0.03941102,-0.032864023,0.012576282,-0.06886402,-0.08080048,-0.18701372,-0.30004412,-0.3804055,-0.20166926,-0.080172285,-0.43300238,-0.50472146,-0.23870924,0.16112372,-0.056806073,0.07431044,0.05211338,-0.042617433,0.08238787,0.14697847,0.06454359,-0.06724924,-0.048125643,0.0020736253,0.02081503,0.06512885,0.014895999,0.096839376,-0.030388663,0.04642467,0.009106919,0.03269987,0.011638379,-0.06866807,-0.10794765,-0.27391383,-0.33444878,-0.2701983,-0.3654376,-0.38344646,-0.33953637,0.08050427,0.16654114,0.13449802,0.006085227,0.060775526,-0.021103779,0.05895945,-0.052556213,0.0009945311,-0.064878404,0.16323324,0.07952113,-0.025280753,0.025425589,0.024000572,-0.025687514,0.030791221,0.01732415,0.10354514,0.07523064,-0.023055099,0.01852002,-0.25483108,-0.25266558,-0.05506568,-0.12441761,-0.18166855,-0.29471922,-0.04425548,-0.03315847,-0.19443345,-0.13697638,-0.1318499,-0.1545543,-0.05850405,-0.11804971,0.055357628,0.08400992,0.08273227,0.049521513,0.024580883,0.017544802,0.0075837844,0.061327577,-0.05795347,-0.025538761,0.14374132,0.09720311,0.1993096,0.05333058,-0.13492578,-0.12023416,0.13735572,0.070420556,-0.008151886,0.16568132,-0.010237071,-0.20695418,-0.28264013,-0.29195073,-0.10476058,-0.24375728,0.09791492,-0.035630167,0.09973743,0.050435606,0.08092263,0.038535792,0.054669797,0.05284842,0.018007942,-0.03468129,-0.028229289,0.04111535,0.016801579,0.099368006,0.24591316,0.098438285,0.06071945,0.2184705,0.28756803,0.21440564,0.20503907,0.26527378,0.043923754,-0.01254589,-0.09861493,-0.07048315,-0.09254237,-0.13557465,0.10692962,0.10064296,0.04758728,0.07902562,0.034050375,-0.09083139,-0.05920166,-0.032544006,0.042829365,-0.008062585,-0.045733232,0.1107277,0.073313475,0.13706781,0.05436711,0.12890697,0.124742724,0.23159128,0.30066562,0.13957518,0.31212753,0.32379195,0.05994975,0.030246254,0.1163224,0.11003504,0.14541963,0.22880381,0.18554649,0.14108169,-0.017702362,0.08512763,0.12689523,0.040148534,0.004283054,0.0063580605,-0.08636716,-0.054878063,-0.018175153,0.016602866,0.091493644,-0.0106852045,0.016522337,-0.02665136,0.11340142,0.05814835,0.1559843,0.11429058,0.25254297,0.13830994,0.13931373,0.08905347,0.18392447,0.22303152,0.14748284,0.03638258,0.096377194,0.05064767,0.1185459,0.0017479415,-0.051102974,0.002493349,-0.0058395057,-0.0006278383,0.007291448,-0.015367694,0.028405137,0.052807275,-0.08243732,-0.021245476,0.000032982032,-0.09375832,-0.02325596,0.008608175,0.00721132,0.022567661,0.04113237,-0.011925005,0.018163515,0.06430699,-0.029241882,0.024506541,0.009440595,-0.06427404,0.012394708,0.045830823,0.027009683,-0.030852698,0.12783526,0.03768284,-0.041115798,-0.010651177,-0.007595377,0.019626785,-0.04468851,-0.000107710315,-0.020747866,0.01667597,-0.042019404,-0.05448541,-0.11629054,0.05633697,-0.0075731203,0.10865576,0.07313174,-0.05093702,-0.0012044688,0.13224794,0.04588957,0.074285805,-0.009544928,-0.057607487,0.04559722,0.059837807,0.012604994,0.04519821,0.020011084,0.07333382,0.028222289,-0.041000046,-0.015932601,0.026845839,-0.020266587,0.0476224,0.019045265,-0.03302529,0.060032185,0.101222515,-0.020001685,-0.03161309,-0.022462014,0.059592023,-0.004676703,-0.03061628,-0.0064555383,-0.03915291,-0.0173771,0.05241609,-0.079006836,-0.012501514,-0.021343336,0.054849535,-0.016896212,-0.045983456,-0.0171645,0.005342003,0.043993518,-0.04335992,-0.021274848,-0.008481076,-0.023200752,-0.048999768,0.008027678,-0.023733582,-0.023105381,-0.014379187,-0.051689025,-0.07797341,0.015910516,-0.003898378,-0.031792555,0.022146437,-0.050895248,0.021412823,0.017253574,-0.07297651,-0.02839607,0.0790095,-0.00006901352,-0.070734896,-0.018046273,-0.084966995,-0.058495656,-0.08128715,0.013123121,0.033112645,-0.06142975,0.035666022,0.0055459696,0.042766307,0.055122994,-0.032720465,0.038941767,-0.019728055,-0.01632121,-0.039204095,-0.016206594,-0.030449621,0.02096411,0.086768925,-0.03996517,0.0047036936,-0.05657307,-0.050740026,-0.008564543,0.01326571,0.043166153,0.027998814,0.013687556,-0.0026857383,-0.030622998,-0.074228406,-0.12948321,0.04658713,0.08496391,0.04590756,0.051580217,-0.052937508,0.086396396,-0.07954452,-0.024127796,-0.053224523,0.035348903,-0.08354587,-0.004112996,0.02491913,-0.009970028,-0.071926214,0.031231428,0.055125494,0.058801625,-0.06514677,-0.018486032,0.03559695,0.0062858243,-0.11854693,-0.0024038134,-0.019992858,0.008117785,-0.003993256,-0.10208613,-0.06672221,0.012134828,0.11659911,-0.05464797,-0.074714996,-0.039122418,-0.025021436,-0.03820226,0.020320933,0.034254007,0.12076674,-0.00563235,-0.06963809,-0.11239706,-0.062207256,-0.13452786,-0.01983382,-0.0119358115,-0.024578853,0.00582973,-0.06818516,-0.10659899,0.079585515,0.008087914,-0.028390337,0.008477634,-0.02019985,-0.07896567,-0.025964525,0.019063642,-0.014657018,-0.009352434,0.042748947,-0.03405011,-0.023876011,-0.067334406,0.018783372,0.117091596,0.12245357,-0.050605718,-0.040109646,-0.05396116,-0.12364366,-0.07236015,-0.060853817,0.058217518,-0.09037579,-0.12779893,-0.07287344,0.029130923,0.103411905,0.03047675,0.05821401,0.009729722,0.013889074,-0.02008615,-0.002918798,0.044644274,0.03528068,-0.0371511,-0.056499477,-0.030523825,-0.030253083,-0.07863864,0.035928134,0.1476948,0.14893174,0.09706402,-0.021404784,0.06179271,-0.06835444,-0.119137876,-0.032472692,-0.088423,-0.025721924,-0.047864687,-0.006515494,0.045039494,0.048405465,0.023913642,-0.037309628,0.048147544,0.026809921,0.058893267,-0.019556424,-0.024482565,-0.06257073,-0.008573125,-0.0093985,0.019261828,-0.04983555,-0.009535117,0.10505891,0.085981175,0.20427863,0.016208937,0.07904642,-0.0071452996,-0.018327078,0.020436222,-0.022899304,0.011786464,-0.056095153,-0.08868676,0.01727772,0.100426,0.050975148,-0.05626834,0.14556241,0.0618086,-0.017937021,0.048327208,-0.025859132,-0.04561988,0.022488013,-0.036312222,-0.03601823,0.008184575,0.02052693,0.057344083,-0.037595354,0.10678624,0.09987039,0.011119817,0.08636621,-0.05476636,0.0038991272,-0.0014178522,-0.059153344,-0.07968983,0.033921078,-0.15893699,-0.017243622,-0.019029314,0.041893397,-0.0640563,0.12931292,0.089228,0.03502464,0.09501902,-0.10436088,0.044505853,0.044576406,0.023304107,0.01918369,-0.06416393,-0.012438646,-0.024379052,-0.009418085,0.050909106,0.17647043,0.02463964,-0.03394316,0.015466719,-0.11407828,0.005312235,-0.042592116,-0.056765005,-0.12318698,-0.028927993,0.032788716,0.21313062,0.14171529,-0.029492978,0.07577596,0.048699,0.040782806,-0.032098453,0.06632004,0.033477876,-0.009992808,-0.0019538174,0.0061441665,-0.07677261,0.010486572,-0.018341973,0.0017340615,0.037692893,-0.015199718,0.04236486,-0.016327582,-0.05356501,-0.04568256,-0.06424987,0.0914656,-0.019442763,-0.066573024,-0.04390221,-0.0009255206,-0.07705155,-0.05217741,0.0531319,0.00229669,-0.016837403,-0.017898628,-0.015680945,-0.033675395,0.018598964,0.0334195,0.03986475,0.051515557,-0.059877217,-0.012930673,-0.025775282,0.00085896376,0.12653215,0.052806523,-0.053830948,0.02969896,-0.10534993,-0.13142063,-0.03865121,0.023969645,-0.0141647495,-0.05045789,-0.012805193,0.1216535,0.08316754,0.087498866,0.07776882,0.07479093,-0.050630488,-0.0063199555,0.042155374,-0.037055176,0.06695856,-0.008056608,0.08436764,-0.02138138,-0.028715173,0.078392476,0.08288723,0.16868155,0.10954341,0.03369094,-0.031590562,-0.14426051,-0.07139967,-0.12428609,-0.031356443,-0.039734364,-0.09558881,-0.044626635,-0.017817767,0.08786029,0.03593473,0.027768705,0.02842616,0.08907706,0.015793161,-0.038175043,0.052632153,0.018448427,-0.011068209,-0.069360115,-0.016475411,-0.09049085,-0.18375497,-0.05847064,0.0556083,0.13524164,0.08041321,0.050882116,-0.06506122,-0.09008896,-0.048589613,-0.19231872,-0.12104691,-0.11866504,-0.09001223,-0.042382017,0.13916463,0.016721418,-0.09120463,0.09740603,0.051426135,0.08961342,0.07252482,-0.054942172,0.09408719,0.029677823,-0.027699368,0.01845421,0.13985747,-0.09675794,0.0016339978,0.1003933,-0.063485235,-0.004223936,-0.057636827,-0.03162831,0.0063045607,-0.046716034,-0.06906266,-0.014367051,-0.10742409,-0.11336354,-0.12729926,-0.064583674,0.005334808,-0.06505932,-0.016960507,-0.051557556,-0.023673324,0.011964299,-0.0144994045,-0.016465982,-0.03535969,-0.06543117,0.08169666,-0.011827753,0.082843244,0.012516034,0.06528565,-0.018676296,-0.03193391,0.11533284,0.037857026,-0.011600736,0.026330331,-0.10542785,0.07865185,-0.05577431,-0.10780171,-0.080863446,-0.19612789,-0.023104642,-0.043840617,-0.037762325,-0.011316547,-0.0062993392,0.066158526,0.08252031,0.05438776,0.03655799,0.08183061,0.05497015,-0.006132465,0.019754007,-0.033541746,-0.040129643,-0.0021718773,0.016503634,0.017227212,0.018822394,0.00666432,0.013821691,-0.065179124,-0.0017935904,-0.102026485,0.0072451006,-0.07302547,-0.10220347,-0.027019879,0.066261515,-0.119249396,-0.13595137,-0.03306316,0.068998545,-0.043489493,0.08870212,0.06597144,-0.045849327,0.08173107,0.03347838,0.019394636,0.05779464,0.12250227,-0.007103323,0.00009117491,-0.01700541,0.013697091,-0.059012804,-0.027818296,0.050702102,-0.12917174,-0.033423245,-0.1316944,-0.008134697,0.06670807,0.022537516,0.07529791,0.062790744,-0.028624225,-0.10769379,0.09796804,0.091459066,0.104549214,0.06813983,-0.047883276,-0.0924533,-0.028340882,-0.0034441648,-0.019595677,0.117663085,0.0062284637,0.0112052355,-0.034657106,-0.04065694,0.037395578,-0.07246081,-0.015972855,-0.0058104214,-0.082361035,-0.11828601,-0.12463269,-0.09240237,0.01337322,0.020491036,0.038746897,-0.05180068,-0.07823153,0.060064476,-0.054900195,0.045608256,-0.007640605,0.08787794,-0.01469837,-0.018013012,0.021434788,0.04984863,0.027550697,0.053007957,0.037593853,-0.024548681,0.010556839,-0.0015549099,0.011664226,-0.04387169,0.028488012,0.03978492,-0.010721462,0.0107570635,-0.014733882,-0.081986554,0.049125645,-0.030050613,-0.034971427,-0.059087694,0.0057546194,0.078509554,0.06398133,-0.07520954,-0.031021507,-0.06135576,0.024579031,-0.009132656,0.0004430462,0.030446315,0.0055094534,-0.01709368,0.029737186,-0.08081143,-0.02616587,-0.07916994,0.005066259,-0.04436283,-0.057940535,-0.17384702,-0.01950477,0.052306563,-0.072361305,0.034274086,-0.05227712,0.0068398616,-0.016947117,-0.067928836,0.06712938,0.023894092,0.001984813,0.17359407,-0.0046020085,-0.054213766,0.0021046405,-0.03195134,-0.042277694,-0.04416586,0.019875027,0.048793357,-0.008416622,0.09322525,-0.041464284,0.024281334,-0.046668645,0.017971655,-0.019965928,0.008096818,-0.0762072,0.050170828,-0.032816313,0.06927863,0.015002896,0.090518676,0.054897893,-0.027484514,0.047425896,0.06130486,-0.019588318,-0.043011323,0.0675357,-0.04226213,-0.016498882,-0.078080915,-0.06377317,0.0644664,0.00019379158,-0.054400463,-0.0055254158,-0.030583063,-0.0030540281,-0.028236397,-0.07317779,-0.0694138,-0.03633514,-0.007022812,0.010651914,0.042774733,0.08849127,0.1201299,0.05803387,0.10377548,0.08414446,0.10644572,-0.019903881,0.014959366,-0.054149922,-0.03431744,-0.012381851,-0.036734384,-0.062964015,0.013441249,0.050103728,-0.01660937,-0.0075584976,-0.009528314,-0.055733126,0.034899067,0.08395964,-0.00550682,-0.0412841,-0.04382526,0.023031827,0.04882987,0.032918997,0.030287396,0.028531395,0.060073562,0.015127358,-0.025803857,0.01815607,0.13001081,-0.017078506,0.109888606,-0.05105943,0.04100523,-0.049338847,0.058217768,-0.02982923,0.023088677,-0.046084322,0.022111379,0.03624438,0.05100971,0.014540307,0.046749465,0.011508438,-0.021566894,-0.04021785,0.09363554,0.0007252468,-0.03896317,-0.03668931,-0.06427086,0.020319112,0.030497558,0.021946767,-0.031951163,-0.008595276,0.011108512,0.06078339,0.02488911,-0.033463,0.036937926,0.036105003,0.04237669,-0.040948793,0.048788905,-0.03984133,-0.06895561,0.00669937,0.035242528,0.04913558,-0.06385182,-0.060247064,-0.0127182985,0.060337286,-0.04903885,0.0885725,0.05848273,-0.0020424747,-0.02335535,0.083023325,0.13278642,0.043076888,0.06516486,-0.11905022,-0.065207995,-0.06519567,0.01819179,0.049663115,-0.03908929,-0.038292702,0.013480985,-0.025206232,-0.026145909,0.039489307,-0.034992237,-0.08786303,0.07956416,0.021270502,-0.03564318,0.03533303,0.07134422,0.039937094,0.042274293,0.028504113,-0.023483004,-0.053365722,0.04696071,0.006675496,0.00029662243,-0.024987092,0.02974528,-0.0077617937,-0.009371868,0.05773641,-0.05466424,0.13503043,0.02056451,-0.011966671,-0.013846816,-0.03140713,-0.0154734105,0.021065624,0.017309738,-0.045707513,0.06660589,0.009201501,-0.06528236,-0.0013128232,-0.059733037,0.008478409,-0.028314082,-0.017035939,-0.047271833,0.009565868,-0.096736275,-0.021436822,0.024064353,0.14466603,0.044842668,-0.0071639623,-0.06358876,-0.05974857,-0.03420026,-0.014614039,-0.03523619,-0.043718167,-0.027892845,-0.0023319116,0.10466398,-0.0047434187,-0.024044821,-0.011732128,-0.011523366,-0.011111674,0.052016363,-0.018600948,0.09633939,-0.0494041,-0.022176694,-0.081697285,0.08793329,-0.022760155,-0.001706004,0.038735278,0.02356861,0.004542381,-0.089279875,0.0012702822,0.03291526,0.10079544,-0.08106227,0.010737107,0.054087494,-0.038761746,0.04119811,-0.031299654,0.057108205,-0.03967221,0.012910071,-0.026249504,-0.027002607,0.010669038,0.011368521,-0.066726014,0.012541893,-0.07136566,-0.027762858,0.04602696,0.011397834,-0.1007191,0.021676058,-0.08041709,0.038503334,-0.0053501213,0.047243647,-0.14370538,0.023693807,-0.016028095,-0.08527069,-0.05348489,0.07917622,0.019314628,-0.03012252,-0.013933359,-0.028371423,-0.06265623,-0.07030581,0.024117226,-0.05405219,-0.06691451,0.13701443,-0.012508307,-0.10720479,0.026311751,0.023591299,-0.029396642,-0.066842556,-0.021406304,-0.008193311,-0.11219626,-0.12712047,0.07195557,-0.038597066,-0.12349811,-0.2047892,-0.04083232,0.034833368,0.023689048,0.0019719019,-0.0691067,-0.031267285,0.022637125,0.044068363,-0.05434931,0.038727228,-0.03931943,-0.0002505319,0.042157732,0.007214669,-0.039249856,-0.00039076118,-0.03634899,-0.016174389,0.052591246,0.1519238,-0.06450195,-0.17145331,0.014987636,-0.06703305,-0.051909212,-0.14225627,-0.24847521,-0.12171065,-0.020944273,-0.037422802,0.02249568,0.059109077,0.02716243,-0.014716083,-0.011146424,0.081667766,0.005492449,-0.022908254,0.027352272,-0.072059795,0.03600328,0.046224408,0.0054236026,-0.030944109,-0.037017558,0.02052126,-0.0031000723,0.0048712445,-0.15411009,-0.08048424,-0.077671215,0.046801552,0.12250131,0.014119965,-0.08855804,0.0043375823,0.18073027,0.05411602,0.04045025,-0.018659595,-0.032678258,0.053059727,0.011533124,-0.06150188,-0.04450474,-0.018198961,-0.0039512212,0.08460755,0.008111363,-0.04916413,-0.025369141,-0.111211255,0.015003076,-0.12841462,-0.30819157,-0.22166325,-0.20838304,-0.041577484,0.003289985,0.103147365,-0.06817877,0.01766771,-0.094575,0.021544931,0.15740272,-0.011248595,-0.037513264,-0.048618414,-0.0228084,-0.005671278,-0.07058089,0.052519877,0.055465214,-0.025985945,0.03293817,-0.023457486,0.03878651,-0.012781563,0.02444857,-0.13910618,-0.18780124,-0.13455167,-0.17777066,-0.2262589,-0.2440262,-0.023112409,-0.025355987,-0.008108674,-0.11793655,-0.09379528,0.07067975,0.0715136,-0.19509086,-0.18383123,0.024160035,0.031339202,-0.04078768,0.01301484,-0.0887529,-0.11459275,-0.07797433,-0.041677754,0.03944564,0.047432,0.07766673,-0.04416773,-0.013732729,-0.11144632,-0.15162426,-0.25646067,-0.2853273,-0.17935821,-0.2250423,-0.0894656,0.28092423,0.16344441,-0.022940276,0.06625177,-0.030080877,0.002241243,-0.10844103,-0.0699055,0.04711828,0.033220157,-0.06898151,-0.09517641,-0.0006210997,-0.031261668,0.05487008,-0.0016662204,0.05349428,-0.13155551,-0.041112367,0.042795744,-0.103119634,-0.12896651,-0.20494644,-0.2784596,-0.33324134,-0.17507431,-0.0634006,0.08335994,0.08527248,0.19095679,0.06579439,-0.13605218,-0.18923807,-0.03150064,0.12195881,0.12556998,0.0946103,0.112896025,-0.26282403,-0.2745131,-0.10584732,0.06377806,0.0499815,0.04142897,0.08163163,0.04473138,0.021443399,0.028197173,-0.19351988,-0.12845601,-0.16566207,-0.16766715,-0.29431376,-0.17647228,-0.14959188,0.007670478,0.18927789,0.089953594,0.010922664,-0.070802495,-0.16081722,0.038245816,-0.121792674,-0.024972323,-0.0009075865,-0.0072062085,-0.19058272,-0.26681715,-0.20827296,-0.13472895,-0.05755105,-0.1028281,0.019731877,-0.03801822,0.04066744,0.052819423,-0.14654508,-0.15374473,0.08619931,-0.0923446,0.007681789,0.09606296,0.007935407,0.027913189,0.16889592,0.0772038,0.008656335,-0.24231152,-0.032382697,0.033899467,-0.08097535,0.071417995,-0.14906216,-0.19912732,-0.19101717,-0.2750802,-0.1893885,0.021398252,-0.09559632,-0.0033996012,0.05387828,0.015746944,0.0709695,0.012155561,-0.1153868,-0.14938457,-0.07344752,-0.098147266,-0.01789328,0.0070339562,0.009340552,-0.07205264,0.02840966,-0.057565738,-0.19427456,-0.3226948,-0.08955204,-0.04084373,-0.2781617,-0.10526431,-0.18363991,-0.13189468,-0.1450683,-0.15730017,-0.19067734,0.082193814,-0.013117362,-0.011173141,-0.08267131,-0.058107696,0.06855923,0.0064333337,-0.06988844,-0.094606824,-0.15141216,-0.032493807,-0.043313902,0.031605784,0.058867056,-0.117400065,-0.06123055,-0.1780506,-0.34948957,-0.3032382,-0.10511415,-0.12659173,-0.19965234,-0.2327903,-0.091411814,-0.16853122,-0.16428472,-0.00067477097,-0.08914145,0.0012968138,0.027893282,0.04144396,0.011122952,0.030516885,-0.06487153,-0.015577783,0.19293514,-0.06566812,-0.1730577,0.016106797,-0.02754374,0.04574975,-0.14685291,-0.14185782,-0.09177805,-0.19280997,-0.28218445,-0.016863253,0.19566056,-0.06295499,-0.19760938,-0.17462845,-0.119406186,-0.041460622,0.048531733,-0.08562043,0.051617622,0.014173909,0.10391476,0.004681238,-0.003498973,0.04367639,0.007837283,0.054748874,0.11998833,0.02286431,0.0718657,-0.018998599,0.059639774,-0.07334684,-0.16339357,-0.022772118,0.12731202,0.11260457,-0.08628629,0.20323347,0.28803262,0.057288345,-0.11556408,0.012853616,-0.101351544,0.01010619,0.064151816,-0.074989855,0.010035914,0.17439924,0.070130356,0.030524367,0.072382286,-0.0137691405,0.0130392695,0.024037866,0.008453587,0.19861084,0.25678983,0.19964638,0.17673013,0.072341844,-0.032212343,0.19241828,0.22515222,0.15535475,0.074875206,0.21103226,0.35279882,0.24384165,0.2578441,0.100656435,0.17456214,0.16504979,0.1229039,0.1291097,-0.0074145873,0.19748715,0.070691325,-0.015245861,0.04330963,0.02690499,0.069740474,-0.050270043,0.04088548,0.20038845,0.271463,0.3121589,0.2206158,0.18335702,0.13313642,0.16152057,0.1975575,0.22470978,0.16653709,0.26799554,0.303916,0.074981116,0.27678537,0.1335358,0.05193322,0.1986861,0.14428712,0.14162078,-0.04915411,0.14028203,0.029171513,-0.02969818,-0.05335316,0.011796275,-0.006844325,0.09331588,0.30367187,0.23030184,0.26869535,0.2576996,0.14331648,0.117797755,-0.015084563,0.046566702,0.23743999,0.16697867,0.16944851,0.061728507,0.2535436,0.1248721,0.11707732,0.16032015,0.04601359,0.1307758,0.07427528,0.2355095,0.11586712,0.10635289,0.0062401546,-0.06358309,-0.13780655,0.05342432,0.031104863,0.18345585,0.21825266,0.22593294,0.0795092,0.015802452,-0.008963422,0.020428408,-0.03475984,0.09725658,-0.01637915,0.004818774,0.16818258,0.18957935,0.063462086,0.005430996,0.2777729,0.18446109,0.046522915,0.076404564,0.2015912,0.20427182,0.058099844,0.06940496,-0.039165385,0.013132251,0.01195592,0.0027916958,0.041510873,0.087359935,0.30486798,0.08641201,0.076604344,-0.0321883,0.033114627,-0.10501937,-0.23782781,-0.016803708,-0.11794905,-0.23114623,-0.15120733,-0.07236108,0.17881614,0.0894239,0.107541725,0.121987425,0.20340241,0.22144698,0.08643875,0.020218076,0.05816042,0.057645194,-0.009500959,-0.06924293,0.013074952,0.028701827,-0.12066865,0.08870147,0.035464056,0.02841433,0.008599091,0.015272952,-0.010454041,-0.09207076,-0.2207947,-0.0854011,-0.26159215,-0.28854173,-0.101423174,-0.25876376,0.037521306,-0.1532336,-0.1615199,-0.012384161,0.13200688,0.16404156,0.17520611,0.0014073331,0.14030845,0.032792922,-0.037587237,-0.024206411,-0.08271713,0.0886829,0.02549241,0.037634872,0.028306337,0.042498812,-0.073134035,-0.05790099,-0.21913303,-0.19836326,-0.0042225462,-0.064880855,-0.109171055,0.026530907,-0.19597383,-0.10046878,-0.004568859,-0.17579915,-0.21804008,-0.0045911097,0.13348769,0.23294918,0.19010006,-0.011753924,0.068807185,0.012026742,-0.04199533,0.020174835,-0.040037684,0.097922884,0.1202896,0.039190385,0.04186852,-0.09684859,-0.08172991,-0.092335634,-0.2113396,-0.14008184,-0.13462926,0.00325056,-0.026503049,-0.10073485,-0.08178725,-0.03183219,-0.16258064,-0.34771672,-0.080937706,0.0355804,-0.0047794073,0.13094929,0.091107,0.0010358518,0.09121937,0.006779675,-0.030192424,0.045788966,0.038055774,-0.038023524,-0.050923172,-0.1201002,0.02039205,-0.013656836,-0.0023544985,0.09128839,-0.057476554,-0.0441098,-0.020997953,0.057531215,-0.155574,-0.11685259,-0.18096007,-0.100218914,-0.1486766,-0.08948116,-0.07755909,-0.015544485,-0.044221774,-0.03658362,0.17482133,0.092717,-0.040500548,-0.042128623,-0.04949043,0.037359502,-0.034605112,0.03461504,0.0296896,-0.078846686,-0.06334269,0.08074683,-0.021892315,0.0077175223,-0.11883656,-0.030896144,-0.10387469,0.0045044417,-0.020187568,0.026005236,-0.13338207,-0.15496269,-0.0040549263,-0.07591868,-0.05377379,-0.12999316,-0.037722148,-0.016415868,-0.032635383,0.041450635,0.05836046,-0.037217256,-0.021449145,-0.05595637,0.0015826226,-0.046573017,-0.021416957,-0.013359834,-0.093615115,0.017332686,-0.0015031775,-0.08381725,-0.068601176,-0.101209044,-0.115252875,-0.06440921,0.13215514,-0.032173388,0.07181298,-0.015402858,-0.03554283,0.06765029,-0.040132776,-0.003321001,-0.06357915,-0.11114363,-0.049499482,-0.017764624,0.02426131,0.021120142,-0.01321947,-0.021814385,0.08807574,-0.044189654,-0.008914049,0.007848214,0.014387031,0.098339364,-0.042334598,-0.013495564,0.008243758,-0.05826398,0.042075183,-0.0667797,0.046637367,-0.042705152,0.07997885,0.063884154,-0.030352566,0.059916995,0.017908948,-0.03012005,-0.028682366,-0.02261962,0.02152857,0.0021815365,0.0068314993,0.012719347,-0.003015481,0.017173639,-0.03425657,0.0047585685,0.020073064,0.011051551,-0.013473011,-0.09302364,-0.06346495,0.095612854,0.017748505,0.06030742,-0.021972936,-0.032115653,-0.03430067,0.04776599,0.0009460054,-0.03366043,0.0103352945,0.04156973,0.016419888,0.034542974,-0.060009453,-0.022606937,-0.088224195,0.008702033,-0.07680529,-0.019112729,-0.0247915,-0.060401395,0.035760395,-0.030225914,-0.08976011,-0.008483179,-0.031902283,-0.020151103,0.02466417,-0.09028698,-0.037803397,-0.009842642,-0.020140346,-0.061596163,-0.080871694,0.03435618,0.040993646,-0.07548617,-0.003652422,0.027042119,-0.16513953,0.0034689438,-0.050513208,-0.05339141,-0.09697433,0.041787785,-0.0043190056,-0.07645731,-0.06120601,0.017386278,-0.014516076,-0.0141956275,0.054280736,-0.03408468,-0.038040176,0.07868623,-0.031926926,-0.14669317,0.006701061,-0.036532816,0.012417695,0.15064897,-0.015417175,0.031307857,0.021346815,-0.00908181,0.039122812,-0.006125194,-0.079214886,-0.037710834,0.08761387,-0.060546536,-0.0003238476,0.016218685,-0.017836997,0.019597517,0.03817968,-0.031944603,0.018350607,0.05247271,0.0130358,0.13545735,-0.0855781,-0.03952914,-0.08664325,-0.077951685,0.004784499,0.016870664,0.0422494,0.12125941,0.030694595,0.134364,0.14781597,0.10236731,0.004674791,0.008082879,-0.013994331,-0.04257189,-0.13656098,0.04296631,-0.044589285,-0.060485333,0.0025360826,-0.08497001,0.07352073,0.049692154,0.052417543,-0.017865255,0.025785977,-0.077400975,0.0021882511,-0.006561245,-0.021109525,-0.016784206,-0.0906889,-0.018206391,0.041390352,-0.019214185,0.121393725,0.10837257,0.07951163,-0.0044142134,-0.019066535,0.014156699,-0.01707176,0.0022045993,-0.09468663,-0.17346154,0.0047668912,-0.063741945,-0.038634155,0.022316605,0.03949798,-0.05516011,-0.051485736,0.05237822,-0.03125439,0.024254205,-0.001638586,-0.005072801,-0.012349324,0.024061784,-0.069061466,-0.025236227,-0.003793238,-0.055534013,0.009274291,0.115556516,0.16037212,0.09113147,0.139436,0.0053773127,0.01796092,-0.004723164,-0.16081445,-0.17357165,-0.13955532,-0.01320031,-0.0027396122,-0.010800624,-0.08958251,-0.045944702,-0.021114057,0.06999775,-0.015986461,-0.08368427,0.09142757,0.016241163,-0.14799084,-0.021322481,-0.091522954,-0.16721912,-0.13037667,-0.08415654,-0.0015006762,0.061298333,0.10684815,-0.12777558,-0.048682593,-0.059381913,0.010516331,-0.06165539,-0.16622902,0.07529258,-0.042928677,0.08089503,-0.06936264,-0.036943782,-0.030044952,-0.060302064,0.0058624297,0.028150065,-0.058433253,-0.009577337,-0.02322811,-0.06305295,-0.07405558,-0.04678972,-0.119567186,-0.0010637295,-0.15289038,-0.037756626,-0.13885663,0.0051789414,-0.0938962,-0.05314589,0.04144226,0.11785864,0.1067687,-0.0026684264,-0.033111047,-0.041977156,-0.021452013,0.023235513,0.0017188619,0.0055221,0.0036929334,-0.041894466,0.06375976,-0.07554535,-0.008721708,-0.01957968,0.015305433,0.015401838,-0.016046477,-0.11288175,-0.11750828,-0.13187125,-0.043583773,-0.07230831,-0.061626334,-0.107407466,0.04095113,0.19499639,0.247814,0.14418864,0.22949065,0.15553427,0.13828059,0.08154391,-0.030856991,0.044394538,-0.11138277,-0.028238697,0.08161616,-0.050345086,-0.076524265,0.023185607,0.018221736,-0.02103757,0.03890903,0.006273803,-0.08763946,-0.10509442,-0.10913516,-0.13119099,0.03992292,-0.092577696,-0.057774734,0.101355456,0.02364086,0.047952708,0.23963235,0.2180109,0.11305641,0.2789144,0.2350942,-0.024464976,0.110930696,-0.025814766,-0.09591456,0.01102732,0.013486384,-0.002858057,-0.009501729,0.04628092,0.0138887055,-0.022059556,-0.04818454,-0.092826255,-0.10763725,-0.08957445,-0.07494281,-0.07272821,0.010708908,0.11372749,0.03208455,0.010274179,0.23237187,0.2685897,0.3424134,0.08398328,0.15217261,0.038826823,0.01816355,0.047361977,0.115854464,0.11145123,-0.024010913,-0.0846177,0.00026882577,0.02156309,-0.019943621,-0.033141438,0.11098897,0.0048401486,-0.034999967,-0.084218115,-0.061467167,0.08692151,-0.08582864,-0.012387039,-0.02257761,0.1286371,-0.046480197,0.11776851,0.13934745,0.22626865,0.18050131,0.105202354,-0.036159053,0.092354745,0.12068479,0.052230503,0.23329759,0.07622822,0.0318786,0.054660384,-0.01259043,0.010334469,0.051319126,-0.021105206,-0.08104659,-0.03608649,0.06302862,-0.016226713,-0.09473165,0.010336693,-0.08715625,0.11600829,0.029684555,0.016044056,0.09789086,0.063130416,0.26200125,0.08787027,-0.1620785,-0.10689407,-0.14517303,0.023487186,0.11397628,0.095753916,0.09108866,0.053038847,-0.08741694,0.013346255,0.019367713,-0.07586101,0.05545777,0.09918568,0.015102087,-0.014063553,0.038007136,0.010037575,0.013334088,0.087686285,0.09057502,0.09797625,-0.026867583,-0.112494685,-0.1059782,-0.1137687,0.017343547,-0.11756982,-0.20125058,-0.055557363,-0.09278354,0.05109506,0.00006949711,0.19617261,0.072327085,-0.0748454,-0.0074053556,-0.01321425,0.07491868,-0.08438179,-0.05238182,-0.04044785,0.0048669283,0.046493735,0.024672143,0.15486506,0.012449246,0.05212418,0.12974642,0.09220161,-0.09870905,-0.11339045,0.008541051,-0.028324457,-0.03378371,-0.020082489,-0.19138943,0.055228084,0.07558269,0.08731861,0.12267797,0.14350322,-0.02844331,-0.0338628,0.08137371,0.03768634,-0.04369958,0.04308592,0.0018034794,0.022066772,0.064564586,0.027893702,0.029607316,0.10019649,0.12514275,-0.056473847,0.112887576,-0.0057079447,-0.055520736,-0.114253275,-0.13035268,-0.2661114,-0.12680501,-0.062242977,-0.015334406,-0.015359273,0.033295672,0.010213711,0.053635184,0.009958413,-0.103164084,0.0029213382,0.0040214206,-0.014106745,-0.031169266,0.04401813,0.031150384,0.017601747,0.075446725,-0.015674526,0.1814512,0.02982703,-0.04188257,-0.07226598,0.039756346,-0.08503161,0.012077051,-0.21274619,-0.17292802,-0.27689773,-0.19713934,-0.047135234,0.11620807,0.05670717,0.071253695,-0.04256507,-0.0051497743,-0.12962782,-0.027732028,-0.038632512,0.010029996,0.03307203,-0.066323906,-0.020435434,-0.008390482,0.005249834,-0.047846664,-0.03285106,-0.027102234,-0.020979434,0.046610724,0.070428535,0.049967114,-0.020068485,-0.08656946,-0.11749736,-0.21442239,-0.16449994,-0.08030988,0.13512498,0.114995524,0.10976441,-0.0050871517,0.040211707,-0.11591003,-0.10029152,-0.04861644,0.0062479284,0.066463105,0.044241298,-0.061834943,0.09601514,0.0903631,0.07417752,0.04193964,-0.0011768715,-0.000107960426,-0.00009836151,-0.03265549,0.020052422,0.2539692,0.11731791,0.0645971,0.017050128,-0.19616863,-0.23525286,-0.06641003,0.11716387,0.035373606,0.14697254,-0.02526107,-0.020512566,-0.0872355,0.015767423,-0.010716959,0.014888587,0.06704539,0.050245304,-0.037888106,0.04109565,0.0342435,-0.06246444,-0.03169744,0.041563928,-0.12704736,-0.00470502,-0.0826781,-0.018616986,-0.0010380085,0.094800614,0.09270969,-0.06083656,0.09678386,-0.06293342,-0.02065182,0.04265475,-0.10791949,0.0005463225,0.0033429926,0.096696645,-0.015091004,0.017780313,-0.13234529,-0.08169675,0.0027027961,-0.076341406,-0.079748034,-0.016482033,-0.040508326,0.031392742,-0.009054663,-0.06747733,-0.0044706743,-0.06214054,-0.08238957,-0.05052657,-0.03128513,-0.049472272,-0.009478615,-0.061589696,-0.030729787,0.030725775,-0.035283394,-0.0996246,-0.15143637,-0.05270894,-0.044854507,-0.03458067,-0.107259445,-0.12658261,-0.046437413,-0.0697786,-0.13189484,-0.06683177,0.01249085,-0.0071561565,0.048290383,-0.0043065175,-0.05490371,0.052170493,-0.06945459,-0.020469207,0.012634121,0.010899387,0.012716468,0.0367928,-0.0019191252,-0.04740962,-0.051708676,0.014078463,-0.13825695,-0.029188782,-0.08027196,0.0011108979,-0.033948798,-0.12007496,-0.11059842,-0.16993071,-0.038992092,0.039921153,-0.07400738,-0.023779452,-0.015701735,0.014114058,-0.0126328,-0.060878344,-0.013053105,0.03283965,0.05755596,0.054109212,-0.012941617,0.018898657,0.1188698,0.073119655,0.044816826,-0.08008481,0.14133123,0.099045746,0.05012541,0.016615301,0.016606258,-0.016487097,-0.111966416,-0.07601221,-0.16904946,-0.13072889,-0.05932863,-0.030434696,0.06340969,0.063999526,-0.025742581,0.13952263,-0.08566461,-0.12647374,0.015050532,0.030828543,-0.08723201,0.06988993,-0.021977324,-0.006367082,0.049381893,-0.017633403,-0.015549273,0.06786612,0.026748711,0.17325863,0.037055425,0.056136418,-0.012685547,-0.000717883,-0.115877986,-0.19210637,-0.20239337,-0.13713372,-0.03247538,-0.077098355,0.02854987,-0.0027379051,-0.017114246,-0.09086468,0.002722426,-0.0478134,-0.03862084,0.105750814,0.02783742,0.07039665,0.019310871,-0.0046312874,-0.027638942,0.015869658,0.04544253,-0.12114714,-0.030435698,-0.15127961,-0.12126169,0.047706764,0.064593315,-0.052814353,-0.098764315,-0.04829964,0.047538366,0.008164341,-0.09975305,-0.083495945,0.020091921,0.024390657,0.0029024198,-0.0031784684,-0.07768394,-0.039070353,-0.059351493,0.010508461,0.04933594,0.028103976,0.0049662706,0.026283914,0.05330119,0.107317664,0.0442783,-0.028709006,-0.06290113,-0.12805453,-0.04004338,0.0007991665,0.048286367,-0.04616984,-0.012157413,0.03734483,0.098555915,0.05890172,-0.018871577,0.071264684,-0.017523374,-0.02742857,0.008520815,0.04918963,-0.01218636,0.0045054764,-0.06562823,0.023814268,-0.016862474,0.016072493,0.04179669,-0.040303703,-0.023067048,0.026301736,0.067439936,0.021066684,0.026430728,-0.055937964,0.029870693,0.010632814,0.07541882,-0.037171096,-0.002633339,-0.047953147,0.009973809,0.1410079,0.045571882,0.036805175,-0.054304417,-0.030500298,-0.009082774,-0.073235534,0.03895836,-0.06309822,-0.010272857,0.024229009,0.10051791,0.04637343,0.08895547,0.02886516,0.048074182,-0.10013085,-0.072262295,-0.013590018,-0.03317335,0.013538329,0.004268637,-0.04632114,0.06170679,0.055402372,-0.016973846,-0.00006995722,0.023101375,-0.0048104087,0.07222459,-0.03304168,0.0012157876,0.0795239,0.03546894,-0.00006242782,0.057616204,-0.012115895,-0.046839282,0.055285152,-0.020535357,0.017544076,-0.008955467,-0.043825123,-0.012210299,0.04861154,0.020637138,0.010780822,0.041547567,0.09191113,0.024361923,0.11471447,-0.00934355,0.03999069,-0.05870763,0.078641504,-0.06590872,0.089975335,-0.07576478,0.035405077,-0.065694,-0.02800989,0.010626437,0.0020933936,0.043436997,-0.13227464,0.0069117616,0.00045707548,0.04221551,-0.03587989,-0.06858283,0.008379936,0.04647192,0.004837375,-0.019767476,0.011865273,0.017961372,0.08123686,0.0682084,0.05263066,-0.060721967,0.03440007,-0.034146447,0.078871235,0.032978013,-0.030175243,-0.023652695,0.030492786,0.07011044,-0.08913794,-0.0066199903,0.06391582,0.059503403,-0.053969316,-0.08845698,0.09877289,0.072465375,0.033254173,-0.0119337505,-0.032285135,0.07780238,-0.0010449516,0.05670235,0.06596695,-0.028900156,0.11233902,0.02369509,-0.011478545,0.118236095,0.030222673,0.10681225,0.09055858,0.031978697,0.043561112,0.10649913,0.08594605,-0.010066148,0.067767374,-0.05796441,0.03628278,-0.029421963,0.008785685,-0.044684853,0.017771946,-0.0104781985,0.06302197,0.049268454,0.010260619,-0.016774733,-0.03774347,0.03385215,-0.01497921,-0.03169343,-0.031324115,0.14936316,0.082500815,0.052415743,0.032296766,0.100466296,-0.033505507,-0.011728987,0.010613881,-0.03496302,0.112219304,0.07944906,-0.0668753,0.073006384,0.016366826,-0.032815427,0.048248064,0.038567405,-0.055071462,0.051116157,-0.008867259,-0.032699596,-0.06693687,-0.06371901,0.052821625,0.035164222,-0.18415876,-0.18056954,-0.14250663,-0.109562285,0.026378885,-0.034008283,-0.0132676605,-0.09128579,-0.0034086949,0.0542385,-0.050972644,0.014033475,0.053086497,-0.02161136,-0.03708275,-0.033735313,-0.0035194147,-0.004292508,0.035890404,0.015282721,-0.012216047,-0.016146475,0.0056979423,0.06622932,-0.11928509,-0.08913407,-0.075124264,0.04266141,-0.20881101,-0.33762568,-0.050519474,-0.016679006,0.18534842,0.095558695,0.08230061,0.22160093,0.06338739,-0.08248913,-0.041159235,-0.0008025384,-0.0018386273,-0.04204833,-0.06705467,-0.0028688977,-0.041400272,-0.08748972,-0.01900632,-0.13561055,-0.012844249,0.038496617,0.02022506,-0.1161158,-0.032018576,-0.11992221,0.0055054077,-0.08806435,-0.20101829,-0.17050594,0.027736276,0.0847753,-0.0061352,-0.015451524,0.087753996,-0.120535046,-0.07753834,-0.046662062,-0.078952745,-0.032261916,-0.03221837,-0.026572634,-0.03721793,-0.082458764,0.011504945,0.005242878,-0.054708183,-0.021449221,-0.064527385,-0.0029660044,-0.06478694,-0.10704769,-0.0610324,-0.05121121,-0.027127394,-0.14093637,-0.10587139,0.008016989,-0.064056486,0.11505686,0.0665005,-0.03118383,-0.09893999,-0.08638796,-0.16970094,0.0698326,-0.07144687,-0.017825844,-0.09198097,-0.045928627,-0.032759234,0.019131077,-0.06318597,0.0049173054,-0.019524058,-0.10341826,-0.09835009,-0.13097112,-0.087865844,0.023469035,-0.05937228,-0.059654865,-0.09265119,-0.109300375,-0.25015938,-0.08779422,-0.10634759,-0.088585645,-0.054009195,-0.045124277,-0.028421545,-0.22445735,-0.21685141,-0.038969822,-0.03295132,-0.1388587,-0.15353303,-0.10951146,-0.04213822,-0.06505211,0.014127695,0.024764946,-0.009033443,-0.009680268,0.08800895,-0.08195672,-0.037390158,-0.08186764,-0.13641822,-0.027976869,-0.0619532,-0.16316694,-0.13532726,-0.17134702,-0.28111196,-0.049675558,-0.11035266,-0.03958689,-0.18636288,-0.11944258,-0.111247346,-0.07588346,-0.048127934,-0.17335725,-0.15549359,-0.061330214,0.065035485,0.023048239,0.0101579325,0.03403908,-0.02942524,0.061000396,-0.054568503,-0.004701367,-0.049880657,-0.054122716,-0.014607413,-0.052926805,-0.12783849,-0.35215092,-0.12185779,-0.28048694,0.026080905,0.07926516,0.016851367,-0.007293776,-0.062425368,0.011336887,-0.048873886,-0.08935522,-0.03833523,-0.12726535,-0.14090098,-0.13098614,0.032402884,0.0005254758,-0.073091626,-0.019691752,0.02487799,-0.15122978,-0.005285674,0.0054546255,-0.047760278,0.011342801,0.02373065,-0.24266146,-0.20162676,-0.19516434,-0.12691924,0.014335545,0.16348194,0.11001209,-0.17349982,-0.2229994,-0.13144965,-0.018335862,0.11149273,-0.023102619,-0.09991757,-0.0024137239,-0.12921238,-0.1699062,-0.1657272,-0.06382755,0.020979786,0.0022229466,0.0072893808,0.064059384,0.00081256585,0.0029892211,-0.08280274,-0.015786719,-0.093532905,-0.11286416,-0.1388173,-0.046372417,0.23613936,0.4349314,0.26799154,0.14750172,-0.18072782,-0.23286055,-0.15217498,0.123058654,0.12113292,0.22351052,0.009884019,-0.010623169,-0.0236964,-0.03790375,-0.08764956,-0.05268918,-0.033164505,0.06367727,-0.0008042952,-0.0016560988,-0.020254243,-0.032752104,-0.047596842,0.017970895,-0.021861738,-0.18713647,-0.008314123,0.21378376,0.2591576,0.36532873,0.08659853,-0.031695828,-0.34371322,-0.15781155,-0.11120272,0.11868084,0.25301534,0.08035343,0.027835704,-0.12026943,-0.07778866,-0.04174814,0.023299541,-0.031358723,0.0041727284,0.0482307,0.039412446,-0.02330134,-0.023011645,-0.025147786,-0.018751806,-0.12747003,-0.10468058,-0.05880576,0.19311307,0.18072927,0.22241643,0.26997772,0.114716455,-0.03324464,-0.15715352,-0.09700637,-0.15896861,-0.020657197,0.21201816,0.1954901,0.09355617,-0.014343549,0.0007008345,-0.001242216,-0.053044118,-0.0702244,0.00038476737,0.058345657,-0.021873651,0.096640244,-0.08550693,-0.035519127,0.009949814,-0.18588734,-0.020978,0.08049675,0.15750039,0.25603738,0.22245492,0.33391738,-0.096079424,-0.2261734,-0.11962313,-0.044117823,-0.08793437,0.10950843,0.2130297,0.024364498,0.14627185,0.06260914,-0.12279038,-0.0778778,-0.11658245,-0.025128976,-0.01883673,0.0028322183,0.070336275,0.0027042201,0.016187668,-0.109039575,-0.083885886,-0.18654315,0.02751768,0.056367885,0.11255631,0.22417386,0.3383827,0.04840979,-0.09310591,-0.15715432,-0.15815088,0.021385511,-0.074852526,0.11182391,0.18013088,0.08267462,-0.062149305,0.15450153,-0.08993512,-0.041526124,-0.012462304,-0.036100876,-0.0633211,-0.01704219,0.03814299,0.045394983,0.05305596,-0.033790894,-0.07229076,-0.08120395,-0.058944236,-0.03929442,-0.001873159,0.19608453,0.088601165,0.15408082,-0.013193929,-0.18605626,-0.20501167,-0.02633571,0.07606041,0.06917871,0.13354102,-0.059102956,-0.08351906,0.06856614,0.021614777,0.0116328625,0.006151754,0.017826354,0.016978217,-0.00073446817,0.0121777095,0.020985242,0.036741037,-0.023547787,-0.18902557,-0.14112778,-0.12716922,0.0701689,0.0581539,-0.021943415,-0.015788684,0.024339924,-0.069226176,-0.15523691,-0.042968247,-0.006352265,0.081050664,0.1578125,0.019265728,-0.079289705,0.000488647,-0.003522338,0.11722762,-0.13502431,-0.035777554,-0.04827112,0.014838002,-0.07824926,-0.06969702,-0.023866566,-0.02456978,0.018572679,-0.08385341,-0.16388078,-0.16177255,-0.020437539,0.014396601,-0.10543228,0.08027443,0.2615292,-0.0064870147,-0.009529067,0.0013566321,-0.07225713,-0.038103595,-0.0070213615,-0.026696878,-0.10812019,-0.067081206,-0.018651135,-0.13663568,-0.011608586,0.04016853,-0.038602274,0.062393732,-0.08033445,0.047657963,-0.021818886,0.029671974,0.020505616,-0.12078282,-0.10630802,-0.081627466,-0.023488691,0.068891555,0.0040854355,0.11097082,0.15093142,0.20751737,0.229778,-0.05017925,-0.16207671,-0.1666985,0.03893599,0.0072155325,-0.12743694,-0.10519731,-0.02957016,0.07967511,0.051072415,-0.03833935,0.024356058,-0.06900558,0.0016005991,0.04585208,0.0042452677,0.18268889,-0.14280131,-0.07495395,-0.11687963,-0.13049023,0.045907162,-0.16723111,-0.13194855,-0.010475187,0.17789437,0.13724276,0.021399146,0.0034091657,-0.090711445,0.06191539,0.00076479005,-0.03752665,-0.07319459,-0.056033023,-0.02515769,0.03210357,0.05021496,-0.010178527,0.05334673,0.053762034,-0.13246697,0.0061662947,0.010018488,-0.024647862,-0.013167919,0.01226538,-0.03626631,-0.12443084,-0.013878312,0.06078654,0.03859099,-0.06144957,0.026606377,-0.12297267,-0.016044045,0.053691972,0.01436256,-0.08975578,-0.124473415,-0.124816,-0.12054449,0.0008172315,-0.0084153,0.05523405,0.04473705,-0.03178747,-0.02819546,-0.0055560544,0.02335067,-0.025539832,-0.058103893,-0.011584644,0.057421952,0.026115282,-0.030785302,0.042744435,-0.009406591,0.08285949,0.04688781,0.13350503,0.15764964,0.017152863,0.09102407,0.06044867,-0.12679288,-0.17808214,-0.12130448,-0.045200907,-0.09262269,0.037826464,0.041745365,-0.0069805826,0.016941287,-0.044478506,-0.06019056,-0.006679474,0.010405189,-0.052608743,0.07000123,0.03968825,0.037050102,-0.10128057,-0.06563611,-0.09246893,0.030662674,-0.050405014,-0.07691118,-0.015321341,0.0056277434,0.034833018,0.091780715,0.13900712,0.21840733,0.052880645,-0.052493207,-0.0037044345,-0.039474897,0.050466835,-0.091017276,-0.102396905,0.006945707,-0.01093241,0.0014314614,0.03699493,-0.04212877,0.005492387,-0.011049708,-0.0057897824,-0.032996226,-0.0049959067,-0.08831198,-0.046985075,0.044647828,-0.043405145,-0.064966515,-0.068379596,0.10377136,0.02751052,0.011717948,-0.12903078,-0.06724394,-0.010934143,-0.07516072,0.020021105,-0.0021090833,-0.014311977,-0.10761809,-0.040074516,0.016827622,0.011566232,-0.009362344,0.035899434,0.055868346,-0.00026439616,0.033985477,0.050459873,-0.075001515,0.041564576,0.0060059153,-0.0029014677,0.06390295,-0.033560883,-0.10507476,-0.01845626,0.0026474132,0.066102505,-0.09143879,0.08542457,-0.05233531,-0.025062945,0.049875703,0.059642114,-0.12159189,-0.07454513,0.009678714,-0.06395604,-0.01327414,-0.012958783,-0.12127953,0.021728603,-0.069363065,-0.017611906,-0.03089074,-0.044519026,0.06554431,0.0037512742,0.052096456,0.059802063,0.017131004,0.06338531,-0.0039253975,-0.03811874,-0.057729382,0.020227484,-0.056976706,-0.021248983,-0.011731614,0.010694718,0.013738465,-0.04205698,-0.03651173,0.023623006,0.032526013,0.01727524,-0.041233912,-0.025312455,0.08702486,-0.018581742,0.04787649,0.0067827143,-0.0044421405,0.07159292,0.029027522,-0.012247615,0.030009361,0.032086425,-0.057906464,-0.047083396,-0.10898126,0.035165966,-0.029812055,0.03579815,-0.014461939,0.015864005,-0.011198688,-0.011002259,0.05281608,0.059049115,-0.050302155,0.072690405,0.027289348,-0.05252251,0.001465659,0.01244847,0.09008275,-0.0005022954,0.041432627,-0.038815066,0.054362584,0.04209946,-0.051928904,0.04214724,-0.0018565047,0.021939319,0.07044164,0.029896768,0.074328944,-0.026471019,-0.015570036,-0.0016737734,0.12598678,0.012381612,-0.008887407,-0.025844133,0.101763904,-0.055880744,-0.03452221,0.0024356947,0.032366812,-0.059251077,0.023182468,-0.011755852,0.02270824,0.0074334405,-0.052773844,0.036311958,-0.069146894,-0.05974453,0.0057867826,0.0031490172,-0.056314446,0.041919257,0.052084647,0.06877608,0.0610336,0.011414245,0.12049049,0.0019067043,0.04774776,-0.20104222,-0.0084623555,-0.0668847,-0.013776934,0.03961906,0.021137755,-0.070216805,-0.05407189,-0.028735917,0.05366848,0.014669891,0.015965525,-0.005904106,0.033488918,0.02273735,-0.0435487,-0.04217346,0.033594657,0.0059986077,-0.009684921,-0.014845183,0.010300283,0.056515016,0.08444149,0.08905301,-0.021463117,0.07324208,0.024007773,0.1666395,0.10122097,0.11473529,0.04145682,0.050066814,-0.07392363,0.030114299,0.09378026,0.1187091,-0.06374386,-0.034651592,0.09154243,0.01478693,0.003170175,-0.014412523,0.011599603,0.011729174,-0.055698637,0.024275105,-0.00022254384,-0.025290642,0.040259294,-0.0011211213,0.10249006,0.009369703,-0.031230493,-0.03622401,-0.08881695,0.00461175,0.035769556,0.05384476,0.15119632,0.053088583,-0.06800736,-0.06075195,-0.07393932,-0.028051484,0.014079374,0.03124497,-0.03110577,-0.0009435794,-0.028632818,-0.025735404,-0.02971633,-0.023587871,0.011365891,0.057980083,-0.033220205,0.011643492,0.0074425586,-0.0023156104,0.021955395,-0.100460656,-0.09542641,-0.07675715,-0.13181542,-0.06094812,-0.018232927,0.052553594,0.1079199,0.124391705,0.052437965,0.04008522,0.06928137,-0.10291886,-0.04033445,0.033480268,0.05688674,0.025746463,0.057482168,-0.01110226,0.049452886,0.031240458,-0.050945837,-0.11239222,-0.06464674,-0.10888125,-0.030272428,0.00039876517,-0.15047206,-0.0036228225,-0.100166716,-0.031474426,-0.12603696,-0.08001153,-0.05003285,0.088845395,-0.01205043,-0.010112597,-0.08804559,-0.02528413,-0.010016669,0.0059538595,-0.029929554,-0.0013461305,0.035349023,-0.07397282,0.08234557,-0.034094814,0.093975715,0.101738706,0.038026236,0.124363534,0.024250118,-0.092238724,-0.02232318,0.010805293,0.0057788217,-0.12634698,-0.047529154,-0.0902052,-0.17880172,-0.091790475,0.01151403,-0.052396398,0.0028869268,0.06398477,0.053371135,-0.06878537,-0.012870487,-0.082670555,0.069088966,0.033999465,-0.03146553,-0.019500995,-0.033451095,-0.00787473,-0.09965874,-0.031246241,0.032081645,0.04468692,-0.02899842,-0.014779995,-0.10223067,-0.08699164,0.03737786,0.024254367,-0.047587555,-0.047021694,0.031034999,-0.026836371,-0.047265925,-0.10791727,0.0073313173,0.11307661,0.13579373,0.008338735,0.10866581,-0.11944165,0.029455481,-0.12311144,0.005146938,0.03552768,-0.07641783,-0.02166621,-0.025229601,0.08429053,0.0438082,0.075058974,0.031171847,0.16258158,0.18806034,-0.042958718,0.043193676,0.011655288,0.0738596,-0.03495205,0.096480586,-0.07846062,0.021105919,-0.01073667,0.06442989,0.04133118,0.058296647,0.026856251,0.123944625,-0.07925129,-0.057247315,-0.06100099,-0.039590273,-0.055906024,0.012948484,0.014272131,-0.029285826,0.02015419,-0.044414848,0.058374874,0.014853972,0.0027391557,0.036694653,0.017082259,-0.021010896,0.10562342,0.07059943,0.02233009,0.043673046,-0.07212603,-0.021454832,-0.06433621,0.03472929,-0.0130689265,0.044798654,0.012132313,0.10785527,0.044924106,0.044921745,0.049518384,0.031373136,0.017457835,-0.08470024,0.093313575,-0.047699794,0.037738074,0.041490104,0.0262733,-0.007018302,0.12702478,0.14268799,0.06311081,0.01821168,0.016491067,0.0069845123,-0.065112166,-0.0045494325,-0.058356594,-0.086669624,0.06165743,0.011040257,0.06151797,0.16351494,0.05393091,-0.022036744,-0.064785756,0.014363318,0.0022353982,0.01901337,-0.08837432,0.00037451502,-0.037004568,-0.052615065,-0.005466759,0.094632626,-0.06270505,0.026822355,0.07624424,0.16424666,0.12299856,0.12782161,0.1376158,0.012023186,-0.11629733,-0.07230993,-0.030619057,-0.056060657,-0.06188692,-0.008979599,0.067211665,-0.011363915,0.003597966,0.076616235,-0.060650826,0.05687737,0.015727881,0.030043036,-0.07738977,0.014683886,-0.033561107,0.010594914,0.000932529,0.031585094,-0.05923375,0.037028745,0.08780128,0.044541314,0.0715125,-0.10923001,-0.10503275,-0.11695778,-0.1181204,-0.032346137,-0.041187126,-0.021729294,-0.047545604,0.011846301,-0.035249077,0.012355441,-0.05442695,0.058598146,0.014729675,0.018416973,0.027803564,-0.053315237,-0.0017945347,-0.03231024,-0.02489314,-0.08017261,-0.013388486,-0.024174115,-0.024244376,0.17070837,0.1871974,0.1667463,0.02811593,-0.12176087,-0.15101711,-0.11471933,-0.15141915,-0.050767247,0.085548356,0.04141697,-0.017901415,0.0058030165,-0.0008790415,0.056561407,0.017885434,0.07282421,0.11426318,-0.029889844,0.10486877,-0.038183056,0.0075327666,0.030803276,0.053978972,0.12329102,-0.0043586106,-0.095392734,-0.00007309067,0.14498422,0.13371873,0.039666668,-0.097434215,-0.23957549,-0.24197401,-0.17893307,0.020549081,0.03032917,0.09827421,0.17129153,0.067112766,-0.04772784,-0.038945287,0.08398862,-0.026940802,0.019120865,-0.06786187,0.028412964,0.031897373,0.08946484,-0.018790977,0.0075684134,0.03549632,0.050926965,-0.10401336,-0.108155176,0.10197383,0.040479865,0.01677318,0.006983808,-0.1597598,-0.2778568,-0.17209148,-0.08959464,-0.00083645416,0.1748504,0.17412218,0.14052895,0.07202314,0.022128208,-0.0701114,0.012756708,0.106305294,0.08859124,0.024458682,-0.006501802,0.002817812,0.022204341,-0.07884471,0.03515654,-0.04371594,-0.093051895,-0.0005693578,0.10054055,0.08939363,0.17946206,0.10214531,-0.108267434,-0.20915166,-0.20447205,-0.09768219,-0.00012630007,0.10275315,0.12649304,0.22061068,0.12619758,0.046413906,0.07568569,0.049039975,0.07259513,0.012269402,0.04481737,0.034558754,0.055745855,0.12400231,0.02135976,0.05559443,0.004031362,-0.028569182,-0.0074573294,-0.060038917,0.093991235,0.09382729,0.20409743,0.18755268,0.004954864,-0.13830107,-0.115943484,-0.053554997,-0.009539596,0.10677284,0.11037302,0.12585226,0.10530673,0.11374427,0.08277188,-0.02230386,0.020327477,-0.060900997,0.03202505,0.052335862,0.045034356,0.029262295,0.0067711575,-0.06371496,0.052599516,-0.07883045,-0.010901368,0.05670605,0.10309364,0.09108662,0.12299396,0.13985898,0.045459654,-0.12501174,-0.121000655,-0.007602261,0.014294436,0.10454791,0.07720849,-0.003001114,-0.0024366167,0.024294555,-0.11262446,0.06976533,-0.060334098,-0.008270989,0.052654877,-0.060852673,0.015693165,-0.06598767,0.03559289,-0.105802454,-0.019083308,-0.042721264,0.008790153,-0.012770828,0.07851122,-0.0033706843,0.042010814,0.188093,0.059083115,-0.13605863,-0.03830213,-0.06685931,-0.052502073,0.04709013,-0.10083731,-0.030865656,0.020168757,0.12409521,-0.07585538,-0.022708464,-0.05755863,-0.06242253,-0.10142496,-0.102347866,0.021332387,-0.08793202,-0.02049653,0.05089214,-0.0046139867,-0.047036685,-0.053888146,0.125998,-0.06793067,-0.02796016,0.039904367,-0.01758416,0.116503105,-0.06061858,-0.07186302,-0.09848307,-0.03927802,-0.022664558,-0.048119385,-0.13191791,0.03995726,-0.117084965,-0.11256351,-0.080057494,-0.053390734,-0.0058475933,0.04198124,0.0004294848,-0.05109523,0.007138889,0.004927629,-0.05998229,0.061203312,-0.006968806,0.07437651,0.0917523,0.035281766,-0.03139361,-0.047915272,0.059162565,0.026378939,0.05391516,0.011296904,-0.06705404,-0.13045636,-0.16691889,-0.14718841,-0.16320066,-0.021494165,0.08830419,0.105623856,-0.09316895,0.0004026805,-0.0394711,-0.066898264,-0.07077119,-0.09222609,-0.072484635,0.033046722,0.045691207,-0.03933285,-0.010102389,-0.06349862,-0.00930945,-0.1088073,-0.058509015,0.076807365,-0.04183451,-0.018199705,-0.019730492,-0.033298597,-0.13824634,-0.076831795,-0.10278885,-0.08664926,-0.0892008,-0.1404043,-0.018521141,-0.071702525,-0.18236749,-0.09578347,0.008265711,-0.04057354,-0.03373959,0.02734249,-0.012361205,-0.09040238,-0.027984403,0.023191908,-0.015966479,-0.009687371,0.0016802971,-0.027404537,0.035914786,0.049918313,0.06230188,0.035051715,-0.028807268,0.06736262,0.09941501,-0.05296924,-0.16198985,0.04186756,-0.07939013,0.047401138,-0.018425344,-0.02191679,0.03734427,-0.09773899,0.026647147,-0.009339588,0.06843223,0.07291789,-0.03300182,-0.038921747,0.027425729,0.030981151,0.032590404,0.030106775,0.11570296,-0.013245468,-0.040672604,0.054734636,0.09399146,0.036265388,0.013329004,0.034255967,0.020895818,0.010582738,0.053505264,0.03655107,0.08623377,0.017616402,-0.040120274,-0.020331614,0.0899944,-0.022044037,-0.09824857,0.0777961,-0.06174264,0.03538878,-0.09265149,-0.100396276,0.021436654,0.047708422,-0.0314535,0.05537235,-0.042505104,0.0013516675,-0.039666303,-0.051006727,-0.041040637,0.01899465,0.02858536,-0.04363807,-0.02484733,0.024430867,0.09877378,0.004453952,-0.022458948,0.0071744896,-0.009719725,0.0029583445,0.064360164,0.056524042,-0.033842582,0.0028006835,-0.1031331,0.019249454,-0.017924288,-0.07857584,0.065017626,0.011879317,0.050366744,-0.029310845,0.056939177,-0.108679354,-0.09648385,0.009061239,-0.021901943,0.025518153,-0.025395878,0.049981505,0.032531,-0.06912682,0.035452127,0.013126896,-0.0073120757,0.003298543,0.014995182,-0.053248443,0.0018379894,-0.03690638,0.016606202,-0.022006424,-0.06698839,-0.011856563,-0.03466429,0.008760765,-0.012998696,0.04904516,0.027245754,-0.014395131,0.041795637,0.052774046,0.03205588,0.11354298,0.007064197,-0.025251927,0.07360574,0.009144797,0.096792705,0.018207286,0.059905745,-0.059154097,0.11531539,-0.004983344,0.019262282,0.044609927,-0.057127357,0.06761322,-0.06796183,0.064031705,0.009886332,-0.0005394701,-0.04813748,0.012581303,-0.07577783,0.035246294,-0.035972957,-0.023061339,0.022571376,-0.045378406,-0.014242564,-0.00364405,-0.0031200715,0.03724303,0.07211524,-0.014590525,-0.01254294,0.026902666,0.04311084,-0.042266104,-0.13946612,-0.013430186,-0.00905885,-0.04204247,0.040321317,0.07217138,-0.09959476,-0.07797205,0.020888321,0.03209244,0.0028289736,0.06454958,0.0012470742,0.053364508,-0.056237854,0.007687245,-0.05079136,0.022920752,0.015482446,-0.07748482,-0.103590384,0.040021855,-0.003174845,-0.044480078,-0.063190565,0.024398008,-0.034696817,-0.029949686,0.06416993,-0.063637346,0.006097629,-0.06563664,-0.14260471,-0.0745837,-0.03164287,0.028374866,0.040290803,-0.12952116,-0.049309086,0.042569455,0.02681988,0.028396795,-0.0627121,-0.11736465,0.08622576,0.05458009,0.020043835,0.024563216,0.003341765,0.028535457,-0.015910055,0.043581244,-0.028480088,0.124833904,0.1018227,0.1488586,0.1460676,-0.015410343,-0.036705982,-0.1110525,-0.1849745,-0.008697058,-0.10107165,-0.096788414,0.053121544,0.019120649,-0.07516149,0.07666631,0.016257618,0.031527568,0.038412638,0.01675405,0.048598707,-0.0038587537,-0.073167026,-0.03084743,-0.086428724,0.09135917,0.026266053,-0.07552277,0.10363971,0.15361603,0.19088376,0.27181813,0.22903048,0.017518243,0.039796412,0.05979716,-0.1449862,-0.0614293,-0.10225395,-0.16823307,-0.07885863,-0.120887905,0.05525479,0.07708812,-0.010249456,0.015111601,-0.08519679,0.0020842396,0.054598495,0.0062961425,-0.023359124,-0.065013595,0.037209164,-0.080153465,-0.08761497,-0.111105025,0.0855372,0.069136605,0.27502817,0.28045353,0.3323113,0.23747897,0.11579624,0.098073326,-0.042049088,-0.17968808,-0.104561,-0.161894,-0.07576135,-0.07807965,0.025033666,0.016132733,-0.040246535,0.0560176,0.055243686,-0.017104287,-0.03881377,0.03846687,0.06564656,0.023292203,0.013119685,-0.054667585,-0.06160474,0.06635531,0.052344862,0.1787305,0.14844824,0.13467337,0.13230003,0.13691123,0.2625488,0.29835215,0.116510116,-0.10733317,0.08028047,-0.10662639,-0.13437527,-0.16166759,-0.023047863,0.023121342,-0.06004421,-0.02641601,-0.01430202,-0.060515698,0.0012031817,-0.059722636,-0.010369496,-0.10621406,-0.050481416,-0.063908614,-0.024513492,0.10402479,0.18544179,-0.042282455,-0.028811993,-0.18695848,0.022612521,0.1501483,0.28796384,0.46294352,0.13508296,0.06701785,0.05372518,-0.024733605,-0.12570965,-0.109287195,-0.0032204895,0.05249222,-0.032509796,0.059570406,0.08066126,0.020170562,0.010489502,-0.052931502,-0.1899716,-0.083588175,0.019822696,0.057342444,0.10529399,0.044036128,-0.06361768,-0.053561024,-0.055300936,-0.15818396,0.06758947,0.13236858,0.19342144,0.4652928,0.43256602,0.23994848,0.035936356,0.02137375,-0.05021453,-0.13474685,0.051410545,-0.07225332,0.063334934,-0.0708707,-0.031454206,-0.092259005,-0.03891159,-0.009309779,-0.009537408,0.015710216,0.10187883,-0.045151986,-0.13734786,-0.08240044,-0.21507885,-0.19444895,-0.0143732,-0.08653904,0.16187428,0.036748506,-0.02460124,0.13022242,0.22782068,0.23167047,0.07043741,0.10106363,0.06858101,-0.058409348,-0.065283775,-0.052205645,-0.026602294,0.029245457,0.05169033,0.008828696,0.02122235,-0.034898482,-0.03935776,0.07756938,-0.011336912,-0.07539254,-0.11800837,-0.24607475,-0.025314728,-0.16158731,-0.07189832,0.14170337,-0.01996966,-0.0071839425,0.09760483,0.11907904,0.17198992,0.2537594,0.064849965,0.062347837,0.18718949,0.0007364611,-0.0045137196,-0.020969728,-0.013397514,-0.034465775,-0.07688731,0.017520754,-0.023560591,0.03346335,0.008279244,-0.0812066,-0.02078036,0.01503146,-0.15238972,-0.09899926,0.0042097685,-0.14313957,0.028622769,0.038020663,-0.17594938,-0.10803873,-0.02822859,0.052404586,0.036488313,0.29555738,0.11004949,0.090570234,0.024668127,-0.06778802,-0.07080066,0.044927374,-0.018861597,0.10524482,-0.037095264,-0.04686166,-0.028219935,-0.0042757974,-0.18815655,-0.14792672,0.034442782,-0.019787954,0.028079566,0.09586521,0.041983303,-0.16578874,-0.08377775,-0.04022019,-0.14112519,0.0039529633,0.009828896,-0.013905124,0.14924195,0.10411045,-0.03630267,-0.029854843,-0.17908663,-0.035045825,-0.04764313,0.022024795,-0.03484696,0.011237932,-0.043076005,-0.020997154,0.098014526,-0.09933161,-0.086516455,-0.06669261,0.056866214,0.07328868,-0.024114877,0.056070235,-0.029341554,-0.092806436,-0.16306469,-0.06705249,-0.11523546,0.041294686,0.003351844,0.004726912,0.08688355,0.13440196,-0.020003932,-0.010413759,-0.08395564,0.016942427,-0.0506548,0.024967289,-0.03377417,0.033983417,-0.09063791,0.022040341,-0.021361982,0.037349947,0.11800246,0.009829057,0.10264648,0.09883495,-0.061233845,-0.0724792,-0.116157606,0.0019142892,0.062014177,-0.062143456,-0.0907717,-0.019525403,0.05890259,-0.03214958,0.07410419,0.0056594214,0.049594317,0.035932206,-0.095585205,0.035878833,-0.012358232,0.04941079,0.0012439635,-0.12879652,-0.0065271175,0.0048749764,0.03249272,0.036887832,0.035940114,0.07448309,-0.07170755,-0.026244717,-0.021304391,0.016578315,-0.035438724,-0.09412928,-0.10854436,-0.055140074,0.09743401,0.0007229152,0.06410086,0.16703214,0.1231899,0.07766104,-0.023679934,-0.0073638405,0.022909246,0.083028175,-0.022024292,-0.057358526,-0.040092,0.009637935,0.0006157651,-0.031586427,-0.02536125,0.0029816662,-0.025554335,-0.019261468,-0.0746672,-0.097693205,0.023259342,-0.026319947,-0.21957947,-0.14673509,-0.05973613,-0.0070074284,-0.11031742,0.0748759,0.0977129,0.025413558,-0.025201034,-0.010432982,-0.086617865,0.06700619,0.012966064,-0.042925935,-0.026901677,0.07382476,0.015044246,0.07781999,0.01797225,-0.003455319,-0.10198617,0.02835534,0.08536513,-0.07879687,-0.1410629,-0.07557854,0.13021952,-0.012227938,-0.07735509,-0.14192857,0.1226884,0.079036795,-0.034359142,0.022262251,-0.0671846,-0.10727542,-0.0604984,-0.059474036,-0.10545973,0.06141966,0.02436191,-0.03460354,-0.05638384,0.016609399,0.027654644,0.028069671,0.043646943,-0.05329375,0.036829557,-0.039662737,-0.004385227,-0.050056722,0.044023167,0.08164796,0.053304378,-0.10424216,-0.2432887,-0.15353814,-0.050501946,0.010661161,-0.12944981,-0.014359576,-0.10527763,-0.041066937,-0.03812038,-0.10833497,-0.060578555,0.09681951,-0.037091,-0.00011321565,-0.03039041,-0.038983755,0.031017482,-0.09625846,-0.0003946394,0.014073944,0.0006290526,0.026532115,0.0383483,-0.042061515,0.10588454,0.060744375,0.085607134,-0.06264609,-0.16626023,-0.07063422,0.03341438,-0.027815118,-0.0653951,-0.13052471,-0.0390729,-0.056318596,-0.0047461526,0.0065666023,0.00245019,-0.11913649,-0.013126864,0.04497734,0.007547218,-0.056452088,-0.005229422,0.0009736298,-0.050414518,0.01834267,-0.057651453,0.0143550625,0.02244595,-0.016192676,0.058743577,0.10284204,0.004841528,-0.09858233,-0.063895226,0.0002792443,-0.004591609,-0.0263172,-0.16000785,-0.16565062,-0.15612552,-0.10127164,0.13081379,-0.009604715,-0.04661254,-0.12506808,-0.05535609,-0.13822791,-0.041865185,0.048637047,-0.071956806,0.005835814,0.06707316,0.05333952,0.0054341615,0.0052977884,-0.023363737,0.06600041,0.11844979,-0.026883403,-0.083337866,0.043544754,-0.07067686,-0.0900889,-0.055909432,-0.1671082,-0.14358443,-0.017063128,-0.03151244,-0.08223497,-0.01070276,-0.17146574,-0.14245352,-0.011251686,-0.022589743,-0.028326448,-0.007317297,-0.049360625,-0.035796218,-0.016699232,0.0062387525,0.083033316,0.046375245,-0.03375198,0.06257907,0.04967733,0.12830831,0.094064996,0.014062918,0.10053297,0.012574564,0.026811149,-0.077370085,-0.03152904,-0.16072291,-0.01857222,0.058614567,-0.046025403,0.033889487,-0.08752128,-0.009443023,0.013417174,-0.06875194,0.021398641,0.12283715,0.046665806,0.051472273,-0.01398497,-0.00630366,0.05474311,-0.03133738,-0.06739483,-0.03748729,-0.01185651,0.106014274,0.041299667,0.04172135,-0.008915272,0.039901398,-0.040940657,-0.12476863,-0.20319729,-0.06964235,-0.045370203,0.010552332,-0.00009269154,-0.0624292,-0.07676108,-0.054718602,0.0774557,-0.073229186,-0.056842547,-0.022968821,0.021894468,-0.049580745,0.0019987747,0.0029144257,0.05079167,0.019554283,0.056785222,0.04870922,0.030208908,0.00446407,-0.03702833,-0.085368775,0.002588079,0.011912152,-0.046372414,0.0025937394,-0.07155539,-0.08736466,-0.019716306,-0.011441317,-0.032653704,0.015076101,0.04724804,-0.013458763,-0.028114503,-0.0060856002,-0.08520433,-0.027911257,0.06451585,-0.04007408,0.021523291,-0.036935493,0.00915996,-0.006943627,0.013032598,0.020618001,-0.023726784,0.056015912,-0.0027756772,0.09170037,0.1297456,0.1592581,-0.02962116,-0.08837355,-0.03140841,-0.005302044,0.00027065305,-0.05715788,-0.055292748,0.03449962,0.044198565,0.0441228,-0.009036392,0.020572588,0.0028187323,-0.008451258,-0.08082102,0.068968154,-0.03476111,-0.05276794,-0.025186706,-0.035529714,-0.035564527,-0.07826385,-0.014177864,-0.017535457,0.007664532,0.1077029,0.11235842,-0.025248142,-0.1660559,0.030905534,-0.017306384,-0.007833888,0.11152595,0.05848372,0.010196475,0.048675016,-0.074998096,0.08228469,-0.052401736,0.05398828,-0.052792616,-0.023664353,-0.03600531,-0.037518896,-0.0440615,-0.023141949,-0.053320184,0.1089511,0.03500492,0.115943335,0.07169762,0.03583024,-0.03815061,-0.01994361,-0.030078435,-0.061065443,-0.062277213,0.037544522,0.004950489,0.04540618,-0.073777825,0.04210022,0.09161275,0.0057374937,0.06624387,-0.019055927,-0.03615123,-0.039850213,-0.064044,-0.012104608,0.006440362,-0.0016677764,-0.08653238,-0.012321526,-0.0040274654,-0.014373982,0.076451115,0.04262384,-0.012370951,0.059949577,-0.0020527795,0.0034029558,-0.054520424,-0.024827508,-0.10739506,0.048535753,-0.0428029,-0.012306036,-0.0124779865,-0.08660365,-0.007445164,0.048915803,-0.039827473,0.000859089,-0.017179258,-0.022105346,-0.085889235,-0.043209553,0.05627086,0.02407082,0.0052938494,0.04813077,-0.0095549505,0.039778665,-0.008236684,-0.02658594,0.0488238,-0.052328635,-0.03841712,-0.0147016505,0.0045354473,-0.04655959,0.050982684,-0.038834758,0.040267732,0.036026478,-0.0014065095,0.023762774,-0.011068253,-0.069107614,0.059472185,0.0012341301,0.062209174,-0.00015022694,-0.055481557,-0.05984526,-0.03884211,-0.008496995,0.009258287,-0.065699644,0.0074956017,-0.053714998,0.0095291985,-0.13177866,0.07147314,-0.085790955,0.05427662,-0.058661345,-0.121810734,0.07186586,0.026823558,-0.111780144,0.013121936,0.0044078208,0.0021592742,0.03787961,-0.007645019,-0.0048607755,-0.015759967,-0.07359827,0.03832701,0.050307512,-0.03664668,-0.050172985,-0.049321596,-0.006782718,0.03147995,0.07395494,-0.10085197,-0.033813342,0.0011953204,-0.012728745,-0.040852644,-0.01046265,0.03919339,-0.012106024,-0.03289769,-0.012640662,-0.030264487,-0.02073062,-0.09415173,0.004493171,-0.012959263,0.024132866,-0.017069947,-0.02398581,-0.0069270674,-0.045662336,-0.047963,0.12270633,0.012003018,-0.026591072,-0.009610442,0.0062039583,-0.056506243,-0.06982769,0.037601992,0.043105967,0.0057279197,0.013564127,-0.05353135,-0.03230094,0.0035200499,-0.0802892,-0.18966773,-0.029382033,-0.03628867,-0.09747223,0.045133587,0.016715575,-0.056149106,0.044636175,-0.01808882,-0.051673178,-0.10534908,-0.027019776,-0.12289008,0.040023316,-0.032694466,-0.03404869,-0.041986495,-0.034980614,-0.11879936,0.055407654,-0.040637314,0.07301497,-0.009971124,-0.052075475,-0.09961439,-0.030405326,-0.115114205,-0.08474827,-0.1789236,-0.15397045,-0.035150904,0.02405558,0.080959186,-0.087585844,0.031215435,-0.07066991,-0.26283684,-0.25727728,-0.26788443,-0.21283692,-0.027860029,-0.0122639295,-0.13522328,-0.064778544,-0.010975194,0.0375172,-0.03721441,-0.023661915,0.022257285,-0.0075623957,0.024417711,0.074386366,0.0048402753,-0.075115874,-0.15786551,-0.13517109,-0.19476497,-0.09372456,-0.038798057,0.11093605,0.14998591,-0.04046292,-0.20636019,-0.24984963,-0.19777046,-0.18187468,-0.18825899,-0.0355201,0.08915123,0.030427663,-0.050509613,-0.08807269,0.034240827,-0.01274328,-0.009592229,-0.035677798,-0.005129572,-0.04091481,0.023896957,0.028988846,-0.03180823,0.022676116,-0.14840668,-0.09144941,-0.03487232,-0.14215943,-0.03210742,0.18839999,0.1979566,-0.20700762,-0.28363928,-0.30982786,-0.32846835,-0.17585333,-0.21429136,0.021254782,0.16045478,0.07417425,0.06839684,-0.008004034,0.04976001,-0.0061108167,-0.0601696,-0.09832909,0.011242399,-0.022343716,0.0729982,0.05195748,-0.054066576,-0.057328667,-0.0438829,-0.17722183,-0.26670027,-0.23729984,0.07569069,0.120781444,-0.03397933,-0.06419495,-0.2717085,-0.19081277,-0.08901571,-0.06484238,0.0006775284,0.15200037,0.2305021,0.16220862,0.31564754,0.13448639,0.009939148,-0.08656631,-0.06199157,0.053164992,0.054308064,0.024338765,0.005101055,0.053491168,0.02935771,0.06967777,-0.031139858,-0.04442007,-0.056132708,0.008007505,0.15949415,0.20861204,0.2126499,0.12118532,-0.05680906,0.27084288,0.5181107,0.21857528,0.19476348,0.32068688,0.20732543,0.23155507,0.16378327,0.1467664,0.04471902,0.01897131,0.008842546,0.0029723037,0.06576591,-0.0040996,-0.03480269,-0.037228413,0.005169051,0.01011763,0.040662013,-0.065775864,0.06800091,-0.025277346,0.15049122,0.23055571,0.10923408,0.09193587,-0.0034859893,0.1473534,0.5209807,0.56778735,0.33340737,0.37758073,0.21158338,0.16932882,0.28510064,0.205203,0.10797973,0.015213083,0.043637827,0.016897798,0.028681876,0.033668984,0.0058868383,-0.079049505,0.03382121,0.03778929,-0.106523246,-0.079948634,0.060450953,0.09713591,0.1381914,0.10262331,-0.12902717,-0.20370783,-0.28958276,-0.09929082,0.21320108,0.29323238,0.29584125,0.23650245,0.19552872,0.2279053,0.14192234,0.090060465,0.13406916,-0.003980108,0.005617272,0.037839245,0.042660486,0.006767051,-0.090621844,-0.16056865,-0.05705504,0.12230505,0.12720172,0.181513,0.16729946,0.106463924,0.29466268,0.095617846,-0.071153246,-0.1713591,-0.22616832,-0.16146892,-0.02443318,-0.11122567,-0.057055674,0.009348573,0.048028946,-0.027230656,-0.051557705,0.042444132,-0.054112222,0.0826647,0.046584904,-0.039807912,-0.034466755,-0.06970109,-0.20225564,-0.12286387,0.06345877,0.1550363,0.20135427,0.2154586,0.356183,0.25537136,0.26542476,0.040678818,-0.10057645,-0.20733474,0.059072725,0.08803758,-0.12591754,-0.21426998,-0.1079375,-0.18608826,-0.10257675,-0.1461527,0.011677437,-0.035137102,-0.014804524,-0.0094601745,0.026672434,-0.071047604,0.033749312,0.027121449,-0.05847847,0.026975796,0.07974605,0.18039006,0.13636121,0.21606246,0.24577785,0.16589409,-0.044333193,-0.064480975,-0.11207007,-0.0763925,0.066639006,-0.011016961,-0.18684098,-0.2853206,-0.31022725,-0.27642313,-0.038099874,0.041502453,0.036084626,0.06993059,-0.060284432,-0.010724889,-0.026822884,-0.0478357,-0.05033616,-0.037010614,0.08402521,-0.02523379,0.06061057,0.13478492,0.095338434,0.18051073,0.1778714,0.09339106,