{"version":1,"layers":[{"Relu":[784,128]},{"Softmax":[128,10]}],"seed":"446733006","error_function_type":"CrossEntropy","meta_data":{"accuracy":0.9808,"error":0.013000958,"epochs":10,"duration":{"secs":183,"nanos":824943250}},"weights":[{"v":1,"dim":[128,784],"data":[0.008822395,0.03701233,0.072373345,0.0422425,-0.023106817,0.005290373,-0.045001198,0.018161843,-0.05865782,-0.04185884,-0.04416845,0.07519965,-0.12559955,0.03129225,0.054445125,-0.011998057,0.0011285638,0.034488097,-0.09332551,0.04896982,-0.017079387,0.10659257,-0.08709373,0.017138729,-0.062394958,0.10186867,0.030781608,-0.010411717,0.05638584,0.008913097,-0.043307394,-0.0041175177,0.016500538,-0.009365879,-0.032425772,-0.0022628605,0.0024799753,0.02032328,0.00075537665,-0.026119133,0.06768481,0.040795717,0.0479008,-0.05125971,-0.06205509,-0.029922634,0.048523992,-0.05223233,-0.0047836057,0.009638713,-0.010903124,0.032218646,-0.03705068,-0.008613051,-0.011304969,0.025346521,0.012936041,0.0048402795,-0.0514666,0.0043815114,-0.032769855,0.010135502,-0.02197039,0.016472587,-0.0030543355,-0.014680635,0.031610496,-0.032266952,0.0065181423,-0.05972349,-0.0138192205,-0.027833141,0.043561373,-0.03846819,0.0042741946,0.046492655,0.051112093,0.018751645,0.07583313,-0.03250115,0.033763524,0.021370692,0.008880451,-0.017078456,0.0059424164,-0.0042639254,-0.06647444,-0.012395195,0.12939623,0.08710738,-0.0293595,-0.023107719,0.0303172,-0.03450895,0.02169841,0.008620566,-0.04604811,-0.036866322,-0.077981934,-0.0921444,-0.062971845,0.07308258,0.14861618,0.04011787,0.016760541,0.028410614,0.08450993,0.0018449192,-0.022190154,0.009265227,-0.08938582,0.00008687286,0.048700575,0.039850995,0.04998366,-0.04518897,0.020558322,-0.04472118,-0.04633334,0.012229028,-0.04460113,-0.044869997,-0.036265727,-0.09056307,-0.09310999,-0.11426,-0.19177994,-0.074481264,0.033337962,-0.024784513,0.06861784,0.07247348,0.042516332,0.057166725,0.10420172,0.009227567,-0.025472382,0.028271507,0.0248786,0.08799268,0.016321307,0.0370859,0.02592821,-0.0056453664,-0.023403693,0.042876445,-0.034427334,-0.031314548,-0.06269803,-0.05408657,-0.13890283,-0.048455387,-0.16382442,-0.24861231,-0.22876745,-0.1757284,-0.16974905,0.119785435,0.13108511,-0.030436523,0.036776543,0.004491637,0.01300105,-0.04622083,0.057601206,0.014442864,-0.05473381,-0.08381665,-0.029582424,0.07466801,0.07678245,0.0022741237,0.07765032,0.0072597065,-0.022615569,-0.08335278,-0.046757516,-0.059760287,-0.16006449,-0.15704767,-0.24531409,-0.24265918,-0.07797366,0.01741205,-0.017743248,0.21233387,0.3565709,-0.0369123,0.02250548,0.0949746,0.02741496,0.1443191,-0.023034709,0.10000074,0.025616948,0.08559539,0.019765768,0.07245548,0.05703658,0.040628567,0.0036117728,-0.016775623,-0.06613714,0.009336215,-0.048556373,0.029960817,-0.105888784,-0.17625222,0.0013311158,0.012271309,0.12663369,0.20909168,0.26507735,0.048012286,0.1663861,0.09418507,-0.04207172,0.0009814294,0.13871634,-0.010270198,0.031399094,0.03693527,0.012488023,-0.06552174,-0.044059634,0.06839551,-0.10209216,0.047941938,0.0033019055,-0.04644841,0.01514464,0.006559908,0.037505336,-0.07422627,-0.19341035,-0.123413906,-0.10789775,0.14279439,0.002294356,0.124058925,0.057439007,0.045642927,0.029780963,-0.08489116,-0.17739832,-0.06449843,-0.07276842,0.030484144,0.027930947,0.028467828,0.06484805,0.04941493,0.07315137,0.122470625,0.036881935,0.07508757,-0.010907181,-0.0042498,-0.042051043,0.02300095,-0.030665645,-0.043883976,-0.1111739,-0.062304456,0.013659014,0.0935257,0.05526646,0.010182908,0.019704152,-0.15166324,-0.068374105,-0.074643955,-0.2994516,-0.12974037,-0.090088174,-0.09567559,0.02261606,0.016039098,-0.0032041122,-0.05353811,0.009422155,-0.06510183,-0.019949643,0.039619546,-0.09179999,-0.08966941,-0.01904685,-0.074626476,0.009511921,-0.11476103,-0.13083683,0.15605573,0.15568998,0.17198204,0.072387345,-0.12521592,0.001631088,-0.21062426,0.025411973,-0.022811912,-0.14721003,0.0358323,-0.064831704,-0.015432364,-0.036388524,0.007821032,-0.0442198,0.053989604,0.032105252,-0.03664359,0.11621333,0.11513766,0.057289973,-0.05072012,-0.019496236,-0.123272985,-0.117826395,-0.12567014,0.04622952,0.097497284,-0.06984725,-0.013362414,-0.06411957,-0.000016841279,-0.014255267,-0.08350282,0.11262823,-0.015606303,-0.077073224,-0.025906902,0.037113734,-0.008795772,0.04198125,0.023696778,0.085905865,0.05912709,0.031390984,-0.056581073,-0.018395046,0.01105821,0.007816836,0.056679238,0.043338593,0.03163926,-0.10434668,-0.1170888,0.22912529,0.17962378,-0.20917806,-0.041056905,0.07918422,0.07748835,0.004966751,-0.076194786,0.017708687,0.00031447536,0.057720743,0.08720839,-0.028991016,0.09011233,-0.07183939,0.04261388,-0.010600152,0.050637856,0.06291962,-0.058679596,0.015376633,0.040126804,0.10252006,-0.0977633,0.013334642,0.0017508958,-0.11416487,0.01632408,0.210547,0.06245483,-0.08369077,0.056741726,0.08736795,0.17809056,-0.15289502,-0.09885901,-0.15235533,-0.05684238,0.0045072073,-0.076299585,0.03566305,0.032688167,-0.0029460797,0.032773767,0.020216739,-0.005711464,0.05239814,0.065292925,0.0066385665,0.0169054,0.018398587,-0.008850509,-0.14835724,-0.092384934,-0.15474232,0.097388074,0.005564766,0.11203842,0.089099206,0.20875439,0.17375207,-0.026469741,-0.08551471,-0.23571922,-0.39152196,-0.12144478,-0.03598896,-0.01426451,-0.03858308,-0.18258554,0.023659673,0.030600196,0.052538693,0.035395313,0.032801926,0.048668776,-0.0010759569,0.056281857,-0.00010371889,0.070240565,0.020585585,-0.026300464,0.06027672,-0.061072167,0.055078104,0.05387114,0.046179704,0.18412739,0.21638462,0.08916082,0.057558496,-0.1254836,-0.11660989,-0.058523573,-0.042334747,-0.00017405322,-0.009051665,-0.06672247,-0.17366847,0.03476296,-0.09185659,0.0027279288,-0.035173416,-0.0132292025,0.1393518,0.0042868755,-0.024493558,-0.013216872,-0.094081,-0.07733995,-0.081785016,0.09924521,0.05352009,-0.14092956,0.00039174518,0.22959328,0.1073542,0.02808717,0.010629972,-0.18033104,-0.12823148,-0.055110704,-0.12115543,-0.05422649,-0.07735163,-0.00614663,-0.020194203,-0.025179219,-0.014448346,0.06384996,-0.028305115,0.043134622,0.03998688,-0.034274377,-0.043593448,0.036690928,-0.030019945,0.05750942,0.0997115,0.06450936,0.04490996,-0.02827469,-0.0015160965,-0.02297685,0.09009305,0.13828073,-0.13663374,-0.24222444,-0.042276863,0.017401055,-0.036801673,-0.002987459,-0.082857475,-0.014656886,0.034234807,0.007966264,-0.016015626,-0.021354511,0.017905913,-0.014971324,0.045850053,-0.078136474,-0.015017173,-0.03320387,0.01267674,0.10184778,0.06062278,0.11785366,0.013230803,-0.06513118,-0.006480729,0.017433623,0.25433505,0.10181168,-0.23466581,-0.20673709,-0.17527981,-0.056810375,-0.040263914,-0.071958356,-0.10464337,-0.086168,-0.019011714,0.10450423,0.048224073,0.04006037,0.022616535,0.027339071,-0.016882382,-0.03755254,-0.06404064,-0.032553628,0.017790595,0.035912666,0.081306666,-0.019390833,-0.014917214,0.015975429,0.065728925,0.087709166,0.06578348,-0.02988984,-0.09978677,-0.2829239,-0.23042452,-0.15407163,-0.0857017,-0.07325748,-0.19140753,-0.002695605,-0.008437146,0.0005125233,-0.026998365,0.003702205,-0.032658134,-0.048028324,-0.074621804,-0.012459076,0.013904143,-0.05532144,0.07635039,-0.016050046,-0.08815894,-0.06992174,-0.025622118,-0.010752438,-0.055244096,0.17753959,-0.13697375,-0.10357337,-0.20078139,0.011066773,-0.17409416,-0.12105186,0.030367067,-0.09770107,-0.03160916,-0.0145842405,0.046294626,0.029675705,-0.006806401,0.03105225,0.06223045,-0.02874821,-0.069407575,0.013197837,0.025661224,-0.05542951,-0.12132283,-0.022361724,-0.010733435,-0.039226398,-0.03758816,-0.05001805,0.055166293,0.05105849,0.12635249,-0.069423266,-0.31290516,-0.1524069,-0.14095518,-0.05086881,0.0718041,-0.09743057,-0.047639165,-0.009089595,0.039418582,0.10588075,-0.0686981,-0.0621047,0.034360718,-0.054936185,0.022316037,-0.03981851,-0.00015074182,-0.09320334,0.0028784862,-0.019633394,-0.026103735,-0.08008354,-0.012060901,-0.03665547,-0.08334054,0.08500356,0.106983565,-0.17184122,-0.30935958,-0.15370525,-0.07875255,-0.038718544,0.053247117,-0.023551058,-0.010451062,-0.002705941,-0.016509565,-0.01829691,0.0015955064,0.009983161,-0.007926253,-0.03680605,0.11032664,-0.0077019166,-0.05143256,-0.011223417,0.063374676,-0.011749336,0.22313772,0.1083157,0.015887002,-0.008862224,-0.04686535,0.09310661,0.017166827,-0.11658946,-0.21664093,-0.11700333,-0.11960696,0.046728767,-0.06784775,-0.014072165,0.012273949,0.038413554,-0.00888758,-0.0013962322,-0.07610143,0.017731925,0.04800461,0.036171433,0.0042961766,0.02334835,-0.033350937,-0.032445524,0.01011347,-0.061156455,0.028111106,-0.0035065012,-0.026069857,0.032981645,0.15580504,-0.0131036695,0.014171036,0.03949421,-0.21048291,-0.18240266,-0.12156751,-0.048251055,-0.053342156,-0.020064343,0.0906352,-0.048554305,-0.020820066,0.012231099,-0.03305182,0.019068664,-0.022316335,-0.0072889077,0.013712399,0.035124075,0.017591003,0.04450262,-0.08502867,-0.055809367,0.1616784,0.12865818,0.011103144,-0.008083631,0.071505494,0.097305715,-0.02608098,0.063962914,-0.021184681,-0.10940514,-0.036926776,-0.04318814,0.017224602,0.02210268,-0.020536574,0.027272277,0.061561696,-0.003295497,-0.054245275,-0.03027524,-0.03407058,0.038833246,-0.052710533,0.010311221,0.015073583,0.03463105,-0.029187877,-0.030140134,-0.018286565,0.11807548,-0.038435623,-0.037210662,-0.006907536,0.100740805,0.012075302,-0.018776739,0.064787544,-0.02805639,-0.021965524,0.054001298,-0.056028284,0.0053690546,-0.0115606785,-0.06581514,-0.009857346,-0.044608116,0.089999445,-0.024904108,-0.022653697,0.058125652,0.021167293,-0.046530645,-0.022029363,-0.006984913,-0.05489381,-0.07910918,-0.07711271,0.013598323,-0.0058736186,-0.05053667,-0.050129704,0.03328762,-0.021480305,-0.0370922,0.005208634,0.05525885,0.02279189,-0.027097497,-0.062271565,-0.10559102,0.1266913,-0.055092808,-0.04659138,-0.00037511936,-0.06524461,0.015529213,-0.011633735,-0.0043122037,-0.010403264,-0.024996623,-0.042611577,-0.123439714,-0.009581539,0.02154527,-0.011547808,-0.025939157,-0.037466016,-0.07497931,0.028932411,-0.041256133,-0.038097378,-0.030911203,0.05783435,-0.093720004,-0.006891138,-0.055084545,0.09532616,0.050820045,0.00050435733,0.05472676,-0.052065868,0.01607161,-0.0054731383,-0.019107671,-0.11416405,0.0109747285,-0.0103727225,-0.05241521,-0.02693022,0.046360895,-0.05500826,0.005789089,-0.014213219,0.042942822,0.012017756,-0.16723351,-0.005989054,-0.054241855,0.0051114536,0.022440305,-0.0035025296,-0.07719866,-0.026132576,0.045034476,0.04040143,0.052014466,-0.009071507,-0.0002998967,0.10825625,-0.024806952,0.051347066,-0.061074883,-0.01339714,0.021953933,0.06289974,0.024906276,0.040363245,0.031261787,0.019022126,0.07858937,0.013714781,0.022131741,0.021567484,-0.016816307,0.0430386,0.010802029,0.073722735,0.055785548,0.039956413,0.08020025,-0.056009512,0.015214035,0.0016638186,-0.05178491,0.0122019965,-0.0011617385,-0.012945315,0.0401207,0.056888577,0.0498712,0.028839856,0.09801215,0.04553694,0.010554864,-0.018661464,0.026710205,0.01936533,0.02993527,-0.06220876,-0.01460362,-0.03268158,-0.016991504,0.017832652,-0.00012996087,-0.10792595,-0.01711934,0.059468977,0.04140471,-0.0376362,0.024250055,-0.0036014582,-0.07187803,-0.027937,-0.058391064,0.0028581664,0.020212805,-0.036444694,-0.023316603,0.03314143,0.042678248,0.036086787,-0.017913267,-0.07451378,-0.02936802,-0.07233268,-0.022580199,-0.04303706,-0.0027205385,0.002508643,-0.07868623,-0.0021081513,0.1570506,0.130148,0.011589981,0.11000914,0.22439562,0.12886357,0.1432082,0.030993685,-0.079429306,-0.028209385,-0.019073807,0.046287082,0.04387196,0.07024155,0.06148896,-0.068330035,-0.06369866,0.016913371,-0.06424708,0.06352807,-0.017973661,-0.115457065,-0.06435173,-0.042412277,-0.15066753,-0.006305692,0.0045768726,-0.1562955,-0.094499044,-0.11367169,0.11099354,0.036940508,0.031735297,0.118152976,-0.0061692563,-0.035117235,0.047181223,0.00797226,0.00076181494,-0.0106601985,-0.019064752,0.017911946,-0.05530036,-0.016139165,-0.05695977,-0.005079712,0.07781148,-0.009134755,0.044968616,-0.034958858,0.005730733,-0.22895877,-0.18945692,-0.21208468,-0.072459124,0.034122407,0.02123448,-0.039054163,0.11956167,0.11004713,0.13454807,-0.025078151,0.0020529707,-0.08655323,0.03357546,-0.09969984,-0.09167281,-0.06358805,-0.051379792,-0.06442206,0.054006737,0.03678822,-0.0054491237,0.037749972,-0.08850261,-0.081601374,-0.05412073,-0.21728815,-0.13406368,-0.08263636,-0.3223609,-0.20920148,-0.15054883,0.18870975,0.16279982,0.14109811,0.0766263,-0.060619347,-0.0052905106,0.006985195,-0.05030865,-0.07327423,-0.05713226,-0.16542399,-0.04924585,-0.06382865,0.06425082,-0.05920351,0.05718536,0.06373335,-0.0043785097,-0.013525614,0.09361651,-0.0062596393,-0.018037809,-0.01091008,-0.03149163,-0.13534734,-0.1974511,-0.090923086,0.07741296,0.09669159,0.07747276,0.16538003,-0.0052597737,-0.15924,0.028054817,0.06904198,-0.11141794,-0.037624676,-0.016601114,0.033416282,-0.044216704,-0.053132527,-0.02391013,-0.08508553,-0.0053473604,-0.06696367,-0.030896476,-0.04390284,-0.009799017,-0.020770445,-0.021197552,-0.012997602,0.019819308,0.09494434,-0.033137634,0.12305959,0.040729914,0.067661956,-0.0015659,0.03947995,-0.012808467,-0.122179165,-0.035819206,0.04337196,-0.08330348,-0.09678698,-0.1264106,0.04938056,0.056416713,-0.008733837,-0.024185823,0.012829526,-0.00890076,0.0045317514,0.06324882,-0.075209245,0.023309503,-0.007946375,-0.048345454,0.016910579,0.029157666,-0.08200841,-0.039331123,0.041966017,-0.014564931,-0.11479081,-0.07679801,-0.015974728,0.0071692863,0.03267246,-0.11707856,-0.05425816,-0.18513756,-0.18165934,0.01281554,0.048195872,0.01547213,-0.06149353,-0.022480788,0.062052988,-0.024008485,0.005390056,-0.0037951677,0.09184936,-0.08843677,0.024322432,0.027995022,0.006358347,-0.025894437,-0.12465864,-0.19901627,-0.037466858,0.054144967,-0.095811754,-0.0249046,0.06499822,0.040613443,0.1007634,-0.0886689,-0.009112434,-0.059535094,-0.05996542,0.038823053,-0.015479218,0.011932336,0.04018741,0.02541273,-0.02190364,0.0016172533,0.06401514,-0.040334135,-0.0041071707,-0.0135979215,-0.012657011,-0.019737607,0.11266892,-0.023052575,-0.023950515,-0.020584548,-0.04482976,-0.023942648,0.038749143,-0.0133951055,-0.039443184,-0.07637022,0.057413798,-0.013575307,0.014250417,-0.11913471,-0.10913423,-0.0463101,0.1769934,-0.007733295,-0.030849207,0.0009736119,-0.034636978,0.09416002,0.091247,-0.08646986,-0.0371122,0.02009912,-0.06001066,0.058869578,0.066203415,-0.0021921396,0.060870573,-0.11246932,-0.039940655,0.040329188,-0.07169555,-0.1793051,-0.09719056,-0.1881799,-0.07375022,0.009182772,0.0030116644,-0.1063108,-0.06622172,-0.06437454,-0.055221867,-0.0671644,0.017954694,-0.047253974,-0.04617387,-0.016606815,0.00051104126,-0.047635436,0.015602173,-0.007559714,-0.026913665,-0.026529578,0.040217217,-0.041449517,-0.06549291,-0.07915621,0.023008239,0.039953616,-0.13706666,-0.1241645,0.12750296,-0.15386578,-0.027654104,0.070937425,-0.06994325,-0.15492813,-0.18286595,-0.05384734,-0.018037982,-0.0054679792,-0.122444145,0.035448134,0.041664973,-0.0767518,-0.049620755,0.03272564,-0.020531256,0.044919778,0.070319586,-0.10509419,0.0007510056,0.032647446,0.057878453,0.1094379,0.007902462,0.0731013,-0.01585166,0.064729914,0.13927233,0.00053152046,-0.013411377,-0.11943731,-0.13317366,-0.1787208,-0.15165901,-0.11173737,-0.09648826,-0.11287159,-0.06434412,-0.021606786,0.03383645,0.0896763,-0.083451465,0.026903084,-0.00041111076,0.15196331,0.12668684,-0.07755457,0.03662585,-0.013587149,0.042675264,0.046297196,-0.013433102,-0.008321707,-0.08761885,0.0644281,0.14542061,0.03516767,0.035432775,-0.09150015,-0.17672062,-0.22607048,-0.10851455,0.0023374208,-0.028686801,-0.0064659286,-0.067891,-0.0257688,0.0030410476,-0.04120436,0.034095533,-0.041311804,-0.03339313,-0.00090126204,-0.100436166,-0.08098261,-0.037821367,0.0036418415,-0.06965203,-0.02236859,-0.067270085,-0.17793946,-0.057758078,0.06938391,0.19865724,0.005737244,0.015389033,-0.1427817,-0.24503264,-0.15373106,-0.106711864,0.015970247,-0.0012190434,0.002984037,0.008319827,0.050540254,-0.040158853,-0.03836473,-0.01629141,-0.054958466,-0.020166751,-0.10999524,0.020342235,-0.06589516,-0.11423126,-0.015886074,0.0180886,-0.033885866,-0.122138046,-0.12161218,-0.027734237,0.12280574,0.07456196,-0.008091432,-0.032807447,-0.21055433,-0.10374902,-0.18231982,-0.0034047808,-0.047901437,0.001331163,0.013148868,0.012263075,0.07123674,-0.028920785,-0.03198009,-0.04643707,-0.027656445,0.004131152,-0.01712859,-0.017796468,0.03108318,-0.06581501,-0.046160873,-0.18201268,0.0974278,-0.14628047,-0.023857657,0.0334673,0.1251675,0.0065549277,0.06442028,0.08632082,-0.005997435,-0.07637263,0.0075046257,0.060193393,0.10020576,0.11761233,-0.052642014,-0.029920865,-0.055835746,-0.07408189,-0.013375417,-0.008401369,0.05433683,-0.040061522,-0.030800652,0.0064327274,0.010065614,-0.05946366,-0.14532839,-0.0026109556,-0.09408656,-0.051583517,0.15745896,0.26262924,0.03558763,0.09874271,0.28518245,0.19679026,0.227971,0.2968317,0.22853032,0.20961046,0.22962277,0.06959133,0.10145175,-0.0047967904,0.028216496,-0.05491222,-0.023068603,-0.001022246,-0.02274174,0.02452602,0.035057094,0.016622206,-0.041581836,0.08973089,0.03511344,0.009087869,0.022718618,-0.006090148,0.018095193,0.10088573,0.15417616,0.03311144,0.12759,0.17485906,0.029835075,0.250272,0.1139274,0.25853744,0.17202844,0.08631971,0.13811699,0.06506382,-0.031889945,0.031743113,-0.009811044,0.004689331,0.05135994,-0.012500384,-0.042317245,0.14949557,-0.006260832,0.08542308,0.07228947,0.14155647,0.06765393,-0.07650776,-0.076152414,-0.0039731935,-0.131301,-0.012120552,0.08564763,0.07328826,0.006108946,0.08374976,0.056875475,0.09731856,0.07219424,0.08792979,0.042072788,0.006680663,0.02717213,-0.02934684,0.11018329,-0.01199451,0.03109912,0.062666826,-0.039018866,0.10236366,0.058726497,-0.08615217,0.022101302,-0.0045901495,0.091696836,-0.117225565,-0.22387622,-0.06732111,-0.07533097,0.006456471,-0.038934585,0.04499773,0.14166391,-0.06290537,-0.027155057,0.07722215,0.0067910627,-0.13019297,-0.0056170947,-0.045547117,0.008288618,-0.014118643,0.051117703,0.07403987,-0.07766368,-0.01643726,-0.033213172,-0.050241657,-0.060585823,0.024346832,-0.011977567,-0.029348603,-0.09914699,-0.1375748,-0.19871165,-0.21093167,-0.1811479,-0.25854847,-0.19537708,-0.12954597,-0.017087491,0.028550612,-0.03620996,-0.019976389,-0.044292055,0.051014893,-0.039156083,0.05882779,0.007181262,-0.019922078,-0.027084952,0.017100174,-0.028077595,0.016581904,0.008635174,-0.013879052,-0.026673732,0.05166395,0.12712644,-0.030444873,0.0059299744,-0.115823194,-0.054439392,-0.09343425,0.027892351,0.011152906,-0.044680215,-0.029353125,-0.1613635,-0.0031184177,0.010487652,-0.03649257,-0.04768674,0.04929071,-0.004550611,0.016958777,-0.009616499,0.0890111,-0.015837153,-0.0073740473,0.055502124,-0.031182813,0.08709316,0.12630346,0.007989014,-0.07368259,-0.022106225,-0.02596481,-0.08209002,0.04536425,-0.06789406,-0.07151778,0.038364545,-0.089044586,-0.061094467,0.03892433,0.019020615,-0.013790325,0.051929243,-0.059534233,-0.023651294,0.04240256,-0.04170288,0.022415472,-0.036023542,0.02237576,-0.017235843,0.050370757,0.036818627,0.11014313,-0.009898914,0.039428987,0.06759153,-0.02693036,0.012554861,0.004493908,0.11923465,0.016215933,0.049471185,-0.07692928,0.032100394,0.014101942,0.047747705,-0.030348126,0.006542843,-0.08858474,0.044507958,-0.085974365,0.035703693,0.05770396,0.05133636,0.10336505,0.0064504254,0.06619468,0.026986767,0.008423151,0.018604139,0.008191355,0.06024418,-0.00539387,0.060413003,0.05954386,0.052390892,-0.067176625,0.048516907,0.008446067,0.042035896,0.009286195,-0.027439566,-0.027739339,0.013563977,0.06639147,-0.030670732,0.0055755256,-0.10406156,-0.059372753,-0.100211725,0.018275632,-0.027489593,-0.05245418,-0.0020827218,0.03980609,-0.012620116,0.045998193,-0.020456892,0.017207861,-0.026009724,-0.023656322,0.08423847,0.031047834,0.11206746,-0.04493639,0.017175244,-0.06207721,0.0003788132,0.01918726,0.03943407,0.053844817,-0.019751364,0.013260402,-0.06170283,-0.05940253,-0.0123061715,-0.080092676,-0.058471087,-0.00014500663,-0.0631953,-0.060838956,-0.027027681,-0.04026309,0.08967641,-0.006879859,0.03255657,0.009029362,0.03365556,-0.08763816,0.02874982,0.0079785455,0.020015033,-0.076536044,0.013057708,0.08865134,0.11059443,0.06994512,0.07206065,0.00004150508,-0.01477389,0.018122774,-0.042060487,-0.06690386,-0.002108134,-0.0160932,-0.0073530637,0.05703747,-0.01691604,-0.050518833,0.04272047,-0.057493728,0.03225749,-0.025027437,-0.051513433,-0.01984054,-0.03756501,-0.026825197,-0.0060229846,0.018609282,-0.018194962,0.05418263,0.12094373,-0.005545696,0.141246,0.067957975,0.057253156,0.12748544,0.28197625,0.2040499,0.18085665,0.0029345197,-0.09183743,-0.1457509,-0.04433202,-0.03399951,0.017231815,-0.0012770484,0.029756695,0.047769215,0.03001717,-0.027955132,-0.07998295,-0.03739682,0.08664473,-0.077682756,-0.055618238,0.012510734,0.07457053,0.09398041,-0.03094261,0.06802836,0.14724745,0.16613314,0.18870537,0.23698987,0.381637,0.39144173,0.4340166,0.23040171,0.12124441,0.07469652,-0.1291625,0.037462134,-0.13111207,-0.006428921,-0.019201312,-0.037338752,-0.0801234,-0.068582505,-0.020820977,0.015080382,0.030538354,-0.13489202,-0.030228145,-0.0068029426,-0.07422536,-0.06425641,-0.077574626,-0.10499865,-0.109232694,-0.06860017,0.14974895,0.14141414,0.114529215,0.43133605,0.3648108,0.4919915,0.4150954,0.17902811,0.036334936,0.06634273,-0.08390638,-0.11895231,-0.048470907,0.03539215,-0.10694157,-0.038819738,0.02934278,-0.0021409432,0.037142415,-0.06132244,-0.031014066,-0.0014154245,-0.11208115,-0.05578223,-0.09492898,-0.13425995,-0.04864904,-0.12464746,-0.014319172,0.025460977,0.026789535,0.08187932,0.28558666,0.36160195,0.2812207,0.19850083,0.14079352,0.12539414,-0.10631931,-0.07151956,-0.04615888,-0.06545278,0.06058204,0.09302832,0.024960395,0.061624613,0.010701485,-0.03129686,-0.013952265,-0.025000045,-0.14424722,-0.1138803,0.017023444,-0.03198235,0.015819376,0.008878758,-0.10350474,-0.21442257,-0.12090797,-0.14879614,0.06193313,0.2397231,0.38620475,0.15621975,0.15996337,0.15762918,-0.062295146,0.02288044,-0.049913116,-0.008272383,-0.043880735,-0.010859955,0.0143373,-0.04050458,-0.06723922,0.0023525713,0.0150572155,-0.013656851,-0.037476655,-0.002824481,0.023255365,-0.09153389,-0.062279,-0.1985729,-0.39185357,-0.20817631,-0.25255626,-0.19524683,0.0074483017,0.29447007,0.3535941,0.28533396,0.07168137,0.04720466,-0.054967236,-0.045935955,-0.05097021,-0.08129995,-0.018741298,0.038819022,-0.027473839,0.011628278,0.079372175,-0.012844776,-0.029482389,-0.02503844,0.026357697,-0.028103452,-0.0932025,-0.16340533,-0.15972437,-0.30936238,-0.2960992,-0.4098709,-0.3797308,-0.38693443,-0.23453228,0.21103792,0.34415206,0.2325341,0.08408706,-0.019704554,0.13602112,-0.067619726,-0.040272277,-0.09565421,-0.015687147,0.065577246,0.014464861,0.046909906,0.0037606757,0.02346894,-0.011656239,-0.0076853167,0.025604965,0.008092557,0.018199386,-0.08264058,-0.04232451,-0.23908967,-0.25846392,-0.29403514,-0.41622224,-0.27940014,0.005238479,0.08146393,0.12912464,0.1610169,0.23597066,0.19111425,0.07593855,-0.18295084,-0.020825913,0.0010152097,-0.018766956,0.011099135,-0.019622674,0.0388242,0.033952624,-0.022326013,-0.106562994,-0.01666911,-0.049322825,-0.071605004,0.0030389263,-0.09322602,0.02742908,-0.15165442,0.110445134,-0.05398514,-0.35693598,-0.3842823,-0.15661508,-0.089214824,-0.0073425863,0.15569778,-0.00028914693,0.20341766,0.0735766,0.006839161,0.014205151,0.059934486,0.02319072,-0.006210637,-0.03370126,0.044641357,0.052654292,-0.0055557243,-0.003387749,0.13469724,-0.025877899,-0.041477684,-0.027937252,0.05807553,-0.01977114,0.13233706,0.07667229,-0.027399458,-0.40432006,-0.3647606,-0.2833257,-0.11928212,0.17524183,0.05133302,-0.026669389,0.06702937,-0.063077524,-0.085502245,-0.037754133,0.014959737,0.013874473,-0.07343757,0.022613762,0.011124014,-0.0932296,-0.017326787,-0.061830364,-0.011735226,-0.10870606,0.059470933,-0.018992217,0.22236177,0.13617402,0.026148027,-0.13831115,-0.10089295,-0.31574768,-0.29415712,-0.2751853,-0.11021518,-0.036073707,0.06624049,0.044139285,-0.047070842,-0.03388389,-0.10532983,0.056516666,0.008274829,-0.04636183,0.00086872466,-0.025865711,-0.034958653,-0.0505065,-0.04545159,-0.025982128,0.022903731,-0.0094717005,-0.015733685,0.11457215,-0.029716775,-0.07200402,-0.08904331,-0.0689022,-0.10130057,-0.07689075,-0.25978574,-0.13604681,-0.14038174,0.13989507,-0.07474049,0.020119818,0.10095046,-0.02222142,-0.025009993,0.08831542,0.0044019073,-0.018058555,-0.016925285,-0.093455724,0.08445852,0.017642323,0.037156668,0.118640706,0.032255016,-0.07397732,0.005297561,0.13541289,-0.020667737,0.010666277,-0.10358196,-0.15079828,-0.1296219,-0.24213353,-0.25977665,-0.15587547,-0.041855104,0.10172021,-0.0638832,0.13180937,0.14977357,0.061897986,0.039694596,-0.03617724,-0.022577722,0.022550978,-0.03835609,-0.0086345365,0.08419237,0.024648834,0.09948969,0.15121154,-0.07311327,-0.13740017,-0.15334791,0.098766685,0.03030839,-0.08239648,-0.10511577,-0.11257469,-0.15030897,-0.18218334,-0.1883644,-0.13550368,-0.0213462,0.037259664,-0.016250452,0.020744326,-0.04490559,-0.061046362,-0.027483847,0.031307768,-0.031719025,0.045092627,0.030453946,-0.10278096,-0.091010846,0.0071676327,0.08861193,0.015941473,0.048337985,-0.14016141,-0.10109392,-0.02530489,-0.0030636534,0.051440295,-0.15915477,-0.05403181,-0.2487909,-0.0033750436,0.0890577,0.07326621,0.004105807,0.13759314,-0.0059504085,-0.12073219,-0.05274256,0.0155679425,0.019359034,0.12901877,0.031161107,-0.025808226,-0.061289586,0.02842342,-0.00073558895,-0.0140312575,-0.05781944,-0.06290197,-0.02189929,0.14153767,0.011359446,0.20982268,0.08642721,-0.22420435,-0.1693071,-0.0037560205,0.006957621,-0.0072197327,0.025271812,-0.0129873585,0.10860654,0.019356456,-0.069052234,-0.047870167,0.14954783,0.120226935,0.012869731,0.026350776,0.046021454,-0.03847336,0.006180301,-0.014350473,-0.054119233,0.06326023,0.0028652777,0.09223888,0.080947176,0.145003,0.15489903,0.34394586,0.2106504,0.13405837,0.08095188,0.14112702,-0.011136104,0.03874816,-0.015559044,-0.0350829,0.040892996,0.07527469,-0.075319394,-0.11686081,0.04723649,0.0727962,0.010829567,-0.03742582,0.02613842,0.0072663845,0.0039682784,-0.028462129,-0.052320383,0.07911852,0.111039035,0.117952056,0.09783065,0.15607646,0.12252668,0.37422627,0.3612317,0.24079055,0.25250584,0.0721206,-0.08461641,-0.14051059,0.0867987,0.11824813,0.09758614,0.050292864,-0.12825313,-0.031288013,0.0068086376,0.16811536,0.04725409,-0.016248373,-0.07427511,0.016851706,0.10393167,-0.089776054,0.03684423,0.13270187,0.01043141,0.021436008,0.14036906,-0.07996571,0.10599474,-0.03422865,0.17337026,0.1477271,-0.05119827,-0.0194705,-0.06570079,0.0058012106,0.009111524,0.078117505,0.04234533,0.01603152,-0.021689314,-0.079865165,-0.0051539186,0.069790505,0.16145869,0.034752462,-0.015239526,-0.026732579,0.07110145,-0.006300899,0.111965396,-0.057417035,0.0014524299,-0.08026935,0.021653695,0.18753895,0.08677712,-0.059398733,0.040549904,-0.070871934,-0.058254298,0.0323287,-0.067336485,-0.1325677,0.047825575,0.22157031,0.027386943,-0.049188066,-0.096417226,0.0636819,0.05992845,0.121574745,0.1063001,-0.027008578,-0.020367766,-0.04303554,-0.012389422,-0.0025735537,0.07939551,0.07701787,-0.030942336,-0.056007188,0.056451347,0.02465004,-0.0880361,0.012535792,0.037052985,-0.050398048,-0.08609752,-0.24892165,-0.09832368,-0.11985992,0.0774743,-0.0410459,0.05103562,-0.053958636,-0.091730274,-0.071088016,0.03359874,0.050352097,-0.008723011,0.032319278,-0.0086723985,-0.027327638,0.012194205,-0.05279914,-0.10191176,0.0482111,0.094436914,-0.06752688,-0.1586551,-0.06899982,-0.084115125,-0.014708558,-0.02987999,-0.06738792,-0.00871996,-0.022136167,-0.15123905,0.07499111,-0.041879747,-0.1847645,-0.09875794,-0.03414568,0.017479766,-0.12450424,0.17074488,-0.024630295,0.09869996,0.037372034,0.029018909,-0.008465761,0.06423533,0.0083553875,-0.0061960015,0.027123123,0.003563773,0.073815145,-0.034758817,-0.03781293,0.08976781,-0.033161674,-0.0077282917,0.03215407,-0.046886742,-0.08901372,-0.060785446,-0.002893743,0.028643185,0.05478745,-0.04075716,-0.0050239824,-0.021476297,0.02086724,-0.025868865,0.07220736,-0.1291681,0.07672829,0.0127995135,-0.009420759,-0.04336924,0.06884444,0.035919387,-0.06067933,-0.046703156,-0.09071094,0.02743412,-0.057812646,-0.0066224867,0.0008255387,-0.058977127,-0.090787195,0.08585793,0.039003164,0.006571209,-0.072092585,0.00525063,-0.04515536,-0.06273219,0.05436807,-0.009298067,-0.043286104,-0.013775813,-0.09097718,0.04115314,-0.10858596,-0.08603731,0.03050898,0.016657304,-0.050008394,-0.08914597,-0.046025783,-0.060863055,0.016565647,-0.014632736,-0.08328823,0.047647938,0.044847462,-0.027747735,0.08649823,0.0052261287,-0.040958293,0.0004695011,-0.0779842,0.06792106,0.078003466,0.014147981,0.027331416,-0.004803019,0.10037743,-0.028850628,0.056693725,0.017205779,-0.024939694,-0.0030137163,0.008266339,0.03958041,0.018275285,0.044158295,-0.031331595,0.06579533,0.018031146,-0.028501622,0.046459697,0.01677841,0.08497947,0.0042433958,0.04712104,-0.038816184,-0.025530025,-0.039432153,-0.042663895,-0.04548037,0.018724808,-0.10575256,-0.009657979,0.026770396,0.07820805,-0.036625117,0.03801204,0.0035525202,-0.0564719,-0.048419964,0.04837095,0.007727487,0.014562457,0.04595892,-0.0075784344,0.033956245,-0.052789718,-0.014199677,0.015561149,-0.035368737,0.043608192,0.04632922,-0.006462317,0.055041246,0.040131878,0.05645196,-0.05379371,-0.017544944,0.0583271,-0.09067108,0.018898608,0.04418737,0.0024071457,-0.09217751,0.019198697,0.015683852,-0.019622916,0.03910406,0.061632335,-0.02743118,0.01413243,0.12986225,-0.036220312,0.02328582,-0.0060848845,-0.08339858,0.011681264,0.024714677,-0.032093734,-0.029055376,0.012125906,-0.011097284,-0.045202844,-0.021269595,-0.07370398,0.003100576,-0.08344479,-0.027720314,-0.019855963,-0.040707402,0.048393402,0.01786759,-0.029224636,0.022581602,0.057205357,-0.08080916,0.032027446,-0.006386597,0.0071936473,-0.03345461,-0.028836697,0.08621514,-0.12616509,-0.023951177,0.04994581,0.056882624,0.0243225,0.0876171,0.069118336,0.06992233,0.12475453,0.023876939,-0.0037322452,-0.08382055,-0.0058541107,0.08202609,0.120874554,0.023453338,0.016025582,-0.034640435,0.06518797,-0.062054437,0.044847466,0.024199076,0.03578523,0.06930974,0.06384214,-0.005238713,-0.017052175,-0.004294619,-0.050658245,-0.14234371,-0.057674933,-0.0564502,-0.044220902,0.11380901,0.090313226,0.16805992,0.20563778,0.1688407,0.20863414,0.24361889,0.19355378,0.1555629,0.12703623,0.08101184,0.15185465,-0.04072327,0.07266209,-0.021679033,0.014588435,0.02631163,0.04973152,-0.023161488,0.017082803,0.076097995,-0.06053043,-0.09911368,-0.056878787,-0.01582112,-0.051928785,-0.08544872,0.15518717,0.23997544,0.17539512,-0.06598724,-0.027934859,-0.118135385,-0.082240775,0.112414606,0.18167418,0.16171099,0.12225532,0.051917277,0.18784653,0.19480959,0.10586137,-0.0048337206,0.09164328,0.08305598,0.06615008,-0.05043286,-0.018647091,-0.07673868,-0.036656782,-0.075366266,-0.09773342,-0.13791859,0.040950675,0.09759302,-0.009941964,0.08796645,0.07978666,-0.2014754,-0.19766851,-0.012233441,0.13578996,0.10640449,0.017490359,0.1021229,0.088946655,0.11141057,0.18654583,0.1300683,0.08917771,0.11149259,0.04998985,0.04550265,-0.03025027,-0.001965932,-0.033262488,0.013929066,0.00346474,-0.07845279,-0.09960622,0.08048132,0.091090776,0.24993497,0.15690292,0.33038595,0.1709148,-0.019517528,0.01561161,-0.00040457866,0.18805544,0.28789634,0.09204638,0.2288482,0.31173095,0.10246059,0.019899113,-0.040020652,0.021139849,0.072157316,0.03351891,-0.037937865,-0.029476745,-0.013002851,-0.028116025,0.07385427,-0.056515537,-0.11667532,0.056145538,0.12096654,0.049440555,0.22255059,0.16541094,0.34978077,0.27287844,0.005970821,-0.069473855,-0.059191566,0.10685252,0.0762176,0.04893616,0.021528678,-0.06340647,-0.06378106,-0.08426832,-0.15156785,0.025195152,0.010685729,0.038300786,-0.041590605,0.05623743,-0.109120674,-0.012392774,-0.049342513,0.031852122,-0.050187495,-0.053262934,-0.041317288,0.07464488,0.16331059,0.23365176,0.23292923,0.17595215,-0.07581621,-0.257526,-0.24633309,-0.19383046,-0.21795113,-0.26059094,-0.1787963,-0.21120779,-0.39588484,-0.38595593,-0.22638196,-0.066604376,0.116775304,-0.07550247,0.014198805,0.012687427,-0.008637243,0.062036768,0.07530802,-0.09569357,0.0027169108,0.08499171,0.023556013,-0.058366116,0.20905103,0.3663434,0.2680199,0.06362871,-0.079105526,-0.35408816,-0.4551312,-0.28713045,-0.21826202,-0.20687333,-0.24306142,-0.26813877,-0.28725383,-0.30599466,-0.13828109,-0.115649424,0.023436805,0.021593036,0.010807632,0.0352011,0.012465046,-0.01571603,-0.023740763,-0.095441565,-0.100807294,0.061109435,0.11478461,0.07522481,0.116303764,0.13209501,0.07872483,-0.07730376,-0.14835568,-0.29378125,-0.21880157,-0.08834094,-0.20530781,0.017543579,-0.011681811,-0.15284063,-0.26656815,-0.20349112,-0.15245414,-0.111684516,0.0044037644,-0.022357006,0.0032586914,-0.040463325,0.034503724,-0.0056247753,0.014153276,-0.013689633,-0.0895189,0.011988119,0.10625351,0.16211042,0.14553499,0.053291325,-0.056171075,-0.0051694685,-0.12215373,-0.15329805,-0.31104487,-0.215369,-0.09905332,-0.10504896,0.07197583,0.03352801,0.011561376,-0.11066491,-0.15446208,0.036511123,0.0054692524,0.068533376,-0.04011277,-0.00614544,-0.038121313,0.010742376,0.025722126,0.014088312,-0.02004294,0.04444207,0.08021189,0.034170046,0.067678094,0.003747688,0.052271754,-0.15290068,-0.03837906,-0.06249506,-0.20187208,-0.18375142,-0.25025374,-0.1622142,-0.103081875,-0.051369898,-0.014758564,-0.20231345,-0.08432255,0.08098416,0.14189121,0.048636157,0.024473473,0.07013875,-0.027968962,-0.014899355,-0.0030789266,-0.025381643,-0.026181571,0.044209715,0.1254889,0.13051477,0.09308131,0.16552465,0.058949776,-0.0062844846,-0.07066056,-0.14976494,-0.19180538,-0.19320014,-0.13462842,-0.22553448,0.05625537,0.022335175,-0.05169385,-0.1305266,-0.057606757,0.030957721,0.05335594,-0.039564963,0.040217146,0.0062732846,0.08292894,0.0038315488,0.10674486,-0.018213844,0.028830381,-0.01011202,0.057218205,0.014090892,-0.043618463,0.114380784,0.06081853,-0.06546231,-0.1327429,-0.21719855,-0.18801181,-0.2584742,-0.07523285,-0.1097501,0.026301794,0.048702933,-0.049279943,-0.00924778,-0.087182395,-0.007848374,0.018575026,0.013465035,0.060231425,0.027663717,0.03392456,0.007868932,-0.002396699,0.011553666,0.047555327,-0.009057599,0.004800173,-0.12317663,-0.027168794,-0.13978517,-0.16676757,-0.14006267,-0.07039793,-0.24773619,-0.20022377,-0.17540452,-0.09757328,-0.13235825,-0.20917232,0.005398011,0.036575377,0.052408002,-0.048727944,0.08113859,0.017467663,-0.044993713,0.06682718,-0.056002665,0.047905438,0.019551767,-0.069145076,0.039129943,0.0072675203,-0.072460175,-0.0077203973,-0.012629563,-0.066716544,-0.070068955,-0.052864533,-0.0426013,-0.12874304,-0.24453202,-0.29065487,-0.23662919,-0.13561426,-0.11114802,-0.0016060543,-0.026374156,0.027669562,0.17436947,0.11605672,0.051963694,0.13101675,-0.017379835,0.0069385604,-0.054820623,0.049392514,-0.013199085,0.056139134,-0.03615804,0.026905479,0.05099691,-0.076304466,-0.12937444,-0.16046382,-0.077715635,-0.0047448473,-0.29126912,-0.11988565,-0.2632526,-0.25026843,-0.2516739,-0.20403661,-0.10810582,-0.0040592193,-0.012243952,0.103787966,0.121098585,-0.028840473,0.09496565,-0.05325951,0.018775864,-0.029001925,-0.009570504,0.02289403,-0.028528377,-0.007883262,0.06643336,-0.0002694272,-0.01487767,-0.05603644,-0.03841456,-0.030417489,-0.014524969,-0.07756442,-0.13697095,-0.08059469,-0.34228995,-0.27518263,-0.31961846,-0.32183674,0.12288752,0.06755869,0.07912509,0.12688336,0.21876581,0.05309788,-0.05371273,-0.003227303,-0.04528143,0.010727992,-0.031295512,0.0575401,-0.120973036,0.02852527,0.013558737,0.095502995,0.022267515,-0.052060213,-0.15977283,-0.14505741,-0.036355507,-0.0642924,-0.06013656,0.029316034,0.00215071,-0.25884312,-0.04845521,0.065290175,0.23081364,0.07530736,0.102383435,0.06605003,0.107291006,0.03939818,0.042180147,-0.045206252,0.03486174,-0.02533843,-0.041731194,0.074697115,-0.029844461,-0.033976853,0.03070519,0.13980934,0.122055925,-0.027561566,-0.03659933,0.057379965,-0.032915358,0.10086157,0.06714717,0.035004962,0.030290028,0.018510878,0.21411823,0.16163675,0.010733894,0.13323954,0.015560233,0.16825536,0.09522683,-0.032467093,0.04211187,-0.03862704,0.027263027,-0.08179086,-0.054512106,0.053318445,-0.011240342,0.028835705,-0.0040444573,0.024531638,0.008047082,-0.013902053,0.00047617368,-0.011251253,-0.047755323,-0.22572146,-0.067658566,-0.08496317,-0.10718255,0.18204863,0.2802415,0.11746506,0.11062189,0.14657696,0.061551046,0.09662292,0.09362646,-0.023151543,0.042762145,0.10164581,0.031559575,-0.025851235,0.006081251,-0.06318968,-0.025709996,-0.023284258,-0.048240628,0.011435674,-0.029606398,-0.0035587363,-0.044408705,-0.049134225,0.071172945,-0.008683789,-0.09362043,0.031107813,0.19322954,0.15720242,0.097645536,0.05375645,0.13773835,0.040307693,0.073321134,0.010532524,-0.021454146,-0.025620779,-0.018919228,0.068537,-0.07948833,-0.05397871,0.0390481,-0.02593351,0.0126602845,-0.017195988,-0.053725094,-0.07755265,-0.025164044,-0.08282968,0.03421649,-0.023284793,0.049116336,0.0018077112,-0.06183838,0.08800546,0.006400143,0.06871793,0.13960814,0.077400625,0.11182425,0.22196856,0.0867242,0.021053672,-0.07533966,-0.025815073,-0.027299542,-0.0679117,-0.04741365,-0.02276179,0.042124636,0.048875153,-0.084375486,0.07653977,-0.062275883,0.07160852,-0.09073192,-0.070707545,0.009985432,0.04673335,-0.002572459,-0.0734696,-0.019275608,0.17254815,0.07757331,0.13433559,0.16985433,0.05975177,0.104503214,0.096724585,0.08515503,0.14825925,0.06419252,0.000060567763,-0.007581824,-0.025699476,0.040811665,-0.032938328,-0.01775021,0.024883606,-0.057826206,-0.06783656,-0.0120157,-0.04005148,-0.0015118321,0.04138346,0.04576418,0.01990592,-0.012753588,0.058178578,0.104463205,-0.016161831,0.014827984,0.04105,0.09111377,-0.02184865,-0.07541353,0.00027651142,-0.030045386,-0.08711636,-0.018069554,-0.028897561,0.0012248415,0.054311957,0.050975192,0.06921523,-0.045496464,-0.15799104,0.04495425,0.029044585,-0.0253079,0.03966315,-0.07753459,0.0049028,0.056099072,0.017458277,0.009703509,-0.108721435,-0.0059060818,0.1338886,-0.06858822,0.033057485,-0.027749792,-0.091182485,-0.023705536,0.042963915,0.035052154,0.026179198,0.038810067,-0.00045173516,-0.041950665,0.055848394,0.019818552,-0.046506114,-0.042612184,-0.025043106,0.0056363693,-0.04169902,-0.036588553,0.0063919774,0.077569544,-0.038546566,-0.031976394,0.008958961,-0.03338254,-0.08653314,0.01521699,-0.03434203,0.07570883,-0.05246651,-0.028900215,-0.09547849,0.08593011,-0.06511242,0.01370933,-0.05887522,-0.034454882,0.045463987,-0.07328918,0.06220955,0.026408583,0.038220525,0.008170075,-0.025441792,-0.074500404,-0.06616998,-0.00816664,-0.0012263886,0.045276362,-0.027076514,0.016803281,-0.001310498,-0.03809215,0.085484914,-0.0976404,0.012404536,0.049472462,0.009251638,0.03846131,0.037762783,-0.028008917,0.04708376,0.050171886,0.12346288,-0.027250696,0.013084882,0.02663118,-0.04616961,-0.051068295,-0.047219954,-0.000086033055,-0.083522245,0.0059768436,-0.014698637,0.020508263,0.10439447,-0.022342037,-0.037892547,0.004377672,-0.098812476,-0.04408116,-0.021489566,-0.040048696,0.09014718,-0.069947205,-0.027761156,-0.0104870405,-0.018427901,-0.0054044025,0.04515618,0.05523894,0.011629483,0.0013789919,-0.09140387,-0.012197897,-0.009333641,0.074679725,-0.026721861,0.10858831,0.025067555,0.04485177,0.042412665,0.035944987,-0.017949112,-0.0032115679,-0.03371494,-0.05013132,-0.02854318,-0.008303437,-0.0033328268,0.04069907,0.025073694,-0.2140565,0.023597399,-0.014414298,-0.00031519527,-0.05343046,-0.012094429,0.113566756,0.09538213,-0.0008488431,0.058334094,-0.028930886,-0.054738134,0.011429267,0.030192234,-0.016142214,0.0080549745,-0.02822332,-0.015262493,-0.017304042,-0.036794975,-0.08202865,0.0152746225,-0.12214416,-0.076170355,-0.06477996,0.0020782724,-0.04292078,0.11708579,0.049211137,0.057272397,0.028347278,0.027432159,-0.06673912,0.057973497,0.04555095,0.025464045,0.18585947,-0.0034706998,-0.009188715,-0.06861212,-0.003555337,0.09684845,0.033978354,-0.025094861,0.12000073,0.013866921,0.012407602,-0.02547387,-0.114484616,-0.090555355,0.012648083,-0.042882595,-0.023831902,-0.11670964,0.13533302,0.0058801975,0.08563441,0.02647841,-0.029422468,0.036089916,0.17376398,0.10182939,0.109839834,0.04815961,-0.022068048,0.08574731,0.02784377,0.0921472,-0.05626696,-0.017203525,0.050596416,-0.027899947,0.005048377,0.11298472,0.039038196,-0.11959723,-0.07796172,-0.0135271,-0.013718462,0.026630497,-0.103648655,-0.051728826,0.008144964,-0.10801461,-0.05353542,-0.13746424,-0.038564038,0.09516866,0.12750058,0.020152349,0.0012622128,0.09575155,0.007885748,0.008485626,0.12572512,-0.065720074,-0.045528326,-0.005388639,0.013366287,0.062220126,0.008768436,0.14861956,-0.03611421,-0.124772444,0.059157934,0.0047293166,-0.03689362,-0.17988946,-0.109481685,-0.022125537,0.053186446,0.010712662,-0.11754226,-0.20286225,0.023524327,0.043670587,0.026646635,-0.005849783,-0.06904022,0.0026786309,-0.042733118,0.041121382,0.036303375,0.0067397538,0.05376446,-0.08037428,0.03871398,0.032521527,-0.01706864,-0.021688176,-0.018333761,0.045805074,0.048394077,0.019640213,-0.031583387,0.00499638,-0.08458834,-0.097474076,0.13349012,-0.0037338603,-0.026689203,-0.14095522,0.030594528,0.06350493,-0.04445162,-0.048220333,-0.09095006,0.012555752,0.061924182,-0.20355351,-0.018031452,-0.05290888,-0.044946626,0.06540466,0.008539853,0.03131127,-0.018274313,0.07270233,0.07593431,0.14351583,-0.024517773,0.0057927826,-0.0654318,0.041089028,-0.03970543,0.042719048,0.09582718,-0.049061093,-0.117359355,-0.023369774,0.0733922,0.039828267,-0.054727137,0.00940728,-0.08357094,-0.008579144,0.061391383,-0.06837387,-0.044831414,-0.07914968,-0.01230032,-0.030548833,-0.07189599,-0.04168065,0.043761186,-0.029707527,0.09160991,0.11016074,-0.014825528,-0.034718197,0.029127749,-0.020287944,0.1522831,0.17135575,-0.013854491,-0.15528485,-0.14730553,-0.15897828,-0.090837106,-0.09820628,-0.026830558,-0.11881675,-0.12463316,-0.122155145,-0.12894444,-0.12711346,-0.112058245,-0.13056757,-0.031950146,-0.048703205,0.057533033,0.07441298,-0.10385975,0.06408119,0.052211985,-0.015241756,0.047367867,0.14446738,0.02344761,-0.047810093,0.11480902,0.06913862,-0.013942739,0.025067875,-0.007984552,0.06100306,0.031849705,0.037219808,0.0025304663,0.021933688,-0.17973644,-0.21212026,-0.15506263,-0.13245647,-0.11154173,0.041295294,-0.053406246,0.0033395465,-0.027118493,-0.012067991,-0.10141556,0.0025362168,-0.028697357,-0.02058699,0.1672831,0.019147601,0.02018482,0.11581901,0.03643879,-0.023539513,-0.13066418,-0.19107328,-0.10999048,0.028873002,-0.009150445,0.15260337,0.075444095,0.10335456,-0.13247766,-0.06460349,-0.111170664,0.042087145,-0.02050613,-0.099351056,-0.026952023,-0.10596014,-0.034596983,0.06396337,0.010324412,0.07824192,-0.013594759,0.03809,0.0744562,0.052350085,0.07944453,0.05025828,0.098581076,-0.11347001,-0.1646958,-0.16600789,-0.093315184,-0.10735067,-0.0071025034,0.0963149,0.05897858,0.0025422024,-0.30394813,-0.17151399,-0.031211864,-0.03698975,-0.03475199,-0.024720365,0.03455229,0.026247967,-0.010425421,-0.034007456,-0.025323862,-0.02260622,-0.003982766,0.028825209,0.048175484,-0.05019844,-0.048824474,0.057221055,0.0033969302,0.0790742,-0.16964039,-0.18005623,-0.13473903,-0.3008217,-0.1605661,0.101035826,0.16552113,-0.14114396,-0.16504532,-0.015935529,-0.07860342,-0.09066903,0.18258044,-0.021268368,-0.05450387,0.0738822,0.01358924,0.02676958,-0.006289905,-0.017134521,0.07363758,-0.02126606,-0.020641098,0.034748003,0.09980202,0.0758336,-0.04867276,-0.001843584,-0.0032500194,-0.13684578,-0.20417893,-0.25538453,-0.11276023,0.0798027,0.15277374,0.10981102,-0.022059578,0.15951416,-0.07560967,0.15385023,0.028612154,-0.117222615,0.042065952,-0.011287798,0.021147631,0.047600035,0.09707379,-0.047186125,-0.0065533505,0.005703068,0.022826338,0.11434902,0.10718115,0.12539291,0.026453983,-0.047841482,-0.102255024,-0.13133904,-0.1297467,-0.19585612,-0.009819124,0.03301537,0.07075395,0.03898911,0.091611885,0.067768194,0.084894836,0.050589498,-0.026168915,-0.0321629,-0.044255517,0.004023643,-0.1261092,0.017811228,-0.04840978,-0.11724487,0.03020029,0.040486693,0.110174745,0.09611026,0.15238966,0.09314718,0.14135532,0.06857552,-0.05291194,-0.025069403,-0.24323472,0.025899148,-0.04887262,-0.010787611,0.17708673,0.26531735,0.06918978,0.1228865,-0.04517844,0.18302299,0.12977877,-0.039573032,-0.06360635,-0.02300337,-0.0081579685,-0.012866078,0.06188204,-0.008526669,-0.0030664164,0.045774076,0.015576456,0.013343661,-0.008611787,0.14868215,0.14108738,0.117199436,0.08474704,-0.074006714,-0.13852876,-0.09203149,-0.056413714,0.13197063,0.27696213,0.18938881,0.06437901,0.2533126,0.20316073,0.14682,-0.04609999,0.029770136,-0.025679475,0.027623381,0.010357806,-0.008672519,-0.018042326,0.0044946712,-0.015532615,0.013947767,0.07440921,0.104843,0.10190122,0.12267986,0.2648442,0.08572107,0.14234912,-0.041478712,-0.07373309,-0.16600183,-0.038376227,0.07004105,0.061033476,0.11146291,0.19236763,0.09877806,0.041617308,-0.009462267,0.04284417,0.087024845,-0.029073495,-0.08448838,-0.059235584,0.096280284,-0.0397949,-0.07194851,0.0061351624,-0.016952882,-0.12274255,0.050814115,-0.08843962,0.065362826,0.20585409,0.025078548,-0.0106111355,-0.14665098,-0.083500564,-0.03643243,-0.010558559,0.10039551,0.20505652,0.061401863,0.048932552,-0.021972042,0.04347474,-0.08448455,-0.044931564,0.09051405,0.008430155,-0.04596295,-0.071338564,-0.00077813974,-0.09299108,0.07935139,0.040679824,0.010210885,-0.02849822,0.007007838,-0.102504015,0.013323302,-0.10750242,-0.028130202,-0.13157836,-0.09941968,-0.095110044,-0.026742473,-0.016227491,0.14560612,-0.017984612,-0.007500343,0.08066245,0.14442183,0.1650898,-0.0012544163,-0.10993029,0.019220721,-0.017255615,-0.006172245,0.08212372,-0.02712526,-0.030586962,0.022540724,-0.10665426,-0.09841658,-0.04786954,-0.12462238,-0.17445055,-0.12929767,-0.2130057,-0.17799652,-0.24102804,-0.058776677,-0.20243196,0.03975621,0.10386828,0.06807961,0.091688335,0.017078655,0.13224801,0.09739981,0.057053056,-0.029455537,0.012853594,0.054784067,0.060866892,0.0007260112,-0.034773543,-0.018977964,-0.1065344,-0.027780306,0.018708803,-0.07141378,-0.029380262,0.061281204,-0.1028691,-0.10698285,-0.07440782,-0.18544585,-0.1634567,-0.15373601,-0.19664747,0.07102716,0.061011516,0.13499272,0.12339814,-0.0018261481,0.24161169,0.14141208,0.054539748,-0.16294324,0.044666126,0.06334529,-0.0064001884,-0.025137166,0.005298281,0.033027127,-0.0862533,-0.011851021,-0.023799013,0.02185672,-0.0537261,0.0779644,-0.07778332,-0.1149178,-0.19164813,-0.18179499,-0.09999333,-0.20000434,-0.025170464,-0.038756814,0.14827904,0.29511663,0.1910063,-0.014900228,0.016263403,0.0551994,-0.006360126,-0.05476967,0.049358204,0.0059012603,0.04697193,-0.004761498,-0.003939158,0.027151434,0.04209751,0.01248408,-0.049965493,0.085546136,0.06296891,0.037877444,-0.033185016,-0.063668184,-0.03877251,-0.049901195,-0.04631442,0.0028401976,0.05524348,-0.006976214,0.16195126,0.09177717,0.08390867,0.05023789,-0.0013094456,0.06747935,0.011673931,0.02669553,0.055377703,-0.06784242,-0.026087333,-0.03281548,0.04717358,0.06745807,-0.047875084,-0.07095223,0.03191919,0.11021941,-0.06588407,-0.10306368,-0.006517794,-0.020843472,0.0848703,0.07050724,0.04241969,0.003032786,0.06826318,-0.052144818,0.0066931644,0.033330377,-0.0795408,-0.08786788,0.012766223,0.020260505,0.057825048,0.07169601,0.011939136,0.01818785,-0.054268036,-0.002904788,0.06357302,0.053439602,0.015784686,0.06543246,-0.023930835,0.019857747,-0.024895934,-0.06464658,-0.024411982,0.03658986,-0.002088817,0.056399684,-0.01807256,-0.026117543,-0.0722168,-0.022524076,-0.027791591,-0.035187036,0.028358717,-0.016898122,0.011966733,0.044797596,0.018828146,0.02585229,-0.04125172,0.0299463,0.029533453,-0.0030161552,-0.03974505,0.038083836,0.022934193,0.0016581133,0.027311914,0.031064024,-0.012572344,0.09777342,0.101894714,-0.017996067,-0.011620772,-0.0018076742,0.0041888817,-0.06804552,0.020432211,-0.0026964655,0.0067432057,-0.047874093,-0.042043436,-0.021876333,-0.022472806,-0.0069900374,-0.06948855,0.03973892,0.024881033,-0.11306433,0.04408095,-0.06291861,0.0058987997,0.02154109,-0.010101808,-0.020683216,-0.0751492,0.018031383,0.020000504,0.022104459,0.03987306,-0.04956872,-0.13381001,-0.030069364,0.08229229,-0.07155473,0.11773681,0.037890825,-0.062485114,-0.023409873,-0.0014198741,-0.026621789,0.048093434,-0.013359151,-0.0318847,-0.069748394,0.15247998,0.026017774,-0.02305702,-0.03242292,0.0033611825,-0.04285103,-0.06690401,0.006125293,-0.030420486,-0.039222218,0.030824441,-0.019011898,0.019471282,0.018170808,-0.07489167,0.033302363,-0.040857483,-0.050704367,-0.06204314,-0.028109526,-0.013875094,0.051651884,0.039852343,-0.020881815,0.058390275,0.06260488,0.05343766,0.062143065,-0.022333201,-0.0046212925,-0.051130816,-0.055583823,0.026918473,0.051888026,0.018399289,0.00893844,-0.027192013,0.028566051,0.0074913143,-0.067672774,-0.0042442596,0.018692952,0.014986114,-0.056846827,-0.08813309,-0.08267261,-0.044803247,-0.026955694,-0.11840668,-0.055920612,-0.04538358,0.013122282,-0.04266796,0.011980737,-0.057147488,0.0013658641,-0.00820966,-0.09248483,-0.005920583,0.06335757,0.040828835,-0.040217828,-0.06262212,-0.044896156,0.07993341,0.09930495,-0.0056842905,-0.06781716,-0.058151335,-0.020878458,-0.0637484,-0.018107159,-0.01656055,0.07951496,0.057916775,-0.015418922,-0.09714934,-0.11205813,-0.012532638,-0.04392528,-0.005926785,-0.095882274,-0.004960793,-0.08722144,-0.05243286,0.06591721,-0.053382043,0.067407794,0.010017791,-0.042379107,-0.10108468,0.030185902,-0.027177874,-0.058667045,-0.010825708,-0.08443792,-0.00821247,-0.16155173,-0.074541114,-0.024085423,-0.0036950707,0.13178512,0.17211722,-0.029095069,0.00735741,-0.18130618,-0.2915709,-0.10139963,-0.08002779,-0.06840695,-0.04739507,-0.057540588,0.036211234,-0.014575335,0.07932985,0.03400805,0.017548755,0.05985097,0.009535588,-0.025915828,-0.03495104,-0.07863288,-0.04837551,-0.052826755,-0.08898682,-0.04338987,-0.10371592,0.15904647,0.18434446,0.2951514,0.20398782,0.12663043,0.100632206,0.019240435,-0.047599576,-0.11724066,-0.29543212,-0.23037954,-0.06658136,-0.065518856,-0.14750846,-0.09187595,0.03108678,-0.0008635221,0.046410825,0.0017090074,-0.06739654,-0.037630666,0.06660198,-0.09611168,-0.06402294,-0.0775292,-0.10777442,0.049960658,0.1261971,0.21367553,0.23822415,0.19488451,0.22129755,0.15384603,0.085809365,-0.02188305,-0.0019232532,-0.07046415,-0.082393,-0.2637481,-0.24551284,-0.27255553,-0.19019485,-0.13391231,-0.003179145,-0.08234241,-0.07382333,-0.039522827,0.011856867,-0.025383873,0.030909495,-0.05707293,-0.102003574,0.0037793529,-0.036628287,0.27048662,0.22703129,0.14238869,0.10026434,0.004846263,0.047726758,0.17186584,0.2287434,0.18642712,0.10059345,0.22384275,0.07755544,-0.0070331516,-0.08139447,-0.09038692,-0.20360234,-0.07037026,-0.004301092,0.031157432,-0.021494446,-0.017125037,-0.004832457,0.070969336,-0.019830398,-0.048867453,-0.014583633,0.036074247,0.10985899,0.14296621,0.047363516,0.072802104,0.12881424,-0.12894128,-0.026588812,0.16180821,0.2211599,0.22330071,0.23753572,0.19528098,0.035351288,0.008101866,0.12289164,-0.08391028,-0.1341444,-0.06741693,-0.06412112,0.029132636,-0.044075873,-0.018691307,0.031006068,0.025352294,0.023225151,-0.018304592,-0.03235387,0.072116785,0.1371154,0.026066594,0.009304523,-0.14202903,-0.13525794,-0.22974284,-0.09912446,0.25098917,0.23630407,0.4654168,0.26640552,0.1831921,0.011627409,0.023920815,0.031195298,-0.037724935,-0.09912852,-0.07655097,-0.096917085,-0.0015280994,0.13147439,0.07553277,-0.0634948,0.00699132,-0.045297023,0.057352297,-0.0965418,0.088404454,0.09109163,0.07255243,-0.036986314,-0.19924568,-0.33515707,-0.07669338,0.05249834,0.08381958,0.3473725,0.32014817,0.26260352,0.18921436,0.105847724,0.10912274,-0.005020752,0.13897792,-0.014023659,-0.10662459,0.023394564,-0.07963822,0.025763609,0.011547448,0.025349632,0.013844152,0.0041604456,0.032912195,0.030399539,0.059237402,-0.1212811,-0.0727076,-0.08040377,-0.15904208,-0.19335517,-0.25141856,-0.19986683,-0.09018637,0.02978739,0.14958923,0.10050394,0.053479634,0.024045188,0.13556372,0.086902425,0.04548092,-0.022412894,-0.05446704,-0.07178287,0.0540619,0.026794434,0.049910635,-0.01875975,0.028080607,-0.022778334,0.07181485,0.00017146103,-0.05382015,0.070417255,0.0018555141,-0.1446759,-0.020630596,-0.1021845,-0.17905077,-0.25620413,-0.23681293,-0.032090474,0.06731165,0.045754973,0.016799683,-0.10555909,-0.021752879,0.06316813,-0.000925207,-0.008175147,-0.11534788,-0.09793763,0.044770617,-0.09895369,-0.043020576,-0.03227963,-0.0010339824,0.018793603,0.05952344,-0.12503076,0.015119055,0.027767433,-0.0312523,-0.107460395,-0.20717269,-0.13436903,0.03063766,-0.1719945,-0.31926975,-0.11004478,-0.052191608,0.04374724,0.14779414,-0.06430445,0.12650798,0.09066652,0.021490723,0.041685753,-0.02387761,0.06218603,-0.0026479291,0.052148506,0.025844056,0.07029695,-0.021469368,-0.039674986,0.044184424,0.01584677,0.021888169,0.06081211,0.06483748,-0.048746686,-0.08888682,-0.24506994,-0.079824604,-0.2595755,-0.23060632,-0.25846797,-0.12334824,0.020583956,0.060344882,0.014175921,0.1988224,0.09683077,0.012135055,0.019450825,0.039089855,-0.106124274,-0.026076235,-0.085857294,0.07853692,0.008812986,-0.00090545125,-0.008541421,0.051778793,0.05558154,-0.018558597,-0.029572966,0.07526305,-0.06826481,-0.013684576,0.007974035,-0.007950422,-0.17218357,-0.44250682,-0.20096424,-0.13016953,-0.047679182,0.012407497,0.02268956,0.20087701,-0.100638695,-0.09665056,-0.04958527,0.078000404,-0.07147288,-0.0349576,-0.045867924,-0.009661179,-0.037234437,0.025549285,-0.008796463,0.12111904,0.038050003,-0.13857321,0.03573533,0.10205533,0.10562244,0.09513498,0.06863136,-0.013145864,-0.27531245,-0.23024699,-0.15411614,0.045812774,0.09784036,0.01703253,-0.017216286,0.0008715399,-0.04274882,0.019563781,0.06952206,0.054118168,-0.12485756,-0.07625972,-0.022973172,-0.0842764,-0.067981265,0.0072381757,0.05897336,-0.036032796,-0.046078615,0.044385996,-0.02167404,-0.0028911666,0.10537096,0.17146802,0.1070989,-0.010618828,-0.15908962,-0.13386172,-0.18613414,-0.029617058,0.11143523,0.022363944,0.0649725,0.025370806,0.00030448308,0.0043636905,-0.14501898,-0.070943646,0.052673757,0.059684366,-0.029152766,-0.022392632,0.016791584,-0.023883019,0.058366682,-0.026158126,0.039133783,-0.09262319,-0.21388668,-0.035278853,-0.14335869,-0.034104895,-0.017395236,0.12883992,0.06967457,-0.122111194,-0.15745582,-0.20264855,-0.15342654,0.05904156,0.104909986,0.06447481,0.028636543,-0.072695024,-0.13682193,0.021099541,-0.018655375,0.03872211,-0.032864887,-0.05055943,-0.042774066,0.020078773,-0.013196529,-0.020006858,0.0320977,-0.052764006,-0.20665464,-0.11321672,-0.21578258,-0.1347554,-0.15112433,-0.1313257,-0.17595765,-0.2111458,-0.21688797,-0.14286885,-0.119912356,-0.09006907,0.02193198,-0.061121013,-0.123830676,-0.11462925,-0.082011975,-0.0032559324,-0.057171546,0.04184472,0.012318357,0.0203447,-0.025203597,0.024369,0.024874728,0.030691348,0.10827411,0.005846461,-0.010769239,-0.012557611,-0.06792303,-0.18163782,-0.10033369,-0.02313616,-0.32604015,-0.13802354,-0.18641694,-0.10785541,-0.057379797,-0.07779039,-0.08398074,-0.07429333,-0.03389532,-0.14576973,-0.036990594,-0.041858807,-0.0064364085,-0.052406922,0.008656873,-0.02344757,0.018603746,0.0007243278,0.085511535,0.012668707,0.024147334,0.07155655,0.014251258,0.012942748,-0.043694798,-0.009576189,-0.13795559,0.010128318,0.010539959,0.05352625,-0.07153406,0.024316382,-0.0050404165,0.0012167691,-0.09822831,-0.12570517,-0.040625717,-0.0046700886,-0.0016468419,0.017351821,0.07786233,-0.0024271933,-0.04356826,-0.018924396,-0.014177486,0.006681423,0.051764242,0.027214436,0.030117305,0.062506855,0.1019038,0.02968821,-0.08516537,-0.023869043,-0.044305112,0.04498653,0.055994548,0.023881178,-0.015125373,0.007911339,0.05634922,-0.1345901,-0.05462785,0.023532273,-0.04130924,-0.045848038,0.07270339,0.0651016,-0.04995315,0.091342084,-0.01817731,-0.04435667,0.010581668,-0.0095011145,-0.0058336463,0.028228564,0.08088472,0.11570938,0.21791361,0.045209825,0.032055102,0.17135763,0.07141901,-0.028594537,-0.0051627434,-0.13423896,-0.1010771,-0.06702696,-0.25076035,-0.117587,-0.014668586,0.07814124,0.06164065,0.058964644,-0.11642614,-0.029078519,-0.03753589,0.032539524,0.052014258,-0.010537853,-0.0006851394,0.00493255,-0.011221704,0.04767907,0.057168778,0.06564417,0.093263954,-0.06662855,-0.008890283,0.03997705,0.10090984,-0.08411014,0.07152207,-0.093721114,-0.025206266,-0.1601188,-0.22788975,-0.042604476,-0.056498144,0.08723008,0.05602959,0.030922089,-0.014067434,-0.07330767,-0.012838384,-0.04291092,0.001553446,-0.014111651,0.04334262,0.028928766,-0.06018631,-0.032161295,0.06968242,0.005374646,-0.055409037,0.05287016,0.07161761,0.1292818,0.10287833,-0.08063427,0.03808452,0.13739522,-0.07302979,-0.051936585,0.09324807,0.11474299,-0.010064771,0.15143591,0.14177474,0.17151406,0.1023059,0.09046933,0.038685475,0.031750236,-0.0008277772,0.017889053,-0.0011504283,0.040694546,0.017100096,-0.14241557,-0.045364924,0.043176815,-0.0059119076,0.08912708,0.024662182,0.018218217,0.035520777,0.036838703,-0.0003900321,0.06534529,-0.0066391486,0.053439338,-0.12791489,-0.019668479,0.06260738,0.07559161,0.050643798,-0.07905046,-0.04058383,0.016382877,0.0030157901,-0.04035285,-0.0024105352,-0.013763779,-0.021885945,-0.035791695,0.04818389,-0.013167999,-0.044667494,0.06314514,0.021373482,-0.0031727345,0.027967433,-0.07792304,-0.03539734,0.00069353916,-0.045616936,0.048418205,0.03101197,-0.012210038,-0.0032835049,0.0913354,-0.043680064,-0.0029805554,0.0032384319,-0.036555063,0.07928817,-0.03528489,-0.050957985,0.09885597,-0.06207775,-0.06337604,0.0047498867,-0.04898522,0.032719757,-0.015979325,0.008193439,0.022844348,-0.08629748,-0.035759203,0.03590452,0.09000822,-0.009297577,-0.042643245,-0.03251285,-0.033802588,0.069048576,-0.0389597,0.036246836,0.0072028213,-0.08899298,0.05851917,0.0142622385,-0.033009604,-0.06409472,-0.025984623,0.024921827,-0.0029142736,-0.0002256865,-0.02407477,-0.07494864,-0.06041723,0.011840531,-0.021537151,0.008220237,0.093498744,0.053612072,-0.019042606,0.009253206,0.08500294,0.037803616,-0.023533238,-0.02800297,0.12444421,0.088961355,-0.08171317,0.023782052,-0.04983784,-0.029911412,-0.016396789,-0.012693634,-0.121897824,0.060345132,0.04884861,-0.059696507,0.010238937,0.062562905,-0.043637607,0.0008666618,0.1084678,-0.00836056,-0.02330016,-0.0067975638,0.04288538,-0.024609106,-0.002762976,0.073079735,0.0074684895,-0.089467764,-0.01677184,0.0712186,0.100018844,0.03889152,0.023329657,0.08307763,-0.04024417,0.0027647617,0.057168204,-0.019387955,-0.13071533,-0.0061666965,-0.085617796,0.06146505,0.0045815976,-0.057031546,-0.042952314,-0.027936421,-0.1189764,-0.08309987,0.050702494,-0.015997782,0.107892066,0.03308646,-0.00083003205,0.15080583,0.018350745,-0.030471446,-0.0072238413,-0.01087958,0.09769296,0.08804731,0.15527272,0.06782309,0.13189517,-0.049036276,-0.014718565,-0.005917335,0.12207169,-0.040254787,0.010546383,0.04758048,-0.027591031,0.07642634,0.04288046,-0.0065480736,-0.019331591,-0.018147724,-0.023207914,-0.10044876,0.039124686,-0.05923414,-0.0665863,0.030908275,0.12652914,0.19869499,0.16995303,0.16807754,0.042714983,-0.10463942,0.18511748,0.0049671964,0.039092485,-0.029999856,-0.036272254,0.033600938,0.053701404,0.14108582,0.07892929,0.022034869,-0.0018758802,-0.0030004918,0.02352928,-0.02751099,-0.018998956,0.04729013,-0.07800181,-0.04323302,0.08200005,0.07529089,-0.04383683,0.21869053,0.20883581,-0.04906176,0.08497411,-0.0027564156,-0.037604764,-0.26263753,-0.051012,0.06487154,-0.016175954,-0.053994883,0.18451758,0.12874244,0.0066914945,0.053757325,0.030418687,0.014023676,-0.020807104,-0.04018664,-0.022357397,-0.08979648,0.07276113,0.0028856897,0.008616962,0.033360012,0.063664444,-0.014688033,0.06731563,-0.10655975,0.10931671,0.0036002663,0.08136292,0.27382654,0.24486955,-0.046769675,0.18134971,0.04850658,0.0870869,0.12761882,0.13280457,0.10087998,0.07671769,-0.06898189,0.067704365,0.037037194,0.117182404,0.038298644,-0.038244836,0.0816907,-0.0687682,0.031983636,0.071547076,0.065160096,-0.026460664,-0.0058265496,0.0051902765,-0.025366988,0.09371959,-0.034056168,0.23241365,0.05470695,0.350425,-0.033070132,-0.02129517,-0.010766001,0.1611955,0.119661346,0.08522487,0.0975847,0.094575025,-0.028949415,0.08055494,-0.004828879,-0.013052119,-0.099652834,-0.037173994,0.0013133803,-0.027497021,0.00986006,0.086753055,0.015920002,0.016951472,-0.030745892,0.021917043,-0.04239986,-0.081631035,-0.05462002,0.0007465317,0.077832945,-0.0680837,-0.28073472,-0.048836306,-0.070647694,0.19139893,-0.07831747,0.011790943,0.060930226,0.1746011,0.056568135,0.17439236,0.18140207,0.08475083,0.064596,0.026741438,-0.046346843,-0.03135647,0.06652771,-0.0614219,-0.058783066,-0.13790835,-0.00883307,0.035025302,-0.044499267,-0.097291015,-0.16908744,-0.03934935,0.014799379,-0.19008891,-0.32546183,-0.2376528,-0.22537407,0.03605192,-0.16312599,-0.052995153,0.13815236,0.1158659,-0.027392669,0.008285574,0.008908093,-0.031615745,0.07881494,0.081179775,0.022709366,-0.08219266,-0.031805463,0.032987487,-0.07763322,-0.17256105,-0.14145279,-0.20035988,-0.1488543,-0.08284831,-0.11226749,-0.027203158,-0.21945731,-0.33208576,-0.48488003,-0.46034703,-0.14625664,0.05613773,-0.16566703,-0.10435769,0.015034027,0.101709805,-0.036886893,0.009489258,0.06406473,-0.009807108,0.033309545,0.050687023,-0.021951031,-0.028533462,-0.06345623,-0.09602315,-0.24456501,-0.013307802,0.045970123,0.04884027,0.06602263,-0.021717142,-0.0653116,-0.013341201,-0.17919949,-0.28335565,-0.40860385,-0.34833923,-0.24312674,-0.19606379,-0.15367416,0.021623058,-0.1206363,-0.031989332,0.120588265,0.067972,0.057910364,0.112535976,-0.008356059,0.09493714,0.10076982,0.00009363036,-0.037995882,-0.06581039,-0.04477478,-0.031791396,-0.031372834,-0.071573704,0.031879958,-0.061137475,-0.10608872,-0.15058069,-0.18867007,-0.08773482,-0.25528917,-0.37724566,-0.18110792,-0.25423962,-0.012740533,0.054050565,-0.07254634,-0.06731721,0.060157925,-0.049925108,0.05303784,-0.0023441992,-0.058258384,0.03173934,0.096651986,-0.06880888,0.012413659,-0.050943367,-0.027182829,-0.035771783,0.04928192,-0.022898635,-0.046982486,-0.18210784,-0.24375837,-0.13408524,-0.13956694,0.10866675,-0.04615598,-0.39235258,-0.37886158,-0.18804856,-0.15124391,0.15148847,-0.04423558,-0.04793643,-0.049198475,0.054230474,0.07804057,0.11656547,0.027135344,0.04951511,-0.045889094,0.011410603,-0.013382193,-0.13991961,-0.085610524,0.08561918,-0.20584631,-0.12335039,-0.11834412,-0.11828466,-0.048837367,-0.10253087,0.01461205,-0.031112518,-0.15833935,-0.18952735,-0.25346377,-0.19823714,-0.15211977,0.06454675,0.16433051,-0.22977076,-0.06503679,-0.06454704,-0.009582129,0.051045872,-0.106344625,0.008323691,0.0018628765,-0.044220433,0.0012771515,-0.04041958,-0.020374844,-0.07956195,-0.18691607,-0.49236557,-0.38455752,-0.2766441,-0.07528389,-0.011119898,0.22687383,0.06673818,-0.13344727,-0.13931844,-0.1539496,-0.045679998,-0.030157812,0.1053123,-0.056323756,-0.13080901,-0.1288635,0.034287166,0.04495318,0.08918603,0.012026455,-0.03233115,0.039324097,-0.041361652,-0.00055955,-0.058929436,-0.12110329,-0.19123651,-0.21482037,-0.2831901,-0.29215062,-0.22832923,-0.43662015,-0.32597086,-0.2015917,-0.22295377,-0.3818139,-0.37715802,-0.078643195,0.2569144,-0.001183197,-0.008578274,-0.09926816,-0.112996034,-0.07904626,0.07385386,0.03996949,0.04137302,0.011381484,0.05276813,0.015424634,-0.0564441,0.010375997,-0.020265747,-0.14420983,-0.12898138,-0.031032935,-0.017996853,-0.12941326,-0.1796239,-0.48740146,-0.5367972,-0.48444188,-0.40412295,-0.37530702,-0.13005798,-0.015279372,0.1417392,0.009699756,-0.11856824,0.02548238,0.15770294,-0.016422976,0.07361846,0.03921094,-0.05509714,0.0008968114,-0.026265202,-0.08117796,-0.046742074,0.064532444,-0.08559582,-0.06186514,-0.013028948,0.1189772,-0.000034730903,-0.37282687,-0.2296448,-0.19144468,-0.13961346,-0.09931988,-0.121794656,-0.07206835,0.041603245,0.007206818,0.09244015,-0.13616054,0.17487153,0.029367542,0.043562047,-0.04152847,-0.019403705,-0.07444649,0.04124391,0.036344353,-0.089395456,-0.0020438782,-0.006930601,0.07002162,0.07119855,0.060778398,0.052595228,0.020823864,0.124439396,-0.06679235,0.00093708065,0.18419735,0.042988673,0.36570996,0.32302603,0.23607427,0.16178593,0.11530446,-0.04611077,0.013998144,0.021038692,0.038649555,0.030872155,0.12244051,0.037926186,-0.00021042432,0.061107803,0.13496275,0.1217183,0.012416181,0.064709865,0.011181093,-0.002249145,0.027788611,0.057045706,0.07146432,0.27003026,0.24401231,0.26406404,0.2760635,0.47675997,0.44263166,0.47595093,0.53403044,0.4265316,0.1463062,0.20532577,-0.082424745,-0.0054797833,0.06499779,0.11439811,0.22755726,0.12857817,0.025465425,0.019095484,0.035756886,0.042486712,-0.007996659,0.01872286,0.12969634,0.06665026,0.21826091,0.10214427,0.023430178,0.39605793,0.30830622,0.11606687,0.44935352,0.48538518,0.2585437,0.23834307,0.26510245,0.26533708,0.21322787,0.24157351,0.12127964,0.08515011,0.057428002,0.27348426,0.16650215,0.023871964,0.03348072,-0.07888196,-0.08419709,-0.06787983,0.09265607,0.042695936,-0.0739038,0.05617497,0.1557514,0.1682764,0.1613129,0.06877724,0.22169845,0.27782756,0.41151127,0.3662413,0.31735745,0.33610314,0.2675604,0.08969579,0.2319653,0.20785974,0.10551371,0.17435704,0.18530361,0.09890374,0.08036597,0.073770635,0.06828178,0.0207423,0.020755505,-0.011327186,-0.033671726,0.057008915,-0.03645968,-0.029068843,0.085194044,0.13071519,0.25133547,0.24879345,0.22711006,0.090923816,0.08058928,0.087670214,0.119037025,0.18609953,0.1384847,0.13851705,0.26217854,0.22152941,0.07670483,0.03692579,0.06229648,0.054709308,-0.055139363,0.053396966,0.06675398,-0.08100407,0.001546532,0.039107043,-0.07338052,-0.21513964,0.028417578,-0.028853234,-0.004977305,0.0693455,-0.01866667,-0.028461447,0.012404114,-0.08207996,0.037104398,0.02122274,0.13297129,-0.03442713,-0.066935696,-0.073210545,0.10995012,0.14391147,0.05606274,-0.06839109,0.056556206,-0.053031076,-0.044550095,-0.051222812,0.06744753,-0.0048465156,-0.0684338,0.07810022,-0.054508537,-0.03862925,-0.01459522,-0.0045678653,0.005125464,0.024555387,-0.0034972068,-0.029219836,0.05194784,0.049023706,-0.005498907,-0.000590722,-0.013302652,0.047572024,0.014522738,-0.04014479,-0.042801395,-0.119623244,0.043634802,0.046599124,-0.019490482,-0.023665773,-0.02279916,-0.009657439,-0.022895582,-0.0990964,-0.03903894,0.027600842,0.045880623,0.055300158,0.0050841197,-0.06462384,0.03961926,-0.06752426,-0.06519296,0.03962786,-0.0008046024,-0.037470583,0.01560019,-0.03361459,-0.019973408,0.003548379,0.009133609,0.002687419,0.010992495,0.02998707,-0.06608252,0.076117314,0.08359005,0.03168159,0.03913781,0.01968364,-0.08144326,0.05033676,-0.030328806,0.009446607,-0.04900227,-0.06230609,0.0830261,-0.032832075,0.09978894,0.017035233,0.017967008,-0.043008428,0.058480788,0.038426377,0.04525899,0.05902524,-0.048504796,0.06077432,-0.0571068,0.005417988,0.032475945,0.0540811,0.0031971019,-0.021762537,0.028155953,0.011262506,-0.0074715307,-0.04798292,-0.06640059,0.037057787,-0.080280684,-0.09967513,-0.052459527,0.015685571,-0.03602748,-0.014347281,-0.021766312,-0.036305297,0.0792092,-0.1151802,-0.11468887,-0.04018619,-0.016193964,0.037379447,-0.05075098,-0.0062926845,0.005133424,-0.07295329,0.043221008,-0.013224471,0.04777417,-0.10189012,-0.03533543,-0.0028344267,0.06503888,-0.10062788,-0.028065026,0.0654296,-0.06413877,-0.053803567,0.027909724,0.06254805,0.08763246,0.012491676,0.0027341063,-0.044352047,0.11226551,0.014990528,-0.069571346,0.07475048,-0.010718058,-0.0384831,-0.012210284,0.011900925,0.06397839,-0.0897502,-0.08542109,0.046381705,-0.012229105,-0.048827864,-0.042743,-0.07770547,-0.0637518,-0.037588842,-0.056794163,-0.07168892,0.07135462,-0.011991915,0.037418418,0.00959841,-0.072454505,0.022823056,0.015129268,0.046131544,0.006866047,0.0412352,-0.05082838,0.021898428,-0.10837393,-0.060240448,-0.039555248,-0.11817222,-0.12435143,-0.09216563,-0.07813125,-0.14131688,-0.04223606,-0.072648555,-0.08352164,-0.11858622,-0.02476012,0.04582438,-0.0064490903,-0.042064488,0.013912947,-0.008847657,0.02544422,-0.003624318,-0.033412803,0.053174533,-0.011836736,-0.09787318,-0.030569403,-0.033376906,-0.0016842993,0.016590072,-0.105325624,-0.011111274,-0.042735215,-0.020692509,0.025869386,-0.007869555,0.0205959,-0.050434127,-0.120374665,-0.10957952,-0.016493184,-0.03230883,-0.049108896,0.10012003,-0.0356902,-0.1028992,-0.011708096,-0.048853308,-0.0040737824,0.047957845,0.017637696,0.0006951866,-0.08108603,-0.036969043,-0.10735144,-0.07335104,-0.03049882,-0.07588792,0.123172455,0.11314917,0.17354473,0.053725936,0.04470224,-0.061634574,0.097215064,0.004893077,-0.01306268,-0.12418388,-0.019873042,-0.13601649,-0.14453663,-0.12317206,0.018003328,-0.06791475,0.09428925,0.017039845,0.07952022,-0.012496793,-0.054374773,0.074443,-0.019882074,-0.13334325,-0.044038545,-0.007204491,-0.032503974,-0.10970573,0.085971795,0.1124882,0.09826167,0.062291462,0.0022332387,0.13856933,0.31665772,0.12491427,0.010210326,0.1324738,-0.036452614,-0.08479802,0.008167256,-0.06403373,-0.019531554,-0.046795238,-0.050294667,0.04841714,0.0036005937,0.022551764,0.06195937,0.072411545,-0.14017297,-0.06253449,-0.26287618,-0.050957203,0.030694086,0.09480983,0.12281202,-0.010926588,0.14372388,-0.01699447,0.09621429,0.13070174,0.26907954,0.1731225,0.07116181,-0.00977365,0.016608618,0.03327016,0.053257354,0.09142685,0.023541866,-0.020777917,0.016305821,-0.06655643,-0.01051065,0.041339416,-0.051752705,-0.11952864,-0.15320937,-0.065010205,-0.15167008,0.049001914,0.018003069,0.09546995,0.0662802,0.033297867,-0.081398405,0.09950556,-0.0045082853,0.023587583,0.22905718,0.2887233,0.115941964,-0.023968415,0.022955032,0.013189885,0.1439263,-0.007849015,-0.057781953,0.0559879,-0.05421032,-0.10658972,0.016411347,-0.07556479,-0.12024096,-0.050027534,-0.08913562,-0.035216544,-0.040323425,-0.04061965,0.10835679,0.18600579,0.1900519,0.022238757,0.040261794,0.14311944,-0.020587608,0.050145343,-0.00034170688,0.15534623,-0.013885848,0.058785684,-0.05097375,0.014952931,0.07902357,0.10922569,-0.007868849,0.019245552,0.0020567551,-0.12795213,-0.021324426,-0.037360813,-0.10614018,-0.020187115,0.027341483,-0.011532084,0.062422454,0.0722417,0.101988465,0.124782346,-0.00888884,0.07691245,0.11393056,0.20233302,-0.010940886,0.014735165,-0.0237797,0.014326902,0.02037617,0.0044924794,-0.0017451734,0.060049415,0.116111174,0.012845989,-0.05932724,-0.089778945,0.05365908,0.001061466,-0.039091658,0.005353244,0.02750113,0.00043506737,0.007578081,0.09318339,0.1112967,0.131993,-0.0534337,-0.0033721628,0.05413681,0.030610414,0.02808186,0.21389246,0.0617298,0.0063420767,0.048832104,0.04918203,0.04411756,0.05458568,0.12946576,0.09894285,0.095253855,0.010900345,-0.05317217,0.061998893,0.025889099,-0.018048784,0.033847377,-0.036541685,0.025150958,0.12821592,0.045104757,0.0015524192,0.109790884,0.09668737,-0.06541743,-0.1971554,-0.077514626,-0.0023380017,0.13384908,-0.013068962,0.09139866,-0.11158636,0.06572394,-0.089218356,0.0834498,0.08750187,0.21261658,0.1530093,0.036583364,0.021203155,-0.03397917,0.027235301,-0.035047315,0.009257376,-0.007777443,-0.019069182,0.030863395,0.08556521,0.08348042,-0.0054544536,0.09698728,0.07459176,0.08228715,-0.09632785,-0.044922676,0.07826561,0.03604582,-0.0017172496,0.02413387,-0.10996614,-0.02936452,-0.108387545,0.11772127,-0.027273018,0.11091135,0.0764856,-0.020769628,-0.097185396,-0.04397504,-0.0043201675,-0.00078222994,0.02537252,0.05071874,-0.014706913,0.031834513,0.12006721,-0.018083967,0.016832244,0.07398506,0.085131474,-0.04335725,-0.09764357,0.07236757,-0.067151554,-0.03851455,0.034028858,-0.024212508,-0.042355828,-0.023267116,0.059794284,0.028699236,-0.081332326,-0.009714811,0.04462091,-0.10708109,-0.02013386,-0.06147605,-0.043578316,-0.036588438,0.02365492,0.03099329,-0.155633,0.008429565,0.07801691,0.03960294,0.1593223,-0.005315215,-0.004081162,0.048591226,-0.0068349945,-0.023494288,-0.029094515,-0.054910388,-0.06006982,0.013419398,0.030570682,-0.07005235,-0.05913162,-0.01658515,-0.032136112,-0.11110263,-0.026931478,-0.13839349,0.046735413,-0.07630279,-0.016515266,0.039593164,0.060016997,0.010692253,-0.09503931,-0.0028327152,0.06749163,-0.02994968,-0.043191276,0.0023257402,0.082987055,0.14856474,0.07762719,0.04639762,-0.03979576,-0.05719396,-0.046198472,-0.07366986,0.084208325,0.0054853144,-0.06959976,-0.21149834,-0.092575304,-0.1605806,-0.10752974,-0.11569051,-0.052673973,-0.085290164,-0.10396961,-0.10207929,0.05080978,0.11652084,-0.0061005782,0.018442936,0.001954806,-0.045159735,-0.0024830205,-0.018686919,0.012219993,0.054785326,0.09856453,0.07389383,0.06772979,0.0068470524,-0.060710322,-0.03294893,0.09149465,0.14421368,-0.036112346,-0.14710252,-0.080231674,-0.048702985,-0.076387666,-0.087675214,-0.042816997,-0.05971419,0.015629197,0.0951766,0.09657833,0.012770441,0.04528429,-0.0372901,-0.13141258,-0.061233785,0.042503327,0.05754219,0.0397319,0.019300573,0.029976789,0.17626798,0.052845743,-0.113106795,0.07636934,-0.068828344,-0.040512227,0.0031008115,0.07106024,-0.008412291,0.03892939,-0.16282809,0.057717554,-0.082372084,0.056471147,-0.06904076,-0.018160539,-0.04243848,-0.024434054,0.030601874,-0.0031010797,-0.010522999,-0.17548713,-0.08460306,0.052487116,-0.0442414,0.055853453,-0.04679362,0.050362088,0.029445259,0.03074146,0.019035371,-0.060643937,-0.073591135,-0.010790456,0.0050250464,0.121960506,0.056323815,0.009619351,0.05391846,0.04007906,-0.09612697,-0.06367003,-0.007545807,-0.005247354,-0.04720587,-0.03177376,0.057247687,0.08832399,0.0746739,-0.0930291,0.04980326,0.012970226,-0.0845475,0.052218985,-0.010568325,0.00428157,-0.14882755,-0.13761163,-0.17591074,-0.14297284,-0.047174122,-0.07495347,-0.014025141,0.017102443,0.054406438,0.005554457,-0.025066305,-0.029084735,-0.012769148,0.011772966,-0.065215155,-0.044636965,-0.00020273798,-0.006204657,-0.053191178,-0.034550328,-0.010992738,0.06456076,0.07694527,0.035257224,0.11493193,-0.04452138,0.048836704,0.0072998977,-0.23400126,-0.2753712,-0.29146641,-0.2913047,-0.056513183,-0.039666746,0.058300313,-0.15526465,-0.02742819,0.0029454532,-0.03838117,0.04384208,0.06239159,0.035361867,-0.05088454,0.017742297,-0.0040928726,-0.06491,0.009869413,-0.053861428,-0.09409341,0.04425736,0.00363892,0.05292815,0.009773079,0.06258365,-0.033319335,-0.042699482,-0.0032115297,-0.018053073,-0.101668365,-0.019798232,-0.123346806,-0.117143705,0.0027487094,-0.049023923,-0.16022788,0.028455148,-0.03261082,0.03484481,-0.049423665,-0.10485685,-0.032949366,0.064410135,0.06623248,-0.015464666,-0.033372097,-0.052479066,-0.07122144,-0.03457683,-0.08102237,-0.10859163,-0.03895809,0.051428497,-0.00495828,-0.13268097,0.032779492,0.060840663,-0.016534472,-0.14050534,-0.035489425,0.13119598,0.012165326,-0.0031230382,-0.031976268,-0.036416396,-0.018718122,0.05487348,0.005954969,0.031287868,0.040758196,0.018585814,-0.017297156,-0.032845322,0.007930132,0.035240747,-0.08331468,-0.08499914,-0.08436826,0.002332769,-0.047149677,0.034452405,-0.0019834186,-0.048785,0.047861364,-0.005863895,0.014404909,-0.087822914,-0.05980568,-0.09503309,-0.1540597,0.0007413026,0.05296643,0.10912178,0.10425507,-0.021337124,-0.06912078,-0.063412815,0.0012790455,0.060017243,-0.12186187,0.031277496,0.05695821,-0.024591692,0.0072900048,-0.040148396,-0.16647308,-0.13642295,-0.12083663,-0.10323027,-0.17203835,0.043578554,-0.041154586,-0.013056983,-0.08823134,0.06421783,-0.0026993926,0.0022125489,-0.07465977,0.007362194,0.100459814,0.13495433,0.04959864,0.11932671,0.04806622,-0.028812245,0.02720087,-0.054043032,0.01594614,0.07447333,0.034827147,-0.017423438,0.0038643256,-0.067503415,0.06180783,0.040796265,-0.13424711,0.0889752,0.0031806496,0.045486372,0.032833856,0.034787178,0.018210528,0.072249845,0.045384977,-0.059207056,0.12099578,0.0018464056,0.11746519,0.069445975,-0.0062177046,-0.057344012,0.030449918,-0.0027448628,0.0074525014,-0.06449085,-0.025708346,0.033846855,0.008245795,-0.029436825,-0.01977966,-0.027834773,-0.053787354,-0.030456945,-0.115409724,-0.04527097,0.075413056,0.03784586,-0.00043620495,0.032364044,-0.061280772,-0.08629317,-0.020659026,-0.02176669,-0.061806798,-0.0043949992,0.048813604,0.0387217,0.04480176,0.0030567937,0.013786217,0.040567607,0.17339274,0.00048401256,-0.06042401,0.026459858,-0.032249745,0.01666358,-0.12821871,-0.021401906,0.07886052,0.022940595,-0.048797935,0.04347676,-0.019513726,0.012332198,-0.06250426,0.05436601,0.01046795,0.02887711,-0.010180582,0.016035592,-0.046314463,-0.09060335,0.08556098,-0.0024701832,0.009641372,0.04631656,0.024189284,-0.042882092,0.06778215,-0.018250953,0.018565523,-0.037521735,-0.06321708,-0.051966023,-0.1054541,-0.061442222,-0.024876017,0.027733795,0.0001530151,0.03858299,-0.035922866,-0.051529437,-0.08695983,-0.03174228,-0.051766187,-0.0010773069,-0.004637325,-0.08182016,-0.028542234,-0.026233433,-0.05151447,-0.0011388267,0.10116027,-0.013725134,0.0062435316,0.03362333,-0.0096355835,0.055074763,0.019791279,-0.036050156,-0.055939693,0.069281705,-0.062547505,0.017135162,-0.04058343,-0.010228633,0.0029968794,0.040565245,-0.019041348,-0.018310463,0.06420986,0.05200116,-0.059572924,0.017061818,-0.037089605,-0.08696572,-0.044060525,0.02150729,-0.07400284,0.0006678138,0.014899558,0.051582005,0.015382386,-0.0824707,0.016816877,-0.004398487,0.028261669,0.065393575,0.042464744,0.02488521,-0.0414205,-0.005622118,0.07227313,-0.023331901,0.124529965,0.050842054,-0.04522682,-0.028697431,0.07626193,-0.019913048,-0.08273865,-0.07230786,-0.022375545,0.052498505,0.034728486,-0.0068333833,-0.005210142,-0.034215983,-0.0078017386,0.045551956,-0.030285204,-0.037507825,0.06815893,0.059098903,0.09297052,-0.030595155,-0.08221843,-0.07825109,0.012792321,0.05730117,-0.010130003,0.0012404035,0.062382836,-0.008376254,-0.06970656,-0.024436219,0.06809723,0.09666302,0.09746326,0.15579937,0.09480404,0.034456432,-0.013554062,-0.070453934,-0.111350894,-0.024362093,0.01170987,0.014868472,-0.096479505,-0.018732322,-0.0018212113,0.0020051869,-0.017038058,-0.02668686,0.1236067,-0.016855175,-0.029316701,0.031903002,0.027331194,-0.03804105,-0.052340243,-0.116975464,-0.09566888,0.12762223,0.13554214,0.107770726,0.05094294,0.0031125501,-0.041476898,0.0015371786,-0.07905788,-0.08648498,-0.1268301,-0.15034628,-0.10678838,-0.078806944,-0.026209269,0.028159117,-0.01624306,0.024271606,0.04451048,-0.04585384,0.013180805,0.0054736417,-0.04206917,-0.06850064,-0.053949464,-0.10263671,-0.16873671,-0.062605575,-0.046181306,-0.06278157,0.071219206,-0.0071089324,0.18718351,0.21609855,0.17632684,0.04941322,-0.06943205,-0.16509663,-0.21447437,-0.0811308,-0.11775484,0.022886675,-0.097845785,-0.080791004,-0.016156524,0.016851295,-0.022156168,-0.024485335,-0.00006699046,-0.05410696,-0.0060642883,-0.047525764,-0.12753166,-0.063060604,-0.18493536,-0.0685862,-0.091784194,0.049885996,0.17443831,0.14994217,0.24960679,0.11524595,0.07614829,0.03644408,-0.075316794,-0.022578435,-0.1540193,-0.13194212,-0.1403103,-0.12389764,-0.055604395,-0.08575472,-0.0281555,-0.068979025,-0.011386291,0.031260505,-0.021832353,-0.099841826,-0.054849193,-0.062295377,-0.11829786,-0.043355238,-0.17132197,-0.03794384,0.020817509,0.024032205,0.19650711,0.04484169,0.06848866,-0.011880598,-0.018706257,0.029986193,0.060835477,-0.14076827,0.082122386,-0.041382268,-0.089603096,-0.013639023,-0.19538866,-0.11708528,-0.016040195,0.0039040886,-0.065152645,0.041742932,0.014808381,0.036012985,-0.035801318,-0.02393535,0.004282467,0.02935409,0.0048104073,0.0413612,0.078132965,0.23850466,0.12919778,-0.097070046,-0.17008652,-0.21636897,-0.032709036,0.08664777,0.23045637,0.20603284,0.037264787,0.09994956,-0.07917959,-0.17268802,-0.01968721,0.05051156,0.029269123,0.04373638,-0.003260695,0.06759236,0.05677491,-0.07968729,-0.032966007,-0.12055741,0.030462632,0.02496368,0.16304456,0.13682269,0.1506926,0.09693272,-0.09920424,-0.22207163,-0.35450017,-0.024275394,-0.046827354,0.039543927,0.2616745,0.15999097,0.055210732,0.031682476,-0.006500818,-0.12382805,-0.07530161,-0.06004656,-0.043886837,0.09269752,0.043579195,-0.02558812,0.0861096,-0.0716807,-0.13748468,-0.06524554,0.0010036494,0.010130473,0.012328046,0.09871325,0.045447707,-0.043537688,-0.118135765,0.05866037,0.09326486,0.078915596,-0.0152242705,0.22863486,0.32921058,0.27033255,0.18373838,0.211548,-0.063855,0.0013167021,-0.07769532,-0.025135105,-0.011641673,0.016905585,-0.015599558,0.07899953,0.046417728,0.03028924,0.026280615,-0.053517357,-0.090288036,-0.047211036,-0.044526074,0.00018788611,0.020255666,-0.094242856,-0.09467657,-0.041797943,0.11163797,0.15242268,0.016457766,-0.026279278,0.097737305,-0.07401203,0.08424471,0.078650445,-0.08160766,-0.01249646,-0.031786304,-0.053174727,0.05046785,-0.053970557,0.0097206915,0.039725974,-0.04494044,-0.075517565,0.013922878,-0.13656715,-0.070262365,0.030715631,0.040020343,0.042676385,-0.028452093,-0.008197583,-0.08313803,0.17235008,0.27142233,0.096385755,0.06695791,0.0011673793,-0.08530347,-0.004193317,0.10347276,0.07689796,-0.1933904,-0.0896381,-0.07539414,-0.008204951,0.013639432,0.07043764,0.111813486,0.0035523644,-0.08451644,0.06181568,-0.1182299,-0.10708486,-0.12120501,-0.0054495,-0.009969817,-0.10749925,-0.06848473,-0.17485729,-0.047962476,-0.032462522,0.15297025,0.05402938,-0.011531482,0.037023995,-0.1833125,0.011359153,-0.031163266,-0.03348736,-0.11834288,-0.118415974,-0.08180177,-0.14572945,-0.046482358,0.037717324,-0.063981175,-0.06877508,-0.063979745,-0.04891498,-0.009602057,0.030336523,0.033688955,0.06803635,-0.05173008,0.10981561,0.02099651,-0.10610723,-0.103742644,0.09221753,0.024646085,-0.030065307,-0.1524523,-0.08402963,0.031431857,-0.04790687,-0.0647635,-0.14491533,-0.07738217,-0.19153242,-0.061056305,-0.020040292,0.012835057,-0.0026552263,-0.021397509,-0.024648817,-0.013160573,-0.040289797,-0.006480805,0.0022349583,0.0335115,-0.0027653738,0.0037070287,0.010814952,-0.0070668194,0.012572098,-0.040048767,-0.015502751,-0.08790436,-0.17230485,-0.1590792,0.071325846,-0.0875286,-0.01889974,-0.14411715,0.00998509,-0.049170565,-0.01740418,-0.0411543,-0.042660486,0.016114876,-0.0038451168,-0.010760678,-0.009356254,-0.07770614,0.034933887,0.15094951,0.044749785,0.050745964,0.046046294,0.12713768,0.058431428,0.0034059966,0.046905402,-0.069448575,-0.071770996,-0.0013349402,-0.16609845,-0.08625572,-0.16001135,-0.00615922,-0.026925487,-0.13061348,-0.010025899,-0.007211414,-0.05124712,0.028827472,-0.0363816,0.13142951,0.036640197,0.024966564,-0.039254237,0.0921754,-0.027411632,0.019870507,-0.01018381,0.0065616407,0.0670014,-0.02703979,0.012585448,0.100363195,-0.047882177,0.027528038,-0.06287232,0.01302995,-0.06933198,-0.12902443,-0.14606893,-0.14079586,-0.09152297,-0.0019612107,0.057531822,-0.03933494,-0.010326177,0.014061494,0.049389303,-0.05892108,-0.02341628,0.102091365,0.017662698,-0.0056423345,-0.033812836,-0.033501517,0.08445255,0.041451946,-0.028129838,-0.029568546,-0.011487824,-0.0007506888,0.059594903,0.06392268,-0.062152073,0.000088435256,-0.15021934,-0.024268892,-0.009300542,-0.11425096,0.116430506,0.068616696,0.06766313,-0.008391174,0.11434883,0.012088272,-0.098492034,0.07166241,-0.012757557,-0.08600856,0.07631192,-0.021720283,-0.11928468,0.052110594,-0.093179524,0.15823011,0.000834863,-0.12165616,0.0066665825,0.02248295,-0.07931397,0.017823366,-0.029851533,-0.12682836,0.07171099,0.028679546,0.012842644,-0.07865477,0.018626085,-0.033434704,0.037397902,0.10617983,0.117175065,0.10069535,-0.05357336,-0.08413979,0.04059694,-0.06380247,0.030796817,-0.010572899,0.004334654,-0.004992762,0.10704803,-0.04227948,0.07094728,0.0016239067,-0.040875535,-0.01687729,-0.0106530115,-0.07642703,-0.023941243,0.050112512,-0.016032143,0.025019923,0.00054845685,-0.050963365,-0.07449534,-0.09899517,0.025361143,0.033609454,0.009813548,-0.036399525,-0.005548434,-0.01427968,-0.047757484,0.0097084,-0.024591718,0.031461954,-0.01979801,0.06072902,-0.068375126,-0.023092888,0.02743141,0.007313057,-0.005439277,-0.017130898,-0.11381622,-0.09637916,-0.010774775,0.042039692,0.12606382,-0.04068392,-0.04835031,-0.07315723,-0.011583582,-0.074888244,-0.05996181,-0.00965987,-0.011653672,0.06969371,-0.02813308,-0.006673469,-0.047390595,-0.0785542,-0.00865722,0.020141277,0.026030142,-0.049462486,0.00038129813,-0.040329665,-0.045814052,-0.09112426,-0.009448586,-0.003691851,-0.037170656,0.09505179,0.033386547,-0.06942352,0.14902459,-0.04745126,-0.008106714,0.01851747,0.10615555,-0.0021472774,0.077664815,0.021454345,0.08772901,-0.03716311,0.039201543,-0.008592128,-0.06334246,-0.027792532,0.055220295,-0.029983867,0.0061060674,-0.066842325,-0.0769129,-0.027939133,-0.10371772,-0.059693925,-0.03707165,-0.034309875,0.030055288,0.11352844,0.06915883,-0.041632116,-0.045892872,-0.08484026,0.02370252,0.039818216,0.1383862,0.025586473,0.023032093,0.06389225,0.0725259,0.048850592,0.040159963,0.051152647,-0.033642426,0.038407218,-0.05017081,0.024871847,0.04111072,-0.035777327,0.031850103,-0.013564415,-0.01725102,-0.05731155,-0.031245166,-0.0851673,-0.0013282866,0.06291798,0.028069377,-0.07142257,0.048071265,0.007921242,-0.012515025,-0.016183268,0.16324311,0.10538186,0.10496194,0.07656287,0.04179361,-0.085467696,0.018637544,0.013572996,0.06766279,0.068146326,-0.10859162,-0.029619645,0.019031748,0.05182326,-0.019065302,0.076790124,0.03222519,0.019938888,-0.100446664,0.028724674,0.059637416,0.1234982,0.054862686,-0.0047100973,0.1562309,0.009933115,0.064291574,0.024218062,0.12818825,-0.099719845,-0.0063400697,0.027830346,-0.034216825,-0.0126295155,-0.024883721,0.0025335145,0.0031741308,0.021273999,-0.01491059,-0.023410594,-0.08968057,-0.102181226,-0.014557508,-0.04176226,0.047619577,0.06848847,-0.022014579,-0.04526037,-0.01732477,0.05398209,-0.11524775,-0.047979675,0.026639655,0.07902178,0.04029834,-0.024367334,0.011590554,0.031146985,0.0046708058,-0.011954743,-0.16086483,-0.00441165,0.048232675,0.033923227,-0.017268792,0.02763002,0.015499287,0.040441897,0.036830314,0.14479049,-0.027985595,-0.012246021,0.10852444,0.015697107,-0.013462796,-0.012016908,-0.07526484,0.026853703,0.04179315,-0.0063230265,-0.039181,-0.014544882,0.016843911,0.011612278,-0.05784393,0.011359316,-0.009217282,0.056007948,0.029366989,-0.058455314,0.0031446433,0.12407372,0.013502339,-0.036394164,0.050659224,-0.005020645,-0.040587664,-0.040386803,0.13864468,-0.025766106,0.044631273,0.08298589,-0.017484125,0.031322867,-0.06491265,0.05189278,-0.053098936,-0.0069068084,0.042116914,0.027966833,0.06469229,-0.007422495,-0.014255042,0.10566714,-0.039123654,0.024475731,0.074971326,-0.107969746,-0.032005154,-0.0852171,0.043510895,0.036737558,0.06988125,0.009965572,-0.017786017,-0.030361151,0.02589842,0.052341435,0.0074734665,0.011184604,0.042835858,0.03229403,0.071958505,0.08876112,-0.014516883,0.008418987,0.10991542,0.044133596,0.118479654,0.14801013,0.12728228,0.09913179,0.072861105,0.055765647,0.027326379,0.051166933,-0.008737964,-0.059696235,-0.0046070693,0.042947613,0.0060547767,0.09383655,0.025890082,-0.0490821,-0.015916698,0.00047815804,-0.016457444,-0.05714774,0.0032486767,-0.0076436508,-0.029958649,-0.19709317,-0.18847668,0.04980052,0.046876855,-0.08165711,0.07171624,0.076820575,0.15315916,0.26353735,0.22319567,0.16787514,0.066593446,0.101476446,0.031626273,-0.031262584,0.043775834,0.04451995,0.020582756,-0.005371668,0.017827379,-0.0036088086,-0.0592933,-0.0072536957,0.014387274,-0.053736474,-0.1939393,-0.020355968,-0.06738843,-0.024931805,-0.09609512,-0.010691534,0.03911854,0.15676586,0.02103325,0.1471067,-0.0014695989,0.10655434,0.14680913,0.13978425,0.059080757,0.054490607,0.06717593,0.04883207,0.005886378,-0.018777225,-0.0071853846,0.027491838,0.0012991047,-0.03212808,-0.0055823126,-0.08071082,-0.13889974,-0.11503761,0.04819833,0.0019117176,0.07150865,-0.0042920276,-0.1439369,0.0034627721,0.027247615,-0.11563806,0.1570194,0.22162981,0.16315679,0.08907225,0.28385594,0.18834764,0.108753964,0.21737002,0.10129023,0.097986385,0.006640088,0.028206423,-0.0043883463,-0.05694181,-0.088800006,0.016130812,-0.11912657,-0.12958197,-0.1823302,-0.10811736,-0.070803,-0.13696943,-0.060051583,-0.034068115,0.10153821,0.04808368,0.35095954,0.2756319,0.29389068,0.357663,0.4468289,0.33566374,0.343279,0.12245489,0.05293872,-0.0061320015,0.16084164,0.03349818,0.03966348,-0.013108356,-0.046742946,-0.04447909,-0.03229575,-0.005013744,-0.107412115,-0.16976811,-0.08369655,-0.0118041895,-0.09139677,0.07156183,0.10226367,-0.062291503,0.084165744,0.12458166,0.19804665,0.24084324,0.4157028,0.36756387,0.5043121,0.39571595,0.46947777,0.3196177,0.088259615,-0.08581813,0.0050454135,-0.07110362,0.070518084,-0.054063417,-0.008961182,0.03168682,-0.005797084,-0.025560478,-0.020936804,-0.12216246,0.112229146,0.026389256,-0.011411584,0.015661417,-0.11566144,0.042487454,-0.05364026,-0.06492435,-0.10988867,-0.050735902,-0.16888286,-0.26069736,0.043366067,0.07144415,0.081043266,-0.03215864,-0.233777,-0.24346061,-0.18783769,-0.065478936,-0.064636536,-0.07919586,-0.041321464,-0.059812,0.026847573,-0.07754322,0.0061909147,0.06316217,0.14623041,-0.081161894,-0.052722003,-0.0760393,-0.30704176,-0.13213214,-0.353992,-0.4308523,-0.46093425,-0.6183962,-0.8681972,-0.8906337,-0.7565881,-0.6331178,-0.49230894,-0.3314296,-0.27456152,-0.34002474,-0.16352709,-0.0966634,0.07976759,-0.11263149,0.016666798,0.12108253,0.035803795,-0.018538648,0.10372403,0.023038825,0.09443234,-0.115528025,0.09775756,-0.03850056,-0.1624644,-0.18415438,-0.1662202,-0.3985594,-0.44897288,-0.30899805,-0.5834597,-0.9272679,-0.9760992,-0.7730989,-0.6166269,-0.47792155,-0.46148184,-0.29529065,-0.11502207,-0.023538042,-0.03697572,-0.02111018,-0.09313798,0.005959421,-0.068422854,-0.056525603,0.00045320566,0.07705481,0.114016674,-0.11730979,0.044175286,0.06517792,0.2265525,0.08599925,0.07803148,0.06468891,-0.024799617,0.11557081,-0.08020109,-0.16209921,-0.21913797,-0.53037137,-0.37633094,-0.30139953,-0.43175942,-0.38382733,-0.17397389,-0.12518921,-0.0023825134,0.013275621,-0.058239598,0.01840116,-0.009872771,0.026893063,0.1761052,0.07782931,0.17056334,0.087227166,0.2673621,0.040835146,-0.0030681277,0.20780876,-0.0046332027,-0.10133944,-0.008611758,0.0410327,0.025948111,0.124858655,0.27791622,-0.116284855,-0.0771651,-0.011290746,-0.11270701,-0.12676212,-0.17982867,0.0017916003,0.12611684,-0.020987984,0.05626193,-0.0340601,-0.07992124,0.026489522,0.117485695,0.035874587,-0.005361066,0.2375444,0.010360986,-0.005043145,0.036066446,0.02130729,0.011014511,-0.03026033,0.08944765,0.04571343,0.026499288,0.058285113,0.18269101,-0.038164847,-0.036116272,-0.039534807,0.086002186,0.040782955,-0.07220515,-0.037920997,-0.004314877,0.0038168842,-0.12584688,-0.066173546,0.018503623,-0.031428866,0.1451846,-0.037832927,0.021276828,0.06963567,-0.039102837,-0.06020343,0.2473381,0.17617752,-0.06788938,-0.009224954,-0.007389251,0.11380834,0.1062893,-0.116146706,0.25964746,0.057642214,0.22907677,0.0746259,-0.007834294,0.057993438,-0.05715853,-0.053898588,-0.04385078,-0.04803269,-0.036248583,0.033845607,-0.0007000434,-0.09172243,-0.06571197,-0.08330809,-0.05775048,-0.025054928,0.0774228,-0.09575271,0.14783368,-0.051461816,0.05477992,0.11269186,0.12627564,0.110893756,0.11947334,0.1300726,0.10337261,-0.0045214915,0.16120017,-0.003282602,-0.024777722,-0.04160564,0.04990083,0.008506753,-0.06618172,-0.019778611,0.0001464082,-0.021164078,0.05402812,0.0033314154,-0.14445026,-0.272843,-0.30484822,-0.18358178,-0.08406462,-0.09679214,0.021650797,-0.00049546536,0.24005371,0.27896303,0.2327205,0.2440437,0.22163963,0.1194149,-0.07802605,-0.081005305,0.1577234,0.04239074,0.045894966,0.05374823,0.07615189,0.040604964,-0.08651277,0.042902444,0.014164314,-0.0038353235,-0.018964147,-0.019649144,-0.1478686,-0.24126044,-0.02603239,-0.101088166,-0.013581394,-0.13074896,-0.059145637,-0.010008495,0.13697267,0.11949528,0.05424223,0.027604535,0.12703791,-0.06732009,-0.081357054,-0.1428669,0.27765822,0.022996202,0.11967318,0.12977235,0.11702536,0.061367214,0.030111646,0.0010289678,0.026461495,-0.02650768,-0.008523942,-0.06627917,0.034672774,-0.115556024,-0.037842985,0.056380473,0.052762527,-0.09758575,0.24109165,-0.02886994,0.06392964,-0.15097325,0.1413048,0.14121228,0.20720679,-0.007989541,0.06535544,0.089810304,0.12492109,0.11548951,0.03658857,0.038617894,0.12953033,0.09642136,-0.035901673,0.0035925854,0.031667173,-0.11886429,0.009649671,-0.049355883,-0.027400222,-0.08603958,-0.11985213,-0.16597778,0.1214698,0.03945377,0.008186401,-0.011076597,0.26198146,0.039874237,-0.1386757,-0.077433094,-0.032386947,-0.072023176,0.1336035,0.015136854,-0.042487018,-0.021998849,0.03810784,0.12593225,0.098621234,0.030204486,-0.07642807,-0.009274271,-0.012499132,0.07424308,0.04322618,0.119659364,-0.010525474,-0.00058984273,-0.07908624,-0.24409765,-0.014116753,0.07068127,-0.05551239,-0.059046037,-0.22919689,0.092160046,0.0155090885,0.13538338,-0.14441234,-0.0516365,0.0748439,0.067613214,-0.034557465,0.103583775,0.16658099,0.018579025,0.07923489,0.1392528,-0.048066884,0.07548171,-0.0104466835,0.012845901,-0.017550513,0.025198529,0.041356478,0.12163683,-0.07401017,-0.12466461,-0.22876424,0.03898688,-0.032846328,0.030569801,0.21555412,0.106075644,0.013560497,0.08435379,0.0778975,0.10727479,0.13817951,-0.057726942,0.06764147,0.15649134,0.08036841,0.04470766,0.06575757,0.009137868,0.03448494,-0.023249181,0.022689195,-0.026117334,-0.023763366,0.03823304,0.076166235,-0.004734953,-0.057127003,-0.14153212,-0.06556819,-0.111717455,0.019195698,0.00771317,0.14359747,-0.037927367,0.08658896,0.06622118,0.07697431,0.22532994,-0.1780217,-0.044054896,-0.024736444,-0.07709978,-0.06700139,-0.01275296,-0.045658533,-0.011918862,-0.029851718,0.09389449,-0.045758486,-0.02894088,-0.09120055,-0.050474886,0.0690146,0.009022795,0.053281,-0.10305371,0.025562543,0.04422853,0.08273725,-0.10659542,-0.24518508,-0.16046433,0.14574681,0.1335238,-0.040711388,-0.06157195,-0.117116734,-0.0858337,0.043219414,-0.043378733,-0.045803763,-0.059272394,0.007448687,0.1633284,0.08040229,0.0025691453,0.0005327862,0.0908375,0.07226088,-0.063901,0.00998641,-0.033211656,0.029410185,-0.01379904,-0.024514895,-0.07350587,-0.025826495,-0.08319146,-0.03226957,0.09113622,0.096559875,0.11482195,-0.16573066,-0.19034278,0.05953744,0.07062848,0.097212836,-0.09653006,-0.070918106,-0.045973692,0.059106734,0.0680313,0.033304155,-0.027362334,-0.0020677736,-0.075830914,-0.036852397,-0.04768957,-0.019087723,0.026561549,-0.08014614,0.09427078,0.059774913,0.17522115,-0.06551762,-0.096676715,0.16769081,0.1805181,0.16380136,0.12140668,-0.035517916,0.0064186594,0.18472555,0.106569566,0.036623605,0.061861824,0.06674885,0.044719264,-0.07625138,0.016610853,0.014052249,-0.012582276,-0.08328143,-0.08272215,-0.027987653,-0.029905656,-0.07063489,0.0030220482,0.05792212,0.073910534,-0.022916373,0.007490872,-0.011299282,0.034147132,0.026748288,0.01107705,0.01184413,0.027610604,-0.07746336,0.001369862,0.02402256,-0.07396714,-0.001837012,0.020746151,0.000351591,0.03037011,-0.051447097,-0.063532196,-0.030107526,0.022637533,0.02220477,0.030538868,-0.07046448,-0.042609632,0.03458116,0.06209357,-0.0022735505,-0.029497985,0.054908197,-0.07421512,0.0007534895,-0.034599505,0.044662055,-0.03442301,-0.075537086,0.0064520314,0.11199305,-0.059441507,0.007378472,-0.0592565,-0.064325936,-0.0010295734,-0.002228282,-0.06761423,0.0063726683,0.020645788,-0.02335551,-0.02356413,0.0027265975,0.05642924,-0.0011739203,0.011214819,-0.060063872,-0.007797508,0.075019635,-0.0708085,-0.046914607,-0.12805796,-0.079024315,0.052978113,0.08271222,-0.09321859,-0.02393151,0.03846352,0.051605884,-0.017953144,-0.01684566,0.043048996,0.0010204158,-0.11764512,-0.07723491,0.10255613,-0.05378526,0.06468537,-0.030431485,-0.014496997,-0.08930493,-0.09253172,-0.041815072,-0.03312298,-0.048198447,0.05032264,-0.0052562673,-0.002756952,-0.014221479,-0.04274842,-0.013486945,-0.049306877,0.01577304,-0.010626549,0.06680031,0.10123945,0.079937555,-0.058639724,-0.03898425,-0.0113260625,0.0058996803,-0.061264873,0.010313693,-0.04147703,-0.025173774,0.03330068,0.017593246,-0.00695359,0.025131565,-0.07297643,0.080292776,-0.0016761924,0.04763998,0.020352883,0.032146323,0.015951503,0.015356275,-0.108564496,0.017942632,0.0691206,-0.050835438,-0.012898554,-0.05053818,-0.025249496,0.041937757,-0.0027233753,-0.10958026,-0.047374208,-0.002657404,0.060289167,0.027507635,0.13778852,-0.067600064,-0.029045915,-0.032226525,-0.040035293,-0.12223169,0.024820872,0.020940805,0.04017017,0.0371467,0.13517079,0.023927676,0.011071622,-0.10435261,-0.04722804,-0.00908602,0.09407679,0.0011059379,-0.030237857,-0.008832046,0.1041933,-0.04164902,-0.0058453507,-0.06170078,-0.15614331,-0.1257359,0.009755577,-0.06878845,0.017311402,-0.015050802,0.034880232,-0.066055425,-0.022947885,-0.0152157005,0.030390594,-0.057937644,-0.01662121,-0.0014947047,0.0088077495,-0.023479076,0.023430418,-0.08292771,0.02699009,-0.05036037,-0.179289,-0.105698355,0.10199078,0.08583562,0.09904179,0.17095324,0.3086119,0.10699009,-0.06603847,-0.14946507,-0.106920905,0.11578014,0.013982781,-0.0046975315,0.016487725,0.008693307,0.10860126,0.008725629,0.08171503,0.012633739,0.0013144454,-0.06133206,0.049358882,-0.008575325,-0.14586197,-0.04737178,-0.044037186,-0.05142561,-0.10936449,-0.018353226,0.100546025,-0.10756285,0.037271317,0.21738546,0.33429286,0.31548613,0.10377978,0.020243933,0.054642458,-0.039609417,-0.114904314,-0.015008645,-0.011587076,-0.07321942,-0.04718055,-0.016793221,-0.049508285,0.053134326,-0.07707754,-0.08031172,-0.034782723,-0.06859294,-0.10703642,-0.17748956,-0.12984845,-0.16482656,-0.15654321,-0.09459418,0.07299803,0.009546485,0.015622596,0.1310873,0.2211924,0.26923227,0.17042239,0.00799446,0.092416875,-0.016632516,-0.0683676,-0.038938418,-0.0723089,0.045637913,0.066332206,0.010413478,0.009626027,0.062075783,-0.058148514,-0.0026895944,-0.048421793,-0.10037584,-0.15637757,-0.16860458,-0.0872209,0.018291239,0.029981151,0.025151148,0.16662423,-0.07196601,0.054862544,0.17700404,0.15531486,0.36925605,0.18180741,0.091631666,0.10767297,-0.020979162,-0.11935816,0.0347912,-0.017139148,-0.061326314,0.06936839,-0.013594033,-0.044628125,0.020277236,-0.017056454,-0.045810062,0.027577337,-0.074382335,-0.06390512,-0.09760713,-0.056364726,0.022479476,0.07635469,0.031276543,0.15230799,-0.023381755,0.0047861175,0.04257389,0.025551915,0.26080346,0.16973865,0.09110293,-0.05266444,-0.04487213,-0.0050843526,-0.04809836,-0.07054815,0.019497054,-0.090053655,-0.02884834,-0.019383162,-0.047679417,0.05282232,-0.04052728,-0.07706159,-0.068434216,-0.12639676,-0.16232085,-0.030785006,0.08794042,-0.05718652,0.06845131,0.11067182,-0.06622704,-0.12114054,-0.018275576,-0.004888305,-0.0583652,0.13524744,0.1827677,-0.04435759,-0.18066525,0.07705849,-0.034944177,-0.035130218,0.0031400532,0.013565063,0.0007304681,0.029030656,-0.038769197,-0.10796058,-0.037303407,-0.04546324,-0.061044514,-0.11642,-0.20533676,0.071252644,0.14045276,0.07499538,-0.08858473,-0.12539202,-0.00857632,-0.07254335,-0.18764624,-0.19960193,-0.14884649,0.07110573,0.014451107,-0.081609085,-0.10878596,0.15696932,0.04219103,0.059187066,0.03479101,-0.05356558,0.029915007,-0.008739633,0.015509445,0.06751918,0.06246286,-0.02802942,-0.14974453,-0.0010032324,0.036288645,-0.024634922,-0.021253277,0.048826147,-0.30183357,-0.11647471,0.08221422,-0.018033054,-0.1801499,-0.25508937,-0.06964792,0.15712354,0.02134766,-0.014457522,-0.043563295,0.13013065,0.1884598,0.030265374,-0.018070716,-0.009213582,0.001214226,0.006327988,-0.03818814,0.024811415,0.028247027,-0.015568931,0.017302062,0.04318131,-0.07604621,-0.08949143,0.03128624,-0.0155953765,-0.16164915,-0.07672114,0.0067815487,0.011196092,-0.22812288,-0.17472072,0.09222456,0.22742185,0.09149895,0.042730357,0.01246049,-0.037872005,0.05274649,0.104279995,0.05848515,0.013986987,-0.04782307,0.013731862,-0.044089776,-0.036382135,0.0025715227,-0.06447452,-0.09908342,-0.00977457,-0.012994746,-0.062630564,-0.010229666,-0.072468236,0.03919409,0.103582904,0.018558992,-0.12501337,-0.1269712,-0.0705471,0.104512796,0.26762953,0.09153711,0.053463787,0.004464288,-0.044765975,0.099742614,0.053671297,-0.045320686,-0.017855152,0.023872534,-0.0217535,0.10519106,-0.032960407,-0.0991595,-0.040224522,-0.023922881,0.019851917,0.040191535,-0.06957089,-0.057894003,-0.08738632,0.13145407,0.2790292,0.1722409,-0.061277222,-0.21849497,-0.07001354,-0.058932547,-0.07694313,0.031173939,0.07274777,-0.023510862,-0.032920558,0.007400305,0.09295451,-0.034589622,-0.044912774,0.027340299,-0.0651049,-0.019837908,-0.027187921,0.015619382,0.15448342,-0.07657683,-0.06128485,-0.13657203,-0.12402243,-0.021903658,-0.05244861,0.042975955,0.10916874,0.14845893,-0.008012069,-0.051128384,-0.023524018,-0.08673131,-0.039227005,-0.04781285,-0.11944877,-0.08095277,