{"version":1,"layers":[{"Relu":[784,128]},{"Softmax":[128,10]}],"seed":"867389089","error_function_type":"CrossEntropy","meta_data":{"accuracy":0.9781,"error":0.01339226,"epochs":10,"duration":{"secs":179,"nanos":674940083}},"weights":[{"v":1,"dim":[128,784],"data":[-0.10482458,-0.07766746,0.013559868,0.044169288,-0.06506248,0.02664343,-0.077955544,-0.01863976,-0.1278614,0.0045095277,0.039183788,-0.072430104,0.09765429,0.0025113847,0.0061720167,-0.07014139,0.028413605,0.034127407,-0.035994522,0.038657084,-0.0012462519,-0.15023604,-0.0030336918,-0.0013935331,0.039313026,0.06866116,0.057444464,0.027396569,-0.11952362,-0.032446973,0.0060972394,-0.0038036224,-0.030684294,-0.03892761,-0.08752739,0.106903635,-0.015638404,-0.07137536,-0.052432153,0.0039718947,-0.036043376,0.019422501,-0.04105046,0.020380853,0.0069368067,0.010570804,-0.16760948,-0.034497935,0.028182758,0.011234861,0.047165528,-0.039774273,-0.08429499,0.042530086,-0.06203118,-0.116881825,-0.06342152,-0.048235156,0.021726606,0.047623076,-0.022522897,0.0317956,-0.026111018,0.026991813,0.06020135,0.007725174,-0.0065945564,-0.078461155,0.049574178,-0.049403038,-0.04044712,-0.047822453,-0.0869919,-0.11129949,0.06302778,-0.049746618,0.0049859383,-0.037768718,0.038560998,-0.0800926,0.014135554,0.0005696935,0.083464675,0.056567073,-0.04233384,0.06201976,0.08027804,0.02649526,-0.025516583,0.09235822,0.07001094,0.0632671,0.094654456,0.042282887,0.01662509,0.017250108,0.059611898,-0.059734162,0.0033047555,-0.01279855,-0.020266496,-0.024498325,-0.028761014,0.004776898,0.05448661,0.12618637,-0.023687208,-0.110016756,-0.058699444,0.057754416,-0.09856498,-0.0256353,-0.031828612,-0.026156465,0.023148203,-0.023455564,0.038641173,-0.048665088,0.00903741,-0.045312054,-0.026497005,-0.06299356,-0.033607416,0.08386,-0.03789696,-0.05212531,0.042363517,-0.05177118,-0.04755024,-0.084274285,-0.1471458,-0.118379444,0.012709846,-0.14483847,-0.13375616,-0.089295685,0.00022249648,0.03264553,-0.0020677128,-0.04666482,0.039854947,-0.022563132,0.050637107,-0.015081923,-0.080878206,0.019477695,-0.061506595,-0.08462949,-0.097855866,-0.063030526,-0.047834486,-0.0016146759,-0.09524666,-0.05988693,-0.16994797,-0.16689225,-0.20637514,-0.29006985,-0.3652326,-0.3998622,-0.21394818,-0.134267,-0.115565374,-0.25352362,0.030263303,0.09455316,0.094624735,-0.053970218,-0.032583456,0.038363792,-0.061077073,0.010301173,0.010472499,0.059549507,-0.026808001,-0.07972709,-0.11037889,-0.02552878,0.036436073,-0.07590398,-0.12895751,0.025883276,-0.13440606,-0.3300826,-0.3664841,-0.3584957,-0.3101048,-0.25406924,-0.092560075,0.05637697,0.048396647,0.06683898,0.123107895,0.09781699,0.061535772,-0.06329481,-0.009319756,0.1235538,0.011995875,-0.0078025865,0.057287782,-0.015350532,0.038632516,-0.009039692,0.037875224,0.07983685,0.12710412,-0.04916011,0.041166417,0.1408009,0.008534436,0.04912257,0.09599635,0.014319366,-0.026587246,-0.058693357,0.06283056,0.15278418,0.2831192,0.26452917,0.10038873,0.029932262,0.032327518,0.09543121,0.068459444,0.038211748,0.07779156,0.06535587,0.008475155,-0.075127855,0.016491268,-0.010821637,0.037063655,0.08816399,-0.06357183,0.05615286,0.18807344,-0.08832704,-0.035169747,0.26400584,0.40201005,0.42368358,0.29682606,0.14807543,0.3690496,0.22144629,0.26477635,0.40202758,0.20647621,0.13133994,0.10040141,0.008009095,-0.01867174,-0.0076472214,-0.02236281,0.030781504,-0.0048080697,0.0023806256,-0.012359485,0.027877975,0.000049118895,-0.006041637,0.06983342,0.0854111,-0.02368033,0.03408519,0.23675166,0.24448133,0.37493291,0.52068865,0.53890866,0.2830409,0.1381546,0.14502408,0.19647262,0.053415,0.18078788,0.156874,0.07241542,-0.060822815,0.071362376,-0.08664572,0.026834164,0.015350026,-0.044733748,-0.061689302,0.111810654,0.09846679,0.023932336,0.0065222224,0.21871953,0.036643352,-0.04908094,0.04957714,0.25936627,0.1125237,0.06386028,0.025683196,0.085794576,0.00038983926,-0.104856215,-0.055223484,0.059291814,-0.10681999,0.12583718,0.036527954,0.14742787,0.03314335,0.032092053,-0.036493618,0.0027506126,0.023411522,-0.023637874,-0.09056827,0.0027993764,-0.01994924,-0.12830698,-0.08115807,-0.0037217059,0.025522633,-0.08828499,-0.01000487,-0.17642681,-0.25888425,-0.30336422,-0.3802489,-0.3133101,-0.2677273,-0.26156694,-0.2541963,-0.053860493,-0.14905518,-0.12191112,0.068932764,0.024400737,-0.09462269,0.006611664,0.039848346,-0.04483133,-0.049637906,-0.068875946,-0.06261373,-0.15806662,0.025568973,-0.025479713,-0.037148442,0.10211284,0.10966921,0.11437584,0.13207397,-0.10777003,-0.18303028,-0.31149888,-0.27370256,-0.17434104,-0.22048886,-0.15022065,-0.2504845,-0.1616389,-0.169716,-0.06029905,-0.067007735,0.021938918,0.034148674,-0.07286754,-0.039769925,-0.09437141,0.04446549,-0.056709565,-0.15718263,-0.036394484,0.19472815,-0.021296293,0.046063296,0.10996284,0.08830451,0.18012163,0.16716777,0.14709485,-0.029738203,-0.08279228,-0.108153895,-0.11493008,-0.009190163,-0.24063332,-0.23303959,-0.26987377,-0.1813159,-0.028317798,-0.03513209,0.0047832453,-0.06393138,0.043223754,-0.0814452,0.021976711,0.04374995,-0.07429345,-0.092319764,-0.009391693,-0.12121806,-0.035041016,-0.0955287,0.0317047,-0.03501234,-0.018548232,-0.0035360744,0.008312476,0.10889782,-0.009072472,-0.11493486,0.06444184,-0.04446629,0.0063706166,-0.08257015,-0.059064794,-0.05159614,-0.04344688,0.025606815,0.041442398,-0.031301394,0.072722495,0.007935498,-0.038002726,0.00079241797,-0.047587253,-0.10170222,-0.025520947,-0.0017567708,0.003646532,-0.0011950135,0.023731394,0.107387215,0.04355899,-0.13507757,-0.07056585,-0.071767606,-0.1632443,0.095056236,0.11069426,-0.10695342,-0.011590536,-0.09001345,-0.24549067,-0.045353625,-0.028339092,0.028921533,0.024242245,0.014617548,0.06356874,0.04539768,0.012610897,0.016229438,-0.1713769,0.022386832,0.010055238,-0.024981769,-0.002124007,0.0023073729,0.10423651,0.0106468545,-0.13459544,-0.14344998,-0.21644759,-0.17809288,-0.20171116,-0.049269967,-0.14639431,-0.035707086,-0.0938826,0.00028980346,-0.03780097,0.0035101492,-0.048836116,0.039892398,0.04273967,0.08001052,0.065624766,-0.0066577885,-0.059362445,-0.097235635,-0.009666203,0.09352246,0.07853375,0.04479622,0.028630972,0.035099786,0.18172579,-0.010097828,-0.219116,-0.20987679,-0.2224565,-0.048804414,-0.0377975,0.081018664,-0.08127608,-0.1555754,0.078377865,-0.11068263,-0.04905048,0.081311814,0.001908578,0.030602241,-0.0042072027,-0.01726641,0.024633037,0.03287582,-0.0028941971,-0.018872356,-0.0009328479,0.022824813,0.076315545,0.082171455,-0.05777691,0.06815728,-0.13322389,0.030579412,0.09762977,0.111085735,-0.038515363,-0.07402938,0.041874997,0.06591115,-0.11354553,-0.043163765,0.07939629,-0.18800324,-0.026165035,-0.0119984625,0.040907085,-0.03975436,0.013123824,0.031061271,0.0031587705,-0.08192325,-0.039195895,-0.12427051,-0.15181231,0.0069934228,0.05802745,0.054872632,0.013976071,-0.08802721,-0.06521308,-0.03908325,0.023965403,0.027265606,0.038597878,0.008467314,-0.06400894,0.13117756,-0.099078,0.03179702,-0.014399937,-0.15768588,-0.017605277,0.02802668,-0.03367793,0.03741717,0.06670704,0.013477673,-0.1279478,-0.0721475,-0.00488297,0.009130006,-0.11009118,-0.049108606,0.11321843,-0.004657893,-0.014018883,-0.0039780526,-0.00793806,0.024007816,0.015806127,0.025061972,-0.1288045,-0.115065955,-0.19536147,-0.040144857,-0.19708273,-0.0093944315,-0.07258801,-0.13467333,-0.015778365,-0.011051733,0.027822515,-0.014631978,-0.079402395,0.08934136,-0.061944373,0.026240386,-0.024877666,0.03326402,-0.07490916,0.04391372,-0.02885868,-0.0061648227,-0.14511101,0.041408077,-0.088515475,-0.0675174,-0.06822053,-0.046880726,-0.063301615,-0.12139466,-0.09811182,-0.034017254,-0.14515075,-0.04318309,-0.04994431,-0.11474725,0.013015188,-0.0017757309,0.034106884,-0.012749791,-0.072533555,0.08365092,-0.022380253,0.052543387,-0.05001603,-0.040147614,-0.013899447,0.058061488,-0.04441381,0.023634544,-0.12979567,0.04892653,0.0035078607,-0.023806259,0.0030094385,-0.10915825,-0.10438099,-0.15774688,-0.13413607,-0.09850154,-0.080725476,-0.12102931,-0.14166084,-0.0333716,-0.007902166,0.1225463,0.096791334,0.07571299,-0.045527473,-0.008167467,0.035715282,-0.0023070297,-0.04311832,0.048401635,0.100550584,0.046024397,0.004931142,0.054054793,-0.038682863,-0.050714947,-0.014903111,0.016464202,0.03159775,-0.04434672,-0.238551,-0.1904637,-0.04428389,-0.17314655,-0.17799029,-0.117916,-0.083380975,-0.03589822,-0.013461099,-0.00262207,0.09224014,0.069502205,-0.027971856,0.025186848,-0.0794591,-0.014256507,-0.05833573,-0.013400273,-0.054154232,0.07864257,-0.0071038087,0.004061826,-0.07815188,-0.057741817,0.036075473,-0.008581265,0.12326768,-0.06122229,-0.11638551,-0.15237753,-0.009339278,-0.118679814,-0.044785716,0.070031874,0.028060816,-0.0069443844,0.00043215614,0.13721713,0.10625241,-0.009860087,0.008788174,-0.1481748,-0.010644786,0.0076184585,0.06236766,0.044560064,0.027794743,-0.05969706,0.038278695,-0.095048696,-0.1304919,-0.13268016,-0.14237098,0.019067135,0.13457622,-0.080942534,-0.1823977,0.06944099,0.03342602,0.057157353,-0.016369514,-0.0063439044,0.028886616,0.08721432,0.09305615,0.110448554,-0.048462287,-0.01963734,-0.06430805,0.002299619,-0.040515654,-0.036157925,0.004548525,0.07021394,0.03245788,-0.12546729,-0.06723645,-0.06467928,-0.040661167,0.1112933,0.06167565,-0.0034130896,0.04320573,0.096860826,0.1256846,0.013541457,0.033141024,0.07440427,0.007903064,0.035455413,0.058015153,0.048091255,-0.0015514324,0.0002860585,0.005414352,-0.010229728,-0.010137124,-0.11495452,0.007261494,-0.008528093,-0.03911196,-0.09877038,0.012443312,-0.04493603,0.05360199,0.028714368,0.037590846,0.06818688,-0.017660119,-0.0003108548,0.050751586,-0.0007835844,0.06316178,0.15278448,-0.109214924,-0.04403283,0.02005052,-0.019006582,-0.04292653,0.0101630585,0.009505925,-0.079121955,-0.08463341,-0.015991993,-0.022180658,0.015760506,0.07865682,-0.005635039,-0.001983849,-0.011479897,-0.059607748,0.023092262,-0.016933212,0.07055937,-0.060784865,0.05922099,-0.08695216,-0.08659222,-0.05034529,-0.05242103,-0.029510016,0.09538725,0.018336764,0.029216753,-0.006851131,0.022812843,0.01962259,-0.048711568,-0.0805561,-0.060465284,-0.016413307,-0.009394422,-0.10324456,-0.020951627,-0.04223369,0.00044593765,-0.07919194,-0.016742246,0.07847921,-0.037884016,-0.042293552,0.02671972,0.05123993,-0.04173611,-0.0125496145,-0.034222137,0.061180666,-0.049512573,0.030751994,-0.034069333,0.0018102027,0.013129373,0.0130701745,0.10486475,0.07094915,0.10509164,-0.0010487896,-0.05012196,0.0017736785,-0.06964843,0.031838927,-0.09278321,0.039963927,0.085020676,0.012729596,-0.032394238,0.056957204,-0.042916026,0.06998944,0.08211372,0.0048005567,-0.037839424,-0.018488452,0.04852375,0.0027092644,-0.02867836,-0.0014909547,0.08117448,-0.001977982,-0.04366481,-0.035536632,0.035219193,0.07791623,0.014653443,-0.027013868,-0.059035085,0.0045697675,-0.044311102,0.04552463,0.01474778,-0.052652404,-0.05675181,0.010093571,0.021692872,-0.014505754,0.046748552,-0.0077474425,-0.016159432,-0.009768187,0.07578765,0.045492884,0.007199798,0.05098603,-0.051282454,0.06615641,-0.011346534,0.062480744,-0.091778465,0.02872707,0.016503872,-0.039788544,-0.048590418,0.067204274,-0.06699965,0.036870655,0.04987935,-0.035844672,0.011622115,-0.016941955,0.015140611,-0.05602166,0.045596916,-0.073535666,-0.026389806,-0.098847225,-0.021362543,0.052993886,-0.028684018,0.05943968,0.06859815,0.034896914,-0.003911156,0.057831015,0.08547554,-0.09346003,0.0134927435,0.019821169,0.0046337983,0.020563997,0.114354655,0.04774479,-0.05559107,0.0779601,0.04327365,-0.042103652,-0.09201866,0.039312337,-0.07327895,0.07032178,-0.058069695,0.02931706,-0.137238,0.020237619,0.004783242,0.026579764,-0.00913647,0.01821431,-0.08790613,-0.0010208031,0.06787117,-0.012572807,-0.014950298,-0.039833583,-0.041063152,0.011087117,-0.0058942726,0.01525605,0.021125613,0.036946964,0.06832586,-0.022545926,-0.086856276,-0.06352093,-0.045692433,-0.06448444,-0.07376434,0.04632308,-0.04410635,0.0545003,-0.11293445,-0.023288159,0.020177959,-0.014543975,-0.0258992,0.035873838,-0.046397306,-0.05180465,0.052628055,-0.004369238,-0.01595707,0.015011144,0.004081742,-0.023007965,-0.0062210006,0.11992346,-0.050566208,-0.022760317,0.038744487,-0.06648663,-0.035731733,-0.066507734,0.035927825,0.0090222405,0.039853156,0.088545725,-0.037737854,0.032913156,0.041945558,-0.095300704,-0.0039069587,0.0050409893,-0.029600969,0.028192671,-0.06906353,-0.0087846285,-0.029099753,0.032871436,-0.046920363,-0.025928972,-0.015991222,0.028025577,-0.04839296,-0.009905856,-0.06340983,0.04754031,-0.025290553,-0.0063733445,0.04358687,-0.020646226,-0.022136448,0.033578537,-0.053493265,0.0064286334,0.0013844584,0.011441859,-0.09366207,0.033776544,0.051288642,0.08395924,0.079032324,0.053903084,-0.008994349,0.06424382,0.062540896,0.030804245,-0.02491745,-0.028895982,-0.060088735,0.024426708,-0.052055184,-0.028357863,-0.0406088,0.009221713,0.055090547,-0.0033464036,-0.07164646,0.020112399,0.013937543,0.014541949,0.007209448,-0.08205674,-0.028331103,0.03761372,0.07850667,-0.08467806,-0.038184036,-0.06347864,-0.009668591,-0.058262426,0.0059354156,-0.041940574,0.043243863,-0.019641452,0.040785793,-0.0569919,-0.013338869,-0.06083111,0.06762588,-0.03703295,0.022553971,0.025411313,0.0062705055,-0.04273209,0.04166823,0.044275504,-0.012469594,-0.018832766,0.07367625,0.012033695,-0.04584502,-0.040879097,-0.017719153,-0.048935167,-0.05425098,0.025801478,0.07712167,0.0542495,-0.026926242,0.021643084,0.012612246,-0.14373009,0.03278235,-0.0056332825,0.08222055,0.029018713,-0.06175744,0.053315707,0.05144374,0.08836653,-0.08793234,0.046195447,-0.0668763,0.02531611,0.021750482,0.0022663793,0.07055583,0.010628742,-0.06404903,0.0016301719,0.034793478,-0.010497911,0.109841324,-0.031352185,0.030155752,0.022282822,0.05890866,0.039558645,0.029394984,0.035057742,-0.040430088,-0.060968846,0.047153573,-0.105845556,-0.06561287,-0.024947913,-0.032135032,-0.088890135,0.041498188,0.0014370929,-0.07673162,0.054571643,-0.063410215,-0.03884988,0.010405423,0.059168052,0.027893327,-0.10234606,-0.05231402,0.005392374,-0.02067077,0.06280208,0.020554673,-0.04990556,0.012414375,0.012626086,-0.07599676,-0.020002905,-0.04473296,-0.06837433,0.06392268,0.07689815,0.011440966,-0.077290595,0.0023624005,0.036434323,0.023900023,-0.032210793,0.019696178,-0.04128272,0.090459034,-0.06812411,0.07528706,-0.038222376,0.047282517,-0.032595042,-0.054003373,0.005045157,-0.011365394,-0.06790007,-0.008168767,-0.095068365,-0.021456916,-0.05561191,-0.08527718,0.04570661,0.015901199,0.021686478,0.0035567684,0.07440186,-0.048444085,-0.10847161,-0.0579371,-0.09667201,0.013345996,-0.07954274,-0.06618168,-0.04298199,0.090318725,0.066794425,0.018860761,0.04008789,0.053817995,-0.0032970044,0.016185576,0.046323948,0.13151504,0.009648358,-0.047713254,0.05738622,0.017611537,-0.016404036,-0.007938117,0.04532068,0.0060060956,0.05178284,-0.011846599,0.03753845,0.048516545,-0.062905446,-0.023608295,-0.019796092,0.0052809343,-0.028851785,-0.03290963,-0.074661665,0.041163314,0.009797704,0.058932763,0.048325453,0.0025539717,0.06895338,0.007838173,0.06300061,0.0005434607,0.0111468565,-0.056726653,0.054994144,0.0041319565,0.005364133,-0.08767973,-0.039669175,-0.026346346,-0.075812936,-0.032862965,0.10393687,0.019681713,-0.019740636,0.00006451652,0.017700277,0.03344802,-0.037633434,0.046492342,-0.054292582,0.018875996,-0.0017282632,-0.04798356,-0.025098573,0.061002333,-0.043145694,0.009969132,-0.04058455,-0.049238924,0.0037626845,0.04330766,-0.044204533,-0.019505965,-0.105658345,0.007811039,-0.0059357053,0.059365977,0.06564473,0.026104007,0.09629411,0.014705148,-0.10471882,-0.07408876,0.0144570265,-0.015929027,0.00019456692,-0.05707577,0.054357428,-0.010450127,-0.043951552,-0.10460226,0.045755062,-0.009367376,-0.064107634,0.025195183,-0.01847843,-0.040579874,0.025017219,-0.10401212,-0.085861295,0.02116868,-0.08001563,-0.0021825947,-0.039778072,0.014846557,-0.015535089,0.0006244189,-0.0022876146,-0.00992739,0.05411186,-0.060453426,-0.07222723,-0.090786435,0.045199234,0.0029704913,-0.0040220115,-0.054618716,-0.0034151091,0.11535767,0.08247452,-0.06389666,-0.06166803,0.10293861,-0.01305371,-0.039874442,-0.11096735,-0.041806545,-0.12432289,0.027870297,-0.043654144,0.04971819,0.028331816,-0.0013570721,-0.017314585,-0.015989257,-0.05523566,0.06437047,0.049148805,-0.040320814,-0.059917267,-0.06397228,-0.0573491,0.032214265,-0.025604203,0.027651774,-0.0028017508,-0.008057939,-0.022435533,-0.0024141,0.091473036,0.0024876264,0.054198354,0.032598805,-0.0052484544,-0.016426457,0.04735698,0.103252135,-0.036819227,-0.011787921,-0.0746925,0.014288652,0.03010327,0.10417309,0.02188636,0.09045653,0.0032847968,-0.03513808,0.026299773,0.035215236,-0.06472077,-0.016065348,0.019988663,-0.015297514,0.015993118,-0.054173123,0.021649232,0.05072705,0.055562824,0.04846922,0.043664817,-0.037311077,-0.053868342,0.013214933,-0.0530704,0.0070376587,-0.08264334,0.08248972,0.0017183238,-0.08877024,-0.08700797,-0.025602283,0.05020082,-0.01438785,-0.0508502,-0.02746013,-0.050323933,-0.10933643,-0.049502514,-0.0152471,0.07799756,0.074944094,-0.052798774,0.0016250463,0.026620457,0.0327803,-0.07839229,0.020272477,-0.061367333,0.085603975,-0.09004791,-0.016992178,0.0007484563,-0.06622269,-0.0056631626,-0.024830071,0.037449066,0.032120965,-0.076617226,0.044875473,-0.035580803,-0.056316286,-0.0675653,-0.010918889,0.03385604,0.04565277,-0.040436715,0.08701424,-0.028080318,-0.024943125,-0.045696497,0.012324119,-0.007352036,0.014125961,-0.078487426,-0.041746538,0.06754211,-0.00091779884,0.02688437,0.048344575,0.10425404,0.017047737,0.00858452,-0.03711905,0.032848798,-0.021606253,-0.07626928,0.04579777,0.05739076,0.04153323,0.03151648,0.05479074,-0.01979033,-0.031789925,-0.021116195,-0.005070981,-0.06871894,0.023429627,0.02171127,0.046508852,0.033440605,-0.046237636,0.041926865,-0.053099915,0.021769691,-0.023852555,0.03945607,0.0058613834,-0.16604392,0.06504035,-0.04984853,0.071848765,-0.032156546,0.043796387,-0.02479084,0.015554377,0.041419536,-0.06770634,-0.009934435,-0.03138017,0.033184893,0.053581025,0.09064125,-0.044817552,0.009695393,0.03941716,-0.037519716,-0.10710869,0.0005856106,-0.040068455,0.020298474,0.07762819,0.040277917,0.014919028,0.0038121624,-0.015601764,-0.07151838,0.046740133,0.09574682,-0.0041247495,-0.030956836,-0.0587093,0.045463372,0.045326497,0.05317965,-0.04329005,-0.08674244,0.056599353,-0.11398991,-0.10639262,0.01012639,-0.02974247,-0.03170908,0.024219858,0.056185946,0.06441676,-0.04713372,-0.09101372,0.006356914,0.053386576,-0.09159799,-0.047081888,-0.024698386,0.14623214,-0.02736942,-0.04076528,-0.008621563,0.07387645,0.060441233,-0.007182647,-0.049409732,-0.10651881,-0.061614368,-0.0062283613,-0.043279964,-0.066158935,0.020558437,0.006305709,-0.07103241,-0.081587866,0.015592239,0.04244022,0.041313242,0.06280371,-0.019947084,0.037168894,-0.03437636,-0.027669592,-0.04027333,0.009428988,-0.076571636,0.03096714,0.04296187,-0.024955878,-0.019852156,-0.044841517,0.063058734,0.02917288,0.075357094,-0.049712848,0.022287007,0.007917362,0.09620769,-0.03633417,0.0068321684,0.019698124,0.008141877,0.030997373,-0.035282046,0.08755463,0.04814868,-0.018083759,-0.016224355,-0.012167786,-0.023059374,0.04485345,0.13373746,-0.02918995,0.061786782,0.012030071,0.043888602,0.03981116,0.050157577,-0.04230643,0.012135799,0.0052698147,-0.039908204,0.009805982,-0.027645985,-0.0739163,-0.060920864,0.01572888,-0.03552589,-0.01604329,0.029569263,-0.031431302,0.0005939091,-0.010661719,-0.02804437,-0.022972802,-0.09263456,0.012922526,-0.009946956,-0.09472494,0.08087292,-0.054214146,-0.009101788,0.0746171,0.0458746,-0.06186613,0.034350634,-0.014143878,0.02403301,0.03799946,0.07320633,0.047963157,-0.0269682,-0.026046729,0.03414236,-0.0069630905,0.049520712,-0.025194574,0.0364782,0.07671566,0.10241011,0.026269877,-0.100101985,-0.0018615593,-0.007625685,0.02319796,0.02727449,0.11647372,0.030259259,-0.045620095,0.06449133,0.0043665883,-0.011499778,0.0058212695,0.0428446,-0.026796585,-0.015886964,-0.08353811,0.05295285,-0.025178166,0.05440675,-0.03998669,-0.061205912,-0.090207316,-0.06764528,0.0322183,0.10173576,-0.02490296,0.101477675,0.0039368216,-0.011199664,-0.029246315,-0.03159625,-0.005133032,0.0061979396,-0.014794562,-0.0027387985,-0.018593073,-0.1099882,-0.049766053,-0.0013959096,-0.099714994,-0.050848983,-0.024964426,0.05855749,-0.0039902665,-0.05329332,0.13188694,0.01087684,-0.04590923,0.033144087,-0.056278944,0.05712539,-0.04290699,0.08348634,-0.015893409,-0.012368909,0.0001212536,0.005761324,-0.005138809,-0.0024906092,-0.009322101,0.022565411,-0.029545374,0.047897585,-0.0071413885,0.04608691,-0.019470958,0.020660494,0.056526035,0.09317509,-0.0322276,0.0021989413,0.06932294,-0.018155977,-0.041137643,0.039298713,-0.12899901,0.029338391,-0.03871403,-0.03566264,0.011548992,-0.009107316,0.083192885,0.034466695,-0.048702236,-0.019771399,-0.003074249,0.025691252,-0.046508264,0.0073867035,0.02893067,-0.0036987963,0.07060005,0.0020607435,-0.034689322,0.09075248,0.06475927,0.03505171,0.033165675,0.0031049044,0.14187922,0.04362985,0.11257861,0.06244461,0.05126373,0.03805757,-0.0022735936,-0.032323603,-0.026100483,-0.04789354,-0.08441871,0.07720285,0.022819908,-0.029143183,-0.04316226,-0.06280486,-0.008677856,-0.048020698,-0.053347625,0.091432884,0.022387244,-0.016081015,-0.020354785,-0.04341903,-0.05746821,-0.03711716,-0.012792876,-0.05905636,0.021391585,0.06585061,0.033575114,0.016967688,0.018682612,0.12430258,0.1261198,-0.024674471,-0.049030952,0.04450207,0.07684377,0.039217114,-0.03399633,0.0086592315,0.023810774,-0.042808592,0.041715816,-0.018217636,-0.033225063,-0.00026234702,0.01599039,-0.06835424,-0.028743232,0.030323911,-0.16173987,-0.15096748,-0.06835308,-0.020099197,0.045569304,-0.050484356,-0.13225847,-0.04470494,-0.05280937,0.09964746,-0.009213625,-0.00094058947,-0.028818494,0.09345842,-0.06763538,-0.0040044957,-0.033834502,-0.047913987,-0.0237754,0.10475881,0.019241681,0.03622548,0.0050802217,-0.06143355,0.06785445,0.1177536,-0.088201985,-0.14236733,-0.061582573,0.030423367,-0.030680142,-0.09144963,0.08839524,-0.034146257,-0.20080613,-0.060404018,-0.09260176,0.004747973,-0.039075553,-0.015838657,-0.069423735,0.00794879,-0.004848694,-0.0034275085,-0.005801221,0.018519368,0.08999795,0.024360336,-0.020553017,0.050937377,0.07776984,0.002888242,0.04587026,-0.09312901,-0.07559578,-0.053161442,0.032689974,-0.041905783,-0.13101602,-0.10236104,-0.04499964,0.036864027,-0.051438686,-0.07721705,-0.035981033,-0.09104752,-0.11899539,0.00528254,-0.05741206,-0.044885524,-0.1100105,0.04533543,0.06302219,-0.05714948,-0.018794522,0.017160293,0.02650916,-0.023667712,-0.028887905,0.013355061,0.011960081,0.0757062,-0.016337654,-0.021534288,-0.1107693,-0.15697694,-0.22875386,-0.15742442,-0.05967297,0.09844145,0.023490185,-0.08037078,-0.042771067,0.05069228,-0.0449564,-0.096847035,0.09232272,-0.0020958618,0.04624309,-0.04795046,0.08651097,-0.041274924,-0.047976,-0.01109044,0.05607444,0.02534925,-0.021942643,0.1060844,0.102028996,-0.021633578,-0.06352611,0.11429241,-0.017786264,0.0022159982,-0.0060909875,-0.242067,-0.120404705,0.019491661,-0.04593331,-0.014496238,-0.013554963,0.008853371,-0.028580327,-0.043439988,0.05525491,-0.04435394,0.009866397,-0.0009433557,0.041894075,-0.07666949,-0.036460776,-0.016304964,0.0032376845,0.06375792,0.0760253,0.04941513,0.06447,0.059703168,0.0131714,-0.052693013,0.06895473,0.027025258,-0.14141308,-0.23541549,-0.18300082,-0.14404362,-0.034255326,0.054706965,-0.0022462378,0.09572341,0.01758135,0.029874045,0.072520524,0.009258323,0.037407458,-0.002546477,-0.01280217,0.00016117914,-0.033117454,-0.0061130486,-0.034732383,0.07612961,0.07040651,0.07173649,0.06451684,0.0106711965,0.04796191,0.035167255,0.067815885,-0.13583803,-0.21020585,-0.11818919,-0.11562291,-0.0931144,0.03130047,-0.07370958,0.034894,0.09332556,0.032941394,-0.03282423,0.019759206,-0.008510386,-0.015334521,0.104654804,-0.08471197,-0.004268763,-0.002106736,-0.07401199,-0.017745808,0.06390457,0.061939087,0.08414547,-0.13180234,-0.053161684,0.0047412026,-0.13240376,-0.123186484,-0.00056684477,-0.063221715,-0.08614031,-0.24119051,-0.11676723,-0.10976862,0.002524845,0.076908596,0.016773425,-0.020801483,-0.027749106,-0.06889264,-0.09763825,0.015392016,0.071958594,0.022522774,-0.021782862,-0.015151822,-0.06774213,-0.013921389,0.017091088,-0.05026097,0.054650657,-0.08684714,-0.14307716,-0.32082555,-0.24756955,-0.165412,0.01264317,0.13842984,0.07185592,-0.052602243,-0.18371384,-0.10883253,-0.16423911,-0.02607684,-0.1300392,-0.058381107,-0.07758141,-0.10196447,-0.0076238816,0.068967,0.047064308,-0.0004835159,-0.0031889493,-0.04134086,-0.031055132,0.04084228,-0.057852693,-0.023104975,-0.06993521,0.00012870927,-0.18696831,-0.3260518,-0.230287,-0.120096885,0.18050928,0.26357535,0.25178993,0.10474002,0.13171153,-0.22230615,-0.15315752,-0.120488346,-0.12568086,-0.12564735,-0.001447461,-0.016245507,-0.10505592,0.0031126216,0.035502736,-0.0923468,-0.009251202,-0.069017254,0.07721224,-0.03580867,-0.13512935,0.020462343,-0.03893203,-0.081398435,-0.12680787,-0.14525172,-0.15469122,-0.00805144,0.102065064,0.27884007,0.26548627,0.12828834,0.06361845,0.031982083,-0.086554,-0.090249136,-0.20177992,-0.07105855,-0.06219066,-0.016270693,-0.087717235,0.037986044,-0.070239425,0.028608182,0.014694433,0.102926075,0.0665993,-0.021300882,-0.044175413,-0.07031395,-0.10213566,-0.060021922,-0.1607404,-0.12614931,-0.10747972,-0.07687471,0.23070507,0.26418605,0.23457721,0.03783698,0.028752046,0.07856102,0.0318182,-0.02675746,-0.14452901,-0.068940766,-0.10765498,0.0015023069,-0.0070698923,-0.03615978,-0.006094881,0.029306537,0.03819487,-0.0629929,0.015479446,0.099328026,0.035848692,-0.10107386,-0.049541973,-0.11969173,-0.031093976,-0.056658063,0.029132087,-0.119850904,0.20836756,0.17734627,-0.0059035146,-0.04454993,0.0006570382,-0.0013868337,-0.006993579,0.12658098,0.058615528,-0.0022972613,-0.14239603,-0.08267344,0.035327572,0.0017392638,-0.0073716883,0.09048278,-0.040738076,0.01236294,-0.060369868,-0.07458926,0.03917598,-0.025329715,-0.09929595,-0.12606455,0.040046014,-0.0025705162,-0.019559033,0.0085444795,0.06380177,-0.0017053935,-0.009045112,-0.06827516,-0.032368902,0.08367155,0.12760317,0.118413664,-0.06838485,-0.016932214,-0.030856825,-0.031852897,-0.03872587,0.0784837,0.0035249742,0.0000059081112,-0.063538596,-0.04036386,-0.02576747,-0.079518594,-0.002059773,-0.07241823,-0.09285454,-0.09580783,-0.038737398,0.010682767,-0.05739891,-0.062188078,-0.14804502,0.026831018,0.11306777,0.01855093,0.05280372,0.12518121,0.21406598,0.08758651,0.17041373,0.03618289,-0.046673074,0.020946989,-0.09160881,-0.0004685005,-0.007546318,0.0038458537,0.03170275,-0.06861759,0.05082252,-0.015464859,0.030047763,-0.024597209,-0.03647954,-0.12042967,0.0076773576,0.013344864,-0.13522668,-0.062890254,-0.13986702,0.026504213,0.17102514,0.07167822,-0.047765236,0.036368374,0.088290885,0.13307059,0.08282441,0.07704831,0.17327623,0.06859194,0.019723523,0.07253864,-0.060876295,0.010067369,-0.043132354,0.011622656,-0.04504839,-0.008075804,-0.01589377,-0.009150626,-0.077882625,0.019907402,-0.021020332,0.07221207,-0.061998714,0.09189146,0.021651283,0.11609967,0.11380041,0.019553509,-0.051104724,0.115126185,0.19365127,0.208212,0.21889067,0.10816956,0.0786938,0.028727056,-0.047180165,0.020020239,-0.02109707,0.030546889,0.039356634,0.021059375,-0.0825623,-0.020731559,0.06383173,-0.09203022,-0.07063889,-0.041699145,0.11823411,0.14071667,0.11258994,0.068296514,0.004623925,0.07221426,0.072036125,0.02030303,0.14877215,0.15089872,0.08724058,0.114836864,0.036096465,-0.03821945,0.100220285,0.028832635,-0.034270596,0.13363703,0.016482057,-0.044726737,0.0465349,-0.033555035,0.041522205,-0.0017025709,0.016646517,-0.046092566,0.036118988,-0.01385566,0.006936626,0.013274214,0.0025129216,0.07056788,0.083420604,-0.04471516,-0.07878569,-0.0398995,0.129134,0.019872835,0.02855493,0.0054603308,-0.0010176363,-0.024195213,-0.06314402,-0.09512827,-0.08792737,-0.048593387,0.031693246,-0.042257525,0.06361707,-0.013562903,-0.055744905,0.007285917,-0.07711428,0.042199057,0.004325491,0.08313326,0.02156569,0.117787845,0.124550916,0.009984087,0.06773938,0.13196829,-0.00020329074,0.02277681,0.09371071,0.07223389,0.15654203,0.027861007,0.058830462,0.035310466,-0.042461377,0.011456779,-0.051978294,-0.026864136,-0.0049409796,0.035000425,-0.010428595,-0.036429666,0.009283769,0.008182711,0.085179366,0.13316953,-0.03981669,-0.017628776,0.09100601,-0.0034403733,0.03995117,0.009211513,-0.0077336016,-0.014195205,-0.07447867,-0.13132069,0.042712457,-0.023994435,0.09268997,0.008936744,-0.07157897,-0.063288495,-0.0265112,0.040867593,-0.027119588,0.11835741,-0.032750342,0.019524893,-0.051803295,-0.015277844,-0.0128018875,-0.00872074,-0.061340686,0.045799434,0.036696896,0.064694844,0.05270734,0.033144195,-0.063046925,-0.02684572,-0.018200688,-0.024608357,0.0051169214,-0.06023283,-0.01647197,0.10603003,0.04872776,-0.052812196,-0.01968672,0.02657103,0.013836775,-0.027798794,0.029679218,-0.0034808526,-0.014263886,-0.016096486,0.059895683,0.030692635,-0.005293016,-0.02407582,0.06722109,-0.0023059298,0.051190462,0.012172206,-0.0077388687,0.042105194,0.024264857,-0.077231586,-0.039257694,0.03528808,-0.05449445,0.07649512,-0.052948754,0.0020097755,0.07976118,0.027889602,-0.030804502,-0.0112137245,-0.05189701,-0.013466042,-0.012439728,-0.022780618,0.034233645,-0.07802894,-0.0078571355,-0.023974739,-0.055914573,0.031125875,-0.03380848,-0.015373126,-0.07634185,0.047742255,0.02452497,-0.053388014,0.016836954,0.0884615,-0.026413986,0.012306971,0.049402673,-0.038986664,-0.071521804,-0.0046110344,-0.09446219,0.046555486,-0.015295006,-0.066563144,-0.081149146,0.03964695,-0.10534008,-0.04003032,0.010384429,0.034980766,0.05308086,-0.028563272,-0.06457492,-0.0066171223,-0.024555655,-0.09027349,-0.020437147,0.014096462,-0.037283186,0.050366007,0.07398418,0.082567476,-0.030985644,0.07477785,0.1282185,-0.009869786,0.093642585,0.11999959,-0.012856229,0.123458125,0.044931315,0.027593888,0.005008721,-0.024330601,0.05694039,0.04688944,0.018961404,-0.07529846,0.03823248,-0.06479461,-0.107093215,0.033524714,0.09052769,-0.057706848,0.04577922,0.0012200972,0.09176214,0.19270313,0.09813154,0.099191934,0.038973816,0.17501092,0.22187206,0.119398884,0.07462982,-0.0316664,0.12643045,0.25119928,0.16260779,0.19845192,0.0026355595,0.110589035,-0.028316984,0.022083584,0.095581375,0.06337812,0.005305097,0.10066783,-0.12731482,-0.005307519,-0.01751075,0.060196325,0.019347142,0.08535403,0.06494051,0.15439136,0.1847441,0.10060778,0.17023355,0.09782285,0.11115234,0.09406873,0.087978885,-0.15070117,-0.001564486,0.051045135,0.07423304,0.05481813,-0.02507399,0.05584577,0.108078465,0.06599889,-0.004255083,-0.052200496,0.033447746,-0.093705654,-0.036245648,0.011095416,0.029972,-0.07599477,-0.017998826,0.047979116,0.07613905,0.062360674,0.08020492,-0.12508535,0.09467606,-0.1449097,0.079850666,-0.02625719,0.23501675,0.09708061,-0.01562766,0.045560002,0.06881111,-0.09304226,-0.031502176,0.0389767,-0.026036305,-0.0022920715,-0.027784163,-0.06766357,0.038505957,0.011008207,0.056231987,0.07627467,0.1371028,0.10768442,0.06827117,-0.0021428838,-0.11143783,-0.09250885,-0.31652713,-0.24447973,-0.03485432,-0.21729606,-0.060828418,0.030605739,0.034574777,-0.1373886,-0.232652,-0.18673123,-0.17739019,-0.36868563,-0.10287949,-0.18380168,-0.015396965,-0.021240326,0.07224424,0.09644346,-0.07694044,0.021826245,0.009411034,-0.04252551,0.0793216,0.11035663,-0.049906664,-0.035542272,0.030839087,-0.13053742,-0.17820695,-0.1714025,-0.16175911,-0.1208115,0.11733128,-0.06984552,-0.16381274,-0.24696106,-0.27151653,-0.37925446,-0.36260548,-0.36445728,-0.3894447,-0.28111035,-0.054637503,0.032010756,0.007597508,0.0036153775,-0.010464878,0.0857667,-0.08830484,-0.044483032,0.061995987,0.08576746,0.014348848,-0.13184674,-0.3341394,-0.26107106,-0.2798712,-0.14018118,-0.30485818,-0.19538589,-0.27247134,-0.32104358,-0.36204904,-0.24508229,-0.5728463,-0.33018905,-0.2656634,-0.28284383,-0.44003844,-0.21260312,-0.058780428,-0.024805514,0.012691851,0.0129083935,0.10874421,-0.002430606,0.06294162,-0.056951933,0.026701316,-0.04020816,-0.21101259,-0.2784441,-0.14278762,-0.14968723,-0.3648934,-0.33136046,-0.23184334,-0.5411173,-0.3147021,-0.36148703,-0.093995556,-0.20671487,-0.45322117,-0.050938774,-0.17986743,-0.07656997,-0.1381895,-0.12286868,-0.013492627,0.08096938,0.070437804,-0.034614198,0.0001309839,0.012853275,-0.041808363,-0.06636882,-0.16612038,-0.18487774,-0.20142496,-0.22810516,0.060359575,-0.1411374,-0.4563055,-0.28370562,-0.22273788,-0.29119962,-0.36880708,-0.1414243,-0.076562576,-0.10235792,-0.114319704,0.057700973,-0.08357749,-0.08960256,-0.0762187,-0.06716028,0.020514306,0.10175977,0.017582865,-0.021540212,0.08056702,0.024220921,0.009776751,0.016187489,-0.0887584,-0.09962835,-0.21658708,0.025050482,0.22685176,0.068671204,-0.10044065,0.11046666,0.098099895,0.0147688985,0.11773719,-0.08247219,-0.027689375,-0.20584413,0.01758165,0.09928241,-0.13823861,0.059566386,0.057071503,0.07237654,0.020057604,0.008535096,0.09485888,0.012948734,-0.007540823,-0.011087986,-0.048863195,0.10913637,-0.1222051,-0.23080695,-0.16550061,-0.048040804,0.22453605,0.06575415,0.19199072,0.4157409,0.237494,0.16819438,0.2522354,0.15155151,0.20361742,-0.02889697,0.11178977,0.0604196,-0.108864106,0.15228578,0.22574857,0.05865723,0.050791815,0.053691797,0.09665729,0.013537536,0.051851995,0.040855214,-0.1303307,-0.01916786,-0.12193871,-0.13582371,0.039154466,0.028942337,0.15102462,0.10485452,0.18044724,0.3593272,0.38042784,0.4089736,0.16668543,0.21419686,0.24513051,-0.032755338,0.18702862,-0.017910985,0.12368362,0.12146266,0.23212832,0.19962198,0.039615303,0.020631835,0.091970555,0.047840856,0.024498127,0.014418198,-0.009626158,-0.0027885842,-0.014161602,0.060006823,0.24516556,0.23267794,0.17328213,0.19497922,0.05289549,0.25938147,0.29617047,0.17401862,0.15162672,0.12314577,0.3262729,0.3042183,0.28819692,0.04121461,0.20731406,0.12259538,0.124742106,0.29017615,0.08215876,0.10069102,0.0835212,-0.03949554,0.09477713,0.016627727,0.06079976,0.044355392,0.04125306,0.054709144,0.17464459,0.29890507,0.283036,0.081677355,-0.066958494,0.13076265,-0.08525887,0.15565372,0.11714493,0.13223585,0.3161448,0.26252457,0.10335119,0.3040147,0.06410553,0.16107796,0.19576445,0.053770054,0.042926315,0.12209456,0.027628351,-0.010187012,-0.013040087,-0.08017988,0.0743758,0.057995304,0.04366907,0.1296566,0.14048627,0.25174594,0.1831175,0.1497925,0.0663551,0.03835968,-0.018101357,-0.03378422,-0.02298844,0.09748291,0.056216005,0.34110707,0.31946334,0.19336624,0.11348693,0.19827719,0.28074944,0.10859074,0.055560462,0.08704127,0.030155612,-0.050024692,-0.037374645,0.016326271,-0.05893044,-0.002590225,0.049664266,0.12267253,0.20247526,0.02925788,-0.009812162,-0.031693313,0.008185795,-0.13867822,-0.20158456,-0.014323239,-0.20122838,-0.051544443,0.016421633,0.3252764,0.21960394,-0.04620054,0.22259185,0.19723289,0.09159442,0.1023467,0.028898442,0.046130195,0.05710835,-0.003247519,0.010030051,0.045950428,0.060861304,-0.0077482634,0.1464225,0.20082112,0.11124555,-0.009387089,-0.026389984,-0.008907652,-0.01373071,-0.1578404,0.15769577,0.10629235,-0.14853641,-0.15535186,-0.09793372,0.08408621,0.08229543,-0.10656878,0.056574315,-0.014357915,-0.058993943,0.11859154,0.004847228,0.1271745,-0.03555124,-0.022771712,-0.076821506,-0.038408585,0.032789335,-0.0047439304,0.07770285,0.0032814662,-0.054929182,-0.031087764,-0.17905529,-0.08546765,-0.0017885349,0.11079927,0.031209465,-0.14480492,-0.15765412,-0.06494288,-0.116259016,0.11688668,-0.08399724,-0.22233653,-0.1824746,-0.071567394,-0.05691486,0.08279254,-0.03180094,0.021297611,0.035134282,0.015220409,0.061228413,-0.021254875,0.02616682,0.017608108,-0.029295426,-0.13685124,-0.0965551,-0.14692537,-0.058847822,-0.11008538,-0.007743905,-0.031626992,-0.009388359,0.030200928,-0.09344799,0.21465804,0.028775007,-0.10016905,-0.14960688,-0.22255312,-0.15480986,-0.07056072,-0.151057,-0.123537384,0.02166926,0.04040468,-0.020657487,-0.008938161,0.07052222,-0.044025537,0.08954838,0.04283937,-0.047938306,-0.026041783,-0.020412851,0.030853743,0.09595834,-0.043941505,-0.04576495,-0.024304373,0.10706511,0.02806948,0.29612654,0.137164,0.10436573,-0.08418168,-0.17717375,0.15245679,-0.038318116,-0.05066199,-0.038224716,-0.066698715,-0.14225878,-0.04778794,0.07776784,0.1087144,0.007911821,-0.026065525,-0.0080533875,-0.02580538,0.02992917,-0.13087453,-0.09943285,0.021040175,-0.056223396,-0.002185435,0.08130257,0.08559923,0.03580264,-0.08593432,-0.2389258,-0.08453919,-0.11241671,-0.17442258,-0.21885069,0.027753448,-0.11412849,0.022241188,-0.10332332,-0.13559373,-0.11658829,-0.058019727,-0.13878006,-0.0146306325,-0.020428507,-0.050563145,0.032824066,-0.011095244,-0.061182003,-0.09405192,-0.2246167,-0.012697745,-0.0072112842,0.0536183,0.035255916,-0.2230568,-0.065020524,-0.29933873,-0.099592716,-0.121937215,-0.1538891,-0.22888212,-0.26273057,-0.24438088,-0.09413472,-0.074959666,-0.10247295,-0.10674338,-0.09503205,0.008977041,-0.01352941,-0.07773564,-0.023085548,-0.016688203,-0.00020021203,-0.02231863,-0.022130081,0.05208937,-0.032829806,-0.12001175,-0.03209092,-0.029826174,-0.10432576,-0.042052835,-0.08129028,-0.17827785,0.006944814,-0.2086203,-0.05863936,-0.17801677,-0.1874563,-0.17263788,-0.10366001,-0.044259936,0.026670745,-0.035185322,-0.07175081,0.068598405,-0.028792996,-0.003914087,0.030096797,-0.0043844674,-0.04333489,-0.016181916,0.037913855,-0.106793165,-0.042892404,-0.101592846,-0.03289451,-0.0858541,-0.048152268,0.0064257574,-0.14995101,-0.069219306,-0.007641135,-0.08120943,-0.020962913,-0.18662,-0.05870357,-0.10894525,-0.095271505,0.0058698314,0.056746732,0.09794352,-0.000060675433,-0.03331104,0.009649846,-0.023674194,-0.046842277,-0.019434629,0.008530165,-0.00054648914,-0.014670141,0.045458414,0.05679896,-0.053692497,-0.062489614,-0.050820652,-0.09945843,-0.09068871,-0.0571922,-0.06500294,-0.10096989,-0.0839757,-0.022485422,-0.09158843,-0.08797618,-0.10489968,-0.06423911,-0.005033646,0.02451868,0.10393745,-0.0047855307,0.010944948,0.011579803,0.034136184,0.044877686,-0.050153676,0.012936549,0.037900675,0.10657093,0.04766876,0.07102228,-0.076818645,-0.03345532,-0.046072617,-0.012011264,-0.034285672,0.045882367,0.031694695,0.03961986,0.008363945,0.0148585085,-0.013306076,0.0038167164,0.010548022,-0.015382109,-0.0548244,0.07612748,0.009528069,-0.001322481,0.083566636,0.07977943,-0.0046630558,0.07947262,0.018891567,-0.019848317,0.0658791,-0.02633298,-0.07974909,-0.01087771,0.009352581,-0.052320436,0.09014532,-0.0035482002,-0.08175189,-0.0033356058,-0.007092231,-0.06162303,-0.047658045,0.008388321,0.011673825,0.06750008,0.061957452,-0.119248316,0.06304744,-0.06423128,0.013436953,-0.0014450122,-0.012673299,0.08304178,-0.05635457,0.07369349,-0.05522128,-0.049602438,0.06052559,-0.04132539,0.037505984,-0.057188172,-0.013129135,-0.034625556,-0.06939208,0.062015958,0.0027069813,0.026694046,-0.0026084417,0.020255001,0.041397944,0.0743828,0.05185186,-0.07120066,-0.10265228,0.06194007,-0.019000823,0.026138734,-0.04343135,0.030277291,0.0027699666,0.029634017,-0.07232931,-0.014914165,-0.12541868,-0.014020385,-0.050904933,0.027137732,-0.034074087,-0.094706364,-0.029197553,-0.009464109,-0.042302772,-0.1144913,-0.017128062,-0.037285198,0.08812546,0.0015372725,0.1289372,0.18015304,0.1293303,0.1281183,0.15297548,0.07107287,-0.027893309,0.054876223,-0.040762533,-0.06731403,0.08761134,-0.022296634,0.04172251,0.00715463,-0.040167086,-0.15361121,0.03329135,0.00965894,0.04735445,-0.03632982,-0.0004768611,-0.12228977,-0.031963147,-0.105903156,-0.23848398,-0.08777201,0.11088882,-0.007906252,0.034981083,-0.031730045,0.14128545,0.12947494,0.21185195,0.050067924,0.13465957,0.12682663,0.094117396,-0.0052513746,-0.04695823,0.011207653,0.008954563,0.04213823,-0.024871394,-0.045685098,0.06287964,-0.068570085,-0.065243945,-0.13225636,-0.08985296,-0.17769364,-0.11744751,-0.036383644,0.06670972,-0.032076962,0.11528923,0.09346494,0.05154283,-0.07400149,-0.097306035,0.2506985,0.10393906,0.08621719,0.26532677,0.19642957,0.0992604,-0.033331707,0.046913203,0.02337163,-0.030302182,0.03578663,0.056834448,-0.011438903,-0.06164001,-0.0864188,-0.061026845,-0.031386223,-0.22884463,-0.1128602,-0.03981157,-0.045341898,0.16504201,-0.05910689,-0.19491537,-0.08289826,0.03414737,0.016388524,-0.015019805,0.098740056,0.031288695,0.13198993,0.06497532,0.12102754,0.17559062,0.03543257,0.02786178,0.047966998,-0.018945662,-0.03604787,0.002423641,0.13482656,-0.066303924,-0.05569368,-0.08425357,-0.15636548,-0.19026504,-0.31215292,-0.2695276,0.021580953,0.1851717,-0.07021575,-0.017057318,0.08514439,-0.06638804,-0.034878746,0.08745719,0.26928467,0.23449178,0.29118386,0.13970388,0.08406989,0.0658843,0.1715303,0.1667421,-0.06427134,0.009627634,-0.03333076,0.066926576,0.016380308,-0.16828616,-0.153775,-0.19295608,-0.14004289,-0.1862637,-0.13066629,0.015932519,0.19619492,0.17890592,0.15462907,0.02772102,0.3484609,0.23741136,0.19591708,0.13254364,0.26919574,0.31513447,0.39812547,0.1353673,0.05983064,0.05085236,-0.08349076,0.053235464,0.0049675405,-0.0021727663,-0.03390988,0.033306837,-0.03873415,0.004952315,-0.123528585,-0.1251584,-0.07529081,-0.06553329,-0.16630796,-0.10323677,-0.16335948,0.07699253,0.114344135,-0.062422533,0.017171279,0.08774263,0.007321218,0.014780923,0.034133468,-0.069856614,0.019200811,0.039158188,-0.07882031,-0.02154436,0.054093394,0.0743233,-0.023475258,0.047346994,-0.07848995,0.008289513,-0.03707304,0.018637089,-0.075723335,-0.11033514,-0.11696227,-0.017847624,-0.069383256,-0.05237952,-0.11684756,0.25874463,-0.031955335,-0.13288543,-0.16336465,-0.084240094,-0.38454673,-0.59997934,-0.5611478,-0.46609423,-0.44790795,-0.45208573,-0.25638452,-0.26636913,-0.12102681,-0.03693047,0.026120853,0.11031964,-0.102862515,-0.022662949,-0.07938016,-0.10817072,-0.013551122,-0.1564549,-0.02880595,-0.17131755,-0.04631647,-0.04028406,-0.0049042767,0.22716737,0.08829556,-0.045135897,-0.26763302,-0.22647282,-0.44148204,-0.73218346,-0.74305063,-0.76270676,-0.61912435,-0.52637523,-0.4205449,-0.23784867,-0.23322913,-0.06843449,-0.052286033,0.027812911,-0.051191136,0.021106986,0.021308785,-0.03573558,0.027036387,-0.15578304,-0.15748157,-0.10013188,-0.19995855,-0.015433656,0.13631272,-0.11893604,-0.16086711,-0.0657565,-0.08841899,-0.1562354,-0.10098128,-0.10721431,-0.34857106,-0.56969243,-0.517833,-0.27641144,-0.39977258,-0.36645848,-0.1872292,0.029318072,-0.023615463,0.056633838,-0.085862674,-0.00083282986,0.05663924,0.1038142,-0.043833133,-0.03950281,-0.06945863,-0.042620175,0.0019626834,-0.17099461,0.025762957,0.15355298,-0.19580518,-0.104314014,-0.08594263,-0.06647343,-0.12862797,-0.01312359,-0.003605947,-0.17895345,-0.18578222,-0.20037097,-0.24083146,-0.07139283,-0.17261046,0.08802844,-0.06546954,0.06556532,0.02608692,0.016876135,0.049832456,-0.038843688,-0.016648864,-0.070196584,0.0068666837,0.0063217888,-0.14445214,-0.1760343,-0.15337837,0.00979237,-0.07126724,-0.2861989,0.11952174,0.13248464,0.032239106,-0.02412384,0.05098424,0.14630258,0.03909512,-0.08486263,-0.1763262,-0.14939468,-0.09164008,0.05573456,-0.02419508,0.009326889,-0.07014443,0.06461349,0.08025103,-0.054443672,-0.007883924,0.008694168,-0.015289885,0.009513447,-0.09968625,-0.171388,-0.031424765,-0.08057364,-0.13567849,-0.26300123,0.14075014,0.18321367,0.19357036,0.06653435,0.35332578,0.21619786,0.262345,-0.04333289,-0.108610936,-0.03357598,-0.10468998,0.029128313,-0.024544032,0.03198964,-0.043227702,-0.08073489,-0.008281389,-0.004435198,-0.08147442,0.013448029,-0.0074966527,0.08119079,-0.089726366,-0.08191331,0.061281186,-0.047935363,-0.053982995,-0.052910414,0.08113988,0.022956787,0.12075853,0.22121245,0.2562287,0.19207944,0.16738954,0.112125866,-0.024088733,-0.11537878,-0.013937726,-0.007830113,-0.013421246,0.024199996,-0.013288906,0.054760925,-0.060918543,0.013740883,-0.028969554,0.026524583,-0.13248771,-0.002862282,-0.14015263,-0.13963321,-0.121649854,-0.08818876,-0.08632203,-0.042410273,0.18919232,0.12658007,0.02608982,0.10084961,0.060110733,0.043914065,0.06296258,-0.05081191,-0.06313528,-0.08969238,-0.015181977,-0.114637226,-0.026791546,0.044849236,-0.056524534,-0.07029757,-0.06398346,-0.02517154,0.032697394,-0.011874825,0.071657255,-0.026693523,0.0972496,-0.15848456,-0.1911056,-0.16794959,-0.2948507,-0.1631442,0.19775428,0.14518602,0.13192631,0.103981376,-0.04678732,0.04609564,0.1072207,0.07290696,-0.007097707,-0.040384576,0.00390673,0.011294293,-0.03503957,0.017046127,0.013578592,-0.07285886,0.043624155,-0.05163833,0.07244454,0.053285282,-0.09643694,-0.011425029,0.06569038,-0.011571536,-0.13539357,-0.28361487,-0.24039243,-0.07967068,0.17934334,0.21628599,0.12058007,0.09894992,-0.05063442,0.090420395,0.14108767,-0.046826154,0.0035007366,-0.04283249,-0.10128565,0.017302303,-0.037693024,-0.043066762,-0.0069113933,0.03792279,0.037800085,0.031406637,0.09469959,0.07593674,0.1302765,0.10352293,0.21384063,0.17428242,-0.0648001,0.04266224,0.028698528,0.02045064,0.09666868,0.027772808,0.16784514,0.012808753,0.15912879,0.04239547,0.16820312,-0.04104936,0.1497495,0.16890629,0.0846897,-0.014300529,-0.008817408,0.06375303,0.076781645,-0.025262572,-0.007985082,-0.0116074225,0.048618738,0.18732648,0.17269683,-0.115284495,0.14103825,0.34721857,0.031212227,-0.13285564,-0.23377702,-0.009169756,0.00082817156,0.11825717,0.14261822,0.20096974,0.36091885,0.273608,0.07010451,-0.057826675,0.083503336,0.17087193,0.11669495,-0.052873265,0.048968606,-0.012659468,-0.068351716,-0.0691729,-0.050060987,0.0032492639,0.0953495,0.08805224,0.14890039,-0.014238745,-0.008395698,0.15615295,0.051816057,0.02932935,0.0046484885,0.02725076,0.09652657,0.08790439,0.17392902,0.12608677,0.26563227,0.040204518,0.15522812,0.032446545,-0.07218522,-0.07032626,0.067806706,0.020153947,0.053318106,-0.079395026,0.019257106,0.06855041,-0.085585445,-0.048004664,0.14480735,0.045155633,0.06551727,-0.15155251,-0.1444391,-0.09514141,-0.15835844,-0.05607732,0.06427901,-0.16259636,-0.0053598685,0.00194892,0.1589504,0.23426576,0.120526545,0.016933851,-0.09112122,-0.13735716,-0.07453195,-0.030690275,0.018868849,0.09606865,0.026775632,0.04233674,0.009662282,-0.05321408,-0.016539566,0.015838254,0.0025587596,0.08144702,0.04269114,-0.15956898,-0.124351665,-0.111051835,-0.009296786,-0.14196852,0.056783117,-0.017893996,-0.06695372,-0.01104173,0.17507361,0.045886558,-0.07557486,-0.10107776,-0.04034534,-0.08173725,-0.102193944,-0.034939453,-0.03745892,0.049928654,-0.027338881,0.014982482,-0.060785566,0.025920475,-0.0023388544,0.097404756,-0.045808546,-0.05216882,-0.0026052464,0.04870379,-0.023133066,-0.03162529,0.009587145,-0.0850941,0.045088142,0.0152308205,-0.13825713,-0.14068414,-0.028388096,-0.08765114,-0.062983185,-0.16299427,-0.0034259001,-0.06390023,-0.113733515,-0.06989416,-0.012283614,0.020427994,0.002581065,0.02095409,-0.009802718,-0.006947409,0.10894992,-0.020908164,-0.07844262,0.03125999,0.025921242,0.045223393,-0.00077358645,0.110943615,-0.08919188,-0.029284282,0.020688865,0.097495094,0.019499335,0.040930156,-0.016729122,-0.05541612,0.04533581,0.015777795,-0.026005317,0.13020585,0.06639093,0.008693935,-0.028700389,-0.06576351,0.012729303,0.04494869,-0.043596193,-0.04779732,0.055125423,0.00051730993,-0.050802104,-0.009376278,0.04693929,-0.067515045,0.004434682,-0.027035337,-0.041653987,-0.012628881,-0.0059848283,-0.012049993,-0.022181867,-0.06567745,0.009103965,-0.03980485,-0.07129068,-0.039899144,0.002784373,0.006773494,-0.030284973,0.039733287,-0.03791963,-0.07511623,-0.020649115,-0.09503752,0.0062222816,-0.034450278,-0.083770856,-0.0234555,-0.0007638548,-0.046694707,0.037150767,-0.0014103279,0.0026981104,-0.03742789,0.056735866,0.0016571439,-0.03354004,0.044579603,-0.001945003,0.015095536,-0.025184985,-0.05604283,-0.06601161,0.04082245,-0.0021769076,-0.060431868,0.037154287,-0.018161066,0.061720494,0.0763147,0.0596696,-0.05475786,0.060133677,0.04121037,-0.0032813712,-0.024475828,0.038231917,0.0155291315,0.09349108,-0.012397239,0.06815209,-0.0035920423,0.018150792,-0.061790243,-0.094952404,0.05351672,-0.019469898,-0.00936801,0.05423666,-0.06540303,0.013608322,-0.04021854,0.022783916,0.04467674,-0.024691243,0.0007009808,0.029156025,0.04710703,0.07141066,0.021812694,-0.02969667,-0.058857813,-0.032211654,0.017873501,-0.025583293,0.029638413,0.05149104,0.021745514,-0.0066718804,0.11874088,-0.05181985,-0.020539813,-0.031667046,-0.006923234,0.0077058612,0.013914134,0.008834047,-0.024617773,-0.06708153,0.018823547,-0.07547722,0.04108353,-0.02318775,-0.043627255,0.08096308,0.078818016,-0.10164204,-0.050195035,0.088085435,0.07900794,-0.04948475,0.04857808,0.018478038,-0.0047869645,-0.020955272,-0.010593904,0.07512334,0.022642488,-0.013899188,0.0351627,-0.052165978,-0.06727318,-0.016990691,-0.0473279,0.00029930906,-0.033767242,0.009733106,-0.025188979,-0.012292118,0.05265109,0.063297786,-0.08355977,-0.09220381,0.06610752,-0.048707068,0.1256292,-0.034600858,0.065447584,0.059505604,-0.09326125,0.08313294,0.048813544,-0.08816651,-0.029360533,0.059219297,-0.04534241,0.036356192,0.1417143,0.17171524,0.09834131,0.12170029,-0.03281357,0.070459716,0.008531589,0.0349273,-0.0761728,0.057529096,0.05905591,0.0028747423,0.013676119,0.0015132627,0.0584805,-0.00789062,0.04942281,-0.08935629,-0.0075857784,0.040152818,-0.066250145,-0.031675056,0.10700764,-0.027175581,0.00801195,0.0068568042,0.014429055,0.05173193,0.11763676,0.18124755,0.10787917,0.1416377,0.15533622,-0.031737197,0.046323013,0.004366874,-0.028418671,-0.051809967,-0.033075977,-0.05834349,0.025246218,0.0060827644,0.04722729,0.02040697,0.017056879,0.1085988,0.016472066,0.09209382,0.044194985,-0.118736744,-0.009944011,-0.0075183376,0.007895935,0.034914598,0.15060523,0.0015279076,0.06039374,0.11650558,0.173146,0.3058216,0.23307769,0.170908,0.014714871,0.042382643,-0.023461843,0.02142339,-0.04773304,-0.06841896,-0.042924892,-0.06456215,0.081571825,-0.043747824,-0.059836227,-0.08160117,-0.010793992,0.018691333,-0.0056153536,0.035548124,-0.10465379,-0.047103662,-0.06082859,-0.019029459,0.07836939,0.063813955,0.09887092,0.20913135,0.2209725,0.14720365,0.147529,0.1563927,0.23284091,0.068667494,-0.1731754,-0.012717204,0.0611178,-0.08497401,-0.022716718,-0.043140102,0.048777744,-0.03584633,-0.017872354,0.019230587,0.0667226,0.0105569735,0.0033993495,-0.025487587,-0.015429802,0.06606834,-0.070302434,0.10685559,-0.0035624963,0.040150125,0.024041861,-0.006074709,-0.02125034,0.0033102257,0.08703549,0.02083552,0.0646755,0.019691028,-0.0014611554,-0.015091479,-0.05191956,-0.011197388,-0.021281801,-0.15162212,0.018327827,0.0034983328,-0.08122404,-0.041471586,-0.03106985,-0.10764374,0.014395067,-0.04907078,-0.00039270322,0.043483857,-0.040591944,0.040039007,0.0077255946,0.11402661,-0.024982639,-0.18534192,-0.09444503,0.07422565,0.090480514,-0.03218372,0.072327554,0.045201834,0.0915762,-0.040191244,0.027751911,-0.092004664,-0.06753936,-0.11581048,0.07191805,0.1357796,0.020744722,0.0687065,0.02925291,-0.10284509,0.016856385,0.046134014,-0.0032300886,0.04092897,0.03223929,-0.05485838,-0.121924005,0.004564759,-0.1917188,-0.08542853,-0.02548311,0.11993192,0.02960395,-0.016641181,-0.009428443,0.10015543,0.1525238,0.057206318,0.10430441,0.068456955,-0.103702575,-0.14318933,-0.03905062,-0.022406578,0.014083974,-0.054912943,0.056208976,0.013919211,0.05033269,0.07641063,0.02783773,-0.023567097,0.0739386,-0.055647384,-0.10708898,-0.14075954,-0.13888168,0.05081493,0.049378973,0.11677686,-0.09355991,-0.010279258,0.10461035,0.17705908,0.069389135,0.052597743,0.08615167,0.015995782,-0.04911437,-0.17818512,-0.09517048,-0.065391205,0.017052284,-0.07294503,-0.10372372,-0.04047115,-0.010940377,0.008048049,-0.021050852,0.01287599,-0.026048282,-0.08875598,-0.16027051,-0.043807026,-0.085472755,-0.07828153,-0.032775518,-0.001343267,0.03945325,0.11060217,0.10656182,0.054047972,0.1079579,0.017718649,0.054026704,-0.018622348,-0.010476137,-0.085803434,-0.0337255,0.06323233,-0.03901847,-0.013251815,-0.010194063,0.01865257,0.049619894,0.08489827,0.08345065,-0.05079407,-0.052971467,-0.12620875,-0.074285924,-0.038277894,-0.073863745,-0.13177341,-0.09825682,-0.08384893,0.14056472,0.26885095,0.18119329,-0.052582584,0.11841378,-0.03659686,-0.15556325,-0.08604076,0.0010369341,-0.07278626,-0.042333122,-0.06451219,-0.073014565,-0.023689909,0.07602639,-0.078694955,0.060652543,0.088408194,0.005159768,-0.1171911,-0.03226831,-0.005976231,-0.16232178,-0.12561658,-0.007035866,-0.15232371,-0.13983117,0.0639919,0.23728561,0.19450806,0.08256829,0.12844588,0.049385585,-0.014645678,-0.13725166,-0.107304335,-0.08001448,0.017042767,0.008307651,-0.036479242,0.012042494,-0.021106284,-0.0032794892,-0.037456192,0.08558604,0.044638664,-0.025988357,-0.0126216225,0.0688186,-0.043222353,-0.20162487,-0.16585812,-0.1493342,-0.0980014,-0.07683421,0.09015841,0.18480498,0.18276265,0.076789424,0.014784763,-0.11854521,-0.1625407,-0.09362422,0.00489231,-0.10218831,-0.056683995,0.024159033,-0.036993876,-0.013916513,0.009799101,-0.07645743,0.04280853,0.048449565,0.021001343,-0.052499276,-0.029032923,0.06777427,-0.04945899,0.03910797,-0.12772352,-0.027040994,-0.0645651,0.05765509,0.17555818,0.110834554,0.09902095,-0.07852131,-0.12932923,-0.13953349,-0.17670034,-0.113274485,-0.03574533,0.006340173,0.013764546,0.04957436,0.0066236616,0.0059548127,0.07240248,-0.032750282,0.011689439,0.076473065,0.054400764,-0.08366503,0.0033341697,-0.093089566,0.07278661,0.17578198,0.119875245,0.08201914,-0.03608836,0.07361094,0.050166983,-0.12126767,-0.08939279,0.0077452143,-0.10469022,-0.1413396,-0.2001256,-0.08004479,-0.03433445,0.06363279,-0.011583245,-0.023651065,-0.06005212,0.018829709,-0.092322305,0.027267227,0.14195764,0.073904395,-0.013847893,-0.009449098,-0.015534308,-0.107584484,0.03663596,0.07658067,0.04970569,0.19458345,0.07982644,-0.027620511,-0.11076442,-0.29189235,-0.066794924,-0.08840952,-0.15385742,-0.059112858,-0.11184223,-0.07770071,-0.027150078,0.026831716,-0.051734697,0.02272529,-0.011099686,0.03435593,-0.0056102723,0.01388545,0.07180836,0.013693779,0.021631949,0.017723856,-0.0921024,-0.013822918,0.041699998,0.009194914,0.0076355725,-0.15292072,-0.124897055,-0.016913071,-0.06443789,-0.19367857,0.008246534,-0.05723378,0.0044107246,-0.012486316,-0.03640933,-0.06509056,-0.006739632,0.0586326,0.010850981,-0.08795729,0.14536147,0.1335419,0.038736068,-0.030482812,-0.08051059,0.033568833,-0.0062286993,0.02284175,0.0018490999,-0.07767494,0.068975426,0.113432124,-0.039981335,-0.28054738,-0.20043765,-0.10384057,-0.031754646,-0.10968323,-0.047699083,0.0049394593,0.035914183,-0.017424274,-0.00059227075,-0.057787012,-0.10089168,0.09167385,0.009987108,0.04991461,-0.0020580739,0.052918065,0.01646485,-0.013114732,-0.030297358,-0.043193854,-0.05499482,-0.014488765,-0.041701593,0.16813831,0.106229864,0.021185631,0.04558779,-0.18241072,-0.0017154547,-0.02182721,-0.07096663,-0.09884378,-0.0994677,0.041188184,0.07908991,0.0441715,-0.055884063,-0.00477275,0.02098528,0.033608895,0.063757926,0.04123478,-0.050443586,0.036466055,0.046544965,0.026957186,0.011632428,0.021974435,0.0430999,0.004439405,0.1105172,0.088172145,0.052066077,0.072785646,-0.12231686,-0.13188206,0.10585234,0.025931304,-0.046665948,-0.07466152,-0.0022224016,0.00897601,0.07073923,0.049875602,-0.060520656,0.020156823,0.007559385,0.0048033316,-0.07445664,-0.02335206,-0.1197825,0.028270872,0.028508812,-0.01695311,-0.022090629,-0.064984255,0.01933257,-0.07661373,0.05905354,0.050077576,0.09847728,-0.028096743,-0.05243663,0.048745546,-0.05152404,0.0049837246,0.023715083,-0.09335949,0.022451373,-0.05782425,0.0492534,0.07111377,0.041652914,0.07388399,0.02479776,0.020576982,-0.05199061,0.08179013,-0.039285712,-0.062127892,-0.10010615,0.100637384,-0.022886856,0.004456533,-0.07783569,-0.053697985,-0.0016126825,0.021173833,0.06495654,0.107349135,-0.079923734,-0.13730511,-0.0011817177,-0.07339819,-0.07436365,0.015212343,0.10211738,0.037436806,-0.022271471,-0.051621348,-0.016165514,0.04571402,-0.037798904,-0.006551629,0.07397943,-0.074753486,-0.035426587,-0.068196714,0.00035266596,0.046886757,-0.05710432,-0.04899656,-0.0012826668,-0.034103986,-0.052735522,0.045301042,0.03389565,-0.021504752,-0.005630864,-0.013084885,0.00561949,0.044807654,-0.1545246,0.05105466,0.04207423,-0.01557806,-0.009666104,0.037472922,-0.087393306,-0.027088063,-0.008067467,0.03324509,0.046622764,0.049365707,-0.015963322,0.030903768,0.06733419,-0.0735037,-0.027115488,-0.0019432342,-0.034286723,-0.023820667,-0.032043967,0.05551591,0.06019011,0.07196725,0.051496826,-0.022594554,-0.047716048,-0.031794537,-0.055213567,-0.019509172,0.0124357,0.11564093,-0.028306825,0.017688358,0.06402923,0.031496663,-0.016758239,0.021296794,-0.018370874,-0.049427427,0.024504794,0.036239427,0.0051989085,-0.013212872,0.008546005,0.0013745943,0.06223822,0.036187865,-0.050615307,0.085149966,-0.026660513,-0.053842474,0.09857222,0.0082876,0.0114454925,0.0044146213,0.06316547,0.058647726,0.09928085,0.080619425,-0.006996404,0.078353405,0.01748069,0.0026175778,0.04997939,0.032589205,-0.02820817,0.04350906,-0.0027972667,0.03050594,0.004330596,0.0881005,-0.05016004,-0.034534656,0.05744547,-0.0092927655,-0.077644706,0.04501821,0.04742852,-0.008454689,0.03336192,-0.061746873,0.059752654,0.042284127,-0.029339323,0.029311176,-0.05301132,0.04676157,-0.062370516,0.036599774,0.055151306,0.025105141,-0.029547147,0.09671471,-0.042887624,0.029309172,-0.03753985,-0.005204274,0.0042294823,-0.02312691,0.035659924,-0.1503235,-0.05969455,0.003921807,0.03264182,-0.0016739974,-0.09513125,-0.07044267,-0.034077458,0.012604361,-0.090722494,0.034352932,0.027297914,-0.010527881,-0.06102903,0.057623185,0.023806868,0.026303373,0.045527197,-0.031779375,-0.02507358,-0.04487642,0.025801623,0.054482184,-0.03116674,-0.10389963,0.068548605,0.09321539,-0.049020104,-0.032911338,0.024205035,-0.013567266,0.034759447,-0.03292703,-0.09706288,0.026622199,0.011292215,-0.12140832,0.07553174,-0.020834325,0.028429482,-0.0750213,0.081221305,-0.020007005,-0.011143279,-0.016330423,0.015832145,-0.019217018,0.042791214,-0.008841974,-0.00011925747,0.042718075,0.10895628,0.03963893,0.0010946693,-0.014768063,-0.029015824,-0.035718,0.042336766,-0.07325288,0.049760226,-0.08875009,-0.07559287,0.029843716,-0.012309591,-0.11179141,-0.030178135,0.014636348,-0.016014254,-0.03584743,-0.06206984,-0.0798869,-0.09718504,-0.042924482,0.02757526,-0.016824562,0.071568735,-0.021395031,0.06630522,0.019544011,0.04362931,0.0051054894,-0.005166944,-0.013934319,0.026336335,-0.08028319,-0.031535733,-0.036267422,0.03862067,-0.09430111,-0.07175247,-0.04074709,-0.086603634,-0.054627445,-0.036975488,-0.041012615,-0.06846786,-0.06716479,-0.12563692,-0.11910932,0.027373187,-0.09909989,0.06901234,-0.035247453,0.009842496,-0.020247655,-0.017069926,-0.0031167318,-0.02956172,0.07991376,0.0079237325,0.019235747,0.04297977,-0.035013534,0.0012757749,-0.00786914,-0.081139974,0.076841936,-0.068272375,-0.15518677,-0.043858774,0.057916306,0.0060464614,0.0040403293,-0.0013689937,-0.082840145,-0.068021566,-0.14131288,-0.031393014,-0.051492304,0.0106646605,0.0831188,0.059568655,0.01195963,0.14725818,-0.003182955,-0.009086491,0.036391076,-0.038914084,-0.0060219523,0.035864804,-0.0078973295,0.007343667,0.0049381605,-0.03470205,0.001103244,0.0362015,0.066348165,0.10996935,0.0136514725,-0.1321957,-0.23801856,-0.06472372,0.034622274,-0.002197026,-0.035642743,-0.064000696,-0.04730296,0.02645589,0.107132494,0.10840552,0.10459372,0.042529013,0.03640731,0.071115874,0.030007115,-0.004049881,-0.013846254,0.0591402,-0.0639817,0.035293102,0.08902647,0.076303594,0.024501903,0.115131795,0.19936855,-0.066568844,-0.21354282,-0.31695056,-0.3170388,-0.22501206,0.054819733,0.11245598,0.028479094,-0.08457931,-0.1083238,0.07358774,0.054336384,0.17805952,0.15687317,0.12434286,-0.09096947,0.05577732,-0.020322494,0.046287846,0.0017931076,0.0199284,-0.0007924072,-0.008737869,0.079158664,0.01754911,-0.073163725,0.11094533,0.055828117,-0.12862492,-0.23184463,-0.21694003,-0.30492187,-0.06605172,0.054297786,0.13560337,0.07144661,-0.17366919,-0.055409614,0.06531047,0.15608662,0.15301374,0.09751106,-0.016363442,-0.067505,-0.03426731,-0.09925106,-0.075472765,0.06458325,-0.051183775,-0.05084402,-0.0037673782,0.12888531,0.07269037,-0.022034954,0.023479274,0.054344654,-0.053342693,-0.3880821,-0.40571588,-0.27293456,0.008395929,0.082695976,0.18567222,-0.07003171,-0.23882549,-0.11530109,0.32757053,0.1394775,-0.035406128,0.029055525,-0.13124223,-0.06962651,-0.053980432,0.08716468,0.052438498,0.077955574,-0.014516808,-0.0499973,-0.054033183,0.08165301,0.04223315,0.06628783,0.11637114,0.08840005,-0.14612071,-0.13273826,-0.42428243,-0.18108197,-0.05261273,0.05456237,0.12070077,-0.13697445,-0.09245104,-0.07627216,0.29565763,0.14334376,-0.031532314,-0.090343416,0.0006187849,0.0030319446,-0.043855246,-0.037869513,-0.059644483,-0.027794542,-0.05889158,-0.14296801,0.057532113,0.028673997,0.056677863,0.13167246,0.19144182,0.2249939,0.19625689,-0.20819668,-0.1752188,-0.21468496,-0.19780347,-0.12485298,-0.029707968,-0.22939688,-0.1486656,0.037795518,0.02113546,-0.04258273,-0.119183004,-0.06577274,0.005491686,0.008911912,0.06012949,0.041517228,0.07283126,0.015649874,-0.047492683,-0.060048643,-0.03271552,0.105893165,0.15959011,0.06981137,0.22901948,0.3014349,0.2287498,0.09756824,-0.09021784,-0.21265933,-0.14501697,-0.1899678,-0.09977545,-0.35590512,-0.09823441,0.031014815,-0.05761018,-0.14484105,-0.06282498,-0.072645,-0.12322311,-0.0054821256,0.027203178,0.07621677,-0.022891521,0.0053207544,0.047853965,-0.00092865713,0.033174366,0.026484806,0.14315042,0.116338,0.17369963,0.12823927,0.3073336,0.10902222,-0.02463565,-0.0980078,-0.28418142,-0.011911787,-0.017448427,-0.044246953,-0.027028905,0.019002944,-0.031029757,-0.05646934,-0.09844135,-0.2102564,-0.047128517,0.04355313,-0.01697115,0.059167925,0.027103638,0.06189967,0.05505989,0.033004005,0.06717041,0.21470258,0.22536878,0.1543507,0.216874,-0.0016328432,0.0896584,0.010089014,-0.011588838,-0.07941058,-0.11884203,-0.0126080485,-0.013987227,0.08434549,0.10840078,-0.03437377,-0.06502484,-0.027939172,-0.009102969,-0.015142089,-0.040475328,-0.032631073,-0.0009544816,0.0046766116,0.098990686,-0.07941427,0.108354785,-0.048529327,0.06358267,0.31649095,0.17677997,0.19900337,0.04474149,0.1197261,0.03837123,0.003516256,-0.069721855,-0.03511725,-0.043915834,-0.060498204,0.0073245903,0.08742538,0.052599903,0.077620976,-0.10185648,-0.10035286,-0.045368385,-0.026027322,-0.07491661,0.01799307,-0.02302406,0.040081315,-0.020361193,-0.008119709,0.0019340427,0.0061756284,0.105952345,0.14449535,0.086080305,0.106631085,0.14140183,-0.035539366,-0.075995184,0.026852498,0.11494118,0.10367618,0.12049706,0.07341073,0.064726114,0.023422133,-0.04980528,-0.04469536,-0.12645105,-0.048491295,0.048656255,-0.01870874,-0.067352206,-0.045023773,0.019519107,0.015064111,0.0153965885,0.01485821,-0.08589249,0.04752593,0.028480086,0.09481742,0.061962713,0.0063486113,0.14825004,-0.1262735,-0.15702654,-0.21812676,-0.06694056,0.025300669,-0.0006246527,0.12532488,0.16402695,-0.09141411,-0.16876972,-0.032750066,0.07299257,0.13083757,0.025539525,-0.019406108,-0.09111974,-0.05449437,-0.06467153,0.037433185,-0.01753162,0.021535996,0.023963127,-0.053826656,-0.053149186,0.08630425,0.055594873,0.04590939,-0.11880827,-0.039633423,-0.304236,-0.2491222,-0.22262819,-0.19946122,-0.056300897,0.020413948,0.2537421,-0.04005688,0.03436016,-0.10868317,0.1006635,0.056716796,0.011379732,-0.028061891,-0.02133366,-0.03246226,-0.04119005,-0.007818534,-0.007995746,0.07162845,0.100771286,-0.032392956,-0.06317642,-0.02422446,-0.059164252,-0.035885092,0.020392695,-0.0967747,-0.07770631,-0.22574182,-0.06945932,-0.09604493,0.033731673,0.009786248,0.12260067,-0.06330158,0.07545034,-0.053179648,0.13333574,-0.008068696,-0.040993422,-0.0007504421,-0.037605,-0.050364714,0.049486328,-0.037319757,-0.0415287,0.05621504,-0.02128982,0.027727146,-0.03250119,-0.042218965,-0.012591605,-0.034784716,0.019232009,0.08293571,-0.08885258,-0.17133085,-0.19836392,-0.05615264,0.01542379,0.0040721754,-0.020066252,-0.07412648,0.026825882,-0.07141466,-0.01078059,0.077477545,-0.09080944,-0.059344336,0.04157689,-0.04262927,-0.097711965,-0.038153242,0.036005374,-0.015655914,-0.007445465,-0.137152,-0.1716314,-0.06841015,-0.08616996,-0.037385564,-0.15919408,-0.0064265835,-0.11898194,-0.14467464,-0.04046184,-0.15904376,0.07902698,-0.0002066762,0.037344992,-0.051516723,0.07222694,-0.01008492,-0.027836323,0.091007896,0.10956451,-0.046676666,0.04961012,0.033746902,0.115529485,-0.05046405,0.008753123,-0.0018128789,0.08171538,0.013503057,0.04532173,-0.06910576,-0.07133497,-0.08979654,-0.16191195,-0.1516062,-0.17209397,-0.03456378,-0.063978486,-0.044611927,-0.03312343,0.10186852,-0.04915371,0.013236145,0.07113111,-0.020407993,-0.05601079,0.16312402,0.11473558,0.047485694,-0.0041748397,0.0256647,0.06770142,-0.0076364977,0.07372468,-0.07160369,0.017043633,-0.034869473,-0.02180344,-0.02238644,0.045237094,-0.12234713,-0.12680888,-0.17464955,-0.14859334,-0.0894887,-0.026708242,0.087699026,0.05343032,0.18493135,-0.0196036,0.057035174,0.05912709,0.34658393,0.17681777,0.3073165,0.01579062,0.06310962,-0.014584941,0.025900884,0.0067881374,0.0730425,0.005410105,-0.02703419,0.0123132,-0.07518501,-0.013614771,0.057180654,-0.07308881,-0.02375,-0.0153263025,-0.07127213,-0.16000924,-0.16033407,-0.12192181,-0.14045373,0.039535977,-0.012516108,-0.0021220918,0.1381755,0.26351476,0.14643192,0.25352088,0.11123178,-0.0040319976,-0.0360049,-0.08789509,0.014854864,-0.013567922,0.015113905,-0.04036133,-0.011369218,-0.016650809,0.16282123,-0.087006405,-0.0034748565,-0.100001104,-0.039254338,-0.0072491746,-0.08068323,-0.11638021,-0.17925768,-0.04773884,-0.06616363,-0.09771867,0.02331984,0.087977104,0.18238023,0.12251907,0.12230276,0.0058186445,0.01365292,0.00036439172,0.008335995,0.049120136,-0.067012355,-0.0010270384,-0.05092928,-0.044936765,0.047866583,-0.054464146,-0.037839968,0.016285935,0.020396216,-0.0252091,-0.05625996,-0.08808413,-0.09680189,-0.11499193,-0.0026370904,0.0025910109,-0.11406924,-0.06221103,0.10929058,-0.014493694,0.14675152,-0.015959995,-0.0047844565,-0.076776735,-0.033395384,-0.09337472,-0.0004748481,0.03844127,0.07169239,-0.016670112,0.009257465,0.016318422,-0.01940839,-0.111326724,0.042157397,-0.0125221405,0.088957734,0.049689747,-0.057873465,0.030820379,-0.039015185,-0.116450444,0.038675196,-0.021667441,-0.10075228,-0.13643526,-0.14320672,-0.1025386,-0.052660078,-0.13218595,-0.055711195,-0.10207316,-0.09848892,-0.05185865,0.0102326395,0.014694339,-0.027564723,-0.08270528,0.037865944,-0.054387,0.022539902,0.049277063,0.0397457,-0.10968319,0.0087817,0.020846667,-0.016275506,0.010749605,0.034822855,-0.041598108,0.07881937,0.07633825,0.060521886,-0.02615303,0.14833519,0.082888074,0.051692523,-0.080088206,0.002911094,-0.040431716,-0.026365153,0.054937012,0.029862372,0.048812196,0.03222181,0.083136566,0.017289309,-0.056842655,0.018453442,0.0016905227,0.018696945,-0.02433403,-0.053029984,0.022872945,0.053201556,0.043596588,-0.036863964,-0.019325422,0.056962676,-0.02341487,0.009776356,-0.010177396,-0.079234876,0.0041707675,0.03569671,-0.053528905,-0.00912235,-0.000015387144,-0.055972293,-0.0028888674,0.05092021,0.009903753,-0.011735902,0.07513632,0.023885192,0.029815795,0.015567959,-0.027800031,-0.078171104,0.0012742538,-0.017057797,-0.0299579,-0.07257827,-0.03144051,0.032433037,0.0845566,-0.034536097,-0.04667376,-0.03718433,-0.011052413,0.008683159,0.04313568,-0.005128646,-0.09713111,-0.032057915,0.025188098,-0.030837813,0.0006308806,-0.060126998,-0.03756872,-0.0044530537,-0.04219816,-0.06993941,0.05097859,-0.049497757,-0.014898848,-0.01560245,0.045423158,-0.0022001662,-0.10720882,-0.07222907,0.04346764,0.01492353,0.0053161653,-0.04423193,-0.11826777,-0.09320681,-0.107723914,-0.008404821,-0.02246951,-0.06416805,0.085473314,-0.027654072,-0.08546726,0.04870019,-0.032045323,0.06491406,0.090398364,-0.03254592,-0.017397476,-0.0039478955,0.03803919,-0.05097757,0.073212646,0.008226758,-0.023941554,-0.014638666,-0.102751724,-0.040545743,-0.0383036,-0.07230301,-0.09313657,0.02487504,0.0038250238,0.0005441174,0.09901323,-0.022110682,0.012723891,0.06947191,-0.12970307,-0.054288615,-0.07794914,-0.032500282,-0.07993237,-0.004287582,-0.046342004,0.06063289,-0.0771374,0.0472573,-0.05946651,0.072384596,-0.0047410014,0.12569639,0.0075971726,0.09996426,0.10487951,-0.060422815,-0.060757093,0.016207565,0.086058095,0.11451962,0.08289324,0.09999373,0.06390521,0.09738779,-0.05369853,-0.0117116,-0.0049262824,-0.032964412,-0.029068105,0.053644016,-0.02988558,-0.019852668,-0.073161215,0.08719156,0.04924914,0.023247834,0.008332992,-0.023761949,0.0040699476,0.0015694492,-0.059433,0.07756108,0.070585825,0.011200984,0.028158478,-0.08335027,-0.122424446,-0.025085507,0.09893526,-0.010012319,0.06807463,0.079690024,0.11590973,-0.06560927,-0.061008245,-0.111927465,-0.029331893,0.0319604,0.10494777,0.075823516,0.06560493,-0.12276483,0.03152128,-0.011241799,-0.09669272,0.021361314,0.08718795,0.026615323,0.021356259,0.04474495,-0.0057759155,0.07460387,-0.054794643,-0.069883615,-0.114228934,0.038305584,0.04128333,0.22208828,-0.01844005,-0.00050544343,-0.14217554,-0.17709322,-0.062004365,-0.22141097,0.02313056,0.08628153,0.15497234,-0.022927735,-0.02549322,0.038142793,-0.008539097,0.055463158,0.0007454357,-0.0779417,-0.033114266,-0.021390159,0.04314595,0.05176693,-0.061672002,-0.07293403,-0.09004795,-0.057203457,-0.025199018,0.067066036,0.104771785,0.097170755,0.08605563,-0.100050986,-0.14992663,-0.04820895,-0.04107445,-0.00004450528,-0.07723774,-0.07552522,0.13297638,0.05230338,0.0256621,-0.022256266,-0.072288826,-0.053620506,-0.020823587,-0.012841999,0.051522877,-0.016021453,0.036930982,0.06601759,0.0029344314,-0.062557004,-0.10324131,-0.11238654,-0.01196584,-0.17004025,0.15971768,0.09123984,0.06119596,0.023441894,-0.010304722,-0.01325427,0.11822651,-0.0031361869,0.0029273087,0.021452278,0.12005785,0.052219693,-0.028026251,0.019518722,0.040608328,0.053185754,-0.031742215,0.05057994,0.029756827,0.038627304,-0.06374427,0.054405883,-0.053928554,-0.08521946,-0.078673474,-0.12811452,-0.13488714,-0.06534275,0.10310315,0.18163283,0.17666516,-0.034621585,-0.014039497,0.1481165,0.16700418,0.09023933,0.07941885,0.04594575,0.09385678,0.22590725,-0.018284515,0.041545264,0.03456455,-0.08485167,0.008199307,-0.03300246,0.016469372,0.00438952,-0.08676429,-0.020874608,-0.08033333,0.031014835,-0.047629353,-0.06727015,0.008835355,0.10447672,0.10360026,0.19730985,0.019724192,-0.17129245,-0.10818463,0.22224422,0.08806041,0.083898924,0.06439888,0.03744064,0.051446974,0.110679515,0.032190137,-0.06570336,0.036292225,0.027588604,0.09487513,0.001619922,-0.009052382,0.0015594878,-0.0888578,-0.13810967,-0.06834959,-0.06739773,-0.03410183,-0.04782547,0.0015153217,0.070893705,-0.008560431,-0.053605136,-0.17858928,-0.23518947,-0.09942183,0.30016565,0.2758619,0.025893452,-0.11814504,-0.08357713,-0.08472374,-0.048393305,-0.048278797,-0.0020570017,-0.048817143,0.008868157,0.11936932,-0.079451196,-0.0036456904,-0.026322532,-0.11937356,-0.07149802,0.03049346,0.10600465,-0.08740563,0.026431834,0.09983368,0.16330466,0.12954308,-0.10383042,-0.32656145,-0.16891058,0.069056444,0.22902283,0.25831968,-0.07907285,-0.078530096,-0.13098873,-0.05239354,-0.0025804848,-0.05181491,-0.06352972,0.06334227,0.0006716456,0.018448828,-0.05587239,0.000825784,-0.03016615,-0.08074857,0.01843397,0.1947142,0.033011314,0.008678932,-0.004143658,0.09651439,0.15319686,0.07326004,-0.2135781,-0.25764096,-0.24098442,-0.048818197,0.14607604,0.15818942,0.023132611,-0.122485474,-0.048054185,-0.081366315,-0.061958957,-0.009796677,0.0692405,-0.0044410788,0.0052060676,-0.05872881,0.070579365,-0.08203542,0.05469257,-0.08912585,-0.019918196,0.08231516,0.029301917,0.18843026,0.12507612,0.15338221,0.10980862,0.020746104,-0.2421036,-0.18924733,-0.26532662,-0.13941671,0.100350775,0.030717753,0.043190192,-0.006535874,-0.016498456,0.0022553415,0.047874156,0.12259218,-0.04872486,-0.05376805,-0.039017502,0.03714337,-0.0077476213,-0.014168909,-0.059009966,-0.10024578,0.0781809,0.06048732,0.22484262,-0.019938128,0.07981494,0.11414354,-0.028053006,0.005904329,-0.13629107,-0.092820145,-0.20874028,-0.119812004,0.011523611,0.07063156,0.07173016,0.018126689,0.1090138,0.076328285,0.1842906,0.012536186,-0.057672273,0.031769358,0.123434186,0.108005114,0.0635009,-0.0049671,0.04777217,0.053762026,0.025778186,0.1133406,0.08631598,0.0710693,0.011246859,-0.14330527,-0.15889415,-0.16642745,-0.029417725,0.11474009,-0.016217984,-0.039999135,0.057531096,0.027812688,0.15385538,0.15338741,0.121519245,0.03269251,0.031835493,-0.049275775,0.05347696,-0.033509064,-0.034546964,-0.0074473196,-0.030885493,-0.003460701,-0.10227022,0.14131053,0.0068614823,0.061058026,0.06978365,-0.06440336,-0.14583333,-0.12518872,-0.14377221,-0.033390336,0.08120305,0.052095447,-0.15721323,-0.015964232,-0.009441157,-0.02055586,0.16120139,0.10361733,0.052301686,0.11262486,0.02306781,-0.017619584,-0.024474073,0.03972101,-0.025855709,-0.08324976,-0.0611205,0.12899554,0.0756392,0.10111604,0.008520286,0.10844656,0.0069987522,0.015528405,-0.050173543,-0.13298218,0.06982355,0.027046403,0.038428735,-0.023187488,-0.068626136,-0.030279197,-0.0732725,-0.045842197,0.035603743,0.14458488,0.064717114,-0.022685243,-0.073761806,-0.113068074,-0.07401115,0.025777318,0.050649952,0.06236827,-0.0652284,-0.025471065,0.1209983,0.06961498,0.12807314,0.011137457,0.030600935,0.09549508,-0.01583927,-0.13638258,-0.15048636,-0.014718608,-0.04896474,-0.042322222,-0.10614345,-0.042776547,0.0860041,-0.038621087,-0.035894763,0.04831186,-0.07430015,-0.12214128,-0.12896867,-0.12781303,-0.028721722,0.11814,-0.0028859081,0.062824704,-0.0246392,0.0021662053,0.05704357,0.013747051,0.11474241,-0.021084612,0.011296062,0.063507564,0.013169928,-0.13127421,-0.037272822,0.1268298,0.08275061,-0.031396363,-0.022995718,-0.08224378,0.015666755,-0.17693889,-0.13174263,0.053701494,-0.13534755,-0.13179761,-0.1338572,-0.106439225,-0.02066693,-0.013253864,-0.023421943,0.0010638469,-0.06080785,0.0035853435,0.051693134,0.09321551,-0.026558764,-0.050295696,0.032810625,0.00032162317,-0.13563426,-0.06825187,0.022167658,0.04194544,-0.05782873,-0.16527823,-0.08491882,-0.03459388,-0.11360441,-0.16004576,-0.077035226,-0.113650136,-0.08189143,-0.17044328,-0.050949197,-0.06773177,-0.068268,-0.03932063,0.011014522,-0.01405611,-0.018640064,-0.034133818,-0.11422883,0.043751705,0.033601675,0.055053663,-0.010154607,-0.006043067,0.029749298,0.0026514933,0.15515897,0.06611092,-0.0001538143,0.02458641,0.12441798,-0.022863472,-0.041618202,-0.17950678,-0.012699012,-0.10398037,-0.11113822,-0.057892945,-0.08853891,-0.06275517,0.05246136,0.13108782,-0.08248168,-0.009741056,0.0073604407,-0.0452957,-0.030454863,-0.0406081,0.03437685,0.06875757,-0.036990035,0.015076612,0.035680883,0.06281219,0.2037392,0.002464125,-0.030703787,-0.09115133,-0.039355155,-0.04131266,-0.09521981,-0.14909586,-0.18027255,-0.10766869,-0.032951046,-0.043460127,-0.07434509,-0.01621238,0.009510486,-0.02766458,-0.030365055,0.07808759,0.045717724,-0.01724246,-0.04221752,0.086963244,-0.045794345,-0.0053830063,-0.027906172,-0.086268924,0.035533026,-0.06069524,0.0753396,0.017266449,0.035219956,-0.07620173,-0.0011831595,0.041641228,-0.18782912,-0.07158468,-0.1113712,-0.31010377,-0.06573577,-0.08869348,0.06666491,-0.08839325,0.045753494,0.015192825,-0.05166092,0.16496891,-0.02308363,0.010686465,-0.07860635,-0.11616451,-0.06274832,0.04426929,0.038926095,-0.0072644805,-0.0072297514,-0.029284531,0.004441616,-0.056660302,-0.056953494,-0.08967601,-0.06220931,-0.041464306,-0.096736714,-0.100311376,-0.16000019,-0.10942426,0.011529247,-0.05130865,0.039771173,0.07584095,0.013883367,0.021655101,0.019008243,0.0016604577,-0.01539929,0.013723544,-0.08004655,-0.018203499,-0.0625923,-0.050285418,-0.0463333,-0.112853184,-0.152839,0.020610755,-0.14087346,0.07683146,-0.0357727,-0.05104087,-0.084840365,-0.026499808,-0.115019515,-0.035236817,-0.052286405,-0.06424718,-0.019212471,-0.061945975,-0.050011143,0.03299084,-0.023069333,-0.023727085,0.06449915,-0.021407673,-0.05022801,0.031152,0.081837304,-0.026531007,0.06742614,-0.0791518,0.080593355,-0.047875617,-0.04625616,-0.034486372,0.021910504,-0.005961571,-0.03726792,-0.0736787,-0.015867125,0.005912502,0.01931694,-0.05298427,0.013606423,-0.09272184,0.09759511,0.038707353,0.0628796,0.014548384,0.012368217,0.0068617254,-0.06885506,-0.034569584,0.0305294,-0.0003692923,0.030125288,-0.07815909,0.03417573,0.024430303,0.007925399,-0.00910808,0.009047969,-0.016829623,0.050022114,0.08574787,-0.008864412,0.11272275,0.0020371634,-0.014048284,0.038493235,-0.032568663,-0.01908941,0.056339644,0.034932863,-0.0511723,-0.057745516,-0.03343372,-0.0005560757,-0.02013489,-0.0024980148,-0.0046367035,0.04581834,-0.05226444,-0.047998663,0.012954141,0.01377546,0.053944133,0.060019568,-0.040784962,-0.066868775,0.051523652,-0.043224845,-0.07824502,0.044965096,0.0021912933,-0.016577642,-0.03754863,-0.006007848,0.08420244,0.022830047,0.040580872,-0.0028021163,0.0674426,-0.0026006494,0.046212345,-0.02466439,-0.10485434,-0.07475789,-0.03876083,-0.056943685,0.01971989,0.06822229,-0.017163957,-0.011437867,0.029919265,0.04095584,-0.020632302,-0.047635846,-0.00795549,-0.009409005,0.10029342,0.0032263023,0.02701887,0.005734462,-0.0078953365,0.03240894,0.106320195,0.07192995,0.039141234,0.029819932,0.012781964,-0.042211648,0.017147454,0.07798456,0.049191903,-0.009264689,-0.030786427,-0.033221032,-0.086385824,-0.057947274,0.05745468,-0.047033973,-0.103806034,0.032049317,-0.04644887,-0.0075451224,-0.019927045,-0.06292627,0.084841475,0.17575605,0.08192681,0.0073581743,0.0068708654,-0.022019405,-0.016524961,0.005887287,0.0017006284,0.117510684,-0.023366762,0.017480057,-0.009486209,0.046937793,-0.03889998,-0.06059095,0.03342128,-0.015664818,0.0009582256,-0.0007918747,0.056583125,0.010480476,0.050677344,0.05740949,0.049806017,0.029739559,-0.004066239,0.13860236,-0.019759383,-0.015598185,0.050292943,0.013506451,-0.02199383,-0.060440235,-0.09255423,0.030813389,0.1312956,-0.1283907,-0.06551938,-0.038098093,-0.014286997,-0.054627396,-0.003514178,-0.02163385,0.035244156,-0.018480547,0.012527591,-0.010007209,-0.037181586,-0.04140393,0.011952002,-0.013371208,-0.021387197,0.075194955,0.12179893,0.1739649,0.13992646,0.18150818,-0.0057346933,-0.09037543,-0.15271255,-0.16002211,-0.16462792,-0.092697114,-0.011012879,-0.02481357,-0.09409923,-0.11887382,-0.015696106,-0.007938042,0.105487764,-0.08366376,-0.033887092,-0.059405398,-0.17994462,-0.03687476,0.08958337,-0.013526241,0.018366044,0.03465554,0.0324023,0.113718495,0.08290597,0.15152799,0.05195484,-0.12020346,-0.16276823,-0.2214984,0.077117376,0.12704507,0.24466458,0.010250072,-0.051735997,-0.12356288,-0.045981273,-0.24662285,-0.10411308,-0.0031310644,-0.062129904,0.03487516,0.07077152,0.049905427,-0.020580893,0.03536453,-0.035424553,-0.072336994,-0.014244736,0.12229291,0.15725967,0.13057938,-0.06587969,0.04636893,-0.26408827,-0.15762338,-0.18806489,0.11439876,0.14474677,0.012047931,0.10761111,0.16716918,-0.089720726,-0.06571195,-0.17533684,-0.18304607,-0.20010614,-0.006474198,-0.123102896,-0.049645353,-0.044036787,0.0029558735,0.037877746,0.020897511,0.04899309,0.19146071,-0.008621882,0.053300638,0.18093097,-0.05476423,-0.20129046,-0.2543952,-0.17480905,0.028511057,0.01752801,-0.051743243,0.03344527,-0.060307886,-0.009879649,0.08349396,-0.0582443,0.04895665,-0.04597549,-0.125056,-0.13781863,-0.06100336,0.015837766,-0.025181737,0.028963007,0.0761681,0.071638666,-0.02397338,0.015155029,-0.00062611286,0.10935438,0.15731099,-0.046799656,-0.14917171,0.025370358,-0.11646684,-0.035176594,0.006053656,0.03992054,-0.006195829,-0.18375589,-0.2443154,-0.18328732,-0.10889968,-0.13520984,-0.009440309,0.019832589,-0.07316696,-0.009075455,-0.055255592,-0.016754523,-0.0010775473,-0.036720283,0.060523678,-0.012466201,-0.05947406,0.022463746,0.033643935,0.11057171,0.013561759,-0.19447426,-0.20081423,-0.19967897,-0.044439297,0.038754754,0.02101273,0.13197225,-0.120557,-0.26511514,-0.36220625,-0.112228744,-0.0845784,-0.015309182,-0.087977305,0.04339458,0.0063805683,-0.07933801,-0.04628318,0.036372554,-0.05397939,0.04834552,-0.0023993333,0.0011160361,-0.045451563,0.111276,0.07292316,0.02696933,-0.08288339,-0.088238075,-0.1311612,-0.03640718,-0.038235117,0.08203897,-0.12908265,-0.04177079,-0.28996795,-0.30690536,-0.17459272,-0.04627122,-0.026366552,0.031149685,0.09571966,0.17490116,0.15768503,-0.044034198,0.020461604,-0.0014978936,0.03667471,0.07699396,0.029796673,0.0022623814,-0.0065470133,0.07980517,0.08429905,0.05610481,-0.05590979,-0.104630135,-0.15113379,0.01322018,-0.005561876,-0.11175837,-0.3878945,-0.07243483,-0.03535634,0.07132528,0.021877749,0.0717387,0.14026247,0.034512576,0.03463679,0.0700056,0.16593938,0.031146841,-0.019316753,-0.04303761,-0.19726843,-0.0657232,-0.0012468132,-0.01227178,0.037429564,-0.009006343,0.11236214,-0.009860063,0.0016158118,-0.14037347,-0.13224362,0.009585292,-0.0426172,-0.24182726,-0.103585936,0.10060987,0.13919717,0.29536697,0.10442001,0.16241798,0.0721012,0.0704841,0.04429177,0.1283093,0.17193551,0.038930807,-0.046779603,0.06587562,-0.025302626,-0.010806806,0.053709343,0.0054234825,0.028904118,-0.012679033,-0.028707186,0.05238791,0.06002514,-0.058897987,-0.14805858,0.018386994,-0.014779665,-0.11890538,0.13626744,0.22248007,0.11472932,0.2265489,0.11393171,0.15803573,-0.018851861,0.17340364,0.011160635,0.08579064,0.0655699,0.00007815251,0.00464915,0.010324815,-0.053890925,0.018527387,0.07053658,-0.026795395,-0.050456,-0.092951715,0.013063705,-0.04044248,-0.045768626,0.043339085,-0.10332917,0.0009299934,0.02571508,0.09011494,0.33281654,0.2061967,0.05046362,0.060688753,0.090253375,0.10448784,0.15220562,0.12955402,-0.096021004,-0.06683758,0.0063592023,-0.064921096,0.014248387,-0.04060346,0.0071747852,0.09706649,0.023074191,0.013751566,0.031439584,-0.04983681,0.07448128,-0.11980603,0.0007495007,0.023805661,-0.050404172,0.028178394,0.08638287,0.12113647,0.15064704,0.16870414,-0.048791498,-0.0011908931,-0.14014915,0.0071448996,-0.037158385,-0.042646967,0.0059640813,-0.021994013,-0.09217114,-0.03063828,0.0315457,0.025477862,-0.012089237,-0.0058103045,-0.01566624,-0.012942884,-0.012621575,-0.022824734,-0.0640744,-0.040486664,0.0044537773,-0.06749942,-0.0479337,0.16060795,0.05223824,0.0031475096,-0.030336112,-0.084752195,-0.072711386,0.052821137,0.03596979,-0.10076145,0.014469163,0.10629964,-0.018740188,-0.025164543,-0.076018296,-0.037569124,0.014911863,0.00013793894,-0.01567759,0.058638845,-0.032351427,-0.04626235,-0.03369676,-0.0928687,0.00925219,0.026685406,0.0112575395,-0.1944461,-0.14761613,-0.0071759303,0.16758887,0.116256446,0.10214762,0.06461979,0.12962194,0.06162686,-0.101177335,-0.124327116,-0.023847068,-0.027231159,0.0009838828,-0.055951733,0.0073063616,-0.02189022,0.04451612,-0.0058994065,0.035580426,-0.0012748239,-0.09925856,-0.00790997,-0.028739205,-0.01108055,-0.082919955,0.011236452,-0.07750694,-0.12349976,-0.08095033,0.056981064,0.062328935,0.19403425,0.17027518,0.06850524,0.038763106,0.009155435,-0.14311977,-0.055844914,-0.040790696,-0.10001345,-0.022071464,0.0075890785,0.051911328,0.018057209,0.01589969,0.025821026,-0.10869875,0.022838496,-0.04442134,0.053102005,0.034797695,0.02069146,-0.0037167857,-0.108947404,-0.0779762,-0.08046812,-0.020697914,-0.014799416,-0.056257505,-0.013214721,0.01425955,0.10475202,0.14085652,-0.030344056,-0.16347532,-0.12717599,-0.019508906,-0.034600623,0.045977745,-0.024488015,0.05180883,-0.002248611,-0.0020861304,0.042945746,0.0518862,-0.033226565,0.06669357,-0.0010402836,0.012405187,0.047192093,-0.09952742,-0.028858537,0.07573137,-0.022039298,-0.052365433,-0.13493526,-0.05030752,0.12079621,0.108546324,0.16707256,0.04383257,-0.017663376,0.06597708,-0.028536364,-0.0004596143,-0.021218851,-0.045596357,0.018705826,-0.04467168,-0.07580875,0.014523162,0.049189612,-0.052069746,-0.066155545,-0.026679736,0.025911443,0.0014433423,0.11509518,-0.13759232,0.055958763,0.034077805,0.0038385855,0.025132691,-0.06327965,-0.01955038,-0.023107298,-0.045484018,-0.08863857,-0.048259117,-0.06579605,0.07715946,0.1546079,0.04868484,-0.030590966,-0.06319012,0.0067665344,-0.09587041,-0.00094170554,-0.02474055,0.045296982,0.03594114,0.0028431043,0.028669868,0.02646969,0.03074429,0.012944185,-0.041719917,0.019711846,0.04353736,0.11942069,0.027361806,-0.12871747,-0.11681507,-0.13067177,-0.17513525,-0.19281007,-0.16963366,-0.17341359,-0.030392557,0.10543615,0.08107845,0.06619199,-0.010663372,0.040296227,-0.010366013,0.091463484,-0.100260556,0.014520283,0.00819534,0.009555791,-0.051417343,0.0478084,0.017199216,0.053518284,0.055426124,0.06891419,0.14162599,0.10475261,-0.014955023,0.0036470771,-0.04582496,0.006310859,-0.054881442,-0.051988486,-0.12853964,-0.057219617,-0.16839033,0.14807709,0.14648303,-0.012787852,-0.020544074,-0.016084926,-0.04795994,0.03968203,0.03578104,-0.018741759,-0.006889327,0.010912003,0.07926803,-0.03904338,-0.034534324,0.039064452,0.03451268,-0.009355533,0.06114114,0.035975248,0.017517881,-0.03146585,0.11389417,0.13588318,0.10221364,0.004767756,-0.15824896,-0.025560243,-0.04100529,-0.05568133,0.10074645,0.03783533,-0.08315232,0.15108223,0.02288109,-0.014345257,-0.005718922,0.035809707,-0.018703563,-0.02056965,-0.010697814,0.04280027,-0.07840393,0.04022623,0.04729771,0.010268397,0.079454176,0.071811296,0.11829964,0.011827098,0.10800864,0.05857304,0.15598063,0.053327724,0.06217849,0.09866637,-0.07709642,0.029852761,0.121650286,0.00035409728,-0.045037806,-0.010033265,0.010791539,0.02069711,0.044913772,-0.021554591,-0.035733204,0.12642974,0.04724913,0.027834794,-0.030564422,0.026450347,0.018926252,0.04620101,-0.017946774,-0.08290465,-0.0034985815,0.0048312573,0.032361735,0.08625291,-0.014541996,0.032087214,-0.0692231,0.007855946,0.019031044,0.048994802,-0.07072374,0.057622757,-0.04539753,0.0041713817,0.0000032746732,-0.018124571,0.033185557,0.037464965,0.02257163,-0.06808606,0.004771475,0.08523429,-0.0071884175,-0.07243165,-0.028177237,-0.010568448,0.07264385,-0.013121377,-0.11706358,-0.040459443,-0.016629316,0.0034109699,0.032295413,-0.021726822,-0.06947466,-0.060236335,-0.026014643,-0.01285409,-0.018903224,0.0041632405,-0.024468264,-0.038894013,0.018490896,-0.07684646,-0.12546556,0.11261569,-0.0040262896,0.06406506,-0.015122661,-0.03747922,-0.068528004,-0.0061777504,0.017728088,-0.1427297,0.0233906,-0.028395573,0.04798315,-0.015192599,-0.0035908006,0.039009746,0.0024133553,-0.07325042,-0.054983202,-0.04241655,-0.06769449,-0.010322532,-0.01590141,-0.0039019408,0.018697657,-0.021653209,0.014830215,-0.0025004635,-0.005292934,-0.05264121,0.03586691,0.04907985,-0.0543712,-0.005418595,-0.044470534,-0.06678052,-0.019866398,-0.08372643,0.046770763,-0.042708963,0.012577796,-0.03294949,-0.07446866,-0.0701222,-0.015412753,-0.02312687,-0.033237416,-0.12041423,-0.09303798,-0.01613827,0.030193018,-0.01596266,0.028393244,0.020201953,0.007941289,0.0042622867,0.036595404,-0.011719471,0.067938544,-0.0093106665,-0.009470102,0.04836074,0.051833488,0.036243822,0.019716458,0.025654329,-0.13288859,-0.004266634,0.019344505,0.09208556,-0.011208516,-0.05811333,-0.10604726,-0.17782052,-0.088846356,-0.04656859,-0.060221437,0.007045142,-0.016922679,-0.11122554,-0.011979733,-0.042619966,0.04309711,-0.014093333,0.101998575,0.009196249,-0.004967509,0.049365845,-0.11551576,0.09527012,-0.10347713,0.03814029,-0.00949724,-0.013198561,-0.06475462,-0.027834835,0.04936785,0.08307133,0.051987205,-0.07562598,-0.2551774,-0.29584712,-0.110879034,-0.088380635,-0.089021236,-0.081611454,-0.0347242,-0.10150956,-0.009313067,0.008374938,0.012141599,-0.090252526,-0.055552777,0.11965268,0.01580222,-0.003086568,0.021351846,-0.0022719018,0.052805576,0.015340165,-0.038877465,-0.012585784,0.00024966878,0.09223509,0.096659645,0.062159922,0.1670242,0.08040939,0.023398442,0.025544183,-0.18883577,-0.1940918,-0.119263306,-0.08985505,-0.031025136,-0.0034030117,0.1286366,-0.0051537505,0.037887275,-0.009453823,0.07479847,-0.016031554,0.009317542,0.04575665,0.032663416,-0.02066288,-0.0107891075,0.0603446,0.031093964,0.03689476,0.04182105,0.10705042,0.19621304,0.20020194,0.03984434,0.119345024,0.13600203,0.002175861,0.04137049,0.02709642,0.109072745,-0.0030904065,0.03093918,0.037383772,0.12380086,-0.016167916,0.026966756,-0.08251347,-0.08797682,0.016665159,-0.03748889,-0.0775011,0.035465036,0.006972377,-0.017159613,0.007091562,-0.025066167,0.071388505,0.11477615,0.05932957,0.17431433,0.089593776,0.06499698,0.0021479984,0.1315298,0.026053973,0.04880751,-0.046877734,-0.07331618,-0.050018936,-0.001941457,0.0075553926,0.119739175,0.055198435,-0.04424277,-0.07112493,0.0061353925,-0.050338052,-0.06498257,0.055700034,0.05518562,-0.08334063,-0.010376722,0.015248146,-0.060915347,0.082446,-0.06537828,0.044932738,0.11893003,0.15769619,0.054163907,0.22898914,0.24495465,0.21142434,0.053347837,-0.043930326,-0.09425533,-0.2173429,-0.050854716,0.049328018,-0.028491797,0.13354935,0.06641125,0.010997026,-0.011322758,-0.069570825,0.056211673,0.0017997646,0.017476883,0.020982152,-0.040030383,-0.057427388,0.13196695,-0.008618439,-0.019435322,-0.030220024,0.05405361,0.07525032,0.12996979,0.27681252,0.21007825,0.057751596,0.21681935,0.08778114,-0.10931157,-0.26513845,-0.059622653,0.12223194,0.18827146,0.1912125,0.10669682,0.032259088,-0.016846545,0.067484885,0.07419412,-0.04159593,-0.024819342,-0.07461104,0.054072797,-0.01887483,0.021330936,0.0154264355,-0.00005977558,0.017308034,0.029182209,-0.0021545333,0.024428094,0.027900117,0.02237886,0.04417146,0.13296807,-0.04489538,-0.1040719,-0.049551863,-0.15896328,-0.039205775,0.090931445,-0.017862428,0.071319975,0.029641464,-0.08711614,0.042676702,0.047665827,-0.017343013,0.03052937,-0.021921348,0.034552265,0.01812867,0.16574068,-0.10417616,-0.048939455,0.035566885,-0.04097173,-0.11475925,-0.11847877,-0.064940095,-0.05124797,0.0774988,0.15019229,-0.056861285,-0.09960411,-0.03393759,-0.000111607595,0.063545294,0.061390776,0.085283905,-0.012355439,0.092746176,0.118794166,0.014733202,0.009213293,0.045453105,-0.013459804,0.044254865,0.010400815,-0.039390236,0.075637445,-0.13450909,-0.14591317,-0.02486884,-0.15246844,-0.10381839,-0.14754418,-0.1424829,0.022430532,0.024749858,0.033207253,0.010137734,0.15059988,0.012037214,-0.014459174,0.015056435,0.030285345,0.040409096,-0.088463694,0.039806522,-0.00732966,-0.046124477,0.043988146,0.03791084,0.04225655,-0.033733334,-0.003673203,0.070932776,-0.009722652,-0.12357743,-0.077210285,-0.08314502,-0.21783422,-0.056983463,0.06298234,-0.07826626,-0.05997454,0.027684633,0.048812486,-0.038104706,0.08444273,-0.10018638,-0.032697033,0.05061508,0.04911511,0.07084409,-0.0004979675,-0.07887861,0.0058349813,0.036584865,-0.056566224,0.051293965,0.035837233,-0.0008345755,-0.016360756,0.0072803833,-0.10947232,-0.067645,-0.05411732,-0.14223392,-0.10837154,0.15071827,0.07949901,0.049840152,-0.10856179,-0.10533275,0.014987183,-0.17494802,-0.05667043,0.0032824608,0.12561506,-0.049015846,-0.088843875,-0.08428005,-0.065035485,-0.0043676076,0.095141806,0.07417456,0.024425171,-0.022077722,-0.01183575,0.054115146,0.017021734,-0.024282953,-0.0058506527,-0.092449896,-0.09191272,-0.07088423,-0.014455644,0.11680548,0.043467138,-0.02510631,-0.061633103,-0.087471545,-0.032068428,0.013921544,0.0760667,0.13371179,0.12197799,0.017719198,0.0032925284,-0.05001587,-0.094355494,-0.040818762,-0.06819305,0.041394863,0.05378783,-0.076298036,-0.058363006,0.016931262,-0.024037143,0.021305682,0.04085411,-0.108392574,-0.03874129,0.034756623,0.10314334,0.045597915,-0.027655806,-0.03672657,-0.105034575,-0.0175455,0.1195944,0.06693961,0.04158819,0.020575933,0.028767833,-0.008563702,0.008607126,0.043853167,0.016692363,-0.018930383,0.06726017,0.10099788,0.061374865,0.017509492,-0.05211024,-0.0021180182,-0.048178677,-0.08796776,-0.0017490532,-0.109903395,-0.08143986,0.10167588,0.022374153,-0.13844353,-0.033367995,-0.053495392,0.14332078,0.05651616,0.02828365,-0.04122879,0.077361934,-0.03129914,0.0019693403,0.072829254,0.17695053,0.03642877,-0.07747236,-0.11663476,-0.05325081,0.07721837,0.026290372,0.025945583,0.02706498,0.036546517,-0.02556603,0.006155433,0.048898276,-0.043559905,0.08896067,-0.034386694,-0.12087237,-0.01713007,0.08645022,0.009926644,0.023407396,0.053695604,-0.037570633,-0.03770076,-0.0039905026,-0.024033481,0.02844903,-0.062210575,-0.049108975,-0.06983601,-0.07020533,-0.006222077,0.07161238,-0.030235106,0.026345044,0.033413656,0.024190674,-0.08069202,0.03366347,0.09838278,-0.0736368,-0.08426123,0.041939236,0.015627552,0.00027996805,-0.008257049,-0.027703485,0.063746214,0.12728944,-0.09640252,0.0220934,-0.03491477,0.033709027,-0.04365595,-0.019835515,0.019547777,-0.017084097,0.02076976,0.06528937,-0.071492836,0.029811712,-0.010121444,-0.035174653,0.017851105,-0.07819852,-0.012410966,-0.04563873,-0.06358872,-0.040295918,-0.029087825,0.15299462,0.09416112,-0.007967918,0.0058783386,0.060693767,0.09446545,-0.01034268,-0.0036210017,0.013628757,-0.10490622,-0.025961738,-0.13950497,-0.030589169,0.022729969,0.018348929,-0.06501449,-0.0108139515,0.053362686,-0.0022525655,0.063963845,-0.100151874,0.10805356,0.0028423958,-0.10854822,0.12955049,0.050087433,-0.034650046,0.08103931,0.03892469,0.005595558,-0.032373227,0.039394323,0.09926544,-0.123796545,-0.10270219,-0.06702527,-0.051749326,-0.047024652,-0.038923018,-0.038768794,-0.036413226,-0.042313322,-0.056474853,0.09188309,0.011965158,0.059017617,0.017882317,-0.078219995,0.007517665,0.0006984069,0.012133846,-0.0065594884,0.0628476,0.019254932,0.035564408,0.030850198,0.026363239,0.016476287,0.047101688,0.046498295,0.10404752,-0.029410517,-0.15215117,-0.1042867,-0.048922606,-0.074818194,-0.065301165,-0.025729667,-0.07397959,-0.1444597,0.039051995,-0.036082935,-0.01590985,-0.058604077,-0.0688247,0.0032848301,0.040405806,0.01665899,-0.072709255,0.04477252,-0.07754674,-0.0072426503,0.075449824,-0.025825804,-0.014237075,0.04261941,-0.08332018,0.037187394,0.027726643,0.03893633,-0.031612758,-0.056930315,-0.049934547,-0.06577994,-0.08561396,0.08313573,-0.034132652,0.13310894,0.048589956,0.10574953,-0.024024364,0.060662266,-0.02916805,0.07051211,0.10689516,-0.05771587,0.011870225,-0.025754625,-0.061672702,0.055218883,0.07493002,-0.081085294,0.0022187892,0.005436039,-0.16098449,-0.09748584,-0.0061153877,-0.005903713,0.11458132,-0.106018506,0.0028362365,-0.0631047,-0.080468506,-0.023407891,0.03515106,0.0233851,-0.021058338,-0.002116188,-0.037516974,0.100448355,0.025037995,-0.07565969,0.028509922,0.08001817,0.02013544,0.035954993,0.07905806,-0.066681534,0.09970507,0.00026979667,0.014634968,-0.033849232,0.023888672,-0.007782857,0.015642162,0.00691508,-0.066624194,0.069743745,0.08627486,0.032721687,0.0041655367,0.06035306,0.005563895,0.04585841,0.0011279607,-0.063886754,-0.06729141,-0.028796107,-0.015300781,-0.03327048,-0.05282052,0.053944442,0.024493452,-0.009781263,0.043701503,0.04950163,0.037805736,0.078166805,0.04396042,0.02549413,0.096009396,0.07232776,-0.0038798915,0.053228326,0.058363542,0.08249365,-0.009707512,0.021251112,-0.013335606,0.039879933,0.03957483,-0.0028129413,0.071344726,-0.03354668,-0.0534533,0.011527931,0.015993215,0.10100208,0.017669834,-0.034689933,0.050302286,0.03107248,-0.037974842,-0.011946961,-0.018401762,-0.06170238,-0.0109817125,0.065928884,0.043850593,-0.024230666,-0.054143842,-0.052091014,-0.0010866228,-0.06259217,-0.0000847626,0.026683178,-0.013179449,-0.0016421528,0.008467113,-0.028427133,0.04711723,-0.04384238,0.05501377,0.03470235,-0.031565875,0.008547853,-0.022578198,0.012739883,-0.05776709,0.06696373,0.11046658,0.06658545,-0.032125123,-0.00021769703,0.010162244,0.07386385,0.0015862227,-0.038340405,0.03950438,-0.03528303,-0.053770866,0.031432096,0.048815887,0.009635964,-0.07116087,-0.037708353,-0.12935165,-0.042442594,-0.021651728,0.11758587,-0.02393991,-0.034866385,0.005638698,-0.027246146,-0.05474043,-0.13230063,0.098199755,-0.0067615258,-0.0035681736,-0.06048872,0.057210576,0.00015047268,-0.07058749,-0.002708479,-0.053781353,-0.032594405,-0.01628654,-0.02092434,0.014945477,-0.036076013,0.046129543,-0.029469203,0.007165121,0.06478215,-0.031550795,-0.0047279038,-0.033285707,-0.0375125,-0.04782083,-0.051693086,0.023225073,-0.04035952,-0.00079325185,-0.097943746,-0.005468365,0.03344744,-0.0018164129,-0.05075052,0.029515143,-0.0048307353,-0.014310827,-0.103513986,0.0005005107,-0.0642553,-0.019970452,-0.0015253578,0.012913567,0.006500073,-0.038954284,0.02321672,0.027705923,0.044919442,0.030137539,0.060331903,0.052993134,0.034389753,0.06392252,0.010191722,-0.02121138,0.00061110494,0.08331821,-0.048308987,0.006509887,0.0022612244,-0.008094799,-0.053109284,0.013753911,-0.04922088,0.033751234,-0.013645738,-0.09007895,-0.026167715,-0.11800782,-0.06494569,-0.068762295,-0.062189028,-0.06620756,-0.058957305,-0.090251036,0.07876293,-0.010934909,-0.03127305,-0.14806984,-0.020425314,0.042663954,-0.06261672,0.065436244,-0.07222448,-0.015198613,0.037485857,-0.025998587,-0.095285274,-0.033826873,0.04311666,0.08578287,0.029411146,0.06270117,0.058820836,-0.12315478,-0.06662303,-0.060091607,-0.020809367,-0.04692569,-0.059922833,-0.039825737,0.011490862,0.12813625,-0.06870118,-0.15360437,-0.11510304,0.030721778,0.009580744,0.029645469,0.014992797,-0.056768645,0.04918052,0.042924218,0.11383941,-0.07350414,0.04532988,0.069065705,0.013810976,0.072820514,-0.09043488,-0.06595467,-0.04886041,-0.0052420762,-0.055262994,-0.049516343,0.017725559,0.0011773484,0.005462399,-0.056016818,-0.007933146,-0.14521265,-0.04698339,-0.079679266,-0.07862383,-0.057989113,-0.013040193,0.03397609,0.0015983329,-0.21547149,-0.050538972,-0.027463252,0.035802145,0.022236196,0.024310373,0.03589747,-0.024470346,-0.05512906,0.05606997,0.025547571,-0.0315886,0.0021726165,0.07927764,0.039214913,-0.0911307,-0.038359154,-0.025443498,-0.028178634,-0.04631737,-0.055194892,-0.032576345,-0.058776945,-0.09047182,0.023063824,0.09959118,0.0046441886,0.014636427,-0.00089366565,0.07613306,-0.021805342,-0.06960174,0.0034810053,0.13732454,-0.024210071,-0.029574504,-0.107800566,-0.0889027,-0.11584727,-0.050642986,0.15227443,0.021617815,0.07071439,-0.07736867,0.0075384355,0.08481389,-0.040134218,0.01104389,-0.046797078,0.040783547,-0.047122672,0.043382924,0.07406317,0.053390868,0.11257742,-0.052253086,-0.015915222,0.025483888,0.055530116,0.06700226,-0.017997181,-0.01745335,0.0130022755,0.0074081244,-0.07524196,-0.06432284,-0.038887978,-0.005910398,0.0689575,-0.15288524,-0.048432577,-0.004014537,-0.08319969,-0.006535189,-0.11941717,-0.07775966,-0.050238363,-0.0009708354,-0.008721791,0.04341949,0.04638039,0.144344,0.13574474,0.087667316,0.046513077,-0.044340845,0.06836281,0.04530927,-0.040906087,-0.028485605,-0.04583656,-0.028706314,-0.04069583,-0.14189471,-0.07806412,-0.0581772,-0.09425642,-0.08920012,-0.029346487,0.0031727026,0.0529188,0.031603195,0.018632945,-0.17101297,0.008628805,0.08892089,0.005020999,0.02162386,-0.04770848,0.086796604,-0.05602434,0.036921196,0.008328704,-0.055013377,-0.03286162,0.009845353,-0.05700102,-0.037016653,-0.029746614,-0.04915599,-0.0931961,-0.00049805164,0.079351924,-0.1636841,-0.08906976,0.01731482,0.15868114,0.023891475,-0.044351444,-0.022025017,-0.03755175,-0.10793641,-0.045546472,0.020791823,-0.074919865,-0.01069637,0.011308799,-0.01750374,-0.06508315,0.21254806,0.09123127,0.03654722,-0.006555466,0.032784462,-0.059752427,-0.000257537,-0.014453473,0.028348856,-0.15070792,0.04110194,-0.057434987,0.00091774145,-0.009310028,0.08150222,0.12035832,-0.048095047,-0.030884162,-0.016794078,0.020137371,0.1098488,0.1322057,0.029347286,0.07150437,0.11679094,0.022206265,0.07888942,0.097079106,0.2276336,0.12525758,-0.048756555,-0.020267343,0.09733519,0.06391968,-0.0033548812,0.014474318,-0.057713285,-0.12293231,0.003630534,-0.10753802,0.059345968,0.038960673,-0.016293976,0.08061337,-0.093085,0.05877279,0.15601186,0.1329595,-0.026380172,0.0858694,-0.013375447,-0.09550696,0.05039944,-0.040392097,0.073964536,-0.1278075,-0.13508646,-0.04133138,0.0336946,-0.04394859,0.02903756,-0.06919178,-0.072824374,-0.110199094,-0.0781229,-0.05108719,0.018129094,0.023287622,0.012554795,0.0039007394,0.113102615,-0.05663119,0.09412386,0.20456848,-0.00033205305,-0.063847475,-0.17406756,0.042372543,0.002408169,0.039288532,0.013521842,-0.062922426,-0.124423005,0.032538414,-0.05062091,0.03061456,-0.054642506,-0.038786035,-0.049587786,-0.003851997,0.11778672,-0.03398758,0.10219429,0.084379345,0.096713796,0.021329656,0.2394126,0.13952439,0.06967375,0.013495181,0.15299328,0.08571865,-0.09582024,0.04734501,0.12708509,0.076062664,-0.0032575757,-0.0011868579,-0.027642569,-0.07687278,-0.034656063,-0.042640083,0.13389996,-0.053406343,0.05117231,-0.014179864,-0.098267674,0.030775877,-0.001961282,0.008596445,0.047704887,0.06000538,