{"version":1,"layers":[{"Relu":[784,128]},{"Softmax":[128,10]}],"seed":"3319589886","error_function_type":"CrossEntropy","meta_data":{"accuracy":0.9807,"error":0.012350358,"epochs":10,"duration":{"secs":286,"nanos":107796625}},"weights":[{"v":1,"dim":[128,784],"data":[-0.025031425,-0.007552794,0.023947563,0.12476552,-0.0635145,-0.06376376,0.062583804,0.02382724,0.08045597,-0.0017186835,0.04981727,0.07071222,-0.031801432,0.020914657,0.113984734,-0.046948433,0.025518183,0.015526079,-0.019476289,0.041316938,-0.021870801,0.082120866,0.07207965,0.015805298,-0.07247303,-0.022382,-0.0029832523,0.032952063,-0.059869323,-0.06055101,-0.036762778,-0.1001842,-0.045703135,0.00706867,0.02129504,0.012972203,0.0024018167,0.06663924,-0.051828813,-0.008499132,0.0038595998,0.032566417,-0.06791893,0.0547269,-0.082803436,0.005963007,0.039331123,-0.06977159,0.017792257,0.053145323,-0.12340225,-0.0397175,0.07247146,0.062004555,0.07983036,0.07412688,0.004891927,0.016679931,-0.030320967,0.012125244,-0.07065857,-0.10154289,-0.0001432615,0.02629623,0.0051015867,0.05683374,0.08142166,0.009886732,-0.11108771,0.10526254,0.0029578058,-0.017011877,0.05463806,-0.0057186163,-0.036752675,0.03339406,0.057858,-0.018170573,-0.010925281,-0.03401186,-0.009738728,-0.07001237,-0.0019109701,-0.06296118,0.024302403,-0.038741805,0.02833133,0.08513163,-0.07135636,-0.06733606,0.0770846,-0.020962724,-0.05488302,0.042136285,-0.014845466,-0.012393723,-0.02145538,-0.099019006,-0.048121125,0.049739424,0.09166295,0.07929659,-0.011274419,0.032208465,-0.00036405923,-0.021009468,-0.07842817,0.004012716,-0.017987365,0.0036285084,0.03393498,-0.002399529,-0.015937181,0.006739258,-0.039250433,-0.0068550603,0.033434138,0.01976797,-0.049482793,-0.04177373,-0.06162402,-0.0070279464,-0.010089277,0.06874133,0.16297603,0.18889104,0.20774226,0.06490234,0.16184367,0.114970356,0.17935945,0.10659101,0.06654359,-0.10177276,0.017761577,0.03196598,0.05421258,0.0546183,-0.018343624,0.08929011,0.05235977,0.054163832,0.07946963,0.01310021,0.031158341,0.015694994,-0.06039192,-0.027227774,-0.13471419,-0.06895575,-0.021438366,0.10987267,0.06687012,-0.007839805,-0.102088,-0.040733345,-0.06089543,-0.03669208,0.060059708,0.08543664,0.044616345,0.10478312,0.098622814,-0.038528338,-0.047103293,-0.02071155,0.012660844,-0.035873163,0.056619626,0.020640276,-0.034696296,-0.0010916915,-0.023483133,-0.019994866,-0.09001161,-0.12959628,-0.03308667,-0.08610479,-0.14797877,0.052770354,0.055641044,-0.070283286,-0.022101436,-0.020780185,0.13267763,0.10298451,-0.06506905,-0.0039319173,0.034579236,-0.03770359,0.09273567,-0.009757559,-0.0168331,0.02414757,0.14681101,-0.05813804,-0.026400281,-0.094165415,0.052021116,0.04723656,-0.005189566,-0.07855689,-0.22130714,-0.077429615,-0.059444096,-0.20764083,-0.010773787,0.017300256,-0.016662,-0.0014739077,0.04082526,0.02918715,0.06106191,-0.0914158,-0.051418193,-0.047254793,-0.08175969,0.07241179,0.087535344,-0.02587696,-0.040583253,0.10210543,-0.032679282,-0.013068841,-0.06627742,0.11720593,-0.02785405,0.021884864,-0.03382285,-0.08962928,-0.085167535,-0.07045766,-0.01490914,-0.023231316,0.045457613,0.07482587,-0.113806635,-0.08519146,0.0672666,-0.07902229,-0.119071335,0.06694444,-0.0381771,-0.034986738,-0.029258685,-0.036248837,-0.005688319,0.04164212,0.12542802,-0.14631933,0.015548008,-0.05109046,-0.045707338,-0.0018124152,0.051017232,-0.051351007,-0.009281806,-0.15770309,0.0051970514,0.06760356,0.1396624,0.039847095,0.18802711,-0.0022380392,-0.12964517,-0.058596823,-0.09876196,-0.029565033,-0.060385372,-0.05763694,-0.11229072,-0.25770888,-0.053831313,-0.023227545,0.13952895,0.109911114,-0.083163045,-0.0448004,0.06622897,0.011126654,-0.0017754076,0.04858309,-0.0065508913,-0.04774342,-0.036824573,0.030203864,-0.026710182,0.00024266657,0.06579326,0.04129359,0.019559305,-0.13301532,-0.29958135,-0.18104078,-0.012635137,0.009782635,-0.17563783,-0.12042113,-0.11118706,-0.091350146,-0.016296929,0.005886198,-0.029707495,-0.10548303,-0.009210895,-0.05000773,0.0013501887,-0.14074634,-0.004922793,-0.002121669,-0.0013158852,-0.0025453595,-0.029003087,-0.0009516221,-0.039498083,-0.013832535,-0.007021046,-0.01020159,-0.16550303,-0.15462181,-0.2519248,-0.12043554,0.0135221025,0.011733647,-0.14121516,-0.21894945,-0.34707558,-0.17992862,-0.045331467,-0.06865671,-0.06301799,-0.07083768,-0.006153769,0.0011764118,-0.098144926,-0.031139852,0.048329026,-0.06541723,-0.0596922,0.09715771,-0.012641714,0.04197306,0.037828468,-0.107268594,-0.002471464,-0.022161804,-0.13068265,-0.1876362,-0.15657082,-0.21258955,0.043217093,-0.08533417,-0.013239731,-0.15514937,-0.118173845,-0.12387887,-0.047842983,-0.09982031,-0.016597895,-0.09265522,-0.08182709,-0.0009819646,-0.0035020094,-0.06904684,0.0067096227,-0.022326544,0.12919068,0.0059968787,0.052697357,-0.08762917,-0.01470064,0.005178521,-0.081905544,-0.10365552,-0.039648734,-0.007780834,-0.079025514,-0.067542166,-0.005555011,-0.04949287,-0.11911259,-0.092291944,-0.083372444,-0.13660425,-0.102903366,-0.071888305,-0.1130599,-0.0023799366,-0.08212332,-0.045602933,-0.03914266,-0.015728472,0.05108456,-0.022597095,-0.03778354,-0.001674916,-0.012269365,-0.04255714,-0.11842952,-0.11334678,-0.12254441,-0.09580516,-0.022824133,0.03907101,0.019505242,-0.1116493,0.06384448,0.07396763,0.11196946,-0.042830385,0.0044246106,-0.08263621,-0.14542633,-0.17639346,-0.051083762,-0.09640188,0.021343727,-0.09818839,-0.039241675,-0.048463866,-0.013268898,0.019317327,0.013437403,-0.109141864,-0.08315783,-0.106393814,-0.14077692,-0.18945049,-0.041092575,0.049374886,-0.016231416,0.111205555,-0.058954235,0.07521347,0.035202555,0.040595904,-0.10280945,-0.15558228,-0.23478115,-0.15002933,-0.08078227,-0.1484383,-0.09884113,-0.18879324,-0.079235524,0.020754226,-0.038345873,-0.05152491,0.07497691,0.037814043,-0.093714744,0.029995577,-0.0617164,-0.13877237,-0.07975732,-0.052548412,-0.06290502,0.08583526,0.10237872,-0.05095443,0.09272318,0.21055987,0.08191469,-0.034809005,-0.17925172,-0.27605087,-0.3685667,-0.20716657,-0.23884284,-0.0378492,-0.043681286,-0.057503205,-0.14937982,0.057983194,-0.0376763,0.054484613,-0.04362951,-0.0990045,0.0018626094,0.0099273,-0.02475934,-0.010486376,0.00036607668,-0.0072175004,-0.11611633,0.009531568,0.0032468382,0.041188918,0.10907759,0.09049714,0.18380877,-0.10064682,-0.13813241,-0.32017192,-0.37130755,-0.20449217,-0.07041707,-0.04036065,-0.044274513,-0.21602912,-0.0043983595,0.027463567,-0.016703032,-0.009194767,-0.06224027,0.09739405,0.040145643,-0.058712326,0.05884268,-0.102119125,-0.02304568,0.055593576,0.15731671,0.04713685,0.08276981,0.1673839,0.20393786,0.08742406,0.075300045,-0.30390576,-0.38534313,-0.20948432,-0.26972377,-0.23028879,-0.023970116,-0.006193299,-0.048775967,-0.032492537,0.023948036,0.103558876,-0.022815097,0.13007644,-0.047839977,-0.007150077,-0.08611809,0.033863414,0.04072856,0.09831272,0.122649156,0.20046563,0.06608905,0.07320214,0.07842833,0.118019834,0.13364875,0.25182936,0.0050168848,-0.14068222,-0.05548587,-0.07749252,-0.03832579,-0.09663052,0.08972255,0.111460194,-0.09021648,-0.029835137,-0.05076425,0.037568912,-0.04040837,0.007735422,-0.01019556,0.048506856,-0.011822974,0.14241771,0.04723196,0.07888319,0.043812986,0.07315673,0.09275968,0.015828466,-0.021340257,0.15122111,0.19891556,0.105138674,0.14815396,0.17395175,0.23953056,0.16368717,0.018222546,0.09736437,0.059380397,0.06638864,0.11853079,0.08668597,0.11639935,-0.013505155,-0.09104391,0.022722205,0.12674673,-0.007312052,-0.017993018,0.059273735,-0.0028187633,0.1477997,0.09732881,0.06781978,0.039125767,-0.011297555,-0.11276694,0.034177862,0.14093602,0.09955101,0.088503115,0.121100016,0.15352304,0.26635703,0.2206199,0.17324287,0.22287449,0.21453983,0.11600009,0.07316617,0.017790308,0.013895663,0.022629669,0.12915795,0.09548472,0.022067983,0.02010547,0.0050531034,0.08658905,0.15430753,0.09488785,0.12055817,0.028772386,0.038445417,-0.053863987,0.07957888,-0.010459073,0.034119356,0.052795127,-0.037245303,0.060711794,0.08986516,0.16398342,0.22852859,0.20475452,0.19818424,0.09729312,0.07197025,0.072147794,0.030830875,0.10671073,-0.03414832,0.014005365,-0.04453557,-0.009215781,0.034581766,-0.04191151,-0.0038828154,-0.010283221,-0.06273627,-0.09235223,-0.09108107,-0.07101011,-0.05574729,0.005800714,-0.12781586,-0.03678156,0.05387364,-0.057674002,-0.068816155,0.09906317,0.071860366,0.115205556,0.061779927,0.04779732,0.06685548,0.008479256,0.08075635,-0.06440544,-0.046750758,0.07467841,0.038819887,0.048510317,-0.022086471,-0.016744353,-0.06887645,-0.072772205,-0.1579516,-0.14737955,-0.15759204,-0.19017035,-0.14151189,-0.13819815,-0.21114625,-0.10343628,-0.033230145,-0.085468784,0.018731315,-0.069448635,0.04572775,0.07539708,-0.02017498,0.06994784,0.029118016,-0.027481955,0.0044954545,0.0151957,-0.0064256685,-0.02703223,0.059536397,0.08750418,-0.061675508,-0.031963013,0.036066122,-0.03416401,-0.10427054,-0.08168215,-0.115683936,-0.107137255,-0.07360559,-0.052688204,0.15843053,-0.07110253,-0.1057193,-0.033435624,0.00890912,-0.06458009,-0.098080516,0.10979534,0.045698944,0.025578694,-0.089408666,-0.034481253,0.00011603048,-0.041888244,-0.00054142094,-0.015922606,-0.035650045,0.04632772,-0.05682226,0.008997559,-0.0067982483,-0.01995816,-0.0034607502,0.021792805,0.03139015,-0.015333872,-0.024552096,0.046218757,-0.07985834,-0.074823104,-0.04388173,-0.057546616,0.01945502,-0.017878028,-0.07186447,-0.03527453,-0.04877184,-0.059849177,-0.089609735,0.030929001,-0.041227806,0.0043997276,-0.0218068,0.0016073363,-0.036714815,0.085670725,0.034264565,-0.039079856,0.067655675,-0.16864836,0.043329846,-0.0049279807,-0.06350301,0.021552708,0.009131936,-0.07325073,0.040748596,0.036667097,-0.007467821,0.025505235,0.034938466,-0.017464744,0.020709319,0.015603919,-0.070886046,-0.086994894,-0.021432528,-0.09997493,-0.08285752,0.0054826066,0.052084174,-0.0064102453,0.030367726,-0.018644657,0.02841314,0.029884389,-0.009306211,-0.012428411,0.08736722,0.027043765,-0.009167592,0.0064787893,0.029270405,0.0383175,-0.061734144,0.03137692,-0.07058243,-0.11087562,-0.026000666,-0.03013443,0.015728386,0.0035852457,0.015621001,0.12755054,-0.09041363,0.012191731,0.05264591,-0.07229764,0.0129790995,0.036136672,-0.019426856,0.059481118,-0.028077837,-0.022212459,0.05626189,-0.032353412,0.007541011,0.043545354,0.05744732,-0.023959873,-0.01862998,0.074234806,-0.0012093226,0.03181731,0.03688809,-0.0018433463,-0.007813075,-0.0009909354,0.049687997,0.027991699,-0.08786777,0.050737407,-0.056838542,-0.009810754,-0.051816113,-0.010670655,0.0022123011,-0.043830846,0.022862567,0.05734089,-0.10240424,-0.011683041,-0.08804287,0.035158254,0.011766694,0.050410647,-0.012122437,0.019638885,0.0074759205,0.036122702,-0.00393222,0.025843836,-0.056034807,0.053051557,-0.08407518,0.06280425,0.055351064,0.03563152,0.01345964,0.01907763,-0.022537446,0.09947083,0.002223522,-0.027504986,0.05436278,-0.08133367,-0.012184459,0.1134852,-0.017885767,-0.0009634008,0.020322204,-0.031780064,-0.030236319,0.0290577,-0.023953063,0.04022425,-0.030348994,0.03570824,-0.0855188,-0.009972521,0.0340017,0.0014803937,0.08645676,0.03330717,0.120928735,0.041874193,0.08466082,-0.06470377,-0.02131585,0.033809215,0.0006993433,-0.09059216,0.0054337345,-0.04762233,-0.08164228,0.0016416395,0.04865359,-0.060151834,0.035105478,-0.06456759,0.015907113,0.024942843,-0.050786406,-0.12759227,-0.022500493,-0.04613401,-0.07013972,0.056285914,-0.020386208,-0.08391958,-0.043811753,-0.03513035,-0.07035196,-0.02804893,-0.013620996,-0.0039622984,0.06983863,0.095667,0.055746417,-0.0011290894,0.03791259,-0.039158348,-0.025805535,0.035186864,-0.06753528,0.050763804,0.0712696,0.098775685,-0.063943654,0.06002338,0.045465507,-0.12786599,0.042896647,0.14779456,0.23592481,0.18061957,0.041499183,-0.08405891,-0.12995619,-0.16342565,-0.119767494,-0.019358661,-0.0035868576,0.041972402,-0.084927715,0.12251156,0.050635494,-0.00021067241,0.06271177,0.16248313,-0.009643224,-0.0043232804,0.03629513,0.001911071,-0.030868912,0.018849507,-0.035235934,-0.03084159,-0.1051932,0.13209744,0.0581311,0.22729175,0.19695362,0.12594943,0.25235316,0.18053286,0.014849146,0.14123344,0.12809272,0.2308142,0.061716937,0.054572906,0.065904506,-0.0006328442,0.09709093,0.015587594,0.028543044,0.0017724095,0.033817634,0.0130890235,-0.05308979,-0.05711041,-0.06650195,-0.0062289154,-0.10696807,-0.05049973,0.017229741,-0.052701,0.023658143,0.002048946,-0.018572113,-0.040208615,0.14494754,0.23567936,0.27259746,0.33509523,0.20066176,0.23361267,0.13766158,0.10154491,0.06345338,0.032293387,-0.0643658,-0.061428282,-0.02774226,-0.08146955,-0.0020555241,0.08049305,0.052600864,-0.009392748,0.017532982,-0.14260995,-0.094973736,-0.08937653,0.0074752425,-0.045891438,0.07731575,-0.21874397,-0.1563656,-0.05245796,0.012230286,0.13156636,0.09613041,0.17911313,-0.030998815,0.12650654,0.07870131,0.016987644,-0.015337916,0.07533191,-0.0916303,0.004332956,0.034581807,0.019252913,-0.020991936,-0.096481256,-0.006764276,-0.1607427,-0.07076485,-0.05481995,-0.05407979,0.039545562,-0.015120947,-0.037610125,0.010667967,-0.1491831,-0.17462645,-0.051206917,-0.18774502,-0.20442352,-0.20745221,-0.2324834,-0.19640495,0.004694043,-0.0008187127,-0.03673964,-0.1924769,-0.08754198,-0.020173606,-0.032920923,-0.04551043,0.014978534,-0.008976523,-0.10123318,0.0021457213,-0.02324312,-0.042499036,-0.071566,-0.08251102,0.0021538099,0.13572681,-0.02970164,0.033724092,-0.06225965,0.06504063,-0.12655623,-0.20735848,-0.27980164,-0.3072852,-0.29987144,-0.15410343,-0.22801383,-0.21171935,-0.30247307,-0.054210734,0.025848432,-0.05564739,0.001889926,0.0032474326,-0.036408965,-0.039768305,-0.046843667,-0.043765128,0.03671995,-0.06233804,-0.017589957,-0.097390875,-0.03157361,0.128788,0.06352335,0.0019066165,0.062349517,0.04284024,-0.042111903,-0.19304737,-0.19186403,-0.15523504,-0.1015231,-0.21486524,-0.18699805,-0.124338634,-0.037869167,-0.12567116,-0.089272395,0.05105405,0.07810753,-0.01219486,0.009028049,0.047967676,-0.069955334,0.006061053,-0.05105237,-0.06095665,-0.048712343,-0.13673961,0.035606354,0.038150065,0.014352927,-0.062024314,-0.10355725,-0.05313232,-0.123739995,-0.13264172,-0.13797697,-0.008223526,-0.06332015,-0.13364653,-0.055205442,-0.094422035,-0.042590547,-0.078503154,-0.092233196,0.030505184,-0.010545894,-0.012409244,0.06608129,0.040829655,0.0513292,0.045786414,-0.11395957,-0.037714794,-0.053753722,0.034146007,-0.034127917,-0.06933511,-0.033992168,-0.23236287,-0.2170358,-0.12283347,-0.11596269,0.049210615,0.01902721,-0.08643319,0.058154415,0.047537785,0.030442556,-0.021377096,-0.09466152,0.025740093,0.0036648521,0.041171066,0.03139109,0.0071468577,-0.025376113,-0.0074829683,0.057982802,0.008607501,-0.0564107,-0.13485804,-0.051576253,-0.031434827,-0.0182291,0.06370651,0.021058049,-0.13173497,-0.20405038,0.003048641,0.0576573,0.19516306,0.03472911,-0.09354054,0.06857904,0.12778097,0.015607625,-0.059587914,-0.056069728,-0.13832043,0.085753106,0.015591944,0.032924697,-0.017330598,-0.06694426,-0.04785165,-0.032417435,-0.006132997,-0.0076712673,-0.072393715,-0.082404375,0.06639459,-0.021258734,0.09273001,0.1049079,-0.16279924,-0.036636084,0.08600413,0.024821725,0.13566191,-0.016071556,-0.061034735,0.09873199,0.027683698,-0.026772484,-0.122262225,-0.042506322,-0.038582336,-0.058012135,-0.009714189,0.027098134,0.05482115,-0.03243486,-0.07351505,-0.03628242,-0.021048643,-0.019281704,-0.13996518,-0.06742135,-0.026821587,0.05475492,0.041825015,0.26243615,0.038379192,0.06508727,0.101845324,0.071348526,0.07167111,0.025159309,0.06997746,-0.070246436,-0.058941167,-0.062810466,-0.15103967,-0.03127551,-0.111414686,-0.010117612,-0.0065016258,-0.034161337,-0.08881154,-0.14931679,0.05017327,-0.03596601,-0.09689416,-0.044212326,-0.22813696,-0.07645233,0.0041820323,-0.029460091,0.16832022,0.19656102,0.11116955,0.13126618,0.030076055,-0.005854819,0.12442682,0.20116621,0.19644144,-0.07396931,-0.16381755,-0.09170077,-0.15475735,-0.10506811,-0.06966831,0.021949679,-0.007062693,0.025046479,-0.01072278,0.1092883,-0.054399364,0.12612396,-0.03649439,-0.041031078,-0.06636476,-0.08517723,0.010062614,-0.0072596273,0.0296284,0.19075212,0.13167188,0.07253418,0.10495271,0.08060276,0.096044466,0.1736882,0.114144936,-0.14468059,-0.03095539,-0.028954744,-0.2190404,-0.12496133,-0.08663197,-0.060846027,-0.04638638,-0.042874567,0.01491216,-0.07563875,0.10089145,0.012655027,-0.027817382,-0.029446993,-0.15538023,0.01324463,0.015568372,0.0101422155,-0.07169139,0.03901934,0.0068323077,0.17530143,0.074250266,0.026791494,-0.050175715,-0.056617226,-0.068531394,-0.008863806,0.11482511,0.04582836,-0.045073718,-0.07897071,-0.041812293,0.050143454,0.0015456267,-0.037266057,0.0971045,-0.020878688,0.117616735,-0.043247476,-0.011036597,-0.15005364,-0.017448891,-0.10908525,-0.015324435,0.058673143,-0.052379843,-0.13664757,-0.123682655,-0.13739501,0.03231987,-0.074071296,-0.028423978,-0.12688598,-0.023358352,-0.057204068,0.03730995,-0.18730396,-0.09017613,-0.07730928,0.03793489,0.038945,-0.0120345,0.0108612245,0.057081163,-0.08317078,-0.022854848,0.058513675,-0.0151759945,0.003714284,-0.17926991,-0.027094327,0.022103967,-0.027420394,-0.044464882,-0.07771423,-0.08786972,0.060700558,-0.041785095,0.075051144,-0.15996177,0.045861322,0.020574985,0.07862247,-0.0686417,-0.007630729,-0.06623173,0.041153625,-0.02882597,0.10174642,0.08556512,0.03112989,-0.05817468,0.024647009,0.05863786,-0.011017235,-0.0071056625,0.064366035,-0.03872056,-0.117208414,-0.07058599,0.092418194,-0.023392929,0.03757594,-0.070241615,0.034064073,0.016262773,0.10200838,-0.09702322,-0.053901874,-0.050154686,-0.03451807,-0.14370768,-0.07348081,-0.06625174,0.045056544,-0.026567623,0.098226376,0.079510935,0.044695053,0.048843272,-0.06244834,0.091434695,0.01996851,0.0457134,0.043110453,0.034980673,0.13774915,-0.0313028,0.06965496,-0.008875879,-0.12337178,-0.09766826,-0.18144532,-0.05613861,0.068140365,-0.085467406,0.0023954473,-0.0999805,-0.12987624,-0.012329831,0.13040756,-0.04160722,-0.09549655,0.0078021847,0.0790975,-0.014625688,0.043698817,-0.031762592,0.090731874,0.06604176,-0.026749996,0.032360177,0.038149346,0.19866894,0.01131963,0.036228508,-0.0260777,-0.006685565,-0.06782988,-0.030153623,0.07543742,0.1026948,0.075051986,-0.0036682475,-0.19511849,-0.13002585,-0.041925475,-0.07342359,0.029854452,-0.03359883,-0.021495426,-0.017662812,-0.05405445,-0.008664932,0.026565036,0.024424644,-0.09412478,-0.08438529,-0.033300117,0.06559543,0.16703504,0.02847066,0.07331482,-0.066442594,-0.014218172,-0.02982044,0.044454504,0.075524926,0.08818892,0.028660232,0.003108705,-0.08965757,-0.08472133,0.020664135,0.016509466,0.029067729,-0.006890979,0.010250948,0.03109553,-0.027809292,0.049801234,-0.0872026,-0.0020848145,-0.00024931185,0.014873884,0.038156513,-0.036581114,-0.01696614,0.052267835,-0.09203435,0.05231075,0.044591516,0.018131904,0.09851122,0.017108642,0.010298717,0.0619254,0.055807367,0.124231555,0.05539527,0.010633187,0.010036984,0.019959992,0.14115143,0.084276944,-0.0042483546,0.023426669,0.05084185,0.079694435,0.033119895,0.029829318,0.045615405,-0.026194878,-0.0050159427,0.0155445,0.06419895,0.026648749,0.018780166,0.052417163,-0.009929011,0.027932264,-0.044539075,-0.12918992,-0.01844491,0.08197938,-0.03819058,0.040683232,0.016341198,0.030149415,-0.050316654,0.0016928248,-0.00016369291,0.0142354155,0.009828182,-0.0023474826,0.06277937,0.003778635,0.031630863,0.048646644,0.08508034,0.059147768,-0.03279307,-0.03936027,-0.056909747,0.018654166,-0.016475735,-0.028420093,-0.05374363,0.029554782,-0.03909186,-0.0132577205,-0.04942209,0.034327794,0.009326302,-0.015036076,-0.019985614,-0.026887976,-0.017752025,0.0384235,-0.078568436,0.013962306,0.012250724,0.024404835,-0.022509133,-0.09050791,0.017650887,0.027472872,0.017896336,0.014823086,0.00051391067,-0.010318507,0.05768267,0.023138179,-0.06097251,0.031963404,-0.0052528083,0.01730162,-0.04502467,-0.029815901,0.024945274,-0.03661429,0.091111705,0.097810574,0.035871863,-0.079773515,0.013921869,-0.024337249,0.074837334,0.0051320014,-0.04166069,0.04545591,-0.018969953,-0.047508694,-0.039934963,0.07617593,0.06517908,-0.0057866187,0.011935599,0.071565524,0.024837824,0.009688423,0.0056514223,-0.0594069,-0.079649195,0.023604842,0.021434302,-0.049056355,-0.038918763,-0.014235514,-0.044546023,0.02801432,0.032902684,0.03143399,0.061650682,-0.037943553,0.056494847,-0.0059921634,0.06772715,-0.014532702,0.009729297,0.010767264,-0.054687083,-0.040028334,0.013080084,-0.033020873,-0.055617206,0.005727371,0.051614538,-0.00043144374,-0.030301895,0.03469284,-0.019412022,0.05278268,0.08538455,-0.008773193,0.026920207,-0.036925413,0.01095518,-0.1075576,0.051799312,0.003605447,-0.042643372,-0.102745466,-0.022772983,-0.033030372,-0.05056519,0.0077917883,-0.044590298,0.032589566,-0.029259088,-0.05981161,-0.0652616,0.043476965,-0.07398283,0.024580637,-0.04750054,0.045107406,0.009360975,-0.033401188,0.05663037,-0.06723869,-0.026693296,0.032599606,0.0073199277,0.003929477,0.05149373,-0.03223142,0.116527714,0.020063506,0.07522167,-0.04727562,0.050230518,-0.14155509,-0.004934445,-0.05062141,0.008658855,0.011745356,0.061712284,-0.027285403,-0.05347224,-0.030491745,0.032278564,0.025298132,0.05216891,0.01645522,0.009813346,0.09384925,-0.003015738,-0.024659466,0.016637461,-0.063213274,-0.03216242,0.14491786,0.14315087,0.059215654,0.11376357,0.19876723,0.15648663,-0.003131039,-0.15251617,-0.06648927,-0.111382,-0.06884028,-0.12442262,0.02322621,-0.016546769,0.039569594,0.007971117,0.028313907,-0.01806105,0.013459919,-0.057953525,0.040320095,0.08357067,0.13738373,0.060223453,0.036618143,-0.020860726,-0.17045811,0.044884834,0.015590369,0.0003887091,0.05039438,0.0328455,0.10262637,-0.06642644,-0.027912896,-0.033173073,-0.13486853,-0.18347687,-0.044604816,-0.13539794,-0.093867026,-0.09364806,-0.04530605,-0.018184753,0.028578471,0.05335847,-0.012196112,0.0494657,-0.079558924,-0.01276683,0.10742475,0.100934856,0.021070661,-0.01307837,-0.15220498,-0.14670701,-0.19755289,-0.19086759,-0.20071422,-0.2605041,-0.08525072,-0.24338432,-0.2379027,-0.22133648,-0.33306894,-0.2300978,-0.2776303,-0.09209627,-0.068333365,-0.041025013,0.105338186,0.028301934,-0.0045218905,-0.009890883,0.0015717987,0.1345178,0.055133153,0.05230315,0.10732795,0.03234124,-0.061180837,-0.06165134,-0.18592168,-0.034205947,-0.06807597,-0.17446819,-0.3997374,-0.5043962,-0.40880826,-0.31087595,-0.2698737,-0.2629526,-0.2653348,-0.23102571,-0.28622836,-0.08500203,-0.10927253,-0.032872517,0.038964342,0.052904014,0.0061824126,-0.03645727,0.0069818557,0.0652367,0.14573212,0.22059248,0.13556235,-0.004261077,-0.08118323,-0.113560684,0.038154814,-0.037501864,0.003962212,-0.17138419,-0.20097049,-0.44911033,-0.2849405,-0.10415394,-0.10646845,-0.21723965,-0.17562038,-0.16090941,-0.12751335,-0.025660187,0.049154203,0.076637335,0.07685369,0.04941116,0.06942288,0.01848038,-0.0022945064,-0.07750467,0.0894769,0.066218615,0.08754128,-0.058795113,-0.007601705,0.08041125,-0.043717343,0.0108472435,0.22490445,0.04458651,-0.030837504,0.021953404,0.029435301,0.15929812,0.1715264,0.24230634,0.27317208,0.2199651,0.081494205,0.1761038,0.229546,0.15275927,0.0076560103,0.04776385,-0.03684464,0.07511971,0.07537142,0.04350662,0.15924777,-0.05011947,-0.023916777,-0.00081968965,0.057147108,0.053422723,0.038167734,0.12943347,0.16084225,0.2954399,0.3303364,0.20064875,0.18045215,0.21624234,0.26787326,0.27517194,0.3065501,0.33030984,0.22042139,0.32356888,0.19731301,0.112494625,0.064920664,-0.072871074,-0.10869457,0.056965765,0.05238554,0.018312966,0.12827878,0.08990039,-0.01696514,0.026987292,0.10911072,0.23516113,-0.055977866,0.08570075,0.039633274,0.055702,0.2560781,0.08004008,0.12174264,0.17247295,0.1097281,0.19309548,0.20420456,0.22323166,0.23578167,0.09104513,0.15912057,0.103207916,0.10431012,0.009210252,0.09863948,0.035238378,0.02144471,-0.04961421,0.05189959,0.13135414,0.016277628,-0.1807639,0.030228525,0.08122686,-0.0055751046,0.030043386,0.08157343,0.11820411,-0.032625306,-0.12025061,-0.13215853,-0.08749436,-0.17559306,-0.046943728,-0.026508003,0.0817148,0.07726795,0.121010914,0.101789415,0.11707116,0.012790716,0.02586786,-0.0453789,0.032412507,-0.00021570046,0.028680503,0.0062125195,-0.0064780978,-0.06403647,-0.19853759,0.08280748,-0.054539736,0.035495628,0.08287142,0.2094861,0.0921196,-0.12605077,-0.104723826,-0.00069522095,-0.12091303,-0.0807933,-0.16521004,0.025325093,0.093761474,0.09376663,0.14006415,-0.031701144,0.03378252,0.05895629,0.07511247,-0.063110195,0.05765981,0.011823931,-0.0065648826,0.028470313,-0.17141981,-0.023459813,-0.12712857,-0.04367342,-0.076504625,0.04138321,0.13602056,0.17568704,0.064546034,-0.048945785,-0.11957307,-0.15787005,0.025215281,0.0011063043,0.0010853894,0.016629167,0.16025425,0.054504383,0.07021593,-0.00024224377,0.08404681,-0.07045657,0.08560041,-0.04194763,-0.043598387,0.05267252,-0.019613657,-0.018707162,0.04539927,-0.036668394,-0.088671684,-0.056390475,-0.015608196,0.107032254,0.041145884,-0.015376055,-0.10312986,-0.07568408,-0.026460247,-0.10181026,-0.065643735,0.14033048,0.114115626,0.083236046,0.09065093,0.1154657,0.122857064,0.04741156,-0.06063697,0.057106454,0.0689209,0.15447003,-0.0072237365,-0.062954806,-0.10780659,0.09034075,-0.09435202,-0.16376758,-0.118256964,-0.15301314,0.0544671,-0.017694585,0.091418855,-0.0637272,0.007318726,0.08705284,0.04314606,-0.017618444,-0.012529634,-0.064321384,-0.036475416,0.07497831,0.023567172,-0.11428148,0.037436772,0.020738773,0.11609074,-0.038791332,-0.016238406,0.015519668,-0.031270884,-0.037549824,-0.06773616,-0.017416593,-0.07167623,-0.12816384,-0.08068729,-0.120709896,-0.022485657,-0.07912637,-0.102776624,-0.11029637,-0.028649807,-0.15187116,-0.17516048,-0.056454644,-0.04494704,0.042724993,-0.10103361,-0.08702182,-0.055852573,-0.14820926,0.035323553,-0.0022180201,0.009367957,-0.073144734,0.038453165,0.059347637,-0.14322138,-0.05502379,0.073650986,-0.058749758,-0.04406167,-0.14898035,-0.019254517,-0.022057295,-0.111582756,-0.10966495,-0.046588425,-0.071900964,-0.043693364,-0.09625771,0.043414444,-0.047381226,0.12592119,0.0027882832,-0.18548198,-0.14866717,-0.010969643,-0.011904607,0.0053066886,0.043105546,0.014126905,0.005049145,0.020037629,0.042813573,0.05133355,-0.017559836,0.019583356,-0.006757808,-0.025928363,0.07119019,0.07497438,0.056844756,0.06262011,-0.076643154,-0.14625087,-0.027335372,0.084984474,-0.05300524,0.039670706,-0.083590195,0.0027194917,-0.08335838,-0.12555924,-0.109549984,-0.10588084,0.008590778,-0.03349083,0.015908722,0.07774116,0.096625194,0.08325808,-0.035926383,0.0019085262,0.050957095,0.05910871,-0.072500676,0.0054763886,0.105144665,0.1787993,0.0024894117,-0.026015818,-0.05895986,0.02845029,0.053405255,0.0067876484,-0.13874124,-0.1258453,-0.16253138,-0.10213666,-0.10848579,-0.027166488,-0.014741055,0.007478722,-0.013370899,-0.12875882,0.036595523,-0.026218032,-0.021036124,-0.099937566,0.0061815036,-0.088626295,-0.09341952,0.08702998,-0.03777692,-0.075647525,-0.0501056,0.061471563,0.10768865,0.104116425,0.14756055,0.19128789,0.13565,-0.058638893,0.020995533,-0.12233271,-0.010493412,-0.0010700466,-0.07226031,0.016856207,0.04455015,-0.12763798,-0.15727973,-0.074781105,-0.09855368,-0.05758426,-0.04525215,0.067301854,-0.05070711,0.04377829,0.0022155032,-0.10239055,-0.05544215,-0.050147474,0.0036612013,-0.014596822,0.0007325111,0.1411355,0.09460407,0.054560196,0.04451197,0.08018704,0.040536433,0.14103389,0.032506984,-0.12986124,-0.033439018,0.0036757234,0.0032011184,-0.10412513,-0.00021455335,-0.06771498,-0.024827942,0.01137115,0.05296762,-0.04499279,0.00031049296,-0.0154091045,-0.04739807,0.054042373,-0.058788832,-0.023628699,-0.11408342,0.029031118,0.057172667,0.012909652,0.07389137,-0.055399764,0.028683515,0.06626554,0.07795332,0.037190594,-0.02443861,0.0107030105,-0.08858061,0.01692183,-0.048829768,-0.027548816,-0.013910613,0.057543594,0.05529802,0.012523199,0.022335172,-0.043992437,-0.056861922,-0.0039640185,0.07079973,-0.062336635,0.021717487,0.00917795,0.07479337,-0.009286434,-0.023765922,-0.101135015,-0.05745363,-0.03835477,0.081336156,-0.021554403,0.0011063747,0.0005482754,0.10287859,0.014748908,-0.02893563,0.01949116,0.06741572,-0.12260929,0.047535766,0.04013294,0.062516354,-0.012637981,0.0045493636,0.06456584,0.03663667,-0.027319524,0.08720513,-0.010136259,0.012930738,-0.024587534,-0.050979372,0.0078382,0.0107435705,-0.0057681226,0.04380926,-0.06460002,0.08655248,0.013775126,-0.0036783651,-0.0792906,-0.010571099,0.009193575,-0.019572996,0.10679219,0.019782644,-0.011065578,-0.06835464,0.052251782,-0.020270785,-0.045708798,0.06496953,0.014999056,0.056813303,0.07779185,-0.054957114,0.0009731509,-0.0070079593,0.019871097,0.04058748,-0.06814208,0.00071929046,0.018049004,0.004924729,0.025804173,0.027331173,-0.0481009,-0.0418417,0.08254152,-0.05757958,0.07840241,0.08344837,0.087687574,-0.0041766968,-0.0012067549,-0.01171757,0.022050073,0.037813894,-0.05484077,0.07819365,0.045146927,-0.11842998,-0.06976899,-0.034505717,0.026680352,-0.00660158,-0.027463838,0.06883856,-0.031737853,-0.021191176,-0.09039891,0.04439253,0.08018019,-0.02456938,0.10052984,0.053192995,-0.03498449,0.07223492,-0.059897933,0.022215966,0.0076667396,0.0059772315,-0.01993119,0.054730315,-0.073728666,0.008994315,0.004039439,-0.018607223,0.033184033,0.08090274,-0.041879486,-0.05251214,0.022013543,-0.0091980975,-0.0080821905,-0.07823268,-0.029431893,-0.0066256532,-0.01615244,-0.02689846,-0.052169908,0.033486165,-0.0017664862,-0.07784071,0.054457996,-0.07563528,-0.00672829,0.059188925,0.048148185,-0.0021520283,-0.004921178,-0.019861577,0.009453475,-0.004066012,0.03520668,-0.020654984,-0.032780804,-0.05480339,-0.011208847,-0.004282356,0.0023211516,-0.01191246,-0.03174046,0.07088671,0.04872973,-0.09705196,0.014050158,0.02017171,-0.0030471303,0.022012742,-0.055956453,0.004733805,0.014234793,-0.03181396,-0.057897877,0.037046112,-0.048288442,-0.12255867,-0.09504623,-0.072324514,0.032624748,-0.0333752,-0.014938018,0.03168336,-0.108507775,-0.024855493,-0.09883902,0.026434362,0.066892825,-0.008100434,0.10088269,-0.07195746,0.012444948,-0.062273357,-0.12734121,0.02449577,-0.03723599,-0.02640016,-0.08566207,-0.07217762,0.040645298,0.19419615,0.019186588,0.015228135,-0.01733166,0.046999592,0.014391431,-0.011383979,-0.01958414,-0.07236219,-0.038427353,-0.0012556143,-0.02489976,0.022550037,-0.083597526,-0.014376904,0.01624941,-0.099279426,0.016430072,-0.06661887,-0.033481903,-0.041794468,0.06673267,-0.030910943,-0.008763373,-0.08789139,-0.07079676,-0.06734935,0.0627152,0.08284067,0.088907056,0.2730932,0.09731506,0.046322577,0.08424067,0.086385906,0.0054383907,-0.01012531,-0.111639194,-0.024301058,-0.042710997,0.018259585,-0.10310963,-0.013248463,-0.06266551,-0.04239246,0.08787796,0.09072738,0.0054058186,-0.030641353,-0.031849414,0.019669088,-0.13730441,-0.12272947,-0.11919455,-0.12790374,-0.14673357,-0.12632574,-0.0049273157,0.12681802,-0.038186386,0.04472154,-0.01805525,0.16127416,0.056424975,0.052849427,0.033427138,0.0034211152,0.07308445,-0.13643114,0.017740395,0.03556081,0.053819567,0.020779593,0.028082533,0.06444185,-0.011548725,0.02621464,-0.037663374,0.03611504,-0.07480504,-0.16861017,-0.24519509,-0.31555796,-0.10529945,-0.14635356,-0.036303204,-0.028306548,-0.0016901693,0.0976558,0.082124025,-0.017072026,0.0009870915,-0.08814851,-0.013431478,-0.05152464,0.014654852,0.019355636,-0.04329666,-0.07853226,0.08155169,0.027515566,-0.026881812,-0.13199301,-0.10544247,-0.08523521,-0.14281003,-0.014367411,-0.2503955,-0.2999515,-0.33062708,-0.20150301,-0.16819516,0.021223033,0.092522785,0.09944665,0.058400914,0.18869144,0.044303138,0.030072154,-0.037064977,0.041271597,-0.021200566,0.0016380014,0.013913366,0.009560325,0.09058223,-0.019103415,-0.0033102678,-0.06781139,-0.16167623,-0.20674364,-0.2738491,-0.22633806,-0.085494585,-0.06884139,-0.109958924,-0.20628032,-0.10470846,-0.094616644,0.009451688,0.11877579,0.09204799,0.054563895,0.14769743,0.020240169,0.026845057,0.013946758,0.04244024,0.11497985,0.037429634,0.0048057265,0.020615699,-0.029369919,-0.02951729,-0.011860298,-0.00782911,-0.09333321,-0.121248625,-0.21518329,-0.22403291,-0.29244944,-0.05128447,-0.025852725,0.027601913,-0.00019941582,0.11726743,-0.008653562,-0.1471296,-0.09056879,0.071254924,-0.039973166,-0.011596775,-0.022627791,-0.105401516,-0.084462784,-0.18482567,-0.057080273,-0.0024543926,0.0047006295,-0.040137187,-0.005156346,-0.037573032,0.023420835,-0.012677674,-0.010270187,-0.13971037,-0.2018542,-0.24595055,-0.16114533,-0.08099466,0.09784495,0.1355499,0.20302574,0.04689009,-0.19125712,-0.20421934,-0.13886002,-0.10790309,-0.11110194,0.017438557,-0.1749859,-0.12549645,-0.16511323,-0.21776044,-0.037319157,0.024402859,0.07738962,-0.014193122,-0.05691398,0.11317411,-0.043628514,-0.08637528,-0.11898811,-0.14786366,-0.20122689,-0.04451306,0.05952979,0.085067,0.105897166,0.15619062,0.09012266,-0.13686225,-0.24252078,-0.20559892,0.03736548,-0.008332823,-0.22091924,0.05229621,-0.027647344,-0.13337648,-0.08013535,-0.18469252,-0.022674898,0.043264925,-0.0395588,0.034273505,0.042527746,-0.06393657,0.007653717,0.04969558,-0.071886785,-0.14791155,-0.018787194,-0.06780197,0.04851418,0.01220781,0.028686749,0.053041186,-0.028078461,-0.011243914,-0.04046073,-0.12927882,0.0027213106,-0.08924485,0.032023583,0.17777163,0.0071708206,-0.146203,-0.13618264,-0.19567971,-0.016788801,-0.040130198,0.01712016,-0.005021919,-0.0071199364,0.06133749,-0.047424797,-0.08991883,-0.029228197,-0.026023041,0.106179774,0.23111683,0.09999938,-0.08059143,0.14806359,0.09402107,0.14293061,0.09923216,-0.10541299,0.019339032,-0.047577925,0.092712656,0.056303285,0.17068712,-0.016133498,-0.19335173,-0.1662994,-0.09226487,-0.02148985,-0.12587348,0.013731494,0.012865364,-0.03940962,0.058502093,0.011760297,-0.0029910677,0.0045902533,-0.04347994,0.08204462,0.15841074,0.16919287,0.20977424,0.06973347,0.07011954,0.13156897,0.29335314,0.1418276,0.05248182,0.14068036,0.10486584,0.20038505,0.03141927,-0.22155127,-0.10287766,-0.17022195,-0.12548257,0.0779022,0.09415763,0.06421456,0.07874912,0.008190077,-0.077053316,-0.026032483,0.14463347,0.06831798,0.161883,0.028633188,0.13108586,0.21672523,0.16282287,0.06055562,-0.06495361,0.15526433,0.035330947,0.00854205,0.2874539,0.2472163,0.2002961,-0.021531126,-0.14102909,-0.27358618,-0.20831482,-0.13078928,0.02972525,0.14579652,-0.008158616,-0.0075609908,0.059484918,0.053355545,-0.018941164,0.051265765,0.019820688,0.03490411,0.12039483,0.033621628,0.18183385,-0.014767944,0.07066962,0.023257935,0.04738883,0.34322777,0.020439293,-0.045323793,0.23943155,0.23119494,0.074668325,-0.11663816,-0.037124492,-0.12253229,-0.020642875,0.16230571,0.03014029,-0.066028014,0.1426575,0.09077414,-0.08104157,0.03153185,-0.034026474,-0.020735089,-0.0028673175,0.019391831,0.16202709,0.05674313,0.020732595,-0.006773317,0.18469378,0.26179966,0.19466074,0.21807258,0.06915818,0.13035382,0.19724625,0.14329119,-0.079122305,-0.017987952,-0.22910099,-0.08136098,0.06102817,0.09245765,-0.024658782,0.0040542665,-0.05007549,0.00831279,-0.082785115,0.04448034,-0.02209578,0.017140916,0.08484876,0.17196745,0.15555102,0.019679526,-0.040457398,-0.0070607266,0.10015604,0.12886207,0.045439404,-0.036541734,0.034938853,0.06872085,0.050611414,-0.034269277,-0.08269679,-0.17835818,-0.18442245,-0.010691229,0.08500023,0.11309066,0.00927606,0.06431894,0.11292143,0.06177582,0.01995985,0.08242337,0.010497065,0.047286373,0.20908915,0.12670286,0.11211699,-0.09141746,-0.036698513,-0.08675617,0.016447641,-0.03578742,-0.0027408858,-0.10707724,-0.16398372,-0.14126194,0.019380042,0.039983783,0.0026873248,-0.015856283,-0.000434703,-0.0065739388,0.014846482,0.00019573397,0.18035628,-0.014347756,-0.049753077,-0.022691606,-0.016868468,0.010880759,-0.056926675,0.001967986,0.024904354,0.11903671,-0.014441912,-0.088423654,-0.04022857,-0.14576861,-0.08915528,-0.25914234,-0.21945284,-0.36833295,-0.23245779,-0.249185,-0.26138872,0.12082336,0.041729376,0.100420624,0.14299548,-0.08344511,-0.09985903,0.013733333,0.075577915,0.06683463,0.09205218,-0.05446261,0.021608535,0.049446955,0.0367964,0.027840294,-0.055326633,0.054241825,0.124737665,-0.10149836,-0.17133851,-0.1622558,-0.110908106,-0.24599937,-0.2621592,-0.20943812,-0.22158073,-0.08284845,-0.088230036,-0.10381537,0.030320397,0.13881776,0.08243046,-0.041892454,0.07841615,0.013747536,-0.042469446,0.075452566,0.11332413,-0.023028094,-0.059958752,0.050565496,0.028000886,-0.010938482,0.028588168,-0.065258846,-0.040634353,0.027383925,-0.0633528,-0.116142325,-0.16184664,-0.13944042,-0.09423972,-0.2044622,-0.21312821,-0.16711827,-0.09443122,-0.17037229,-0.1402846,0.062392984,0.05995519,0.04388183,0.09889521,0.050772004,0.0046109175,0.13512777,-0.05112658,-0.016656501,0.100990765,-0.06911395,-0.034664255,0.022647215,0.022347875,-0.06506622,-0.17158037,-0.012570755,-0.11097578,-0.09014743,-0.22983268,-0.15538996,-0.14001104,-0.15916552,-0.1924342,-0.112858124,-0.10025887,-0.20282629,-0.1287856,-0.058327872,0.12248136,-0.03403089,-0.02287488,0.017548582,-0.034380693,0.08040655,0.03270302,0.03582087,-0.026461592,-0.014231466,-0.044683594,0.067774594,0.0041608177,0.020118484,-0.05481123,-0.030525077,-0.058853775,-0.10239356,-0.07171369,-0.13441764,-0.037341636,-0.17349389,-0.01394573,-0.03242071,-0.14130823,-0.20913795,-0.12065243,-0.0045538447,0.06996931,0.03199106,0.083098404,0.025867809,0.029215734,-0.021021252,0.06736296,-0.058818944,-0.095213205,-0.021649476,0.06554589,0.053886857,0.026689097,-0.0936257,-0.053631596,0.021636019,-0.030542064,-0.0007800876,0.061776347,0.052344564,0.12926619,-0.0318418,0.09066914,0.015421019,0.09511081,-0.14015064,-0.09203576,-0.0880765,-0.08849579,-0.019108443,0.017170757,0.018934581,0.023834907,-0.06742018,-0.06625894,0.029445382,-0.079731815,0.014268584,-0.003897918,-0.10732419,-0.069386475,0.046062794,0.082026936,-0.021761894,0.06471146,0.12888144,-0.073014654,0.11127892,0.03360473,0.08810573,-0.018694319,-0.004403883,0.068515286,0.061972484,0.0076014875,-0.13943648,-0.089205466,0.13040127,-0.08306937,-0.017101413,0.018621663,-0.027807346,0.071210474,-0.037303183,0.06881242,-0.003937842,-0.0067390553,0.016256586,-0.10470641,-0.0887083,-0.05259924,0.083466254,0.03446966,-0.006299519,0.02080929,-0.03429924,-0.020879531,-0.03444817,-0.0021402459,0.01747759,0.011418466,-0.015647786,0.012287616,-0.053777035,0.04262236,0.064302735,0.051378403,-0.022703169,-0.027522013,0.018373797,-0.05658111,-0.03619522,-0.008749839,0.05315116,0.03389027,0.015567866,0.056108367,-0.03207385,0.013472327,0.02821923,-0.03632993,0.031958263,0.0558633,-0.052558012,-0.052184526,-0.021769792,0.0014010594,-0.0210432,0.076174244,0.014192979,0.040210832,-0.0005326229,0.13625436,0.055366267,0.027780313,-0.058988385,0.02228098,0.14473826,0.04264081,-0.060409658,-0.012922599,0.05936441,0.05470986,0.011445146,-0.047960296,0.14354134,-0.06381134,-0.0005813595,-0.011827358,-0.013673429,0.054770075,0.009269917,-0.0026666997,0.019754283,-0.017729102,0.020190326,-0.048687622,-0.09010414,-0.04391135,0.016724719,0.08999577,-0.045196947,-0.012202202,-0.060370002,0.115279704,0.030727714,-0.03919427,-0.029070329,0.0073777796,-0.05406188,0.010484132,-0.006679354,-0.020002156,0.021357846,0.05140342,0.06643094,0.009060875,-0.046893965,-0.033672415,0.0083671715,-0.014644405,-0.012180029,0.003140427,0.002955135,-0.030120606,-0.09122027,-0.05837546,0.0027435762,-0.00794847,-0.08859629,-0.056456394,-0.010058183,0.020259008,-0.005567795,0.0067771953,0.07338452,-0.107265115,0.0074872207,0.06563612,-0.06634969,0.013545946,-0.028268991,0.031789612,0.027478518,-0.0036014046,-0.036877193,0.06646002,-0.046646547,-0.046673317,-0.054343447,-0.06422756,-0.12431651,-0.14422153,-0.11733582,-0.029852888,0.12717617,0.047646184,-0.06992037,-0.061378594,0.03628134,-0.0324486,-0.06512906,-0.007863551,-0.05107967,-0.06304784,0.05148871,0.0041666133,0.06485679,0.074004635,0.062062528,-0.0087581435,0.015966894,-0.050269634,-0.035524994,-0.048148192,-0.12754853,-0.0778985,-0.18290997,-0.08325965,-0.20987636,-0.23846579,-0.049563956,-0.05389442,-0.07530892,-0.045298032,0.022634294,-0.019776918,-0.03094388,0.057819664,-0.027988855,0.009886915,-0.036026523,0.07153786,0.014463868,-0.08051096,0.09677153,0.08639157,-0.0050218203,0.0068533374,0.03525903,-0.026483115,-0.027561245,0.058490377,-0.18364608,-0.16348708,-0.048068654,0.009141213,-0.031211961,-0.06992545,-0.018490242,-0.07394131,-0.1024919,-0.16426517,-0.24157973,-0.033636995,0.049824905,-0.011694276,-0.009037412,-0.02019751,-0.05319906,-0.033244703,0.043459974,0.014996807,-0.12331231,-0.017292906,-0.064372845,0.03124752,-0.08943802,-0.15725026,-0.146053,-0.16441588,-0.054766763,0.16289201,0.0053532585,-0.043192,0.15045078,0.06711712,0.018715853,0.009158556,-0.051693905,0.0547811,-0.111697435,0.020623658,0.09278689,0.019333573,0.12622614,-0.18649118,-0.16012165,0.0068530478,0.020371143,0.023729593,-0.0228894,-0.070557185,0.032374457,-0.17668776,-0.14066301,-0.081726596,-0.17378597,-0.06476621,0.050982382,0.15714237,0.16323668,0.101382226,0.12746534,0.015600424,0.16525549,-0.07325791,-0.18177858,-0.10322496,-0.13435984,-0.1741166,0.15580185,0.29342255,-0.031193478,-0.091282554,0.017656323,-0.007640745,0.009879165,0.055163186,0.037395928,-0.0132828215,0.032634623,-0.09876941,-0.14152312,-0.07158019,-0.10845113,-0.095824346,-0.037253875,-0.13737212,-0.13907981,0.10607113,0.054944765,-0.003482943,-0.12410078,-0.094221696,0.03776396,-0.010243621,-0.23890358,-0.16937737,0.07224549,0.025446588,-0.049270425,0.08422378,-0.006396602,-0.044644684,-0.04963927,-0.019853681,0.022367597,0.029519524,-0.09312668,-0.040094182,-0.07257124,-0.07485366,-0.110843346,-0.11439255,-0.053965237,-0.034134775,-0.09609331,0.13594168,0.06253571,0.006391877,-0.028051369,0.07177674,0.2579631,0.09399188,-0.061370086,0.0069785346,0.02942027,0.019300736,-0.014894282,-0.08424642,0.06793772,0.08404076,0.02925763,-0.09502283,0.11786553,-0.010473934,-0.022810396,-0.005258862,-0.020687208,-0.22164543,-0.04457053,-0.042097792,-0.033051513,-0.15541063,-0.13273948,0.028984012,-0.13818358,0.0344712,0.024610734,0.1992424,0.22899266,0.32307535,0.2392869,0.05932321,0.14799492,0.07991928,0.08938945,0.080425255,0.070237875,0.058862455,0.06652523,-0.042083643,0.043803323,-0.00097204634,0.08546949,0.0123431925,-0.09770397,-0.11055864,0.059241842,0.05490737,0.094642565,0.018604212,-0.115030855,0.07134855,-0.03641073,0.0068438933,-0.13536106,0.19520903,0.27995825,0.17741556,0.036657687,0.18022412,0.2964347,0.07371184,0.113078244,0.022357887,0.03953132,-0.033350807,0.05413429,-0.06307846,0.0070168083,-0.033839785,0.091935635,-0.12132215,-0.12045262,-0.05979686,0.06381748,-0.061107006,-0.01766468,0.13528755,0.13628799,0.19128133,0.20568499,0.13994437,0.09288779,0.07506104,0.07720806,-0.15988366,0.058145337,0.22386238,0.0155081,0.06460117,0.056468543,0.06142339,-0.044765826,0.020499395,-0.004820468,-0.013697602,0.04553349,0.06388549,-0.07310528,-0.15575136,0.013851402,0.15372919,0.032944683,0.20442307,0.25729948,0.048377696,0.005861395,0.10494468,0.3260414,0.32144016,-0.06451939,0.008099286,-0.033134528,-0.21222623,-0.026055314,0.022964433,-0.14379534,-0.06899811,-0.018516628,-0.07436483,-0.026812347,0.00069626875,-0.03748364,0.0008575155,-0.0026171587,-0.02787891,0.056483295,-0.16450241,-0.058632236,0.014679133,0.10355045,0.10380974,0.0871382,-0.084010534,0.09412627,0.1829237,0.25295964,0.13198227,0.00004198226,-0.16405952,-0.22250198,-0.09723379,-0.12277514,-0.09271929,-0.21538877,-0.19283436,-0.19098623,-0.014339689,0.013878151,-0.081866175,-0.056839444,0.06264545,0.011057376,0.0040503177,0.01396931,-0.06763831,-0.1402091,0.033643775,-0.02557372,-0.15080765,0.08491386,0.026809169,0.12040373,0.05472575,0.3111519,0.026612543,-0.029732166,0.17512912,-0.032164343,-0.21542571,-0.13315728,-0.028678581,-0.09568037,-0.15645795,-0.10414624,-0.14655198,0.033924293,0.07790211,-0.04333573,-0.022748979,-0.015719995,-0.10567769,0.0010726664,0.029100502,-0.046928585,-0.14053029,0.07134898,-0.09423832,-0.022850428,0.13493776,0.23221064,0.46495903,0.17530255,-0.09147266,0.094037384,-0.016638802,-0.24307786,-0.09399148,-0.075596124,-0.07708709,-0.10464877,-0.19596983,-0.03315867,-0.0643139,-0.07064895,-0.041168984,-0.036653895,-0.0066354196,0.036307815,0.029724624,-0.027700374,-0.026300466,-0.11012879,-0.14790985,-0.10466303,-0.043367904,-0.13400298,-0.020316377,0.054242272,0.30548763,0.08128004,-0.15430427,-0.13475817,-0.39089203,-0.13566308,-0.116690084,-0.053408105,0.03804155,-0.065351345,0.0209654,0.023520315,0.068862125,-0.009432139,0.027632171,0.044101745,-0.11766706,-0.05253762,-0.013966688,0.09703591,0.0321072,-0.20684756,-0.23252937,-0.18405028,-0.21323511,-0.13084874,0.08833781,0.04259138,0.35473812,-0.023735367,-0.4895456,-0.46233153,-0.37668028,-0.21837853,-0.10876968,-0.14896798,-0.036979765,-0.06569968,-0.16920452,-0.024068005,-0.03343697,0.05375528,-0.06389006,0.10508392,0.039808944,0.011457814,0.012304713,-0.08532986,-0.06410494,-0.10681793,-0.070896775,-0.2015959,-0.19586258,-0.15233465,-0.06658975,0.07682624,0.33930668,-0.022637632,-0.51643425,-0.53221637,-0.2693708,-0.18061888,-0.20547809,-0.13767287,-0.15854816,-0.14127035,-0.14530456,0.017544247,0.038248423,0.05959185,0.10739181,0.010493259,-0.004590397,0.021421613,-0.09072918,0.010188188,-0.05660298,-0.057244588,-0.09934296,-0.15000781,-0.008215485,-0.20266092,0.0008877571,0.18006986,0.2616395,-0.16734515,-0.5266824,-0.41239733,-0.21318159,-0.2721698,-0.28092965,-0.097004876,0.012186239,-0.1210898,-0.016940935,-0.011861618,-0.04262845,0.015481861,-0.09350909,0.053037535,0.03868073,-0.008428731,0.061027266,0.013988708,-0.07352617,0.018793171,0.016888935,-0.18933706,0.012475016,-0.0245695,0.013601169,0.019525882,0.06034315,-0.24888758,-0.33478343,-0.33333063,-0.27790383,-0.14933859,-0.13043194,-0.08323522,-0.011776754,-0.026662316,0.017461063,0.060333855,0.0047307825,0.03143645,-0.06977543,-0.050951574,0.03237072,0.07057355,0.048181046,0.031864356,0.09565646,0.22841904,0.15088415,0.13086668,0.015639402,0.026364794,0.00096386793,0.020010918,-0.21390243,-0.17991532,-0.258016,-0.28429022,-0.1422196,-0.233969,-0.17070322,-0.1252324,0.035365347,-0.036348995,0.0117363,-0.000081660415,0.044619165,0.039521117,-0.018541975,-0.027677469,0.024324674,-0.020527964,-0.014792538,0.015913056,0.10431897,0.20615754,0.16397193,0.16492255,0.042797428,0.19974391,0.09724303,-0.08898643,-0.12762935,-0.17947273,-0.41214114,-0.3204359,-0.2476104,-0.15387858,-0.11854649,-0.042157132,-0.041770518,0.046893895,-0.050315723,-0.08488249,0.018023249,0.097726434,-0.004526048,0.08673585,0.0753611,0.10166815,-0.096273534,0.036366962,0.18495515,0.044066012,0.16311844,0.17295216,0.2189164,0.095850475,0.04244443,-0.15813082,-0.22872184,-0.23149565,-0.3554123,-0.35543406,-0.27294534,-0.13411279,-0.1629074,-0.040415328,-0.020217441,-0.050279476,0.00013592592,0.046396162,-0.026190694,0.06461806,0.06416811,-0.08341103,0.031344954,0.026513193,0.064655885,0.13540176,0.006998344,-0.08585172,0.086139776,0.02989191,0.06201451,-0.042614933,-0.02780178,-0.10860389,-0.16659066,-0.19602974,-0.25287136,-0.16479552,-0.2451752,-0.09787678,0.061868288,0.0016355428,0.0035738852,0.030236267,0.03374405,0.01867277,0.06617867,0.065123506,-0.034057993,-0.072602086,-0.012133851,-0.012807137,0.041356277,-0.070947066,0.06527049,-0.01674963,0.11943252,0.07623047,-0.034329377,0.069465026,0.09827277,-0.017112909,0.06399032,0.03730321,0.004821623,0.06746865,0.027454019,0.048887815,0.03613738,-0.0012942669,0.0021511267,-0.06161321,0.09266149,0.14851904,0.0032111066,-0.03527738,0.056088395,0.051810157,-0.007096544,0.038402237,-0.017548418,-0.0076755895,0.012120862,0.0056243083,-0.019894205,0.01661309,0.057651043,-0.034932476,-0.06665339,0.033593,-0.04107566,-0.04367636,0.022386415,0.025834683,0.03560063,-0.055599935,-0.03333263,-0.054143783,-0.03235875,0.008881207,0.03855718,0.022227734,0.04759255,-0.027360037,0.027138492,0.0030916433,0.0447902,-0.013925301,-0.017599933,-0.021288859,-0.0018254133,0.013314483,0.0130702825,-0.046652637,-0.050734367,0.005388098,0.006167393,0.009099021,-0.014339488,-0.059844725,-0.048664242,0.0020733457,-0.027946983,-0.02466249,-0.026698524,0.018141292,-0.013890257,-0.06485055,0.051612362,0.0045460896,0.018766077,0.033766404,-0.005734845,-0.07378267,0.10952588,0.05047169,-0.025956621,-0.09322249,0.030526957,-0.008119821,-0.059889577,-0.07896038,-0.080379374,0.06876504,0.0615833,0.021717377,0.035565242,0.057016507,0.021422023,0.0024550357,0.035652976,0.0046706097,-0.015627142,-0.060677245,-0.00428891,0.10934304,0.066770725,0.02082929,0.06637809,-0.063498825,-0.08456444,0.02378241,-0.064739525,-0.042343426,0.045608126,-0.030139402,-0.14300019,-0.031373713,0.05938614,-0.018178027,-0.02201547,-0.0029704347,0.011872073,-0.0361296,-0.026135389,-0.05151246,-0.090888,-0.040763393,-0.038403023,-0.0477784,-0.0055804104,0.0066435584,-0.08721318,-0.015665518,-0.03587399,0.02365682,0.06140502,-0.058861952,0.017114883,-0.115441084,0.03933579,-0.017561074,0.0076745544,-0.024478577,0.013197951,-0.038604356,-0.014783219,-0.045349777,-0.025042592,0.06645869,-0.036186107,0.05183382,0.003866456,0.018276768,-0.043092,-0.06723978,0.03220307,0.08067741,0.04613123,-0.043891117,0.038109083,0.028832994,-0.0691447,-0.027360037,-0.07702563,0.07692758,-0.016124597,0.017526679,0.0014538447,-0.029609352,0.009352627,0.08135609,0.0019712735,-0.004397765,0.057248898,0.031720348,-0.040021416,-0.06585028,-0.0011617099,-0.20632976,-0.1844362,-0.05806235,-0.044448327,-0.04984968,-0.08640286,-0.0055977665,-0.063527204,0.004068447,-0.04019136,-0.09410163,-0.059621606,0.0021603142,-0.03675301,-0.07551432,0.018300433,0.024618648,0.001454856,0.0035823204,-0.013821738,0.055590276,-0.035103623,0.011905223,-0.032932572,-0.0073404303,-0.07878924,0.028974595,-0.0036438673,-0.2240254,-0.1812809,-0.29557374,-0.25187165,-0.2692391,-0.23697059,0.022453707,-0.13390955,-0.11654395,-0.11369214,-0.15265039,-0.11544792,0.016414473,0.02383975,-0.009646287,0.016270598,0.063323945,-0.0591992,0.007835275,0.04446101,0.018495798,-0.10412953,-0.020984758,-0.022877695,-0.038673896,0.0632574,0.06339878,0.08765805,-0.15602677,0.054411937,-0.12975681,0.00060192094,-0.073103756,-0.02095897,-0.10530675,-0.07951535,-0.12240967,-0.07037074,-0.11677599,-0.08745812,-0.13872552,-0.02121815,0.07652055,-0.007894903,0.024205966,0.073709205,-0.015172775,0.03167844,0.13924332,0.004603675,0.06878893,-0.025842875,0.012691035,0.10324739,-0.012468376,-0.07342169,0.066691056,0.26619843,0.14692277,0.14609419,0.025380211,0.1448427,-0.031951424,-0.1662745,-0.11235193,-0.21436909,-0.22163321,-0.22372697,0.008657668,0.03362232,-0.027499018,-0.062650144,-0.035214372,0.008961936,-0.015386579,0.045250926,0.11073411,-0.12862179,-0.1949762,-0.13560066,0.21250783,0.06433854,0.016481318,0.16412261,0.18231791,0.12050862,0.1595588,0.09413754,0.10579545,0.092403,0.060340438,-0.02895889,-0.043008376,-0.1696271,-0.1443507,-0.21254864,-0.1585158,-0.08531818,0.0006741847,-0.028079335,0.0034888275,-0.01433354,0.029296933,-0.008273214,0.044146862,0.098967366,-0.027263142,0.030852374,0.13854767,0.0966867,0.18874328,0.29507872,0.31056485,0.12349343,0.2031701,0.0869457,0.0033775968,0.1547015,0.08598036,0.13637452,0.04544142,-0.12785429,0.09645305,-0.15139477,-0.20091373,-0.07471947,-0.11488896,0.08317121,0.034671687,0.07639973,0.032277513,0.13187714,-0.059671674,0.1157069,0.09233272,-0.054469712,0.059801027,0.18467665,0.07904002,-0.000048347818,0.033706196,0.07112504,0.15117665,0.078993976,0.19648996,0.20956263,-0.04332863,0.03870155,0.007425036,-0.026803564,-0.025328435,0.0059212004,-0.05975303,-0.027497241,0.030327672,-0.03247134,0.02443089,0.055792212,-0.012591901,-0.058282916,0.1501857,0.11704501,0.12323039,-0.007425939,0.2929485,0.018413745,-0.033147857,-0.07237398,-0.04029454,-0.09027203,0.06081796,0.016986614,0.15306424,0.08139006,-0.034040246,-0.0023661987,0.18016191,0.103005424,-0.007926371,0.033371355,-0.11088891,-0.04868521,0.028616292,-0.08375399,-0.0008199008,-0.00017249305,-0.09545852,0.011326059,0.10975937,0.0761696,0.09803262,-0.029834772,-0.0134562235,-0.12364849,-0.052852724,-0.10790239,-0.25330853,0.056859396,0.2092269,0.15632313,0.08975056,0.3160868,0.10810205,-0.0074576517,0.053892523,-0.0073851915,0.055221546,-0.06035583,-0.20268558,0.04899674,-0.011865789,-0.006327166,0.023108121,-0.11201156,0.05615571,0.04485623,0.11534413,-0.052034453,-0.042146694,-0.12703851,-0.093952246,-0.2641253,-0.24324222,-0.1516375,0.15769751,0.31215978,0.18340439,0.059845183,0.12753554,0.18542096,0.0051552323,0.096012086,-0.031713996,-0.028399777,-0.11169628,-0.08250747,-0.0945825,-0.058058623,0.04737645,-0.0753185,-0.03605688,-0.06635856,0.024259593,0.0422874,0.04786189,-0.22685438,-0.12163461,-0.06634528,-0.22288992,-0.22398552,-0.19768311,-0.19410756,0.11718399,-0.111052476,-0.29789492,-0.0006547344,-0.064251915,-0.058964834,0.059298385,0.014248398,0.037991673,0.14494823,-0.18901666,-0.23188175,-0.0512765,0.005246806,0.047203407,-0.024972899,-0.05748398,-0.02191016,-0.0012805242,-0.023956979,0.09435784,-0.08564267,-0.0735936,-0.10285835,-0.28939486,-0.11939871,-0.08573357,-0.17476864,-0.054590885,-0.13530573,0.04193848,0.13443342,-0.04854437,0.11597224,0.02845838,0.15299454,0.095251806,0.019194769,-0.12538645,-0.19191435,-0.06503261,-0.03947503,-0.018271366,0.03685917,0.08578304,0.018122159,-0.034852505,-0.008449952,-0.041473955,0.055351365,0.048693493,0.01746534,-0.015073169,-0.16259912,0.08198734,0.07539501,0.0874525,0.0877499,0.13112707,-0.00863572,-0.2878291,-0.2537192,-0.077618934,-0.18729436,-0.03688867,-0.036190737,-0.039572,-0.13351722,-0.07647566,0.00270591,-0.007582582,-0.10734317,0.038774636,0.09886111,0.0939175,0.008662941,-0.051170714,-0.012807146,0.09474335,0.07855894,0.003029534,-0.14627446,-0.022268787,0.12330801,0.37538147,0.31812617,0.08967127,0.06857295,-0.28981927,-0.25383523,-0.17318733,0.007368503,-0.06823119,-0.080701865,-0.010634084,-0.17905514,-0.14046527,-0.043279596,-0.07007011,0.030627288,0.058030695,-0.051324595,-0.040164594,0.018000681,-0.030838199,-0.06457772,-0.023348818,-0.0385269,-0.11208488,-0.1726338,-0.10932927,0.22575301,0.07144443,-0.060320076,-0.15086207,-0.12417258,-0.29094157,-0.17827302,-0.20168024,0.07930996,0.063700624,0.087550506,-0.06465019,-0.033623066,-0.15871578,-0.02008323,-0.008270317,0.009740296,-0.106269844,0.047942642,-0.01994411,-0.031622183,-0.0034497501,-0.10334259,-0.12892976,-0.067554295,-0.21202582,-0.17731883,-0.14600533,-0.02767696,-0.15142548,-0.34109893,-0.2627541,-0.11920437,-0.05692284,-0.059573114,0.0628719,0.119614534,0.015450698,0.13149801,0.06323397,0.022487838,-0.013603795,0.045779925,-0.044759266,-0.010341157,0.07136076,-0.017338626,-0.022355182,0.012278401,-0.01972747,-0.045075763,-0.14240588,-0.075318396,-0.09043037,-0.10894513,-0.095366225,-0.41389954,-0.48796025,-0.41211972,-0.14851993,-0.0045317737,0.054451477,0.012270722,-0.033717237,0.041057084,-0.06629283,-0.01499802,0.062692724,0.06412311,0.0025341131,-0.02125897,-0.04269639,-0.07047818,-0.06177462,0.04504159,0.0912612,0.09168059,0.085984915,0.06309509,0.035578866,-0.053879704,-0.1590649,-0.26196516,-0.36516708,-0.36582613,-0.39593732,-0.29007414,-0.058845423,-0.041886304,-0.051409364,-0.09464732,0.05191714,-0.19208063,-0.109570496,0.052639775,-0.014054244,0.032877043,-0.019915324,-0.02783727,0.036624167,-0.053991973,0.041506607,-0.025043862,0.015707672,0.092123285,0.039332833,0.13272151,0.04891849,0.081034884,-0.12622623,-0.22729586,-0.31655216,-0.29749724,-0.06470267,-0.2663313,-0.08866354,-0.12370286,-0.27928832,-0.14635947,-0.14996094,-0.19762842,0.07671724,-0.011705746,0.0046092793,0.088339575,0.083401464,0.08362504,0.05615177,-0.053400576,0.065813065,-0.0729493,-0.06471925,0.052976456,0.01742816,0.08697344,0.15289752,0.14618637,-0.04812247,-0.3391369,-0.093454935,0.19474249,-0.10276806,-0.08449537,0.0103760045,-0.23894137,-0.29501197,-0.12012095,-0.13448073,-0.16119702,-0.017875452,-0.04227088,0.12191838,0.034963258,0.0118682375,-0.00837737,0.021727983,-0.054099683,0.009197083,-0.009703065,0.05023499,0.002635072,0.086010486,0.19572721,0.16488627,0.18622658,0.083800666,-0.027068004,0.17743355,-0.016766004,-0.11099759,-0.041727867,0.06969184,-0.016297994,-0.11056439,0.11259159,-0.16154954,-0.1020358,0.015324552,0.036847614,0.100373544,0.1789534,-0.044838075,-0.009771991,-0.023218969,0.013608465,0.03657457,0.07363756,0.030171946,0.004113908,0.064977385,0.087349385,0.16657421,0.06444458,0.16558456,0.039724417,0.19253857,0.05515334,0.11010647,0.06259152,0.013688661,0.019288924,0.09944571,0.06378484,0.09942531,0.2107925,0.19428469,0.0023852522,0.046241388,-0.025413953,-0.16489597,-0.021897547,0.048396528,-0.028500723,-0.0681434,-0.03449117,0.044858877,0.022840856,-0.0703972,0.06042326,0.035037555,-0.010486307,0.06695089,0.13292095,0.08690977,0.06911976,0.1685089,0.069290094,0.13006702,0.040843427,0.1086263,0.08933671,0.022903519,0.022094076,0.15659149,0.07798805,-0.04152027,0.030890508,0.04229822,0.021827733,0.023183398,-0.02318198,-0.040483393,0.015232309,0.06571555,-0.06804935,-0.01963656,0.046697035,0.06119964,0.08704202,0.06303888,-0.086492725,0.037450816,0.04088755,-0.00027372348,-0.02446696,0.0075428286,0.1618949,0.066078536,0.0030942203,-0.0013661694,0.12292646,0.032276183,-0.008954975,0.058472328,0.10858553,-0.023503797,0.05636298,-0.03341703,-0.056369375,-0.031410053,0.05061169,-0.070808105,0.11124,0.0723551,-0.04304584,0.029067101,-0.014770845,-0.022271255,0.011084725,-0.008754604,-0.050585285,0.049500708,-0.031717252,-0.018909834,-0.081378646,-0.053798556,0.045723807,-0.020513518,-0.032603428,-0.001275159,0.038728468,0.003032393,0.014978165,0.057467144,-0.045416962,0.07314471,0.034020778,-0.00179027,0.010661899,0.022539979,-0.00082327763,0.009237798,-0.045534458,-0.08422285,0.052872945,0.055247024,-0.01964279,0.010591531,0.05402687,-0.024017103,-0.000104660634,-0.036926344,0.05284433,0.057262044,0.020192318,-0.05812857,-0.06619585,0.019735103,0.021873727,-0.0071033463,0.038982056,0.0024593908,-0.053356603,-0.03493321,-0.019213736,0.0076800957,-0.08154565,-0.006844257,-0.08062145,0.07256274,-0.05720267,-0.030253997,0.041188464,0.052298993,-0.028937703,-0.027868524,0.053744093,-0.022105454,0.056542136,0.014179286,0.0067959786,0.06768269,-0.0012244255,-0.011229177,0.01925553,0.055503305,0.0859446,0.094710685,-0.04077543,-0.0131338,0.034023486,-0.008490972,-0.039816897,0.041532867,0.030225085,0.018726315,-0.049738713,0.045402993,-0.03184668,0.025157264,0.0007110778,-0.06632001,-0.041479096,-0.13543734,-0.06835784,-0.06792053,-0.09131767,0.011178041,-0.07412475,-0.005130188,0.011024353,-0.09486533,0.037124656,-0.023247162,-0.057971276,0.06219995,0.0667627,-0.05011167,-0.09925968,0.038024772,-0.03239424,-0.00060187886,0.03336284,-0.0680787,0.0066754487,0.037560407,-0.017762084,-0.043608416,-0.042096354,0.0437388,0.03213634,0.18144698,-0.037861682,0.016833074,-0.05923404,-0.05476676,-0.035272744,-0.06630218,-0.06801761,-0.096808456,-0.05896935,-0.055241216,-0.0032231605,0.04682875,0.090703376,-0.0798095,-0.020068333,-0.010234421,-0.00072450144,0.024707133,-0.040533103,-0.037825778,0.023339137,-0.025588525,0.029677918,-0.08298623,0.039769646,0.12335487,0.064292446,0.09147852,-0.033904906,0.061852623,0.0693119,-0.009004379,0.016326988,0.0032569247,-0.06584949,-0.08571249,-0.09219012,-0.034395278,-0.11094209,-0.011945015,-0.018456612,-0.009623926,0.01328315,-0.0019984825,-0.011608936,0.029971795,-0.03859399,-0.006482358,-0.0032348204,0.089932546,-0.016706597,0.12267425,0.08801686,0.071088895,0.07689841,-0.011971057,0.09016779,0.052478552,-0.03188083,-0.073296815,0.010360934,-0.106689475,-0.18869784,-0.041594584,0.015423394,0.111369975,0.013264433,-0.023351567,-0.031055037,0.021081349,-0.09681833,0.009523042,0.07141554,-0.07818556,0.03135883,0.006752869,-0.017391982,0.035648387,0.07370112,0.04605015,-0.012185349,-0.083607964,-0.008086466,-0.05037943,-0.20791586,-0.064386144,-0.03784405,-0.06266484,-0.21886083,-0.08546354,-0.06963637,-0.06786128,0.0423464,-0.032249782,-0.054622978,-0.014405025,0.017936794,0.080570854,-0.039498027,0.035096668,0.0048229946,-0.025612762,0.07655559,0.03282995,-0.062124785,0.0020359722,-0.09156498,0.07794906,-0.06346019,0.03125042,-0.044567604,-0.12853399,-0.07108227,0.020908063,-0.073723875,-0.08476228,-0.12945957,-0.17549944,-0.109454915,0.05704849,0.13611218,0.16258802,0.051659502,0.0920665,0.040302437,0.03475866,0.04737402,0.0033564882,-0.01472388,0.007953083,-0.051828157,-0.00413388,-0.023296278,0.02683084,-0.008113702,0.13062239,0.033086564,0.03430372,0.13054155,0.0095886225,0.08201591,0.022233512,-0.0381811,-0.08359904,-0.057860572,-0.061233744,0.10643382,0.18051387,0.09097768,0.13886008,0.11836442,0.05067832,0.02226205,0.015078276,0.033099815,-0.058389302,0.025549024,-0.064432904,0.01780849,0.0581022,-0.022373715,-0.045534767,-0.024964029,0.052278176,0.06453614,0.119989015,0.14215206,0.09836964,-0.0502798,-0.00005479541,-0.0395238,-0.2150089,-0.18307078,-0.044968396,0.286631,0.22469409,0.21553202,0.2614729,0.1699056,0.053339824,-0.04330397,-0.011967309,0.018241655,-0.08726445,0.012430713,0.0032771705,-0.025050268,0.014413014,-0.034939244,-0.055197846,-0.12712581,-0.0108071575,0.030178465,0.021903586,-0.013753335,0.00020875441,0.018942157,-0.034604497,-0.26005757,-0.23129568,-0.020153567,0.110130236,0.14997558,0.19581714,0.14887443,0.14118719,0.026381405,-0.019737339,0.0011295481,-0.049540184,-0.051160242,0.059095778,0.017327433,-0.030926568,-0.030948048,-0.043192536,-0.050316375,-0.07993004,-0.06550646,-0.015334035,-0.036262665,0.008068439,0.10165529,0.03675958,0.032735508,-0.14940904,-0.18625455,-0.23733447,0.054037128,0.08241315,0.18986134,0.0032427958,-0.07852732,0.076432385,0.103379354,0.02664148,0.019636203,-0.009877618,0.008833817,0.049286135,-0.0047678794,-0.02245391,-0.052969698,-0.030593,0.004279754,-0.09752793,-0.060326334,0.013192458,0.10561502,0.22803123,0.0055025592,-0.012739069,-0.16286357,-0.14596717,-0.16059493,-0.018111112,0.019578137,0.09438416,0.008799586,0.011193791,-0.068787076,-0.044584453,0.11886506,-0.024184862,-0.0041206726,-0.01741747,-0.07164714,-0.008354594,-0.029408824,0.030718336,-0.054802917,0.028437,0.0003069093,-0.049407586,-0.020673832,0.18578486,0.18762702,0.06994308,0.017929109,-0.08913553,-0.16251141,-0.23481305,-0.13114761,0.028480183,0.06389726,0.06576601,0.00055728626,-0.11882093,0.03550221,-0.043878224,-0.008232271,-0.05380041,-0.0010796199,0.02642993,-0.0035483183,-0.028346663,-0.016424775,-0.011047537,0.048779156,-0.0983576,0.032824628,-0.1341821,0.07783667,0.08328219,0.08571162,0.0048469077,0.020232597,-0.24920587,-0.17830554,-0.1070458,-0.0288908,-0.049643245,0.102531984,0.038750827,-0.046213057,-0.10650833,-0.16503538,0.011260153,-0.035967197,0.06451484,-0.015855063,0.05186012,0.027167477,-0.03133013,-0.036740735,-0.06750165,0.10218048,0.049204934,-0.033767767,-0.030511688,0.037036248,0.092859626,0.03716615,0.083049476,-0.08084079,-0.13779448,-0.1332823,-0.06771874,0.012093216,0.09587401,0.19198251,-0.02316605,-0.11137773,-0.0445622,0.036858767,-0.0116777485,-0.016878773,-0.11855975,-0.013847255,0.04150044,-0.017623391,0.11212813,0.023092272,0.015315334,0.020420788,-0.06009375,-0.06347391,-0.008715972,0.05585318,-0.002241842,0.089572355,-0.021225687,-0.09456417,0.022518551,-0.019282276,0.12251719,0.023055067,0.054835986,0.043454356,-0.17952262,-0.19531621,-0.12549503,-0.093980335,0.029762046,-0.024723493,-0.012700022,-0.050581563,-0.036588658,0.05055923,-0.016817508,-0.08108082,-0.032216582,-0.0058381204,-0.03527949,-0.045524973,-0.008664739,-0.08871286,-0.023093035,0.07637487,0.050182987,0.015433488,-0.003944563,0.13503943,0.1183756,-0.02780447,0.055946752,0.0024091194,-0.16529256,-0.2144395,-0.053559937,-0.07266861,0.060159553,-0.048823725,-0.030189404,-0.019748094,-0.083665326,-0.008907304,-0.0037461084,0.0011515687,0.06778404,0.029698996,0.006221286,-0.040782746,-0.0608396,0.07573946,-0.114398435,0.015463244,0.077423796,0.124985784,0.0104025975,0.044436686,-0.060459733,-0.037603192,-0.059621155,-0.061636727,-0.10113907,-0.08250325,-0.04997883,-0.06297747,-0.016919645,0.0050766114,-0.06532601,-0.06887298,0.0334274,-0.04921586,-0.025359742,0.017578358,-0.027715508,-0.060239527,-0.029478561,-0.0669024,0.058757063,-0.013435619,-0.004226223,-0.018680032,0.014418688,-0.041623928,0.020444633,0.05282614,0.019325435,-0.09214841,-0.16847795,-0.15239348,0.0005914363,-0.09040815,-0.09450634,-0.09305452,-0.037212994,-0.13172525,-0.043600004,-0.066601194,-0.024868555,-0.045566738,-0.06599452,0.00040394533,0.008981997,-0.06980619,-0.047379155,-0.036783986,-0.043437064,0.02360542,0.08601871,-0.07455915,-0.09523982,-0.018255247,-0.025963403,-0.028270643,-0.038776252,-0.14724006,-0.14125198,-0.07570379,-0.08842513,-0.09823722,-0.028591989,-0.08108434,0.0009278257,-0.10079235,-0.05507466,-0.040665124,-0.01656202,-0.06992171,0.024427744,0.0128088435,-0.040681053,0.05442159,0.045990992,0.066609055,-0.06822032,0.114791036,0.122588344,0.11102148,0.029704744,0.0070053115,-0.056947708,-0.036257096,-0.033561356,-0.049956568,0.017741697,0.10311161,0.120462954,0.048055768,-0.031718794,-0.06284365,-0.014983582,0.012493549,0.048693668,0.008563093,-0.10075545,0.051492732,-0.03295013,-0.05898705,-0.058308516,-0.030230977,-0.06757502,-0.055545017,-0.019010922,0.021687835,0.1949642,0.12823687,-0.04319201,-0.07809375,0.105173945,-0.022557918,0.016240004,0.020292312,-0.07731427,0.12427468,0.012861557,-0.06164531,-0.07335231,-0.10066063,-0.048935328,0.009948932,-0.061479744,0.13269633,0.036982123,0.019626502,-0.080413535,0.009507061,-0.03513895,0.013847912,0.030458817,-0.08415607,0.026750276,0.12218154,0.087976225,0.019849492,0.09303471,0.009763323,0.06687271,0.032342553,0.01022927,-0.12617862,-0.053865444,-0.08642824,-0.100033425,-0.035892695,-0.079184055,-0.08285381,-0.05790959,-0.048453283,-0.030619068,-0.04362606,-0.07382039,0.003374237,-0.04425152,-0.041853316,-0.0094222305,0.0028126317,-0.036362633,-0.03515188,0.12518722,-0.014088288,-0.054256357,-0.01564507,0.13111997,0.057420593,-0.097645186,-0.06892263,-0.077713266,-0.13974842,-0.056969162,-0.15330847,0.06830623,-0.0389904,-0.08139552,-0.10453979,-0.121428795,-0.0015851657,0.020337993,-0.02267183,-0.036673702,0.057102054,-0.031259097,0.015260278,0.02037892,-0.029497517,0.042829394,0.05063011,0.0046518706,-0.03528876,-0.04072534,0.015239397,-0.067559436,-0.0017055906,-0.0040931758,-0.08953944,-0.054310292,0.15170704,0.06346164,0.084791474,-0.0734429,0.037314948,-0.050925788,-0.041741602,0.03738916,0.038276307,0.03923631,0.019521255,0.0036898428,-0.017342988,-0.005633096,-0.03871001,-0.0048169587,0.07025262,0.13345537,0.03924354,0.069681056,-0.0017241748,0.05483674,-0.09408286,0.018311052,-0.035035346,0.0031106253,0.010797689,-0.06088023,0.00040988353,-0.079418845,0.092743754,-0.029254159,-0.016700305,0.03673078,0.040180292,0.010141653,-0.02407449,0.08219879,-0.096814916,-0.088077344,-0.018161917,0.022515312,-0.079524845,0.06004968,0.007869955,0.044053577,0.07069116,0.022069974,0.014356696,0.120965876,-0.023729704,-0.015814794,-0.047714822,-0.013228641,-0.07707731,0.06341705,0.03489237,0.016185503,-0.012514955,0.019310728,0.040645376,0.052884277,0.066734165,0.035541344,0.06271912,0.09844171,0.031154396,-0.038063105,0.025708307,-0.018022835,0.0030365165,0.064314954,0.0024094211,0.13111125,0.014196289,0.011864427,0.03944041,-0.008823787,0.06117143,0.06555911,-0.030257931,-0.026020445,0.01493623,0.034484163,0.029444527,0.045644954,0.042447224,0.05484777,0.0062191985,0.0029567005,-0.04733395,0.06241122,0.07018095,-0.013631253,-0.00431687,-0.12317861,0.000028140712,-0.046746116,0.06888139,-0.014655519,-0.038610313,-0.11369872,-0.02128015,0.063325055,-0.002875681,-0.0045948816,-0.016695397,0.03655342,0.044274304,-0.058250487,-0.00013437467,0.047985528,-0.0049557732,0.058586113,-0.044874378,-0.059134737,-0.07730126,-0.10708226,0.06629366,0.004070407,-0.0319957,0.049542654,0.015302252,-0.036007922,0.044418577,0.04793901,0.038758513,-0.024856633,-0.02424382,-0.057413034,-0.103003345,-0.025502292,0.072710685,0.0390554,0.0016139607,0.017775906,-0.05292392,0.052881174,-0.009936781,0.009637111,0.010762682,-0.026203714,-0.046815854,-0.0876421,-0.08422557,-0.048700616,0.06771196,0.09779926,0.05906711,-0.08504908,0.012722461,0.00028957825,0.040310632,-0.0890249,0.042504333,0.014764353,0.030189162,-0.0022274526,0.015868194,0.05547402,0.038739897,0.057225797,-0.08755899,-0.059244934,-0.11035662,0.041880608,0.013817085,-0.08334765,0.020273075,-0.23262,-0.17795895,-0.15295853,-0.28355885,-0.07124157,0.09087417,0.06111421,-0.005918221,0.126478,0.05759417,0.018535748,-0.005260906,0.01724622,-0.044256624,0.027420511,-0.016102005,-0.021789322,0.078295834,-0.067878276,-0.018481614,-0.0008584363,0.07779132,-0.0533194,0.09612657,0.11598087,0.006631099,-0.03876169,-0.085405245,-0.13740562,-0.27032483,-0.1936847,-0.021341585,-0.021678736,0.15746018,0.0383952,0.08303632,0.05019918,-0.024860494,-0.047420125,-0.017561413,-0.08403717,-0.024864262,-0.026978947,-0.053203274,0.01445039,0.06474924,-0.0066270344,0.021554727,0.019998316,0.031615887,-0.03340332,0.12693183,0.05195586,-0.09939164,-0.111977406,0.015773147,-0.27130905,-0.33829135,-0.20225324,0.016204437,0.12964791,0.13406691,0.16898097,0.05071472,0.054848365,0.053450156,-0.039204195,-0.058544595,0.06814823,0.0417484,0.14119844,0.034667738,0.012186216,-0.12306796,0.020856284,0.055488814,0.023650274,-0.039112788,0.014694955,0.019794911,0.051365174,-0.07207075,-0.033648893,-0.1919305,-0.3189906,-0.28261462,-0.15433532,0.026962912,0.22800049,0.20734254,0.10185789,0.08297592,-0.059868276,-0.023465946,-0.06347792,0.022726072,0.07419728,-0.024158362,0.009281935,0.0553987,-0.00016968924,0.0027077198,-0.02471071,-0.060176846,0.0292611,0.016501643,-0.009739691,0.15095238,-0.0029435223,0.05704368,0.004495839,-0.18334572,-0.24424215,-0.38928524,-0.056590125,0.25481927,0.19397399,0.035512384,0.0050240876,-0.07514867,-0.12788774,-0.022187686,-0.08240635,0.0054857824,0.00964994,-0.013200738,0.014897607,0.05111737,0.05915401,0.0004885056,0.0548086,0.092996575,0.007954806,-0.054867905,0.06581374,0.23777543,0.12474751,-0.0022593124,0.03159646,-0.17072731,-0.24673685,-0.20421524,0.10207133,0.29032165,0.24479549,0.039680365,-0.15582108,-0.18980335,-0.04907176,-0.10675865,0.03800767,-0.04629406,-0.018002173,0.04052312,-0.026737878,0.0048501543,-0.041785892,0.0060601337,0.09189159,0.07304878,-0.09723944,-0.16495825,-0.043122485,0.12904686,0.080075204,0.09953759,0.006347273,-0.39067328,-0.2381251,-0.16983235,0.12856193,0.27283862,0.2267522,0.102223486,-0.14594908,-0.15096329,-0.0786403,-0.041902583,-0.07450971,-0.06497705,-0.032800607,0.033988383,0.07303594,-0.093815684,0.07169219,-0.048173368,-0.013063562,0.008656773,-0.06832432,-0.07433183,-0.117545225,-0.066322535,0.074152924,-0.1485256,-0.14445539,-0.25767487,-0.23758565,0.009668174,0.18983783,0.26190284,0.19064137,-0.018306866,-0.0017749665,-0.09177959,-0.14417496,0.042452537,0.036887385,0.04317256,0.0539569,0.09509827,0.10409257,0.09659098,0.0024877721,-0.0030662676,-0.012146844,-0.066932745,-0.03913322,0.00042102014,-0.16780944,-0.031828422,0.21693207,-0.03152434,-0.07591577,-0.2021146,-0.14088479,0.026594218,0.05834846,0.16377673,0.14271261,-0.090301804,-0.13324517,0.0107451575,-0.019714143,0.014484808,0.010960279,-0.016813042,-0.0014653556,0.017385786,-0.007999205,0.009883311,0.03843925,0.057333834,-0.025674334,-0.0777156,-0.016983924,0.03991027,-0.11314985,-0.08617779,-0.02723866,-0.12238004,-0.21415934,-0.2517832,0.03727089,0.047862858,0.043611493,0.21804278,0.05659007,0.014960887,0.13338828,0.055284135,0.0064067733,-0.012682671,0.041122198,0.005828007,0.12194553,-0.06746484,-0.026313195,-0.04039709,-0.013632977,-0.024900919,-0.020290488,-0.04250949,-0.11232257,0.020730939,-0.08812696,0.06466967,0.14245816,0.09302423,-0.12613602,-0.026778791,0.00545527,0.16118303,0.19613521,0.17915514,-0.015860079,0.035804734,0.053872608,0.10183843,0.027349342,-0.046927523,0.03924595,-0.041592345,0.07687397,-0.11236167,0.02675205,-0.028679099,-0.0049010995,0.027222546,-0.0025772327,-0.0037043286,-0.0720958,-0.015744643,-0.023849957,-0.02748799,0.08494092,0.06008599,-0.10787374,0.05808237,0.1203765,0.1330503,0.049937565,0.056971096,0.033787914,0.044622876,0.007469377,0.08789398,0.05151273,-0.061167236,-0.064056456,-0.00531897,-0.018731894,0.018204464,0.019492537,0.050523136,0.08447617,0.030772964,0.005659295,-0.0057785255,-0.08756203,0.043232568,0.052934624,0.18855481,0.038094025,-0.007320093,0.029341767,0.03427096,0.070939824,0.15276824,-0.050118964,0.012488942,-0.079973586,0.11647906,-0.07707438,0.024594717,-0.18404236,-0.0802209,-0.04200679,-0.1328226,-0.0019914182,0.025839759,0.0448888,-0.08137964,-0.004804261,-0.050484523,0.021607112,-0.14635544,-0.079420134,-0.031375565,-0.081964105,-0.16086598,-0.027212357,-0.059988055,-0.03203664,-0.068611324,-0.029133534,-0.084254906,-0.07774613,-0.1885608,0.021821324,-0.023441346,0.067062326,-0.030064888,-0.012013472,0.01567639,0.07452009,0.023802305,0.021390207,0.034016322,0.08116379,0.07353135,-0.014378908,-0.069201075,-0.044566114,-0.01817779,-0.028691445,-0.16458087,-0.11787933,-0.13553129,-0.13991474,-0.016085593,-0.08002754,-0.087802716,-0.089183345,-0.12224567,-0.13250981,-0.20018342,-0.00024337643,-0.11463579,-0.03940083,-0.06695594,-0.03403095,-0.011493278,-0.04573084,-0.027538829,0.017384507,-0.075744025,0.073805645,-0.09517121,0.035230655,-0.10122087,-0.07562133,-0.013455266,-0.16259645,-0.1289672,-0.14534043,-0.112931766,-0.10430469,-0.039305672,-0.09469034,-0.03086913,-0.16489233,-0.068063594,0.0063397107,-0.13495019,-0.16748032,-0.19996601,-0.004952406,-0.047389336,-0.039238345,0.007573044,-0.025403583,-0.054968946,0.027284361,-0.025470268,-0.05662022,-0.00362982,0.05239767,0.040660914,-0.03433995,-0.0160481,-0.05615836,-0.051316917,-0.16379085,-0.15593956,-0.14746016,-0.098359205,-0.10396973,-0.1559043,-0.03459182,0.010241148,0.0047659036,-0.10013327,-0.030786023,-0.061267853,-0.08600877,0.05742545,0.00976827,0.0022106585,-0.028469129,0.016521426,0.06255501,-0.050513607,0.034431092,-0.02920341,0.0000978736,0.06521111,-0.012260111,0.12747015,0.091839276,-0.10441756,-0.09396973,-0.023499846,0.031792022,0.033131655,-0.14115506,-0.03244046,-0.13813789,0.025763836,-0.10791393,0.012658464,0.04165848,-0.059328485,-0.02631147,0.09771,-0.0061194557,0.024630234,0.049052536,0.030631278,-0.0063736457,0.004668188,-0.05439966,-0.09488195,0.08606168,-0.07380996,0.071797095,0.14085591,0.23728383,0.08796717,0.07686821,0.03612884,-0.030522872,0.01303173,-0.005282241,0.075485624,0.024237018,0.1144317,0.10155028,0.07832684,-0.053254925,0.040058635,-0.083127275,0.026349127,-0.028673045,-0.051927816,0.041048564,-0.039564963,-0.008275528,-0.012337165,-0.041071765,-0.007939699,-0.008564994,-0.016479993,0.065816164,0.07202788,0.081319556,0.08740983,0.097786255,0.035559162,0.0064886664,-0.074784406,0.090313494,0.06231988,-0.06987333,0.06164911,0.10869537,0.042152245,0.015025518,-0.038128953,-0.11305778,0.03933908,0.08278714,0.106887676,-0.015730362,0.07790815,0.0688689,-0.064785704,0.02160107,-0.014839236,-0.026169797,-0.066904105,-0.0045680935,-0.03615929,-0.07157183,-0.0034482735,-0.0037343868,0.00059664715,-0.09105891,-0.104650855,0.00040500422,0.038906924,-0.052621275,-0.025064172,0.03836899,0.15229042,-0.034640837,-0.08203177,0.0011069765,0.0192318,0.060701143,0.04265908,-0.03546271,0.05261199,0.011002543,-0.020015255,-0.054495133,-0.07418711,-0.011171779,0.07684886,0.0059580645,0.03508668,-0.08903928,0.049001046,0.07695226,0.0068901083,-0.07221562,-0.055781864,0.066979855,-0.008373474,-0.13050552,-0.05365644,-0.04587641,0.059789218,-0.017714083,-0.14417177,-0.032003835,0.018719796,0.09045496,-0.023600351,-0.0311674,0.09495152,-0.028738698,0.044859562,0.066818625,0.03798654,-0.06871941,-0.06219777,-0.013928026,-0.037302434,-0.0373292,-0.06200188,-0.06283127,0.023998288,-0.0032332202,-0.073111445,-0.0121501405,-0.057565175,0.08368386,-0.015783945,-0.07204368,0.09819931,-0.05843623,-0.119146645,0.0106590865,-0.05995347,-0.034995113,0.03343785,0.009963966,-0.03768089,-0.011656894,0.06755669,-0.0049644485,-0.017719561,0.0037248067,-0.092422135,0.0654623,-0.11364913,-0.012299946,0.021691771,0.02545975,0.0033962848,0.033881553,-0.072823554,0.025690973,-0.009810631,-0.03800189,-0.0101222135,0.027479379,-0.106046565,0.059607286,0.06202861,0.039409585,0.009401043,-0.04799238,-0.049750097,-0.032507814,-0.13203259,0.009671891,0.07536124,-0.0972132,0.05002725,-0.040261846,0.045788318,-0.010364037,0.022039665,-0.0035274767,0.076477796,-0.021249142,-0.083395526,-0.026140999,0.07749601,0.0044860183,0.010289573,-0.031232161,0.005647458,-0.04132395,-0.06019027,-0.0022018903,-0.022382015,-0.03464648,-0.0067699016,0.010710303,-0.0039437492,-0.09767113,0.026039764,-0.042247254,-0.05853102,0.07340804,0.021998012,0.049436383,-0.051112488,0.028769102,-0.013844512,0.017723203,-0.074880764,-0.022519754,0.10614081,0.06794738,-0.045539185,-0.06337816,-0.083328135,0.013646024,-0.02297696,-0.033201564,-0.017740283,-0.022116166,0.029819092,0.08514074,0.07012224,-0.07551488,0.033760272,-0.049828727,-0.064244896,0.04167509,-0.04993037,0.05329578,-0.05443176,0.08421036,0.056317907,-0.06150746,-0.070484184,-0.042072713,-0.061367836,0.01592162,0.03728294,-0.013488275,-0.12814783,0.0077510783,0.015691627,0.059503444,-0.09700047,-0.030749273,0.007527443,-0.010829752,0.02886693,0.0139725,0.111755155,0.016529147,0.016114084,-0.0025028808,-0.0043646055,0.039406266,0.08408195,-0.019771356,-0.028395467,0.104948334,-0.04252394,-0.055580046,-0.061500523,-0.01248561,0.113967486,-0.13259548,0.009711453,-0.021773972,-0.0015146352,-0.009640468,-0.033823866,-0.0148263,-0.1882212,-0.11099099,-0.0625732,-0.014446049,-0.10016934,-0.004582226,0.0512609,0.022277504,0.08622787,-0.013924059,0.0010277125,0.024918465,0.0024018846,0.033125296,-0.03807878,-0.06344426,0.013841411,-0.04715447,0.062241018,-0.09733439,-0.016447725,-0.1584905,-0.09781353,-0.05086002,0.013151885,0.05237057,0.048526254,0.04350317,0.070279725,-0.03090643,0.015609573,-0.11894646,-0.045836397,0.09580163,0.18058273,0.100538604,0.1458407,0.16593228,0.07129757,-0.012997291,-0.072681434,-0.048420813,0.05631947,0.0075930064,0.009825792,-0.040439427,-0.058983453,-0.13316809,-0.078781046,-0.19791946,-0.036332928,-0.13840877,0.1896752,0.06024665,-0.025722805,-0.11721765,-0.1997097,0.045123402,0.10378892,-0.046024203,-0.090620674,-0.014191317,0.057922993,0.14381883,0.122069314,0.08457537,-0.003098329,-0.02939365,0.025237894,-0.07429647,0.013024254,0.08524006,-0.14590928,-0.16263106,0.0052188723,-0.19511986,-0.31379056,-0.28451696,0.043457687,-0.07410744,0.10645884,0.02053268,-0.26020294,-0.2875531,-0.17434312,-0.11956699,-0.109391294,-0.19699973,-0.09069979,-0.08228074,-0.09296297,0.06879282,0.102530286,0.15265542,0.019760042,-0.011139465,0.019677335,-0.022336794,-0.026589656,-0.07764907,-0.014270583,-0.07537304,-0.0527473,-0.23636387,-0.39782456,-0.09782998,0.22732103,0.29818422,0.19733119,-0.07980937,-0.22076802,-0.08848614,0.096565954,-0.12252727,-0.08967275,0.05080008,0.06583268,-0.013414864,-0.065585956,0.12504531,0.18245333,0.13986155,0.010764877,0.039322063,-0.01038395,-0.012420949,-0.058465183,0.084962346,-0.075756356,-0.06670547,-0.08092041,-0.11496735,-0.28007808,-0.10627073,0.2564213,0.14851399,0.20207474,-0.016904354,-0.20572363,-0.14211339,0.1634555,-0.028002784,-0.020675085,0.035371017,0.0038214459,0.08662832,-0.002393474,-0.11525019,0.19001472,0.17632137,0.121017404,0.041100506,-0.026174035,-0.06935285,-0.042577095,0.035295926,0.0654052,-0.056735765,-0.09001431,-0.17643644,-0.21843453,-0.03444594,0.25602525,0.078163065,0.21170497,-0.16085327,-0.38160533,-0.24146146,-0.11596094,0.0058915983,-0.027075103,0.13374145,-0.019328013,-0.0475385,-0.04373393,-0.01039477,0.15188593,0.287312,0.14650363,0.059576835,-0.053970717,0.0037286314,0.06550628,0.111729704,-0.04032556,-0.06455526,-0.10988804,-0.030519528,-0.17257133,0.047396,0.38241225,0.31501377,0.328282,0.20718569,-0.31282017,-0.34394455,-0.0760183,-0.19579034,-0.11805358,-0.024205035,0.058712646,-0.12128518,-0.05835378,0.11101183,0.0218438,0.06612214,0.03161627,0.05560689,-0.051823903,0.0022265082,-0.02529905,0.0024767471,-0.09872952,-0.10611156,-0.06273022,-0.18867475,0.09141043,-0.067310296,0.19411713,0.16364816,0.42863557,0.47189736,-0.2412044,-0.21633172,-0.12607774,0.00989611,0.17621724,-0.11036177,0.12742782,-0.07339525,-0.012183633,0.001763303,0.09549188,0.18675974,-0.04328387,-0.053976264,0.061277926,0.082905605,-0.0131504955,-0.0011854852,-0.0040374203,-0.1186882,-0.042337276,-0.060832392,-0.10933531,-0.0430545,0.080687724,0.051456295,0.43371695,0.41662115,0.16770647,-0.22622804,-0.12532486,-0.01756878,-0.055459987,0.13784778,0.14904132,0.14642982,0.17201288,0.060762335,0.018362535,0.06420049,0.03317151,-0.0072593214,0.060691044,0.00861767,-0.017123923,0.040129177,0.03751514,-0.12991701,-0.0767564,-0.057306644,-0.046955924,-0.02342854,-0.03949273,0.25102106,0.5022948,0.5623547,0.16781336,0.014604251,0.07958442,-0.032378137,-0.06348183,0.033433974,0.12740165,0.3129563,0.14336915,0.0017694845,0.0212319,0.023469469,0.06831658,-0.07712847,0.02969842,-0.028645687,0.045285765,0.06606371,-0.0333369,-0.117196895,0.056070175,-0.085394956,-0.06339956,-0.093244985,-0.067128584,0.09481044,0.17889713,0.12700081,0.02162238,0.03563392,0.14691721,0.026643401,-0.017332757,-0.07733399,0.03743842,0.047262143,0.090703085,0.061833743,-0.011318941,0.01884376,-0.018547833,-0.044949923,0.005398548,-0.055873375,0.025956528,-0.009321793,-0.069823824,0.013697773,-0.08142084,0.017775232,-0.09316283,-0.18260525,-0.0977665,-0.0016183726,-0.076127075,-0.026889874,-0.04504531,-0.03274091,-0.02425556,0.003021913,-0.04246804,-0.051632605,-0.33467162,-0.2958664,-0.17187361,-0.11298832,-0.13576838,-0.10059548,-0.15112588,-0.06188848,-0.069731876,0.0029912696,0.113568716,0.016693225,-0.030105475,-0.1664419,-0.019246958,-0.029319447,-0.081578694,-0.14803916,-0.112036906,-0.1337988,-0.19031711,-0.009273365,-0.0071376828,-0.09127937,-0.20424773,-0.13019192,-0.07730442,-0.09803978,-0.26141897,-0.32510683,-0.19601735,-0.1578782,-0.036801115,-0.13605502,-0.05194996,-0.0012875625,-0.10401019,0.04568475,0.07509862,0.004758079,-0.121369526,-0.054185513,0.018675447,-0.06644384,-0.023909364,-0.12524815,0.06408352,0.024224771,0.057640426,0.022795206,0.12639336,-0.034067042,-0.18236223,-0.009916305,0.026290694,-0.14314519,-0.04159861,0.022408,-0.1369239,-0.1443492,-0.04580384,-0.04035114,0.003733974,0.08645581,0.01477626,-0.003353896,-0.04910157,0.03128962,0.008177516,-0.053411018,0.0621128,0.14169176,0.10135081,-0.016074242,0.09757034,-0.09416155,0.12368004,0.12408065,0.011348938,0.04461806,-0.14272645,0.1327303,0.122305594,0.050475154,0.056535594,-0.07318319,-0.29470456,-0.15282157,-0.10454305,-0.054889973,-0.065915465,-0.033037268,0.03339018,0.025550967,-0.01794888,-0.016119566,-0.027870335,-0.039744034,-0.11271962,0.094942905,-0.07746869,-0.01650304,0.039168574,-0.18132827,-0.02536676,0.109278694,-0.016141014,0.075050116,0.021144595,-0.09854195,-0.035387155,0.015453218,0.027203448,-0.27910942,-0.26700172,-0.1437609,-0.06501201,-0.004382275,-0.047480762,0.03441234,-0.04740511,-0.08846503,-0.03218329,-0.0069268323,-0.05699667,-0.23295365,-0.1270856,0.003957066,-0.062123593,0.14407799,0.01534098,-0.098283656,0.015577201,0.14661962,0.0035926434,-0.17912687,-0.10747917,-0.21243496,-0.16437776,-0.08057616,0.04567488,-0.19188635,-0.23138838,-0.15703537,-0.16412722,-0.025963256,0.008035979,-0.044137713,-0.0032588334,-0.0031180156,-0.0100951865,-0.11032325,-0.018345138,-0.13856989,-0.13851634,-0.12375029,-0.04574298,0.10297245,0.06631417,-0.03625831,0.25436467,0.03001746,-0.054892465,-0.18720354,-0.07259823,-0.17472258,-0.008754664,0.027150728,-0.1130357,-0.18802245,-0.12952857,-0.078170575,-0.14149365,0.00929463,0.008136611,0.03293269,0.034022227,0.01668793,0.081003085,0.010973027,0.0862882,-0.05372108,-0.048457243,-0.20323828,0.023825578,0.069708616,0.0760214,0.08174918,0.23198074,0.04169028,-0.062780075,-0.14974754,-0.12876995,0.014678119,0.007870561,0.027409231,-0.12425933,-0.28006202,-0.10519503,-0.07033341,-0.051612966,0.05601183,-0.0038509883,0.056027796,-0.021774098,-0.065469995,0.14950924,0.013459904,-0.030223502,-0.051837794,-0.04334694,0.006773526,0.059622932,-0.015509535,0.020039283,0.13144742,0.16610171,0.18497667,0.034306813,0.075694084,0.035681896,0.015738348,0.03954779,-0.12639442,-0.17140739,-0.19809899,-0.10211421,-0.12721696,-0.010423219,0.027210338,0.033741627,0.024012066,-0.07429872,0.038406394,-0.03217941,0.0011495268,-0.12532517,-0.0473632,0.04048395,-0.13641532,-0.068699755,-0.00074640673,-0.062017556,0.16231443,0.11364572,0.03552977,0.016847774,-0.12180587,-0.22918488,-0.06209384,-0.13004863,-0.053917613,-0.050955225,-0.16064425,-0.029539905,0.009026958,0.02125344,-0.02784522,0.05276615,0.053714804,-0.108666085,0.04803593,0.06809274,-0.02151141,0.061807957,-0.015669389,-0.035737067,-0.078798324,-0.10822022,-0.32981104,-0.11164234,0.041099813,0.040631425,-0.051839866,0.0074060843,-0.0045414413,0.110685065,-0.067136414,-0.007892115,-0.097229384,-0.066755325,-0.0036992293,0.0298842,0.08635501,-0.009457951,-0.052745353,-0.0099568395,-0.018032428,-0.0010680656,0.021840828,0.044670578,0.05489674,0.11152645,-0.051345944,0.029285498,-0.10588559,-0.07282278,-0.05787036,0.013024215,-0.07956837,-0.021502161,-0.02318214,0.035781275,-0.123224705,-0.022051668,-0.027693745,-0.047352735,0.07514795,-0.013216682,-0.037519645,0.033676706,0.03394639,-0.03956374,-0.001697982,0.0348723,0.07563094,0.06371911,0.030681042,0.023070255,-0.008305588,-0.0355437,0.031487133,-0.009515048,0.04137236,-0.03868967,-0.022656357,0.07054202,0.053044435,-0.009404132,0.08070391,0.008506374,0.014229268,-0.027897151,-0.04172203,-0.03885366,-0.085371554,0.031795196,0.01770847,0.036262244,0.036718953,-0.018852744,-0.02743448,-0.028461996,0.017210692,0.02935719,0.06686362,0.0040573333,-0.031461127,-0.06852715,0.086736806,0.04836821,-0.02026315,0.004235052,-0.06035634,0.04574705,0.024848547,0.014215373,0.044446785,0.023498246,-0.099056244,0.10481087,0.10102876,0.16178796,-0.04420482,0.005972329,0.0679866,-0.024669753,0.02212164,-0.08564415,0.068761714,0.04522493,-0.02794049,0.006518227,-0.00177433,-0.035700195,0.061665896,0.03622721,0.0390459,0.027028644,0.074721634,0.1006447,0.084672555,-0.11637579,0.08214267,0.04513043,0.003785999,-0.032999143,0.017776214,-0.063953646,0.011122675,-0.06222791,0.12049877,0.01778613,-0.01120046,-0.040096942,0.0009923751,0.008317483,0.043092538,0.0076757343,-0.07713302,-0.025269069,0.035600837,-0.04106202,-0.04774025,-0.006459143,0.024383007,-0.05459901,-0.058541946,0.052552205,0.032846507,0.011654208,0.041541018,-0.08684377,-0.029914644,0.08831881,0.10387424,0.020902473,0.052578524,0.06324905,-0.0037049507,-0.0043041618,0.061669584,0.04996575,0.024101174,-0.008408598,0.020683983,-0.008905665,0.015521518,-0.032032933,-0.07406872,-0.07229826,-0.02263869,-0.023744877,-0.020570492,0.046797115,0.0009558873,-0.028371872,0.012464996,-0.011448479,-0.03050766,-0.068110324,0.01543774,-0.049454067,-0.058801394,0.02166709,-0.15857276,-0.04212723,-0.0035325403,0.07454241,-0.010031734,-0.00024294131,-0.012919285,-0.075329974,0.046242777,0.035492484,-0.0039502317,0.09420466,0.0115994355,-0.030550098,-0.008939416,-0.031230615,-0.01584967,-0.008578986,-0.026597833,0.02210753,-0.07738016,0.011305526,0.08275407,0.051647764,-0.041037474,-0.072975,-0.10391789,-0.108009204,-0.030019607,-0.06743161,-0.061942726,0.029126318,-0.027447192,0.074278824,0.026161734,0.029391415,0.028249104,0.08338247,0.01680878,0.011923528,0.04779051,0.0054226816,0.05114598,-0.06289584,0.028576571,0.034905672,0.040165417,0.10324026,-0.048988856,-0.025365168,-0.017010137,0.049956355,-0.0013143332,-0.08351987,-0.094838694,-0.12203049,-0.1148665,-0.20377551,-0.13488626,-0.07500141,-0.07758626,-0.0004262806,-0.0012422706,0.0026555147,-0.06791466,0.003497818,-0.09339816,0.018030286,0.058831822,-0.020641789,0.030041404,0.022215389,0.04504838,0.012639529,0.013067942,0.039451517,0.12037804,0.050130177,-0.022201288,-0.09380431,-0.026890479,-0.0097277695,-0.07022783,-0.10797363,-0.09760001,-0.04667741,-0.081206694,-0.012974829,0.06042517,-0.05239028,0.026095383,0.06636076,-0.029513704,-0.094575785,0.050121102,-0.011537661,0.061394356,0.023077508,0.018668355,-0.11838059,0.001546096,0.10280383,0.057635702,-0.01496184,0.018023554,0.047460884,0.021512587,-0.033781055,-0.044611953,-0.10118772,-0.07555723,-0.08869828,-0.040415555,0.08008772,-0.025280094,0.072554894,0.013313967,0.07657232,0.04877695,0.04925701,-0.059132684,-0.080177575,0.00017062172,0.04052407,-0.06409967,0.013985392,-0.038963787,-0.02085253,0.014380417,-0.00506876,-0.007733044,0.0966309,-0.09927934,-0.041876875,0.05833843,-0.025675979,-0.103879824,-0.101102464,-0.116289206,-0.05807615,-0.009540302,-0.027959924,0.04154542,0.012601888,0.08890834,0.06887744,0.071802475,-0.017085928,0.019331466,-0.058410842,-0.008583267,-0.059731893,0.04715571,-0.078085884,-0.0131060025,-0.018807113,-0.069716744,0.059409495,0.04172047,0.07766967,0.0136939725,0.03856147,-0.1256647,0.0082042115,-0.108560115,-0.1307967,-0.22463186,-0.046936758,0.12524737,0.07305176,0.042468652,0.06299217,0.13143209,0.112124056,0.045406252,-0.023631224,-0.037927125,-0.056187384,-0.029797267,-0.056958552,-0.041700218,0.07098428,0.005638846,0.081775144,0.044977974,-0.020365085,0.045251787,0.035162795,0.016573615,-0.042579643,-0.00047191404,-0.04062042,-0.07467081,-0.21438044,-0.29500738,-0.06361417,0.034505174,0.060867753,0.017103607,0.05942688,0.06946798,0.2280948,0.06257505,0.004922812,-0.023703283,0.009455054,0.009231419,-0.01762078,-0.015116285,0.00811752,0.05150294,0.019995868,-0.0076005766,0.084366076,0.041062016,0.026147056,-0.020067943,-0.03401064,-0.046952363,-0.036979478,-0.05608222,-0.15311387,-0.08233973,0.19810264,0.058682602,0.11570178,0.05115975,0.13720086,0.15325716,-0.030181607,0.06500478,-0.01146692,-0.03312584,-0.0025189153,-0.05207544,0.10724504,-0.01580889,-0.011477154,0.0001757969,-0.024003249,0.035803888,0.011905817,-0.046737928,0.061229903,-0.036585808,-0.045215502,0.011420886,-0.10504997,-0.11963792,-0.1772168,0.05220339,0.108957894,0.10918032,0.023004886,0.046441425,-0.042290825,-0.066911675,0.003902948,0.039859194,-0.01589971,0.06945211,0.040029775,-0.14440136,0.00060238346,0.003966883,-0.008314356,-0.040994793,0.040664397,0.02324769,0.038463924,-0.036573343,-0.03206262,-0.12248018,-0.039294813,0.049567077,-0.08297708,-0.1295206,0.00492942,0.0064518168,0.11659392,-0.019822836,0.024096861,0.06853245,-0.06962375,0.06102048,0.07269366,-0.022560894,0.024038596,-0.0042503537,0.056051616,-0.11620565,-0.010552421,0.047089078,-0.045126233,0.010488298,-0.053666003,0.03137746,0.011426773,-0.010894712,-0.037646513,0.0061164866,-0.12043636,-0.04672765,-0.046550743,-0.08085782,-0.009265045,0.12921205,0.003289801,-0.026282772,-0.122469835,-0.052860875,-0.096986905,-0.08139802,0.0815397,0.021230312,0.09334865,0.057547204,-0.0607048,0.031683594,0.1188107,0.072004996,0.006241416,0.02488817,-0.013525774,-0.019453693,0.012892142,-0.010009503,0.0060283304,-0.01692897,-0.010088542,-0.078925155,-0.13944092,0.024452377,0.108748786,0.058823,-0.0476873,-0.032526735,-0.12116371,-0.12324724,0.022192976,0.04115725,0.06947849,0.11253852,0.034286566,0.03369481,-0.076758794,0.021887332,0.007895349,-0.024641678,-0.06346061,-0.03368947,-0.0008894951,0.006590772,0.007326058,0.012043555,-0.12948042,0.0134061165,-0.08490516,-0.07378937,-0.056828298,0.06358627,0.14770272,0.015269635,0.0030926534,0.04451961,-0.12822777,0.013523455,0.045295708,0.06172162,0.014107484,0.004999131,-0.012930915,-0.047407378,0.0017090011,-0.0128762,-0.08058246,-0.06505669,0.003925037,0.093785696,0.036623146,0.017578216,-0.021388289,-0.008566525,0.025172016,-0.05553003,-0.05117395,0.0729314,0.058061663,0.130288,-0.06964232,-0.02351867,-0.05071216,-0.09613829,0.03844682,-0.0064738216,-0.0029171535,0.017295495,-0.004141272,-0.024612542,0.0046953177,0.045517996,0.019268658,-0.0606007,-0.023289263,0.04834804,0.06772244,-0.07774685,-0.030609263,-0.08299954,-0.068687394,-0.060058706,-0.088308886,-0.050323002,0.055164028,0.07373809,0.21492313,0.058785647,-0.098424755,-0.13122378,-0.07681947,-0.0979944,-0.117086545,-0.06749165,0.055852197,-0.0523325,-0.0049499236,-0.010296506,0.031021027,-0.0760566,-0.06683306,0.046553902,-0.02198333,-0.008767625,0.026254443,0.0055746576,-0.0075802556,-0.04138019,-0.059902962,-0.03895526,-0.007791285,-0.048827436,0.0552521,0.07681418,0.20718887,-0.006802843,-0.14326233,-0.20566161,-0.076920785,-0.13630152,0.035324585,-0.0015102512,-0.025951115,-0.051214997,-0.050012656,-0.02020702,0.06558041,-0.048763175,-0.10692938,-0.09541804,0.030265428,0.060736615,0.058466386,-0.042804018,-0.0636285,0.05726407,-0.010534546,0.007794941,-0.08858523,-0.0909261,0.15052807,0.13008936,0.12553254,-0.21069935,-0.22068578,-0.24746685,-0.037913483,-0.031069484,-0.12368488,0.028607612,-0.057769854,-0.11009085,-0.04913352,-0.054131016,0.01086502,0.065658785,-0.0493402,-0.008494039,0.037609983,-0.08883681,-0.0038970732,0.05450121,-0.045032416,0.015447134,-0.014768612,-0.034120552,0.009826675,-0.051903434,0.0031832345,0.09584041,-0.15669061,-0.1854134,-0.19026874,-0.17351444,-0.04735353,-0.13073353,-0.08809075,-0.060504366,-0.036959007,-0.030282237,-0.05554666,-0.018693699,-0.06261639,-0.005216885,0.041370593,-0.017441476,-0.058742262,-0.018632716,0.0010443798,-0.1032464,-0.0010423396,-0.021007035,0.0016342133,0.19556989,0.05127097,0.08338251,0.09450954,-0.05788056,-0.037312716,-0.016937084,-0.10869486,-0.09776666,-0.06397545,-0.010344879,-0.012897212,-0.09933642,-0.04673135,0.020070944,-0.010919814,0.014087716,-0.04401349,-0.0016164111,-0.018855063,0.09684658,0.0326328,0.06810038,-0.01796234,-0.043502383,-0.021790555,-0.097593874,0.10967403,0.05913619,0.031813927,0.04831174,-0.03153965,0.020407462,-0.017645668,-0.07225576,-0.084711306,0.013963288,0.016252771,-0.024323724,-0.00080668833,0.046573054,-0.017347742,0.013215464,0.05148978,-0.03981717,0.0029888197,0.020364122,0.035157595,0.09313895,0.0172029,0.026061477,-0.116765775,0.016669337,-0.054040767,0.0494212,0.046691734,0.096740894,0.06673694,0.01991766,0.07224772,0.03630867,-0.0834715,0.0359398,-0.06962133,-0.07684338,-0.06523149,0.023893954,0.026630653,-0.030502088,-0.065317184,-0.035728842,0.07226948,-0.024002139,0.02386005,-0.077599704,-0.050865967,-0.010452976,-0.013242867,-0.033549387,0.023729445,-0.00067287474,-0.030315045,0.05641599,0.010845154,-0.017270254,-0.044327583,0.056539513,0.07790501,-0.010397168,0.06726675,-0.02271458,-0.14527458,0.027072938,-0.08273086,-0.04191965,-0.029818024,-0.04250707,0.0031082593,0.024986086,0.09721874,-0.005995796,0.0111086825,-0.017687157,-0.013486597,-0.04401797,-0.011281919,0.015498267,-0.08616763,-0.00823356,0.08247075,-0.01642434,0.061704773,0.029168576,-0.02054703,0.017689403,-0.030624917,-0.070933886,-0.05826231,0.0061103133,-0.035995565,-0.021762896,0.008925864,0.029287934,0.10109772,0.05274809,-0.012708192,0.106185324,0.02044683,-0.082644396,0.12120465,-0.044598397,-0.07439506,0.040199455,-0.066983625,-0.053234078,-0.15574445,0.0026974732,0.009439732,-0.023756031,-0.010768285,-0.046057407,0.018432787,0.012513766,0.13930257,0.010618483,0.005243655,0.06313987,-0.0762246,0.093967855,0.059913166,0.021347137,-0.033574514,0.026301911,-0.02658169,-0.050510414,0.021741653,-0.05000742,0.011048729,0.05414225,0.0018893727,0.027519649,0.048903562,-0.026166417,0.078337386,0.042408206,0.036315214,0.08793298,0.09607045,0.02687595,0.00013878333,-0.020663809,-0.013018177,-0.015391161,-0.010409106,0.051701255,-0.11407794,-0.0073440005,0.06828952,0.051290624,-0.113891475,-0.028830783,0.0625572,0.066021,0.014173261,-0.075767666,-0.015088548,-0.0126060825,0.026707157,-0.0768048,-0.005366232,-0.07897434,0.033947255,-0.00017707246,0.019030413,-0.075273015,-0.008087077,0.050958768,0.099476576,-0.036150254,0.033057235,0.008591715,0.038692962,0.04797959,-0.041688148,-0.021643069,0.055815913,-0.094876,0.0333958,0.064103685,0.08274509,-0.04412812,0.019233165,0.03385912,0.022150237,0.013123112,0.0796526,-0.021919873,-0.044454686,-0.0055626486,0.13036402,-0.0035084116,-0.018299514,0.03758406,-0.02699954,0.012497306,-0.09672545,-0.052100327,0.070606686,-0.01662673,0.06235898,0.0016748898,-0.023011338,0.000652753,0.008268604,-0.0069798343,0.0032630998,0.07459876,-0.026557934,-0.0004883972,0.019179435,0.01971579,0.07231812,-0.09077614,0.029684395,0.015527207,0.03313757,0.12699875,0.012605101,-0.10694239,-0.017013175,-0.057906803,0.04268218,0.04594199,-0.04331635,-0.032556754,-0.05819667,-0.026067728,-0.0554468,-0.051589597,0.01761339,0.008843856,-0.06709675,-0.013779356,-0.04143487,-0.025879588,0.01447565,0.016736986,-0.028988592,-0.06254786,-0.01916631,-0.05526789,0.015128506,-0.0026757743,-0.0059255385,-0.017186979,-0.05407838,-0.012970672,-0.02785623,0.061027758,0.09056435,0.07697098,-0.02849674,-0.0060064294,-0.11425403,-0.06734224,-0.017287752,0.09818165,0.046697594,-0.055511728,-0.032880552,-0.08934636,-0.122162566,0.0659871,0.007784477,-0.091383085,0.012403272,0.063451655,0.04409553,0.09663477,-0.04225749,0.10156136,-0.02262565,-0.018454602,0.00045024755,0.05404215,-0.01451187,-0.002023282,0.075912975,-0.07465775,-0.04615215,0.025559481,-0.027906157,-0.15568624,0.0037411528,0.08023986,0.10294074,0.038491245,-0.029300097,0.07588466,-0.082698226,-0.11330642,-0.048930462,-0.14145346,0.011357104,-0.052473687,-0.027868276,0.031240644,0.0046786354,0.028886624,0.040048677,0.055113442,0.056505404,0.035454247,-0.018562153,0.018793324,-0.027345702,-0.027220523,0.0052505634,-0.09027905,0.021582413,0.0058212914,-0.031980205,0.049461965,0.09963994,-0.10669344,-0.01768686,-0.055697497,0.029039077,0.0195039,-0.022051679,-0.22331339,0.030214861,-0.014534216,-0.06498633,-0.016268235,-0.026196348,0.018408153,-0.0072644507,0.03966787,0.06221109,0.08305171,-0.020333614,0.07235523,0.04281682,0.03319503,0.17312533,-0.1525623,-0.00013314257,0.03243747,-0.049790945,-0.04691062,-0.13061301,-0.08646264,-0.11572237,-0.102930166,-0.009806576,0.012224154,0.005897289,-0.029031321,-0.06207363,-0.09818241,-0.049171384,-0.048019245,0.0075928005,0.005364447,-0.006962917,-0.0039669285,-0.032475557,0.016247079,0.038428187,0.058223408,0.07465167,-0.034442168,0.062916204,-0.12501836,0.06980679,0.026772045,-0.023137761,0.013001054,-0.109627604,-0.19331993,0.009383,0.07008927,0.013438684,0.007119481,-0.0057941205,-0.11479863,-0.118484214,-0.22400649,-0.1271503,-0.09449387,0.022087494,-0.14274263,-0.010857522,0.015273012,0.06632832,-0.120954074,0.048716385,0.09315714,0.16688393,-0.04543872,0.06644098,0.1168127,-0.03822676,-0.12581195,-0.059004564,-0.03596727,-0.15831593,-0.1347516,-0.019306213,0.16242732,0.03712576,-0.1575373,-0.090420574,-0.0844126,-0.20106618,-0.16386682,-0.092550375,-0.04070819,-0.10654239,-0.07413322,0.02830587,-0.055232923,-0.0013807913,0.03756576,-0.009641511,0.007153434,0.05447832,0.12034919,0.022634486,0.021855986,-0.08267171,-0.096932314,-0.04913074,-0.15953188,-0.2379616,0.1049556,0.32424232,0.17752597,-0.03158839,0.0035723313,-0.069525346,-0.08412168,-0.187858,-0.09881901,-0.010057233,-0.059636246,0.056383047,0.07451747,0.03529424,-0.014123112,-0.031062312,-0.021854652,0.034855306,0.029753631,0.018109577,-0.065977536,-0.09982441,-0.064067855,-0.049964298,-0.07677524,-0.045191653,-0.23985128,-0.06793534,0.25813264,0.25544032,-0.10102403,-0.15881753,-0.09318447,-0.092547975,-0.10724133,-0.1968595,-0.020330118,-0.07680471,-0.022789132,-0.04069084,-0.042450607,0.10621339,0.023883006,0.04221276,0.036032025,0.022885997,0.04554331,-0.025149366,-0.1518289,-0.12612136,-0.079888605,-0.18998596,-0.19623975,-0.067924984,0.01398325,0.19839448,0.25100118,0.13406126,-0.029539656,-0.06825257,-0.061355177,-0.05587873,-0.028750215,0.028719077,0.051723417,0.021773942,-0.017187268,0.016781224,0.004199423,-0.008879197,-0.022071771,0.008674917,0.04469421,-0.019216808,-0.004104686,-0.09333429,-0.12997086,-0.33693144,-0.18830253,-0.13826518,0.04031248,-0.0040171505,0.12702267,0.08074011,0.07152254,-0.12087423,-0.0015762934,0.047524918,0.04798042,0.10962103,0.16304229,0.17700364,0.14978854,0.026940288,-0.0033359234,0.034409676,-0.0008371509,0.014843952,-0.02741421,0.09479215,-0.050121207,-0.051638536,-0.095966265,-0.03199632,-0.02550051,-0.11345254,0.07358952,0.006879207,0.12555197,0.1807353,0.1763578,0.20796074,0.16237801,0.01635422,0.0895527,0.09423577,0.20496753,0.25345504,0.15902293,0.19789654,0.23287946,0.22998488,0.028123198,0.09060951,-0.08000443,-0.026407288,-0.0029440017,0.014971922,0.080010235,-0.007827414,-0.062453635,-0.031562824,-0.0017228512,0.04705157,