{"version":1,"layers":[{"Relu":[784,128]},{"Softmax":[128,10]}],"seed":"2179287362","error_function_type":"CrossEntropy","meta_data":{"accuracy":0.9807,"error":0.013850799,"epochs":10,"duration":{"secs":179,"nanos":596216333}},"weights":[{"v":1,"dim":[128,784],"data":[-0.091039486,0.09732856,0.0730776,-0.0061474154,0.050035518,-0.035708543,0.10508256,0.015559688,-0.03340079,0.04342977,-0.02594536,-0.039746482,0.010373883,-0.011972987,-0.03525154,0.022575278,-0.08257664,-0.054883704,0.03639132,-0.013502637,-0.10185055,0.089684665,0.009958272,0.017947948,-0.12002952,0.028202368,0.03605518,-0.022739025,0.024832498,-0.019339599,-0.03889198,0.01861379,-0.0059513403,-0.045805436,-0.031220958,0.053512514,0.028391112,0.03631436,0.010612794,0.07978507,-0.05937978,-0.02966508,0.011427603,-0.0037815208,0.0017415292,-0.025421824,-0.034886252,0.011141164,-0.09829863,-0.018926742,-0.063667305,0.013097699,-0.068840146,-0.008528963,-0.0112654865,0.00551093,-0.012598832,0.09877543,-0.056859024,0.052360702,0.012410099,-0.032052077,-0.00014075148,0.053837046,-0.005828971,-0.025518443,-0.05785589,-0.08903407,-0.0044823815,-0.046763584,-0.06823785,-0.059495386,-0.03554585,-0.010911758,-0.05866916,0.00028803432,-0.02964262,-0.06959889,-0.0032531382,-0.051112607,0.12816483,0.064350836,0.027341953,0.02493189,-0.023492197,-0.088837415,-0.009873782,-0.08307394,0.049998384,-0.011300865,0.033121876,-0.048819907,-0.011154897,-0.038899615,-0.017638132,0.05611618,-0.07967117,-0.11192383,-0.12697245,-0.058276482,-0.010292894,-0.14461252,-0.122637756,-0.057790667,-0.07829766,-0.017981336,-0.011879586,0.026947241,0.00898217,0.019995576,0.014001056,0.04790615,0.011476176,0.08426673,0.043121677,0.007450696,-0.07750628,0.0028236965,0.018026218,0.00458445,-0.0063198674,-0.03968989,-0.06964264,-0.14648722,-0.19461751,-0.15979108,-0.14645246,-0.16667421,-0.10198514,-0.06704499,0.0111426255,-0.016345112,-0.03657506,-0.077346265,0.080036916,-0.003675488,0.15254346,0.058835182,0.037120078,-0.022949202,-0.0011796079,0.050048873,0.009622227,0.0012738837,-0.061845746,0.05872932,0.025331585,-0.10039454,-0.12327018,-0.16828136,-0.092218086,0.026912004,0.0045170276,0.002031266,-0.09255763,-0.056215655,0.013497512,0.18754187,0.14762603,0.08879237,0.06868126,-0.06267964,-0.05081882,-0.071606874,0.005458895,-0.00151079,-0.029189171,-0.05972258,-0.08067093,-0.010656618,0.068452515,-0.018102972,-0.040847138,-0.055795673,-0.046275634,-0.13759206,-0.11558984,0.051326785,0.025270721,0.20963761,0.121525936,0.114105046,0.30042744,0.38226378,0.2716578,0.20928046,0.14754495,-0.06610967,0.0069446964,0.021024182,-0.024907837,-0.047369402,0.017886005,0.0398735,0.06119189,0.013566976,0.011595398,-0.055335786,-0.025010139,-0.06721203,0.020758122,-0.109588556,-0.08579159,-0.0967756,-0.046312667,0.039884616,0.20852087,0.0911561,0.22520211,0.3154149,0.25578186,0.18352711,0.0684711,0.017660225,0.14047821,-0.08883528,-0.07738857,-0.080115356,-0.09644783,-0.16013882,-0.013905881,-0.009661263,-0.026365178,0.015955059,-0.005459262,-0.008247608,-0.011387918,-0.009814982,-0.06754861,-0.029882222,-0.10214247,-0.06419039,0.083969094,0.06295723,0.11884223,0.275392,0.20130792,0.33070925,-0.04383105,-0.0637556,0.032053966,-0.0039311685,0.116550885,0.04900273,-0.0821528,-0.05852552,0.01570986,-0.031232454,-0.042844143,0.011723419,-0.05230562,-0.010773812,0.051061366,-0.033372037,0.047155026,0.053508803,-0.060162723,-0.074226566,-0.06908771,-0.056069214,0.07479472,0.060531516,0.1409106,0.21950744,0.09779622,-0.068774156,-0.14348249,0.009937738,-0.10225211,0.14925879,0.18132934,0.24878572,0.042450156,-0.06423289,-0.06487011,0.08446359,0.13587776,0.05185433,-0.027706258,0.030071802,0.035174064,0.13327248,0.02129064,-0.043684267,-0.02580361,0.028937798,0.09790202,-0.14715768,0.017463526,0.10689293,0.068563886,-0.122019984,-0.23213615,-0.28149843,-0.0032001962,-0.18285725,0.10580754,0.20473763,0.33396733,0.059287407,0.10651499,0.0068453164,0.012538766,-0.029124644,0.03966346,-0.022252502,0.023467636,0.0052483957,0.013490279,0.016052075,-0.018110907,0.012474983,0.039100315,-0.05549274,0.021589639,0.026507057,0.057206403,0.0656515,-0.05767199,-0.19031759,-0.1446376,-0.0037426453,0.16404916,0.14541739,0.09096374,0.15746543,0.025082871,0.049744505,0.13125677,0.1348911,0.18357566,0.0027643214,0.0053307377,0.03949741,0.068293706,0.024597926,0.029407728,0.0030487997,0.047032505,0.10628037,0.055810556,-0.048637025,-0.024169613,-0.018164417,0.053746175,-0.095278285,-0.18494551,-0.2429112,-0.11986418,0.1606167,0.13654491,0.108508065,0.05955541,0.07137677,-0.09244263,0.121149875,0.035968598,0.04440979,0.00029386068,-0.04717762,-0.118276194,0.06695916,0.054438625,-0.043409508,0.018528055,-0.023953544,-0.041740958,0.097230166,0.017260151,-0.00045983164,-0.04779505,0.0046986146,-0.076828875,-0.13099046,-0.041479923,0.10488366,-0.036887106,0.16818193,-0.011475238,-0.12666789,-0.00048366238,0.004610719,-0.05172053,-0.04485927,0.034780152,-0.095372275,-0.124673486,-0.1600809,-0.13094226,0.010774126,-0.005301895,-0.05690092,0.03182074,-0.016887233,0.030195711,-0.038582176,-0.006780224,-0.18747848,-0.03673034,0.02876289,0.04625644,-0.044607453,-0.009324244,-0.1494319,-0.16299063,-0.014999187,-0.12338609,-0.03343072,0.04419207,-0.009380607,-0.014953303,-0.08740457,0.10931357,-0.06049984,-0.084230594,-0.111964375,-0.034631807,0.020489192,0.00895023,0.02714858,-0.028785447,-0.041405186,-0.073115356,-0.026256714,0.05192946,0.0048522474,0.096937835,-0.05503128,0.11198214,0.09572023,-0.06429799,-0.10260988,-0.009916568,0.012902498,-0.11916847,0.07156859,-0.031687535,-0.037404053,0.026214927,0.010373269,0.026339637,-0.030602261,-0.06860778,-0.049076155,-0.028797062,-0.0133646615,-0.14448456,-0.026846386,0.045361485,-0.022266358,-0.08911861,-0.030915894,0.02135735,-0.020933356,0.004813402,-0.122353405,-0.030545231,-0.017137941,-0.027492352,-0.0037909234,-0.069384776,0.08218623,0.013692744,-0.08427296,-0.23730318,-0.04019422,0.07218939,-0.17219278,0.022386858,-0.11183225,-0.05637486,-0.027462553,-0.09994011,-0.0191398,0.010248666,0.014858632,0.03453587,-0.0019363264,0.04745443,0.018539617,0.0043801935,0.024323165,-0.052129585,-0.11170418,-0.0326685,-0.117703766,-0.14842553,-0.031780463,0.05228528,0.051994283,0.016437577,0.010139726,-0.34066457,-0.09960515,-0.08588498,-0.025948571,-0.11017076,-0.03540728,-0.13384473,-0.06801007,-0.0035150896,-0.02487811,0.026853798,-0.019390993,-0.11417101,0.006953673,0.03598148,-0.012090752,-0.021074694,0.11208082,0.07566554,-0.0044321697,-0.015797874,0.04898424,-0.19685279,-0.017845703,-0.07382562,0.05462254,-0.042125735,-0.03912862,-0.17237632,-0.033371665,-0.085061096,0.021876141,0.0000010659751,-0.021875389,-0.005877864,-0.20058206,-0.08747936,-0.041479178,0.022986334,0.019893717,-0.10312379,0.08051962,-0.0032331743,0.0033710229,0.06093831,0.040979885,-0.015906537,0.008854874,-0.10629142,-0.018802274,-0.003804259,-0.101669565,-0.11917092,0.016225569,-0.031267002,-0.116665825,-0.0020304765,-0.025556272,0.0744159,0.021125536,0.12322648,0.022637129,-0.046257026,-0.12599708,-0.08513531,-0.0026818067,-0.02812279,0.0007778357,-0.06571127,-0.007127219,-0.0065377178,-0.026555376,-0.013747031,0.08007289,0.037301503,0.015577331,0.014454271,-0.03578277,-0.1408117,-0.18901624,-0.18857619,-0.07621286,-0.07712211,-0.14115268,0.055751275,-0.04043477,-0.06582505,0.0055403183,-0.08510834,-0.039216913,0.017387306,0.037546262,-0.029056532,-0.09916226,0.039570283,0.09509297,-0.061442636,-0.013180783,0.0035395152,0.015573768,-0.0048146825,0.04748244,0.090656795,0.097015195,0.040278137,-0.02362314,-0.1636481,-0.195455,-0.22656724,-0.21152952,-0.0873128,-0.07977081,-0.043771893,0.06715264,-0.0479879,-0.11516436,-0.06416973,-0.09337642,0.012787152,0.058845263,-0.060766023,0.045553926,0.0012711971,0.075975835,-0.0042889733,-0.09999418,0.0010165067,0.063066095,0.0051286304,-0.043499414,-0.054954402,-0.07351709,0.005331218,0.008046724,-0.14108773,-0.25519753,-0.21204767,-0.061008055,-0.004974123,-0.15075496,-0.07477002,-0.0680774,-0.061386377,-0.0891094,-0.033625647,0.024502862,-0.023213716,-0.024500497,-0.048692472,-0.08235696,0.11142441,-0.024568645,0.030528553,0.013421906,0.020997347,-0.023897616,-0.085963674,-0.028654166,0.037214838,0.010546673,0.08196489,-0.09621166,-0.03357968,0.088462666,0.06101083,0.027863307,-0.08114697,-0.107473664,0.01464401,-0.016675226,0.04493463,-0.09064022,0.046068963,0.050446562,0.12264834,0.07690351,0.084980115,-0.057238556,-0.14155628,-0.0071806894,0.07287841,-0.077282414,-0.03286633,0.08350095,0.019460633,0.027149428,0.05522243,0.050580304,0.0691706,-0.019161345,0.017161006,0.036303837,0.051272545,0.09513644,0.04180135,-0.02693173,0.035694722,-0.031087222,0.060799826,0.12644932,0.12620457,0.04513544,0.15341918,-0.028348494,0.039170135,-0.018402172,0.033540763,0.093613595,0.023890894,-0.050632335,0.023952821,-0.022027822,-0.05846075,-0.0035703762,-0.0048988443,-0.061394434,0.028007174,0.005548613,0.09011576,-0.027021607,-0.04704464,0.07608773,0.06395072,0.04452996,0.12559935,0.12676863,0.03981071,0.12290025,0.10613596,0.021032553,-0.012101684,-0.064578846,-0.061972544,-0.014721192,0.023851482,-0.024682807,-0.058157634,-0.0030816102,0.025530083,0.0021492417,0.014196091,0.0719906,0.027059134,0.04638041,-0.06124246,-0.021409592,0.111091025,0.13490953,0.019013679,0.025130821,0.110405706,-0.023369584,0.06280448,0.118743196,0.15656696,0.11189879,0.062299974,0.057696443,-0.013640049,0.05553797,-0.042135462,-0.029122569,0.08646193,0.021103516,-0.021165377,-0.106471285,-0.013059943,0.0061891656,0.051123027,0.07585579,0.012165595,0.078485265,0.02689549,0.05079832,-0.059317175,-0.020957673,-0.04944509,-0.013051931,-0.037543558,-0.031715315,0.07959225,0.061156377,-0.08451542,0.0078049754,-0.007804251,-0.11124194,0.01766985,-0.021840835,-0.15862851,-0.021102702,0.0054336805,0.07078354,0.006565233,-0.0670542,-0.045627855,-0.0789331,0.057216033,-0.034541465,-0.07062226,-0.07108222,0.0055533517,0.058274772,0.073180564,-0.04124847,0.037689015,0.1334113,-0.040979058,0.05571042,-0.037135966,0.034698382,-0.016314154,0.027738124,-0.0073663997,-0.0380189,-0.05442376,-0.030415313,0.037045624,-0.008815676,-0.08457175,-0.014053084,0.040420026,0.061393455,0.12511235,-0.07852105,-0.017585512,-0.08232967,-0.0023910888,0.042519968,-0.0036720324,0.040205248,-0.025117,0.064068854,0.052520745,0.05562877,-0.0020690977,-0.03841403,-0.021477627,-0.088328235,-0.01173636,0.01645378,0.0015282211,-0.012524148,-0.09095957,-0.008873997,0.032816157,0.033171024,-0.034917556,-0.031871904,-0.012528792,0.0060393317,-0.010947883,0.0385648,0.099491924,-0.016977908,0.05326478,-0.011576426,-0.093250655,0.004717191,-0.029158741,0.043647464,-0.05648482,0.104486905,0.040805273,0.04463261,0.00580155,0.000018215898,-0.06479902,0.08959233,0.023379652,-0.07955287,0.0046457173,-0.018930327,-0.004479708,-0.041540522,-0.08468972,0.08627482,0.008210761,0.013265123,0.05248696,-0.016118744,0.008409336,0.024853257,0.0016310337,0.0026480532,0.008975975,-0.004007114,-0.047632292,-0.008505309,-0.043045163,0.10699207,-0.0045142733,0.040914796,0.016826522,0.18008314,0.06478204,0.015344303,0.028947104,0.022207312,-0.05510285,-0.033236284,0.1003469,0.0024052206,-0.052990172,-0.014302828,0.047425948,-0.025442129,-0.014233824,0.019306386,0.0006115246,0.04127151,-0.0584351,-0.017879782,0.05279973,-0.036102712,0.0022080387,-0.07347146,0.04432873,-0.05137424,-0.041698746,-0.0020961233,-0.021264398,0.067630015,0.028661763,0.067678586,0.017810293,-0.14108548,-0.029277215,0.06657766,-0.042128876,-0.043831583,-0.14094357,0.028349075,-0.029306913,0.011259105,-0.027880777,0.032727707,-0.10690156,0.048583213,0.04756813,0.060868368,-0.030695425,-0.018758288,-0.029920446,-0.078944534,-0.031475026,0.0016749259,-0.0018832259,-0.036361746,-0.029026033,-0.026721112,0.0995984,0.017993193,-0.08790091,-0.03418586,-0.00192163,0.060381435,0.04844906,0.073922426,0.059251357,0.01921635,-0.04772562,0.035778947,0.05746177,0.02378537,0.0464282,-0.020729333,-0.055718135,0.031130921,0.0882719,0.03311346,0.009767035,0.03890902,0.030032238,0.04697722,0.0872849,0.11036187,-0.042617355,0.048702653,0.039822295,-0.035022102,-0.023971915,0.06972655,-0.050484966,0.09712318,0.028201843,0.027024707,0.068961956,0.05156863,-0.024653569,-0.020257507,0.034466248,0.009090543,0.01651944,-0.026044045,-0.13828576,0.03224814,0.061640084,0.013950986,0.03014036,0.046960983,0.106063336,-0.0152862575,-0.07239377,0.009303798,0.10872047,0.1017538,0.007420814,-0.059259467,-0.032312073,-0.016766608,-0.077869646,-0.049645387,-0.013314992,0.07099856,0.017121686,-0.104311764,-0.072595455,-0.064579196,-0.05028031,0.08224532,-0.0013477114,-0.11620723,0.11880851,0.06527864,0.114427835,0.12000022,0.006845033,-0.0021302747,0.11602632,-0.022415617,0.035764292,0.012567151,0.037538216,0.033669963,-0.0065722913,-0.14523312,-0.004747335,0.0062713777,-0.059080265,-0.03789165,0.0022501198,-0.041176546,0.035660055,0.072006956,-0.0586527,-0.041180357,-0.028901301,-0.013652856,-0.024219003,-0.03008271,0.035866294,0.071392596,0.073814,0.08781381,0.10927937,0.08684,-0.030203208,0.015574038,-0.103975944,-0.104543336,-0.16949034,-0.059829973,-0.06166058,-0.05809861,-0.0019033004,0.018357161,-0.021347877,-0.061168883,0.06487815,0.018940412,-0.009170134,0.0035086141,0.013633087,-0.065690465,-0.04290421,-0.05399687,-0.06465041,-0.030027613,-0.09736623,0.021127021,-0.016202606,0.1400067,-0.03974309,-0.051852193,-0.020051425,-0.093770266,-0.17931563,-0.040984903,-0.15239406,-0.035227247,-0.121202044,-0.03667227,-0.1762125,-0.051591016,-0.014922425,-0.056083776,0.082536876,-0.035415296,0.031318516,-0.039014537,-0.014282528,0.02343261,0.027377171,-0.017123437,0.027934972,-0.016388383,-0.13077542,-0.014448649,-0.14480242,0.025045086,-0.0017257,-0.05873277,0.029722773,-0.17534274,0.030775797,-0.05571044,0.025907904,-0.061582733,-0.13825597,-0.16443738,-0.09825273,-0.00674885,-0.020856101,0.045806214,0.027889442,0.004584917,0.05429878,0.058580868,0.041607734,0.075350665,-0.03895371,0.05149736,-0.025847118,0.037752535,-0.008116133,-0.085602485,0.033062417,-0.009786321,0.20117968,-0.025203263,0.00244249,-0.055360124,-0.0779615,0.12481057,-0.053605903,-0.15133688,-0.09537881,-0.09727333,0.028602336,-0.026162935,-0.0013368104,-0.055149127,0.010261721,-0.04254626,0.053750463,0.037709277,0.06559779,-0.025340816,-0.015070301,0.058067765,0.021679662,0.0041168886,0.03252973,0.01050463,-0.13526264,0.112181745,-0.032867167,-0.098579876,-0.13596973,-0.32822955,-0.0833513,0.09829335,0.058729056,-0.04289563,-0.08447082,-0.162593,-0.046729937,-0.008237604,-0.14912114,-0.06482815,-0.002328901,0.041311387,-0.018657664,-0.032892283,-0.0020217565,-0.00043431026,0.0617267,-0.060229976,0.015533816,-0.032383867,-0.027080713,-0.003714555,-0.043450333,0.007896554,-0.08310028,-0.09514859,-0.037239045,-0.16320492,-0.004908834,0.1397956,0.010965754,-0.08976587,-0.14928217,-0.1387727,-0.06092371,-0.059706733,-0.019948814,-0.018481093,0.03574935,-0.031064134,-0.0006575978,-0.010114912,0.03419218,0.067177236,0.025078263,0.05402628,0.0374736,0.042147737,0.022050451,-0.0636191,0.001412311,0.10651104,-0.06117661,-0.14930435,-0.098175615,-0.07991357,0.06989246,0.06085181,-0.02607404,-0.08117722,0.023997998,-0.1022728,0.028051203,-0.04732781,-0.06775044,-0.006674845,-0.0037848772,-0.03991559,0.015387847,-0.04582474,-0.012564789,-0.08182985,0.0188113,0.016750926,-0.07205505,-0.05186346,-0.09457426,-0.022553835,0.028350277,0.061251514,-0.046416722,-0.17324173,-0.2328536,-0.19907063,-0.052546225,0.12940857,-0.0013186084,0.0012145237,-0.04657116,-0.026803838,-0.13902661,-0.060578633,-0.06579675,-0.19326296,-0.02230105,0.0889952,-0.022829372,0.062007785,-0.030769566,0.029853784,0.003477885,0.07434098,0.041924357,0.067240536,0.050345797,-0.010353228,0.10618658,-0.06961865,0.06416598,-0.060193535,-0.16631874,-0.12797326,0.04611714,0.1128059,0.07604563,-0.03179003,-0.06040715,-0.119836085,-0.08862267,-0.07414282,0.019125083,-0.06186438,0.10285956,0.043966834,0.014001852,-0.0759169,0.036851406,0.01449807,-0.020332824,-0.07374737,-0.050988276,-0.10804496,-0.08277149,-0.055311322,0.096289046,0.106548004,-0.0648039,-0.11983053,-0.19476205,-0.21943589,0.05425835,0.18185726,-0.0009414529,0.046173215,-0.015456509,-0.013946565,0.008289278,0.041627612,0.13045366,-0.01861011,0.063118376,0.08100441,-0.06653055,0.01723118,0.048439186,0.022952767,-0.024521504,-0.0785521,-0.05083715,-0.09368712,0.029721333,-0.10928703,0.050763864,0.07140373,0.044473678,0.08724489,-0.18588148,-0.13907832,0.1672008,0.19873327,0.09872397,0.09893643,0.056278646,0.09206505,0.16451153,0.11868215,0.039782785,0.21960202,0.045754597,-0.010038497,0.009982511,-0.012963034,0.0912126,0.0337767,-0.08012988,-0.110318094,0.04424332,-0.06280099,-0.048212193,-0.042280044,0.00091510464,0.088526085,0.05062743,0.012456594,-0.035292923,-0.082329646,0.25332844,0.27212223,0.20485424,0.18374,0.11375418,0.17712247,0.21094023,0.22598612,0.055265237,0.14118282,0.07926395,0.0075648413,0.06776918,-0.074985355,-0.017706158,-0.08613613,0.016439106,-0.0070004114,0.08303488,0.013173961,0.08511203,0.014408296,0.07416727,-0.051897902,-0.014455169,-0.1274942,-0.1587314,0.07972789,0.048701737,0.1703874,0.14437649,0.0019381907,0.012114212,0.023265423,0.084248506,0.0993579,0.041844126,0.007148168,0.039939757,0.002352003,-0.048947636,0.08711271,-0.050711222,0.046901487,-0.059481137,-0.0140029285,-0.17350326,0.03271887,0.048325755,0.011208425,0.08097569,-0.0065768617,-0.14051801,-0.17984177,-0.20363028,-0.095083386,-0.021414302,-0.010593111,0.026574112,0.043072235,0.010682213,0.030192625,0.0031523579,-0.03736139,-0.018866338,-0.059346933,0.04585352,0.0063542,0.016094062,0.0143798785,0.03357276,0.08606161,0.017942796,-0.0040006195,0.05568872,-0.044586275,0.018288173,-0.06940246,-0.08029545,-0.004786701,-0.08257686,-0.1021935,-0.16979118,-0.20959435,-0.054242283,-0.008340536,-0.07735343,-0.072496034,-0.024511302,0.0499023,0.09052651,0.067058004,-0.034737054,0.03303491,-0.08785586,-0.019737888,-0.0902562,-0.03851505,0.07588207,0.05202477,-0.073935814,0.029758152,0.002482286,0.06275562,-0.09017103,-0.05926474,-0.09899626,-0.0779407,-0.065542705,-0.10446063,-0.17032802,-0.0222071,-0.20710836,-0.03840662,-0.08420812,0.03195658,-0.012636696,-0.077822044,-0.0049588326,-0.0075356187,0.0069377143,0.004303542,0.019873546,0.08849237,0.013690566,-0.116047,0.017422564,0.059352852,0.010877766,0.023183525,0.009459091,0.050359398,0.010816223,-0.036219466,-0.02961752,0.053365987,-0.08693077,-0.049557228,0.0058887918,0.026066648,0.0035581165,-0.0013282105,-0.023843344,0.023970963,0.079254635,0.03721771,-0.041241903,-0.06899858,0.07699656,0.029467935,0.033735596,0.010544125,-0.015230186,-0.008541032,-0.052909084,-0.09330409,-0.015064324,-0.09189254,0.05795336,-0.037970107,0.043020066,0.09491301,0.07159935,-0.00023291016,-0.0071443827,-0.04640154,0.01269881,-0.06022336,0.05320188,-0.05355654,-0.05617211,0.086475685,0.056802474,0.0955479,-0.017430874,0.049248617,0.047399808,-0.07221433,-0.014443195,-0.099608965,-0.052544743,0.06629456,-0.08264799,0.009668111,-0.045948464,-0.022161704,0.061491083,-0.000048962665,-0.05883879,0.096122,0.031185577,-0.055014182,-0.0037630114,0.0044627464,0.05839918,-0.0064907786,0.009288502,-0.03322266,-0.019105991,0.032264557,-0.10287209,-0.010990399,-0.036039293,0.025916923,0.0181163,-0.08316107,-0.021078303,0.010590165,-0.015767246,0.034790073,-0.06700812,-0.056313097,-0.05649104,0.032523427,0.060179234,0.008263536,-0.08225396,-0.075449586,0.057257947,0.10311334,0.070374586,-0.024531765,-0.07067897,-0.0511362,-0.06262612,0.016215427,0.0037088168,0.0014514689,-0.04883061,-0.07573732,-0.09171923,-0.010973637,0.0034378553,-0.07626066,0.03303563,-0.06338618,-0.013331399,-0.03291087,-0.049504396,-0.0011568051,0.016517019,0.050433617,0.08772953,-0.026193673,0.022197857,0.009265509,-0.0419274,0.02771931,-0.034095123,0.018859267,-0.15592666,0.021008339,0.05225987,-0.10982957,0.056798343,-0.02742118,-0.0009534928,0.016237142,-0.0035896124,-0.03302303,0.060955785,-0.04764709,0.04245261,0.09992758,-0.005233289,-0.022656836,-0.07040454,0.07743304,0.024237376,0.047306802,-0.06590197,0.03045237,-0.006147389,0.02621981,0.029144935,0.092994675,-0.027446756,0.002836587,0.0061189122,-0.06565673,-0.15516776,0.08933498,0.06494701,0.10074152,0.14820637,0.09421184,0.0002246163,-0.036374655,0.067015745,0.019244852,0.0020034038,-0.0797274,-0.050173126,0.023454307,0.0029127721,-0.023301976,-0.0448944,-0.039417684,0.015194499,0.01726958,0.16841277,0.08756111,0.10432026,0.12186054,0.091368675,-0.008986092,0.06709708,0.021283807,0.02565343,-0.028838469,-0.0072193122,0.05683861,0.107786596,0.1300993,0.13912155,0.024765616,0.047312208,0.076729886,-0.032216102,-0.09908199,-0.028064836,-0.06651672,0.037789296,0.028071545,-0.0487683,-0.018587764,-0.023644041,-0.09783833,-0.024683293,-0.05367851,0.0117749395,0.01576224,0.05646604,0.016668672,-0.12601753,0.022480603,0.046409056,0.031081544,-0.021507306,-0.116383575,0.05579867,0.23584893,0.113372505,0.13663408,-0.015275358,-0.04972213,0.1475358,-0.09978089,-0.051835116,0.09569749,0.009579401,0.026030788,0.016202215,-0.004681192,-0.02683407,0.014901493,0.038186222,-0.02468109,-0.018166224,0.03493216,-0.081844784,-0.02778742,-0.04478369,-0.023323735,-0.10089543,0.0051671923,0.039781414,0.06289313,0.04097263,-0.048259623,0.1974276,0.029168727,-0.009255749,0.013121595,0.049195375,-0.099420615,0.09863561,-0.022745043,0.011177229,0.08781512,0.040198755,0.04431193,-0.0064667515,0.06869946,-0.008666694,0.038448595,0.092467025,-0.014775761,-0.16916944,-0.042659085,-0.09834825,-0.10512839,-0.12512702,-0.12606199,-0.03107667,-0.06021707,-0.094424784,-0.06861999,0.028519832,-0.056738283,-0.060385235,-0.066314325,0.011515287,-0.017515741,0.004033742,0.06202053,-0.0062699956,-0.002243012,-0.01789849,0.0010515915,0.03807976,-0.07805945,0.028973643,0.07484296,0.03511922,-0.1056136,-0.13400741,-0.16853547,-0.21873228,-0.17836922,-0.15055916,-0.18997101,-0.13765135,-0.11033991,-0.07804947,-0.21785803,-0.17159268,-0.24249282,-0.1802753,-0.018265756,-0.01560285,-0.055615813,-0.0010407015,0.0041631632,0.040246993,0.07410634,-0.051043797,-0.040492088,0.023683105,-0.03377537,-0.114702195,0.017529823,-0.0758754,-0.096995346,-0.20919769,-0.14763585,-0.28547847,-0.2386845,-0.30009672,-0.39563036,-0.37658185,-0.22800264,-0.12032062,-0.28007635,-0.2442154,-0.1562161,-0.110622376,-0.045749135,0.03792787,0.10942931,-0.06432986,0.123161115,0.035316776,-0.014921094,0.062128667,0.11946641,0.014226006,0.07953889,0.03608219,-0.019769324,-0.05389745,-0.017875139,-0.20533036,-0.10074911,-0.10995958,-0.06323738,-0.02977178,-0.2720881,-0.17221195,-0.092451364,-0.16203012,-0.20226912,-0.1153404,-0.054014444,-0.009273736,-0.028052771,0.0845036,0.14056465,0.088464044,-0.0012296003,0.016904583,-0.013999504,0.06428642,0.046338964,0.07535571,0.05920438,-0.04480938,-0.038182657,-0.030676648,-0.032275427,-0.13995382,0.045001965,0.22730726,0.17044538,0.08878979,0.047083266,0.0004405229,-0.048673358,-0.04753193,0.07544398,0.09783967,0.041675758,0.06329298,0.15756266,0.17959534,0.066597424,0.07480688,-0.03645552,0.05685866,0.00048736788,0.048454434,0.0448371,0.05366312,0.10779938,0.040862534,0.060493518,0.039005112,0.12643282,0.14256085,0.21512814,0.30867678,0.20353055,0.4463842,0.23919775,0.22032233,0.23339477,0.2504204,0.23473652,0.14631923,0.049664643,0.060610827,0.053671487,0.107980855,0.012143828,-0.016647115,-0.11708239,0.045500938,-0.05715108,0.054753575,0.07352112,0.120935224,0.12128894,-0.044145357,0.086005606,0.10455512,0.053756148,0.05040562,0.014138118,0.09668336,0.13614576,0.1815715,0.17135668,0.18480529,0.3582166,0.29697156,0.1779029,0.10512757,0.05905272,0.10399653,0.05284146,0.05177284,-0.09917567,0.043022793,-0.021625575,-0.0744643,0.06561976,0.087773554,0.023687229,0.060514648,0.11170888,0.034183107,-0.0878836,-0.10574872,-0.004199905,0.032263122,-0.011369657,0.036534507,-0.105490096,-0.007767281,-0.041641824,0.06887804,0.08134306,-0.0074191084,0.034944654,0.08428538,0.1790108,0.15667813,0.0991038,0.011991987,0.043750655,0.0058853007,-0.02265405,0.02263572,-0.052249003,-0.00006160849,0.0070722024,0.03555363,-0.08361513,-0.12806988,-0.0367491,-0.16987903,-0.16042262,-0.018764164,-0.011208053,-0.015776034,-0.04607044,-0.10191428,-0.09133073,0.045784216,-0.095141396,-0.097761095,0.060987618,0.10744317,0.050007578,0.09764332,-0.018480182,-0.060786728,-0.06558467,-0.10400666,0.029127529,0.09691642,0.067583986,0.0559868,0.02188056,-0.03212047,-0.13067979,-0.07192809,-0.024903767,-0.13321188,-0.12421196,-0.12918125,0.13348301,0.03293741,-0.09124701,-0.16288601,-0.085364066,-0.2661087,-0.07818666,-0.057923295,0.070374094,0.10122963,0.1854477,0.09171497,0.09781055,-0.14781518,-0.019402163,-0.049868304,-0.062435094,0.04414549,0.05539918,0.0032053797,0.005679982,0.10521529,0.035240382,-0.014045117,-0.046666663,0.04064177,-0.0467196,-0.06464951,-0.044524193,-0.026565898,-0.023700023,-0.016645411,-0.13366881,-0.17645039,-0.030226862,0.0881994,0.05282869,0.1797494,0.11448677,0.012954876,-0.06793642,-0.2038053,-0.07454559,-0.032166958,-0.052274287,0.027265372,-0.014949618,0.062060863,-0.048094053,0.06165975,-0.012514386,0.045618813,-0.09584179,-0.04621049,-0.18561023,0.059524488,-0.063211024,-0.052499164,-0.071054615,-0.028637225,0.114797086,-0.1327715,-0.012363814,0.113809854,0.03507915,0.084716015,-0.008134898,-0.019793589,-0.07220149,-0.12339569,-0.04319664,-0.043221846,0.03628744,-0.001423096,0.03660072,0.01655194,0.0011182616,0.027716456,0.003409014,0.06364863,0.0062815542,0.14645228,0.0022635208,-0.025532555,-0.041125376,0.040048666,0.09377489,0.106125265,0.024426587,-0.08013444,-0.0043041576,-0.060158502,0.053607725,0.13207264,-0.05244318,-0.1738409,-0.12071911,-0.08002095,0.022626419,0.011167903,-0.078210376,-0.029248185,0.02001415,-0.03799347,-0.043718368,-0.08233653,0.015368539,0.038636036,-0.015537352,-0.102953486,0.13311076,0.05574624,-0.056355495,0.034800496,0.07373118,-0.035395287,-0.024221621,-0.090528615,0.07744877,0.035917584,0.0037307823,-0.0364647,-0.04563567,-0.12947586,-0.10677349,-0.058260173,-0.15080306,-0.011139064,-0.040616047,-0.04198155,-0.08585315,-0.054337967,0.0037484432,-0.07361613,-0.055026695,-0.12194341,0.019199714,0.051530313,0.1556622,0.04979494,-0.161197,0.030351497,0.0904133,0.091297686,0.075569615,0.014041632,0.04569376,-0.022130242,-0.05954949,-0.20509112,-0.2477357,-0.13308363,-0.10020585,-0.044143647,-0.09787691,-0.05438197,0.08892077,0.002460147,0.0044715563,-0.04906601,-0.053301703,-0.058422457,-0.10564539,-0.01961308,-0.027202146,-0.050016366,-0.002126207,0.076631494,0.032734893,0.16234072,0.16845375,0.001955627,-0.118805856,0.0057852184,0.02322159,0.11815629,-0.07887786,-0.032580927,0.03732574,-0.046554103,-0.091654584,-0.06336673,0.0059622605,-0.011814567,-0.05179874,-0.0046495954,-0.15990812,0.024369642,0.045781247,-0.061553977,-0.11490195,-0.11815892,-0.069330476,-0.07103019,0.10758235,0.06163285,0.13705344,0.15439652,0.009269955,-0.1043313,-0.027266068,-0.026683593,-0.019297086,-0.023905853,-0.061477587,-0.01508349,-0.14241798,0.011689774,-0.049380817,-0.11890755,-0.0017603505,0.043210763,-0.010557529,-0.012449647,0.024351774,-0.048507605,-0.005719582,-0.052893355,-0.06352081,-0.118805446,-0.031780872,0.0156185385,0.006260602,0.024106579,0.007638874,0.0036439896,-0.20204987,-0.10359201,-0.111661665,-0.06819986,-0.009584258,-0.12286011,-0.028139865,-0.053587683,-0.06379032,-0.017554542,-0.054513443,-0.04532372,0.0011498309,0.0154884625,0.050596528,0.054685213,-0.014179106,0.0042872224,0.010186171,-0.03726095,0.089976184,0.050101314,-0.0665163,-0.06688593,-0.036351215,0.047570553,-0.018356284,-0.09348343,-0.0005365701,-0.015839975,-0.024614435,0.073332526,0.015189123,-0.056691393,0.07325759,0.011880821,-0.024019154,-0.013386828,0.050382454,0.01090322,0.04477397,-0.033627573,0.020842584,-0.0128926635,-0.012249766,-0.03790184,-0.04412015,-0.0016556492,-0.049634725,0.05330846,-0.051864974,0.04317164,-0.03602635,-0.025518393,0.013768394,-0.00014318126,0.042050503,0.08681219,0.027089031,0.17281054,0.14567022,-0.03990494,0.061718147,0.098429024,0.03659604,-0.012873941,0.027037226,0.03963362,-0.05378499,0.007610388,0.013964554,-0.04343573,-0.0669677,-0.077095985,-0.041679054,0.03556602,-0.0015095567,0.00052923505,-0.007021006,0.057315152,0.0111631425,0.09799557,0.08744359,0.11064173,0.05433958,-0.11323773,-0.0415119,0.013873603,0.050041094,-0.03416563,0.07465754,0.16514002,-0.06452767,0.038399097,0.010691102,-0.024184026,0.014254658,-0.0157772,0.06303218,0.08065444,-0.008042222,-0.05796019,-0.06860772,-0.10632866,0.09796651,-0.09744763,-0.025370749,-0.062568925,0.04516157,0.020011771,-0.016635224,-0.08136747,0.044350732,-0.029683776,0.045039088,-0.038000718,-0.018052623,-0.018879097,0.12669829,0.0066566044,0.010329032,-0.001287928,0.053953767,0.06929283,-0.054002583,-0.02431867,-0.013676877,-0.0476922,-0.024213597,-0.038646426,0.002919021,-0.10476023,-0.031634957,-0.04083994,0.11123483,-0.052273273,0.015664048,-0.0019586752,0.04772999,-0.006078146,-0.019441249,-0.019977264,-0.027596598,0.11722167,0.10803493,0.10087006,-0.0047862283,-0.004020827,-0.036254287,0.023174318,-0.012388696,0.000743742,0.018203584,-0.077594824,-0.104979716,-0.027318235,-0.032558966,0.07404123,0.05174219,-0.043283507,-0.043314688,-0.07337182,0.057974067,0.015436969,-0.031655084,-0.072501615,0.007861559,-0.06606603,-0.053802237,0.058017127,0.025151124,0.019460877,-0.046943445,0.039129905,-0.012700715,-0.042210937,0.037832823,0.105621845,-0.00941973,-0.042530444,0.00037487553,0.116564095,-0.0499152,-0.06587374,-0.0064380937,-0.071349464,0.052736837,0.032222897,0.04596985,0.06544515,0.08080583,0.06966126,-0.021941492,0.13843629,-0.17721047,0.0042278846,-0.032587957,-0.107619725,-0.040014192,-0.034188665,-0.14661503,-0.024922471,-0.18012199,0.016602205,0.037269507,-0.00876699,-0.06215916,-0.055067334,-0.0045317677,-0.017183643,-0.044668563,0.08976004,0.026787035,0.08059219,-0.051008776,-0.022790547,-0.0012968964,-0.09119144,-0.11517237,-0.029538061,-0.07452198,-0.053675044,-0.14442511,-0.059997667,-0.19087702,0.016333222,0.03772047,0.013682164,-0.12144365,-0.027347697,-0.07879978,-0.043993086,0.09150057,0.008934149,0.060381636,-0.0022366045,-0.013799877,0.055771325,-0.016743882,-0.008052163,0.0014781482,0.02775919,-0.07452978,-0.0058495235,-0.040532466,-0.09843709,0.003991058,-0.17370701,-0.19432688,-0.22405793,-0.020845367,-0.15360002,-0.19090903,-0.15536223,0.03339725,-0.006148744,0.06817283,0.05414567,0.0678146,0.0051909997,-0.076976605,0.03014131,0.08962289,0.02882157,-0.01942317,-0.032631952,0.013534499,-0.059348393,0.029624,-0.11999414,0.08236343,-0.012554384,-0.060065307,-0.1488278,-0.040804006,-0.12233616,-0.12697077,-0.08501996,-0.06058678,0.008851307,-0.020788562,-0.13273467,-0.09256695,-0.03546595,0.05667928,0.07250386,0.05576592,0.037975427,-0.072242625,-0.057761308,-0.03852292,0.035375856,-0.020019783,0.044058885,-0.046721306,-0.11474558,0.010275206,0.0072904667,-0.029404543,0.00452681,0.00064345286,-0.0073804576,-0.0018436937,-0.06114874,-0.04704275,0.04549647,-0.07314226,-0.19009998,-0.10092838,-0.029745283,0.031691495,0.11390758,0.15501039,0.17403422,-0.051135562,-0.05855342,-0.11602666,-0.07689193,0.06786943,-0.066251226,0.06814214,0.0027726125,-0.14337151,-0.08592479,-0.000027962631,-0.009645537,-0.070630886,-0.026086215,0.053015374,0.03825688,0.034053475,0.031409953,-0.14379604,-0.067950144,0.015158152,-0.00079994433,0.05050341,-0.06458832,0.040433556,-0.10781396,-0.16172636,0.16082689,0.041108694,-0.006046025,0.07085814,0.10396523,-0.010855234,-0.1101666,0.059784267,0.018296199,-0.03920036,0.00935142,-0.07199344,0.06055475,0.04252308,0.0016075616,-0.006909593,0.016988821,-0.07539587,-0.08908245,-0.17535454,-0.028798264,0.1522885,-0.018748328,0.2077765,0.035643544,-0.009846774,-0.14420992,-0.272089,-0.08739971,-0.03314206,-0.032196242,0.25637704,0.20353723,-0.073783055,0.0008163844,-0.063526765,-0.06054778,-0.04090337,0.05104569,0.036817454,0.019412689,0.08323427,-0.0046591824,0.020282434,-0.0219328,-0.12468106,-0.015854994,-0.0101023065,-0.01788608,-0.076075494,-0.08720223,0.20448878,0.04510509,0.004174963,-0.23659618,-0.28089914,-0.15621464,-0.010830607,0.2316142,0.25504968,0.14866546,0.06388701,0.06618588,-0.0076455353,0.019433936,-0.024761144,0.014459875,-0.0055496446,-0.019517804,0.030137856,0.058209624,0.083344,0.0839868,-0.0031394882,0.024911154,0.054149244,0.054425687,-0.10013243,-0.13808875,-0.092329696,-0.10488744,-0.30281633,-0.3879228,-0.30135098,-0.07027721,0.1408232,0.11839327,0.1510688,0.19413371,0.1503597,-0.02396703,-0.0152354045,0.0113571035,-0.035320804,0.030193182,-0.003547981,-0.10806341,0.08063671,0.13663521,0.15063655,0.100925334,0.061974745,0.12485143,0.13159795,0.08871466,-0.08001305,-0.13374257,-0.24555823,-0.18870074,-0.043631487,-0.10063458,-0.05534402,0.10868244,0.23611581,0.27256235,0.08403262,0.126656,0.033973575,0.091569096,0.10102632,0.10992883,-0.022947421,-0.04663604,-0.018299859,0.019010704,0.03539518,0.12830955,0.14696836,0.169359,-0.050308794,-0.11668932,-0.1218895,-0.069405876,-0.04190433,-0.19151308,-0.22372183,-0.2710452,-0.080117874,0.08488557,0.27708405,0.20188434,0.257889,0.15578678,0.116030194,0.1530223,0.10681003,0.032196004,-0.044097908,-0.07025433,-0.02752175,0.06070124,0.011498421,-0.020577887,0.07080747,0.113806784,0.2262605,0.03758022,-0.10812271,0.025904538,-0.03881389,-0.15007576,0.01616641,-0.13045342,-0.14463468,-0.1070643,0.024761802,0.24621356,0.25333518,0.1958189,0.21464399,0.23345402,0.30319977,0.10516908,-0.039726805,-0.09125295,-0.019581966,-0.005721258,0.0018390837,-0.080066435,-0.052468475,0.020400321,0.032407027,0.0028414158,-0.041042633,0.07322336,-0.07139051,-0.022174865,0.030688135,0.03382475,-0.043470055,-0.03252726,0.064760074,0.19076863,0.14308196,0.3464171,0.24158694,0.08898019,0.059169743,0.015012296,-0.05914498,-0.031130377,-0.1805943,-0.12591812,0.0014699657,-0.0039227465,0.032746848,-0.04874046,-0.020148404,-0.01931887,-0.025278682,0.1329264,0.05555334,-0.035203096,0.00027499077,0.03982402,0.11103689,-0.0061607677,-0.045202203,0.060367823,0.20230693,0.35547838,0.15496174,0.4016398,0.16490474,-0.076532744,0.0015785478,-0.07646845,-0.088986695,-0.0022408762,-0.15368292,-0.16685925,-0.077667125,-0.013022566,-0.012443351,0.027341688,0.023921084,0.03384589,0.051059764,0.076449655,0.03545278,0.032530405,0.06665043,-0.056365557,0.12643096,0.08897612,-0.07811017,0.18629122,0.3207237,0.21575736,-0.052290335,0.01190827,0.053968377,-0.02775649,-0.027339349,-0.124574944,-0.0030514882,-0.08821452,-0.119457394,-0.11352206,-0.029808778,0.058469515,0.008716251,-0.050533917,0.063802175,0.00725253,0.082946144,0.1007189,-0.04945339,-0.094898544,0.05282052,0.00311329,-0.11558185,0.04380518,-0.025391536,0.35866296,0.34057668,0.11001048,-0.13564543,-0.07820531,-0.121586226,-0.14332151,-0.111695126,-0.28898913,0.027603757,-0.045360733,-0.042392615,-0.07676555,-0.023510814,-0.04406054,0.04478679,-0.044309366,-0.051055763,-0.08924845,0.005502047,0.019546153,0.06614017,0.09404635,-0.022422487,-0.16937937,-0.15986867,0.044104375,0.0157394,0.1821334,0.20625901,0.10713342,-0.05990904,-0.31331742,-0.15418527,-0.17406781,0.010325555,-0.018616293,0.0105001,-0.06034808,-0.027470956,0.020247748,0.047409415,-0.028896414,-0.047687583,0.05623507,-0.061922558,0.044470057,0.0189412,0.019699013,0.05132684,0.15443434,0.09691909,0.13750152,0.02083445,-0.016160674,-0.17088181,-0.12772432,0.1298698,-0.06578214,-0.0621587,0.014686006,0.03340515,0.14457771,-0.039215837,-0.0070070773,0.11837314,0.1720613,0.046955038,-0.12136397,-0.114320934,0.030183624,0.096420355,-0.055803332,0.07493719,0.025387058,0.004372295,-0.035119805,0.0013241213,0.032921366,0.037509114,0.032137997,-0.026759204,-0.08164857,-0.1313287,-0.18816377,-0.048392706,0.19785447,0.04807157,0.23418278,0.18128242,0.30553648,0.0035068365,-0.08021423,0.12924598,0.07396496,0.024784964,0.14372389,-0.039185245,0.016275808,-0.049813822,-0.02344101,0.04796792,0.031455092,-0.011297579,0.0191769,0.08877718,0.0897175,0.09971582,0.23046747,0.085801534,-0.020666849,-0.07871813,-0.16112143,0.11200989,0.09437726,-0.0697726,-0.035108447,0.103165254,0.056075327,-0.026031232,-0.039628852,0.13900629,0.04886617,-0.045325667,0.017210571,-0.007677687,-0.042826056,-0.02925967,-0.023081932,0.10230811,0.0052841473,-0.039422464,0.026275188,-0.069874085,-0.04589527,-0.10777539,0.089903,0.01879558,-0.048802365,-0.0070864265,-0.11851071,-0.07208618,-0.1669361,-0.2108269,-0.22517997,-0.027641099,0.06666023,-0.08129905,-0.0041612107,0.15022595,0.11134963,0.015735785,-0.0154466685,-0.09405209,0.06918952,0.094802484,0.039794255,0.047184605,0.05945231,0.009610279,-0.08172113,-0.09558257,0.0035341298,-0.10826882,0.09082248,0.052189823,0.01574075,-0.039316077,-0.09206973,-0.028421385,-0.1618047,-0.04188569,-0.16476448,0.03266849,-0.05720584,-0.06454735,0.066802084,0.017546754,0.0835717,0.024411926,-0.07971467,0.008802412,-0.021398863,0.02599534,0.034920152,-0.05736256,0.060070395,0.037173323,-0.0776641,-0.063352264,-0.016008895,-0.061199047,0.059118357,-0.014245862,0.03756826,-0.11441706,-0.12887408,0.121306814,0.2092329,0.080601685,0.09734298,0.0008537376,-0.057195593,0.07312448,-0.06606891,0.0030197492,0.061351366,0.091553144,-0.015710812,0.023291487,-0.09253355,0.008921864,0.059124976,-0.026166638,-0.05613956,-0.01795519,0.046337157,-0.12372283,0.07617533,0.002536558,0.06891585,0.029402493,0.003939625,-0.072523504,0.03928086,0.14244251,0.091845036,0.058844045,0.0016139213,-0.11210232,-0.039179966,-0.04432873,-0.107846476,-0.048736252,-0.07556311,0.037361555,-0.0035278792,-0.07340132,-0.03037312,0.026290908,-0.06835836,-0.018805573,-0.03055366,-0.04779472,-0.03551983,0.15497664,0.040697113,0.09624231,0.062668666,-0.059989724,-0.027799372,-0.102596655,0.03807113,0.09911565,0.024911702,0.0066224444,0.016351232,0.037511647,0.03190101,0.01968014,-0.009161505,0.045979857,0.045728214,-0.015790587,-0.07459116,-0.006052625,0.048505705,0.038176082,0.045976255,0.044726238,0.026833246,0.051060967,0.0720768,0.0026877802,-0.014931646,0.042386033,0.039929308,0.0067039826,0.08321233,0.03954771,0.08427285,-0.013373103,0.034651354,0.05548319,0.020684378,-0.113931775,0.07183314,-0.034658257,-0.032092933,0.06411529,-0.05067516,-0.016996104,0.026361533,-0.020326944,-0.044237267,0.06597092,0.0067613614,-0.030684201,0.07812825,0.037846267,-0.031237489,0.024633039,-0.009237963,-0.0059755985,-0.034578312,-0.048016693,0.11551497,-0.009451867,-0.0073258337,0.03968716,-0.100383565,-0.048089053,-0.039211076,0.012646933,0.006882556,0.025158899,0.06611595,0.100585945,-0.0025453847,0.028129024,-0.045912024,0.02130624,-0.0241156,0.025003072,0.053900443,0.067130424,0.026944013,0.019242566,0.08681475,0.043785974,0.029255958,0.0623384,0.021540668,0.057210904,0.07801354,0.059671316,0.011116862,-0.047135368,0.019248832,-0.043439332,-0.0037148895,0.125391,0.035288535,-0.016994456,-0.079748824,0.029299615,0.06736072,-0.037081826,-0.08974399,0.031002592,-0.008440907,0.054372385,0.004542043,0.0060523385,0.025925448,0.009700529,0.02772843,-0.03440566,-0.007730947,-0.018262718,0.011557629,-0.004472836,0.04275743,-0.05678013,-0.052234244,0.026634187,-0.0030299444,0.03474282,0.013080108,0.051326293,0.045833886,0.035849307,0.0019109554,-0.09244051,0.031573333,0.058020484,-0.04655934,0.014643336,-0.037815206,-0.0274174,-0.040565114,-0.035135668,0.016736528,-0.007935164,0.003205703,-0.0044035604,-0.07175255,-0.08765425,-0.0061125187,0.0043075047,0.071712635,0.04821552,0.035934564,0.0060965656,-0.017368952,0.111471236,0.16169117,0.2123121,0.30226403,0.26827252,0.086370446,0.045659214,-0.04163812,-0.08780175,-0.0880579,0.008132678,-0.074861325,-0.011557982,0.0009822029,-0.030905997,0.12597269,-0.035141088,-0.045602497,-0.030534355,-0.0016323327,-0.056943644,-0.03741789,-0.01754891,0.08345907,-0.019876048,-0.18602669,-0.15527259,-0.027345413,0.026464688,0.16996202,-0.0269129,0.07047331,0.27779782,0.09641085,0.019841326,-0.01839126,-0.07345339,0.021562845,0.06462908,0.05403045,-0.07979008,-0.00969337,-0.06904457,0.02194946,-0.03428662,-0.0167071,0.05697074,-0.024038315,-0.028757758,0.043229874,-0.009524639,0.043487918,-0.1766874,-0.23375137,-0.31265503,-0.10395625,0.054914445,0.08987709,-0.016345367,-0.10701736,0.08260741,-0.012142368,-0.027626159,-0.013852631,-0.069956966,-0.0052451,0.035179574,0.019497527,0.01642888,0.06606168,-0.14263612,-0.066393256,-0.037006002,-0.041541617,-0.0044011264,0.03190024,0.091318786,-0.031204939,0.12337972,-0.03585678,-0.1401729,-0.24591282,-0.14343609,-0.15806155,0.01853936,0.05871578,0.016470388,-0.08298058,0.15432836,0.05501816,0.08747732,0.002082699,-0.04832959,-0.004731627,0.14055848,-0.04683919,-0.0081432685,0.035974767,-0.09051139,-0.00875044,-0.013022672,-0.00072137825,-0.098781034,0.026230214,0.00010423973,-0.06479486,-0.019004352,-0.083152,-0.09725455,-0.13176557,-0.1835375,0.028293628,0.014795835,0.10995503,0.24180679,0.1014536,0.23347381,0.09575765,-0.0021221212,-0.0039634146,0.08237209,-0.10953241,-0.044939224,0.022729946,-0.005395515,-0.038806062,0.011637011,0.12124839,-0.07849988,-0.035817247,0.07088122,0.06443177,0.0070688627,-0.073949166,-0.03553446,-0.030805258,-0.1328875,-0.07687457,-0.05295923,0.26113984,0.315831,0.18351068,0.2422578,0.05475943,0.13919695,0.03907935,-0.03122233,-0.11239039,-0.028272513,-0.0027527206,0.013343388,0.104814194,-0.031957865,0.0137992855,-0.0047184476,-0.024942167,-0.0643597,0.058570556,0.029875014,0.16945405,0.1261147,0.045599476,0.12719959,-0.0238476,-0.16054283,0.026873255,0.07670728,0.2305119,0.33173713,0.3294469,0.17631666,0.08728392,-0.0982594,-0.17284453,-0.22124645,-0.1275776,-0.095138475,0.04204563,0.0380929,-0.030814173,-0.015330239,0.023951788,0.01215194,-0.0016566013,-0.0027243893,0.1052586,-0.056326073,0.07769962,0.06754815,0.11735143,0.052952398,0.08283475,-0.1245176,-0.094963826,-0.079638295,-0.057311494,0.18697824,0.1961312,0.25018862,0.110765286,-0.07527669,-0.10220406,-0.10935048,-0.14936985,-0.19963029,-0.053274315,-0.01721467,-0.026090465,0.071919754,-0.08563466,0.005384334,0.000809572,0.030943992,0.0060920976,-0.073062755,-0.039857563,-0.02413156,-0.08314462,-0.08359532,-0.1702122,-0.24691527,-0.3975682,-0.21042952,-0.13337427,0.07815356,0.12566835,0.19252647,0.14181957,-0.08950555,-0.15298772,-0.10545528,-0.1441497,-0.029427297,-0.14277108,-0.034461237,0.108427435,-0.05675345,0.00096284045,0.022153053,0.019290863,0.017043548,-0.014055677,-0.03239136,-0.029548015,-0.1287402,-0.10985646,-0.16707766,-0.3077094,-0.25974706,-0.21746781,-0.25940573,-0.16952458,-0.0071987053,0.16533452,-0.022856927,0.09370695,-0.08895013,-0.1504035,-0.15181904,-0.07955294,-0.13765846,-0.019368831,-0.06276035,-0.05498225,0.057792373,0.032424886,-0.03286811,-0.10946266,-0.026892008,-0.0045117238,-0.14793268,-0.14946197,-0.15997477,-0.2570592,-0.14945312,-0.10764511,-0.14819285,-0.2085645,-0.39121336,-0.06205216,0.20561257,0.24018142,0.09388119,-0.076399826,-0.02020682,-0.09766964,-0.04472248,-0.09509839,-0.1331328,-0.041455846,-0.018820046,0.056199063,-0.059050795,-0.06563343,0.03393215,-0.05156655,-0.11154757,-0.14284658,-0.043244954,-0.0837687,-0.1915577,-0.13284317,-0.030945728,-0.043659527,-0.08436097,-0.30873436,-0.21969186,0.06747939,0.11354125,0.07747475,0.12809442,-0.025059784,0.07094384,0.16010399,-0.045800656,-0.054708373,-0.08353469,0.02965979,0.021509713,0.003694776,0.0019773154,0.009113778,-0.050886143,0.05363817,-0.03302262,-0.11839496,-0.04064487,0.06683302,0.042629514,-0.02684825,-0.07486484,-0.10353046,-0.027522957,-0.19380851,-0.14499412,0.011753723,0.03552354,-0.1092819,-0.027177341,0.03456006,-0.02189997,0.09853505,-0.03353193,0.044403374,-0.059322745,-0.120880015,-0.08689241,0.028042106,-0.0025406508,0.09495439,-0.02646952,0.04881546,0.002567053,-0.03596299,-0.13215661,0.14225775,0.15736094,0.16550934,0.09120212,-0.11568736,-0.21961826,-0.082003005,-0.086249016,-0.045177177,0.12257744,-0.036805827,-0.1605559,0.012913609,0.1933849,0.03863777,-0.01897131,-0.08090331,0.024091471,0.02090175,-0.02660994,0.032056615,-0.0055533587,0.02302973,0.045452088,0.026415939,0.027677897,0.08560202,0.011602107,0.12556998,0.16703679,0.12306416,-0.046455435,-0.09135824,-0.066652246,-0.306915,-0.07195249,-0.077737875,0.018013189,-0.13223265,-0.13567516,0.06310883,0.13474849,0.065975755,-0.028917272,-0.017060496,-0.07245543,0.04556887,-0.028776994,-0.04297735,0.09915773,0.026013872,-0.017660545,0.046690922,0.038534757,0.039858814,0.05587515,-0.019252919,-0.039272357,-0.001365299,0.054761402,-0.21977673,-0.037979983,-0.1299232,0.12597199,-0.118703134,0.00053883955,-0.07544331,-0.062725484,-0.03399068,0.054464042,0.12024649,-0.029310027,0.017492196,-0.073136106,-0.07325383,0.0067834933,-0.054190066,-0.09424016,0.017914025,0.013059883,-0.06295681,-0.082536645,-0.13862664,-0.044536997,0.16221303,0.0052757734,0.025681365,-0.15937804,-0.077943526,-0.059216,0.083179906,0.19655982,0.00012855313,0.096371084,-0.015253247,-0.17977065,-0.027561966,-0.012829783,0.15186726,0.05395011,0.05463872,0.013351084,-0.097847745,0.021665491,-0.012681221,0.044541143,-0.029301098,-0.01846639,-0.00080175453,-0.0629018,-0.006093635,-0.07461486,0.016415317,-0.12786861,-0.08540953,-0.16368322,0.053721987,0.054677714,0.12150848,0.055996258,0.13360603,0.18922462,0.057439767,0.033579204,0.044151384,0.1685184,-0.10330359,-0.07199626,-0.019632934,0.0017257064,-0.02210694,0.054493275,0.044627752,0.022239707,0.055190675,0.08035928,-0.07744035,0.003464858,0.022813147,0.06493286,0.09475618,-0.07251048,-0.13078079,-0.005154014,-0.004801844,0.015766777,0.12908016,0.07346365,0.18958393,0.09531307,0.17521618,-0.020725563,-0.070387624,-0.048181023,-0.0024691334,-0.069141716,0.026452098,-0.038099453,-0.0879823,-0.07990753,0.012571687,0.04549076,0.090111636,-0.019980287,0.032690115,0.02514388,0.0052215774,-0.0084756985,-0.10641663,-0.03855612,-0.14162701,-0.03770361,-0.0140046505,-0.07061297,-0.25750196,0.074547105,0.1569709,0.29330274,0.09294028,-0.08552308,-0.16030158,-0.11356819,-0.046545245,-0.08265177,-0.030288244,0.00037991384,-0.061834678,-0.02684855,-0.03445484,-0.04954303,0.080968596,-0.02804183,0.008484042,0.1485461,0.051947813,-0.015129354,-0.0005520811,0.019823063,-0.21113196,-0.047849625,0.008891409,-0.046611704,-0.21139164,-0.004312574,0.041774113,0.11345322,-0.0052586505,-0.1929988,-0.2590774,-0.1267776,-0.06705665,-0.08912287,-0.13367917,-0.10071983,-0.0034740313,-0.047267064,0.0023866515,0.010512488,0.054834984,0.014375625,0.042176813,-0.08753391,0.052157495,-0.010360299,0.1480458,-0.05710247,-0.01062536,0.050338924,-0.0031324374,-0.08913482,0.013738556,-0.002087903,-0.0900297,0.050460808,-0.18780074,-0.12737921,-0.052868176,-0.11242867,-0.05564437,0.015083935,-0.02626929,-0.04757217,-0.029572228,-0.031178314,-0.022121187,0.010699219,-0.05618657,-0.052949015,0.0779229,-0.008703599,0.0003446098,0.008251326,-0.041270033,0.027105387,0.15678205,0.102529205,-0.07147413,-0.10875479,0.045275707,0.19945313,0.1087363,-0.03726108,-0.03457043,-0.112145945,-0.06268348,-0.097960666,-0.063662276,-0.08119798,-0.016548993,-0.0551084,-0.008854531,-0.03317038,0.094434656,0.10404118,0.010795395,-0.01884219,-0.00017803596,-0.008818974,-0.02180052,-0.09870186,-0.0676377,-0.06907083,-0.0047236863,-0.0106760515,-0.07380632,0.00013634641,-0.050812647,-0.0438117,0.09466617,0.050888315,0.043419804,-0.025131682,0.08471921,-0.014816904,-0.07063018,-0.030059721,-0.036343623,-0.019759744,0.014281124,-0.073715486,0.0026490581,-0.062412698,0.032707565,0.04049083,-0.03933997,0.038296245,-0.08571751,-0.02425894,0.008990655,0.027920276,-0.05772038,-0.046138324,0.019536322,-0.0064339577,0.026115527,0.040358156,0.04696165,0.093456075,-0.04443826,0.015575818,-0.018409837,-0.0006042088,0.04569576,-0.05468238,-0.02848135,-0.036161907,-0.036262184,-0.063673735,0.05282159,0.05102164,0.035640664,-0.02477869,0.012939109,0.0143483,-0.055880524,-0.038061444,0.056871764,-0.047649518,-0.0077407737,-0.06757065,0.014561858,0.009640376,0.05541224,0.029479545,-0.022124983,-0.06638793,0.039730273,-0.006114418,-0.07149343,-0.14324544,-0.012790929,-0.0070238025,-0.03504627,-0.020474251,0.01885231,-0.023549668,0.07924081,0.052697897,-0.05713998,-0.046997715,-0.04000511,0.06937162,-0.04256943,0.054499716,-0.015518009,-0.0105472505,0.032019984,0.05539584,-0.18240322,-0.05688605,0.019423028,0.13392961,-0.0017223327,-0.032927312,0.13166864,-0.025556177,-0.020318853,0.008381433,-0.03424596,0.045415577,0.045308102,0.048517123,-0.052168567,-0.052009325,0.00029603546,-0.059968144,0.014483059,-0.005327791,-0.070039466,0.023160802,-0.04373823,-0.07412336,0.016552586,0.05109614,0.13201378,0.055681948,-0.021542892,0.2180142,0.049656168,0.16115114,0.1328809,0.15604779,0.068436936,0.042463202,0.009195143,0.08246633,-0.07390253,0.008504864,0.012825641,0.19208202,-0.11034205,0.011245138,0.018168356,-0.01903526,0.014472258,0.05259944,0.040771782,-0.07074667,-0.02605501,-0.014415997,0.028843543,0.14001028,0.089522846,0.011192575,0.08516019,0.16346641,0.07670682,0.06832454,0.22695798,0.09162969,0.09964832,-0.09394379,0.040188503,0.10597788,0.052594017,0.0071959123,0.010517184,0.019946061,-0.0339904,-0.008389604,0.012484308,0.039288282,0.027265452,0.036991812,-0.015758067,-0.03817811,0.021106996,0.03407448,0.17043139,-0.004941384,0.11336506,0.057655364,-0.006584238,0.032168336,-0.038135905,-0.011392091,-0.001815713,0.028263837,-0.0069493707,0.04987867,-0.047396578,0.0119604375,0.109335944,0.039146006,-0.13262472,-0.0927985,0.07740994,0.041696038,-0.025773883,-0.0065504527,0.09122138,0.06990974,-0.020210022,-0.07110438,0.041150443,0.04143988,0.12809817,-0.040259503,0.11733479,0.15649098,0.01633714,-0.019419674,-0.07151178,-0.103269614,-0.113970675,-0.17497665,-0.08529464,-0.00965888,-0.06215081,-0.063090056,0.0629074,-0.09320921,-0.25153106,-0.10398947,-0.01621598,-0.0413357,0.08803371,0.08142738,0.018852329,0.031395283,0.026345888,-0.06781266,0.0149831,-0.0021209382,0.06654344,0.028401367,-0.059485577,0.0112359505,-0.0077367336,0.14795566,0.00406779,0.0044498323,-0.028416172,0.054252867,0.12194622,0.13619632,-0.0030092024,-0.08130579,-0.073165715,-0.16690674,-0.10355769,-0.20923346,-0.05871198,-0.008491187,0.010001697,0.052047852,0.04539568,-0.013311678,-0.03153376,0.009043034,0.0048554065,-0.016449502,0.028675716,-0.059693318,0.046191104,-0.040037468,-0.08271524,0.046794754,0.035378058,0.04749662,0.0009352716,0.24020171,0.032948315,-0.050841317,-0.086859554,-0.12033636,-0.20747921,-0.25168282,-0.1900859,-0.26359388,-0.09390544,0.027636886,0.14070398,0.03558674,0.01001309,0.16899842,0.035733875,0.046937283,0.00837886,0.019161964,0.085667945,-0.008254678,0.023359617,-0.07601808,-0.010971755,-0.07685377,-0.16946079,0.027135877,-0.009814745,0.027863387,-0.07131277,-0.27044576,-0.15055446,-0.12597503,-0.09008788,-0.11346161,-0.23475306,-0.21420938,-0.12660033,-0.14068247,-0.059210386,-0.0069781705,-0.026410405,-0.020133307,0.021106664,0.015446679,-0.04423689,-0.034911375,-0.009739444,0.06802592,-0.012700266,-0.13443312,-0.13552459,-0.15941057,-0.113804795,-0.06794775,-0.06589499,-0.07132877,-0.17513782,-0.29197988,-0.28962603,-0.1550393,-0.15030457,-0.19273943,-0.19227575,-0.13534842,-0.065371744,-0.056256615,-0.08292849,-0.025756555,-0.009012523,0.008724174,0.073473595,-0.03903505,-0.00037727636,0.045244057,0.1538548,-0.080613196,-0.040028777,-0.08883801,-0.22563948,-0.1850879,-0.11512833,-0.03535646,-0.21280581,-0.3282021,-0.30053255,-0.18330887,-0.08415217,-0.13161649,-0.11469955,-0.011808316,-0.09664915,-0.08613653,-0.08604675,-0.05331996,-0.0018675383,0.12494795,-0.09030558,0.02985562,-0.02247013,-0.055531066,0.012718023,0.057355464,-0.009064268,0.04645678,-0.049340397,0.0013584176,0.0010643853,-0.019478077,0.050074913,-0.10810216,-0.22853686,-0.3864745,-0.09003875,0.07212149,0.09688004,0.016490696,0.14059174,0.041917525,-0.008764445,0.03702288,-0.103030026,-0.034392733,-0.002707567,0.04271808,0.003938135,0.19233097,-0.099057294,0.03689992,0.07519212,-0.014209721,-0.0041514835,0.064646795,-0.05561893,-0.0070590586,0.056170065,0.04800085,-0.08718488,-0.1642585,-0.16644175,-0.0833467,0.20777752,0.19629669,0.26467285,0.2583262,0.12132069,0.12277917,-0.025389424,0.17580876,0.05931273,-0.039007157,0.018487468,0.004513737,0.044669982,0.08605355,-0.03896892,0.009248199,0.10211247,0.04419099,-0.024646074,0.08486515,-0.13257189,-0.05192407,0.11268966,-0.03435715,-0.28060305,-0.20037548,0.08343358,0.23821871,0.5395935,0.2514926,0.4072378,0.29925355,0.119714305,-0.007928889,0.10526244,0.21302487,0.102165654,0.008402661,0.011800247,-0.052017566,0.011670255,0.064297,-0.013719034,0.040116437,-0.040442947,-0.05297998,-0.08438592,-0.11690032,-0.14865267,-0.03284881,0.07401374,-0.17242645,-0.216373,-0.034013953,0.14370066,0.29344425,0.29715556,0.13488595,0.24434295,0.19992273,0.09448805,0.14348683,0.12030291,0.12864476,-0.0568986,-0.09448235,-0.05947863,-0.026943808,-0.024731651,0.059404235,0.008606376,-0.06550202,-0.15957062,-0.044609137,-0.10515735,-0.14815836,-0.21817161,-0.14969562,0.0012222766,-0.054093048,-0.072366074,0.1523643,0.27136043,0.046346202,0.0790725,0.03187001,-0.025718212,0.099301584,0.13671465,0.16882037,0.0035523695,0.07183025,-0.043295898,0.018522838,0.014718974,0.00081941736,0.047514435,-0.0061413166,-0.06303532,0.03279269,-0.0068248296,0.1298001,-0.046680786,-0.06369141,-0.07831282,-0.09501939,-0.09967208,-0.11174382,0.11377198,0.374678,0.1987441,-0.012202635,0.035113286,-0.099160254,0.050974812,0.021288069,0.1418044,0.09483879,-0.030970292,-0.067421645,-0.08783053,0.01756847,-0.022743445,-0.018461376,0.015126733,0.008983426,0.0042215004,-0.08414423,-0.031116655,0.059584968,0.010785267,-0.0752923,-0.003058181,-0.18592317,0.0031240194,0.068233766,0.09159743,0.20945543,-0.10860749,-0.21478477,0.02330828,0.07630542,0.016888157,-0.056829784,-0.038475502,-0.03506906,-0.04988182,-0.07244744,-0.053139303,0.10585561,-0.03173384,0.07137659,0.08257023,-0.028275331,-0.004288235,0.01692297,0.024905264,-0.01724363,-0.022113355,0.03191218,-0.12767203,-0.17584153,-0.0750676,0.0013826293,0.29422665,0.21331352,-0.07171338,-0.058137283,0.16450533,0.20996031,0.030846141,-0.08112013,-0.13762175,-0.21791387,-0.11916164,-0.018055815,0.020056497,0.057945717,-0.07738382,0.032757264,0.041831113,-0.0634721,-0.024204573,0.0018107843,0.084674954,0.13877115,0.070269436,-0.013645154,-0.11788478,-0.024958273,0.022929005,0.14920019,0.22749509,0.021269655,0.13724016,0.10076843,0.15083118,0.12227382,0.1063847,-0.09248335,-0.19007897,-0.030345153,-0.052576523,-0.1315897,-0.035101302,0.048752423,-0.03908398,-0.016177299,0.03350217,0.07965632,-0.10825615,0.08864193,-0.0891534,0.08275437,-0.11475736,-0.03586652,-0.013646067,-0.0011310469,0.09586432,0.0045713037,0.019035723,0.13405675,0.09575615,0.13344981,-0.044442683,0.010045717,-0.029212538,-0.11275376,-0.14514847,-0.12392858,-0.082705535,-0.10575676,-0.061980154,-0.0015719265,-0.020951955,0.03494205,0.07416179,-0.016987847,0.043250043,0.020998362,-0.101384394,0.0029068326,0.034201197,0.0841536,0.10252735,-0.06746358,-0.028137017,-0.1686057,-0.27047437,-0.05510705,0.0019810756,0.00027618383,-0.047177013,0.021271305,0.047491327,0.0017116463,-0.17505048,-0.15123066,-0.07279948,-0.058967445,-0.013266391,0.08087201,0.039235234,0.055209234,0.0047689765,-0.051555477,-0.018366273,0.0035720123,-0.056453623,0.006848871,-0.072179064,0.052541234,0.007379359,-0.059949897,-0.12620072,-0.14931731,-0.22804873,-0.19820045,-0.290523,-0.06885688,-0.06322706,-0.099625595,-0.08154816,-0.04260076,0.038119286,-0.09511569,-0.08758842,-0.006880271,-0.038947318,-0.08548271,-0.0029002544,-0.00986848,-0.022559002,0.044676036,-0.08071308,0.022398308,-0.005719432,0.02835723,0.12560904,-0.058785927,-0.113558255,-0.18875197,-0.17556654,-0.18689127,-0.20882516,-0.21555072,-0.17006597,-0.13601756,-0.07111756,-0.21011476,-0.12755136,0.016598389,0.050195828,-0.056698844,-0.018698888,-0.046816323,-0.060430575,0.058806058,0.058279447,0.070563585,0.00716973,-0.08816783,-0.034802195,0.019050987,0.08250948,0.076515034,0.05313662,0.03267526,-0.060222622,-0.15432347,-0.14415184,-0.10312107,-0.073278755,0.0042547304,0.024945617,-0.09033869,-0.027566215,-0.0368439,0.0056246654,0.11781527,0.054233942,-0.0977877,-0.068064906,0.012148618,0.042811774,-0.06060396,-0.04019035,-0.024520893,-0.02981031,0.061304554,0.16701016,-0.0788657,-0.07267342,0.013926615,-0.051407903,-0.021979712,-0.108902074,-0.05198122,-0.014891439,-0.051992662,0.104349986,0.10810864,0.09960995,-0.028935088,-0.060247764,-0.052527588,0.018045638,0.07357309,0.09064581,-0.029821359,-0.0029938652,-0.06426318,-0.071816795,0.010686143,-0.08063095,0.06975583,-0.012753578,-0.029299956,0.030679556,0.08633557,-0.03632391,0.053676784,0.05240216,-0.00032058446,-0.004149342,-0.069595695,-0.047313273,-0.018441252,0.037867896,0.08414563,0.017833486,0.11936855,0.018600987,0.015306669,0.0060399,0.064669766,0.023679916,0.032345697,0.049600594,-0.07700467,0.046750087,0.06790004,0.0100170355,0.068975784,0.04130058,0.06378287,0.015391708,0.030809663,0.044572044,-0.011578321,-0.03818199,0.010442798,-0.0102832215,0.06294552,0.09483943,0.021103565,0.062250562,0.12758303,-0.0007567371,0.044987295,-0.13126089,-0.08483141,0.0032137833,0.09511928,-0.026440414,0.028632881,0.0314041,0.002792642,0.016426766,0.017398627,-0.073567495,0.027790343,0.04070386,0.039772496,0.079409294,-0.002270509,0.017185863,0.074168056,-0.0190799,0.00082801585,-0.02142838,-0.003291968,0.020845478,-0.03257587,0.09126311,-0.064424776,0.00593594,0.00957475,0.08716744,-0.034146126,-0.01710539,-0.017968867,-0.092269756,-0.0646263,-0.014929755,0.013380154,0.023711886,-0.036422826,-0.10539415,0.08195596,0.07373429,0.014753131,-0.033166222,0.05805132,-0.011154393,0.02611736,-0.06712177,0.026025059,-0.0038236056,0.05379551,0.028209837,0.049762238,0.0420962,-0.06923255,0.00076617306,0.06925621,-0.012819597,-0.089183696,-0.09511315,-0.13891315,-0.010869124,0.011957224,0.0015520728,0.050464198,0.023583295,0.03038442,0.062235765,-0.02018542,-0.0072195292,0.021117514,0.09829709,-0.07113097,0.023734516,0.02166127,0.013878625,0.06896653,-0.024646884,0.019705169,-0.014234249,-0.123241045,0.01065772,-0.11325184,-0.024276832,0.040299017,0.0068484778,0.086386524,-0.022104526,-0.0110360775,-0.03894725,-0.02374646,-0.027432485,0.021639232,0.007879638,0.024935137,0.05324683,-0.060450893,-0.015347086,-0.063108526,0.05186388,0.010307535,0.01063224,-0.07752437,-0.05223042,0.054468095,-0.03861915,-0.00944693,-0.03268341,0.044869516,0.011740898,-0.10393517,-0.04232777,-0.054943863,-0.020847287,0.044954762,-0.07071411,-0.10740446,-0.11578048,-0.025517413,0.048491374,0.021237,-0.11403692,-0.078027345,0.0066020256,0.029077442,-0.033151608,-0.036064144,0.015462649,0.055247698,0.08576733,0.012300302,0.0626599,0.009746965,-0.016921645,-0.03594822,0.030373348,-0.15659837,-0.09809388,-0.026546761,-0.054269724,-0.17172153,-0.088726066,-0.007996266,0.09766704,0.13085823,0.03957155,-0.04755976,-0.010141575,-0.071825914,-0.049687132,0.03449443,0.037629977,0.031357165,-0.05314392,0.017295135,-0.046792712,-0.02170212,-0.069512516,-0.02772466,0.04199464,-0.12689349,0.0032824108,-0.0520888,-0.10322421,-0.092934914,-0.05444962,-0.047573682,-0.05267143,-0.22076192,-0.02951714,0.08113882,0.0096505955,0.13020359,0.08893476,0.14256611,0.052467287,-0.08943297,0.029191475,-0.0520454,0.045978624,0.08930027,-0.026839068,-0.030910797,-0.0058628796,-0.05538641,0.03598024,-0.08322922,-0.10851725,-0.057492662,-0.10461975,-0.12372157,-0.17222977,-0.077005535,-0.1327258,0.0028352232,0.065512635,-0.058047052,-0.09336214,-0.07817729,-0.022723496,-0.01252345,-0.03739788,0.07696196,-0.0074737305,0.038643308,-0.06848069,-0.004816486,-0.00796734,-0.06512944,0.00015167639,-0.03743789,0.020437192,-0.062684625,0.0075371284,-0.11721312,-0.08900642,-0.024466848,0.016231867,-0.13741595,-0.048776723,-0.17471541,-0.05017044,0.028331542,-0.12480399,-0.009601149,-0.02231461,-0.0030500407,0.04300083,-0.0770503,-0.02014127,0.14862746,-0.17344229,-0.036822297,0.035257474,0.046208516,0.047180362,-0.020806942,0.051176,-0.044011053,0.06606505,0.066765584,0.05137358,0.0498038,0.06118361,0.08773922,-0.13627172,-0.057189096,0.0071579195,-0.08816297,0.012704075,0.11907251,0.10095215,-0.07639697,-0.105937995,-0.007162879,-0.04693426,-0.0598937,0.050767303,-0.11211382,-0.10188108,-0.0415977,-0.09142188,-0.033288993,-0.027254073,-0.015779601,-0.006351946,-0.12148963,0.0024845696,0.09987936,0.025044242,0.118574165,0.095533304,0.06849073,-0.013274362,-0.12502404,-0.06537673,-0.12356599,-0.017968688,-0.11664533,-0.0026743487,0.14145178,-0.061311428,-0.19049221,-0.06354729,-0.07450413,-0.0935622,0.046054732,-0.017405653,0.040049866,-0.03955974,-0.0040600994,0.0829937,0.060668815,0.029584462,-0.010426771,-0.015553358,0.0944998,0.0743353,0.17071186,0.2584531,0.14389198,0.048037175,-0.10221167,0.13495652,0.069570474,0.045334138,0.06863876,0.051832125,0.03579995,0.0012348235,-0.09131372,0.053303085,0.0043917904,-0.09355613,0.083419874,0.065377615,-0.05957253,-0.022479447,-0.13478632,-0.012730599,0.04924941,0.004258684,-0.016811304,-0.009343341,-0.021675978,0.030762494,0.0639539,0.2234567,0.29027164,0.22638568,0.14436957,0.20492867,0.21611394,0.09904426,0.094511546,0.09973171,0.057049714,-0.054621924,-0.1096615,-0.010420745,0.041705802,0.15924801,-0.1308827,-0.018341381,-0.086351,-0.12189103,-0.017080836,-0.011692367,0.064508155,0.09058621,0.058182687,-0.022351138,-0.069807515,0.07565681,0.06377666,0.12840223,0.23890215,0.23183018,0.26164725,0.091009356,0.0156205855,-0.018613411,-0.0375845,0.008183286,0.002863775,-0.0123673845,0.052776415,0.10462649,0.14058155,-0.1303675,-0.04814823,-0.13556477,-0.12656805,0.06643056,-0.036177643,-0.030759865,0.04504646,-0.016129725,0.0760103,-0.03357544,-0.0016371588,0.042535186,-0.0063302564,-0.040706377,-0.10397352,0.111637995,0.093182676,-0.0038923388,-0.2611174,-0.31635478,-0.020272719,0.039821234,0.13029979,-0.02265309,0.044642206,0.19561061,0.021198003,0.14728424,-0.0048819426,-0.058572322,-0.08534402,-0.010335076,0.024328573,-0.0032161956,0.00889658,0.013620981,-0.09499145,-0.015154579,0.081739485,-0.1268589,-0.10516644,-0.024097225,-0.18543354,-0.3082098,-0.39255312,-0.41581818,-0.4564981,-0.12943834,0.10361584,0.26620778,0.03000623,-0.0151417125,0.1061992,0.040801916,-0.04475896,-0.068663515,-0.204016,-0.05198777,0.06939387,-0.03207929,0.00914538,-0.0064062867,-0.08937971,-0.05738258,0.0259274,-0.021038491,-0.09676275,-0.09188243,-0.056471836,-0.043103185,-0.17650622,-0.24742098,-0.36708322,-0.44487286,-0.024448717,0.16533223,0.46275324,0.32155097,0.14426054,0.08922225,-0.2058253,-0.26629442,-0.17129809,-0.25087097,-0.24727911,-0.11167863,-0.10414777,-0.046030995,0.028648173,-0.03657049,0.017356528,0.023620265,0.05343071,0.0008371981,-0.06736214,-0.05407382,-0.08511153,-0.19294989,-0.12124373,-0.31387547,-0.32216254,-0.25593543,0.18618456,0.2502421,0.19144599,0.23622136,0.047418512,-0.0146114975,-0.10087016,-0.094169505,-0.14239517,-0.23160699,-0.1900321,-0.13036713,0.0044752797,0.043616634,-0.020637609,-0.03139244,0.09657168,0.030092109,-0.009042891,-0.0032729467,-0.07217931,-0.11259859,-0.109196626,-0.19032313,-0.22369035,-0.17830732,-0.2269671,-0.047385115,0.23941201,0.35165858,0.21698368,0.099703096,-0.25098878,-0.17700924,-0.050509874,-0.06285099,-0.21864162,-0.1626703,-0.12993245,-0.059228588,0.02766004,-0.02148801,-0.03862432,0.033845454,-0.019057687,-0.027914591,-0.02430674,0.06266813,-0.009410248,-0.028176857,-0.011714253,-0.28420767,-0.2133149,-0.3391291,-0.1261989,0.27990583,0.3058835,0.21295877,0.20723213,-0.29293638,-0.15389733,-0.1425832,0.02271674,0.009451578,0.022650788,-0.014273989,0.025005955,0.040010184,-0.07164198,0.058021408,0.038733337,-0.020987326,0.08357571,0.024440335,0.013681705,-0.032798924,-0.01853645,-0.04338596,-0.007684127,-0.079293214,-0.11587187,-0.12741964,0.07912257,0.34682706,0.3320051,0.17435129,0.06907761,-0.33196855,-0.04166612,0.15058912,0.0006460861,0.15923873,0.19083294,0.042211004,-0.0141407605,-0.03192643,0.14350845,0.1641647,0.030266983,0.059699517,-0.073877655,0.05900008,0.048499417,-0.07063356,-0.04245402,0.054330654,-0.0946849,0.068754,-0.0019020496,0.1659647,0.03135053,0.2730854,0.41870767,0.22150221,-0.08532435,-0.16158764,-0.07348588,0.18132712,0.1364048,0.17937298,0.08093332,0.014759913,-0.05172588,-0.04808617,0.0068600923,0.025922254,0.054177437,0.015489188,-0.05337762,0.00929919,-0.064077854,-0.06760961,0.011688768,0.05671674,-0.10525467,0.12847626,-0.0139568355,0.1078054,0.22522704,0.14733757,0.033494286,0.010856458,-0.11402129,-0.216828,-0.22842549,-0.1049526,-0.015025073,-0.11677823,0.21974094,0.09301099,0.063183464,0.09161107,0.010526997,0.033913303,-0.055043254,0.038826365,-0.14341868,0.019362323,0.062358186,-0.07590192,-0.03611999,0.09905063,-0.01746264,0.057448983,0.08438701,0.16168033,0.15334205,0.042174976,-0.07310592,-0.04003931,-0.007638382,0.059832808,-0.12350776,-0.08054019,-0.14357184,0.09012948,0.036110826,0.021703618,0.051842712,0.017844878,0.04840627,0.093466155,0.036446813,-0.0036898064,0.06794701,-0.1321783,-0.016989503,0.0071679647,0.09048504,-0.01249923,-0.022255983,0.10322581,-0.009310789,-0.11952952,0.083823465,0.049966294,0.088482626,0.15015982,0.26437026,-0.013169936,-0.08969436,-0.07425305,-0.17181952,-0.04401004,0.1514836,0.15250795,0.021416595,0.046293054,0.061967194,-0.051966287,0.019820603,0.018454721,-0.012413247,-0.0030570223,0.03065316,0.016812379,-0.08133357,-0.072095126,-0.046650816,0.027326683,-0.24471956,-0.19964437,-0.049580332,-0.06973467,0.0005148885,0.11999282,-0.10391682,0.112052314,-0.08566176,-0.114786096,-0.14377682,0.009597819,0.12246424,-0.006350909,0.16715838,-0.0117990635,0.051115893,0.04888103,0.07495667,0.024210045,-0.007927934,-0.010802185,-0.029283393,0.052613277,0.024144026,-0.05263011,-0.086084105,-0.02381131,-0.05851855,-0.11326985,-0.2561819,-0.13945048,-0.101038694,-0.051745947,0.0021554746,0.07462694,-0.113323495,-0.0014267337,-0.11542243,-0.060788356,-0.05626381,-0.03278014,0.008028846,-0.012777187,-0.05472338,-0.024393186,-0.03170134,0.027863469,0.13955057,0.045570385,0.01094441,-0.055577274,-0.050650414,-0.07128731,-0.073941916,-0.023232276,-0.051313445,-0.037455954,-0.027268864,-0.0060293884,-0.005882465,0.010741032,0.0061320383,-0.10972687,-0.12896699,-0.09856669,-0.08099896,-0.065887235,-0.008447241,-0.029135322,0.034282345,0.026962824,-0.07142269,0.027072793,0.08615568,-0.09281163,0.026564045,0.012842072,0.0012330668,-0.09396136,-0.07313905,0.0017923883,0.015981402,-0.013612777,0.029057937,0.09656576,-0.0386578,0.0010504143,0.046182726,0.010595971,-0.05274407,-0.01138075,-0.014056806,0.009727543,0.017387876,-0.0074367225,0.057419468,-0.079969995,-0.0017086383,-0.029536229,0.009679558,0.09133566,0.023543907,0.06725449,-0.03379774,0.05629982,-0.007396743,0.0039018714,0.046735816,-0.049743656,-0.060948268,-0.14123665,-0.013429774,0.018992439,0.04038431,0.059313897,0.02409196,-0.07557514,0.03574145,0.011936264,-0.04200917,-0.03367456,0.026113324,-0.02765299,0.01642695,-0.011532413,0.029332057,-0.05794135,-0.034881216,-0.031005949,-0.020510523,-0.024281235,0.06516144,0.046110403,-0.061896898,0.003250198,0.022254085,0.04260596,-0.016026054,0.015477267,0.07707482,-0.0753143,-0.013111647,-0.03318479,-0.030490773,0.09823491,-0.011490146,0.06779395,-0.059667144,-0.0013389649,0.028705059,-0.018523267,0.015131737,0.020363694,0.06081176,-0.0028370814,-0.0078475615,0.035297647,-0.042735666,-0.07663199,-0.046225153,-0.04889217,0.047824446,0.010093502,0.050533284,-0.031132331,-0.077155344,0.07514011,0.08333613,-0.06136976,0.029123772,-0.027245509,-0.00035122235,-0.011065515,-0.032500356,-0.020396411,-0.012004105,0.0035377587,-0.021714974,-0.12205427,0.02751474,-0.025547143,0.05846086,-0.012763116,-0.03211809,0.026689706,0.018973637,-0.1533645,0.026078718,0.0051992973,0.045224316,0.0062943315,0.09949127,0.019266939,-0.0086255735,-0.087423004,0.00231528,0.049681526,0.049032547,0.027201137,0.04701808,0.01908426,-0.05944719,-0.046411425,-0.059535783,-0.0032647513,0.062480494,-0.098616,-0.016523208,-0.1044428,0.0227866,-0.049930166,0.03310606,0.054155283,0.035483457,0.0073199663,0.044760708,-0.061839342,-0.047949303,-0.02662375,0.0228411,0.07791979,0.027166944,0.03765864,0.037727587,-0.041476727,-0.038967285,-0.04312709,-0.0036543272,0.097595334,-0.0207771,-0.10493593,-0.18667638,-0.17883538,-0.120695695,-0.10537941,-0.014225747,-0.07783532,0.003335848,-0.009821544,-0.13396937,0.07337428,-0.018719438,0.04575492,-0.04541875,0.015899613,0.014967573,-0.050254866,-0.014466854,0.01700225,0.072508276,0.08697651,0.06680625,0.20112473,0.056129254,-0.040560108,-0.0032265054,-0.04651419,0.015814306,-0.12621374,-0.25949264,-0.22562158,-0.2676959,-0.06726036,0.030894184,0.1486024,0.0007600824,-0.012845623,-0.06523552,0.01769503,-0.066750295,0.04511389,-0.013136821,-0.0392053,0.09726672,0.0076185013,-0.052742403,-0.075582676,0.069048546,0.023638226,0.04791217,0.038647287,0.006685784,0.038166877,0.08848408,0.09992161,0.087169915,0.12007069,0.31308463,0.17635459,0.38461244,0.18465966,0.22487655,0.054004505,0.009821979,0.029755402,-0.012707621,-0.024076156,-0.03475062,-0.029922089,0.033559848,0.014478176,0.0060000266,-0.026474144,0.023468282,-0.058033496,0.024264697,0.025418296,0.11179001,0.0666503,0.072272524,0.13971487,0.1151736,0.105567664,0.28557888,0.31035823,0.37750873,0.4240964,0.28439733,0.1528595,0.10584267,0.12479434,0.080140844,-0.050170567,0.023362083,-0.032120842,0.05038211,-0.08497975,0.021398103,-0.005816165,-0.029418647,0.056547217,0.04192386,-0.06554451,-0.038086712,0.016152706,-0.04469456,0.08307115,0.018685956,-0.034537807,0.11912994,0.08171621,0.17304626,0.28062165,0.21105678,0.10406656,0.011109121,0.13683541,0.13460262,0.035639238,-0.07700695,0.011224195,-0.02398864,0.064232506,0.08485992,-0.06000272,0.0804415,-0.022406252,-0.010660939,-0.004768626,-0.052543145,-0.10262431,-0.18553582,-0.08534391,-0.11807903,0.0016861897,-0.065464616,0.020302204,0.089914285,-0.066291764,-0.1491086,-0.16375548,-0.08956132,-0.20204078,-0.08329166,0.098150946,-0.019220287,-0.13296123,-0.13289426,-0.0742937,-0.05274124,-0.07937471,0.006299822,0.07044888,0.011960638,-0.08152662,0.035617687,-0.034050774,-0.0015554369,0.030585265,-0.05962388,-0.12115181,-0.064086586,-0.1087987,-0.16315092,-0.16011341,-0.22259417,-0.27177936,-0.35519803,-0.52720904,-0.26609302,-0.19200976,-0.1966496,-0.03333782,-0.08171777,-0.18820494,-0.048916996,-0.16174069,-0.19363424,-0.040288184,-0.038423203,-0.06409389,0.075574584,-0.041039404,0.077786475,0.06819974,0.0766393,-0.1048131,-0.09652663,-0.046792347,-0.057448696,-0.14699322,-0.16927366,-0.30712306,-0.2269604,-0.23713647,-0.2760192,-0.25613362,-0.16425054,-0.009978408,0.0014535399,0.061189692,-0.019417489,-0.14317927,-0.11571681,-0.20112447,-0.0010632555,-0.036959738,-0.025733342,0.007943533,0.08568697,-0.12641248,-0.0092075635,-0.043245345,-0.03586236,-0.082830794,-0.19343852,-0.017050045,-0.07725377,-0.17897272,-0.113426685,-0.17374322,-0.10480411,-0.11081642,-0.10437567,-0.13251123,0.055246923,0.053397715,-0.10005944,0.030976778,-0.029028403,-0.14295328,-0.104193605,-0.1046991,-0.04829439,-0.06422704,-0.007841529,0.04402613,-0.0120511325,0.06511033,0.07052998,0.048060518,-0.035174586,-0.073536195,0.040192332,0.05829502,0.02295603,0.009253979,0.022479659,0.005074779,0.07438842,0.05648661,0.061910782,0.053334065,0.019534826,0.18993519,0.13593313,-0.06144911,-0.18152018,-0.14755383,-0.03791449,-0.118040964,0.05638854,-0.080536045,-0.05996222,0.0001413862,-0.010660853,0.036896806,0.0007456789,-0.030749219,0.01605794,0.08640166,-0.11106382,0.010255496,0.084806755,0.060678843,-0.04576816,0.11593775,0.08417931,0.06919531,-0.02894271,-0.09067195,0.10275011,0.21231207,0.08282817,0.07245702,-0.011866487,-0.07894466,-0.12862106,-0.13889529,-0.11426458,-0.032663044,-0.017123135,0.12431444,0.07940015,0.09908457,-0.05811184,0.0041432204,0.10367989,0.053559504,-0.077363685,0.048238855,0.038598966,-0.05154283,-0.06609146,0.050549667,-0.017259646,-0.08037771,-0.18246275,-0.111307696,0.09215194,0.04168418,0.07576086,-0.009157433,-0.08685701,0.026483942,-0.056242116,-0.12659954,-0.005190387,-0.051127244,0.034765523,0.016964573,0.08405909,0.04431131,0.04926484,0.07481324,0.03048111,-0.015912531,-0.046656344,0.11697301,-0.003417856,-0.053966,0.0880061,0.044889793,0.0023136912,-0.0097474465,-0.19384722,-0.12054418,0.0862209,0.0843732,-0.009767494,-0.054230776,0.02328435,-0.04645742,-0.13761364,-0.05942659,-0.13932131,-0.12207126,-0.04745524,-0.010780801,-0.009246015,0.018373644,-0.008386602,0.011697599,0.0573881,0.1403792,0.13551764,0.0653895,0.0057153055,0.09619137,-0.064757735,0.07962759,-0.087470055,-0.12946104,-0.19513321,0.00493437,0.17063163,-0.05525729,-0.0033945327,-0.037202213,-0.0848749,0.062259655,-0.09257744,-0.12176557,0.026671823,0.0074874163,0.045219414,0.010341509,0.00809936,-0.08868158,-0.00664556,-0.07348208,0.038817845,0.12817988,0.049370278,0.13969903,0.027870927,0.12965676,0.091929525,-0.04990478,-0.080228746,-0.090436265,0.11216797,0.066199146,-0.043430816,-0.02742613,0.090790056,-0.05388924,0.050718162,0.08041835,0.122702084,-0.049649492,0.028348453,0.024440357,-0.016625049,0.030725198,0.06838023,0.09174902,-0.016618622,-0.019603413,0.043681078,-0.01207224,0.028439768,-0.052526448,0.026881607,0.072164394,0.08026481,0.084702834,0.10401732,0.011607566,-0.08146732,-0.06254539,-0.101390176,-0.04107743,-0.005484642,-0.07257885,-0.012682273,0.07452282,0.05906643,-0.14133246,0.06769422,0.21447854,0.020775208,0.039886586,0.011654489,0.048782844,-0.02650752,-0.004045118,0.029323712,0.011239433,-0.06448626,-0.22958492,-0.00882078,-0.02384976,0.03924867,0.15470998,0.12768582,0.09620721,-0.002916108,-0.06777663,-0.057801697,-0.038071446,-0.1263625,-0.13451467,-0.03656711,0.06511191,-0.19793342,-0.15785103,0.019137822,-0.014796763,-0.00011766416,0.0055516516,0.0018763279,-0.022614554,-0.08000467,0.06644443,-0.11185926,-0.031140456,-0.095939435,-0.10305382,-0.07607978,-0.19596884,0.015345463,-0.009700819,0.07216872,0.123909004,-0.075348,-0.09132053,-0.1433202,0.023972794,-0.084339194,-0.23352829,-0.09623084,-0.03202568,-0.088083856,0.0031043019,0.0056579444,0.13549012,0.02741417,-0.017948149,-0.022660373,-0.03575783,0.014636122,0.022693397,-0.013405475,0.07186242,0.047068708,-0.14173456,-0.055118706,-0.15083393,-0.29907656,-0.035644136,-0.089621514,-0.04354233,-0.0238316,-0.016473114,-0.13143663,-0.019396223,-0.09730345,-0.17381704,-0.1829364,-0.13384405,-0.10276435,-0.009974817,0.0076279584,0.1049797,-0.04115714,-0.022673646,0.022538884,0.026569761,-0.036953434,-0.02374391,-0.08168477,0.017689195,-0.0115010375,0.031005828,0.063238874,-0.13315812,-0.1913247,-0.19837382,-0.1884327,-0.075002,-0.13492107,-0.14174849,-0.3210776,-0.25987056,-0.16778606,-0.2611944,-0.13399398,-0.06404297,-0.0813035,-0.08318114,0.04331859,0.062222384,0.08449883,-0.058075342,0.034743804,0.044199537,0.06334861,-0.054219555,0.081036285,0.08472112,0.084254526,0.014830885,0.047021538,0.040305812,0.014639201,-0.11021017,0.021335473,0.016359696,-0.0069866925,-0.17657697,-0.069535464,-0.12089218,0.05591539,-0.18866117,0.03340417,0.0783128,-0.082121246,-0.05011599,0.000922841,0.03977983,-0.024734812,-0.07865562,0.045916453,-0.0012161076,0.00980921,0.03005678,0.010315173,0.06898512,0.078612916,0.04896138,0.084743656,0.03389321,-0.0029933795,0.03523601,0.07395583,0.15999316,0.10096242,-0.03299251,0.041294433,0.06505607,-0.05988171,-0.036073036,0.008921985,0.053505257,0.06844194,-0.022658972,-0.0109872585,-0.05458489,0.050176654,-0.13255729,0.015993798,0.09585618,-0.016768401,-0.115568765,-0.07907782,0.019137431,0.07320203,-0.06316536,-0.009562344,0.046886463,0.14079134,0.019939821,0.009506852,0.030277902,0.032116957,0.11164247,0.107999265,-0.022714984,0.04180109,0.03423079,0.03768552,0.039353386,0.040559966,-0.11606285,0.015555035,0.0023970574,-0.13031146,0.05367759,-0.081439026,-0.04645357,-0.005788394,-0.086942196,-0.07676305,-0.01749472,-0.045076936,0.07195929,-0.029077956,0.13681224,0.06583509,-0.047681153,0.0550486,0.009073744,-0.027138317,-0.033451393,0.05683386,0.022392875,0.017205313,0.043008257,-0.020221269,0.10454974,-0.059807654,0.028174942,-0.030249242,-0.05676464,-0.013200601,-0.08053635,-0.044292483,-0.10118671,-0.04003555,0.008267343,0.005319106,0.044279005,-0.027904658,0.07194357,0.079677,-0.022585612,-0.0041944534,0.17312275,-0.011824519,0.014603458,0.022820106,-0.026482385,-0.023602616,0.07397073,0.011534438,0.09310836,0.001181131,-0.07543695,0.060168978,-0.018920802,0.09735834,0.026854696,-0.0034926878,-0.0117764305,-0.08632825,0.041176233,0.0025367534,-0.0099720275,-0.0038388034,-0.02173303,-0.013897536,-0.0011292845,-0.05228185,-0.014584024,-0.004777641,0.06826718,-0.01071461,0.058655642,-0.033675723,-0.029109258,-0.06257379,-0.11804018,-0.015766166,0.06722774,-0.059208833,-0.066498816,0.023040514,-0.010749622,0.048225485,0.02665326,-0.036505852,-0.044463694,-0.033331666,-0.02849722,0.00685829,0.025813518,0.0029923,-0.04733553,0.020508701,-0.04009931,0.05032178,0.025756313,0.011648984,0.08752502,-0.0924048,-0.005245241,-0.03824601,-0.010252725,-0.06470384,0.040544514,-0.08743419,0.046565346,-0.03492015,-0.042889044,-0.076921776,-0.006295664,0.015029709,-0.041243546,0.038291205,-0.0046584266,-0.07569144,0.058291856,0.07603891,-0.018190049,-0.004228736,-0.07228488,0.032568026,0.09090562,-0.021425141,-0.053260896,-0.070544645,-0.10791052,-0.009524387,-0.122325234,-0.06891437,-0.101917565,0.08921427,0.013947433,-0.021471683,0.022935862,0.055923797,0.014286162,0.06363861,0.11680858,-0.058332317,-0.04699669,0.023279764,-0.09129887,-0.038719643,-0.00004171418,-0.0015486948,0.01738995,0.075549066,0.004750374,0.043495305,-0.015366621,-0.078894205,-0.057150714,0.004110661,0.08921575,0.050641544,0.09554376,-0.11645292,-0.18499738,0.0751556,-0.025050903,0.09074533,0.04801478,0.0627989,-0.02935288,0.13374394,0.062821716,-0.03144873,-0.054646797,0.031385925,0.04235021,0.026954494,-0.004123622,-0.04305574,-0.01966905,0.1295388,-0.01419475,0.08800511,-0.106677294,0.12045609,0.12112215,0.13182478,0.25483784,0.21167214,0.05493263,-0.22401348,-0.42498574,-0.27870655,-0.12247401,0.15108952,0.04586336,0.020264598,0.19591008,-0.05693531,-0.0063499613,-0.011115061,0.046204336,0.027055414,0.021790568,0.039380204,-0.025851209,0.0408344,-0.06602436,-0.012944572,-0.03833273,0.09352172,-0.027625337,-0.11745271,0.046518106,0.19182861,0.16773306,-0.005961823,-0.10688574,-0.23614793,-0.50503206,-0.49791387,-0.09123815,0.06224975,0.16833465,0.19086891,0.14107408,0.060325105,0.018580124,-0.00093513884,0.11337661,0.09390625,-0.015583062,0.042054158,-0.061950233,-0.012483755,-0.02794164,0.012172655,0.0636977,0.028311344,-0.09596391,-0.08565993,-0.019672925,0.14289989,0.20259836,0.2070739,0.020430243,-0.38173902,-0.40400416,-0.36910433,0.015000156,0.2807884,0.29429948,0.098327726,0.2677499,0.036047593,0.060151577,0.076740175,0.03561569,0.057572406,0.01812239,-0.016563639,0.036597442,-0.014805179,-0.0050365007,-0.025789995,0.021879526,-0.0010093447,-0.08752331,0.031005794,0.045508027,0.42654297,0.31407052,0.28889808,0.11492985,-0.19791228,-0.23453704,-0.21364674,0.18664108,0.31593704,0.21324018,0.10927555,-0.038244903,0.046238333,-0.06594956,0.026437515,-0.038115688,0.11310275,-0.009403438,-0.044973463,0.047103863,0.044425476,-0.00022106682,-0.003112782,0.00630623,-0.06629115,-0.18106773,-0.17978446,0.04863429,0.19703606,0.17713912,0.13082546,0.06720564,-0.20128916,-0.26517344,-0.13835853,0.15627064,0.104881994,0.04820748,-0.05935558,-0.04568846,-0.09910379,-0.0727692,-0.039936587,-0.029828705,0.020573473,-0.0042208834,0.058289006,-0.004991506,-0.07510824,-0.0029994992,0.026182074,0.046775725,-0.06687413,-0.32354695,-0.17694455,-0.0012322727,0.029530745,0.14664523,0.241586,0.23402128,-0.20027502,-0.36320397,-0.049294423,0.03766668,0.15326838,0.09575931,0.033957943,-0.12977058,-0.18254256,-0.16002476,-0.1786876,-0.003763432,-0.0982924,-0.036638245,-0.006936389,0.024242032,0.0044608973,0.02929341,0.11260902,0.010872653,-0.004190741,-0.0740598,-0.08048583,-0.11896003,-0.051011816,0.06665904,0.13147417,-0.004101425,-0.27040032,-0.2569551,-0.10569445,0.0732419,0.17328055,0.07007707,-0.10457891,-0.20781556,-0.13311979,-0.24239933,-0.07755536,-0.11062108,0.03713274,-0.026027499,0.038750786,0.041111533,0.013010245,0.0013647039,-0.057680726,-0.09254619,-0.07055727,-0.011595127,0.028636275,-0.12367477,-0.2703876,0.07929828,0.06250791,-0.07309011,-0.25362834,-0.3825912,-0.009310211,0.19214086,0.018449584,0.14757445,-0.23848556,-0.29273874,-0.26525003,-0.15306047,-0.12466361,-0.11609167,0.048369937,0.059868503,0.06393547,0.009506591,0.0047088345,-0.0069446093,0.0076292576,0.087321505,0.042714808,-0.05156168,0.017419064,-0.24378313,-0.25078762,-0.020351082,-0.0018256034,-0.14467683,-0.21219264,-0.27726153,-0.06439095,-0.037686914,0.044533968,0.24209787,-0.26004052,-0.05720054,-0.041634813,-0.06104451,-0.08487387,-0.054306027,-0.15989456,-0.06393383,-0.008194761,-0.023889028,0.041203756,-0.034023214,0.014108592,0.017865442,0.18284753,0.014119598,0.03574185,-0.13195212,-0.013997647,0.09572752,-0.00038249927,-0.060289472,-0.13370526,-0.16545866,-0.16976668,0.049704645,0.018704709,-0.06723158,0.13081856,-0.13461635,0.021613346,-0.05423761,-0.029378941,-0.0050395564,-0.05382056,-0.032823827,-0.0471753,-0.03238153,-0.0288798,0.0070136446,0.113328665,0.03455381,0.06502751,-0.0274973,0.06327294,-0.076726235,0.092934646,0.20582221,0.24831368,0.033110242,-0.034012098,-0.03301397,-0.21742675,-0.102645114,0.034462083,-0.08991733,0.139282,-0.028383419,0.026630286,0.13871995,0.09004187,0.02137611,0.019021105,-0.008817781,0.019108325,-0.021742715,-0.0069166683,-0.08254685,0.085697204,0.031505127,0.14300276,0.09006908,0.102063745,-0.11401758,0.18142173,0.106033914,0.07210881,0.030521741,0.016334271,0.100598425,0.11083756,0.057845145,0.085570075,0.16866112,0.21515699,0.22561274,0.16400762,0.023153935,0.1308249,0.006283787,-0.052043945,-0.059706826,-0.069129266,-0.028031787,0.008321232,0.04127726,-0.060588624,-0.026708141,0.07564746,0.08680092,0.024724279,-0.0185734,0.10442785,-0.013862965,0.01725573,-0.24314208,-0.27231768,0.06093002,0.19825701,-0.05450892,0.009066703,0.2471143,0.06824928,0.10627097,0.015731148,0.03912149,0.034166634,0.022406466,0.0035683205,0.12230446,-0.061447013,0.027036129,-0.041772947,0.019165905,0.08374422,0.01953442,0.087006144,-0.048858333,-0.17417964,-0.13632646,-0.0129955625,0.026648447,-0.21572259,-0.21712103,-0.04020566,0.068680555,0.019778972,0.014891062,0.067165434,0.042114615,-0.01856942,0.0394239,0.020313863,-0.096266985,-0.05598671,-0.053604167,0.10729516,-0.005294223,-0.006762976,-0.010156037,0.021900048,-0.04902907,-0.03455404,0.021047227,0.075286224,-0.06427083,-0.07085621,-0.07106443,-0.15089475,-0.08528516,-0.065546155,-0.17777257,-0.09558535,0.0006692593,0.038578495,-0.09568094,-0.12286942,-0.058214314,0.0039012276,-0.054738894,-0.1375436,-0.10221851,-0.13348895,0.05330829,0.029301979,-0.09364878,-0.043033637,0.014260058,0.03608319,-0.026925042,-0.03947493,0.005632491,-0.046717335,0.05004753,-0.033845603,-0.046399068,-0.057990246,-0.17273237,-0.18295324,-0.20727272,0.012591672,-0.058315888,-0.06588282,-0.028889522,0.016454516,0.09388155,-0.01757348,0.0064169755,-0.0075996756,-0.1562285,-0.03607042,-0.07157278,-0.0255476,-0.024616484,-0.05858322,0.07696897,-0.035756405,0.0010656563,0.005323933,0.027126912,-0.053741228,-0.05741291,-0.09923417,-0.01524824,-0.0016425583,0.026289599,-0.021917783,0.11231786,0.1287297,0.10094217,-0.02524447,0.0038067284,0.06097504,0.02916941,-0.039477076,0.021262476,-0.018988969,0.007905887,-0.02326158,0.09832418,-0.011681029,-0.018230127,-0.01689606,0.012712543,0.0100431545,0.047413904,-0.03499955,0.021772293,-0.08054847,-0.046426915,-0.0345002,-0.09506822,0.047253095,-0.031773623,0.03387415,0.04035088,0.12875043,0.037021562,0.0805041,0.06261437,-0.03544726,0.0628343,-0.04204399,-0.0087774275,0.027133688,-0.11804298,-0.1285107,-0.06097478,0.019326558,0.14041017,0.0025581976,-0.0064711766,-0.06674698,-0.014531017,-0.007571896,-0.045443676,-0.08375112,-0.010005961,0.08008055,-0.060752887,-0.07975996,-0.07414948,-0.20805642,0.015087826,0.1487345,0.04399103,0.0017889099,0.044635426,-0.037676465,0.10507614,-0.038929887,-0.08018565,0.03754187,-0.026640711,-0.04114642,0.019894054,0.0007929161,0.043833893,0.02462283,0.15070692,-0.018552152,-0.009706943,-0.05713873,-0.04818811,-0.006453456,0.029140007,-0.008340078,-0.1183016,-0.08523606,-0.13093486,-0.17575262,-0.12671944,0.037261058,0.04433514,0.013150937,0.032209255,0.24937621,0.017813345,-0.05647657,-0.12447681,0.01761822,-0.034506053,-0.16619103,0.008396455,0.043182574,0.08400052,0.029214228,-0.053007025,-0.029897295,0.0037592049,0.035270542,0.051605083,-0.001865789,-0.04661761,-0.048162036,0.118045196,-0.07029429,-0.14451408,-0.03454307,0.14537483,-0.08116345,0.014855373,-0.13115023,0.008224371,0.12955993,-0.06393525,-0.103075325,-0.18493883,-0.004970723,-0.051909875,-0.08723436,0.06273419,0.04533858,0.05101813,-0.09802091,0.056292307,0.0073067206,-0.011055686,0.0035914737,-0.036180146,-0.041242816,-0.029873027,0.09551873,0.03307724,-0.05058809,-0.09901701,-0.099388435,-0.17724147,-0.12715937,-0.22453552,-0.1992459,-0.23590615,-0.089899376,-0.07272601,-0.11475735,-0.030112972,-0.027074168,-0.089384526,0.042368446,0.085718066,-0.0061648902,0.041025113,-0.04622031,-0.05223601,-0.0038415538,-0.026369192,-0.011432499,0.08537131,-0.037860848,0.028170686,-0.017658912,0.09672667,-0.017319776,0.02249759,0.023727136,0.015509071,-0.06149727,-0.049388535,-0.088732034,-0.017889187,0.027611004,0.011623323,-0.0012379212,-0.056626406,-0.07826149,-0.05348761,-0.00032372732,-0.018031439,-0.06268959,0.07544178,-0.05564734,-0.0042856047,-0.058040407,0.08458235,-0.0043548495,0.0027970206,0.035127945,-0.052440874,-0.025097013,-0.082698286,-0.04766388,0.070864305,-0.04973373,0.02372809,0.0669044,0.011710468,-0.03223523,0.058638133,-0.044688374,-0.0031108805,-0.025155114,-0.013243746,0.00046647943,0.014505639,-0.027635492,0.13215491,-0.06807681,-0.03227231,-0.08561441,-0.021091705,0.13182135,0.019564154,0.025785381,-0.024373405,0.017780688,-0.059389964,-0.013712947,0.026927935,0.032634825,0.0012971701,0.049756687,0.06070834,0.08176142,-0.03883455,-0.07916597,0.03407329,0.09398874,0.016832536,-0.01814856,0.013365083,0.01792068,-0.0065092486,0.014277536,0.003934249,0.031198483,0.056342147,-0.0059791286,0.07634576,0.03770067,0.025230236,0.03211825,-0.029606018,0.08598748,-0.0037796758,-0.08312497,-0.02929422,-0.043488465,0.017667938,0.013384548,-0.014932976,-0.025068624,0.04375509,-0.0035638404,-0.03623988,0.024600582,0.11764716,0.064795814,0.0637601,0.10808525,0.08975746,-0.0060125,-0.012830895,-0.035011437,0.010872592,0.004126532,-0.016098274,-0.05130809,-0.029423261,-0.011983308,0.017875543,0.020517612,0.027138881,0.013470539,0.005354012,0.07215122,0.052501302,-0.046818525,-0.1990364,0.006302048,-0.102948844,-0.11300766,0.016128147,0.07010266,0.1037879,0.13454017,0.15758231,0.13255991,0.020058453,0.03380423,0.026134836,0.012435234,0.011776771,0.004780598,-0.025298351,-0.13222246,-0.08590642,0.065406404,-0.053855695,-0.119796075,0.00567301,0.011608408,-0.047324244,-0.10190541,-0.09697146,-0.25088564,-0.121039905,-0.0786009,-0.01227548,0.012710108,0.16200843,0.037661023,0.10369298,0.15858117,0.0778718,0.017131288,-0.004310526,-0.0794373,-0.08185772,-0.05136964,-0.05471047,0.045014758,-0.055138342,-0.10171787,0.012304662,-0.04668597,-0.0031421485,-0.09307073,0.027804008,-0.115790896,-0.17182899,-0.0863268,-0.033835977,0.023705697,-0.06640803,-0.16800149,0.04154992,0.052100047,0.005138735,0.2041099,0.089117944,0.16930094,0.15689395,0.1317367,-0.02710999,-0.00869755,0.033042043,0.095526434,0.052990224,0.028390624,-0.04340699,-0.010871797,-0.0020332525,-0.038558062,-0.02262221,-0.042102177,-0.18627395,-0.15775591,-0.14668801,-0.07775931,0.027714305,-0.014703515,-0.18503739,0.018430116,-0.054779813,0.15265581,0.08546149,0.2116076,0.14967802,0.15937147,0.08583907,-0.011404592,0.1346003,0.02894503,0.068108276,0.03865083,-0.030467441,0.017540649,-0.080348045,-0.002609936,0.0010599869,0.03559054,-0.04836133,-0.0665189,-0.15242323,-0.14390795,-0.21496423,0.0030640909,-0.0062068845,0.00068770547,-0.014203177,0.080008045,-0.019480817,0.13368917,0.087285906,0.17336588,0.18517533,0.08654542,0.09753114,0.07556328,0.13153312,-0.028157987,0.08372398,0.1352979,0.018443953,-0.024557212,0.056992486,0.02138422,0.061843857,-0.05890651,-0.08447971,-0.16191326,-0.07215059,-0.20507754,-0.22395296,-0.13333602,-0.04219466,0.21343186,0.15585285,0.2885341,0.027325315,-0.04472504,0.10000991,0.17683022,-0.13630243,-0.08195081,0.124667734,0.11753708,-0.14278425,0.062808014,0.07217355,-0.036978498,0.06836102,0.0017988761,-0.014400132,-0.06250704,0.007337002,0.049741633,-0.05607214,-0.105206266,-0.17749292,-0.17450851,-0.19181891,-0.13448231,-0.021223197,0.05310538,0.08411242,0.08575845,-0.13139074,-0.19139078,-0.13625653,-0.25515798,-0.2362636,-0.16112618,-0.011644281,-0.0016333801,-0.18048796,0.01855897,-0.033583533,0.02836306,0.002546167,0.098691106,0.10025568,0.05572659,0.009097608,0.006950211,0.13555484,-0.1500289,-0.081483394,-0.04219876,-0.15897813,-0.036628477,-0.037264954,0.122160934,0.057411052,0.059879832,0.1735392,-0.025805993,-0.2639734,-0.26381287,-0.2435121,-0.18133985,-0.18743724,-0.10034928,-0.06575545,-0.018832892,-0.04878081,-0.07777853,-0.052229714,-0.058289666,-0.008322798,-0.03343373,0.052022245,-0.04839169,0.025502797,0.030310554,0.06497223,-0.005345148,-0.058268283,0.0793764,-0.03571721,0.09337096,0.020300945,0.2273868,0.19074425,-0.1459132,-0.30553722,-0.3090808,-0.35586938,-0.24711728,-0.18552165,-0.009549064,-0.08462141,-0.012084789,0.11461823,0.10257267,-0.0019997847,0.08319542,0.020755198,0.021478677,-0.02903419,0.06312217,-0.061274316,-0.14488707,-0.10988172,-0.009860046,-0.0024677813,0.07377798,-0.0958772,0.09079448,0.0624615,0.20274816,0.06771367,-0.12770002,-0.24514087,-0.12192398,-0.25026965,-0.2918471,-0.031198004,0.033221632,0.057762284,0.108443886,0.059021473,0.0131793525,-0.004709057,-0.019134333,-0.10090444,-0.02160575,0.113788255,-0.06166628,-0.012586993,-0.06583032,-0.04134067,-0.096323684,-0.07202333,0.044343833,-0.038892243,-0.056252725,0.1971952,0.16820838,-0.093376994,0.030967917,-0.16167173,-0.27293378,-0.16550462,-0.11437432,-0.05837625,-0.06182148,-0.028977396,0.019216496,0.14247821,0.008748272,-0.069439225,0.010541335,-0.029153151,0.039812353,-0.09463228,0.06653709,-0.02624922,-0.0774563,-0.078182265,-0.062229227,-0.10410395,0.014850239,0.059296668,0.15759811,0.11648803,0.06753304,-0.095832385,0.08857977,-0.14140375,-0.20604673,-0.20246439,-0.2214759,-0.08472286,0.014321045,-0.014733573,0.027727881,-0.08100758,0.008483902,0.011655914,-0.050098002,0.069661446,-0.01943356,-0.06994493,-0.04678936,-0.049752105,0.09848903,-0.20285389,-0.0031693378,-0.012385404,0.044855773,0.11822054,0.0983076,0.19968064,-0.058583487,-0.04329248,-0.012847718,-0.08146695,-0.041654315,-0.06686853,-0.113345206,0.014584186,0.09046921,-0.0480127,-0.021540422,0.044053987,0.028417122,-0.005106055,0.026216522,0.04512019,0.032408804,-0.030671405,-0.02751347,-0.080088444,-0.0644037,-0.121648185,-0.07589486,0.08469209,0.24294041,0.17954002,0.15644434,0.0043098554,-0.44855338,0.019840734,-0.08252575,-0.17605247,-0.0030843024,-0.14262615,-0.005933257,-0.0685625,-0.06777762,-0.118821785,-0.0154126305,-0.021574786,0.007522828,0.1437695,0.013387652,-0.06353806,0.1043597,-0.055023674,-0.02626763,-0.08389322,-0.028167935,-0.064100884,0.12823935,0.28103244,0.28703588,0.16589856,0.052613083,-0.22582577,-0.2934658,0.0390229,0.02246619,-0.17402871,0.03412081,-0.038904563,-0.030119715,-0.065573804,-0.064569265,-0.118396334,-0.071580045,-0.13664378,-0.042609673,0.03466534,0.04876172,0.012995457,-0.07394777,-0.0725793,-0.0160519,-0.03580135,0.03473412,0.085278295,0.09632283,0.23710304,0.22445734,0.16307966,-0.056725606,-0.25587517,-0.3854371,-0.0428791,0.24280104,0.21159475,0.058726523,-0.025139514,-0.03178852,-0.054031778,-0.040085487,-0.07025506,-0.07137703,-0.07240994,0.025269564,0.009726807,0.05207156,-0.049025398,-0.06594013,-0.01223434,-0.10600735,-0.063328475,-0.026766874,0.06455381,0.06306708,0.15619802,0.37765577,0.25655037,-0.08606397,-0.21265563,-0.1334124,-0.1458938,0.0027494146,-0.019929744,-0.07600226,-0.14073583,-0.09003881,-0.042669952,-0.02331063,0.052253455,-0.035499066,-0.029741233,-0.012066687,-0.025227122,0.04500574,0.040901285,-0.07352489,0.04730855,-0.009199414,-0.023053676,0.06594915,0.0713303,0.07129933,0.02334684,0.20391148,0.15737402,-0.00019752528,-0.12483462,-0.2995584,-0.2012205,-0.024641586,-0.21625774,-0.29773188,-0.20140801,-0.0554502,0.127696,0.07976599,-0.040347047,0.019009253,0.042769287,-0.035383023,-0.075241074,-0.05551826,-0.12732309,0.004492137,0.08530767,-0.013753802,-0.045789264,0.07661392,0.080674745,0.1274472,0.02683317,0.14231373,0.11919324,0.106648415,0.17041776,-0.15394962,-0.23973478,-0.08361892,-0.18424182,-0.14644723,-0.16623883,-0.088502325,0.04029698,0.023290372,-0.04718026,-0.08313777,-0.044768404,-0.057430338,-0.059288528,-0.02974888,0.057235066,-0.0054353587,0.0006340608,-0.027447416,0.08681659,-0.051273547,0.004765146,0.16459902,0.057596143,0.1825983,0.24230962,0.2042741,0.16024071,0.06615831,0.0070164753,0.09894554,0.08210923,-0.09302572,-0.12489165,-0.0031260322,-0.060719244,-0.008528201,-0.025532503,-0.03266212,0.06117286,-0.08062381,-0.01351283,-0.041594796,0.117377445,0.1021156,0.015412318,-0.020751532,-0.0019549327,0.04503871,0.057170432,0.1702958,0.054867424,0.10002808,0.13997708,0.20375077,0.18270037,0.16757414,0.03113167,0.12660706,-0.08932693,-0.16336185,-0.024591422,0.027825197,-0.010411441,0.049961843,-0.050468657,0.0028382125,-0.02575234,-0.062989295,0.07037871,-0.0032647671,-0.06851027,0.024537584,-0.029712794,-0.011161663,-0.045450985,-0.09372758,-0.091024235,-0.026070204,0.031257063,0.08363991,0.107509695,0.095574215,0.16146395,0.35403588,-0.0006876211,0.19724073,0.034288645,-0.10470961,0.03403491,-0.060289938,-0.097702,-0.041595243,-0.03927646,-0.071242385,0.008194325,0.038017567,-0.019762903,-0.012131965,0.034784287,-0.009874994,0.06913841,0.056790028,0.007209815,-0.017347729,-0.046499953,-0.1153289,-0.11624311,-0.013936122,-0.01663743,0.0781917,-0.0014509907,0.14009733,0.042935282,-0.076732025,0.046438836,-0.03799889,-0.012034259,-0.0004870402,-0.06603126,0.026165292,0.0035725546,0.02418503,-0.030045832,0.019820442,-0.017555967,-0.0070037926,0.010447238,0.059973136,0.070934914,-0.012050043,-0.06725338,-0.012175774,0.0009603017,-0.04034545,-0.007121642,-0.016756216,0.062811464,-0.11931958,0.067230456,0.010611902,-0.02895713,0.036460258,-0.0615488,0.026048325,0.049332753,-0.009810281,-0.011971594,0.020401377,0.02663629,0.03600922,0.014202599,-0.062216755,-0.03647522,0.06581829,0.0069840574,-0.046802934,0.0062270476,0.0016977262,0.0007894365,0.06403224,0.015910925,0.0045490223,-0.0045586857,0.11877736,-0.0321408,-0.02934938,-0.00093783665,-0.0056078206,0.014073637,-0.048777226,0.022393698,0.010894836,-0.08902898,0.007204508,-0.011605019,-0.029453564,-0.013775924,-0.0027761841,0.021972682,-0.048735242,0.017133197,0.025209643,-0.056993812,-0.056790236,0.020874996,0.13293044,-0.09362156,0.034202088,-0.0807829,-0.10031941,0.0026807745,-0.06128171,-0.026822561,-0.032983705,0.020576974,-0.087523736,0.037228893,0.089529194,-0.060914077,-0.020333285,0.07031389,0.08814558,0.0067507653,0.03804029,-0.06962186,-0.069041654,-0.011849955,0.03962518,-0.036541767,-0.009266433,0.10392536,0.08690664,0.07933854,0.030164057,0.028787533,0.02722755,0.06652221,-0.0250309,0.0039566634,0.08822092,-0.030171763,-0.05941661,0.023305193,-0.005458215,-0.025206251,0.0036769537,0.027012447,0.082597114,0.011442555,0.012726658,0.03476122,-0.021567965,0.091183595,0.051511522,0.09366964,-0.038379077,0.012735029,-0.08375515,-0.017378451,-0.031812325,0.06479181,0.028402459,-0.029245079,0.0041100457,0.036007904,-0.068348184,0.0032833233,0.0070548127,-0.012034722,-0.03742213,0.011510988,-0.07327301,0.059678175,0.08563817,0.11214927,-0.070447415,-0.005929141,0.041313384,0.018369645,0.07983808,-0.07637272,-0.044455837,-0.08221125,-0.047844347,0.096151225,0.115409136,0.031684052,-0.08056428,0.08453682,0.016080558,-0.08844335,-0.012475102,0.065782964,0.0735273,0.027270453,0.108805336,0.04114148,0.052797195,0.010033555,-0.106329575,0.04541916,0.060866814,0.018480089,-0.035988063,0.010900535,-0.0045363046,0.018848991,-0.042565797,-0.036581714,0.05667654,0.09385917,-0.09151211,-0.008464844,0.0068765767,-0.04166532,-0.083460495,0.07227685,0.022719398,0.03582396,0.027443063,-0.023012709,-0.020630328,0.03244768,0.14328305,0.009633078,-0.06430402,-0.06843887,-0.086285055,-0.15689583,-0.122652754,0.01964236,0.05332372,0.114652604,0.10069809,0.039846912,0.000058144153,0.04805556,-0.038944017,0.0333298,0.009284927,0.01632418,0.08569274,-0.01904475,-0.052802198,0.001200208,-0.010751603,0.015280137,0.048370484,0.08289556,0.05385447,-0.0010329405,0.030968435,-0.008076955,-0.24100506,-0.07417263,-0.24754386,-0.21627013,-0.10279525,-0.09057547,0.16864836,0.12197072,0.074151546,0.009239189,-0.019964404,0.056268264,0.02390439,-0.007229662,-0.04605004,-0.0128441695,0.025299415,-0.00073652953,-0.04542217,0.09184252,0.10426889,0.053345535,0.0067425314,0.108296484,0.006733335,0.0026958187,0.008959176,-0.06661595,-0.034008298,-0.17908736,-0.088749826,-0.1123105,0.041212678,-0.0033636517,-0.016182767,0.085768014,-0.017203348,-0.033216722,-0.017805457,0.06484313,-0.040422127,0.0060756546,-0.06179079,0.0023331698,0.05312254,0.0037406005,-0.032139126,-0.048422724,-0.016932992,-0.020373125,-0.043040805,0.033458028,-0.007861449,0.06418505,0.05723775,0.096435264,-0.017323809,-0.012767286,-0.14317961,-0.106920265,-0.1919514,-0.14071989,-0.013552928,-0.10415535,-0.0430289,0.21553805,0.12061425,0.04269894,-0.03372141,0.17509653,0.029463401,-0.06900716,0.015626807,0.021390213,0.01048444,0.0007935862,-0.059699554,0.0041294354,-0.01732637,0.021322468,-0.07861579,-0.08681502,-0.035829544,0.07300581,0.00012153051,-0.19594263,-0.24309896,-0.31232074,-0.10466321,0.0378835,0.0887858,0.015524705,0.13716084,0.16186348,0.089344025,0.09321641,0.060321234,0.018647356,-0.075235195,0.023852559,-0.01602703,-0.04358904,-0.0072903787,-0.009710522,-0.0647883,0.07292737,-0.050741866,-0.099305585,-0.07391209,-0.020076323,-0.07533915,0.11135853,0.066884816,-0.008393685,-0.20321625,-0.27586746,-0.23632945,-0.12430956,0.054598276,-0.033602495,0.0055009606,0.07301061,0.0816375,0.18208683,-0.10301546,-0.12477827,-0.04532716,-0.0036962437,-0.037651952,-0.0071898233,-0.029671984,-0.07403372,-0.06210976,0.0033921823,-0.08572152,-0.07772946,-0.030418273,0.039107576,-0.115519635,0.09595057,0.085758336,-0.030711345,-0.35295165,-0.29308414,0.09000734,-0.00077981444,0.026884174,-0.07399567,0.0027718996,-0.00093919435,-0.002011432,-0.053776503,-0.16763954,-0.23599157,0.026016066,-0.05180763,-0.07336653,0.022752613,0.023864351,0.0057707205,-0.008202164,-0.06747607,-0.12056579,-0.058089323,0.050107554,0.10315837,-0.0730738,0.06780283,-0.038160037,-0.29380596,-0.24981567,-0.17225383,-0.11250092,-0.07121599,-0.03749708,-0.08320363,-0.0007280818,-0.054167405,-0.0034371894,-0.10526248,-0.17169328,-0.11267316,0.037661545,-0.014190412,0.014390298,-0.019992622,0.022910828,-0.092697844,0.017787075,-0.21695046,-0.18133461,-0.14486869,-0.10657983,-0.1018214,-0.100214206,-0.08169159,-0.111164,-0.22784449,-0.17991844,0.012311556,-0.21405074,-0.104015,-0.21527362,-0.07563927,-0.14064187,-0.1834414,-0.23693359,-0.19505112,-0.15774196,-0.0783922,0.013027053,0.05028161,0.025257103,0.06637665,0.061267212,-0.037153825,-0.009367925,-0.08938851,-0.0657607,-0.06687952,-0.09537483,-0.19237673,-0.20246989,-0.1871336,-0.11723038,-0.098478064,0.08928485,-0.05157418,-0.17856199,-0.21964969,-0.10268781,-0.036760546,-0.0016870816,-0.20542769,-0.21374236,0.07424953,-0.028863376,-0.013491973,0.005766776,0.04959157,0.04658201,0.038398415,-0.015444167,0.029780641,-0.12916961,0.055077016,0.058130667,-0.010648514,-0.10492094,-0.18616958,-0.10103975,-0.1188838,-0.12816012,0.2833694,0.39269343,0.19061823,0.18214259,-0.0041591064,0.09222833,0.000057006244,0.083443895,-0.26271424,-0.0003754925,0.07329959,0.05865355,0.0012841529,0.024263462,-0.065669775,-0.0019155453,-0.061235905,0.0126706585,-0.012937286,0.07574995,0.1615923,0.17473322,0.057900935,-0.11023948,-0.046415064,-0.026898596,0.03218608,0.29418173,0.48095623,0.49507672,0.36186868,0.20262152,