{"version":1,"layers":[{"Relu":[784,128]},{"Softmax":[128,10]}],"seed":"3959945836","error_function_type":"CrossEntropy","meta_data":{"accuracy":0.9797,"error":0.01201965,"epochs":10,"duration":{"secs":184,"nanos":269733750}},"weights":[{"v":1,"dim":[128,784],"data":[-0.04993591,0.017854635,-0.08065058,0.08557699,-0.063460305,-0.03477393,0.11133318,0.043451242,-0.032045677,-0.075150676,0.02624319,-0.063626654,-0.097023346,-0.034181938,-0.04269601,-0.064783946,-0.056892153,0.07707105,0.016007267,0.023594072,0.009545332,0.063841276,-0.04421989,-0.0033661977,0.10225651,-0.05878724,0.018817121,-0.04306303,-0.03214592,0.13553204,-0.011506036,0.043757472,-0.066177964,0.012895586,0.06512404,0.1120221,-0.12038554,-0.02536297,0.008010682,-0.016557207,0.059938405,-0.043378092,0.02166369,0.078742094,0.025253342,0.057773147,0.02126294,-0.0005231275,-0.017739655,0.067875385,-0.018028937,-0.04911478,0.09788927,-0.09547731,-0.031708267,0.044340722,-0.03480539,-0.08531327,-0.016503302,0.006394826,-0.027881961,-0.0058503286,-0.023533182,-0.02105936,-0.041766167,0.02498181,-0.06165751,0.02656834,-0.12997021,-0.07586592,0.005610336,0.027211731,0.052698888,0.03731056,-0.0153754195,-0.016658148,-0.027892714,0.026251592,-0.1008675,0.019178377,0.03890771,0.062418748,-0.041279167,-0.050043125,0.020941714,-0.16227151,0.006251915,0.02623938,0.07384023,-0.00598579,0.018492604,-0.06725815,-0.012387795,-0.07435666,-0.0004159336,-0.047308702,0.0103170825,-0.004092788,-0.08150261,0.0630876,0.00566752,0.057814665,0.05844532,-0.06488447,0.008422434,0.013885648,-0.038902014,-0.018388955,-0.02657874,0.08747243,0.059941433,0.09007324,-0.034020234,0.011493117,-0.051586095,0.034050617,-0.0496533,-0.04473548,-0.0805254,0.00017683975,-0.0131300315,-0.031656936,-0.026349017,-0.029982695,-0.01833056,-0.02149803,-0.027613943,0.026099546,0.0072352495,-0.0044513163,-0.08236226,0.057259988,-0.042428553,-0.03042804,0.021793734,0.030780151,-0.011455501,0.008394604,-0.020803986,0.038919106,-0.04570974,0.016701233,-0.039809253,-0.012656851,0.013064849,-0.029370086,0.041938208,-0.050112464,-0.07560177,-0.063653864,-0.09446155,-0.054967135,-0.045098547,-0.09730137,-0.10188936,-0.007986609,-0.03428392,0.0076899333,0.043589592,0.025407381,0.09327456,0.13223234,0.08547089,0.062780395,-0.04074482,0.023046065,-0.018005453,-0.087479606,0.052243885,0.004628017,-0.030307464,-0.002442648,0.014280644,0.040527742,0.07032834,-0.0048571015,-0.08089566,-0.016331574,-0.11737792,-0.07512226,-0.0011973851,-0.1318351,-0.07641474,-0.03501917,0.08090339,-0.017857123,0.055910066,0.079505295,0.011894881,0.15227231,-0.010374267,0.024401644,0.005490041,0.022984084,-0.05674543,0.0622641,-0.0567729,-0.031812675,-0.027101062,0.016380785,-0.025308833,-0.03014824,0.057196204,0.025585232,0.024314739,-0.0010179048,-0.0054421704,-0.037843734,0.013112155,-0.15517011,-0.11489856,-0.12737122,-0.04979222,0.0036072012,-0.037966605,0.111223266,0.025950212,0.1082557,0.04125261,-0.026439477,0.061626878,0.008913139,-0.0082214,-0.0016116254,-0.000048115333,0.0027019475,-0.023741474,-0.030750051,-0.026866028,-0.05132505,-0.004134625,-0.030791957,-0.05565095,-0.035238132,-0.018719198,-0.035467688,-0.15146758,-0.067783326,-0.07388205,-0.0817512,-0.15770529,-0.07806015,-0.020288821,-0.017029088,-0.048628032,-0.026257223,0.012293081,0.10628562,0.023890408,-0.03813449,0.04633727,0.11347951,0.0216018,-0.04266575,-0.12223836,-0.023589855,-0.0746618,-0.004927446,-0.06470206,-0.05049639,-0.097659945,-0.07304415,0.034385204,0.07401527,0.07168074,-0.041291192,0.008260503,-0.09178663,-0.13041367,-0.10299809,0.004949761,-0.033372395,-0.109359615,0.038136028,0.036630433,0.028804654,0.11104288,0.0039068116,-0.03940974,-0.09578847,0.04662119,0.0144036,0.0063289264,-0.07100205,-0.06645684,-0.05062588,-0.05656897,-0.026824517,0.10774429,0.07473797,0.031658582,0.075466484,-0.06661783,-0.010203412,-0.11054488,0.022043271,-0.14531475,-0.08121289,0.049214613,-0.061143883,0.041486036,0.075823225,0.09263277,0.12355051,0.0601594,0.12465296,0.01071053,0.034309667,0.060420047,-0.07350526,0.055950925,0.0053621,-0.076523975,0.033685967,-0.0035224042,0.11479196,0.030574331,0.0045808265,0.00595074,0.0114452345,-0.09150023,0.0003465384,0.00064431573,-0.11260593,0.02910448,0.04124437,0.16287379,0.1336662,0.12537579,0.12087812,0.065094806,0.10175965,0.072570466,0.09204648,0.027517045,-0.06381213,0.01899099,0.028578194,0.10382221,-0.010172059,0.05413486,0.0078967335,0.059802376,-0.0038008965,-0.01909796,-0.13183561,-0.026923921,-0.08797304,-0.10366269,-0.053146075,-0.06989605,-0.108271375,-0.013060983,-0.051429447,0.09945553,0.07215589,0.024861254,-0.07306497,0.098405644,-0.03527191,-0.06453398,0.033447467,-0.10616362,0.019942189,-0.04791846,0.021456456,-0.007110702,0.029853774,-0.13842498,0.03309836,0.09166483,0.031262744,0.017370163,-0.05061728,-0.035959464,0.06017121,0.0037497915,-0.10936305,-0.15505405,-0.19339673,-0.2309432,-0.14548796,-0.05333274,0.0009698388,-0.064542234,-0.15824682,-0.033819158,-0.11534715,-0.064107284,-0.10538878,-0.0026152176,-0.027432093,0.025017548,0.012280958,-0.016207026,-0.047265872,0.0028985196,0.13631721,0.122655794,-0.030851347,0.011751849,0.09530909,0.05116713,0.12047062,0.13164468,0.07203766,-0.028404659,-0.039705455,-0.14709195,0.09861109,-0.040783733,-0.0041602803,-0.018450702,-0.07168327,-0.04106117,0.006753662,-0.05535776,0.021919642,-0.0316739,-0.010891428,-0.052048,-0.017284418,0.004645268,-0.043786984,0.08768839,0.14567931,0.11366833,0.03025558,0.057721883,0.031990293,0.08169178,0.25071838,0.28905982,0.1499145,0.03033527,-0.13153045,-0.0998302,0.012373467,-0.052964106,-0.0026436537,-0.1781337,-0.013712472,0.021566562,-0.017583782,0.070031226,0.103596985,-0.04135571,0.042771198,-0.011308858,0.024930919,-0.023397204,0.048687167,0.05721508,0.059687443,-0.018086124,0.001094153,0.04172669,-0.015241639,0.15409602,0.17386435,0.2575381,0.15036333,0.034290005,0.1122022,0.02665646,0.07057317,-0.10582903,-0.1160711,-0.12190425,-0.011730994,0.11022876,-0.015053727,0.068971395,-0.011203364,-0.0427571,0.08712324,0.051414363,0.030597523,0.050631534,0.06934873,0.08553997,0.15533116,0.082781985,0.04340064,0.014810482,-0.0078301765,0.021726632,0.01591591,0.11421206,0.10668769,0.06098067,0.11953909,0.090223044,0.052961368,0.0521847,0.014769741,-0.16707328,-0.020167414,-0.054023843,-0.059702247,0.08070269,-0.11480553,0.02150985,-0.010466178,-0.07211344,0.040892757,0.025482448,0.0039467495,0.06448565,0.050443362,-0.04896264,0.005462515,-0.023334112,0.041427605,0.0766809,0.03615585,-0.026567312,0.033798836,0.06946878,0.011382287,0.10548113,0.006000208,0.04788727,-0.04696371,-0.08877323,-0.042996142,-0.09456714,-0.039492805,0.043730058,-0.10817194,0.021816647,-0.018134035,0.053258915,-0.04688659,-0.041211437,0.01566573,0.07111388,0.16783544,0.04276625,-0.104133785,-0.13597198,-0.0028254676,0.10972307,-0.007515137,-0.06668928,-0.041169424,-0.060049195,-0.03176252,-0.02098796,0.06983552,0.07602682,-0.026745772,0.013548009,-0.049583077,-0.030849911,-0.094454594,-0.040635843,-0.053189,-0.006957299,-0.10078605,-0.062527664,0.04431034,-0.0047715344,0.012663329,0.10585999,0.033215363,0.20619287,0.0013278764,-0.07587431,-0.031998523,-0.10476749,-0.09911944,-0.18833408,-0.19747277,-0.095904894,-0.046465173,-0.05968158,-0.01974074,0.009454405,-0.02949821,0.064690694,-0.017414415,0.09987434,-0.061417643,0.06540205,-0.013244787,-0.0025600938,0.009678482,-0.031460732,0.0064637377,-0.019328147,-0.0036006714,0.06966013,0.13869905,0.12436319,0.022460094,-0.10089605,-0.046357576,-0.14449173,-0.22270878,-0.124751665,-0.20786949,-0.0401833,0.036463983,-0.06544337,0.10729549,-0.01564334,-0.035498418,0.05544322,0.05145215,-0.0033842037,0.09791628,0.0908897,0.042930767,-0.033897858,-0.018878309,-0.06902006,-0.02461469,0.12534562,0.015940998,0.06066009,0.114457764,-0.002154507,-0.040638134,-0.0532786,-0.03806263,-0.07140298,-0.15760623,-0.17578666,-0.13029869,-0.10280397,0.006058711,-0.07048796,0.028553048,-0.0009974875,0.014712406,0.009232931,-0.014246162,-0.037382185,0.06428917,0.027397525,0.064221546,0.0601609,-0.0023903009,-0.10119214,0.04062959,0.009387571,0.0010947187,-0.049628835,0.015759608,-0.064623855,-0.07361054,-0.025970317,-0.118970044,-0.05504498,0.0466486,-0.101743214,-0.093439594,0.057194024,-0.14584652,0.124861285,0.07056404,-0.025952473,-0.081157215,-0.020411786,-0.069993936,-0.044723682,-0.014550541,0.101458326,-0.029326865,-0.004114413,0.040781233,0.024565132,0.06760457,0.00218546,-0.05729894,0.07735802,-0.025866233,-0.018394211,0.0029215324,0.007280319,-0.1017544,-0.11827996,0.033459917,-0.029156812,0.032350786,-0.079079375,-0.016534636,-0.02666982,0.057328217,-0.03088967,-0.061486784,-0.09744895,-0.050840016,0.048497457,0.07218976,0.07308676,-0.035023328,-0.035727605,-0.026244985,0.01728593,-0.13849331,0.008380788,-0.017677182,-0.058147293,-0.002849481,-0.12134041,-0.037382018,-0.031966772,-0.046404745,0.08343716,0.10040047,0.062401883,0.010597004,0.06690058,0.022439588,-0.05528255,0.004395024,-0.0415895,-0.010941317,-0.012577677,-0.09283515,-0.008090309,0.03141258,-0.11015956,-0.04845192,0.0451429,0.03791883,-0.041591328,0.03893375,0.029366732,0.03554734,-0.019501416,-0.019660437,-0.07864168,0.04573551,-0.015920617,0.014369576,-0.055941775,0.03691904,0.08489232,0.018616246,-0.0009710097,-0.049355425,-0.085900754,0.0146616865,0.002799731,-0.096064866,-0.0123197315,-0.09576336,0.0021939457,0.056106813,0.012187823,0.015961524,0.023580773,-0.008540931,-0.053299453,0.02247144,0.00776816,-0.016650345,0.0078113712,0.052494008,0.0069136126,-0.01638092,0.0068781287,-0.0013774877,-0.16437055,-0.038007963,-0.08009946,0.019342816,0.00877898,0.06419893,-0.0433476,0.006711377,-0.00031155325,0.09315305,-0.038057506,-0.036504544,0.054163802,-0.018780103,-0.055288393,-0.0026680117,0.0050077536,-0.018563464,0.084685884,0.017700262,-0.052438743,0.0056455065,0.022601904,-0.008211207,0.017033778,0.09404383,0.038066093,0.009568323,-0.091962025,0.059779085,0.02318916,0.019416504,0.027383821,0.10200339,0.14751196,0.010022482,-0.06879906,0.029497588,0.035448484,0.10890002,-0.060706522,-0.045613512,-0.069299296,-0.06393291,0.03401585,-0.06738836,-0.07862347,-0.03784258,0.0883388,0.005352062,-0.07499778,0.010672577,-0.05430916,-0.034735497,0.0047091623,0.05622461,0.03556773,0.13466989,0.0006946306,-0.08092666,0.043828815,0.05331362,0.032199882,-0.06792328,-0.08648271,0.091224626,-0.05477088,0.06060593,-0.057136163,0.011826787,-0.07988682,-0.008240575,-0.038872305,0.005235821,0.013402693,-0.11449069,-0.009687449,-0.029086767,0.101754144,-0.012124815,0.07327125,0.023272246,-0.090978906,0.0014986838,0.025358513,0.010157814,0.009093911,-0.100126386,-0.07876797,0.11977867,-0.03174355,-0.061293192,-0.054363437,-0.07933575,0.021900967,0.04951667,-0.09322698,-0.06246188,-0.014234453,0.0015681203,-0.09077641,-0.052677426,-0.101376355,0.044716053,0.059332382,0.06994142,0.009600916,-0.04610192,0.03682955,-0.037494384,-0.07217604,0.0020111874,-0.10319129,0.014477191,-0.030702123,-0.047767535,0.043090116,-0.018862003,0.062358808,-0.04106978,-0.055591647,-0.1863594,-0.13865072,-0.06306644,-0.051499017,-0.042442154,-0.062296625,0.009841112,-0.05783391,0.0332786,-0.0023736218,-0.07782543,0.04920114,-0.046305023,0.075093135,0.010999256,0.02153276,-0.017251939,-0.049095545,-0.04775309,-0.051649645,-0.056115244,-0.05168034,0.03152254,0.05449537,-0.052932117,-0.10156093,0.06657791,-0.042794745,-0.21135302,-0.112436414,-0.16275568,-0.059368502,-0.13838471,0.0015871981,0.0008083693,-0.019107562,0.019181347,-0.019514175,0.026862571,0.041810405,0.13003094,-0.048193596,-0.050419137,-0.022766316,0.0370904,-0.13457808,-0.027430397,-0.15919942,0.008276127,0.083330095,0.0972569,0.033890232,0.033870596,-0.012516509,0.15298346,0.05464667,-0.15690836,-0.14167039,-0.08616033,-0.15920848,-0.14891079,-0.09244642,-0.038705528,0.04239585,0.11713987,-0.04554048,-0.03228405,-0.013901187,0.026615296,-0.102843724,-0.10220258,-0.14915515,-0.17092887,-0.040514156,-0.013754202,-0.060883835,0.074756406,0.14482243,0.15491328,0.05234993,0.021892622,-0.01647154,-0.014250617,0.076127954,-0.21899867,-0.17713493,0.11319782,-0.005006071,-0.14644587,-0.10248247,-0.14211406,0.033862595,0.018256605,-0.028466446,-0.0015563578,-0.030240072,0.03578146,-0.0012475023,-0.01923538,-0.06815714,-0.11516787,-0.07437273,-0.05698805,0.07216397,-0.0029011287,0.15204003,0.1898405,0.033152293,0.22200838,0.1490854,0.23080035,0.23870993,-0.08974111,-0.017448047,0.10323015,0.16867746,0.20570749,0.04828233,-0.0068836636,0.035966035,0.04972413,0.0074513536,-0.040049728,-0.013962078,-0.057935584,-0.08598591,-0.0815779,-0.12332738,-0.09303474,-0.052388363,-0.0092768185,0.064234585,0.20622768,0.22299808,0.08470026,0.071903944,0.21534602,0.44646722,0.3992211,0.36494493,0.17034717,0.1258752,0.09777977,0.16125211,0.27726433,0.25648883,0.14762954,0.0039931373,-0.07814212,-0.049622722,-0.01819046,0.015877316,-0.020396862,0.0069213007,-0.11413182,-0.0651238,-0.1008493,-0.06962636,-0.0030117407,0.035076816,0.016684797,0.09053307,0.009158375,0.1050222,-0.05097005,0.035366092,0.16028655,0.007884076,0.057331167,0.12090991,0.049396798,0.10442816,0.27742934,0.33992386,0.058551982,0.02501834,-0.032099966,-0.027558925,0.03543003,0.0017704921,-0.10707591,-0.076441705,-0.02647331,-0.07608577,-0.042336203,0.10011265,-0.0011460489,0.039124545,0.103189655,0.07969819,0.04039855,0.059290387,-0.18884274,-0.014495264,0.06255204,0.00631761,-0.036569163,0.06503009,0.15270227,0.22279246,0.3356407,0.17888702,0.025357757,0.060230803,0.033063203,0.01947746,0.05424456,0.0049224384,-0.026960699,-0.012384824,-0.06133497,-0.045051705,0.19839332,0.08592973,-0.02378213,-0.02480568,0.102718085,-0.030277507,0.11296447,0.17288361,-0.005771566,0.0043836692,0.16622256,-0.12342862,-0.006347017,0.007974706,0.05576349,0.21040024,0.16642267,0.25222552,0.22723693,0.084643416,0.0748266,-0.016952116,0.07298293,-0.039050598,-0.13903296,-0.03266775,-0.025831925,-0.0073710815,0.08712762,-0.08687106,-0.011736328,-0.07648937,0.0052044247,0.111610055,0.15961598,-0.0121080745,-0.13189335,-0.103908055,0.05455496,0.065541185,0.18066846,-0.022247674,-0.0020977487,0.0627333,0.009842064,0.15776472,-0.023729667,0.027644861,0.00078523345,-0.0644418,-0.043176446,0.036477324,0.05452445,0.01672737,-0.053438,-0.0106644435,-0.031155638,-0.011379703,-0.0967852,-0.047413953,-0.19122744,0.16673559,0.13614297,-0.10465159,0.13279255,0.02597344,-0.04305667,-0.005394097,0.02962221,-0.037041005,-0.004347092,0.011692642,0.071902715,-0.046595745,-0.035419498,0.012848042,0.07511022,0.08720047,0.009226455,-0.043549832,-0.036926184,-0.08119045,-0.024463722,0.052934714,0.08791802,-0.009627409,-0.054241057,0.011871911,-0.1539318,-0.10960539,-0.006744956,0.01557482,-0.005164488,-0.13072616,0.01875162,-0.1080272,-0.20138775,-0.12357437,0.035928123,0.08739613,-0.017320894,0.1237435,-0.061793327,0.101537645,-0.03874269,-0.0029467847,-0.018402092,0.01858268,-0.032234494,0.030939894,0.035944577,-0.03493556,0.14451784,0.10428749,-0.0032025392,-0.021841435,-0.060283795,-0.14831951,-0.085466474,-0.10409632,-0.013204104,-0.005341743,-0.1407235,-0.021202,-0.06685153,-0.17419297,-0.028551942,-0.0963304,-0.033974122,0.14796764,-0.018071035,-0.025591325,-0.026754828,0.03602561,-0.06856923,0.06878939,0.002042556,0.04972496,0.014647022,0.16651322,0.08451376,0.051995784,0.156547,0.08144699,-0.037489336,-0.106056415,-0.104817525,-0.045938134,-0.16877598,-0.09777098,0.015989903,-0.2569912,-0.24400458,-0.11981384,0.015447957,-0.05486222,0.09262007,0.03335649,0.04982812,0.020702576,-0.012612654,0.020621398,-0.073916815,-0.02339595,-0.11885006,0.06793846,0.13299976,0.2666463,0.14391725,0.18739581,0.20748603,0.111155145,-0.15984875,-0.23010239,-0.14060831,-0.07230861,-0.1688507,-0.14499909,-0.28535345,-0.23036472,-0.24075128,-0.2317591,0.013891832,0.08307975,0.06292469,-0.013244865,0.06977188,0.0074093896,-0.009952854,0.013200529,0.019509349,0.10675687,-0.12100759,0.06615663,0.1344494,0.35663503,0.18643811,0.21653897,0.08733064,-0.12276151,-0.09948288,-0.14371634,-0.15850039,-0.111959934,0.008031481,-0.10677689,-0.14183968,-0.20826076,-0.15136848,-0.10894565,-0.0570849,0.008144429,0.032842513,-0.00904039,0.0006623466,0.036340166,0.08415927,0.1256517,-0.045260567,0.04474994,-0.07446722,0.06803107,0.10184877,0.16678615,-0.0080938665,0.14343779,-0.049042728,-0.17957778,-0.093181,0.07688064,0.031803936,0.056324523,-0.0074712895,-0.10024161,-0.049613174,-0.024559515,0.038632177,-0.10559734,-0.023540813,-0.031731337,0.031273052,-0.029621858,-0.14983365,0.022546694,0.1282061,0.05487032,-0.111384615,0.018468777,-0.014616979,-0.023735143,0.16318682,0.15232562,0.057888363,0.018335965,-0.044988077,0.0006729508,0.047485504,0.03837411,-0.012753051,-0.27152658,-0.023112271,-0.0994332,0.05166225,-0.07934274,-0.08874753,-0.13678558,-0.010657395,0.01889902,-0.013692636,-0.103008606,-0.021861639,0.03996688,0.06409426,0.034649383,-0.018083282,-0.0026457447,-0.012607417,0.042330977,0.17273863,0.14909218,0.19931202,0.08839862,0.03741871,-0.043016467,-0.16673093,-0.27439836,-0.28880793,-0.37730685,-0.0903855,-0.15244885,-0.04565679,-0.11839136,-0.15573934,-0.21478873,-0.12602939,-0.0060932715,-0.11834137,-0.021996442,0.039991625,-0.012708292,-0.0031871533,-0.062355466,-0.05290074,0.046786383,0.04838735,-0.01211353,0.006228826,0.21461007,0.2395624,0.14746082,0.049866423,-0.07776215,0.01136006,-0.26378015,-0.16015273,-0.107529506,-0.087029725,-0.10649759,-0.058161926,0.0311202,-0.15385813,-0.2798619,-0.27449408,-0.13422598,0.041340005,0.077877894,0.053383127,-0.01154386,-0.05833848,0.0075519253,0.008306032,-0.0020143364,-0.012366937,0.050112225,-0.04827775,-0.09964606,-0.06264056,0.030365422,0.047862586,-0.02863852,0.049098,0.037539713,0.059534285,-0.09528234,0.0124395825,0.06637774,-0.1428208,-0.14227463,-0.085512474,-0.23267967,-0.12742463,-0.050376266,-0.021912174,0.113089636,-0.042989578,0.08647211,-0.015991487,-0.057702336,0.03576763,-0.02067061,-0.02378857,-0.05988214,-0.054805793,-0.09161825,-0.051051583,-0.13146865,0.0035949207,-0.021151228,0.13655342,0.24251674,0.09688263,-0.062900305,0.0073588947,0.029665532,-0.04750759,0.0007293243,0.02366466,-0.016149107,-0.016830614,0.050882384,0.056178875,0.09432003,-0.037888985,0.016347675,0.043684747,-0.0030605958,-0.097193785,-0.093278274,0.10295371,0.07568317,-0.05616457,0.018389523,-0.07468022,-0.0654724,-0.100522436,-0.015233,0.025025502,0.049032234,0.072012424,-0.016166175,0.035566945,0.13276978,0.1131519,0.026341507,0.060877483,0.04664402,0.007512165,-0.035036635,0.042527415,-0.0060524256,-0.01853741,-0.008403112,-0.017300498,-0.117468484,0.0062879235,-0.02042144,0.017220989,-0.0029377076,0.047315057,-0.004997989,0.02958103,-0.058684085,0.053873923,-0.07341696,-0.017569425,0.00020320597,0.027719676,-0.046159744,-0.008126733,0.015065035,0.069043115,-0.013790163,0.003488056,-0.007239868,-0.02342294,-0.04921773,-0.13649288,-0.007940528,0.02390737,-0.011853008,-0.023623182,0.047268625,0.041709345,-0.012892809,-0.014171631,0.013475861,0.029026698,-0.0035997352,-0.023530783,0.03993533,0.086219914,0.08034232,-0.07522487,-0.06153972,0.020847766,-0.08040253,-0.059449688,0.004808355,0.031766165,-0.01858387,0.0014490632,-0.008153499,0.009308251,0.047711335,0.08206055,0.035756703,0.0008076709,0.0023261344,0.028223237,-0.06628177,-0.022662021,-0.0014507233,0.036502797,0.043022387,0.07436915,-0.09705088,0.05845224,0.025131257,-0.025569556,-0.04728393,-0.07733507,0.01636778,-0.049180157,0.085861616,-0.09336798,-0.029576404,-0.000046811925,-0.031700294,0.0156985,-0.038426872,-0.03290918,0.028891241,-0.0005463,-0.04396606,0.034660067,0.031896,0.019267268,-0.10360936,-0.034887925,-0.03603403,-0.01508741,0.022088436,-0.08179837,-0.058312777,0.026674667,-0.052984238,0.102057785,-0.13177912,0.033437885,-0.063849255,0.030978637,0.021146271,0.008453425,0.061188396,0.0181989,-0.06769307,0.08467906,-0.01106186,-0.045857094,-0.0024507625,0.011035746,0.012374027,0.002733257,0.05424017,0.049502242,0.026466036,-0.012392911,-0.010799269,-0.06453707,-0.033465758,0.03131848,-0.014226693,0.057081196,-0.031144578,-0.018418543,0.042860534,0.048931293,-0.008955266,0.07767139,0.015495763,-0.032256342,-0.0804126,-0.05228551,-0.036177278,-0.005153823,-0.0312901,-0.065010704,-0.026848322,-0.050147235,-0.008606262,-0.04848257,0.08832873,-0.040325336,-0.016753558,-0.09273335,0.00834801,0.016855435,-0.013966435,-0.037491344,-0.055907235,-0.069275364,-0.058753144,-0.026869657,-0.12831126,0.026774883,-0.09448695,-0.040102083,0.039821003,-0.071200766,-0.18960957,-0.04583324,-0.1460397,-0.13247783,-0.035830356,-0.0742604,0.051498808,-0.00829592,0.053042673,0.0411782,-0.043809965,-0.0028017745,-0.02168217,0.052171543,0.09910276,-0.08874115,0.0005342321,0.032731395,-0.029881932,0.020421017,-0.014735513,0.03996021,-0.07903749,-0.078840695,0.013470788,0.11586734,0.03360543,-0.1112368,-0.08180624,-0.20043918,-0.17918625,-0.10740696,0.032207895,0.02911747,-0.023590727,0.051619694,0.063070014,-0.03788166,0.0668835,-0.03431407,-0.039687723,0.101007365,0.06514677,0.045605768,-0.07187116,-0.077791646,-0.08090493,-0.09336705,-0.03703596,0.015434589,-0.010393698,0.048884805,0.029835472,0.04107007,0.039050177,0.028438563,-0.18972033,-0.11767186,-0.13231318,-0.18556397,-0.030424558,-0.030886222,0.03795464,0.040872052,-0.014287164,0.055390086,-0.046582133,0.030194465,0.026654236,0.038316198,-0.014344865,-0.11435531,-0.06305468,-0.013599246,-0.09185202,0.083721876,0.12590805,0.11534562,0.029371262,0.07332236,0.07348243,0.106388375,-0.04253023,0.010517422,-0.07116885,-0.08196734,-0.058817033,0.00015837766,-0.064977325,-0.014472437,0.09691013,0.034069974,-0.025863577,-0.05933842,-0.036105018,0.020613212,0.015994957,-0.04242415,0.01080676,-0.0035539907,0.020413484,-0.018211871,-0.0019834999,-0.1440652,-0.039479855,-0.046514563,0.070552185,-0.025206108,0.079699524,0.15723015,-0.03884997,0.038970415,0.014903202,-0.008923358,-0.12166589,0.04375379,-0.07824348,-0.001963998,0.1826774,0.108203694,-0.028688082,-0.050114747,0.0013804898,-0.21547003,-0.02098822,0.04362578,0.079298556,-0.13315633,-0.07843623,-0.06446922,0.041684505,-0.07468425,-0.03556823,0.13891791,0.046616532,-0.107985176,-0.11638954,-0.020290753,0.13605122,-0.069669515,-0.027288761,0.0977881,0.02588747,0.076351844,-0.0705728,0.036979686,-0.084988594,-0.07142959,0.057705395,-0.034223158,-0.011126448,0.08013702,0.07157864,0.055319995,0.06561644,-0.009003191,0.0029450967,-0.027787717,0.032212943,-0.013653804,0.012078286,0.057191927,-0.063939214,-0.19536765,-0.14155154,0.15814957,0.0076705827,-0.12081471,-0.07722308,-0.012351718,0.04058317,0.21377937,0.06230202,-0.03980097,-0.19308203,0.024722539,0.12024937,-0.052225932,-0.026039155,-0.003916881,-0.0194376,-0.026814997,0.013139176,0.014093454,0.009899447,0.15101819,0.20502493,0.056907933,0.077104695,0.004710131,-0.22846568,-0.13061471,-0.19651437,-0.15574653,-0.06078904,-0.06434124,-0.031946074,-0.009276065,0.14894965,0.014485808,-0.051916037,0.09422102,0.084876716,-0.09483682,-0.012628082,0.08919601,-0.02389153,-0.0077862963,0.013889397,0.027042247,-0.055446785,0.021178285,0.025626669,0.12683909,0.27325344,0.27968442,0.08394871,-0.069125034,-0.1281456,-0.25861806,-0.1642796,-0.14780617,0.0060531674,-0.16253439,-0.19473933,0.022745006,0.01277182,-0.04256453,0.17599748,0.021343604,0.018802816,0.10579749,0.025231034,-0.05243132,0.10849802,0.17195822,0.0052434406,0.030191272,-0.0057650623,0.013496342,0.084229335,0.123917475,0.2774535,0.10379872,0.09060794,-0.12207276,-0.20638448,-0.059521735,-0.026201345,-0.093848035,-0.2452534,-0.29107285,-0.24890983,-0.13023052,-0.0531117,0.060520034,0.036171254,0.20466478,0.17242688,0.057951406,-0.03335512,-0.03269924,-0.09979723,-0.03833937,0.0046193795,0.017562483,-0.014826281,0.08468759,0.14118414,0.11327572,0.20396292,0.2560002,0.30580717,0.06450515,0.085487746,0.07400499,0.09646002,-0.098538436,-0.08116497,-0.30190372,-0.30519205,-0.08048448,0.05134494,0.05599809,0.16742854,0.1263751,0.23978676,0.13895428,0.06716899,0.023324406,-0.011344431,-0.074977465,0.019110246,-0.040590648,0.08912272,0.011964943,0.20531644,0.2149382,0.024185888,0.22550371,0.22072394,0.18234143,0.11381406,0.2785294,0.022497963,0.031042432,-0.13640143,-0.16332537,-0.24078542,-0.1435032,0.16806182,0.25521946,0.18564668,0.1896055,0.16054489,-0.03991842,-0.018933784,-0.028801182,0.077986605,0.024975147,-0.043652356,-0.07016788,0.09102195,0.032084104,0.031905137,0.032374036,0.087231524,0.118300356,0.04838839,0.20376052,0.32165748,0.21958782,0.17992036,-0.023071447,-0.107623085,-0.33619207,-0.21741411,-0.10401165,0.09293392,0.20838337,-0.030258736,0.046276912,0.041858893,-0.058218192,-0.04300609,0.008366137,0.10569336,-0.056176648,-0.056403875,0.015453723,0.011818048,-0.1059718,0.058019716,0.015114488,0.008882114,-0.031296227,0.08212933,0.033618573,0.047192615,0.093329966,0.0046886615,-0.16045633,-0.2187753,-0.17916419,-0.09473932,-0.022286745,0.13603589,0.20504116,0.115793824,-0.10356936,-0.07339304,-0.15201296,-0.18991421,-0.043317284,-0.10112491,-0.03331253,0.091148496,0.023586027,-0.033257555,-0.035089865,0.045768313,-0.0024790342,0.08913907,-0.070712365,0.06417493,0.116995454,0.02825116,-0.12500261,-0.16961533,-0.087752804,-0.15667006,-0.15241499,-0.09249773,0.08851875,0.12045342,0.117619194,-0.044491075,-0.096726455,-0.1264744,-0.114310764,-0.06777155,0.0643446,-0.029090058,0.0887616,-0.03302382,-0.049245935,-0.01789739,-0.018054264,-0.020084785,-0.02693221,0.055331547,0.010084472,0.100805126,0.061971713,-0.10980554,-0.17224284,-0.20540895,-0.12500429,-0.13028152,-0.0245231,0.011123417,0.044269692,0.06335751,0.055427123,0.023623494,0.06887795,0.029127551,-0.16655213,-0.067583255,-0.029677233,0.00009805441,-0.1920956,0.0039557377,-0.056262463,0.0016525248,-0.028263709,0.019999677,0.013712112,0.027033132,0.023416944,0.1204633,0.116769254,-0.045353636,-0.13989787,-0.0943548,0.050851807,0.09272349,0.073749006,-0.0014845289,0.029060375,0.19506453,0.074043915,0.0098343985,0.18653765,0.029392723,-0.024806447,0.118411906,-0.030528132,0.04530605,0.03700255,0.0033989006,-0.007174464,0.01370197,-0.08399296,0.010666306,0.04725657,0.023976024,0.013211589,0.031140847,-0.079883695,-0.055965304,-0.073895894,-0.092543855,-0.115639806,-0.10411774,-0.012324728,0.076876536,-0.061752044,-0.01669827,0.0060898773,0.05080406,0.09057428,0.036019657,0.006213627,0.096744806,0.011338716,0.0012449378,0.017209671,-0.007937623,-0.0048309173,-0.0083356155,0.12821908,0.028242484,0.13109295,-0.012720056,0.013290139,-0.18845795,-0.011704797,0.004639319,-0.014726758,0.048870087,-0.07837646,-0.0845288,0.05213474,0.0014389748,-0.13292475,-0.15998091,-0.0067337924,-0.042729467,0.12512779,0.045137,0.084973656,-0.019383578,0.0030166255,-0.13050252,0.044333678,-0.1803328,0.05176436,-0.03479787,-0.00222427,-0.107784934,-0.1209796,-0.0065220245,0.00750318,-0.02648702,-0.01323199,0.11920404,0.060481187,0.13837968,0.0052860775,0.021505952,-0.053108666,-0.08475823,-0.046017297,-0.13336922,-0.013964361,-0.01949344,0.01077044,-0.0021455865,-0.033483077,0.010590568,0.04966542,-0.029660942,-0.058768116,0.010852394,0.017365031,0.048536316,-0.027692446,-0.06831356,-0.086829074,-0.13629031,-0.07574388,-0.053613566,-0.002649113,0.021624146,0.0689614,0.06832887,0.1012499,0.120342486,-0.015975544,-0.089966536,-0.1123227,-0.089957036,-0.026020378,0.017744947,0.02311201,0.04985113,0.030326482,0.031568825,0.027301509,-0.021227354,0.063948356,0.030586416,0.006467063,-0.046439648,0.04306521,-0.06166991,-0.034756772,-0.06900419,-0.06341914,-0.11178808,0.0033087528,0.04743217,0.10262945,0.13983764,0.044310153,0.023057751,-0.022255216,-0.14245823,-0.16382857,0.052252796,0.06470887,0.038978253,0.019238412,-0.048603274,0.011576607,0.016582299,-0.029210513,0.07318082,-0.09143394,0.017323608,-0.049677365,0.040679444,-0.014144854,-0.09273459,0.017954657,-0.021112742,-0.008890434,0.006298148,-0.08220715,-0.17437786,-0.18897678,-0.226236,-0.0069740657,-0.027250042,-0.10535699,-0.028481208,-0.15472084,-0.051253118,-0.053177543,0.12302873,0.056922104,-0.014717146,0.061998583,-0.04316692,0.023092803,-0.07283774,-0.06657283,0.019770943,-0.03074416,-0.004677682,-0.07395751,0.03977943,0.06267931,-0.0014035937,-0.016393209,-0.06657106,-0.09681317,0.009227992,-0.025439534,0.047710385,0.022820571,-0.04213681,-0.012887227,0.074025124,-0.0023181227,-0.029038321,-0.07235909,0.08288502,0.048668314,0.00376418,-0.054457147,-0.06130293,-0.028575376,-0.007173525,-0.0013206379,-0.022959197,0.07285278,0.017322103,0.06261866,0.09799882,-0.0007823827,0.08606862,-0.021589523,-0.024661953,0.03311473,-0.005354001,-0.0009856335,0.05047474,-0.057782423,-0.07535704,-0.020415233,-0.032140672,-0.03325151,-0.009861622,-0.07462962,0.10305248,-0.011259598,-0.037770316,-0.03218028,0.012861651,0.033741996,-0.02032751,0.012947033,-0.030855084,0.025915565,-0.0007536334,0.03618963,0.012582758,-0.0059320517,-0.015187966,-0.041918166,0.07682248,-0.010477336,0.098712124,-0.1195997,-0.02555189,0.0118402075,0.043252934,0.04647536,-0.02865552,0.031954665,-0.039236452,-0.01827825,0.033502176,0.031347334,0.031898435,-0.05338332,-0.0068170293,0.06945987,-0.05679904,0.0019469467,0.0889456,0.010623362,0.0222141,-0.04015503,-0.041893747,0.0050097187,0.05030031,0.00971582,0.00025451416,-0.035752323,-0.020868124,-0.05309233,-0.019205235,-0.015945725,-0.029725378,0.021192245,0.031702198,0.030735757,0.07172929,0.03586929,-0.0143904975,-0.117704764,0.037755568,-0.08555168,-0.018310992,0.052951645,-0.0042923256,0.035378344,-0.016639315,0.038219664,0.010201443,0.018830974,-0.0077517093,0.085663244,0.020008463,0.08806947,0.015176296,0.0707387,-0.019071087,-0.02971231,0.039745346,0.09213968,0.084874734,-0.02580479,-0.028421517,-0.031911213,-0.008159908,-0.05943735,-0.002880663,-0.034927104,-0.024025686,0.0038265847,0.0056881583,-0.011009188,-0.012471854,0.11246807,-0.005932201,0.006472807,0.017044112,0.025859546,-0.0004428623,0.09293963,-0.04164785,-0.022434521,0.029073903,0.054300215,0.042125795,0.15316406,0.14403732,0.14846362,0.057318375,-0.052627046,-0.030063866,-0.14115453,-0.11262904,0.0020625975,-0.038864832,0.027292399,-0.019724198,-0.014955329,-0.112915546,0.10752851,-0.025328068,-0.0055098473,0.06118259,-0.000834262,-0.02115541,0.084177636,-0.06828546,0.026141465,0.08971044,0.007637267,0.1689192,0.06252856,0.13278006,0.24910936,0.23598714,0.08052016,0.15928407,0.10041846,-0.059508853,-0.13819703,-0.06425813,-0.10481701,-0.0714081,0.012071934,-0.10833704,-0.100912824,0.0030231755,-0.02202448,-0.05307979,-0.019084401,-0.042438142,0.04157694,0.008561144,-0.03126955,0.06069912,-0.046092864,0.031438474,0.03916932,0.06476112,0.02126338,0.09859394,0.13634957,0.33389676,0.30294058,0.11605334,0.16877158,0.07108188,0.10714823,0.08419563,-0.034770656,0.12175553,-0.025532078,-0.051373105,-0.05706007,-0.006385297,0.00060630374,0.008276973,-0.039897293,0.091936536,0.0018551784,-0.022891449,-0.005233614,-0.04165093,-0.039207086,0.01965645,0.08191611,0.06373841,0.24693823,0.21041693,0.4012671,0.46367306,0.29977855,0.20674254,0.33246288,0.3775254,0.38853428,0.2943449,0.00078191713,-0.03567339,-0.049778704,0.0070486926,-0.08995634,-0.0010863881,0.13134539,0.009949562,-0.037931845,-0.0062088263,0.03801112,-0.015910171,-0.013018835,0.013642341,0.0073230444,0.042023044,0.016595569,0.20543957,0.19515796,0.16143909,0.28792757,0.04932602,0.18903121,0.11674543,0.29679748,0.20953561,0.044484448,0.21772192,-0.07320251,-0.076336615,0.0385766,0.06979503,-0.11177096,-0.11143164,0.029798223,0.07653658,0.012689256,0.041108113,0.07687027,-0.022269135,0.025853746,-0.025801511,-0.06586945,0.072781235,0.012171925,0.20344976,0.04500106,0.06393951,0.018805165,-0.06827094,0.059868358,0.19237794,-0.0027569048,-0.016955486,-0.02473372,-0.084655985,0.12855898,0.032078955,-0.08912536,0.08011097,-0.09832182,-0.09924774,-0.09255612,-0.00004675511,0.011004158,0.0064547267,0.020249628,0.017770326,-0.10721397,0.09099492,-0.01660181,0.06263066,-0.09023891,-0.023306975,-0.101644985,-0.1179461,-0.30004954,-0.1657154,-0.14028558,0.009156723,-0.2235385,-0.28404132,0.051944736,0.104134314,0.099463284,-0.05829602,-0.0300162,-0.041803587,-0.09278429,-0.013084264,-0.05065489,-0.023007741,-0.05059346,-0.025663842,0.00048095256,0.0049584457,0.025863469,0.011302426,-0.017856635,0.027612481,-0.15041296,-0.19871181,-0.080655664,-0.23964767,-0.22662914,-0.3153408,-0.23793,-0.089314036,-0.32841232,-0.1633929,-0.026379345,0.20769161,0.14265436,-0.048715048,0.001230739,0.0013601255,-0.0035158575,-0.093420975,0.09206965,0.008132154,-0.043045163,-0.02785984,0.018622922,-0.020067368,-0.028087119,0.08193934,-0.047022097,-0.0869215,-0.03226876,-0.21819733,-0.2689661,-0.28623638,-0.07112662,-0.21905878,-0.081418864,-0.24246569,-0.23952399,-0.018852243,0.12731358,0.0030428255,0.0714351,-0.017698282,0.07165565,-0.029469075,0.0028412396,0.03901194,0.04201277,-0.047367536,-0.08064858,-0.021440193,0.04836019,0.09662458,0.025685951,-0.016034424,-0.0822248,-0.11363194,-0.10037633,-0.007391924,-0.08467734,-0.13175564,-0.19656014,-0.14209309,-0.020063592,-0.09811361,-0.08551618,0.10574292,0.009500439,-0.10170408,-0.013074166,-0.085842915,-0.016456254,-0.14749308,-0.0892894,0.017424786,-0.054067858,0.0011064411,-0.0022512688,0.021374663,-0.064467676,0.048772167,0.036562763,-0.09926151,-0.09222805,-0.0114558255,0.01529117,0.08783626,-0.0676022,0.055865247,-0.009151648,0.092877336,0.15802014,0.07428442,0.017345993,-0.099291004,-0.15512325,-0.08409259,-0.049987707,-0.07346173,-0.023875903,-0.16373275,-0.12293439,-0.11462387,-0.009488186,-0.08949358,-0.00009741911,0.0109833805,-0.033345867,0.036083657,-0.042542897,-0.13803926,-0.09772463,0.023812575,0.094381675,-0.01786733,-0.012025117,0.09996009,-0.009408248,-0.06893328,0.15877059,0.16471195,0.05763895,-0.06269362,-0.14743416,-0.029700069,-0.15604012,-0.12497233,-0.22104715,-0.27451473,-0.15986624,-0.079433255,0.023068134,-0.012592638,-0.020515503,-0.009705607,0.06552036,0.0018540121,-0.0117933,-0.1458269,-0.047249045,0.098802626,0.14577575,-0.030529121,0.03598056,0.04288135,0.02355775,-0.120976925,0.09051893,0.0014761767,0.00052582315,0.12692653,-0.017235195,0.022538837,-0.17932001,-0.22201559,-0.13193451,-0.0747537,-0.023695463,-0.052941963,0.049052726,-0.09834728,0.062152885,0.037679516,-0.08276548,0.0048524276,-0.00823077,0.037083253,0.0035522124,0.17097409,0.06896825,0.0016121537,0.033615164,0.087751284,0.0111580705,-0.061382484,0.046962965,-0.1057905,-0.1527197,-0.06845431,0.1029352,-0.018053161,-0.035317715,-0.05311429,-0.019509327,0.019638212,-0.018658394,-0.014174565,0.083312,0.10622658,-0.016485335,-0.033381756,0.056145635,-0.052783486,-0.020977227,0.030099733,-0.00022047026,0.05057829,-0.026357379,0.08935159,-0.053569615,-0.029346976,-0.102657005,0.02771674,-0.025580442,0.013059172,0.12048265,-0.00008415084,-0.04758523,-0.18813017,-0.17364407,0.045476694,0.08151483,-0.06643262,0.05112963,0.021789419,0.070465624,-0.017466795,0.055261504,-0.06892633,-0.009102582,0.0032592844,-0.07656553,0.06692382,-0.016457861,-0.008463985,-0.02806356,0.046151664,-0.04563613,0.0077662757,-0.08992316,-0.024727827,-0.15237108,-0.031974003,0.033528943,-0.0729014,-0.09280683,-0.074862994,-0.1130131,0.02944758,0.042041294,0.12191087,0.06782899,0.08735765,0.000008822481,-0.015983332,0.05147391,0.037463862,0.087430805,-0.036933873,0.024969518,0.027113724,-0.07564093,-0.08275334,-0.07491472,0.00079662056,-0.09840118,-0.06713398,-0.12441146,-0.008733332,0.080363184,0.029049305,0.013453421,-0.0937794,-0.14580403,-0.25174943,-0.017949536,0.045234922,0.06734196,0.19625697,0.049109414,-0.012739537,-0.010663021,-0.023198824,0.09215281,-0.0008321261,-0.032325577,0.008082819,-0.018110378,-0.049853556,0.035452433,-0.07723023,-0.02313997,-0.06880898,0.012557408,0.004340117,-0.092742436,-0.065480374,0.03916347,0.0005120187,0.055684328,-0.15866092,-0.18617056,-0.06671311,-0.0085114045,0.035821266,0.11116768,0.054298587,0.09782726,0.058179032,0.08733787,-0.0116926655,-0.037751004,-0.0038530221,0.013582463,-0.04071742,-0.038761247,0.0635586,-0.028325431,-0.0151589215,-0.047871064,-0.028824793,0.071211115,0.006328805,0.13840333,0.054828342,-0.0076905834,0.11306516,-0.068308756,0.13024749,0.113215506,0.09359204,0.0087750675,-0.0030052825,0.0547687,0.07855625,0.11785844,0.0117386365,0.08943145,0.036025684,0.031980224,-0.057424035,-0.060837775,0.050401926,0.10071253,0.012676337,-0.011455447,0.04807019,0.14142463,0.093423285,0.051143214,0.09637814,0.09934337,-0.025175897,-0.04315465,-0.09855577,-0.09835945,0.12175103,0.0733484,0.13919829,-0.043542054,-0.072053045,0.045071505,0.0070041902,0.06312579,0.021844555,0.097463384,-0.03646334,0.010487442,-0.026866103,0.034891397,0.00556623,0.03505717,0.021869367,0.014770675,-0.0023539646,0.03887446,0.18532547,0.10121779,-0.020656101,0.001968896,-0.13195442,-0.18216504,-0.1530739,0.014496942,-0.01501015,0.09731814,-0.0214977,0.015813356,0.07603661,-0.003173685,0.09788917,0.09940477,0.0241735,0.057929255,-0.024150893,-0.02494998,0.06908102,-0.045658343,0.0892885,-0.15626973,-0.0103604095,-0.018743454,-0.009197429,-0.048114683,0.07563207,0.03090135,0.0010776396,-0.03076983,0.09827582,-0.0003176593,0.03162484,0.08567379,-0.04897267,0.030200845,0.09625749,0.08850056,-0.14638223,0.034472596,0.019992892,0.06599865,0.039388098,0.027435075,0.014082709,0.027684001,0.015011327,0.09094339,0.036092777,0.0026740704,0.03530002,-0.019288633,-0.0759555,0.018696634,-0.088219896,-0.033935986,0.07555642,0.08502469,0.0533469,0.02933338,0.09897885,0.1407156,0.088737555,0.093508676,0.00855591,0.026818926,0.020828757,-0.096319385,-0.04054165,-0.013190221,-0.028575,-0.0047092694,0.029154098,-0.06079624,0.008898928,0.020483255,-0.030666424,-0.092720225,0.016837794,0.05784902,0.08784118,-0.021311926,-0.062481243,-0.014523899,0.034790087,-0.006593553,0.078633,0.040248476,0.06757554,0.0054979967,-0.083381556,-0.05824899,0.056732398,0.050809953,-0.14568655,-0.00028165724,0.016856322,-0.093789086,0.05865525,0.064871505,-0.0009394654,-0.05942179,0.011463978,0.0030044406,0.01361957,0.004861046,-0.029196339,-0.03829679,0.040320978,-0.024338216,-0.0043518143,-0.0021346533,-0.021873595,0.025165103,0.03709966,0.002660585,0.012592671,0.0779334,-0.11128621,-0.051687174,0.09039429,-0.052860398,-0.004217408,0.012684179,-0.0024587996,0.007293336,-0.018826267,-0.052507833,0.04199141,0.0005386766,0.04547942,-0.0029850823,0.039962307,-0.08580173,0.004969396,-0.019603893,0.11237973,-0.053932987,-0.14731267,0.03737827,-0.06367577,0.029994886,-0.013081203,-0.04873355,-0.047392204,0.03802122,-0.008102523,-0.04838998,-0.05348629,-0.06795878,-0.058489125,0.011909264,-0.06822916,0.011356276,-0.040854983,0.0794201,-0.022876205,0.03976556,-0.007742497,-0.07433335,-0.04362,-0.031113062,0.0958276,0.01463531,0.036414124,0.03239599,0.05229459,0.009891398,0.031672984,-0.10399466,-0.05169315,-0.01855854,-0.018393086,-0.049940046,0.04036039,0.015855525,0.07383941,0.030799886,-0.037178975,0.018540826,0.003694716,-0.019350717,0.0074379263,0.06720405,0.03368094,-0.010219575,-0.0065843393,0.02343238,-0.0322047,0.060123038,-0.0033331988,0.101387,0.0721155,-0.0070863524,-0.003027286,-0.041795295,-0.087249205,-0.018219527,-0.015631046,-0.0076633026,0.015450604,0.005399884,-0.029595261,0.024754679,0.06031727,-0.026844002,-0.03320291,-0.051806994,0.031828117,0.042900622,0.017401623,-0.0273176,-0.04532569,0.005108447,0.0047520283,-0.0047960114,0.053104408,0.037702326,0.12298577,0.011063131,-0.033420928,-0.03574773,0.027745364,-0.045839265,-0.024879972,0.0033417614,-0.01878017,0.055186007,0.080999844,-0.0030467159,-0.015140574,-0.03303764,-0.056715887,-0.09377656,-0.028248563,0.11870112,0.045880217,-0.021666965,-0.030259248,-0.067326106,-0.023907943,0.019318132,-0.035154838,0.047953118,0.00006629019,0.046851415,0.03628721,0.032064058,-0.054125793,-0.0008104125,-0.032032747,-0.008785714,-0.07075513,-0.101254344,0.047580305,0.04185174,-0.030227665,-0.025713451,0.016258253,0.00029979745,-0.035563372,-0.10049779,-0.058295768,-0.11906347,-0.07373659,-0.04532711,0.008963694,-0.106445916,-0.046286732,0.0034950722,0.04210262,-0.085103594,0.020206163,-0.03766262,0.056540277,-0.047255564,0.086820096,-0.0607741,0.06765508,0.02614187,-0.16707025,-0.01227249,0.19123198,0.20949703,0.023122335,0.024640135,0.11331077,0.15268078,0.17490059,-0.029061882,0.037972316,-0.08234317,-0.13326979,-0.18659069,0.05546746,0.009223806,-0.0052269483,0.004579199,-0.057512194,0.042867165,0.024141746,-0.0063964734,0.06074383,-0.04172141,-0.032646812,0.0025261678,-0.030511752,-0.09352135,-0.07045258,-0.11227195,0.0625901,0.23725642,0.18397017,0.2764923,0.4574422,0.4245639,0.2758989,0.040565964,-0.062336884,0.003293158,-0.10911663,-0.12405231,-0.120383255,-0.047267895,0.06470613,0.03179167,0.0432261,0.053307667,-0.06682683,0.11280141,-0.083201244,-0.06693449,0.05706992,-0.037634056,-0.15084143,-0.114706844,-0.084967114,0.12093294,0.12158302,0.13104016,-0.10425998,0.22691679,0.2367706,0.14830086,0.32725,0.17610903,0.10090497,-0.07332706,-0.10270881,-0.106576614,-0.09750753,-0.021152172,-0.15931891,0.05843037,0.113308094,-0.07023598,-0.017732346,-0.04732636,-0.096355736,-0.072141804,0.04559207,0.023112914,-0.0033521096,-0.010521875,-0.001644814,0.15435201,-0.08951322,-0.13384436,-0.11509947,-0.020341666,-0.1037507,-0.015162124,0.14880842,0.17013943,0.025390364,0.006988122,-0.15928727,-0.12396827,-0.09084772,-0.02573469,0.0702107,0.027635878,0.029066293,-0.051445648,-0.00072371186,-0.080837116,0.014921517,-0.05199969,-0.014877979,-0.06841664,-0.09309635,0.022018747,0.034757968,-0.12547018,-0.11317375,-0.19492182,-0.09327167,0.021919783,-0.41629252,-0.40366593,-0.17183568,0.087936215,0.07305629,0.000994947,0.06622599,-0.044471987,0.031903207,-0.045883194,0.019158099,0.047503367,-0.016870325,-0.027224535,-0.0036892719,-0.111776784,0.031665523,-0.012948779,0.04933131,0.03459047,-0.10874198,0.079077564,-0.05743591,-0.080753736,-0.15056466,-0.14398226,-0.04058373,-0.241571,-0.4244243,-0.37853497,0.028684234,-0.08848926,0.020610558,0.06551986,0.09551129,0.06280242,0.10742593,-0.069469586,-0.014279644,0.04055394,-0.055361252,0.05493863,-0.042448398,0.03247154,-0.10024324,-0.0720178,0.019436797,0.11617729,0.065493084,-0.013117823,-0.09721952,-0.034719232,-0.029562246,-0.039813787,-0.072479285,-0.28623143,-0.40420026,-0.12495696,0.08427788,0.04342765,0.10656711,0.18802936,0.10007252,0.13493136,0.1401437,0.117983595,0.025752656,0.0929375,-0.025018169,0.0024319738,-0.012359678,0.020164305,0.06267756,-0.021474866,0.013927716,-0.10574374,-0.039225545,0.08486371,0.015160597,0.056716636,-0.005816103,-0.16651498,-0.3068623,-0.34776908,0.06985408,0.0616896,0.12742627,0.20174038,0.14160614,0.2694866,0.12818065,0.1056284,0.024406964,0.022773549,-0.047987036,-0.023316598,-0.06851585,0.0010346797,-0.019949283,0.05844524,-0.07666571,-0.061674282,-0.07841642,-0.0741985,-0.10375197,0.024893446,0.13288318,0.04207931,-0.25839216,-0.050266877,-0.17910479,-0.055463757,0.36589655,0.18765524,0.17977354,0.067628875,0.13517936,0.23662482,0.0531502,0.08483016,-0.13817376,0.057056613,0.090669654,0.041567866,0.03716035,-0.027381888,0.01627518,-0.0034122695,-0.06805713,-0.07498517,-0.010045767,-0.044731945,0.023986978,0.01465682,0.13382258,-0.14148045,-0.20362388,-0.026849529,0.026941823,0.3496651,0.27076128,0.08585855,0.08807369,-0.034093015,0.09121414,0.09337548,0.07632759,-0.026351057,-0.10720025,0.061556756,-0.03589291,-0.013384131,0.014961268,-0.03854285,-0.028991647,-0.018901426,-0.010779955,0.007847666,0.06837871,-0.07351956,-0.013078032,-0.0321188,-0.042085677,-0.14444941,-0.2315241,0.074596606,0.23751093,0.43143213,0.14068991,0.067524694,-0.11564949,-0.035375763,0.06907041,0.05653558,-0.056379594,-0.05762369,0.011860572,0.009410146,-0.078095116,-0.03565326,0.019539993,-0.046653293,-0.029542439,-0.031617586,0.039250605,0.0086243,-0.030242417,-0.05136197,0.06476699,0.06914379,-0.026387433,-0.25208655,0.0076901647,0.16843818,0.13423571,0.009692706,0.108630605,0.014295079,-0.04200237,-0.14757597,-0.024364,-0.039732985,-0.04083392,-0.04048069,0.023551026,0.1291179,-0.049868822,-0.032405358,0.039545767,-0.058438953,-0.0029667579,0.0071691563,-0.018594794,-0.046193894,0.017385855,-0.082723826,0.05134162,0.012257467,0.013046966,0.09404872,0.09134235,0.22105739,0.1124535,0.0057636844,0.0041814907,0.07394746,-0.24387597,-0.26405516,-0.19395074,-0.0888721,0.005060416,0.035360277,-0.040641166,-0.015095892,0.062601686,0.04080436,-0.013234723,-0.03877259,0.09309591,-0.07457375,0.030734198,0.027743246,0.08467271,0.0998767,-0.009029457,-0.08455877,-0.004956321,0.099867865,0.25737783,0.15182294,-0.1260436,-0.15093355,-0.14719757,0.11607707,-0.054096762,-0.18693897,-0.06456237,0.0014034539,-0.14365055,-0.040726814,-0.013544068,0.14562458,0.08200337,-0.014900027,0.001429986,-0.052231953,-0.052306756,-0.03170415,0.091547996,-0.027610857,0.10349552,0.0628579,0.13717571,0.0790013,0.097740635,0.05095869,0.14643331,0.05668038,-0.1434974,-0.12062418,-0.04253898,-0.05990959,0.024985664,-0.076423764,-0.05308401,-0.16734564,-0.09427572,-0.04146731,-0.0063227983,-0.070589855,-0.015633248,-0.049571864,0.11398931,0.0033402224,-0.030893283,0.037564434,-0.047396064,0.06180569,-0.1501512,-0.065324865,0.026608406,0.105261095,0.18559888,0.004557026,-0.08531341,0.0542899,-0.18607578,-0.016199753,-0.08157904,0.09102927,-0.15970075,-0.18290783,-0.18142371,-0.08463982,-0.043656778,0.019306263,-0.09990023,0.016035434,0.026075158,0.039556082,-0.01648334,-0.058011655,0.062145755,0.014371672,-0.015815547,0.15049717,0.068656206,0.0776751,0.07023578,0.06299025,0.05459858,-0.069630854,-0.13988514,-0.011183044,-0.14656837,-0.11849411,-0.060923185,0.03511049,-0.043261666,-0.14447519,-0.18855967,-0.016202293,-0.03682857,0.035017584,-0.022427479,-0.012978418,-0.015100598,0.015688047,-0.015732776,-0.092973605,-0.10089515,0.037683293,0.044569727,0.02264944,0.10136901,0.17877127,0.03478733,0.03451185,-0.038152214,-0.28600615,-0.09348812,-0.05819385,-0.06970094,-0.1413576,-0.043303154,0.08890747,-0.07674553,-0.09937436,-0.06447716,-0.013359424,0.022187583,-0.04137113,-0.07713549,-0.04565112,-0.012169523,-0.107898414,0.09093476,-0.019553212,0.03203352,-0.02241703,-0.021241823,0.07880705,0.13554327,0.051997956,0.0804509,-0.022420013,-0.106350385,-0.18756361,-0.1069061,-0.13244756,-0.02786401,-0.0112342015,0.13885437,0.023107085,0.0033017017,0.013291065,-0.12612171,-0.09567469,0.06722437,0.030786382,-0.06717528,-0.008700246,0.005592481,0.0182894,0.021435285,0.0015180875,0.009170743,-0.004531266,0.017681072,0.044841312,-0.037656818,-0.008987426,0.016637616,-0.05613621,0.013250831,-0.03203682,-0.10702153,0.0075611803,0.0015629655,0.1210136,0.045273986,-0.09514451,0.18633527,0.08702263,0.053479288,-0.07796687,0.031306602,0.035505008,0.0006377601,0.0137019865,-0.034015752,0.011369976,-0.013293644,0.048067667,0.08480863,-0.021241207,-0.028431099,-0.092368126,0.030876871,-0.014752383,0.03264062,-0.054559637,-0.031268526,0.022427274,-0.013808495,0.0047501,0.0525216,0.048537247,0.0986235,0.08126724,0.029207507,0.16497117,0.083587475,0.03485908,0.110601634,0.0037857748,-0.031478975,-0.023440639,-0.078634866,-0.011668471,-0.09865972,0.031047262,-0.044168964,-0.10473355,-0.09121708,0.004679619,-0.029569637,0.008457612,0.115275055,0.06924337,-0.006562411,-0.0671801,0.060821567,0.040378388,0.07989386,-0.012586358,0.07670629,0.030832669,0.08405339,0.13651392,0.09765756,0.00030897913,0.119316965,0.06583233,0.016820623,0.010529002,0.08850639,0.07174433,0.023028318,-0.047332544,0.04491462,0.10802582,0.013996331,0.029828386,0.025013957,0.08218306,-0.0048208246,-0.007386103,-0.122786775,0.05092645,0.026274467,-0.019524584,-0.019574203,-0.031044945,-0.039422397,0.03014308,0.049703468,-0.049865626,0.03702455,-0.00074313016,-0.011159888,0.06758904,0.011449141,0.0590438,-0.08398541,-0.01087434,0.067891605,0.09221551,0.050955903,-0.008092636,0.05060453,0.06890585,0.0085027665,0.0015812066,-0.006201695,0.011656909,0.023687312,-0.041067876,-0.09353161,0.06209752,-0.03174234,-0.0026280892,-0.00787735,0.019559281,-0.016462432,0.028390087,0.02180099,-0.076358214,-0.008898751,0.068736956,-0.074402645,-0.0614129,0.04584627,-0.034265984,-0.06799493,-0.034765486,0.028911801,-0.016998913,0.009862703,0.0015962657,0.058528144,-0.06048077,0.002610458,-0.04558176,0.027082825,-0.020800393,0.076205865,0.059433706,-0.063067496,-0.030478735,0.038644835,-0.00070357556,-0.03055281,-0.020208238,0.049982738,0.033815507,0.0611728,0.020922055,-0.02897879,0.09111421,-0.05537578,-0.017049646,-0.02522274,0.0758752,0.009965161,-0.01886425,0.075996175,-0.0037056743,0.0046054996,0.037822563,0.0042941812,-0.0010323427,0.028022416,0.006422355,0.038884923,-0.010254033,-0.068695076,0.0152655775,0.08715928,-0.045916177,-0.0029668643,0.08883068,-0.07523317,0.13295509,0.025351513,-0.012510666,0.019652626,-0.027903004,0.018294193,0.002839624,0.03063745,-0.035318773,0.06115103,-0.022498475,0.0035989045,-0.0032224967,-0.042123478,0.013942501,-0.002321778,0.00019519016,-0.08584633,0.046801396,-0.0074764043,-0.07682061,0.023835734,-0.020891985,0.020908857,0.019270057,-0.056524545,-0.04803592,0.0047189426,0.024405003,0.013448883,0.041321333,0.06909525,0.008783567,0.027495595,0.070860766,-0.0053443103,-0.038837034,0.008974667,-0.0070122383,-0.0059239743,-0.01968559,0.028200815,-0.007946491,0.06789661,0.041216765,-0.027139189,-0.09110439,-0.06698729,-0.056601617,-0.13160676,-0.038839903,-0.064194545,0.029126693,0.05452228,-0.102163255,-0.053690042,0.06963119,0.12844202,0.13313673,-0.07726024,0.035086494,-0.01004256,-0.03144116,-0.06078624,0.005115567,0.017861474,-0.011671555,0.07511438,-0.059717003,0.054143734,-0.010257555,0.0970722,0.019936677,-0.075968094,-0.0123238545,-0.15650436,-0.10648026,-0.15112162,-0.10475228,-0.05187418,-0.041167032,-0.15388009,-0.117916726,-0.0014961729,0.032536805,0.19122714,0.07485058,0.017607337,-0.009383692,-0.017214758,-0.013273444,0.0008233729,0.01649163,-0.062197242,0.059470516,-0.052136034,0.08721683,-0.026111387,0.082784235,0.16951105,0.1668998,-0.029534362,-0.10334492,-0.08530132,-0.107129335,-0.08319275,0.03879216,-0.048358265,-0.0804192,-0.093302846,0.084191196,0.13914469,0.084421694,0.0940427,0.06170675,-0.066555426,-0.027322855,0.08744292,0.014645979,-0.066315494,-0.00062639214,0.008636387,0.1379569,0.057322018,0.040912926,0.119185634,0.07317355,0.050406314,0.06742569,0.048625696,-0.10317531,-0.11206014,-0.22428818,-0.17148966,-0.023867616,-0.05952736,-0.14629754,-0.030512165,-0.0008110372,0.03328398,-0.07658596,0.016797634,-0.0072163627,-0.034157418,0.039526563,-0.049110793,-0.066258185,0.012879183,-0.048529163,0.07628748,-0.040956207,-0.07983193,0.13622653,0.022887573,-0.07776998,-0.031197688,0.032444455,0.10201262,0.063446455,-0.11994217,-0.41178554,-0.25203452,-0.13704734,-0.16166013,-0.11569622,-0.18763696,-0.118127026,0.037680134,0.022247512,0.017695777,0.011784138,0.04295945,0.031742103,-0.07208312,-0.01895838,-0.10347298,-0.034667894,-0.017095659,-0.04309335,0.05783301,0.025034074,0.0053200447,-0.028880086,-0.037749622,0.05230411,0.12640353,0.20229405,-0.021413546,-0.14942005,-0.18834415,-0.1980896,-0.17886625,-0.053010035,0.04381188,-0.08062701,-0.13420317,0.07387784,-0.025218548,-0.047704086,0.036249828,0.08838713,-0.02223455,-0.01890515,-0.06787864,0.01122469,0.02400318,-0.010341949,0.068312734,-0.069875166,-0.035876866,-0.0778909,0.09233927,0.14712813,0.26198658,0.112942204,0.04287043,-0.038500566,-0.12506069,-0.076390944,-0.16335857,-0.046995223,0.13664612,0.14295232,0.07998935,0.17559084,0.0994469,-0.08829827,0.027914483,0.184241,-0.065524176,-0.0030738194,-0.0515266,-0.020329807,-0.0783853,-0.057097785,0.0039068437,-0.048302088,-0.07627223,-0.056152396,0.033027045,0.00060494733,0.14943054,0.24992302,-0.012607699,-0.07302922,0.120174,0.025244586,0.030469067,0.074130476,0.2086851,0.188028,0.11969809,0.11027904,0.07391825,0.07634526,0.06340966,0.032155443,-0.09272666,0.055958867,0.07241634,-0.07151073,-0.024945578,0.096853234,-0.019155419,-0.018112699,0.018956063,0.09703103,0.107015915,0.09399287,0.12201721,0.13025531,0.055666976,0.08983137,0.1031143,0.13170016,0.0028417523,0.13034485,0.085182466,0.20034185,0.15008128,0.23040721,0.10821894,0.029497376,-0.05353618,-0.08831748,-0.044717636,0.012373064,-0.05646452,0.01938638,0.008923107,-0.035529293,0.030248154,0.07237649,0.08840006,0.03280611,0.13265836,0.07433474,0.024949372,0.01098111,0.08871191,-0.13262632,0.040168628,-0.007300709,-0.18882474,-0.015033231,0.1161328,0.115542114,0.23178358,0.069625795,0.14336658,0.021816019,0.03117707,-0.020462565,0.019781204,0.0397079,-0.024013001,-0.032545127,-0.07616059,0.07479147,0.053096432,0.0923989,-0.076980576,-0.027892757,0.04952326,0.034743857,0.020522043,-0.08605236,0.043428075,0.18091853,0.09867581,0.009170964,0.0070158513,-0.032129496,0.065939136,0.061367303,0.118388005,0.17530607,0.1954243,0.11943192,0.020938946,0.0029133337,-0.0013408505,0.004927737,-0.019666951,-0.10257642,0.03155325,-0.06206426,-0.051154863,-0.04875531,-0.10308295,-0.077166356,-0.023619873,0.010621607,-0.105078146,0.09602283,0.06380388,0.13791443,0.24511094,0.1671598,-0.107932985,-0.110795185,-0.0031240897,-0.111480795,-0.1210406,0.105109215,0.061358787,-0.104060665,-0.06658948,-0.018163918,0.01917248,0.06522652,0.045411795,-0.004396607,0.027436204,-0.04624556,-0.044702835,-0.014858724,-0.07016604,-0.13415068,-0.040640846,-0.02227074,-0.02894469,0.001484092,0.054806903,0.052137543,0.03627062,0.0053376714,0.019687833,-0.052436627,-0.12396697,-0.08410501,-0.011618091,0.0730636,0.058295522,-0.041599758,-0.00018172484,-0.050930522,0.027874392,0.07606077,0.0356963,0.055833373,-0.014035512,0.081821665,0.052801207,-0.12248249,-0.08208427,-0.15813443,-0.17438954,-0.06678299,-0.15551163,-0.10999599,-0.013670206,-0.075765796,-0.15958303,-0.16004108,-0.017305164,-0.014328734,-0.12689763,-0.16964604,-0.18048397,-0.03862984,-0.014270567,-0.031052016,-0.05398141,0.03976139,-0.040301956,-0.018860016,-0.03709717,-0.050653774,0.08406998,0.0039010518,-0.014553212,-0.1694903,-0.24000262,-0.05903313,-0.104210205,-0.05122168,0.03318515,0.029436175,-0.08815044,-0.17227285,-0.25369114,-0.05672304,0.0027242142,-0.013667281,-0.0105008315,-0.08894345,-0.13335292,0.010033628,-0.010986788,0.062324,-0.012887617,0.01710453,0.004312935,-0.084851176,-0.107887596,-0.0038800319,0.0501958,-0.012063102,0.012766255,-0.08597424,-0.07446482,0.02996545,0.06315821,0.05025205,0.089856274,0.038248945,-0.1378998,-0.13802303,-0.14689586,-0.01059414,-0.063986,-0.04320225,-0.007493663,-0.14536124,-0.06258752,-0.055835705,-0.12287001,0.016605476,-0.033809785,0.017325427,0.13091943,-0.024181996,-0.023479981,0.027331965,-0.056183953,-0.0050270534,0.059688855,-0.020747514,-0.03051089,-0.004926052,0.13930067,0.010318851,0.12360136,0.009224847,-0.11671739,-0.18071361,-0.10451839,-0.116557494,-0.031151451,-0.0063915723,-0.012180852,-0.056257624,0.013020891,-0.10241636,0.020817766,0.11780512,-0.01461526,0.011962038,-0.0031747485,-0.04033552,-0.022750102,0.027418759,0.09151675,-0.08859879,0.016587757,-0.045943268,-0.023954665,0.16077921,0.16347563,0.20690428,-0.07536407,-0.10420384,-0.17151934,-0.19662432,-0.13818862,-0.054767493,-0.19451702,0.015296914,-0.051565405,0.017450664,0.008851354,-0.04082176,-0.046460025,0.11641801,-0.007769988,-0.010006209,-0.11811682,-0.052230403,-0.03100987,0.055097483,-0.011937433,-0.01770874,0.048452627,-0.023117742,0.14130966,0.12610197,0.24898836,0.15958756,-0.0774626,-0.03246515,-0.05323747,-0.1962906,-0.098406054,-0.10319337,0.008842945,0.068837106,-0.019259162,0.09988595,0.0621634,-0.009881412,0.048533637,0.11246441,0.04094338,0.020276368,0.03581121,-0.06756051,0.07895759,-0.03294828,0.062735066,0.04274466,0.021947745,0.101848505,0.18536669,0.19912091,-0.0065070805,0.006871249,-0.070330866,-0.07552043,-0.13164951,-0.060180973,-0.06366084,0.07396142,0.113389105,-0.012852524,-0.029614067,0.019328538,-0.024793517,0.0023886168,0.02734891,0.086876035,-0.009051677,-0.043198403,-0.027409913,0.022969954,0.048140235,0.009170354,-0.045384787,-0.013560195,-0.027979344,-0.028491652,0.06348568,0.12105285,-0.030503174,-0.039301258,-0.049706925,-0.040759116,-0.020866686,-0.044954248,0.040534005,0.043581236,-0.01824744,0.0012923125,-0.011925352,0.03314594,0.05628381,-0.011307805,0.123576544,-0.0023312024,-0.0037655884,0.011142845,-0.04062673,0.021445205,0.068139665,-0.0065564187,0.09053533,0.009882086,0.014063147,0.020645907,-0.045593675,0.10922795,-0.14906423,-0.12021494,-0.056337785,-0.021935178,0.038401194,0.028615281,-0.06448147,0.01764587,0.10893594,-0.030001035,-0.0068200417,0.079968065,-0.10440572,0.052560534,-0.00038063544,-0.038796823,-0.06770336,-0.016246157,0.042095557,0.052529007,0.06056769,-0.019905183,0.034980435,0.07137527,-0.0011455761,0.0048797745,-0.012133319,-0.03838048,-0.019731227,-0.0346196,-0.015144743,-0.073386446,0.01960169,0.074156664,-0.046882074,-0.032001335,-0.08450568,-0.048160456,-0.04951961,-0.061432477,-0.1412,-0.09425011,0.017090902,0.051584672,0.015408702,-0.03273621,0.087571,-0.029995954,-0.0049762363,-0.040517107,-0.043890566,-0.011517873,-0.06575028,0.04420489,-0.019359449,0.04596749,0.0028156107,0.030777683,0.01464496,0.009332573,-0.0012438326,-0.04118377,-0.04164731,-0.007874929,-0.059139363,-0.034563903,-0.027782265,-0.016668625,-0.07452216,0.04606545,-0.0412982,0.003590587,0.02700899,-0.012140814,0.043120302,0.059732653,0.03973576,-0.09982486,0.012763166,-0.034924008,0.0854744,-0.004454825,-0.014752975,-0.12329923,0.087908514,-0.06834721,-0.06097502,-0.054525167,0.0042999536,-0.01823335,0.013123548,-0.097938836,0.03846913,0.048765175,-0.029474098,-0.074137285,-0.0048700287,0.0021852122,0.08396969,0.093121484,-0.0007129667,0.07953484,0.07732016,-0.0666939,0.08829113,-0.003763666,-0.050411094,-0.0034963335,-0.03698211,0.021891031,0.008663475,0.038135327,-0.0124337645,0.053180944,-0.05194105,-0.009736604,-0.0006537991,0.076424435,0.00036509446,0.015961275,-0.07449852,0.06459992,-0.00648572,-0.15968458,0.034824215,-0.024709688,-0.06287951,0.014550526,0.031157678,0.0019501705,-0.011177048,-0.06237766,-0.039027143,0.03995932,0.031975646,-0.032258414,-0.031694304,0.02096313,0.004731945,0.002185499,-0.0698869,-0.0028878627,0.014575997,-0.09149957,0.016919633,-0.08482343,-0.012719295,-0.050287213,-0.090673365,-0.08397358,-0.02017817,-0.011274986,-0.043076415,0.030922769,-0.049699344,-0.038831227,-0.009330506,0.08309372,0.034271486,0.01647676,-0.04074265,-0.077629425,-0.03061316,0.045929927,0.0029676105,0.009800834,0.035656832,-0.005996078,0.021591369,-0.022961222,-0.09895894,-0.0063693644,-0.101663195,-0.19281676,-0.053608675,-0.024140248,-0.06293736,-0.024383495,-0.006809004,0.044480626,-0.004016459,-0.06429982,0.0664131,-0.0037005094,-0.02413778,0.09580654,0.04098238,0.089212015,0.015447681,0.049660623,0.004167784,-0.012846817,0.0052319723,0.105539605,0.004992951,-0.034679413,-0.0567231,-0.049452335,-0.07357398,-0.037116304,-0.03189255,-0.20949398,-0.12719461,-0.1957315,-0.023612576,-0.11130616,-0.07833822,-0.026186995,0.007138295,-0.0013326115,0.11353616,0.01836165,0.0018439088,-0.0016812108,-0.08123591,0.0041728914,-0.07070226,0.007750064,0.024462545,0.011887967,0.022438755,0.031394277,0.11735898,0.08694344,-0.119576044,-0.043480475,0.0794764,0.031835034,0.044236425,-0.15986417,-0.09547206,-0.06001574,0.027437633,0.025497258,0.09049629,-0.059284493,0.02655184,0.047351502,0.04633351,-0.0076818326,0.040996775,0.06005613,-0.05858607,-0.013396693,-0.049063116,0.05107851,0.04235005,-0.047931112,-0.028664997,-0.023732709,0.05606319,-0.056049913,0.03368319,0.07114388,-0.11115813,-0.0317103,0.030977912,-0.0510918,-0.10376168,-0.00040711704,-0.08872002,0.090383835,0.05136484,-0.022929296,0.015949065,-0.0035124514,0.067048,0.11590012,-0.035331618,0.09474479,-0.057114515,0.0046446035,0.028170735,0.049730353,0.010343752,0.08070757,0.06016794,-0.024891486,0.07519963,-0.11002009,0.054736078,-0.09296613,-0.108831674,-0.071932256,-0.13940349,-0.10021174,-0.11454657,-0.0051369164,-0.09026468,-0.1441604,-0.059601184,0.07620297,0.14699806,0.0017064874,-0.032966457,0.14383157,0.06928603,-0.10742718,0.020855455,-0.042583384,-0.016783709,0.017883196,0.06353149,-0.0052021593,-0.10286145,-0.0031408232,-0.049817365,0.014955753,-0.05733083,-0.029293964,-0.09380825,0.00981497,-0.14562587,-0.030547893,-0.031156177,-0.10901372,-0.1354196,-0.24193874,-0.15399681,-0.041250315,-0.076794684,0.020988395,-0.026869606,-0.061982602,0.09249357,0.03459823,0.0023063503,-0.059149165,-0.028458716,-0.048851624,-0.096601434,-0.013720768,-0.053379923,-0.02518498,-0.08416017,-0.13884543,-0.051121436,0.008586093,0.041672792,0.005302185,0.06500418,0.16522922,-0.112876095,0.050476044,-0.1015852,-0.17111719,-0.11909791,0.016736887,-0.018391438,-0.05400233,-0.002568343,-0.025927326,-0.024182314,0.0058137826,0.052960034,-0.046166375,0.029505206,0.004304963,0.0046788114,0.029552529,-0.050801635,-0.015241057,-0.18429057,-0.24226941,0.020745484,0.043164987,-0.019900335,0.059435006,0.11035198,-0.024542863,-0.037239872,-0.031114463,-0.0116725955,0.052864913,-0.053126328,0.100236945,0.0020747564,-0.074302986,0.029572362,-0.012640598,-0.09485816,-0.011936773,0.030808927,-0.068679884,0.025702972,-0.000015548343,0.042323448,-0.07251874,-0.16258055,-0.11903104,-0.20234077,-0.07000638,0.09541346,0.2168975,0.15319878,0.08207538,-0.017490953,-0.20386559,-0.011464634,-0.14007808,0.090192124,-0.042362634,0.0817278,-0.052194603,-0.069143444,0.000841169,-0.04442085,-0.04610569,-0.030364478,-0.017409734,0.02567507,-0.033351533,-0.030093227,0.014128789,0.036800772,-0.03928202,-0.077621154,-0.13648994,-0.12332989,-0.094653666,0.042825516,0.060411148,0.17075728,0.06544937,-0.013287606,0.014863984,-0.110704176,0.08987683,0.06393958,0.1613791,0.10775224,0.048882175,0.11255234,0.047868866,-0.057715945,0.024119461,-0.03657945,-0.2070303,-0.0033053416,-0.07092058,-0.030672846,0.010356738,-0.044784922,-0.018445782,-0.097379796,-0.19274451,0.04583951,0.15286067,0.061089832,0.07715756,0.06614992,-0.026427062,-0.07425121,-0.014609893,0.07871148,0.20629053,0.12807171,0.18625422,0.098836154,0.043674096,0.10715564,-0.021815486,-0.029856883,-0.052179284,-0.0050053624,0.059296064,-0.01458816,0.06761675,0.032463994,-0.016634224,0.033926688,-0.01633412,-0.06213867,0.050263148,-0.016722195,0.076695435,0.20506312,0.04853552,-0.06065238,-0.14286628,-0.041617107,0.17800322,0.15528052,0.098734565,0.24669614,0.22305833,-0.045023654,0.033009842,-0.20436586,-0.11693561,-0.16282736,-0.08814318,-0.045185275,-0.07042465,0.04541289,-0.013337771,0.030027267,-0.050342225,0.11112984,0.022738079,-0.044684537,0.0496614,-0.09762463,0.0082139205,0.16445379,0.10597273,-0.020501861,-0.067731276,-0.09997224,0.09012719,0.22709554,0.07337591,0.19159618,0.10781549,-0.124926604,-0.19639742,-0.1886465,-0.08512184,0.062198926,0.01209049,-0.06732456,-0.020694716,0.1151232,0.04529384,0.06010692,0.0006584658,0.06446605,-0.0089776125,-0.040577956,-0.066068456,0.12673698,0.2216568,0.20966126,0.10005618,0.021053018,0.050048165,0.11325547,0.28161803,-0.02664878,0.039491482,0.12503555,-0.11845137,-0.051244743,-0.15106079,-0.0151664,-0.021435004,-0.06277772,0.07684054,-0.07028054,-0.08941537,0.1002314,-0.05328553,-0.043058526,0.012880255,0.024465328,0.0010126934,-0.045473784,-0.05526106,-0.019199325,0.15321937,0.30918038,0.14749494,0.10215761,-0.03846331,0.0771735,0.15222552,0.090252936,-0.09130469,-0.00015298925,-0.05348092,-0.15763752,-0.0020605952,-0.07377329,-0.04244638,0.068570465,0.15826142,-0.025885737,0.039419804,0.019632693,0.028346999,-0.023177415,0.017265754,-0.03670219,0.011751649,-0.06322332,-0.049830817,-0.0634118,0.038458172,0.09818684,0.025765726,-0.12583546,-0.060918476,-0.027924463,0.16581821,0.078725606,-0.03847764,-0.09238366,-0.10465408,-0.15227859,-0.08134346,-0.09327014,0.008915142,0.0089963665,0.03401508,-0.05262161,-0.03826186,-0.020921439,0.0018618781,0.113497004,0.060242135,0.09107585,0.008317128,-0.075210035,-0.10646633,-0.11072997,-0.05817045,-0.0023437229,-0.04167231,0.043578636,-0.19961923,-0.1607382,0.03561252,0.041790627,0.072615474,-0.041132294,0.0095330505,-0.23595868,-0.074163415,-0.040166397,-0.02516661,0.026018955,0.03539785,-0.06931911,-0.038750865,0.0036635099,0.056608327,0.11082253,-0.00790403,-0.005044809,-0.05998241,-0.022408886,-0.004302298,-0.04043108,-0.06670726,-0.23761153,-0.07054419,-0.13060462,-0.03941059,0.16606896,0.0014901719,0.027517097,0.031896837,0.04967005,0.10093367,-0.12580222,-0.022499815,-0.03027953,-0.016593298,0.016139077,-0.13310243,-0.119528316,0.07930735,0.016053274,0.15229376,-0.02906563,0.036001418,0.07678121,0.019719822,0.021440113,-0.08323508,-0.10382304,-0.11108167,-0.056307863,-0.1720352,-0.112367325,-0.019701513,-0.023642685,0.1217384,-0.035882458,0.10257029,0.019374894,-0.07451866,-0.23329602,-0.13410835,-0.084094845,0.012519092,0.041112065,-0.052104007,-0.11156194,0.005100409,-0.0056910045,-0.07805793,-0.043230105,0.01221224,-0.09220677,0.023894474,-0.013207168,-0.032583494,-0.06657253,-0.008907623,-0.01933505,-0.009686759,-0.01701661,0.12974738,-0.035738446,-0.024668073,-0.08644078,-0.117199935,-0.11999572,-0.08260692,-0.16104764,-0.10240625,0.043586396,0.051012415,0.025764521,0.027217692,-0.015373058,-0.035200946,-0.0003057604,-0.062355384,-0.027649296,0.04227111,-0.0075977957,-0.12842394,-0.07390742,-0.034364812,-0.11831473,0.07143748,0.14676076,0.06278214,0.07856513,-0.0008837963,-0.07465181,0.09767587,0.0169091,-0.17874342,0.04553405,0.113881394,0.046110522,0.05537194,-0.022956742,0.037012275,0.07134119,0.050078753,-0.029278213,0.07536857,-0.0185656,-0.034804314,0.0031026488,0.04097187,0.09296093,-0.14458337,0.0018411382,-0.015258179,0.02882747,0.08995577,0.09575958,0.05855548,0.030928472,0.11299103,0.08600681,0.08022341,0.05290411,0.017757218,0.042558447,-0.012332781,-0.040536728,-0.056106318,-0.025589686,-0.078328714,0.033820607,0.014755485,0.034885623,-0.09064021,0.040382512,0.03908081,0.013633531,-0.04450286,0.010013189,0.023731064,0.018737655,0.027030071,-0.027300574,-0.18818736,0.048075374,0.0155389495,0.05525695,0.026562773,-0.040110666,-0.06851762,-0.08741349,-0.1500592,0.01652487,0.039232336,-0.034682207,-0.04847853,-0.006313802,-0.04574971,-0.008455262,-0.04277384,0.05046266,-0.013487739,0.01105956,0.11570981,-0.08139285,-0.075487114,0.0140801305,-0.009107263,-0.060079575,0.011889445,0.057619438,0.03964573,0.0074718576,0.053412274,-0.040508386,-0.07584856,-0.02304484,-0.082806855,0.01953609,0.12779874,-0.01342995,-0.06230648,-0.011237646,-0.16076662,-0.0055909352,0.015379591,-0.07531651,0.047233623,-0.04552799,0.071734786,-0.054832503,0.050505448,0.076221876,-0.01801089,-0.016928025,-0.08533723,0.05843344,-0.0015700534,0.05411683,-0.07488144,0.01991478,0.04080059,0.028038103,-0.03526506,0.017295172,-0.09600098,0.029277872,0.11671905,-0.018199017,-0.07944399,-0.03982737,0.032639235,0.04637904,-0.04899582,0.043506518,-0.048015796,-0.008245421,-0.009458338,-0.01786054,0.008879723,-0.15093851,0.03207802,-0.020981882,0.052333705,-0.038665485,0.029230356,-0.019516578,-0.07800057,-0.02611523,0.05040379,-0.043170717,-0.024160199,-0.016823705,0.033135947,-0.0006358521,-0.023693098,0.040787555,0.094820395,-0.03394914,-0.110989936,-0.026514733,-0.08079697,-0.07498068,0.04759722,-0.064627066,-0.11564704,0.051389437,0.0042938553,-0.09120617,0.032705467,0.04354476,0.07283206,0.037061583,0.05854611,-0.05084132,-0.10170174,0.024921188,-0.008157404,-0.035795562,0.086733006,-0.021423517,0.023632677,0.0001624993,-0.0088973455,-0.024254892,0.09628142,-0.10227863,-0.020677583,0.06463907,0.04687954,0.009630589,-0.020501448,-0.014722953,0.05309283,0.018934632,-0.008131698,-0.07304271,-0.0067529464,0.059399404,-0.0035185993,0.05367626,-0.07653705,-0.018235086,0.03874687,0.008604164,-0.05449381,-0.021609148,0.034170672,0.029491976,0.086203456,0.05760921,0.06715792,-0.031558905,-0.068453565,-0.020778732,-0.042346485,-0.08709075,-0.05450742,0.07427264,-0.014020623,0.062670305,0.00068964344,-0.03655692,0.00013202321,0.08548221,0.03511232,0.052540787,0.045195043,-0.06263713,0.032961845,0.018674131,-0.06812365,-0.0029820115,-0.037243072,-0.000025473331,0.02402317,0.12284567,0.21147422,0.13308664,0.06429153,0.06791214,0.032991942,-0.18165289,-0.2914155,-0.10779205,-0.029051134,0.02689765,-0.062359117,0.098644726,-0.007337922,-0.060127895,-0.052810207,-0.045162432,0.032972552,-0.021230882,-0.0028881067,-0.03197963,-0.04557389,-0.0234043,-0.029273285,0.03592111,0.099541016,0.024270052,0.124149606,0.2532127,0.23690434,0.2835752,0.2958593,0.24888411,0.09357165,-0.10993205,-0.11416459,-0.11135603,-0.17023072,-0.062341336,-0.044468023,-0.1156062,0.04371223,0.049553912,0.067738414,0.018281734,-0.039670568,-0.056106042,-0.018412646,-0.026731245,0.019098999,0.006955021,0.03759107,0.016012933,-0.13439165,0.016086802,0.061627086,0.10281461,0.12956406,0.20706962,0.24673642,0.08046087,0.005525252,-0.15116352,-0.1796075,-0.23871432,-0.16380417,-0.04134817,-0.0869381,-0.16544218,-0.046005808,0.013511125,-0.0023713107,0.076767094,-0.017199896,0.03085854,0.019754726,0.06923112,0.017310515,0.04452238,0.0015504828,-0.08928607,-0.11661392,0.06964083,-0.013400302,-0.03649663,-0.04574392,0.039585557,0.023597311,0.07956461,0.10642922,0.26147708,-0.092971936,-0.23433748,-0.10972574,-0.10524037,-0.19290031,-0.1323716,-0.07344011,0.08734041,0.044640817,0.031269405,0.027596101,-0.05014266,0.05050634,0.07345304,-0.080193736,-0.07322463,0.05916763,-0.14794962,-0.042824894,-0.10886784,-0.21460186,-0.081208184,-0.13659745,-0.064781696,-0.0032387285,0.12608351,0.2794284,0.2502079,0.13829947,-0.1470963,-0.11314124,-0.0959402,-0.08539137,-0.20537226,-0.069897875,-0.10313638,0.025923718,0.060635827,0.047993004,-0.01750577,0.014734021,-0.079483815,-0.04946296,0.0022666731,-0.04045714,-0.19144304,-0.058242172,-0.18486317,-0.400202,-0.31154528,-0.22541618,-0.16694668,0.066480525,0.34214386,0.25200054,0.48051015,0.30589244,0.088171,-0.15518922,-0.14261867,-0.12742291,-0.09697893,-0.055274285,0.00058657606,0.12647368,0.085033536,0.0023639577,0.07769168,0.0009544739,-0.05560141,-0.13329555,-0.046655066,-0.23680729,-0.15049602,-0.23110065,-0.26832145,-0.40881553,-0.30454913,-0.22575825,-0.18469189,-0.008072491,0.1419778,0.11290784,0.18843192,0.2065982,0.19803846,-0.12209993,-0.059195645,-0.11850948,-0.18063873,-0.066259585,0.028843045,-0.0086922385,0.013807411,-0.10724394,0.036562767,0.0076076454,-0.05636948,-0.060579836,-0.14111361,-0.036436412,-0.114295945,-0.06296524,-0.13641009,0.010927884,-0.13810416,-0.07793778,-0.16305949,-0.097623795,0.18558976,0.12689605,0.11030399,0.07344095,0.21484317,0.10411303,-0.028177923,-0.08087261,-0.24346153,-0.021257298,-0.037289985,0.085082985,0.03827003,-0.009430075,0.00971948,0.09363511,-0.086455055,-0.07772635,-0.18423706,-0.12216154,-0.05344449,-0.06715832,0.23176526,0.12633416,0.005442276,0.10949644,-0.06445479,-0.09168118,-0.083239675,0.16473597,0.16432223,0.12087872,0.3544344,0.11274323,0.09852895,-0.046262175,-0.08827631,-0.09745413,-0.07550792,0.017011618,0.119233534,-0.08806473,0.03580538,0.03245176,-0.02991528,-0.02547368,-0.008507375,0.037202593,0.16212419,0.32312903,0.38783118,0.17876358,-0.028347652,-0.10290162,-0.18563192,-0.088416144,-0.07086921,0.05840938,0.110997014,0.15100984,0.20721844,0.07488944,0.11249813,-0.13097034,-0.19720086,-0.07938521,-0.0051059444,-0.034294933,0.0076835407,-0.10493481,-0.09766585,0.06923725,-0.009285696,0.10360207,0.13572818,0.11588054,0.055755697,-0.062549785,0.16003934,0.13090834,-0.06676463,-0.13902,-0.13143373,-0.013741257,0.032687802,0.044779208,0.11565051,0.12867908,0.13333726,0.21163708,-0.047178492,-0.12890954,-0.08176053,-0.03324378,0.011994117,-0.04037624,-0.0069666225,0.031505022,-0.04081758,-0.0097528575,0.024147833,0.011946055,0.13648252,0.083132036,-0.033276122,-0.16362351,-0.18753773,-0.029583698,0.06334269,-0.01893317,-0.031789597,0.050979048,-0.13333654,0.18619713,0.11970392,0.028978245,0.095936745,0.14934015,0.08259788,-0.05884947,0.08158458,-0.027490495,0.038327415,0.04361851,0.0035543544,-0.12842691,0.03743666,-0.057802007,-0.05915835,-0.040430546,0.036257982,-0.120600626,-0.19720845,-0.17492174,-0.01526621,-0.05253824,0.05296677,-0.12043692,-0.10828114,0.042515885,0.1671611,-0.03575989,0.011183567,0.02355668,0.026629344,-0.032531753,-0.082407884,0.040491726,-0.026453499,0.0374711,-0.06422136,0.012563536,0.043255758,-0.05778179,0.039827224,-0.09053286,-0.067483105,0.07908518,-0.08055919,-0.24214809,-0.19082777,0.118368156,-0.06518465,0.04661944,0.053559728,-0.15525739,-0.15944992,0.04308368,0.09241584,-0.06128782,-0.14319822,-0.041650165,0.075081035,-0.016882766,0.05699396,-0.075302996,-0.038019042,-0.013659528,0.010314222,0.032539975,0.0355808,0.04917571,-0.026813326,0.012010574,-0.1637969,-0.05334702,-0.15747467,-0.124656625,-0.14128886,0.06495465,-0.066997126,0.06547326,0.10969435,-0.111659825,-0.012863109,-0.071972005,0.20190583,-0.02002008,-0.012516262,0.10915248,-0.040622782,0.045589633,0.048532695,-0.071565226,-0.04808672,0.059685513,0.081053,-0.014451066,0.061031315,0.0006433564,-0.060980596,-0.01830977,-0.117340736,-0.17077653,-0.23304786,-0.078853756,-0.044601977,0.06223918,0.017500397,-0.0437647,-0.12983286,0.00324205,-0.016605692,0.04984577,-0.12239889,-0.09425616,0.14544511,0.026756678,-0.036338564,0.110261306,0.116914056,-0.086815335,0.080647886,0.052187122,-0.085216306,-0.019645035,0.012290409,0.003754754,0.049328405,-0.045320336,-0.0073293573,-0.079679124,-0.22338973,-0.08546993,0.08942092,0.04549625,0.011861748,-0.08966878,0.1097676,0.06372029,-0.17380793,0.02808371,-0.090646446,0.028406339,0.03917681,0.079172134,0.14397067,0.038045473,-0.032547247,-0.02508926,-0.098978974,-0.06110524,0.053327147,-0.020568606,-0.03377057,-0.05846213,-0.024607394,0.04176774,0.022760727,-0.14351553,-0.16301529,-0.16504511,0.09760245,0.21994418,0.18474488,0.118193656,-0.004336568,0.0849251,-0.020560684,-0.016598282,-0.21899022,-0.08233342,-0.001019721,0.10252565,0.026119346,-0.07782409,-0.03908625,-0.049926676,-0.11205099,-0.11497704,-0.049822308,-0.062797904,-0.03550027,-0.05601355,0.07425286,0.046518113,-0.013895112,-0.089069396,-0.09146982,-0.27753475,-0.1668088,0.026546521,0.14595127,0.030674342,0.12306323,0.13995719,0.013408841,-0.055534765,-0.008996465,-0.04577609,-0.111025035,-0.20013218,-0.13296181,-0.16650723,-0.08208874,0.035928648,0.025717773,0.03394113,0.0034858226,0.08868732,-0.034376338,0.0009846342,-0.020413198,0.015199993,0.020386716,-0.022161601,-0.004292026,-0.17398402,-0.07012463,0.047646914,0.06381251,-0.005365138,0.12598333,0.028328419,-0.020383848,-0.10979032,-0.12660678,-0.0814066,-0.10972606,-0.13830839,-0.23480302,-0.14378329,-0.08689513,-0.02834269,-0.03338277,0.0024184354,0.031152867,-0.0745386,0.003428391,-0.024938768,0.023704177,0.013957519,0.080524124,-0.08364693,-0.026792066,-0.02864382,0.018652325,-0.07474651,0.014705673,-0.017989965,-0.123253204,-0.040610664,-0.1684977,-0.065348305,0.12668566,0.012383534,-0.06811638,-0.12390004,-0.092070416,-0.087835886,0.024550632,-0.02183575,-0.06055273,-0.010760075,0.020226456,0.03727837,0.033887327,0.050089534,-0.023518056,0.009561856,-0.03824238,0.045312915,0.009509791,-0.027337061,-0.042553876,-0.033019908,0.014240501,-0.11695097,0.015870739,-0.0040635727,0.014650397,0.037761156,-0.05772525,-0.10888776,-0.057002306,0.05311188,-0.09671084,-0.004330514,-0.012115796,-0.03645381,-0.058265664,0.0371952,-0.01790848,-0.040272187,-0.00065814564,-0.012985902,0.068397366,-0.039623685,0.0068423855,-0.08322835,0.026122585,0.09438182,0.17001085,0.17734468,0.11051941,0.11141398,0.11307896,0.022311432,0.18928559,0.19295396,-0.009827832,-0.10302237,0.011065238,-0.040808916,0.043943744,0.017167429,-0.025885059,0.011057888,-0.0042105485,0.029797805,-0.014548274,-0.03517959,0.059142374,-0.020977026,-0.018916102,0.016516116,0.10959569,-0.040852785,0.013781207,0.025681635,0.04042725,0.038332026,-0.0297039,0.043268804,-0.01776332,0.12666701,0.1596248,0.06009535,0.011847512,0.11262131,0.095301665,-0.05700394,-0.1074856,-0.008856919,-0.039237864,0.048067354,-0.030623797,0.026623262,-0.07382517,-0.035327833,0.061847217,0.053324375,-0.008770929,-0.0062806928,-0.039096322,0.116716094,0.011274296,-0.035170443,-0.012843689,0.12363821,-0.020497099,0.07644162,-0.051766656,0.018692493,0.0435465,0.025956115,0.04111581,-0.00971789,-0.031663343,-0.058537915,0.043857723,0.041209932,0.05666439,0.016516138,0.08268366,-0.008594065,-0.0021999816,-0.023615751,0.0030562992,0.008627072,0.016238136,-0.04388397,-0.0653416,0.00587021,0.09680993,-0.04492382,0.0010257928,-0.11310899,0.014468911,0.00789486,0.047481004,0.017521454,0.08981002,-0.017042058,-0.031135835,0.064654365,0.02330433,0.0547263,0.051227298,-0.06352794,0.032751586,-0.030200409,0.005459279,-0.04536889,-0.019936014,-0.04276637,0.0037854577,-0.0570328,-0.06548979,0.019952038,-0.029866856,0.0640636,-0.016644815,0.08702324,-0.08060713,-0.019762043,-0.046127506,-0.009863429,0.0029310088,-0.06421685,-0.037389927,-0.12391805,0.07822411,0.067364,0.058757063,-0.0057491963,0.033799868,0.05674127,-0.07476147,-0.116856605,0.10501039,-0.018038558,-0.016960874,0.0033676163,-0.045354377,0.100807525,0.006171599,0.06980509,-0.03726622,0.042916477,-0.01761154,-0.022019988,-0.07416871,-0.023401743,-0.03132897,-0.03294747,-0.08488838,0.009278562,-0.072297364,0.022867125,-0.02357397,-0.016528137,-0.1254546,-0.0007228821,0.038548913,-0.0075791697,0.0023337293,0.07957289,-0.031368572,-0.034046564,-0.031566728,0.069287814,-0.0067100795,-0.04374607,0.039902724,-0.024773614,-0.009013672,-0.03634225,0.050344996,-0.08885549,-0.09744029,-0.04173327,-0.0019535788,-0.06214324,-0.011144189,-0.09299817,-0.073883295,-0.041352037,-0.13555875,-0.11444304,-0.05002052,0.019454084,-0.010693796,0.049422774,-0.013794917,0.042207547,0.0029227918,0.07144914,0.0358784,-0.10147492,-0.020476244,0.042291835,0.054357897,0.031387966,-0.0038346662,0.01114756,0.027564263,0.14691107,-0.022053344,-0.11063029,-0.018776594,0.11367424,0.17687696,0.095075205,-0.063615955,-0.1235712,-0.22171955,-0.12667893,-0.0069526006,0.0069228243,0.14762253,0.1499128,0.10197921,0.023132179,0.05360824,0.038867433,-0.011989289,0.027344925,0.01588475,0.031776365,0.09855873,0.036057174,-0.06425904,-0.015876843,-0.025439776,-0.07173354,-0.096749954,-0.03894889,0.069307715,-0.011231715,-0.013531372,-0.16998391,-0.3101475,-0.4947899,-0.36614,-0.21027203,0.049700268,0.12026222,0.17119275,0.08491798,0.15262274,0.08474883,0.11431862,-0.049976293,0.059065018,0.062468007,0.049162515,0.0154995695,-0.05707814,-0.042461198,-0.043845896,-0.04640844,-0.018561265,-0.11997068,-0.018468004,0.23394686,-0.16757333,0.06489128,0.09743386,-0.13533603,-0.3337334,-0.7340898,-0.6240139,-0.011187804,0.14277427,0.18101884,0.18361606,0.24085775,0.10020514,0.20603321,0.010342831,0.13084733,-0.053547747,-0.019580854,-0.00800736,-0.019260844,0.029372334,0.01532137,-0.10809205,-0.04677886,-0.011105904,-0.13645752,-0.013152776,0.051834926,-0.015486203,0.1719685,0.14321405,-0.095409356,-0.3514851,-0.5976558,-0.34204334,0.16002564,0.26826233,0.17072536,0.0044499063,0.0075101084,0.12672393,0.075346544,0.059494417,0.039230697,-0.001162319,0.006253807,0.04551598,0.05233089,-0.036819793,0.07167222,0.008292149,0.12550096,-0.06217769,-0.055521403,0.022287013,0.20791537,0.06209941,0.064671256,0.14105366,-0.11062681,-0.52392226,-0.6121871,-0.19062535,0.29940638,0.21316239,-0.12691231,0.088115476,0.06293846,0.0707144,0.06485444,0.044315953,0.13741475,0.003965836,-0.0042344606,0.012353228,-0.07273394,0.07965372,-0.03141836,-0.047789447,-0.09376227,-0.14671257,-0.19816765,0.051741336,0.20745297,-0.08484425,0.10506787,0.17065378,-0.08245976,-0.45880148,-0.33409336,0.027250327,0.23745243,0.2349712,-0.057301767,0.049027275,0.08961001,0.06369918,0.11140581,0.033930328,0.1012983,0.034187045,-0.025356451,0.012746045,-0.005751788,0.045281302,0.117861874,-0.0045629684,-0.0023096066,-0.24803755,-0.19257143,0.13757928,0.059359156,0.20428038,0.38438755,0.35399494,-0.012283392,-0.39377233,-0.3189313,-0.08631142,0.27342403,0.28620195,0.12572806,-0.020593032,0.043516215,-0.0016547258,0.081614286,0.052130587,0.07754696,-0.00851382,-0.025649989,0.0030092793,-0.005956824,0.07690639,0.05190151,-0.058793798,0.0037889855,-0.06517267,-0.040307086,0.14342707,0.15189373,0.10556809,0.31992263,0.12919757,-0.28214997,-0.40259376,-0.27062094,0.03394077,0.34575814,0.19250046,-0.14311504,-0.2159481,0.0064583863,-0.032499142,-0.12645335,-0.04677506,0.034136657,0.013736993,-0.02852562,0.04196089,-0.023313835,-0.032551996,0.06872021,-0.13744383,-0.0021750676,0.024611482,0.29214045,0.22747184,0.17390066,0.120025694,0.23679559,0.2916461,-0.15529312,-0.447929,-0.08558745,0.044427097,0.109040745,0.19017488,-0.1827759,-0.06555484,-0.0063411463,-0.07312598,-0.14733048,-0.028497586,0.064048216,-0.05074594,-0.048236154,0.04947633,-0.0054157223,0.08743094,0.15743516,-0.08724318,0.11403673,0.122769676,0.13576102,0.20087247,0.103853785,0.080474816,0.1393728,0.10360723,-0.25775212,-0.3387651,-0.108627975,0.0029336188,0.11157146,0.13186035,-0.0901691,0.013176786,0.0002241474,0.08450264,-0.022637896,-0.039347228,-0.041997418,-0.12367369,0.051713113,0.014720161,0.10140723,-0.033124674,0.02170685,0.0023797895,0.22456887,0.13143118,0.14261526,0.09743777,0.1595392,0.15307452,0.10930225,-0.15339823,-0.35720563,-0.1326979,0.015839407,-0.06226217,0.15075059,0.052217957,0.22871359,-0.010941106,0.041808512,0.2039637,-0.01107323,0.06332438,-0.117220774,-0.06049117,0.07872498,0.042571254,0.027514663,-0.06177143,-0.008019851,0.123892225,0.009851752,0.041989863,0.2565946,0.08391135,0.017325707,0.28437006,0.15971495,-0.19192658,-0.1409269,0.06388696,-0.018279497,-0.23086983,0.081132166,0.08853733,0.08419259,0.0029024535,0.113411434,0.13490762,0.0296812,-0.07310074,-0.016374057,-0.03926403,-0.06316241,0.013207117,-0.06013953,0.045448292,-0.015638756,0.042346552,-0.14507239,0.02434584,0.18197598,-0.01876684,-0.13153265,-0.036949735,-0.2302274,-0.15325059,-0.065551504,0.06759607,0.012322196,-0.06443523,-0.08333919,-0.031266686,-0.04061724,0.074425206,0.21319415,-0.06507129,-0.039997853,-0.068899706,-0.0906026,-0.121087804,0.052507535,-0.008856434,-0.06206095,-0.049414124,0.003994144,0.002112288,-0.14019334,0.0079333875,0.15763405,-0.12338837,-0.14714314,-0.09974485,-0.13863356,-0.24690744,-0.12764041,-0.015876666,-0.0030130248,-0.030297315,-0.065205686,0.15774372,-0.0716463,0.0058121895,0.070466116,-0.008153231,0.11168743,0.049155038,-0.0714317,-0.020302543,0.0058312314,0.11793384,0.024123032,0.009577067,-0.080792874,-0.05828657,-0.016848065,-0.1924862,0.058613963,0.017466357,0.027469203,-0.19609544,-0.25863963,-0.08392027,0.020653915,0.15839916,0.046028733,0.111093245,0.045729175,0.15649684,0.11880165,0.1684,0.04161208,-0.13569579,-0.08396652,-0.041400574,-0.020512069,-0.049891144,-0.0019300202,0.0036150937,-0.054432087,-0.070451334,0.017754748,-0.0044121672,0.062244877,0.08278588,0.021033876,0.01412624,-0.07097109,-0.14766671,-0.18783088,-0.1662765,0.07248629,0.13854446,0.012430251,-0.13325076,-0.068974204,0.006659991,0.021310952,0.11647617,-0.012610643,-0.062095564,-0.0771565,-0.07347826,-0.0106989965,-0.027568469,0.021018108,-0.01426257,-0.039020877,0.07167035,-0.053541113,-0.06239523,-0.081483744,-0.04641178,0.00779502,-0.054212477,-0.112273075,-0.12696102,-0.16870496,0.11721148,0.046198808,0.09973394,-0.06971925,-0.013553049,-0.033952717,0.09720207,0.12066016,-0.0024005398,-0.005575747,-0.078556985,-0.0435267,0.030975131,-0.008490097,0.019655487,0.058455374,0.0036346791,-0.042888604,0.051394112,0.029147564,-0.027628735,-0.11505797,-0.15712874,0.0073347217,0.08047557,-0.11005998,-0.18412378,0.0554014,0.06307367,0.083496824,-0.071640894,-0.056053884,-0.08103796,-0.07014015,0.05562797,0.092235774,0.1072797,0.09469643,0.06412038,-0.06958858,-0.050345466,0.081822336,0.01314678,0.013461757,0.07600051,-0.1072094,0.0012421702,-0.025533034,-0.018056164,-0.096340105,-0.10305068,-0.09303087,-0.17948875,-0.07669979,-0.1033247,0.058897194,-0.048188236,-0.023106668,-0.105017856,0.05234726,-0.09152515,-0.028176462,-0.010377191,0.044238083,0.07696126,0.17572662,-0.02665796,0.033582527,0.0073289587,-0.05016245,0.058427084,0.011867551,-0.09128519,0.06118138,-0.12695059,-0.034995563,0.019579576,0.035379536,-0.033284087,-0.105864085,-0.016586935,-0.12915783,-0.045711797,0.043590568,-0.09160372,0.14294352,0.013304872,0.12272043,0.17469053,0.014590482,0.021710185,-0.06758117,-0.072962336,-0.05658898,-0.04489085,-0.10452633,-0.10796287,-0.11286661,-0.051569693,0.023298135,0.008441614,-0.009549066,-0.0023598236,0.04435007,-0.0048887376,0.0050012027,-0.055577435,-0.13976392,-0.1738022,-0.077163585,0.028254353,-0.0831465,-0.047515728,0.1108539,0.2367121,-0.08971581,0.15884338,0.039662186,-0.04157139,-0.1890254,-0.21240379,-0.051124036,-0.054446883,-0.044155285,0.017881596,0.0016796726,-0.0078077246,0.037721865,-0.0070172395,-0.08003928,0.037214242,-0.020379236,-0.039729558,-0.04928127,0.015271366,-0.14620876,-0.1505758,-0.10320713,-0.14172252,-0.041432217,0.045315016,0.085847855,0.002531751,0.19711898,0.12547198,-0.023800004,0.053751558,-0.24496454,-0.2142601,-0.1424763,-0.05014732,-0.04237151,0.00026383478,-0.053785194,0.041548308,-0.022150714,0.005873337,-0.023361009,-0.036297258,0.05523485,-0.035998642,-0.04115677,-0.08498256,-0.029104244,-0.012487806,-0.10347535,-0.19120194,-0.17896333,-0.04463605,-0.0518661,-0.17007552,-0.22867136,-0.0889487,-0.10167935,-0.15532048,-0.042298593,-0.14440069,-0.034745093,-0.014335746,-0.0029742033,-0.012268901,-0.010577463,0.008704688,-0.030050898,-0.056747522,-0.0054476224,-0.0009055223,0.036321845,0.04856339,-0.023328368,0.052060015,-0.09294664,-0.030152285,-0.044374693,-0.04709655,0.025206309,0.090247735,0.03835083,-0.011225816,-0.027913745,-0.00037471732,0.03891379,0.050261643,0.059661537,0.09950258,0.024143087,-0.024569852,-0.09515227,-0.05774305,0.034497686,-0.05400537,-0.047079243,0.037387487,-0.05585159,-0.016244603,0.06482871,-0.0146812275,-0.050853435,0.038954083,-0.022576625,-0.069433644,-0.01584014,0.019294307,-0.099512115,0.015479113,0.033113662,0.03756511,-0.031573042,-0.08087253,-0.045115612,-0.010020548,0.032475557,0.014960846,0.032015786,-0.060164962,-0.062301148,-0.0014132569,0.028951718,-0.017815886,-0.004173227,0.05805467,0.05680047,0.029811418,0.031533822,0.030698998,0.045658186,0.049417716,0.10683856,0.059415113,-0.010612654,0.021526417,0.0019748253,-0.041091908,-0.032393463,0.016039703,-0.043290276,0.03295314,-0.027816806,0.0019794747,0.006075107,0.004982696,0.04924997,0.05563623,-0.026354734,0.03552124,0.04441908,0.09297326,0.020391034,0.053473808,-0.07354998,0.023899456,0.03283905,-0.056968432,0.13282575,-0.011755447,-0.021368008,-0.015430329,0.032676227,0.11760804,0.11634948,0.032149192,0.020759134,0.10134374,0.08078243,0.10115149,0.14675172,-0.012488678,0.0156389,0.02180039,0.07522944,0.035144724,0.024634512,0.03743631,-0.0077827116,0.05630954,-0.034442157,-0.12303663,-0.017823137,-0.01958224,0.014596929,-0.018310864,0.010156785,0.10173238,-0.009132286,-0.039532155,0.05893993,-0.017709075,-0.024400001,0.03263297,0.016567528,-0.11873546,-0.054397516,0.026222179,0.07687638,-0.032215618,0.026201125,-0.025996458,0.0952879,0.04751752,0.06084363,-0.01581824,0.047325518,0.024801077,0.02745591,-0.03981373,-0.035394967,-0.07859564,-0.020500569,0.023170117,-0.0484745,-0.13298203,0.034141354,-0.049737427,-0.005771791,0.11962729,0.07028379,0.12662826,0.16086932,0.044578403,0.024396736,0.14608285,0.15315165,0.06891937,0.087369666,-0.0070332503,-0.05113562,-0.07010432,-0.03207931,-0.023837676,-0.008373691,0.003469874,-0.06010961,-0.034331404,-0.0019215089,-0.034694582,-0.044484377,0.08933027,-0.006084122,-0.101583935,-0.09531689,-0.018499322,0.04160477,0.043421168,0.051107388,0.026988307,-0.089951396,0.06218937,0.015149891,-0.03884117,0.06307644,0.0014110208,-0.074761555,-0.042924494,-0.12656619,0.027242335,-0.030227032,0.07876512,-0.046606246,-0.03991846,0.05552692,0.02674757,-0.1044593,0.008934437,-0.0047736415,-0.06462696,-0.094465576,-0.123144135,-0.10817485,-0.0107816355,-0.0014818405,0.071178466,0.18230003,0.08544315,0.10174467,-0.024558226,0.022843791,-0.046618253,-0.14202683,-0.0018272883,-0.014770011,-0.1993492,-0.09514792,-0.07728487,-0.045733437,0.03300526,0.00045414982,0.0021916693,0.038963594,0.021525651,0.022047186,-0.064203106,-0.1038838,-0.06670443,-0.20703354,-0.11878823,-0.114631966,0.028992737,0.017360674,0.29041052,0.23945281,0.12692074,0.004513081,0.08890259,-0.13041592,-0.18633567,-0.121145375,-0.24776976,-0.2215363,-0.14933942,-0.12687466,-0.07590526,-0.15949875,-0.14295319,-0.00011582664,0.0024878592,-0.018663386,-0.012756319,-0.019961758,0.031711724,0.029777346,-0.089762375,-0.19748674,-0.2173731,0.045930855,0.16098969,0.2231739,0.24807304,0.30196756,-0.046993677,0.026819903,-0.07701018,-0.22804616,-0.31190917,-0.13471581,-0.2675928,-0.32225424,-0.12796769,-0.18274376,-0.1304963,-0.0117369,-0.0040526087,-0.06350942,0.05902232,-0.013955728,-0.06818777,0.036842775,0.099069946,0.026161809,-0.12778357,-0.1103468,-0.0928603,0.15039429,0.16829166,0.17410888,0.17018016,0.13885733,-0.073849656,-0.051983893,-0.10180686,-0.2569351,-0.18432538,-0.14724842,-0.047447007,0.0014956052,-0.14509685,-0.06627267,-0.041849412,-0.1827785,-0.0148582915,-0.03412216,0.046469137,0.023952946,0.054823983,-0.019732691,-0.00069997745,-0.055546075,-0.12369233,-0.061695363,0.10202281,0.06662661,0.16699988,-0.007801079,-0.015439829,-0.06266621,-0.043064933,-0.048083942,-0.0191453,-0.10385411,-0.16646063,-0.20412219,-0.063743025,-0.08159113,-0.022764636,0.0033662594,-0.1550721,-0.041319337,-0.047613986,0.03205107,0.030510489,-0.028468926,-0.01599168,0.07197135,0.045826454,-0.003916406,-0.063076064,-0.016458826,-0.07680725,-0.054941468,-0.12326271,-0.1320558,-0.060065195,-0.045935005,0.0797645,-0.053282853,0.12346033,-0.10305348,-0.20560321,-0.26371253,-0.18111758,-0.08421634,-0.048729304,0.006378884,-0.08433964,0.05439462,-0.036132164,-0.0105944555,0.062388785,0.010494352,-0.09963738,-0.017156435,-0.021399269,0.036978364,-0.091396205,-0.12272229,-0.09853132,-0.10984688,-0.05457404,-0.07183119,-0.1034156,-0.01506924,0.029068183,0.13979833,0.13560508,-0.008418638,-0.1640635,-0.12493119,-0.21449882,-0.25197032,-0.124585114,0.030090908,-0.05370216,-0.038873818,-0.008326861,-0.099612266,0.03500489,-0.040908955,-0.017609617,-0.039784655,0.012794624,0.08264135,-0.046524383,-0.1863822,-0.15217815,0.04224827,0.013018111,-0.08791951,-0.20297515,0.05596647,-0.020519653,0.000291522,0.071777746,-0.06164772,-0.18624218,-0.19679266,-0.057401665,-0.088696174,-0.0074613914,0.105266266,0.014510772,-0.08399135,0.06857099,0.1080846,0.067837566,0.0806132,-0.066703044,-0.03386197,0.0371461,0.061818026,-0.040972825,-0.05993052,-0.036594003,-0.0044543687,0.036257837,0.024283877,-0.009383261,0.078957096,-0.00061197457,-0.057512883,0.05934046,0.016033527,-0.10867385,-0.14337464,0.014027011,-0.084478974,-0.004713811,0.1657048,0.03623134,0.014440827,-0.07320575,0.073752955,0.058484644,0.032017924,-0.08755629,-0.01982201,-0.11128265,-0.020271413,-0.03901053,-0.05970085,-0.051552106,-0.13902268,0.1121959,0.14947788,-0.004916109,0.09347145,-0.0313431,0.06709131,0.3091087,0.084445365,-0.033229098,-0.021034066,0.04127405,-0.048788175,0.09087777,0.011041244,0.0020530703,-0.008805048,-0.043552175,-0.0023095799,0.0132411765,0.08978152,0.029031113,0.012457684,-0.018905891,0.041771952,-0.1141906,-0.05971247,-0.08968241,-0.10321448,-0.0027866445,0.044685576,0.19358848,-0.060308926,-0.11212775,0.017313648,0.37099993,0.058594055,-0.05520056,-0.060681026,0.031264063,-0.08389482,-0.15201502,-0.0140976235,-0.07587362,0.12430911,0.048194356,0.17890972,0.08982542,0.009072263,0.02457225,-0.13537954,0.046948344,0.046908405,0.0025018812,-0.14117861,-0.06687089,-0.08739763,0.15496202,0.19617242,0.06863924,-0.11205214,-0.11207607,0.09324153,0.20116803,-0.009927774,-0.07786741,0.0189667,-0.21627098,-0.1546996,-0.040876493,-0.011960047,-0.06472644,0.025785094,0.17604128,0.051577326,-0.058513574,0.019605678,-0.057559676,-0.023739142,0.05009951,0.011662026,-0.07064403,-0.060881007,0.006720972,0.119717725,0.17277135,0.11702413,-0.04876168,-0.2626313,-0.12824295,0.19619106,0.07030568,0.13319534,0.14828975,0.050443135,-0.16150045,-0.22553651,-0.08210978,-0.10279896,0.0048174565,0.06590708,0.09880484,0.23043375,0.10522385,-0.0029471926,0.006959896,-0.036121637,0.063172445,-0.024432201,-0.07586413,-0.02935895,0.1450554,0.27219397,0.1311817,0.15962623,0.055042762,-0.072746255,-0.10880837,0.12080203,0.24120215,0.16048355,0.1933232,0.07247904,-0.041589733,-0.044116545,0.1542292,0.011113097,0.057550665,0.18196844,0.15405174,0.07925552,0.006756139,-0.01976044,-0.035066605,-0.013305836,0.04924717,-0.0057948255,0.027309854,-0.038558368,0.077056006,0.06374256,0.0958896,0.098572396,0.030586662,0.03392934,0.10545814,0.121999465,0.10436242,0.15339932,0.11624683,0.070061855,0.16484073,0.12685817,0.29696524,0.13942344,0.12655059,0.13784522,0.09350081,0.11739151,0.066884056,0.043355707,0.017536499,0.008283675,0.06501609,-0.034800053,0.00057045935,0.039468333,-0.01615046,0.08104237,0.08064807,0.12439752,-0.0035042935,-0.01485007,-0.060630992,0.13659781,0.2184309,0.09432473,0.005587544,0.014680107,0.11948574,0.118405834,0.27293134,0.12697352,0.04439249,0.12137394,0.048285656,-0.012703865,0.07095542,0.03422039,-0.11957046,0.014696865,-0.052673005,-0.026924338,0.028696088,0.034672886,0.005337615,-0.027320223,0.06334001,0.09403692,-0.061036237,-0.15663472,-0.18781623,-0.0701766,-0.14644526,-0.10241804,-0.2765129,-0.10177066,0.13995546,0.10665635,0.17154764,0.18294229,0.00247939,-0.012994529,0.02793909,0.029320143,-0.027329417,-0.063762665,0.035270885,0.037170056,0.05348481,-0.0057286685,-0.019671334,0.08508122,-0.030667689,0.021642476,-0.04094834,0.039470207,-0.0029469815,-0.16419426,-0.16470999,-0.22034705,-0.20786627,-0.2052897,-0.09994947,-0.070729464,0.096620545,0.03903461,0.11813596,-0.030741546,-0.052736912,-0.003762827,-0.0072030528,-0.010638845,0.07427658,0.0192453,0.0036384591,0.033819877,0.024924489,-0.02095358,0.016027905,-0.110607825,-0.097602926,-0.052450422,-0.036596186,-0.05771406,0.061673544,-0.083713435,-0.1829121,-0.2130764,-0.32226261,-0.13540708,-0.12622394,-0.18124942,-0.017047493,-0.07405725,-0.10550297,0.056459397,-0.03451058,0.10837,-0.0007924889,0.0043440415,0.008736333,0.011900878,0.0052241324,0.073531255,-0.04829964,0.033784304,0.05835272,-0.023635304,0.06475653,-0.060659073,-0.05183929,-0.016670907,-0.15317532,-0.05455341,-0.090328634,-0.038557485,-0.09153275,-0.2057059,-0.057913225,-0.021544466,-0.15817018,-0.04920966,-0.06103662,-0.04884608,0.053173132,0.021403229,-0.054165643,-0.015992576,-0.11641395,0.066112585,0.058141444,-0.012843901,0.123013385,0.08047663,0.033575613,-0.11518667,-0.0841847,-0.036565986,0.12443662,0.010666497,0.008552636,-0.014834986,-0.04181992,-0.11381593,0.063338146,0.010256213,-0.013913515,-0.0027661566,-0.048201606,-0.05984054,-0.0630683,-0.08017558,0.03037811,0.026173985,-0.013981819,-0.017884912,-0.038368743,0.033629816,0.010034924,-0.0024974123,0.011972135,0.052515764,-0.032670695,-0.06283581,-0.019057583,0.02531903,0.020101134,0.021656433,0.07796023,0.025471888,-0.020083578,0.046913005,0.12598805,0.057244975,-0.00719712,-0.04079466,-0.021151472,-0.03399303,-0.10265446,-0.0015397782,-0.026038079,-0.03985367,-0.001075803,0.041589476,-0.01305464,0.08977075,0.032698665,-0.01643975,-0.08352788,0.058324087,-0.09685371,-0.00017460775,-0.02160998,-0.09289844,-0.09510644,0.09320832,-0.02115856,0.000448532,-0.047457412,0.031392757,0.012560904,-0.09941568,-0.020180058,0.00048811774,0.021095425,0.036571264,0.05948605,-0.015940333,-0.07483761,-0.056982618,0.043441437,-0.01582909,0.026142064,-0.09993348,0.035609353,0.0074924873,0.016261768,-0.033636034,0.1137707,-0.052257795,-0.061367527,-0.005330069,0.07876906,-0.046130113,-0.004044463,0.0022365872,-0.0014211573,0.0028130303,0.021420155,0.06915738,0.018685007,0.042894024,-0.12012392,0.039049648,-0.012775035,0.012741257,0.02164137,0.020283975,-0.074141905,0.060027756,0.07674283,-0.061922576,0.029710235,0.0013742028,-0.0064365827,0.0101517625,0.061576754,-0.03536905,0.1499082,-0.023571968,-0.010960162,-0.0024621263,0.10513316,0.043193113,0.043307457,0.104954764,0.055312887,0.10296481,-0.035891566,0.07481084,-0.05649431,-0.0685368,-0.01589397,0.015100438,-0.01207755,0.07819916,-0.015551985,-0.0075000096,-0.035885256,0.04019573,-0.048367612,0.0057914257,-0.09852627,-0.055976298,0.024568483,0.10220769,0.008155049,-0.032111503,0.08311244,0.022953311,-0.008593669,-0.05953467,0.08734785,0.068955086,0.03276986,0.07193765,0.10156015,0.109607495,0.1820631,0.0377413,0.033865195,0.010607094,-0.058106598,-0.029462107,0.048765007,-0.051418904,0.051308412,0.022116482,-0.06881455,0.0031185937,-0.007816029,0.03616819,0.046225574,-0.00785269,0.034230273,0.05283141,-0.036597107,0.07132943,-0.04014639,0.031354927,0.07588984,-0.06920963,-0.083319455,-0.00045156316,0.13851355,0.0502704,0.16528556,0.18742624,0.056161813,0.10295907,0.02615696,-0.10736199,0.05552572,0.074503615,-0.028616557,0.052832685,-0.034560274,0.009776669,-0.009530963,-0.030181268,-0.0057334984,-0.006777998,0.044902626,0.059507538,0.064712554,0.011611909,0.040731844,0.21475342,0.14128123,-0.06216663,-0.11095333,0.10854532,0.18866977,-0.05146355,0.025988773,-0.013768236,-0.07782569,0.029933695,-0.09097997,-0.04209414,-0.109618895,-0.059090115,0.04002685,-0.05327816,0.11007849,-0.0045663873,-0.058680605,0.027828978,-0.023004437,0.0016328818,-0.011970903,0.044594646,-0.01846927,0.049445514,0.123295024,0.0863991,0.020102045,0.045804076,0.09016243,0.072141655,0.18923324,0.04323558,0.12652253,-0.047916733,-0.025191316,-0.1376727,-0.07335855,-0.11826495,-0.025436772,-0.028476413,-0.020394187,-0.10574815,-0.037436314,-0.032827016,-0.017131126,-0.053053636,-0.0063497894,0.031632382,-0.019339168,-0.019825343,-0.11696574,0.02800198,0.10469878,0.02493965,-0.1313568,-0.08049009,0.10141819,0.124278225,0.19030032,0.06149418,0.00040266727,0.0207198,-0.021006938,0.06328567,0.08214155,-0.001617335,0.14904518,0.016055865,-0.09550296,0.05117147,-0.012292081,0.0012423029,-0.053442955,-0.10746904,-0.113929495,0.038968027,-0.01798943,0.0021348626,-0.0649854,0.0685823,0.07342769,-0.06687539,-0.23158959,-0.22690527,-0.12654896,0.03889545,0.14555599,0.0820732,0.071229644,0.16707435,-0.02197751,0.022981985,0.24765629,0.18446212,0.1374199,-0.07517042,0.0005668306,-0.051841237,-0.03566954,-0.026097313,-0.010940169,0.047182634,-0.114185765,-0.0376939,-0.09210512,-0.12178846,-0.043677878,-0.08534542,-0.010574529,-0.07728581,-0.16204698,-0.29977632,-0.19283757,-0.053010464,0.10819059,0.022986881,0.03231216,-0.07861524,-0.15571408,0.0060659726,0.17281075,0.032114487,0.11839045,-0.08652158,0.027145298,-0.030227805,-0.07651816,0.02242999,0.031416316,-0.018893836,-0.060717683,-0.048717562,-0.08250098,-0.09222423,-0.18425754,-0.17060183,-0.13687773,-0.112251535,-0.22384228,-0.37868935,-0.3822252,-0.038004447,0.15235953,0.19132799,0.0067809215,-0.16949712,0.014139947,0.05652811,-0.04731986,-0.12309819,-0.08649002,0.0020936101,0.110201,-0.027514629,-0.0041629924,0.018297967,-0.059568465,-0.09113963,-0.013557589,-0.09825548,-0.10048782,-0.20060216,-0.2187026,-0.18285093,-0.087341,-0.19404191,-0.34311023,-0.5154243,-0.34849483,0.069818966,0.21043772,0.044653624,-0.16668683,-0.005440553,0.07637418,0.06009295,-0.06799688,-0.11251465,0.019251887,0.017649477,-0.027923845,-0.09391947,0.05535313,0.042174716,-0.09439419,-0.052681703,-0.090315595,-0.091727324,-0.085899815,-0.13033648,-0.11342692,0.036889073,-0.01257942,-0.24497478,-0.36587393,-0.45006102,-0.15937753,0.034719583,0.23473704,0.027289297,-0.026560187,-0.19553168,-0.1629305,-0.19956288,-0.18001837,-0.09012359,-0.09734313,0.071581066,-0.038756635,-0.06460392,0.04410136,-0.025398098,0.058453478,0.0028368619,-0.07456727,-0.06898114,-0.0015796284,-0.14825381,-0.06480999,-0.055037107,0.054342322,0.02798165,0.026276696,-0.078749105,-0.12264111,0.09768262,0.08244181,-0.036560856,-0.04042206,-0.19959049,-0.09511854,-0.12595472,-0.076814465,-0.07818909,-0.047421888,0.004349207,0.020580499,-0.03480063,0.0305971,-0.024563788,-0.024519872,-0.03639979,0.051449314,-0.04237609,0.029834565,0.103954926,-0.08023247,0.011281197,0.07884206,-0.007941222,-0.024040071,-0.05398144,-0.09525292,0.02342747,0.19858773,0.04772018,0.009582608,-0.14877152,-0.06089237,-0.02279657,-0.053302288,-0.059809532,0.014785689,-0.06458444,-0.014820443,-0.0015402535,0.015344207,0.01895172,-0.0013061909,-0.027702117,0.06550879,0.08678792,0.07240966,0.058438588,-0.017211387,-0.06552315,-0.06604273,