{"version":1,"layers":[{"Relu":[784,128]},{"Softmax":[128,10]}],"seed":"185812780","error_function_type":"CrossEntropy","meta_data":{"accuracy":0.9765,"error":0.012546097,"epochs":10,"duration":{"secs":256,"nanos":438559625}},"weights":[{"v":1,"dim":[128,784],"data":[0.026571035,0.004958886,-0.11329721,-0.033838812,-0.012396055,-0.082452044,0.043878317,0.051868394,-0.07108926,-0.008965212,-0.022814881,-0.030227674,0.021832552,0.013478948,0.008517116,-0.13625908,0.056538913,-0.10221188,-0.035848685,-0.10207341,-0.003455289,-0.07509414,0.035511244,0.05583669,-0.0773447,-0.099571474,0.027432648,-0.01849446,0.023264784,-0.0647182,0.0139598865,-0.02350398,0.008228948,-0.03594853,-0.067347385,-0.05843803,-0.06984168,0.1773392,0.04760445,0.124886654,-0.057517618,-0.03488217,0.0333675,-0.07544422,-0.012242476,0.05508098,-0.020459233,-0.027858058,0.026195413,-0.028651353,-0.0019480877,-0.026204843,-0.07010604,-0.025291469,0.08231963,0.04158689,0.008616012,0.017482359,-0.011776074,-0.026363125,-0.048174955,-0.062557526,0.0018779006,-0.000100203586,-0.046362344,0.017215436,0.025219658,-0.08828863,-0.07224619,-0.2041797,-0.11921416,-0.0088746,0.0069748834,-0.057667524,-0.12499918,-0.07689579,-0.06860626,-0.017887887,-0.079870045,0.0047816513,0.008396011,-0.0010356017,0.06527349,-0.012732364,-0.00830136,0.04337095,0.039091073,0.048682123,-0.012353295,0.04675364,-0.0033758676,-0.1529274,-0.058176983,-0.11513685,0.0012412181,-0.10842304,-0.10024743,-0.1122682,-0.05303106,-0.043991838,-0.07334381,0.0050493884,0.0010596314,0.054800045,-0.024654962,0.00034587635,0.014462432,-0.07857683,0.002605181,0.016009413,0.017237468,0.0017837702,0.041947242,-0.055848405,-0.051509526,0.10692061,-0.042699225,0.07217247,-0.11877499,0.028374437,-0.1948105,-0.11548336,-0.12026424,-0.08789382,-0.19388135,-0.080414504,-0.23394178,-0.08585967,0.02729741,-0.0039664945,0.10127702,-0.011944218,-0.09370859,0.026210831,0.106068894,0.043294273,0.15744102,-0.006920434,-0.048691917,0.07884412,-0.038799554,-0.03758151,0.059556693,0.045575928,-0.035583254,-0.037990283,-0.08920403,-0.049092885,-0.06328536,-0.059336055,-0.05317677,0.10053326,-0.047972463,-0.09220962,-0.23082949,-0.097996905,-0.09053218,-0.056961883,0.059704807,-0.11388209,-0.027140265,-0.043012746,-0.008001069,0.038012963,0.025425151,0.0314039,0.09154378,0.026778152,0.06554597,0.02694351,-0.04922561,0.07064099,-0.04105711,0.1342615,-0.1113174,-0.041714653,-0.08731405,-0.15940182,0.05751921,0.12532437,0.049537666,0.0328979,-0.010778865,-0.028368605,-0.08046387,-0.04264952,-0.050463576,-0.20950218,-0.15036409,-0.075034685,-0.08867893,-0.052642554,0.023908153,-0.010679608,0.016321706,-0.020113232,0.03980212,0.012615072,-0.052113354,-0.0024929284,-0.039140232,-0.096925184,-0.08282105,-0.20467977,-0.1668605,-0.13338104,0.08180588,0.0344751,0.007357841,0.002959031,-0.009724225,0.03825954,-0.0042655393,-0.053884357,0.018020255,-0.12956405,-0.09309727,-0.018369656,-0.105822116,0.002454823,0.04900363,-0.010511806,0.014050584,-0.06965683,0.045988273,-0.07947454,-0.051903013,0.04270143,-0.12290936,-0.12012227,-0.15579976,-0.22718355,-0.072681814,-0.041363336,-0.06980162,0.037386782,-0.059856102,-0.11372305,0.039575472,-0.046170343,0.015253289,0.07661935,0.0018633913,-0.090448305,-0.07164477,-0.055732343,-0.057018925,-0.118606254,0.08331383,0.038709536,-0.1034853,0.07243168,-0.052582618,0.009356409,-0.00645544,0.046606723,-0.099109724,-0.11230268,-0.032663412,-0.16476384,-0.04098993,-0.024410037,0.019774118,0.14338367,-0.06748839,0.053256556,-0.10885313,-0.051791534,-0.049860295,0.082151175,0.08386578,-0.062285107,-0.12318371,-0.07736407,-0.20846747,-0.11485331,-0.053776328,-0.0013167445,0.014351789,0.05169059,-0.036578726,-0.070230134,-0.05270192,0.0061516655,-0.12418415,-0.09240073,-0.048654906,-0.11617204,-0.15707985,0.024484161,0.10791907,0.13363998,0.12790747,0.012152295,-0.041973263,-0.009334406,-0.02877663,-0.05298276,-0.013653683,-0.13913085,-0.0914612,-0.08653306,-0.13551043,-0.13896129,-0.0077256933,0.054388747,-0.00757186,-0.09475519,-0.019964319,-0.036192253,0.07413713,0.023496713,-0.04268617,0.0150522515,0.021464339,-0.09127308,0.015906455,-0.012689417,0.022282908,0.051612485,-0.0059223445,-0.066419214,-0.090642124,0.13973828,0.03553396,-0.004695739,-0.0806464,-0.025751682,0.08903713,0.06363281,-0.06012253,-0.069522396,-0.056885954,0.043017454,-0.03823313,0.05619237,0.00084982225,-0.05666697,0.006096375,-0.024838297,0.016022699,-0.09356574,0.082777165,-0.18690169,0.050794616,0.07009728,-0.05506779,-0.27671695,-0.15472741,0.048264284,0.2291295,0.17060344,0.10171004,0.025972936,-0.040819824,0.15334347,0.1646118,-0.10793056,-0.04365251,-0.05387952,-0.12569402,-0.100525476,-0.05782257,-0.007643808,-0.00566983,0.056817096,0.05154776,-0.0283177,0.007674994,-0.1454823,0.0005651536,0.12800644,0.07905088,-0.014388872,0.046043497,-0.08861024,0.020401627,0.17709276,0.031722467,0.10694549,-0.032832976,0.090563044,-0.056964867,-0.038832974,0.005688203,-0.02986926,-0.14137739,-0.10891397,-0.060889956,-0.01402273,0.060336802,0.043040246,-0.028516706,-0.016279805,0.013058043,0.004460771,0.01234872,-0.017152775,-0.16494858,0.032478668,0.009773648,0.1808726,0.12809105,-0.053759217,-0.018031113,0.071209155,-0.13370053,-0.055547982,0.020904014,-0.08082039,0.01330926,-0.08531039,-0.04710814,-0.24403548,-0.10148797,-0.17683107,0.020641588,-0.00789609,0.03375397,-0.024254853,0.012029964,-0.09881138,0.016999848,0.073720634,0.114772044,0.10960224,0.032631554,0.03780701,0.18523555,0.07720243,0.07380992,-0.03303233,0.11750621,-0.0002550213,-0.052614562,0.103963956,0.021277787,0.13496739,0.041749366,-0.036953013,-0.09386598,-0.1066219,-0.048556928,-0.2307009,-0.025190206,-0.098098926,0.09024867,-0.0001360869,0.013142697,0.012671783,0.02324015,-0.04154963,0.06093146,0.17674455,-0.04126197,0.30392215,0.18675263,0.26394156,0.1881479,0.11961379,0.31152552,0.14545017,-0.013737304,0.06182391,-0.110481314,-0.07169316,-0.00072404294,-0.03622307,-0.04385273,-0.048163794,-0.043104563,-0.06963892,-0.031077823,-0.018272933,0.016347492,0.03776984,0.033892844,-0.034833115,-0.024906442,0.05015105,-0.018666806,0.07547054,-0.00019273107,0.1954802,0.20125148,0.30970445,0.33813703,0.43248305,0.46869275,0.33876967,0.20649333,0.17059954,-0.10647138,-0.030244952,-0.05442532,-0.11244461,-0.14378208,-0.08047785,-0.059024364,-0.01821353,-0.12519541,0.007574181,0.06690951,0.01792163,-0.03953807,-0.03869689,-0.086941935,0.04166597,-0.0017297012,0.102430016,0.107510366,0.14922746,0.17599432,0.19711031,0.3308012,0.36771706,0.22158214,0.10074603,-0.008896126,-0.090766825,-0.03110067,-0.02278521,-0.03192797,-0.072321765,0.03249094,-0.017963476,-0.021402115,0.050540887,-0.051368088,-0.018316345,0.010957732,-0.08179104,0.004842208,-0.028207354,-0.04731533,0.07278337,0.08595883,0.04875909,-0.0344274,0.0046618655,-0.16368736,-0.079802744,-0.00516822,-0.13601719,-0.33832103,-0.43338373,-0.25450635,-0.11343204,-0.018719623,0.14836033,0.13379046,0.18567975,0.03947328,-0.009908908,0.04406214,0.13717137,-0.07254754,0.09326265,-0.024579246,-0.029205943,0.06959642,-0.066201076,0.08823112,-0.110518046,0.12197421,0.038572237,0.09235641,-0.086224034,-0.11257407,-0.22108977,-0.41916072,-0.5209453,-0.6601397,-0.4634988,-0.19753994,-0.045366134,-0.023851033,0.12400968,0.15932108,-0.004658183,-0.020464258,0.06424386,0.061114505,0.06557988,0.09143423,0.08108646,-0.061840244,-0.09937914,0.004335766,0.013535028,-0.035778485,-0.027156074,0.079721384,-0.038660616,-0.013736008,-0.14724639,-0.26743174,-0.25944,-0.3478474,-0.3839255,-0.50099266,-0.28103805,-0.051420424,-0.06251593,-0.05917265,-0.109580584,0.047379117,-0.124759585,-0.09825519,-0.04205276,-0.043288745,-0.002421019,0.018122265,-0.098657414,0.02924523,0.000028427727,-0.00844557,-0.05361878,-0.02027216,-0.015160008,-0.07278696,-0.043119058,-0.029500462,-0.13884929,-0.2189322,-0.40738136,-0.33247352,-0.18570362,-0.14143954,-0.056293987,0.002130337,-0.0712812,-0.19151437,-0.16600098,0.0044694627,-0.1612014,0.0036258243,0.014579347,0.07973004,0.00024647574,0.018519457,-0.034337204,0.048689976,-0.07544333,0.04402201,-0.0029993986,-0.06359483,0.054878265,-0.03796526,-0.08410405,-0.11621659,-0.15118086,-0.24223949,-0.21117194,-0.11506681,-0.0013558398,-0.06736009,-0.08503337,-0.006073384,-0.07695429,-0.035468485,-0.13944565,-0.09355445,-0.07837694,0.060587734,0.0826711,0.14475422,0.13370019,0.045895282,-0.013154084,-0.031066397,0.03475132,-0.013379818,-0.021237116,-0.04908093,-0.012774661,0.045107458,-0.029189246,-0.026805526,-0.04189544,-0.011094706,-0.12980129,-0.035624757,-0.02233861,0.08682156,0.039017294,0.058508378,-0.022154266,-0.19106378,-0.10617514,-0.040737662,0.09141506,0.061102413,0.1756607,0.03688798,-0.011030448,0.07053311,-0.029690579,-0.011524167,0.013836424,-0.012671228,0.034963652,0.005404093,0.01739544,0.050882414,0.11255634,-0.008898799,0.05449561,-0.058510024,0.06918485,0.0017419218,0.0032104782,-0.102104165,0.022936078,-0.017235689,0.08649687,0.2602673,0.079333276,0.04291142,0.06869893,0.021655258,0.014447393,-0.040413488,-0.022747468,0.04084515,-0.0087824715,-0.0041938927,0.042705163,0.08741797,-0.021942932,0.03256204,0.051045053,0.0014697763,0.02665286,0.041607436,0.016484682,-0.020794591,-0.015503451,-0.006932917,0.05513233,0.08624248,-0.057802364,0.05475629,-0.005216711,0.097778484,0.021588003,0.06690705,-0.012840931,0.028822722,-0.04609395,-0.017358614,0.084391594,0.14181274,0.081901215,0.00445303,0.04749336,0.0534318,0.13923621,0.061408162,-0.011267176,0.0016162546,-0.07360527,-0.08694186,0.074979074,0.10173967,-0.06551271,-0.019929497,0.18511067,0.057722207,-0.061169025,0.016161446,0.005258056,-0.05333105,-0.046186194,0.019758562,0.0817026,-0.020735681,0.06181175,0.04589006,0.04899116,0.020084873,-0.09352094,0.015518379,0.009540816,-0.016502624,-0.059128266,0.004084946,0.0074802055,-0.060574166,0.0014086865,-0.015777135,-0.038048454,0.027645165,0.0427619,0.014054601,-0.06865655,-0.025994888,-0.014746803,0.0054621836,0.106799655,-0.00050552655,-0.022742258,-0.014228668,0.09805882,-0.0226419,0.13453631,-0.01732118,-0.016932607,0.041015346,0.073720835,0.039962884,-0.019435676,-0.05793392,-0.08513165,-0.10270705,0.038593452,-0.0106865205,-0.014477576,0.0053764754,0.039149277,-0.028639633,-0.040153585,-0.06497047,0.09305,-0.028608201,0.13749146,-0.01249828,0.0001887845,-0.036448788,-0.044281688,0.02239434,0.0396604,-0.06785648,-0.01904693,-0.039808698,0.056091808,0.019424407,-0.06113891,-0.07107765,-0.021916762,0.042162985,-0.09286206,0.021978797,-0.0114782015,0.0019453791,0.037492637,0.01001821,0.07388621,0.0030384704,0.022785693,-0.028789252,0.011951604,-0.13278931,0.05725822,-0.053176314,0.00517641,-0.08467695,-0.10432882,-0.030724274,-0.074816905,-0.001047005,-0.08942106,0.009318867,0.033719677,-0.086970605,-0.013154963,-0.012628063,0.00021633999,0.013895756,-0.01395936,-0.003196909,-0.035149932,-0.0071047167,-0.017166058,-0.052289326,-0.014243903,-0.12256143,-0.049753454,-0.056723148,-0.00295329,-0.04044447,0.05895437,0.036199544,-0.090088114,-0.051745426,0.026376752,-0.043017887,-0.028475396,-0.0814837,-0.0044331313,-0.027452419,0.0031000706,0.0364416,0.03078218,-0.06418332,-0.025134565,0.058618493,-0.008370981,-0.06151289,-0.028693443,0.08700877,-0.01616235,-0.025250953,0.027835581,-0.023881333,0.07934396,-0.056068018,-0.03790417,0.053953115,-0.019197375,-0.034845043,-0.052167363,-0.06660409,0.022573778,-0.1448482,-0.048727714,-0.08348871,-0.016829973,-0.031052314,-0.08021134,-0.05993405,0.13694212,0.038382526,-0.013434792,0.056058295,-0.038789954,-0.011591621,-0.103498735,-0.032167178,-0.026758604,-0.011031494,0.07119507,-0.06899654,0.03544075,0.06121932,0.09979479,-0.067514904,-0.016179252,0.032565832,0.03810078,-0.0892599,-0.09646239,-0.11429862,-0.12465322,-0.046684034,-0.06937147,-0.03159555,-0.0040798914,-0.057088226,0.042973097,0.010889658,0.010380202,0.020334745,0.05232611,-0.06600894,-0.03747873,0.10130626,-0.15165254,-0.14436366,-0.09511298,0.02800122,-0.07460921,-0.03206234,-0.08692536,-0.10613017,0.05338332,0.30825356,0.23365495,0.17119741,0.113402404,0.0147411255,-0.18267834,-0.21150072,-0.2787212,-0.061225016,-0.041100048,0.02036412,0.007013805,-0.012078727,-0.00046186862,-0.005691925,-0.0707971,0.013895442,-0.023122054,-0.043821417,-0.0029847473,-0.043612145,-0.0570094,-0.0116835935,-0.12725292,-0.01249089,0.08058404,0.1902658,0.4257517,0.4705755,0.5012912,0.21261103,-0.066812575,0.0017984234,-0.093342304,-0.25768018,-0.20761749,-0.11565468,-0.161825,0.066847056,0.046263292,0.012389973,0.023481375,0.049245395,-0.03098263,-0.022976562,-0.056120586,-0.114821814,-0.17402954,-0.032455456,-0.058443513,-0.02505394,-0.101800285,0.16262098,0.28340724,0.3520128,0.3822003,0.08061268,0.22353986,0.14449789,0.18449277,0.18833964,0.015671486,-0.07527175,-0.14629716,-0.12260493,-0.067364074,-0.062836505,-0.024547366,0.044648286,-0.012897165,-0.031385332,-0.011913646,0.012149653,-0.055428747,-0.13194239,-0.18893847,0.06250102,-0.09863282,0.14573961,0.13390248,0.24226318,0.11394026,0.030498138,-0.020455616,-0.1325144,-0.016436426,0.18923698,0.22745313,0.13349609,0.044806328,0.029634954,0.09556024,-0.10276714,-0.05195659,-0.10018424,-0.0058625815,-0.011716954,-0.00724281,0.13489468,0.04325554,-0.045432635,-0.031479735,-0.12734248,-0.0053021847,0.022421103,0.23978154,0.2583056,0.080771446,0.231723,-0.007967694,-0.07823006,-0.12144406,-0.038236976,-0.019534897,0.0790998,0.20945598,0.10035805,0.026060065,-0.074919164,-0.024942243,0.073102385,-0.041156843,-0.043523084,0.10221021,-0.007965885,0.028581087,-0.0023391736,0.023035998,-0.01281462,-0.047607005,-0.056932345,0.023216004,0.047482796,0.14982541,0.05439731,0.0069441814,-0.06544917,-0.09927212,-0.05899429,0.10930236,-0.12448168,0.042056516,0.13147208,0.3135813,0.22366174,0.032692548,0.014304226,0.05842949,0.018263891,0.04410265,0.013745297,-0.06310533,-0.011268709,0.0063373675,-0.06114979,-0.02722845,0.03942227,0.07128449,-0.010730714,0.010235569,0.0639905,0.0336655,-0.07296174,-0.049234696,-0.14475591,-0.06248846,-0.08189882,0.07756276,-0.03984632,-0.07525111,-0.09613417,0.15731485,0.106809236,0.18393582,0.14146815,0.050751437,-0.06068134,0.07618211,-0.03897515,-0.015234545,-0.009794459,-0.12042202,-0.07635187,-0.112541184,0.009116009,0.072957635,0.01537118,-0.023526423,-0.07537243,-0.13585235,-0.12810726,0.09195569,-0.049191803,-0.034399405,-0.011329028,0.02200672,-0.123215646,-0.1536578,-0.17763482,-0.18579698,0.012212881,-0.0006323282,-0.0229913,0.015949745,-0.0225493,-0.110666625,-0.025194025,0.0645903,-0.07829553,0.019857798,-0.030199464,0.04817151,-0.04157917,-0.0040920274,0.09370865,-0.09567042,-0.15828148,-0.083403766,-0.17003086,-0.08821728,-0.18371964,0.003426745,-0.003757721,-0.11068201,-0.08821098,-0.05686244,-0.1889866,-0.089070305,0.14509872,-0.15557936,0.0004399247,0.02443937,-0.038654603,-0.09996969,0.08876068,0.037585225,-0.051330168,-0.019381741,-0.04159792,0.009011745,0.031914286,-0.052083034,0.014491267,0.042668227,0.011174495,-0.06486118,-0.0508066,-0.12850285,-0.078590155,-0.09708488,-0.10458958,-0.10261675,-0.106992476,-0.0464581,-0.035584595,-0.1846191,-0.08618232,-0.14300792,-0.059890516,0.05400217,0.083037645,-0.06226182,0.16053656,0.020760635,-0.011722675,-0.01990382,0.055846825,-0.057198558,0.08137512,-0.072444394,0.1344656,-0.06308036,-0.1002163,-0.12888967,-0.12587978,-0.17288391,0.007104483,0.0016890914,0.05671425,-0.058509417,-0.1227556,-0.1752006,-0.08027826,-0.15241282,-0.19469008,-0.26210213,-0.11917826,-0.08577313,-0.0053952485,0.10428494,0.035297237,-0.032632463,-0.021376435,-0.04944938,-0.0012205984,-0.021904353,0.012997487,0.0120493015,-0.11732584,-0.10193658,-0.11713664,-0.058045413,-0.15398288,-0.20156188,-0.033051006,0.021553496,0.043286517,-0.10740232,-0.04957211,-0.18788426,-0.18001258,-0.19770941,-0.14032324,-0.12222685,-0.11782194,-0.19466467,-0.08221085,0.1528957,-0.019311152,0.059762802,-0.066758156,0.05379814,0.0013825753,-0.013569881,0.09891154,0.04707715,-0.13645403,-0.0036143463,0.022001524,-0.068251066,-0.086378075,-0.039901655,0.064698026,0.040369704,0.10803506,-0.12902394,-0.19033381,-0.15973665,-0.12662642,-0.112352125,-0.029921189,0.050619043,0.020177003,-0.09487232,-0.023368714,0.021624308,0.004959589,0.06443477,0.039398123,0.011654235,-0.08762742,-0.018409727,-0.050212525,-0.07765725,-0.089781135,-0.1132439,-0.032162506,-0.023734136,0.050795387,-0.18820879,0.020502847,0.043218154,0.017106803,-0.03478186,-0.2474477,-0.09756048,-0.008373974,0.046657063,0.13839217,0.04932507,0.03888391,0.04567665,-0.042882208,-0.069611944,-0.015506561,-0.05488761,0.051473223,-0.05667296,0.013741918,-0.06942134,-0.056742843,-0.029067976,0.053702123,-0.011370685,0.013319189,-0.030934991,-0.07383459,-0.10776514,-0.032026924,-0.108959936,-0.09308707,-0.0906937,-0.053049676,0.048471645,0.20467283,0.24410424,0.13882545,0.2217488,0.11092509,0.0063048177,0.043956365,-0.10097832,0.0936095,-0.0498642,0.00053584814,0.035090983,-0.05972731,0.009277889,-0.060376,0.045463555,0.076178476,-0.14573076,0.03906093,0.009417338,-0.12762032,-0.08151409,-0.07419469,-0.049468607,-0.121747285,-0.04365027,0.027995557,0.21208668,0.16711988,0.24155489,0.13951614,0.005436863,0.03324768,-0.11693696,-0.08450722,0.010538608,-0.05193377,-0.016956063,0.035778835,-0.016103905,-0.072110444,-0.08134888,-0.017027609,-0.010855922,0.08113377,-0.017292392,0.009554584,-0.026322633,-0.08268237,-0.11394228,-0.09358017,-0.0051160944,0.059872612,0.07332079,0.35063893,0.22326104,0.07573901,0.022583341,-0.051494047,-0.19190502,-0.08683672,-0.17699403,-0.015830712,0.01661034,0.054301772,-0.09132119,0.021761782,-0.04400597,-0.0025818886,-0.021032844,0.06633143,0.008059476,0.050103836,-0.019924251,0.004137456,0.03803296,0.06507863,-0.081486315,-0.028404938,0.15824467,0.10011492,0.15183271,0.22219145,0.30811137,0.10587346,0.008493726,-0.16995761,-0.12379937,-0.09573775,0.091545,-0.024480699,0.004185166,-0.005489046,-0.07506058,0.02483373,0.023322864,-0.04709712,-0.047446266,-0.060286622,0.06514069,0.08806033,0.0112918755,-0.073395066,0.016828923,0.09550727,0.0832813,0.14720139,0.0131851565,0.11821129,0.18352419,0.15798177,0.12893881,0.13773924,-0.13519806,0.008981141,0.05710349,0.09082195,0.0709579,0.0808986,0.104921654,0.04190344,0.10994612,-0.030683631,0.0097469315,-0.03770865,-0.018578947,-0.051388588,-0.0031768603,0.05077649,0.0798233,0.049123574,0.00391735,-0.010258088,0.020267142,0.121165305,0.12943566,0.01736331,-0.05359127,0.040601056,0.018225154,0.12549351,0.14254884,0.065217145,0.029054368,0.08404706,0.06518918,-0.008107171,-0.014766473,-0.053053364,-0.115619235,0.029424677,0.031944223,-0.023289181,-0.018574677,0.029063074,0.002115009,-0.020214424,0.02286159,0.15014786,-0.001009387,-0.11270524,0.040462617,0.15132044,0.085495286,0.12440772,0.02629037,0.061840095,-0.05316998,0.18311131,0.12673004,0.031205848,-0.014297349,0.07641434,0.11363209,0.033840775,0.019533515,-0.023303144,-0.014898222,-0.00928537,-0.041747265,-0.005284729,0.011998276,-0.079891905,-0.0051190313,0.009689448,0.026965609,0.0013183359,-0.03936289,0.01338683,-0.0597317,-0.13217627,0.0053260047,0.02085929,-0.0615375,-0.04432059,0.015443699,0.013440803,0.02350857,-0.016917396,0.06539157,0.03533691,0.009624811,0.00024198284,0.021801572,-0.0066366,-0.04713606,0.015991194,0.01390936,-0.09614215,0.016757622,0.080726415,0.0737826,-0.008918712,-0.034878194,0.04498279,0.052580602,-0.0549371,-0.112698965,0.01159824,0.04460656,0.07545322,0.03454094,0.014393862,-0.07394822,0.04121798,-0.00807072,0.01643851,-0.06921039,0.0171114,-0.075174935,0.094548516,0.027459789,-0.07996866,-0.008470459,0.012771532,0.034522124,0.11067743,0.07445134,-0.010758683,0.024992857,0.023483152,-0.0051818145,-0.07255892,0.014582986,0.015871674,-0.07275359,0.049906816,-0.013237072,0.040439557,0.0031472791,-0.017075349,0.047665805,-0.01676093,0.021406991,-0.008073122,0.024245275,-0.040718667,-0.014053785,-0.045406986,0.03469686,0.01845904,0.019963942,-0.00503059,-0.040823344,-0.10838506,0.049347017,0.05098561,-0.045003373,0.014056617,-0.070390336,0.043825913,-0.1097969,0.020709667,-0.0319359,0.0129547315,-0.01922826,-0.08206774,0.020647265,-0.08741322,0.048592675,-0.0067250514,-0.042684384,0.0650826,-0.0059773736,-0.018304318,-0.0038078215,0.022026345,0.14430961,-0.0055409283,-0.04391669,0.013525323,-0.011827484,0.058982376,0.026992092,0.012264728,0.047192816,-0.039087553,0.041530803,-0.013356773,-0.04772427,0.0046873437,-0.11938353,0.036194824,-0.08101085,-0.020215819,-0.09128988,-0.08655832,-0.1543484,0.07900128,0.036438312,-0.040362753,0.009670067,0.018188952,-0.054503098,-0.100126654,0.011161249,0.006398713,0.0032520446,-0.031126808,-0.043469604,-0.13088064,0.007945444,-0.015995642,-0.04669194,0.06901714,0.062788755,-0.0042575654,-0.091004804,-0.028996363,-0.029035086,-0.045229513,-0.062566206,-0.009213107,0.00022827987,-0.19134879,-0.14895618,-0.061935287,0.042943798,-0.023825716,-0.0010079661,-0.0043575033,0.013852981,0.09910392,-0.11474322,-0.036771342,-0.10511135,0.009809889,-0.003381749,0.09203733,0.015093401,0.026520746,0.012340522,-0.033373438,-0.018426789,-0.047152307,-0.04498533,-0.014243285,-0.07864418,0.17032927,0.031030359,0.029021936,-0.036789488,-0.25655323,-0.29545635,-0.09566701,0.08657958,0.10450584,-0.0070563084,0.074706085,0.09940749,0.040021632,-0.0056595867,-0.048216727,0.04436985,-0.030744739,-0.0516629,-0.018282317,0.03433629,0.02859571,-0.020197818,0.017031636,-0.1043619,0.1682296,0.057323843,0.086961776,0.052564982,-0.046668954,-0.10141,-0.016902031,-0.01965389,-0.28916895,-0.18287776,-0.03626205,0.0014221856,0.18495008,0.23742756,-0.035715796,0.06434401,0.03240593,0.12697563,-0.045056798,0.042094097,-0.0021295212,0.037478514,0.04914307,0.0061159753,0.029199455,0.023751304,-0.07672471,0.0068816324,0.04644694,-0.08738312,-0.035886407,0.01090825,-0.043340042,0.05444432,0.11115623,-0.23826289,-0.40557426,-0.31479898,-0.091820054,0.21676406,0.18257825,-0.007869292,-0.15054521,-0.089582875,-0.012820423,0.076549985,-0.030877616,0.02120125,-0.07619791,0.023324931,0.059772756,0.017395783,0.017400784,0.028662816,-0.00061043864,-0.0027639628,-0.059937563,-0.03023819,-0.1620517,0.007915133,0.10163575,0.07100524,0.11029165,-0.13810012,-0.29673773,-0.36771083,0.12590647,0.3229787,0.13585609,-0.2971417,-0.11661132,-0.06887304,-0.1616909,-0.03897493,0.044843588,-0.020290552,-0.039256364,0.06997766,-0.009981952,-0.060889248,0.050532665,-0.024663009,-0.05362048,-0.13673826,-0.042352635,-0.12336705,-0.01847249,-0.011206633,0.041803006,0.16461782,0.09837834,-0.17696063,-0.4040957,-0.19214447,0.22271974,0.26457042,-0.0039691376,-0.32375783,-0.18126413,-0.0781001,-0.109261245,-0.14800444,-0.11450528,0.0045915805,-0.027592711,0.035487138,0.07489638,-0.04755458,0.053006895,0.056265216,0.028560849,-0.011299501,-0.18565027,-0.107677706,-0.04572326,0.09939433,0.07171454,0.19909818,0.06507904,-0.34663036,-0.478481,-0.100937225,0.12917358,0.25497124,0.0016643017,-0.13622127,-0.091491885,-0.049397387,-0.1036288,-0.19326346,-0.025054684,-0.027833203,0.03592733,0.02273695,-0.044445157,0.07910893,0.006562993,0.051880088,0.07903351,-0.0147460215,0.033343725,-0.11229803,0.092878394,0.15605313,0.18888663,0.33414966,-0.0700225,-0.36235133,-0.29533336,-0.08390726,0.1931412,0.10820755,-0.03213793,-0.15259832,-0.19243442,-0.1297198,-0.06820265,-0.08023791,-0.059365124,-0.016858464,0.05765283,-0.019554395,-0.007861061,-0.039958056,-0.0024522091,0.01043836,0.012965342,0.018495971,-0.01437626,-0.10355712,0.100151874,-0.016004127,0.31530288,0.25460774,-0.02915739,-0.16001703,-0.28518066,0.0018890642,0.17048119,0.12538368,-0.058698002,-0.14097328,0.026026342,-0.050398927,-0.07584,-0.13673936,0.0144911,-0.059744935,-0.046209775,-0.01988046,-0.018027395,0.0509133,-0.0055618044,-0.0044619525,0.030937677,0.12394467,0.12278889,0.11160341,0.27930483,0.017077597,0.088109575,0.082962245,-0.23959891,-0.16743839,-0.20671354,0.061991014,-0.044352636,0.093049556,0.030813769,-0.10224102,0.0876026,0.070043914,0.039272223,-0.057948913,-0.11654707,0.018484414,-0.08370247,0.014959844,-0.010479798,-0.006952458,0.042387422,-0.03548548,0.028708244,0.22932516,0.30513135,0.13092409,0.16106704,0.11737221,-0.0000972799,-0.17918798,-0.120311745,-0.15010157,-0.08259185,0.06596756,0.0030658366,0.077532075,0.09101419,0.33298323,0.0480089,0.12478879,0.2160491,0.074037775,-0.018895585,-0.108065814,-0.004013734,0.015887877,-0.033271026,-0.072658494,0.018345945,0.054572135,-0.0028428223,0.079696484,0.18158017,0.2260402,-0.0422692,-0.05259592,-0.0026687982,-0.012829737,-0.011824416,0.082214884,0.15155204,0.21408859,-0.027888266,0.015829783,0.035111893,0.19062974,0.12813081,0.15707903,0.09062567,0.07562356,0.001942881,0.011554206,0.084288776,0.031113405,0.005537605,-0.08265457,0.05474379,0.09702067,0.037408214,-0.06954791,0.17997591,0.11673249,0.055905145,-0.17607398,-0.14610842,-0.18864119,-0.009140092,-0.115858465,0.084168755,0.20991711,0.025073437,0.020098172,0.1782215,0.108250685,0.05343168,0.09490452,-0.02042273,0.019913044,-0.013967097,-0.04678837,-0.067571156,-0.057529707,0.010448019,-0.008313842,0.045056604,-0.012006078,0.076068416,0.09436037,0.08336278,0.10754544,-0.023135709,-0.084097415,-0.10217136,-0.18219848,-0.3043422,-0.14621554,0.041231405,0.05713572,-0.10250566,0.05916382,-0.05587894,-0.098483294,-0.11447436,0.0325289,0.0059862006,-0.15967345,-0.035516102,0.03939484,0.09589605,-0.057365566,-0.098595254,-0.0056598615,0.065418236,0.067090146,0.048988942,0.0039360095,-0.059414368,-0.065626785,-0.13419284,-0.08736035,-0.039536834,-0.16857836,-0.19389692,-0.013824472,0.05960393,-0.09760612,-0.13924061,-0.08557701,-0.14405781,-0.21245301,-0.09039927,-0.048342478,-0.21198198,-0.13375017,-0.036427382,0.04701751,-0.02176318,0.016496085,-0.11699905,-0.053412825,0.077563114,0.0071111294,-0.056495577,-0.05946655,-0.10088222,-0.05755164,-0.1692295,-0.05146495,-0.22045134,-0.19390209,-0.16099544,0.028195871,0.14607663,-0.081918746,-0.2408196,-0.06982012,-0.13341816,-0.17233276,0.033352442,-0.10919128,-0.13782816,-0.10190329,-0.036603633,0.027574873,0.08334931,0.034302957,-0.032111645,-0.036593277,-0.027604096,0.06780078,-0.022360021,-0.117021464,-0.08001591,-0.077372395,-0.07040128,-0.14558214,-0.09330815,-0.12899187,-0.2257209,0.0066563827,0.03580822,-0.056065336,-0.13217208,0.10666132,-0.005616817,-0.03134713,-0.0674877,0.031233275,-0.0915148,-0.042777386,0.05327419,0.027161527,-0.010884828,0.047668897,0.022227168,-0.04618754,-0.022058649,-0.060710873,-0.039190676,-0.056299772,-0.03681847,0.017776657,-0.03347667,-0.12661862,-0.10457628,0.026635662,-0.055678457,0.04424689,0.11288014,0.0068164105,0.023156328,-0.046483617,-0.0819502,-0.05837638,-0.03196129,0.053444885,-0.035751864,0.008979513,0.035558928,0.020812431,-0.12635092,-0.00059582206,-0.07851778,0.06311595,-0.09024622,0.02136512,-0.052330405,-0.15481949,-0.019693147,-0.12611166,0.0044283005,-0.11786408,-0.07692968,-0.036572278,-0.042860124,0.07550877,-0.016676003,0.04519008,0.08605566,0.014540467,0.019158116,0.028112313,-0.020165814,-0.016998794,-0.047544025,0.012829163,0.13485861,0.14219368,-0.013397241,-0.019995544,0.00027576662,0.033263255,-0.060827747,0.05012794,-0.012831423,-0.06814607,0.098832816,-0.019455105,-0.09604557,-0.17312247,-0.12377739,-0.0074642734,0.07218078,0.24456015,0.21641117,0.003513222,0.11879595,0.058495466,-0.044554383,-0.16482083,-0.09789957,-0.052021742,-0.009993269,0.03792239,0.009796513,-0.020046372,-0.029264549,0.064397156,-0.021257462,0.02831187,0.06534728,-0.09077084,0.0034941444,-0.047194604,-0.025007587,-0.06261538,-0.02638919,-0.058255516,-0.07817578,0.021776475,0.03222504,0.27202404,0.11632208,-0.05975433,0.113254584,0.26130262,0.15277235,-0.1342655,-0.034731593,-0.029842323,-0.05264838,-0.095848195,-0.05066796,0.024166968,-0.034263127,0.037333123,0.0029245964,0.032819208,-0.015135001,0.0062324586,-0.0642238,-0.036570042,0.0009672972,-0.06100418,-0.09237491,-0.073585026,0.0048190253,0.064729504,0.070421785,0.06087539,-0.0034447876,0.010384036,0.023390735,0.03341548,-0.118302085,-0.26016182,-0.1570366,-0.010338528,-0.02960416,0.03466186,0.013709912,-0.05502654,0.10046036,-0.061066978,0.07034028,-0.074019134,0.030924242,0.04419572,-0.014726071,0.04861299,0.015879428,0.08380834,-0.013375168,-0.07670036,-0.062048748,-0.085821725,0.010740723,-0.1319092,-0.18953715,-0.081310175,-0.09617885,-0.08608733,-0.09186652,-0.13049944,-0.025903568,-0.124111265,-0.08494759,-0.049787853,-0.09880915,0.08421685,-0.022588452,-0.04051671,0.0914376,0.04002301,-0.01844963,0.03853892,0.008170718,-0.116857596,-0.0939723,0.023376804,-0.007612843,0.014546239,0.049618673,0.06539354,-0.029514473,0.049913403,-0.044870973,0.0005141875,-0.09410837,-0.02020088,0.007946573,-0.042171508,-0.041378636,0.022880798,-0.021953192,-0.016224273,0.005074109,0.037267722,0.08962738,0.052496664,0.064436,0.045678437,0.07847756,0.121200606,-0.0869123,0.038270913,-0.034472052,0.011534835,-0.01715219,0.10837971,0.03206354,-0.1269524,0.059533216,-0.052140865,0.008344003,-0.06394588,0.037062235,0.052530557,-0.089731656,0.04755604,-0.11808018,-0.015322424,-0.04277448,-0.037247237,0.054816697,-0.022400988,0.035586465,-0.043604553,0.04416583,-0.08119803,-0.031331513,0.025159404,-0.05246836,0.032327324,0.04286681,-0.008494683,0.049910467,0.037243873,-0.021673288,-0.003543462,0.06955061,0.043114513,0.010005969,-0.054522973,-0.019345373,0.03146515,0.0117651895,0.05373255,-0.0512175,0.095384054,0.028719522,0.09258521,0.017233575,0.014885875,-0.012759993,0.055007726,0.06456559,0.028670406,-0.0012993385,-0.035994094,-0.038974885,0.06255775,-0.013841359,-0.01646346,0.02175047,0.046478987,-0.00399973,0.067997545,0.106916666,-0.0065809735,0.13004349,0.04827048,0.0092896,0.016291156,-0.012546261,-0.10998632,0.0070716585,0.022543432,0.02084892,0.034315985,0.04986722,0.010518075,0.05482887,0.05021231,-0.026306864,0.04863971,-0.022399155,-0.044577982,-0.0014749148,0.055724163,0.1070388,0.0781139,0.06855053,0.008101788,0.1295361,0.046506446,0.03241498,-0.029494086,0.11393219,-0.07023718,0.14337856,-0.099837705,-0.10921317,0.05365716,0.035897672,0.029305506,-0.009670506,0.03313672,0.0058387453,-0.005973016,0.0082123,0.0055918056,-0.037789125,0.008153751,-0.13628373,0.022495776,-0.029002398,0.07568235,0.017651867,0.05067226,0.025972545,0.13609932,0.17264977,-0.032701284,0.03605609,-0.20353341,-0.17250301,-0.16274206,-0.089062184,-0.08870038,-0.10476859,0.11411384,0.04867478,0.09265994,-0.013193448,-0.048536558,0.08758532,-0.00086913316,0.03926547,-0.03204133,-0.10533508,-0.07563731,-0.0003105058,-0.005208287,-0.033694644,0.12467751,0.08219059,0.023912275,0.115524895,0.08811779,0.12536852,-0.004214451,0.046882834,-0.045075987,0.04348476,-0.08536829,0.08809548,0.14802629,0.13165294,0.012126122,0.012248862,0.09633762,-0.0012932379,0.046290234,0.085603,-0.02504445,0.049916368,-0.017095262,-0.017853847,-0.072886795,-0.009034656,0.032751728,0.09551127,0.04041836,-0.04449614,-0.09381317,-0.04337771,-0.055090036,-0.17701524,0.06416996,-0.053170927,-0.07187865,-0.009644006,0.041251265,0.043514755,0.10426609,-0.120621994,0.031721428,-0.04075543,0.012764879,-0.032949828,-0.102351785,-0.10056651,-0.05190019,0.026052738,0.00263127,-0.022739898,0.025547937,-0.042640503,-0.08349762,-0.002753092,-0.111730695,-0.05997393,-0.061073456,0.03237023,-0.10356512,-0.15788034,-0.014520035,-0.22120032,-0.13699576,-0.0551975,-0.19151299,0.022295093,-0.07424512,-0.2641331,-0.23072565,-0.007764149,-0.21319853,-0.124999054,-0.2669883,-0.07926395,0.09500073,0.009534661,-0.028435985,-0.052872837,0.024192005,-0.07417319,-0.031161718,-0.03375119,-0.06896906,-0.17504025,-0.26729023,-0.30986017,-0.107710786,-0.08926749,-0.11775898,-0.3202194,-0.107883856,-0.015210087,0.05086368,-0.026818616,-0.07748836,-0.14571369,-0.07274981,-0.13266915,-0.25955018,-0.24495524,-0.2116428,-0.09432089,-0.17404711,-0.09032738,0.102985695,0.020674521,-0.04632305,0.0070330347,0.025636764,-0.11641946,-0.18622725,-0.21470839,-0.13361774,-0.2917389,-0.21914627,-0.09673216,-0.21368796,-0.26214552,-0.010709523,-0.04529442,0.016916407,-0.030039858,-0.16168065,-0.032682918,-0.0782205,-0.09546467,-0.1141438,-0.23315808,-0.40090734,-0.18499576,-0.06657415,-0.016035855,-0.066736065,-0.03029498,-0.048515294,-0.017728677,-0.039794307,-0.068392776,-0.11971329,-0.1967203,-0.17653593,-0.26049298,-0.07214108,-0.124580994,-0.1450959,-0.15251835,-0.16445538,-0.10148107,-0.1569585,-0.14773771,-0.004351708,0.049497224,-0.1365571,-0.1288537,-0.123718895,-0.11098585,-0.29724243,-0.1085293,-0.0890933,0.061129194,0.08858853,-0.09778343,-0.017020172,-0.029264394,-0.06193244,-0.081982955,-0.07219703,-0.15596604,-0.0284672,-0.025545813,-0.092715874,-0.086701006,-0.17680562,-0.08892975,0.04486516,-0.1791432,-0.3669369,-0.12568136,-0.13237514,-0.07159391,-0.048226815,-0.26600933,-0.086319126,-0.050416145,-0.26835144,-0.19940977,-0.07654558,-0.002047226,-0.07424872,-0.11721262,-0.029432258,0.023354603,-0.0919102,-0.106491715,-0.32262635,-0.16358452,-0.0040976955,0.035313696,-0.12140311,0.05629515,0.024049839,0.06851212,0.08859199,-0.24355124,-0.6164383,-0.1054056,-0.18792142,-0.26279807,-0.12930751,-0.10023607,-0.17962757,-0.012793762,-0.09781295,0.0073423195,-0.11317814,-0.016718874,0.11055809,0.04187398,0.014491313,-0.00431157,0.009823882,-0.10627303,-0.18389672,-0.040237058,-0.061372902,-0.07433914,-0.09037223,0.030305358,0.037455495,0.19843513,0.23434371,-0.20251371,-0.055181924,0.06741262,-0.3206498,-0.36383048,-0.14996918,-0.12963414,-0.13189198,-0.045021147,-0.03416487,0.13427398,0.05246566,0.013311093,-0.014255309,-0.052963283,-0.11228899,0.0130552035,-0.002675045,-0.01898879,0.06955189,0.09277573,0.101044595,0.089124545,0.085022435,0.060809676,0.25363928,0.26352102,-0.018134177,0.01778398,0.14379995,0.26397386,0.05334525,-0.120976925,-0.27164996,-0.27740592,-0.29003495,0.008605639,0.062290147,0.08749584,0.09045011,-0.008047409,0.005199693,0.022773134,-0.013888948,0.034527987,0.06604973,0.0010545746,0.12702568,0.01555631,0.20407423,0.10192997,0.11982535,0.07526361,0.3213135,0.4371601,0.19610256,0.06520616,0.16277884,0.24633546,0.40251076,-0.090041354,-0.013433459,-0.16959168,0.07311129,0.09786648,0.104355685,0.0976602,0.15819018,0.1021247,0.0020591125,0.005290359,-0.023733236,-0.033964932,0.118261345,-0.040632743,0.08251001,0.18254112,0.2799052,0.06421004,0.125234,0.027266467,0.15529054,0.23174472,0.10485634,0.12722766,0.24833834,0.3227925,0.41306797,0.155769,0.10420919,0.17142792,0.37508723,0.21765716,0.18451399,0.07852643,0.1729343,0.045340765,0.040769845,0.06896025,-0.02146737,0.021465702,0.041202243,0.15718658,0.12306919,0.20992002,0.24308057,0.2222356,0.18534862,0.14197467,0.05874241,-0.068338186,0.040235505,0.165915,0.18089744,0.24791002,0.056389384,0.34484065,0.17317896,0.12880926,0.39626214,0.25023878,0.12861753,0.012041054,0.16089737,-0.0034981058,0.053558078,0.07813923,0.040639184,0.048714012,0.004618028,0.16316627,0.10378159,0.1504588,0.21098348,0.3169229,0.23155184,-0.13899969,-0.07741524,0.18789501,0.16756217,0.20914003,0.20233901,0.28492218,0.20686036,0.36933973,0.36629018,0.2055571,0.33702466,0.088810384,0.09967347,0.07705002,0.016719969,-0.044575766,0.057824656,-0.14631188,-0.020728806,-0.031343874,0.13626167,0.24213058,0.062330253,-0.09643054,0.056496978,0.058000386,-0.098815754,-0.17106295,-0.028811375,-0.09147215,-0.07825997,0.2265142,0.4698577,0.27982724,0.16919284,0.24407654,0.1776573,0.12968548,0.15822789,0.16560832,0.19345826,0.0053397026,0.014230717,-0.027032621,0.086326934,0.0076929885,-0.060012564,0.0273605,-0.028751094,0.07775709,-0.07433846,-0.20584975,0.17741124,0.1662938,-0.0032817426,-0.095996365,-0.1678053,-0.20008463,-0.3833017,-0.28087118,-0.023576455,-0.07052297,-0.11900252,-0.04445729,-0.10234745,-0.013868592,0.105529085,0.0722754,0.027760457,0.06517698,-0.024901131,0.042315446,-0.011712307,0.112872764,-0.030790556,0.040812366,-0.0014702731,0.1435041,0.044571854,-0.06931879,0.016409867,0.2478156,0.05967453,-0.074624866,-0.11238994,-0.1515909,-0.23636909,-0.41111246,-0.26987594,-0.06290388,-0.18344648,-0.24253276,-0.18360035,-0.07751287,0.056160394,0.11640386,0.053082105,-0.0776559,-0.0493221,0.008867391,-0.011388795,0.009439122,-0.0055101467,0.041701194,0.027008155,-0.067329474,-0.057254482,-0.09511844,-0.2541039,-0.12324857,0.095624104,0.1448462,0.048327327,0.12549569,-0.14805454,-0.21341357,0.015845202,0.00795927,-0.21137966,-0.23161583,-0.1161588,-0.076938376,0.04305482,0.0028775681,-0.053604025,-0.06020726,-0.03847444,-0.055503197,0.055658117,-0.034068823,-0.061745543,-0.011951018,0.02239324,-0.044223152,-0.11790244,-0.10849911,-0.1217152,0.012481243,-0.107099645,0.1018176,0.13296753,-0.017940382,-0.21263589,-0.21517244,-0.15871274,-0.1885979,-0.31131575,-0.18812956,-0.24214268,-0.2613645,0.014575127,-0.07671776,-0.111909926,-0.0944632,0.004494017,0.00627994,-0.06673334,-0.02954091,0.03634446,0.04202017,-0.10465194,-0.06372416,0.057193533,-0.10188383,-0.11291006,-0.1973031,-0.08952302,-0.21334538,0.0013482922,-0.23397392,-0.26695523,-0.21808824,-0.05932738,0.04977863,-0.13578452,-0.1276799,-0.10236797,-0.16343544,0.04504851,-0.042930152,-0.05944872,-0.01270924,0.04168953,0.095963106,-0.032058276,-0.033357542,-0.034141764,0.039990168,0.040817816,0.00473547,0.008696086,-0.040075555,-0.061810274,-0.03744249,-0.12962657,-0.091006696,-0.09968502,-0.1182387,-0.13726862,-0.20810333,-0.07832044,-0.041153096,-0.028820122,-0.1375743,-0.20475012,0.007032178,-0.0338449,-0.033191547,-0.076123856,0.027934924,-0.053842936,-0.07745397,-0.017681718,0.006896878,-0.024851218,0.08269176,0.00020749186,0.00982363,0.10498794,-0.03251223,-0.039116777,-0.07454608,-0.06429847,-0.105156064,0.0026091125,-0.09430219,0.0012372324,0.005968368,-0.10820584,-0.02740944,-0.012662933,0.03894067,0.04673732,0.028738504,-0.13330409,0.13941851,-0.04024415,0.0012654684,-0.014552586,-0.060022026,0.057759073,0.08147224,0.039865676,0.01185237,0.06937872,0.03924172,0.06006492,0.08941496,0.06281239,-0.036753315,0.01437527,0.037251215,-0.017348774,0.014452575,-0.035550933,-0.050435483,-0.018351208,-0.01128491,0.006847171,0.011710468,0.015687522,-0.055619817,-0.045178786,0.042825967,-0.026811121,0.04551469,0.05557215,0.009480833,-0.018790888,0.029914783,0.04689873,0.058339383,-0.016148733,-0.0019834053,0.0314046,0.006826093,-0.042230852,-0.0118784355,0.084671915,0.010644878,0.08227218,0.008605228,-0.039643012,0.001080544,0.048129614,0.0024126994,0.054059934,0.013483873,0.064001955,-0.001626487,0.16535673,0.07448645,-0.06406264,0.017950237,-0.06246894,0.013326546,0.034101676,-0.03145735,0.013025644,0.0018398379,0.0065419013,-0.013833488,0.01991863,-0.12716514,-0.0047743246,0.03631989,-0.049245257,0.0009777901,-0.033445038,0.065539435,-0.03656508,-0.15306112,-0.12085089,0.03870274,0.09459918,0.051382802,0.056460172,-0.07289441,-0.010830132,0.076457836,-0.06643789,-0.04090704,0.043889925,0.021359751,-0.028913954,-0.044709045,0.03585718,0.03343809,-0.0037167708,-0.028382832,-0.061475884,0.025241349,0.10754388,0.019801427,0.027026169,0.008268621,0.017831814,0.02272787,-0.015058489,-0.059031837,0.07729273,-0.00920979,-0.015844889,-0.024779344,-0.03045676,0.035075493,-0.09059863,0.03304786,-0.017890591,-0.038246915,0.022602212,0.028585793,-0.037171014,-0.040981513,0.020956973,0.08760262,0.06027492,0.030028727,-0.03118391,0.08038693,0.041302472,0.038292523,-0.009696611,0.048730906,-0.09473083,0.1001141,-0.017232634,-0.03489682,0.22281452,0.17437254,-0.09994436,-0.16524038,-0.14995068,0.026014106,-0.10108681,-0.07584257,-0.0033962978,-0.030831523,-0.00019402069,-0.053284377,0.03506855,-0.0033791782,-0.010839969,-0.024809116,0.016884303,0.019646175,0.096759155,0.041008502,0.106098466,0.14673059,0.12284691,0.06629015,0.12582518,0.07625185,0.07855463,0.03856368,0.121584386,0.12418466,-0.0727276,-0.04757701,0.05165679,-0.10606502,0.0077260565,-0.10416935,-0.090950504,0.082638785,-0.077666864,-0.14526154,0.007790488,-0.07489476,0.09541009,-0.033020087,0.010119168,0.075211816,0.1384197,0.09765988,0.13590299,0.096160606,0.0035026257,0.09206504,0.18904445,0.12008868,0.14528684,-0.0028090798,0.20048992,0.18766469,-0.022293562,0.13730775,0.08261114,-0.099216074,-0.044045262,0.1198067,-0.032159228,-0.034813248,0.01614076,-0.010043594,0.04550053,0.06273119,-0.0092663225,0.0052879695,0.008217697,0.032909155,-0.021945417,0.13967538,0.14398883,0.058001053,0.11017288,0.12529847,0.08570129,0.057841055,0.023563137,-0.05246737,-0.0228541,-0.0117119765,0.02991941,-0.113187805,-0.10496915,-0.07406624,-0.060629364,-0.07641244,0.081296064,0.076565035,0.06923101,-0.026509741,-0.014721852,-0.043813683,0.025705328,-0.049907435,-0.10097402,-0.024038082,-0.030933393,0.053858526,0.010892971,-0.021460988,-0.06190345,0.047565997,-0.0020683696,0.07384718,-0.110876605,0.09271373,0.017835971,0.06649758,0.15492438,0.021821199,0.076692834,0.08388651,0.015638577,0.00044640378,-0.031567276,0.018920375,-0.024202904,0.0010133655,0.008066252,-0.029165562,-0.026805937,0.060430028,-0.021574952,-0.08212288,-0.042654455,0.02359576,-0.0755813,-0.024851106,0.1317013,0.10318219,0.20570292,-0.01664361,-0.06789045,0.0059779068,0.050770782,-0.031458177,-0.04112016,-0.07332256,0.012251381,0.00096858176,0.05123905,-0.005256409,-0.046511006,0.11768361,-0.02095578,0.013940778,0.023810266,0.032638967,-0.12647231,-0.008807729,-0.0335131,0.018868916,-0.005484564,0.024120905,0.20982814,0.087428555,-0.013588646,-0.005980167,0.065397024,-0.08948933,-0.14977072,-0.06904005,0.092712045,0.07260697,-0.08048052,-0.022386849,-0.18636842,-0.034696843,-0.03718169,0.121002525,-0.028767204,0.022129767,0.033813015,0.016931443,0.019110128,-0.056160346,0.042414624,-0.05952541,0.008058536,-0.031913474,-0.07058903,-0.07806088,0.073903844,-0.041491445,-0.19353615,-0.06849566,-0.12670493,-0.028939782,-0.00115594,0.09290046,-0.13103251,-0.06698831,-0.09283955,-0.046445392,-0.06189194,0.0912474,-0.045278683,-0.11580121,-0.14880633,-0.019900905,0.08400389,-0.00039491124,-0.071237415,0.06460566,0.008185952,0.00277766,-0.08019056,-0.042983815,-0.13759533,-0.15651539,-0.0682457,-0.007596583,-0.18686907,0.11468197,0.1535127,0.2782711,0.15781543,0.23303676,-0.016251927,-0.022388617,0.0074225958,0.08939852,-0.052324574,0.07388708,-0.05236357,-0.11133508,-0.034819547,-0.10975119,-0.036014795,-0.04675761,0.0305009,-0.063311644,-0.059117854,-0.07086178,-0.090017974,-0.05759295,-0.083316684,-0.07138927,0.017512187,0.14096446,0.16922592,0.4184843,0.32966316,0.06384042,0.324997,0.10728677,-0.052906495,-0.091143824,-0.07342833,0.043676414,-0.06594036,0.087318495,-0.14983112,-0.117445305,-0.10019014,-0.048070986,-0.044934444,0.01354729,-0.07826022,0.0027690607,-0.06423608,-0.01662373,-0.023188422,-0.1259103,-0.116292894,0.027238147,-0.013096814,0.19007441,0.23430195,0.19318336,0.14777546,0.06679616,0.09049738,0.17987472,-0.053343166,0.042690463,0.05887578,-0.04778434,0.089477785,-0.042723,-0.118129596,-0.0645277,-0.1795854,-0.096819475,-0.0027840573,-0.053923834,0.040324684,0.038857102,-0.027972128,-0.09023883,-0.007434648,-0.11866024,-0.2287395,-0.2962771,-0.13945228,-0.112956874,-0.087577246,-0.09082523,0.030791074,0.20384224,0.13956289,0.21031089,0.020979356,-0.17630605,-0.101710215,0.02659999,-0.05374928,-0.15167534,-0.04182547,-0.017208535,0.03099325,-0.05255644,-0.008396894,-0.023482662,0.05716511,0.029656699,0.018739806,0.015079241,-0.061791882,-0.09284838,-0.25497904,-0.39738813,-0.55182946,-0.6048076,-0.44068068,-0.2628036,-0.052907314,0.19260584,0.12840922,0.064226635,-0.14389421,-0.114664346,-0.05475925,-0.11566793,0.04897816,0.034628287,0.035338935,-0.01322024,-0.03361239,-0.09441906,-0.02945949,0.050704833,-0.009718276,0.031454224,-0.027837347,0.07358526,-0.11109291,-0.06106491,-0.17839314,-0.37968045,-0.620575,-0.68021274,-0.569877,-0.5955846,-0.4256189,-0.304479,-0.2089866,-0.16105847,-0.17494363,-0.04760628,-0.02196198,0.12134588,0.041156143,0.0716088,0.19326857,0.10825985,0.054550517,-0.0142444335,-0.05230704,-0.008145182,-0.015856711,0.0015797224,0.03573288,0.026718643,-0.05120078,0.010431612,0.022971217,-0.15633415,-0.3493294,-0.36262676,-0.47083965,-0.6761385,-0.8386778,-0.7760085,-0.6866031,-0.34384814,-0.04160251,-0.0066073406,0.12237594,0.014252025,0.034767754,0.01254765,0.00654816,-0.08479817,-0.0073867585,0.0015965117,-0.061425798,-0.008351568,0.06684315,0.012936261,-0.013623371,0.019825166,0.13531333,0.0646463,0.03048978,0.06979251,0.11155532,0.08101916,-0.10275229,-0.15604302,-0.39017302,-0.72293687,-0.5079002,-0.09030151,0.05056505,0.13152844,-0.053062543,0.028359253,0.083005294,0.013657038,0.070126,-0.14373825,-0.1045663,-0.028708331,0.043195028,-0.04022982,-0.025798175,0.03293976,-0.026742565,0.0013012898,0.05890459,0.14553162,0.079681434,0.21151604,0.2998341,0.24206184,0.09451056,0.28789914,0.12815788,-0.014332239,-0.13003328,-0.04393354,0.17388907,0.06756108,-0.03354407,0.01578607,-0.03793162,0.056064993,0.07133898,0.063650794,0.09466256,-0.0466097,0.028567221,-0.0030289877,0.047072295,-0.02766342,-0.0054830667,-0.01947607,0.047463182,-0.045829453,0.035047665,0.18830357,0.13830884,0.29713663,0.27976498,0.22582789,0.26456058,0.18544343,0.08851502,-0.006799247,-0.03806206,0.11286236,0.050666913,0.03152462,-0.031303957,-0.09135908,-0.019689292,0.1624047,0.0424326,-0.023850014,-0.035375774,-0.004692857,-0.014907303,-0.015099215,-0.03222275,0.009981862,-0.0044216057,0.0087927,0.030298885,0.012394113,0.31338626,0.14494462,0.0201352,0.0756778,0.085258536,0.15949044,0.13417564,-0.07135032,0.104907446,-0.03600262,-0.08502628,0.0525424,-0.049272526,-0.018162768,0.024557762,0.025488093,0.092118636,-0.046172168,0.0413281,0.009853859,-0.063164465,-0.112601064,-0.06334518,-0.013522124,-0.016142538,0.035707206,0.0459196,-0.11299786,-0.033419065,0.074586295,-0.084828004,-0.015596919,0.02143983,-0.06120936,-0.0023095468,-0.02119847,-0.0681498,-0.061960775,0.12501827,0.1953559,0.08807429,0.015294706,0.075231716,0.08845515,0.12915112,-0.04967705,-0.008560415,-0.07539863,-0.055665467,-0.032959837,0.08612457,-0.025220685,-0.036027502,0.041995946,0.002425408,-0.09446769,-0.009628904,-0.09073712,0.10232187,0.07443345,0.027966883,0.1706491,-0.035725333,0.07791668,0.064787865,0.06339636,0.042640008,0.094562635,-0.012472429,0.021443915,-0.026133608,0.01822606,-0.055917215,-0.008593231,0.09618224,0.025114853,0.07457544,0.05256323,0.08723029,0.018646905,-0.05130841,-0.015846122,0.070064195,0.12913829,0.024273943,0.08882117,0.056232173,0.06987129,0.068203926,0.14252515,0.09013207,-0.06341237,-0.1390636,-0.044777762,-0.035898954,-0.0410166,-0.20001455,-0.08588638,-0.13489084,0.08251537,-0.012071179,0.0804987,-0.01649694,0.11226834,-0.026138829,-0.000021413127,0.034743283,0.077243924,-0.08734283,0.00080057373,0.08797936,0.029690422,0.090117544,-0.067586444,0.029252836,0.13973993,0.09071231,-0.009697173,0.22256958,-0.03945547,0.037319325,-0.010699366,-0.07854503,-0.037120264,-0.06308041,0.02867937,0.017914176,0.068582095,0.01630128,-0.0651837,-0.0020129662,0.062399402,-0.02283048,-0.0052498747,-0.017249707,-0.1115313,0.016448585,0.04507932,0.0852109,0.11564363,0.05589426,-0.020065805,0.00058294646,0.06363994,0.06411172,-0.05862442,-0.11798139,0.019273598,0.21370849,0.049345933,0.06740201,0.10747306,-0.02126407,-0.060057946,-0.04472475,0.0042829965,0.00019760094,-0.0015733057,-0.051786855,0.025080137,0.12428986,0.05063429,-0.062359937,0.011874593,-0.0023032606,-0.0214633,-0.005270717,-0.019931521,0.008288385,0.0011265714,-0.0365411,-0.06231135,-0.061119903,-0.021337435,0.0053148842,0.009399498,0.016222326,0.008100844,0.039680183,0.010668852,-0.034585416,-0.05012574,-0.0206273,0.08562612,0.017658632,-0.018279718,0.06580311,0.052767206,0.0111968,-0.07174814,0.0036455486,-0.035302363,-0.09423635,-0.05991085,0.03833879,-0.010828838,-0.045777377,-0.074215546,0.0620556,-0.08036562,-0.014095161,0.02797831,-0.0643082,0.013557562,-0.07862577,0.022588804,0.021142323,0.031961974,-0.031118168,-0.013302892,0.01559356,-0.0051238663,-0.066478506,0.0049875053,0.00042058594,0.02022113,-0.050845314,0.009189737,-0.039335974,0.020239461,-0.027451962,0.031422764,-0.07412831,-0.012256932,0.004691785,-0.058814246,0.058097932,-0.011513305,-0.020887876,-0.03509356,-0.02552335,-0.00975433,-0.020964919,-0.05734241,-0.11242747,0.013094832,0.0023788442,0.02409798,-0.10788527,0.030835088,0.023432437,0.00436427,0.070268884,-0.011220119,0.076023065,-0.010411704,-0.024345843,-0.061929688,-0.031133678,0.053577844,-0.052305646,-0.0057409722,-0.050221674,0.022825116,0.04315955,-0.058015108,0.09719987,0.016655631,0.009820575,0.058020063,-0.0021596798,-0.04731576,-0.064486265,-0.050254207,-0.030352568,-0.00048577518,-0.0036272388,-0.026553646,0.013931731,-0.047376458,0.017020069,-0.007797298,-0.011277817,0.064170174,-0.03924945,-0.007506201,-0.014613564,0.006692504,0.044853423,0.11836937,0.039203264,-0.033225603,-0.028336236,0.008764193,0.06988981,0.046088386,0.06260443,0.05867766,-0.0072837663,-0.0057615614,0.009819846,-0.081793785,-0.010732961,-0.122766286,-0.07955866,0.004015823,-0.036353547,-0.10189332,0.14096458,0.027175397,-0.054665897,-0.046464063,-0.012646504,-0.101028904,-0.015761195,0.11038732,0.062253464,0.0662371,0.08707179,0.09641829,0.092055246,0.060241375,0.27151683,0.22436552,0.2067256,0.17330314,0.0028447544,0.13725537,-0.13956158,-0.11275214,0.102673896,0.005527983,-0.034156583,-0.00568077,-0.09641243,-0.10744396,0.007926863,-0.031576496,-0.02295973,-0.02604335,-0.05694035,-0.05931974,-0.009246955,-0.008918496,0.012274702,0.08323952,0.08235867,0.051145878,-0.015307434,0.08773184,0.07381087,0.1347839,-0.050138023,-0.18594973,0.07090446,-0.06256845,-0.091078326,-0.059791632,-0.030862048,0.010772687,-0.033102505,-0.08984339,-0.0802755,0.005584105,0.014053343,0.054686707,0.035205435,0.05479149,0.05220414,0.053615957,0.08498682,-0.1036017,-0.047344644,-0.035917755,-0.0060507255,-0.14549726,-0.118338674,-0.11136493,-0.08359809,-0.2379318,-0.12292033,-0.08960202,-0.015804492,0.13058369,0.023375656,-0.1262185,-0.195876,-0.18213244,-0.022439444,-0.17078303,-0.009953036,0.00037971576,0.049329862,-0.024539499,0.017021244,-0.021781404,-0.027009033,-0.048286106,-0.009392927,0.01705147,-0.052225057,-0.20971225,-0.18546833,-0.07212815,-0.1899801,-0.14730008,-0.14195055,-0.0676698,-0.08977617,0.11579359,0.23497145,0.18349725,-0.1247377,-0.1778841,-0.054587442,-0.048574753,-0.11529892,-0.12096975,-0.014628258,0.0038367682,0.0050095594,-0.0038810614,0.0007399344,-0.00162326,-0.05507426,-0.099122494,0.017522005,-0.041432567,-0.09026734,-0.13041763,-0.26367918,-0.064366154,-0.13066399,-0.08721947,-0.046434063,-0.09826015,0.19324908,0.0799137,0.14305682,0.16776723,-0.010104513,0.012746279,0.05048001,-0.13988848,-0.0725409,0.039399605,-0.055573296,-0.059305184,-0.119212985,0.07155622,-0.017835617,0.001518726,-0.030764328,0.023719072,0.027281774,0.04242263,-0.16810657,-0.12245,0.000034409863,0.0017213087,0.058187265,0.14628485,0.1542457,-0.07194889,-0.06286716,-0.03902396,0.020513033,-0.024657277,-0.005130496,0.04302813,0.041897494,-0.1325733,-0.162191,-0.026972817,-0.024012137,-0.0038071238,-0.08479153,-0.021809319,-0.055736605,0.013522024,-0.02303641,0.007424902,0.022417486,0.050711986,-0.11939964,-0.03298816,-0.014514457,0.18502094,-0.006287041,0.19093591,0.16997293,0.15774958,-0.037658703,0.09981178,-0.1510172,0.1520692,0.1257979,0.21434683,0.13392995,-0.18368362,-0.1927478,-0.113240615,-0.14094575,-0.11894839,-0.20919842,0.00093868043,0.038964424,0.023258604,0.114171065,-0.02705639,0.04788478,0.061812717,0.015826913,0.0428648,0.15832627,-0.009504663,-0.05102468,0.13187921,0.15894456,0.09030608,0.0911064,-0.000035651636,0.04664798,0.2220533,0.20949255,0.3930086,0.2407971,-0.13558684,-0.21912777,-0.119560644,-0.15564565,-0.15917844,-0.093744926,-0.017498696,0.065686435,0.08578357,-0.021529386,0.024901886,-0.006778985,-0.012626499,-0.05716274,0.041390136,-0.11080879,-0.11154034,0.03282766,-0.035850316,-0.032740414,-0.07529906,0.06783538,0.12276318,0.20454411,0.33931234,0.36238477,0.10039045,0.009921177,-0.23835553,-0.18125492,-0.22232454,-0.10700755,0.0769437,-0.07132404,-0.017615277,-0.07168529,-0.007353295,0.01877988,0.033559754,-0.008172514,-0.055332273,-0.075286046,-0.073321074,-0.015039242,-0.168739,-0.10632382,-0.3645697,-0.10896341,0.010881776,-0.021590877,0.22089122,0.32164714,0.26628745,0.20493877,0.003302552,-0.089138314,-0.23249733,-0.19689946,-0.06290208,-0.14674191,-0.054907963,-0.10420087,-0.12348533,0.03540559,-0.010208159,-0.0003213918,-0.017425075,-0.007876051,-0.102680735,-0.07905176,-0.061125774,0.053489,-0.18474784,-0.20118964,-0.22830014,0.008513206,0.08235709,0.17675558,0.14835562,0.10232741,0.23102781,-0.115787975,-0.18236142,-0.2833453,-0.39395306,-0.15369374,-0.043687284,-0.12732323,-0.10362888,-0.111431256,-0.00015700025,-0.026597125,0.034230974,0.0044364748,-0.003529321,-0.11372413,0.021519285,-0.036224596,-0.19045752,-0.16595003,-0.039225582,0.12956004,0.025293652,0.07427008,-0.019754665,0.2659877,0.09997577,0.009542458,0.13930161,-0.12767358,-0.27545574,-0.3879871,-0.34002668,-0.21711971,-0.115510754,0.013178519,-0.031076659,0.06713665,0.028365852,0.029043943,0.089728884,0.04334503,-0.018767975,0.032012414,0.02687669,-0.07177184,-0.20922229,-0.10125504,0.063124076,0.17755923,0.12741333,0.22081213,-0.00045752627,-0.038061514,0.05497981,-0.17281787,0.029364754,-0.17522989,-0.31694606,-0.42351097,-0.21457934,-0.04487223,-0.03740902,-0.038763855,-0.06099178,-0.0040904456,-0.0030569653,0.034588188,0.026712058,0.0744611,0.030492166,0.080799945,-0.030052148,-0.160684,-0.12305721,-0.14688587,0.07538683,0.030782582,0.16665836,-0.0076314923,-0.07513174,-0.05725008,-0.030115157,-0.101599045,-0.31864035,-0.29257745,-0.27018663,-0.18517858,-0.18893097,-0.031996407,-0.13198878,-0.030150061,-0.019126812,-0.06446305,-0.06607651,0.031409293,-0.0413082,0.046901543,0.01860895,0.06658208,0.019039055,-0.12034505,-0.016083801,-0.08259762,0.0011711811,0.10068722,0.08030264,-0.19326794,-0.21259366,-0.044839595,0.02427128,-0.09518701,-0.12629257,-0.15127604,-0.24929804,-0.1115726,0.0012177362,-0.10044054,0.025809333,-0.028214235,0.021245847,0.042805873,0.03626388,-0.17618561,0.047971345,-0.05436099,-0.011412883,0.05750871,-0.05806977,-0.04990199,-0.06725069,0.022923894,0.053192828,0.08455114,-0.088919826,-0.225223,-0.1828642,0.032824278,-0.08637988,-0.11294451,-0.01012335,-0.009647121,-0.03704404,0.054132603,-0.008648374,-0.019565292,-0.0001748963,0.023373256,-0.014925841,0.0047051683,-0.00031923386,0.050489895,0.015947383,0.020739013,-0.019276885,0.055489253,-0.004189584,-0.060382184,-0.17173381,0.025600826,0.12881252,-0.08958776,0.13941681,0.016297363,0.07469739,-0.055691227,-0.0042765723,0.0012067861,0.12983577,0.025130827,0.0364604,0.019323053,0.0743016,0.07564668,0.019581562,-0.06306682,-0.011798077,-0.038994078,0.053621195,0.0014853034,-0.05758268,-0.05126348,-0.049480956,-0.014290622,-0.010311061,-0.13838817,-0.07267575,0.08719335,0.031729,0.03887603,0.069900855,-0.13765004,0.015022033,-0.098880574,-0.095722824,0.05904565,0.041266374,0.05893075,-0.051491283,0.023903036,0.11338602,0.10969002,0.026160777,-0.04177081,-0.036780197,-0.07875512,-0.057460498,0.05458999,-0.032892197,0.040759794,0.019075016,-0.0037311858,0.06545796,0.068705745,0.009952256,-0.051234957,0.08187198,-0.0049127303,-0.01103307,-0.09740908,0.015781803,-0.028360285,0.09363289,-0.035384227,0.022663835,-0.086540714,0.28083202,0.067689575,0.13852099,0.087741256,0.023413507,0.04696181,-0.04880635,-0.040016677,0.00062358874,-0.033135496,0.057434727,-0.076835245,0.05554409,-0.018113403,-0.13077919,-0.06691372,-0.08055948,0.02304661,-0.022979492,0.07602047,-0.0075267893,-0.06296343,0.034291793,0.023685541,0.059722688,0.11909163,0.09809956,0.24315444,0.2112243,-0.0052792034,0.12916376,0.038676664,-0.0055495854,-0.020883268,0.008779011,-0.024247155,0.01272819,-0.023521246,-0.058780856,0.01815733,-0.065307975,0.063480794,-0.009838454,-0.056188278,-0.1379886,-0.17379479,-0.07299078,-0.054418784,-0.07370267,-0.19125716,-0.13689823,-0.0919746,-0.2447019,-0.06415251,0.0024144212,0.0018723393,0.061651044,0.028832331,-0.03160787,0.05741166,-0.029923722,-0.018985137,-0.050412007,-0.02477944,0.0007201403,-0.09421423,0.051119052,-0.051572256,0.02405519,0.071043074,-0.08632766,-0.0062776464,-0.021604218,-0.01733295,0.04264303,0.13519907,-0.14149737,-0.107763514,-0.04751685,0.022893766,0.0059249885,-0.10412253,0.07803395,0.020757787,0.04204089,0.018413821,0.14606851,0.041618112,0.0017386591,-0.054988172,0.004744119,-0.07694049,0.05319074,-0.021666853,-0.041687477,-0.06340607,-0.03059463,-0.0848937,0.004417062,-0.037863664,0.0028308865,-0.004508593,-0.019456616,0.080265164,0.10600036,0.027069923,-0.014825251,0.0025160154,0.037625045,0.05982016,0.082652144,0.005127405,0.05711252,0.007787615,0.1348709,0.05957746,0.050774496,-0.03788755,0.0071711997,0.061794214,0.040152483,-0.012284104,0.058195736,-0.04703908,-0.018962907,0.017907014,-0.040268894,-0.0035708859,0.041838102,0.00087219896,-0.042640723,0.0013034053,-0.09693907,0.03959028,-0.024699694,0.046099987,-0.03586233,0.040183984,-0.040752515,0.09834798,0.055914387,-0.03875448,-0.090611055,0.08606751,0.03042976,0.035756283,-0.0011283832,0.008538756,-0.027728252,-0.05802222,0.0974647,0.07160131,-0.07115048,-0.00074347603,-0.046039622,0.06199168,-0.058511153,0.05337655,-0.04097176,0.020656833,-0.040630933,-0.020469088,0.011939181,-0.04348338,-0.021273648,-0.0011207548,0.09283915,-0.0014072458,0.047015976,-0.0038437136,0.04723487,0.08570891,0.04957595,-0.04828289,0.053697083,0.04097682,0.08251131,0.11697981,-0.048552703,-0.00042374514,-0.017789332,0.04549053,-0.013618829,0.09120551,-0.047993984,-0.008505174,0.02356901,0.04601488,0.020160994,-0.016362917,-0.043067724,-0.07341965,0.030065864,-0.12480878,0.040260196,-0.026870307,0.007930571,0.04023289,0.010250237,-0.0010244917,0.069497794,-0.0103323385,0.0020392234,-0.10425023,0.09406842,-0.040689066,-0.02112183,-0.07393031,0.008044614,0.070020996,0.043958742,-0.07067808,-0.026011229,0.07474536,-0.03357911,0.013789928,-0.022807732,-0.061737902,0.014399069,0.0958861,-0.006526447,-0.043650493,-0.13748404,-0.0250605,-0.10196033,0.03733366,-0.022426328,-0.012776476,0.13914835,-0.038140435,-0.02686746,0.052517306,0.03212178,-0.06816939,-0.026618335,0.004060796,-0.020611063,-0.0017095234,0.00045041248,0.021574289,0.019631198,-0.024654834,0.06817629,0.046771027,0.021935001,0.09089883,0.11459497,0.3198801,0.1168955,0.051046517,0.098715045,0.037597906,-0.0010205253,-0.16683593,-0.06127568,-0.013401517,0.0063104914,-0.0278711,0.035392262,0.013885333,-0.053250425,0.05703539,0.0029175759,0.0121587785,0.07558588,0.022622727,0.094467595,0.07411333,-0.043000035,-0.011956183,-0.026438823,0.04219625,-0.0047230623,0.25573134,0.23882706,0.3315057,0.24733284,0.19373854,0.076407015,0.08432268,0.12956555,-0.06006346,-0.040320832,-0.01637856,-0.15474455,-0.0876249,-0.008882716,-0.043547075,0.043898817,-0.07740577,-0.020858334,-0.0037271196,-0.021382846,-0.059407245,0.055923644,-0.07839276,-0.18103059,-0.11076408,-0.077159025,0.027610047,-0.024593001,0.27583453,0.36352688,0.28238264,0.3573417,0.08225049,0.19005507,0.29742125,0.2111394,0.1102551,0.12799266,0.0056856433,-0.06499127,-0.17497697,-0.13600115,0.050949037,0.025869071,-0.0004132341,-0.017401107,-0.060465585,-0.057351932,-0.014957396,0.01727715,0.0027425752,-0.06522343,-0.0594851,-0.12999545,-0.0009644669,-0.018011991,0.1650375,0.114344925,0.14272399,0.21204405,0.49511534,0.4857009,0.39314958,0.41264868,0.19091707,-0.006180036,0.07395446,-0.082671255,-0.017417544,-0.044844836,0.07438153,-0.0354787,0.040229596,-0.026902933,0.03057416,0.022266291,-0.0684651,-0.07848806,-0.018445037,-0.0482484,-0.12103899,-0.00009508562,0.06874777,0.13218316,-0.037167937,-0.08610446,0.09287328,-0.12881967,0.15744771,0.14644834,0.20449066,0.3627583,0.12779856,0.021324173,0.070960544,0.09338379,-0.17041281,-0.16061908,0.062311504,-0.07810054,0.008578233,-0.10378175,0.076280765,-0.03387846,0.016880546,0.019759357,0.02626824,-0.096553974,-0.00028556722,0.06366215,0.08809774,0.106170274,0.012849763,0.008309608,-0.12997831,-0.27756009,-0.19194284,-0.054124523,0.2783374,0.22185767,0.14961377,0.12714717,0.07958178,0.18233523,-0.020049488,-0.14126202,-0.017851606,-0.11264125,0.015610266,-0.06824213,-0.025175069,0.057008836,0.20720921,-0.06740785,-0.06360662,-0.032224815,-0.07845533,0.020636123,-0.070489705,0.102993414,-0.049347837,-0.17083725,-0.30365947,-0.46416283,-0.27160853,-0.23456249,0.1182816,0.2555787,0.067773044,0.19533116,0.043286342,0.14148852,0.28176832,0.042051144,0.021998992,-0.023749618,-0.004627142,0.009232395,0.038336676,-0.009584424,-0.06554849,-0.0012718178,-0.057813313,0.015767867,-0.023017742,-0.013854057,-0.1966498,-0.10445534,0.0070429044,-0.14362986,-0.15156855,-0.04553187,-0.2693421,-0.16651516,-0.07479915,0.14961213,0.009209683,0.072941914,0.10048347,0.24082309,0.17713284,-0.051985484,0.009291311,-0.021928467,-0.04835737,0.0043785106,-0.049337372,-0.010119376,0.04570538,0.08375474,-0.058663912,0.08291264,0.048827093,-0.08584147,-0.16987938,-0.09333043,0.05535666,-0.11152818,-0.116368726,-0.012023374,-0.15580155,-0.29593292,-0.09600878,-0.13610016,0.07089708,0.14440824,0.20373552,0.21368043,-0.0076761083,0.04858806,-0.042178936,0.03793707,0.03501755,0.0075710276,0.016168557,0.0014033657,0.032414824,-0.018664686,-0.17787239,-0.068849586,0.05944305,0.05881951,0.098920025,0.15530825,-0.06747342,-0.083073474,0.028849952,0.13330497,-0.17687535,-0.19412324,-0.1204442,-0.13932204,0.20986497,0.18740837,0.12432276,0.040285155,-0.012739178,-0.061797667,-0.04236413,-0.05646503,-0.08954448,0.02168434,-0.022295043,-0.06013925,0.005415937,0.062357213,-0.11683957,-0.13118517,-0.014968036,0.03871307,0.13186847,0.19793978,0.036145248,0.07264772,0.22921367,0.022080524,-0.09543894,-0.15195124,-0.18743847,-0.032624483,0.065816745,0.1231325,-0.0019060005,-0.011756478,-0.05235957,-0.1188756,0.017705576,-0.04832455,-0.03729981,-0.00022145882,0.037220825,0.04159402,-0.060309574,0.0103626,-0.07327981,0.03922289,-0.026174627,0.008828081,-0.049297925,-0.012109417,0.05712971,-0.05321598,0.12090775,0.21954231,-0.14950529,0.009856095,-0.10527905,-0.13065717,-0.21401544,-0.097059935,-0.029862322,-0.11050552,-0.09192749,-0.079450876,-0.061696567,0.012146186,0.12198362,-0.04910981,-0.05477455,0.016762245,0.0026986548,0.015664035,0.05740808,0.029479213,0.016750727,0.038556125,0.10231315,-0.023333197,-0.11994342,-0.1120965,0.13253066,0.16280718,0.03379674,0.1827726,-0.14161502,-0.06413,-0.35331,-0.16578104,-0.06007742,0.017990885,-0.074568234,-0.041159507,0.043030202,0.025175504,-0.053929552,0.036328074,0.050611794,-0.008433784,-0.065987065,0.030231424,0.0841073,0.0032862213,0.010761236,-0.06386049,0.07401243,-0.03749688,-0.07099256,0.08026237,0.11887516,0.077875055,0.016873963,0.12588018,0.014359056,-0.0886147,-0.2542467,-0.05033994,-0.02024981,-0.0023298294,-0.011914365,-0.06768208,0.062277284,-0.04907589,0.01599268,0.15941447,-0.03946041,0.018407175,0.08582752,0.0844192,0.06840888,-0.0070571518,0.021239497,-0.07990635,-0.06759193,-0.08251425,-0.13824451,0.021281678,0.083866574,-0.098752946,0.14513758,0.21568538,0.07523413,-0.14707135,-0.21642594,-0.032453883,-0.046159446,-0.0015018095,0.013864717,0.018005261,-0.003725284,0.022408878,-0.01334852,0.06175123,0.026834238,-0.023557726,0.043825254,0.04824794,0.10756676,0.15713516,0.037035406,-0.029692585,0.0049357074,-0.11214471,-0.1477702,0.0048681963,-0.18706681,-0.18769713,-0.006944427,0.124822415,-0.0064344243,-0.028364008,0.05473595,-0.010452396,0.004427536,0.10899032,0.014571232,-0.042037487,0.013978433,0.07926627,-0.010442583,0.07232887,0.028290655,-0.00311961,0.06336584,0.03448663,0.06544048,0.003785494,0.054537065,-0.06526324,-0.14255811,-0.057776865,-0.180006,-0.06390759,-0.036272064,-0.028249027,-0.09777862,-0.06548406,0.20273681,0.18318318,0.20119525,0.06975964,-0.059994787,-0.040821563,-0.108931646,-0.03535186,-0.053393606,-0.072848745,0.019649154,-0.050544422,-0.04192175,0.018066969,0.0446625,-0.036261834,0.09094299,-0.023267599,-0.012024771,-0.0020534738,-0.14719248,-0.14945307,-0.18505388,-0.022763072,-0.058126915,-0.20415857,-0.025584593,0.15538652,0.05681927,0.0736428,0.11311487,-0.08440841,-0.12591721,-0.120114036,0.10769965,-0.04687709,-0.020137789,0.040906638,0.034427162,0.024249608,0.09326019,0.06759515,-0.023942275,0.043693617,-0.06806831,0.07927748,0.12126467,-0.008640896,-0.005820327,-0.1219079,-0.08043897,-0.16929229,-0.12334128,-0.13168636,-0.102917105,-0.16351628,0.0033106706,-0.048402213,-0.14091344,-0.12575425,-0.16828987,0.05064782,-0.06641395,-0.008126677,0.0504091,-0.0077687614,-0.03175958,0.029509075,0.042583257,0.022348441,0.0667845,0.002918728,0.034323122,0.16730788,0.2043877,0.12126181,0.18849689,0.26137066,0.092474654,-0.03525153,-0.011097334,0.11115534,-0.11011656,-0.13075544,-0.06914303,-0.07939643,-0.007751837,-0.0119424565,-0.09058158,0.055593316,0.08584669,-0.009233813,-0.06363697,-0.007873645,0.10597288,0.077726185,-0.034744855,0.025759973,0.013300486,0.028668925,0.049169462,0.060729943,0.13644205,0.13642976,0.29585078,0.2990736,0.09181838,0.03663931,0.044560432,0.16451502,0.050483495,0.034113586,0.09355472,0.036080148,-0.011465182,0.0439474,0.12581925,0.09235931,0.023847068,0.06045509,-0.010705654,0.043458976,-0.005607955,-0.0060184062,-0.016940078,-0.07630938,0.008651762,-0.06237808,-0.016436318,-0.03214652,-0.016154317,-0.052172214,0.105056904,0.013412378,-0.04701062,0.18421683,0.17695862,0.07149045,0.230681,0.07173345,0.15270276,0.2293135,0.047525715,0.13766529,0.034026526,0.1712403,0.025642836,-0.07367954,-0.025890464,0.027791684,-0.068042524,0.0351073,-0.040928647,-0.0664466,0.03254842,-0.05138317,-0.11297985,0.05662016,-0.0154551715,0.14440717,0.07134052,0.06917873,0.07250658,0.023525828,0.07453452,0.19870017,0.14877565,0.10992653,-0.06490984,0.026827332,0.016289895,0.017228244,0.017136754,-0.04115078,0.06399068,-0.014142913,-0.021099487,-0.009220645,-0.06108568,-0.05689311,0.091778636,0.0435442,-0.04918862,0.078928255,0.006420324,-0.06848028,0.05156505,0.008594927,0.07007086,-0.015796758,0.07000738,-0.026758274,0.05226017,0.05135699,0.010057519,0.045455035,-0.09552003,-0.01154989,-0.059960414,-0.052085735,0.038585544,-0.00009006138,-0.10484526,-0.0012738118,-0.07767125,0.029980721,0.009166184,-0.0032852716,-0.029481275,0.038306955,-0.06979854,-0.08504326,0.029373217,-0.012460469,-0.074345365,0.022871679,0.019962426,-0.001361346,-0.08619629,0.01857185,-0.005662671,0.0009010287,-0.034190215,0.02770282,0.015190223,-0.012837803,0.008384105,0.0071132947,0.021795524,-0.0053865393,-0.024979051,0.016397234,-0.1008791,0.044547983,0.023117065,-0.056220785,0.006062627,0.03745569,0.027902888,-0.06986529,0.033266284,-0.024355628,0.017675119,-0.07491459,-0.0059447666,0.12500456,-0.043748744,-0.03400392,-0.10664802,-0.010708222,-0.071914636,-0.056686655,0.013054176,-0.090033315,0.107764386,-0.041409776,-0.06803321,0.06064807,-0.017949242,-0.043398753,-0.024605567,-0.040295366,0.0029623772,0.017038377,-0.08049659,0.063767,-0.012160558,-0.029330282,-0.06803414,-0.035766352,0.042347144,0.011506858,0.043248862,-0.02425502,0.025162224,0.035013158,0.041642588,0.049831253,-0.001338116,-0.009616395,-0.031117424,-0.018828148,0.0646077,0.022570211,-0.00483656,0.052304674,0.08181543,-0.01885602,-0.016370462,-0.047164954,0.057943534,0.0063488972,-0.022985596,-0.0386691,-0.060447022,-0.06153454,-0.05931091,-0.00691485,0.03652033,0.04782722,-0.012685958,0.043474928,-0.04110278,0.02593845,-0.04163581,-0.061496343,-0.14227813,-0.03384197,-0.023481036,-0.07163147,-0.051455967,-0.027537657,-0.060776133,-0.017620327,0.040956717,0.057951707,0.10574538,0.046910368,-0.03031737,0.04479647,0.021873763,-0.023196815,0.068458475,-0.022882635,-0.11445223,0.04707676,-0.0077684554,-0.009529577,-0.08956923,-0.017468045,-0.03976398,0.04060171,-0.15220155,-0.10355017,-0.08964012,-0.09553728,-0.012416615,-0.023312071,-0.024742516,0.07936536,0.005408492,-0.09294654,0.014898387,0.02674414,0.05265286,0.021226836,-0.0066291643,-0.03956715,0.056406505,0.050855163,-0.046165783,-0.007414624,-0.0142324325,0.023551768,-0.029030817,-0.11282321,-0.0893015,-0.22550733,-0.021316912,0.1261986,0.12488146,0.040688414,-0.015215536,-0.16855164,-0.048636302,-0.07522077,-0.14094412,-0.04332643,-0.08915388,0.05561954,0.015307937,-0.010272094,-0.01914151,-0.08417411,-0.040059965,0.0075710868,0.051103275,-0.062332064,-0.06196444,-0.0014093451,-0.015833918,-0.07092083,-0.12390974,-0.08753643,-0.0415867,-0.019155307,0.16412683,0.1664172,0.16922487,0.22124222,0.056799937,-0.04960625,-0.007874626,-0.07884855,-0.19954602,-0.10743476,-0.005008462,-0.018297086,0.032915894,0.077108435,-0.042767245,-0.0069300192,-0.06301684,-0.017927725,0.07526181,0.029145768,-0.096047044,0.0030156637,0.0545493,-0.05896604,-0.15257528,-0.28010398,-0.05441687,0.043082118,0.2097689,0.17402308,0.020937495,0.17759584,-0.010839347,-0.06980026,-0.14208175,-0.19600119,-0.22578056,-0.13029452,-0.12598875,0.040689655,-0.019443672,-0.11617393,-0.0217859,0.050683744,0.016615152,-0.049955755,0.06955747,-0.029888479,0.061352175,-0.049233235,-0.019442953,-0.049248863,-0.12960358,-0.30110353,-0.10909617,0.17193569,0.16945384,0.19586751,0.10801616,0.08234606,-0.2790609,-0.23814309,-0.33379695,-0.401217,-0.2895376,-0.32551527,-0.24798417,0.00012244776,0.087381095,-0.096838996,-0.050082352,0.04037202,0.032367487,0.048051197,0.038636137,0.021191012,-0.012646952,-0.040544,0.017516261,-0.13260372,-0.111265294,-0.29213306,-0.20973608,-0.022103008,0.11495513,0.18237162,-0.027155062,-0.034229655,-0.19372043,-0.25587648,-0.32056406,-0.32288337,-0.3079739,-0.14747748,-0.041528348,0.055167407,0.13947494,0.08970475,0.16706085,0.056167897,-0.05863887,-0.005519453,0.052043203,0.001301987,0.0037406355,0.007876198,-0.05849701,-0.010033707,-0.0881097,-0.19071192,-0.0861457,-0.13490589,0.115185075,0.029451843,-0.038231354,0.015603263,-0.036730748,-0.13976644,0.06285988,0.15801322,0.011740538,0.09424863,0.2022906,0.1204198,0.15714793,0.20917115,0.10001794,-0.03625566,0.014199708,0.009867744,0.015651122,-0.0033776355,-0.0016410154,0.011636934,0.034941696,0.052727446,0.017357426,-0.0979815,-0.11836231,-0.17257905,0.0317998,0.23442627,0.061026994,0.11659366,0.050413433,-0.17828622,-0.018142141,0.1117489,0.38744834,0.39169776,0.28114116,0.24234006,0.23921804,0.3534299,0.24926385,-0.0009908023,-0.06331541,-0.07243024,0.025746278,-0.03093114,-0.004142131,-0.07795621,-0.05100089,-0.11998333,0.014750364,-0.07783102,-0.030097261,0.070512116,0.09944344,0.11229434,0.13293402,-0.10192377,-0.07049943,-0.122996174,-0.1052211,0.18051657,0.27653518,0.23636186,0.29550964,0.17330714,0.26214668,0.24372682,0.017039053,-0.10708205,-0.0075658113,-0.07276164,0.006601334,0.023398725,-0.10507506,-0.051676154,-0.13870929,-0.053232145,-0.01099122,0.060644045,0.0063362466,0.0432339,0.17648488,0.20563257,0.21072531,-0.075539716,0.061216664,-0.17997934,-0.10697862,-0.05865007,0.06776456,0.27858683,0.15267833,0.15067847,0.05407905,0.011329126,0.0411428,0.05055238,-0.042261094,-0.12329277,-0.040445365,-0.032650143,-0.0482245,-0.003096086,-0.05360423,-0.09459326,0.026406525,0.26784334,0.13363352,0.1573157,0.12889919,0.20936812,0.14134261,-0.054357957,-0.005185087,-0.18256044,-0.004929389,-0.161206,-0.09246044,-0.085713424,-0.17797704,-0.20936136,-0.0071129417,-0.005438819,0.012234307,0.09933942,0.058071725,-0.08717072,-0.014881035,-0.029529847,0.052611496,0.06730509,0.037645426,-0.11172864,0.058587003,0.19961418,0.13488965,0.10455755,0.12622099,0.061040986,-0.05455383,-0.18335359,-0.116691366,0.059423994,0.06610392,-0.20114063,-0.16201547,-0.22095278,-0.21732436,-0.076550916,-0.029323606,-0.022408916,-0.073996134,-0.06052607,-0.08913523,-0.04341759,-0.09960904,0.039164454,-0.007438747,-0.01116932,-0.09866911,-0.12176239,0.0053186985,0.18639381,0.011703329,-0.030717628,-0.017833447,0.09475454,-0.16248922,-0.15673722,-0.065987974,-0.17014122,-0.059787307,-0.08145592,-0.22265011,-0.22101913,-0.12819345,-0.16485915,-0.08014749,-0.028602999,-0.095766224,-0.04174321,-0.056432698,-0.01137215,-0.030871347,0.09353118,-0.0077213543,-0.03963721,-0.08553309,-0.24681629,-0.089088656,-0.13938996,-0.10273491,-0.076788135,-0.00057934504,0.07307516,0.0066603892,-0.23463395,-0.046357945,-0.15015668,-0.06904801,0.04148697,-0.21918209,-0.11860244,-0.08817638,-0.13247526,-0.148345,-0.06351904,-0.06953598,0.011192122,0.041119993,0.13159226,-0.048216905,0.00221351,-0.061391283,0.055935208,-0.124320075,-0.15179053,-0.20416811,-0.06437817,-0.058840938,-0.027565943,0.047297064,0.08393035,0.058416106,0.052631877,0.07002689,0.017911099,-0.06126747,0.030377984,-0.084181584,-0.15366718,-0.089360625,-0.14913195,-0.02932691,-0.048934318,-0.009345143,-0.047637522,-0.041112665,-0.001328013,-0.018900447,-0.07195738,0.041781954,-0.031182276,-0.1910939,-0.13276313,-0.20643155,0.0011433226,-0.039706126,-0.048254814,0.19949062,0.1667696,0.11000821,0.17477685,0.09889107,0.03399798,0.041840397,0.13316189,0.06642951,-0.06210495,-0.15564018,-0.08257746,-0.09741026,0.0076237004,0.024758883,-0.104263715,-0.060878947,0.020572284,0.03696899,-0.11875713,-0.06170824,-0.052027628,-0.05902761,-0.07320308,0.029025516,0.022848163,-0.030210258,-0.029546054,-0.11273616,0.009732845,0.12017697,0.16855142,0.16433977,0.12655838,-0.01612019,-0.03302829,-0.112181805,-0.09873081,-0.18734707,-0.094835274,-0.10000386,0.015221456,0.051449977,0.0006632548,0.02945747,0.06711812,-0.024751265,-0.06716493,-0.020865427,0.025217157,-0.051246792,0.08187647,0.14102407,-0.08601039,0.114125915,-0.12318099,-0.051410124,-0.00030392763,0.029798144,-0.138712,0.041588664,-0.08360913,-0.22006445,-0.21529923,-0.029055692,-0.077491984,-0.062165603,0.023941597,-0.06410492,0.03410708,0.0836451,-0.004626761,0.09870816,-0.03230504,0.02641512,-0.012298954,0.010696631,-0.0055332864,-0.031719614,-0.023752598,-0.022149198,-0.036984913,0.11461473,-0.12684393,-0.036769878,0.025080556,-0.21638323,-0.272737,-0.1916057,-0.10019458,-0.058267076,-0.093196124,0.050659634,0.02588858,-0.059991125,-0.096163094,-0.0163595,0.013423482,-0.09109672,0.017113125,-0.00051565585,-0.043217376,-0.05241013,-0.043146558,-0.061975595,-0.04354447,-0.0005866529,0.014047253,-0.041192826,-0.036828432,0.0036056624,0.039797645,0.25749108,0.18946041,-0.053762812,-0.29472622,-0.023241295,0.056182604,0.084767126,0.016667841,0.03596189,0.018314075,-0.07721259,-0.02141498,0.008557208,-0.0957343,0.0046408977,-0.09803135,-0.026140893,-0.031052548,0.037237417,-0.1052477,-0.068825915,-0.095637664,0.04978856,0.07884127,0.11848733,0.14998063,0.24767019,0.22632602,0.1709146,0.03632206,0.02430694,-0.08034031,-0.09308817,0.17874312,0.1296108,-0.00931837,0.09471162,-0.07337348,-0.00038698086,-0.007023541,-0.061510723,0.059000354,-0.037119046,0.0209634,0.019962322,-0.03741546,-0.01898077,0.011878582,0.010559009,0.06643414,0.057049286,0.0921662,-0.07360818,0.040069994,0.13708796,0.14069968,0.054727513,-0.10454492,-0.08050429,0.04301499,-0.08274743,-0.08397562,-0.0719692,0.027200142,0.01902872,0.003599712,0.04563535,-0.033861924,0.043694407,-0.046330534,-0.06494963,-0.028654965,0.021713471,0.062134072,-0.041340813,0.02331254,-0.03189184,-0.031612,-0.027489597,-0.03476623,-0.07155245,-0.09933365,-0.056164965,-0.013476373,-0.090737954,-0.081522286,-0.16289829,-0.082934916,-0.15491317,-0.008919003,-0.12871206,-0.078026,0.0105788885,0.054880463,-0.078413896,-0.14765848,0.03990227,0.0026089011,-0.050236348,0.04577029,-0.047143366,-0.05653217,-0.07094561,-0.013133873,-0.03387039,0.053063136,-0.03647718,0.010842442,-0.103402175,-0.11990352,-0.044514485,-0.09201229,-0.07008292,-0.09311834,-0.057848267,-0.120216556,0.03816246,0.051874556,-0.122543335,0.043156903,-0.072372675,-0.02654114,-0.010184627,-0.04268654,-0.052295405,0.04469924,0.01747492,-0.02901166,0.005417251,-0.0038133126,-0.03465426,0.056625262,0.052755922,0.07690487,0.119460605,0.024070766,0.017837878,0.007693107,-0.075975,0.09098256,-0.064445764,-0.041581713,0.027195077,-0.04854727,0.017347943,0.022905977,0.02229509,-0.021248477,0.009770387,-0.062188655,0.019390378,0.053269546,0.020554624,0.029769922,0.00032162794,-0.02657829,0.013775175,0.0697415,0.070429996,-0.065878175,0.012203757,0.13052201,0.070392,0.010975335,-0.09198057,0.06223993,0.058300067,0.016027918,-0.013413684,0.036607023,-0.06234119,0.052454066,0.011916709,0.0065368726,0.01885719,-0.05806094,-0.012284812,0.024842149,-0.07105915,0.009502989,0.020068888,-0.05477698,-0.03262066,-0.14431836,0.0024376884,0.008200725,0.025217034,0.024976812,0.019365234,0.011158469,0.00954284,0.0327488,-0.011745098,-0.032022536,-0.0069929906,-0.013128593,-0.043106817,-0.056644414,0.05834262,-0.02702451,0.04071422,-0.04979922,0.052806526,0.02520151,-0.0392394,-0.042119466,0.006334116,-0.054893166,-0.011075176,-0.013739719,-0.0863909,-0.0259482,-0.087580144,-0.0041399915,0.008201405,0.0010384076,-0.105675824,0.01849662,-0.019579487,0.037078682,0.004257481,0.022094013,-0.04583253,0.027854266,-0.09049838,0.018688375,-0.063775755,-0.0055501875,-0.06973713,0.059858028,-0.04282103,-0.0065576057,0.002566628,0.048870116,-0.0028326758,0.006008549,0.068375334,-0.025022276,0.030757302,-0.05912841,0.00662882,-0.0067889807,-0.0039378162,-0.093038246,0.035490766,0.06633155,-0.12883128,0.012735853,-0.061760638,-0.041878413,-0.029630242,-0.06118721,-0.18803175,-0.01788864,-0.06889476,-0.096828565,-0.059829626,-0.023811629,-0.027924573,-0.006529196,-0.016544549,-0.093038276,-0.0089017395,0.09241284,-0.04993641,0.0033922156,-0.12507418,0.096175775,-0.0963909,0.052447986,0.024926245,0.009599251,0.018290719,-0.072697885,-0.023816347,-0.02092164,-0.020361692,-0.027959265,-0.009823445,-0.022674961,0.10599176,-0.055604666,0.05843729,-0.11489125,-0.119068466,-0.16133687,0.0029323455,0.0561285,-0.021509582,-0.023721214,-0.07568241,0.03143127,0.03539708,0.05428531,0.055882208,-0.0018594818,-0.024049394,-0.029269932,-0.035814054,0.027003288,0.028864024,-0.041360777,0.054353256,0.016504692,-0.010897559,0.064264245,-0.104493566,-0.076599315,0.05575211,0.0697942,0.07248659,-0.08106755,-0.02921968,-0.25660545,-0.0012779497,-0.009214218,0.124931395,0.16567692,0.1974786,0.18660446,-0.015154108,0.045825794,0.06878533,-0.00032342187,0.114558876,0.0029695095,-0.02456595,0.0019074032,-0.05320863,-0.027175702,-0.01759279,-0.020360311,-0.08861371,-0.1689075,-0.1716618,-0.042497404,0.038178146,0.0032391713,0.09434618,0.110426396,-0.0443588,-0.15397838,-0.18535371,-0.04424666,0.114454396,0.028849714,0.12261507,0.24782053,0.14130001,-0.06152241,-0.011987464,-0.101408064,-0.06254233,0.071442954,-0.026813453,-0.0255006,-0.01798666,0.054412838,-0.09464083,-0.08156004,-0.118376486,-0.087157585,-0.06847887,0.073970735,0.048834223,0.16518036,0.13411804,0.1577153,-0.18421061,-0.05530134,-0.112609446,-0.09186887,0.029462693,-0.0039475313,0.058457498,0.12878129,0.17548895,0.049021896,0.032264005,0.021713993,-0.0074214754,0.053579442,0.017200215,0.0056922077,-0.06242298,-0.015588482,0.0088807875,-0.06226906,0.052784577,-0.04087594,-0.130455,-0.03400686,0.14009811,0.032196205,0.020025775,-0.036365196,-0.21624288,-0.33401018,-0.25648597,-0.041304443,-0.03377243,0.068438895,0.029056424,-0.07496623,0.06496618,0.002780082,0.0075848796,-0.07956534,0.004040579,-0.05655221,0.015660338,0.03202812,-0.07878904,-0.010459763,-0.06001198,-0.063431144,0.09958491,0.0748446,-0.0548321,-0.16540809,0.03696075,0.027374161,0.072535686,-0.05231539,-0.17715932,-0.2228768,-0.15028492,0.079091005,0.10400801,-0.020215122,-0.015138273,0.052143738,0.10019396,0.08288986,0.059732217,0.058316346,0.044692498,0.027547233,0.00045639626,-0.0688342,-0.0527772,0.040019963,0.034714904,0.14322937,0.16954267,0.013130107,-0.120426595,0.09544833,0.1297927,0.19245395,0.29785115,0.14824626,-0.08204653,-0.20664966,-0.09257847,0.1915255,0.15096453,-0.06930411,-0.017376686,-0.046512846,0.002099448,0.048558526,0.052927002,-0.048566796,-0.027186038,-0.03536762,0.021093627,0.048643295,-0.031400997,0.094607994,-0.0080543775,0.091559626,0.083310716,-0.02828785,-0.050752085,0.047012165,0.14876036,0.21749166,0.22320396,0.100071214,-0.1825418,-0.19161527,-0.10149064,0.09846883,0.096947804,0.03273295,0.043937538,-0.03014528,-0.069460236,-0.017449018,0.009280663,-0.021589138,0.043317,0.103989035,-0.038863566,-0.03691676,-0.042583816,0.008322137,0.14348078,0.068356946,0.10234097,0.024491848,0.089515425,0.055980716,0.07654818,0.11456348,0.038793713,0.0070365546,-0.08075489,-0.16989993,-0.023839828,0.07697965,-0.019934429,0.006525404,-0.006344583,0.059285365,-0.06660858,-0.051798537,-0.024907513,-0.04953847,0.018722847,0.09034142,-0.039488897,0.032050647,0.096096,0.08102031,0.02907122,0.17402658,-0.021761265,0.028629996,-0.049712647,-0.21397233,-0.07936543,-0.12814823,-0.0517679,0.10086361,-0.09351328,-0.1647361,0.06331086,-0.029636802,-0.028309675,0.053252324,0.0067047733,-0.03605697,-0.05017612,-0.08146022,-0.065372035,-0.06601886,-0.010651392,0.012600978,-0.023928016,-0.033064168,-0.0060620764,-0.03618804,-0.06771602,-0.010285596,-0.07225428,-0.047525793,-0.26208138,-0.2535823,-0.14807667,0.014926714,0.023858555,0.20092297,-0.055849206,-0.104802325,0.10117871,-0.022129515,-0.005342645,-0.06150869,-0.14749666,-0.061715346,-0.0841323,-0.13434468,0.059131008,-0.05246735,-0.06618858,0.023430428,-0.05553198,0.068011604,-0.04916315,-0.079462156,-0.048809428,-0.18272856,-0.10276739,-0.15940964,-0.0914969,-0.15754256,-0.057399638,0.145986,0.19514666,0.09528531,-0.16903202,-0.05171721,-0.118135564,-0.04236041,-0.02439376,-0.22598895,-0.06063652,-0.109074585,-0.09215528,-0.015029948,0.038416557,0.03987651,0.04501137,0.018088501,0.09001638,0.01545113,-0.023227645,-0.13143262,-0.19080824,-0.22274187,-0.13599293,-0.15949999,-0.09571773,0.009032892,0.05454293,0.020647459,0.075636216,0.10759599,-0.04300755,0.025069986,-0.010084523,-0.01931567,-0.093289405,-0.17895065,-0.026036922,-0.05282101,-0.009602099,-0.06720931,-0.013266684,-0.001287618,0.036405206,0.062183034,-0.07162805,-0.022302719,-0.022292316,-0.0781193,-0.14091256,-0.20850545,-0.14120567,-0.044806845,-0.027806917,0.040221795,0.021634705,0.007489456,-0.13329795,-0.032162227,0.15569796,0.21771696,0.14848498,0.34086344,0.07482679,-0.023138741,-0.01781214,-0.06891341,0.002801683,0.04187255,0.08953739,0.08164125,-0.006644023,0.01181609,0.071935296,0.014331708,-0.08753582,-0.029248819,-0.09453193,-0.042234547,-0.09094763,-0.08497537,0.09455401,0.034756258,-0.0924083,-0.2485239,-0.17707829,0.004183888,0.11128271,0.08677925,0.12091293,0.10651548,0.08343344,0.027863529,0.09101844,0.08023236,0.0060787047,0.04390339,0.048075862,-0.0537331,-0.040939134,0.016883718,-0.011152543,0.056657035,-0.0053217006,-0.009194366,-0.09074016,0.09852121,0.02502416,0.073696695,0.24606392,0.16784324,-0.043602176,-0.24372718,-0.09692883,0.15025826,0.2068364,0.06591344,0.15089132,0.22083445,0.11159117,-0.006658502,-0.027440606,0.050004244,-0.06558261,0.14117043,0.061814748,0.09141089,-0.039246295,-0.017982803,-0.013310238,0.04600091,0.09816727,0.08688576,-0.077371076,0.05755048,0.11165069,0.26579094,0.19884431,0.07955863,0.07927282,-0.0045619085,0.006203363,-0.021856762,0.15149894,0.15365455,0.1332082,0.111581326,0.11187554,0.26109543,0.14198068,0.16129503,-0.019456489,-0.05799595,-0.08393377,0.051594064,-0.008113025,-0.0008122627,-0.037324727,0.039174072,0.06414536,0.025406396,-0.0063099675,0.046338618,0.043536108,0.010444305,0.035114508,-0.0092549855,-0.06571164,-0.1154394,-0.0409264,0.06607378,0.087757036,-0.108522385,0.018269503,0.082888745,0.11113525,0.12153057,0.09212206,0.012892935,0.057247113,0.08711797,-0.019702412,-0.010901454,-0.091710396,0.016502293,0.0038739336,0.054388132,0.0067397146,0.07100109,0.0788713,0.094372235,0.13738969,0.006397579,-0.022793058,-0.05601691,-0.08521432,-0.040883083,-0.21248019,-0.13590015,-0.06980153,-0.17195225,-0.13946158,0.10701123,0.058023278,0.15506963,0.06439323,-0.013897163,0.097573765,-0.003631564,0.056814034,-0.0036902402,0.033798207,0.06601682,-0.052397475,0.011841739,0.036145017,-0.027384847,-0.0035422922,0.09363932,0.10227649,0.10434192,0.027645426,-0.0027955736,-0.0839699,-0.0090161655,0.008120219,-0.14680547,-0.09639663,0.06180246,0.04622927,0.06677192,0.1304245,0.08495585,0.02714765,0.017205445,0.032971624,0.0014640554,-0.021733439,0.056745354,0.054497898,-0.03292632,0.056382637,-0.072771266,-0.034594543,-0.012183438,-0.14235808,0.094172165,0.0088562,0.05384801,-0.03874276,0.10379993,0.05609389,0.038367797,-0.03236859,-0.2086827,-0.3298608,-0.285065,-0.041606586,0.009254432,0.007587282,-0.09777385,0.10526441,0.014039914,0.13006341,-0.0014764215,-0.022299543,0.02510794,-0.017368864,0.024068898,0.011808872,-0.058377985,-0.0010915577,-0.0010591424,-0.12665527,-0.15272677,-0.03486503,0.023395095,-0.022263503,0.027726874,-0.10511894,0.1083929,-0.036550492,-0.09253321,-0.03894892,-0.0069162925,-0.07150335,-0.0029009187,-0.052594535,-0.027369939,0.08587539,-0.057744857,-0.025918532,0.006084895,0.03426498,-0.0560558,-0.0046151816,0.018515026,0.054446198,0.0762139,0.022910086,-0.0075863604,0.10064327,0.011239367,0.083747394,-0.003701369,-0.07027771,-0.07455857,-0.13774118,0.05248263,-0.062325753,-0.09368759,-0.0057635684,-0.026412614,-0.10643391,-0.085606776,-0.07174631,-0.066934966,-0.056747787,-0.004037626,0.007071562,0.043095857,-0.062284216,0.007730151,-0.022006443,-0.04417042,0.09185327,-0.026860647,-0.041569423,-0.033816174,-0.011046394,-0.01866569,0.030352969,0.045778245,0.005794032,-0.08392159,0.07936809,-0.04022122,-0.015627692,-0.058649786,-0.017206844,0.026583496,0.0423819,-0.049974475,-0.0008906016,-0.009748581,0.056591786,-0.0055098752,0.0021012533,-0.027117297,0.06420752,-0.000995812,-0.0740673,0.035109993,0.056214243,-0.012088485,-0.058942836,-0.013804329,0.0077195694,-0.036928486,-0.057432547,-0.041727286,-0.115497984,0.013314153,0.0033830204,0.024267405,-0.0054770643,-0.015423808,-0.034306552,0.030517295,0.07887018,0.011072559,0.06037903,-0.14769869,-0.035960276,0.05599683,0.019001294,-0.02165915,-0.079117425,-0.011344807,-0.014217984,-0.014676915,0.05502388,0.00046854327,0.042726606,-0.035261717,0.008310872,-0.02557016,-0.0061623068,-0.047054123,-0.019126404,0.0070652673,0.012422861,0.02480777,0.08031837,0.014975219,0.04086621,0.0689458,-0.010001279,-0.052252058,0.0046177167,-0.08731986,-0.036263335,-0.015512325,0.08588485,-0.04168557,0.10431445,-0.05737529,0.011736131,0.0492524,-0.06809023,0.106526084,0.032391418,-0.041032717,-0.14720984,-0.0705261,0.08320581,-0.058775224,-0.07825514,-0.015739717,-0.06326539,0.070239514,-0.03744784,-0.015515495,0.03674167,-0.009539221,-0.01328378,-0.011654223,0.0456463,0.033653226,0.00019045729,-0.029734313,-0.027493468,-0.02472727,-0.01250276,0.0055204225,0.015213497,0.020252788,-0.14312178,0.07185343,0.042164277,0.020614645,0.037752945,-0.016339185,-0.035157386,-0.007401986,0.012201006,-0.038998418,-0.0026217473,0.09588147,0.1032038,0.13158615,-0.045646302,0.016802369,0.06736239,0.06220095,0.065181226,-0.0640545,-0.01984349,0.030721704,-0.041854247,0.04283651,-0.060283992,-0.004392473,0.061783627,0.08390827,-0.05174092,0.007322196,-0.111623324,-0.0176854,-0.10266666,-0.027514571,-0.035696834,-0.13285674,-0.012408189,0.03113661,0.08599981,0.25468713,0.17814025,0.17990723,0.14894849,0.03851931,0.013255159,0.027771896,-0.015004266,-0.020257993,0.04317589,0.08749727,0.026787082,-0.035330642,-0.029885039,0.026646154,-0.045638848,0.02812343,0.036136754,0.0101709,-0.023188654,-0.04325255,-0.13969864,-0.1259472,-0.19953232,-0.03255315,0.020435506,0.1812128,0.12672043,0.0055546365,0.0398363,-0.00036748583,0.0747978,0.066477805,0.1516609,0.05112184,0.11388768,-0.047051962,0.10378082,0.1508318,0.07126105,0.020347148,-0.05990797,-0.018268509,-0.08569246,0.013296619,0.023283804,-0.03254965,-0.025857152,0.048358556,-0.03396576,-0.15471694,-0.044246808,-0.011478052,-0.0588688,0.12837134,0.096061535,-0.0038974776,-0.0134658795,-0.113134645,-0.068102926,-0.19903137,-0.027540496,0.115017146,0.17087463,-0.050259832,0.047891974,0.047959667,0.06296634,0.08456176,0.013466791,0.03673163,-0.0012680248,0.03219439,-0.02567009,0.008468236,0.0025950894,-0.040776987,-0.105929606,-0.04368281,0.03925722,0.054547604,0.09544837,0.22868943,0.20504181,0.085607715,-0.16481018,-0.078522615,-0.020862877,-0.0063169,0.1104727,0.26982486,0.1425719,0.10228774,0.10758082,-0.016243087,0.020645212,0.044167824,-0.0004778388,-0.05943538,-0.04056013,-0.0061452985,-0.018060923,0.09207653,0.08685597,-0.10738743,-0.11403487,0.046070673,0.0041733272,0.025393985,0.007887983,0.092614606,0.18417688,0.13912527,0.0135482075,-0.12900609,-0.022717454,0.24770564,0.14933152,0.16931477,0.17675273,-0.048974033,0.022646673,-0.021158796,0.047368184,0.068872154,0.052723605,0.008455427,0.022972915,-0.07016278,-0.103937805,-0.02506822,-0.045286644,-0.059461158,-0.13343515,-0.007175349,-0.082544155,-0.113544986,0.03717795,0.03954889,0.2350665,0.12518463,-0.20491682,-0.35606432,-0.18562783,-0.2142893,-0.10778871,-0.04713039,-0.14088945,-0.038670674,-0.056679446,-0.07024112,-0.09427606,0.027487792,-0.035308145,0.027793584,-0.03630084,-0.00036831567,-0.021279605,-0.040832594,-0.076734535,-0.07698678,-0.142318,-0.011939068,-0.029888757,0.054370094,0.08241651,0.14303045,0.14896113,-0.028642494,-0.45133522,-0.6851404,-0.50669664,-0.39812747,-0.47552782,-0.3803866,-0.47938812,-0.31251925,-0.20595025,-0.22277579,-0.14186457,0.05071678,0.0010960974,0.09292084,0.01653927,0.0776562,-0.005987897,0.004088678,-0.04453584,-0.06564566,-0.15957148,-0.03312853,-0.033643372,0.076125495,0.029137563,0.206414,0.06873728,-0.097613856,-0.38981172,-0.4709673,-0.39110237,-0.26958242,-0.37473938,-0.3478361,-0.52692854,-0.42728055,-0.29812548,-0.30917096,-0.12872365,-0.04282805,0.0042656846,0.044919375,0.0036070314,-0.0064769345,-0.085905775,0.048181098,-0.035554234,-0.028810438,-0.10364128,-0.061609387,-0.09522542,0.05559845,0.039021876,0.067007884,-0.021287752,-0.07165053,-0.15712723,-0.23353516,-0.2506891,-0.20933026,-0.15247622,-0.23408298,-0.19742203,-0.38085288,-0.21876612,-0.18859683,-0.07102109,-0.07795555,0.030174388,0.03211192,-0.13362835,0.00033208964,0.02817218,0.023289917,-0.049921095,-0.036507525,0.00013785974,-0.14446707,0.034390602,-0.035500545,0.16567776,0.1188438,0.08646813,0.017563393,-0.06792189,-0.018378297,-0.016275674,-0.11840722,-0.09887988,-0.1441402,0.010510978,-0.15705542,-0.25111517,-0.14347915,-0.08368542,-0.07170481,-0.008176577,0.0036366675,-0.04052712,0.048414946,0.0055787247,0.011778193,-0.11741311,0.0026188346,-0.06498422,-0.09975689,0.01570703,0.107221454,0.059612304,0.010384669,0.018032089,-0.018205103,-0.064670615,-0.09366064,-0.05898327,-0.09131505,-0.17784055,0.05742417,0.056831207,0.029820729,-0.0463222,-0.08421457,-0.032654297,-0.03441386,-0.039345693,-0.0925778,-0.037273057,-0.011842584,-0.000515234,0.048466086,0.040981837,0.018927388,0.0032509863,-0.06483806,0.048451316,0.0583581,0.14639796,0.13021146,-0.09031311,0.024592118,-0.017784782,-0.20013273,-0.14417139,-0.06869702,-0.04916481,0.026903765,-0.0029506257,0.041931394,0.048552316,-0.12993217,-0.028297301,0.008378346,-0.08862602,0.026780203,-0.04772899,-0.05291303,-0.07042485,0.0241116,0.04301997,-0.07010076,-0.18147832,-0.09764731,-0.032784805,-0.033121035,-0.011830745,-0.0057937223,0.09373977,0.07600247,0.033577036,-0.045990933,-0.058017984,0.06884513,-0.008179882,-0.027411891,-0.09364874,0.10710618,-0.01112384,-0.014437364,0.037620693,-0.04333427,-0.09087614,-0.01580338,-0.0039646896,-0.0083489185,-0.04681916,0.01639848,0.0026980357,0.021610908,-0.14402033,-0.10288746,-0.029636258,-0.057182137,-0.08858552,-0.08399329,-0.15793578,-0.13948305,-0.18370654,-0.15490675,-0.12874855,-0.20501694,0.03432298,0.15111442,0.14809655,0.069664545,0.053341832,0.05870838,0.0049566375,-0.017928626,0.022103405,-0.04324611,-0.00014859138,0.009649644,-0.032637093,-0.011477378,0.04921001,0.02149926,-0.038713623,-0.13624695,-0.11346217,-0.2282241,-0.17431395,-0.17282054,-0.24835098,-0.24827226,-0.23566058,-0.21483271,-0.3405992,-0.11154589,0.09930393,0.14513789,0.26824424,0.25831547,0.014261721,-0.02548337,-0.026560126,-0.015051018,-0.032741964,0.014901608,0.032366257,-0.008472349,0.07209516,0.076858975,-0.045938272,0.04389862,0.03960449,-0.052457634,-0.19312404,-0.16372089,-0.05646206,-0.14968571,-0.08706532,-0.07917662,-0.26950955,-0.26808077,-0.2490662,-0.08234968,0.0969043,0.1518392,0.17954697,0.31295455,0.16277404,0.22663206,-0.037523378,-0.06489742,0.036761254,-0.02099045,-0.0048027555,0.045964316,-0.08876756,0.100687414,-0.0100646205,0.18461458,0.17298149,-0.0946951,-0.3260108,-0.1009474,-0.08280274,-0.06667974,0.034397412,-0.028090049,0.022290345,-0.0754136,-0.008133099,0.11100971,0.23344785,0.013792119,0.20432135,0.2541559,-0.016703373,0.08378464,-0.10401315,0.040598683,-0.013489013,-0.029076803,0.020820078,-0.012545362,-0.040948417,0.019247726,0.014225986,-0.011471569,0.11762685,-0.011716944,-0.108145624,-0.041154817,-0.056645337,0.11146827,-0.0042548506,0.11611978,0.10262257,0.080352865,0.18377446,0.12097939,-0.10248818,0.096249856,0.19937906,0.14557534,0.026005948,0.031071238,0.046231855,0.048311945,0.019382237,0.018231219,0.077011295,0.026775246,-0.06549962,-0.03359015,0.05949119,-0.026042696,0.08865409,-0.032398492,-0.08848853,-0.029680151,-0.108579285,-0.11882181,-0.018402725,-0.008004454,-0.14324754,-0.048044182,0.26059285,0.1078035,0.19773099,0.08122436,0.046136376,0.090845875,-0.0072570895,0.026470216,0.017255552,-0.043800637,-0.03813349,-0.023465132,0.021143468,-0.032401823,0.00021988495,0.029163837,-0.044854116,0.057116237,-0.086462446,0.05510947,0.09052284,-0.058618028,-0.089549705,-0.04228951,0.066095114,0.19022289,0.24439695,0.19642016,0.14205958,0.15348329,0.027300844,-0.0413089,0.03132161,-0.029157829,-0.078279436,-0.045077167,0.02098659,-0.024402909,-0.023356587,-0.17291191,0.020360317,0.042927485,-0.0015319278,0.014831682,-0.06770247,0.0724224,0.048756868,0.13023952,-0.0049171476,0.118191816,-0.06117357,-0.041489538,0.023640163,0.16227192,0.11953024,0.13846417,0.08658716,-0.038921442,0.016136734,0.0408866,0.01688086,0.13025272,-0.09446271,-0.08630389,-0.06829667,-0.061481006,-0.054483466,0.00403034,-0.04961418,-0.009553171,0.017204937,0.030963182,-0.010864363,-0.06473421,-0.07910418,-0.011688646,-0.09974892,0.024601849,0.008969579,0.095920004,-0.10711809,0.08606982,-0.028806608,-0.07872589,0.005102379,-0.10659556,0.017860577,0.10808342,0.06896748,0.045335174,0.04983262,-0.00011282936,0.027008455,0.049474116,0.004580232,-0.037345193,0.056541093,-0.04662717,-0.037351083,0.043114778,0.02857933,-0.0015133542,0.08082077,-0.06046469,0.018669011,0.011611212,0.051772654,0.010930753,0.07745052,0.025304647,0.07814293,-0.019922422,-0.06753051,0.041662276,0.038246997,0.013355978,0.02021572,-0.039126925,0.0026536202,0.002368682,0.08808501,-0.052371193,-0.020362604,-0.031003485,0.061005414,0.043351933,-0.05286666,0.00785207,-0.064160705,-0.06096863,-0.005881022,-0.04519414,-0.06908885,0.022623276,-0.010572655,-0.018218828,-0.006761459,-0.007673207,-0.03096242,0.040849738,-0.006467015,0.015012605,-0.06644434,0.042353347,0.007221309,-0.01169219,0.09905308,-0.0034658355,-0.0100221755,0.002494369,-0.065345146,-0.05218115,-0.033408027,0.078347586,0.018779263,0.0023303619,-0.034752235,-0.023436174,-0.012247925,-0.0041114744,-0.0131083205,0.019344946,-0.07528969,-0.018578278,-0.0033334906,-0.046092,-0.05574617,0.04632189,0.06735511,-0.011573192,0.03122719,0.046412766,0.03739105,-0.06367188,-0.0009078869,0.016344363,0.059076745,-0.060278133,0.0058422694,0.005456642,-0.09793765,-0.036140088,0.053329255,0.03500731,-0.044608865,0.03294034,0.10972018,-0.025992896,0.015615563,-0.0039769616,-0.03447989,-0.036789447,-0.019342588,0.025087146,0.09803814,-0.01932219,0.049477857,0.03758823,-0.045115143,0.043513287,-0.0027288613,0.018433753,0.017240759,-0.0100284,0.014609905,0.042956006,0.009035532,-0.034817852,0.04634352,-0.09828558,0.050391212,0.054024868,0.0013469498,0.07794159,-0.00030223659,-0.029106515,0.023106486,-0.055315066,-0.018819718,0.06521065,0.054283153,-0.03354574,0.025773581,-0.10312711,-0.0055127987,0.08333215,0.07926424,-0.03940075,-0.08413503,-0.017930446,0.034874648,-0.0076381676,0.004634061,-0.047037564,0.0047869114,-0.001916805,-0.061910916,0.006297935,0.06251499,-0.0030106776,-0.013577107,0.04064495,0.014189302,-0.028659293,0.006858281,0.014707696,0.05709778,0.008035409,-0.09959255,-0.11670878,-0.013951974,0.050845154,0.062419318,-0.0050687687,0.054645628,0.06639762,-0.03826912,-0.038642116,0.02840399,-0.06699165,-0.0019217093,0.03620732,-0.031520717,-0.037024446,-0.0033792588,0.07921343,0.01727594,0.105237134,-0.0332078,0.020925444,-0.052393187,0.025654016,0.10505195,0.1797478,0.009811619,0.0908834,-0.025828954,0.007701733,0.044426292,0.013608248,0.14925386,0.12397147,0.12541969,0.12858275,0.036001943,0.039606474,-0.013180922,0.011961243,0.024737246,0.0049559665,0.019638468,0.06036838,0.007874397,0.016094336,-0.010191765,0.028340187,-0.029953253,0.057490177,0.051271904,0.042965498,0.039043494,-0.0135805495,-0.04038506,0.09606358,-0.0064967046,0.06263798,0.018600296,-0.032019164,0.075542346,0.005631971,0.14893222,0.15818186,0.21119195,-0.06573694,0.07348957,-0.020348966,-0.10293846,0.01346762,0.050578855,0.053577293,-0.03449359,-0.11339386,-0.07415925,-0.05043415,-0.06756544,0.030076614,-0.065516435,-0.05290483,0.04470541,-0.04045875,0.0065867268,0.1054109,0.021437595,0.123074085,-0.00927388,0.12272294,0.17008992,-0.06665456,-0.06125644,-0.08425172,0.023622606,0.11404318,0.025914107,-0.06171712,0.051328573,-0.07873143,-0.091751166,-0.03186387,-0.07098585,0.00014935217,-0.031887848,-0.018273126,-0.02006749,-0.0072039794,-0.029162914,-0.03087253,-0.0780339,-0.069272116,-0.06942005,0.024867129,-0.022688068,0.0019743717,0.0746186,0.11381192,0.1477375,0.006554257,-0.12433562,-0.18503462,-0.25144693,0.04492315,-0.03961961,-0.027491713,0.0020898022,0.010212482,-0.02721181,0.018004645,-0.04787854,-0.0011691549,0.0223937,0.0020123105,0.03254946,0.08878439,-0.0012202254,-0.01502205,-0.013046018,-0.021227058,-0.103010476,0.02954557,-0.051791493,0.067584865,0.04426137,-0.040144883,-0.1791151,-0.11750136,-0.13333051,-0.13222143,0.03968212,0.061665487,-0.01843779,-0.035687722,-0.047749277,0.039595235,0.11408413,-0.014691788,-0.014629646,0.025776416,0.07282366,-0.02970994,0.031732645,0.1324687,0.024247171,-0.14654917,-0.0628915,-0.08976375,-0.062389176,0.09782495,0.05947934,-0.098027594,0.07818342,-0.071041964,-0.1214581,-0.065338075,-0.1181948,-0.14594002,0.041603852,0.08049091,0.16143496,0.06434566,-0.06344905,-0.0630173,0.06263423,0.035940517,-0.012144898,-0.07030913,-0.016856391,0.026810965,-0.0066441824,0.007890557,-0.08003205,-0.05915272,-0.032050066,0.018415183,-0.12151269,0.059054878,0.10208067,0.033884212,0.07823638,0.04732558,-0.17460212,0.034311537,0.08257145,0.18503042,0.07168908,0.1684108,0.0069689974,-0.012855094,-0.12633088,-0.084589355,-0.03404715,-0.033842593,-0.024314072,0.017597016,-0.022903023,0.02423131,0.008050677,0.1279283,0.045045745,-0.05240082,-0.15633085,-0.1409458,-0.0009686994,-0.0773491,0.06630717,-0.073217876,0.074855894,0.049127396,0.23103106,0.27797377,0.22925432,0.07640696,-0.04319369,0.03946837,0.06046092,0.022921475,-0.04411942,-0.048914056,0.03862658,-0.011990295,0.0072396398,0.03353089,-0.06328721,0.06635314,0.006221349,0.12516417,0.011400381,-0.15938278,0.014016228,-0.17470951,-0.10067266,-0.22081538,0.05499031,-0.17978516,0.046685956,0.29848525,0.43616617,0.20512402,0.06943234,-0.19338423,-0.09787259,-0.06546375,-0.10862538,-0.11228777,0.0020134673,0.013769015,0.009478507,0.029350094,-0.07800999,-0.0026887862,-0.038842067,-0.05381463,-0.045512103,-0.011477607,0.0133271525,-0.060398187,-0.08972123,-0.11997493,-0.18950605,-0.41488427,-0.17898443,0.068083614,0.13698745,0.27862567,0.20696959,0.18930686,-0.10803199,-0.24633351,-0.24335389,-0.057978466,-0.15663603,-0.1705519,-0.0399171,0.01215399,-0.020035157,0.01257116,0.015323013,-0.050296877,-0.0040538614,0.049894318,0.006787404,-0.08750893,-0.0026106278,0.07228847,0.00013906881,-0.082539946,-0.18920599,-0.2143996,-0.003409132,0.071622804,0.08849201,0.057123426,-0.011308062,-0.0028108335,-0.14975555,-0.07312435,-0.08202474,-0.18921934,-0.08639921,-0.053907696,-0.11097591,0.038023904,-0.10449523,0.007860383,0.00044604143,0.05176335,0.07399797,0.021334432,-0.0066988156,-0.046914622,-0.04637825,0.10842002,0.17609125,0.058572877,0.05928151,0.06423698,0.10609664,0.1033014,0.07530994,-0.014421483,-0.34786832,-0.09973162,-0.017707212,0.015673505,-0.0013735683,-0.04283747,-0.13129212,-0.13960034,-0.062017053,0.0030208603,0.020181455,-0.06916918,0.010546974,0.013602447,-0.03598403,0.057581637,