{"version":1,"layers":[{"Relu":[784,128]},{"Softmax":[128,10]}],"seed":"1767146438","error_function_type":"CrossEntropy","meta_data":{"accuracy":0.9816,"error":0.012906305,"epochs":10,"duration":{"secs":225,"nanos":250398500}},"weights":[{"v":1,"dim":[128,784],"data":[-0.00044579644,-0.008955529,0.02480349,-0.012511786,0.035357926,0.035676066,0.03281657,-0.02772958,-0.004730414,-0.0015681101,0.029913435,0.02477054,-0.011786024,0.028027589,-0.018956581,0.030769411,-0.031788614,0.0077106697,0.0007138183,0.027981576,-0.07356003,0.011477113,0.02751749,-0.019880256,-0.098781236,-0.0026721207,0.08577044,-0.015461254,-0.027374754,0.03564854,0.03173162,-0.091819294,-0.021249926,0.024386283,0.048084468,0.011877468,0.092108905,-0.028538693,-0.008997964,-0.02261729,-0.0067643095,0.08370321,0.022145713,0.023468342,-0.034824688,0.053245187,0.00083905127,-0.022317443,-0.0841925,-0.015132766,-0.040890064,-0.007569262,0.10408877,0.022255562,-0.037436653,-0.052299596,-0.033808876,0.016309317,0.0026876498,-0.072080806,-0.021556962,-0.016649226,-0.021519708,-0.035185862,-0.015268562,0.0389479,0.020975074,-0.10001794,0.019703617,0.08646667,0.043322124,0.008914128,-0.001012769,-0.046703868,-0.020062076,-0.041447196,-0.0021344014,-0.07106609,0.04444844,0.0057809195,-0.050426725,-0.07326612,-0.07639983,-0.000364176,-0.053417835,-0.024943508,-0.0315798,0.05515028,-0.0072144754,-0.08233724,0.058132976,-0.13105434,0.062116403,0.12041514,-0.0061404053,0.04307159,0.04813348,-0.051248528,-0.08832261,-0.04582706,0.06713322,-0.057832222,-0.026801921,-0.017585555,0.009242025,0.0050653606,-0.008711833,0.005292374,0.08605919,-0.03840595,-0.055550102,0.02264678,0.062453,0.030719126,0.031472065,-0.07642604,0.03214886,0.009844403,-0.04098534,0.06715516,-0.0001933854,0.0027283598,-0.014512844,-0.0682186,0.06645053,-0.039536033,-0.07077522,-0.01807169,-0.023434965,-0.08280981,0.048861712,-0.09313656,-0.082849324,0.018819973,0.0016863282,-0.060598943,-0.053766567,-0.0071359836,0.02099243,0.008954654,-0.030555364,-0.0017181897,-0.05896206,0.050989103,0.052804038,0.019547213,-0.078884564,0.0041247876,-0.009092222,-0.0020122577,0.058984403,0.106029235,0.00205814,-0.0511859,0.04745985,-0.032027256,-0.02469942,-0.037203714,-0.10785485,-0.15537897,-0.030383851,0.007489386,0.07928682,-0.050555777,0.022436766,0.005415338,-0.058568988,-0.018424736,0.063592315,0.018074054,0.016802918,0.027200745,0.04645858,-0.015584037,0.080394395,0.011504736,0.061449602,-0.037966967,0.028108506,0.09228849,0.0358066,0.004892899,-0.14633402,-0.033207808,-0.05322123,0.003582654,0.009561838,0.06347619,0.1263723,0.035328027,-0.04706163,0.04449358,-0.080285005,-0.03311616,-0.035848655,-0.024701217,0.017996913,0.08829975,-0.06816123,0.036414765,-0.122843795,0.03994004,0.007583414,0.07820513,0.10778895,0.13915867,0.09382561,-0.026196938,-0.026659248,-0.027570784,-0.11568452,-0.042434033,0.08184437,-0.054253846,0.119443774,-0.02372675,0.013606445,0.07318002,-0.044995736,0.007510491,0.059937317,0.05003568,-0.04391788,-0.008872123,-0.09588973,-0.00883677,0.00008011434,0.045951493,-0.0122957425,0.07465947,-0.023527736,-0.040076554,0.0077385264,-0.058432795,0.027931755,-0.07887616,-0.11794744,-0.0438517,0.0014029128,-0.0015088788,0.040817637,0.05047686,0.020925187,-0.07172146,-0.03496015,0.049033944,0.030992782,0.074343055,-0.061661866,-0.0063845064,0.023199806,-0.016950956,-0.0097410185,0.03341318,0.080047175,-0.07195742,0.037967812,0.034629453,0.014336,-0.015422512,-0.022844069,-0.0427895,0.06748295,0.027444206,0.037183456,0.014840883,0.029294373,0.0593116,0.05237188,0.006530024,0.09794736,-0.020060595,-0.09495076,0.045345366,-0.02347577,0.020018365,0.059011478,0.062250227,-0.016916875,0.0018381866,-0.034641795,-0.04509978,0.10181947,0.010741646,0.06586067,0.02788884,0.052149277,0.055602435,-0.08859263,0.030647732,-0.024675773,0.095727436,0.10810816,0.06592221,0.024171248,-0.018945938,0.0053037624,-0.09696086,0.14340441,0.10218252,0.1422764,0.05591979,-0.017865418,-0.103155464,0.07816307,0.015713409,-0.09980392,-0.057409815,-0.016975002,0.019383715,-0.0032372242,-0.036481343,0.058258694,-0.0035140705,-0.08362329,0.10825734,0.049168207,0.015621224,0.042267818,0.101474725,0.17686397,0.0533881,-0.016847603,-0.06866537,-0.07417733,-0.01626904,-0.014009115,0.05077274,0.04086419,0.020011423,-0.030592712,-0.092946835,-0.049563497,0.15431184,-0.046003044,-0.07931257,0.022141188,-0.018788943,0.055718,-0.00021192335,-0.06819406,-0.07307615,-0.03631392,0.0070027066,0.05675532,0.17882226,-0.005337782,0.115751274,0.09324552,-0.07821158,-0.16330221,-0.07104057,-0.0967511,-0.0417646,-0.057701457,-0.1583099,-0.09758235,-0.015562509,-0.017562846,-0.10809467,0.0011933896,0.012019995,-0.050385535,0.06403174,0.048049536,-0.039518826,0.0430013,0.035068475,-0.013570508,-0.02418356,-0.040332258,0.037572917,0.04523585,0.0834494,0.19706243,0.11327639,-0.023321245,-0.18892667,-0.14531352,-0.15400724,-0.085324585,-0.15577538,-0.08743902,-0.05644228,-0.08507304,-0.015865898,-0.09282502,-0.076459855,-0.036827296,0.050209437,-0.00024225602,0.01555304,0.13959068,-0.06338344,-0.06305023,0.020327153,0.04325936,-0.072086155,0.018380053,-0.039738797,0.00738274,-0.060871232,0.12203324,-0.04599997,-0.24103633,-0.16000532,-0.08848965,-0.08039152,-0.12739046,-0.14271697,-0.051299594,-0.13701744,-0.14806692,-0.080533184,-0.07905526,-0.13340315,0.011105049,0.0008188148,-0.028208477,0.08329338,0.017835004,0.05684242,-0.07625607,0.032888897,0.045293994,-0.046211887,-0.08056832,-0.064155154,-0.024180343,0.0075442106,-0.031275854,-0.16777568,-0.054563288,-0.082104854,-0.054116752,-0.0366841,-0.110013664,-0.069857486,-0.09817947,-0.04160091,-0.029403416,-0.078225866,0.03356485,0.02864679,0.00063076086,-0.00048018878,0.07423305,0.020679958,-0.037227865,0.045542505,0.09362838,0.01938775,-0.0143074645,-0.120755486,-0.1343268,-0.094234526,-0.10516279,-0.090062715,-0.13146405,-0.13515064,-0.11195078,-0.11074899,-0.03172134,-0.05326627,0.0058796383,-0.07744389,-0.12352513,-0.18116187,-0.10847415,0.021048522,0.09322003,0.033450432,-0.032880705,0.045444004,0.021090286,0.002193378,0.005628409,0.056775067,0.03588928,0.065382294,-0.03727613,-0.11089432,-0.15643479,-0.16170806,-0.03175726,-0.03846004,-0.023248406,-0.06887984,-0.014404902,-0.034859885,-0.003579588,0.031138888,0.06231688,0.005134678,0.08846663,-0.03402306,-0.18121594,-0.02624089,0.08647791,0.09596147,-0.009636775,0.06333648,0.09269157,0.0450107,0.03328424,-0.07730526,0.03463275,-0.06064365,0.06077893,-0.07158888,-0.031180266,-0.1057214,-0.071936995,-0.07803459,-0.0064809453,-0.08960526,0.07931859,0.032923866,-0.006233446,0.080538,0.048018094,0.0470391,0.01671173,-0.10190016,-0.007946137,0.0086396905,0.009625059,-0.054216936,0.029426744,0.0639064,-0.051999994,0.011905592,-0.012363865,-0.0049060974,0.11672272,-0.008512452,-0.09612717,0.03942387,-0.0311486,0.020673878,-0.012883981,-0.012656941,0.005121351,0.054304376,0.013765381,0.029265968,0.037760332,0.051154107,0.0873225,-0.00034744613,-0.0015718027,0.00836954,-0.009254423,-0.028538734,0.09247135,0.026277129,0.026229331,0.015887992,-0.00509214,0.0059800255,-0.005359272,-0.049127042,0.039802458,-0.056865823,0.012233022,-0.08751519,-0.014506959,0.052514978,0.101878576,0.06591128,0.026449561,0.07403726,0.094194815,0.020833705,0.06945495,0.10451417,-0.081893615,-0.028641742,-0.020926636,-0.08828644,0.102561966,-0.034461726,-0.024134856,-0.060882535,0.042024102,-0.111851946,0.044113256,-0.011386772,0.032965563,0.0435857,-0.037079636,0.0822829,0.10738356,-0.036069438,-0.060425006,-0.011258843,0.07725865,0.09871044,0.042694002,0.032879554,0.021946168,0.009055501,0.023376467,0.060088336,-0.015368692,0.037758004,0.09372898,-0.01926314,-0.055787735,0.040568214,0.051478,0.013251717,0.0385409,-0.053438876,0.011743481,0.10834021,-0.039103024,-0.010462154,-0.016873533,0.089300856,0.023560494,0.07153026,-0.022907717,0.09005304,0.062457576,-0.033345815,0.0759769,0.06534225,0.018187635,0.043486245,0.10674022,0.10659194,-0.060408205,-0.03528086,-0.051626995,-0.10112486,-0.19323336,0.03651616,-0.026378712,-0.078986734,0.02106155,0.07418199,-0.03464945,-0.055217817,0.006744921,-0.09791433,-0.102286056,-0.060742702,0.0067442176,0.05256716,0.10774537,0.15551539,0.036417216,0.11790322,0.11391929,-0.01653822,0.1483445,0.08399474,0.07796355,-0.057830203,-0.0014289344,-0.08028881,-0.03854504,-0.0679227,-0.032317664,-0.052460175,0.023382684,-0.005955304,0.05265045,0.028702645,-0.017474324,-0.045181815,-0.044944223,0.022051074,-0.04236289,0.025112184,0.019223304,0.054851484,0.077472754,-0.010100829,0.059872523,0.08116683,0.12705646,0.0485331,0.054022368,0.05712617,0.064355224,0.0029708536,0.014527737,-0.086435236,-0.015496052,-0.03997103,0.09050359,0.025008338,-0.028074667,-0.057091992,0.018730657,-0.0064102844,0.047790408,-0.024278028,-0.07688295,0.024366984,0.012920279,-0.012470065,0.07086237,0.02599262,0.0454396,0.08271191,-0.03933137,0.04771589,0.05365351,0.0011528573,0.109116934,0.083428025,0.006056859,-0.07536037,-0.05052612,-0.014540113,-0.0038878974,-0.03188062,0.024615834,-0.03021296,0.031714365,0.034985684,-0.034081995,-0.0072359415,0.029645879,-0.005106197,-0.036673427,0.023438811,0.05689233,0.023897884,-0.029304268,-0.059351444,-0.04911529,0.026752826,-0.04184258,0.006586273,-0.057443332,-0.08277789,0.0019115383,0.0642128,-0.0616205,-0.057740286,-0.06313789,-0.10517356,0.0050564655,-0.1367665,-0.07364424,0.057750557,-0.012302289,0.02088084,0.009189538,0.034007147,0.047746148,-0.019141296,0.017643712,0.05235333,0.08949289,-0.03487716,0.040486924,0.022082254,0.02766911,0.07441606,0.0057144845,-0.022977788,0.051681165,0.06334892,-0.034523234,0.015109267,-0.0577335,0.011476578,-0.09208866,-0.010875348,0.0655049,-0.0020378185,0.029272638,0.047031425,0.08880921,-0.06310318,-0.016718427,-0.043557532,0.011967509,0.08640486,0.048917778,-0.10904367,-0.047493484,0.05824043,0.06642727,0.022967441,0.009013369,-0.0067508053,-0.033332787,0.10422549,-0.0018891282,0.06840306,0.03685212,-0.034899928,0.014364724,-0.03685162,-0.022800144,-0.083226465,0.027950829,-0.044912033,-0.06606856,0.13081868,-0.027279675,-0.02469882,-0.025404664,0.087738074,-0.06816128,-0.05389802,-0.021709708,0.10488712,-0.010211278,0.012486266,-0.025955835,-0.03293638,-0.07989065,-0.07260697,-0.04995716,-0.06739306,-0.009205292,-0.06497506,-0.007802003,-0.03239423,-0.049540374,-0.050742105,0.067437425,-0.023068056,-0.0032062146,-0.031577107,-0.03679724,-0.029708376,-0.053989545,0.019636683,-0.0035792831,0.0382018,-0.013038218,0.010453221,0.031080332,0.035486683,-0.024706244,-0.02126242,0.09893924,-0.028499974,-0.036835264,0.09301072,-0.0636465,-0.06413015,-0.032690164,-0.08249529,-0.0076032537,-0.025719957,-0.024439719,0.0777016,-0.0074247313,-0.011430723,0.06525484,-0.04619649,-0.07269936,-0.006666184,0.0373705,0.018404601,0.03480704,0.019990407,-0.03269024,-0.016804762,0.0780453,-0.0456972,-0.0010620547,0.037086073,0.0081742555,-0.023191826,0.06126255,0.085201554,-0.06766584,-0.071233496,-0.004978678,0.026818115,0.015176413,-0.038813308,-0.19720477,-0.14483584,-0.15356973,0.03366518,-0.03496957,-0.041207287,-0.01988242,0.015755326,0.0015532714,0.0047204304,-0.029532816,0.007831811,-0.03915916,-0.011014756,-0.066856645,-0.011366297,0.05475373,0.0010905248,-0.092623584,0.022572111,-0.016594049,0.014724717,-0.15875909,-0.04045005,-0.018916488,-0.011461927,0.019711003,0.02390409,-0.0083826855,-0.059722573,-0.12393222,-0.07797895,-0.022524444,-0.09070083,-0.057499826,-0.0069284393,0.079758905,-0.0247705,-0.01085921,0.0055587264,-0.0048940266,0.037774026,0.023486054,0.02139635,-0.100847855,0.056516778,-0.02545324,-0.09298633,-0.08860085,-0.12916467,-0.10059927,-0.067200854,0.0078973975,-0.105463624,-0.12482843,-0.08298897,-0.08212196,0.086280845,-0.11038392,0.005106261,-0.1275924,-0.11440934,-0.08320128,-0.02217363,-0.039489377,-0.10546923,-0.009666127,0.012778477,-0.020664174,0.014595824,-0.031016868,-0.019367386,-0.0060357046,0.0019299121,-0.012597465,0.13244152,-0.10607361,-0.16112648,0.016981924,0.009312353,-0.024993086,0.055560276,-0.058895674,0.0433044,0.0024776743,-0.10286865,-0.15942296,-0.061927136,-0.14823756,-0.21131738,-0.19961624,-0.07655771,0.09751581,0.067591995,-0.05274021,0.05117683,-0.031099068,-0.035692036,0.04627453,-0.03774701,-0.04767815,0.03388617,0.016236478,0.0011632823,-0.029897146,-0.06919443,-0.120458715,-0.10713196,-0.15538764,0.04410339,-0.07321499,-0.120852955,-0.15363239,-0.05548236,-0.04986895,0.051354725,-0.13689643,-0.18352363,-0.2139827,-0.12547809,-0.03954084,0.057936657,0.059765987,0.052594975,-0.021289287,-0.0134846885,0.06998161,-0.026882535,0.044327345,-0.021609286,-0.038138546,0.042293858,0.047529865,-0.059318565,-0.1177988,-0.12794197,0.10670299,-0.017001957,-0.089387864,-0.16105278,0.025430752,-0.002880864,-0.0016341748,0.05354183,-0.09888065,-0.2797144,-0.1544459,-0.026844999,-0.04240968,0.11885426,0.043681808,-0.014493379,-0.009999077,-0.034625877,-0.09825835,-0.015364002,0.027003765,-0.0064877286,-0.10303194,0.19748497,0.051005814,-0.06166728,-0.08557269,-0.22540027,0.023201257,0.052764688,0.07332059,-0.051341202,0.0036471763,0.19720338,0.14313915,0.12646148,0.034195803,-0.093840905,-0.19256018,-0.095124565,-0.054756217,0.05016194,0.07605928,-0.03277015,-0.016551463,0.05027787,-0.009013932,0.045770556,-0.058394708,-0.041993417,0.0470298,-0.04133767,0.09410746,-0.0737739,-0.053626046,0.030409712,0.047368728,0.13863981,-0.013071221,-0.0014550465,0.1264993,0.19939278,0.36512053,0.1527714,0.08099814,0.060644533,0.03191143,0.06797718,0.09853272,-0.036744967,0.021157948,0.054267306,0.016412145,-0.062921315,0.017347105,0.00798918,0.06643006,-0.11086317,0.046080828,-0.11810905,0.018459052,0.08210152,0.0996006,0.027635688,0.06313877,0.1445995,0.15125208,0.093974285,-0.07868273,0.1716989,0.22824323,0.3290183,0.13198555,-0.07924868,-0.021956213,0.10381107,0.099354096,-0.04516499,0.01125991,-0.122503415,-0.04252447,0.05123379,0.04048864,-0.004999804,-0.033557646,-0.015845327,0.05208902,-0.047529805,-0.061983615,0.087193795,0.018417327,-0.0035595421,-0.024372755,0.07990414,0.1727166,-0.009773784,-0.21207896,0.14714554,0.22067583,0.16703522,0.22618227,0.016798204,0.0060224365,0.08644085,0.03195475,0.052604847,-0.07039003,0.054594755,-0.012986081,-0.029270768,-0.09276865,-0.019911423,-0.025709055,-0.0076841875,-0.020439621,-0.05042718,0.010626077,-0.030962162,0.017756594,0.011305154,0.22243324,0.0456076,0.07328317,-0.080410786,-0.15830085,0.068948984,0.20505169,0.3163387,0.10195267,-0.080374956,-0.049145535,0.044717785,-0.0045768763,-0.074084386,0.0046866112,0.08200276,-0.008130119,-0.06814305,0.00697368,0.007886358,-0.0038411089,0.063669674,0.034229968,-0.018269533,0.05583564,-0.080435656,-0.23389348,0.16555673,0.24321125,0.107604645,0.001449149,-0.1154622,-0.19532652,-0.05583618,0.14430289,0.33651796,0.15346676,-0.1166615,-0.06082951,0.08824835,0.022455484,0.01671382,0.03445747,0.03575856,0.00807307,-0.061113957,-0.099795714,0.012852069,0.083275884,-0.054588024,0.003050916,-0.047974188,0.06549337,-0.014920606,-0.12142323,0.012331924,0.034021005,0.15260188,-0.013238556,-0.13834293,-0.33476362,-0.037465073,0.24791571,0.45162404,0.19041628,-0.10055855,-0.07540621,0.03560543,0.03623607,-0.00051623484,0.012601188,-0.029469434,0.059237625,0.11838112,0.036176935,0.061238084,0.013018656,-0.06163478,0.11147406,0.020196231,0.05289725,0.08082966,0.108493075,-0.032244604,0.046213746,0.07716397,0.0826272,-0.093990706,-0.25455782,0.05137244,0.23332235,0.22052503,0.08039019,-0.071912475,-0.18989833,-0.07121118,0.0045712152,-0.071538806,0.009246915,-0.0737842,0.021433843,-0.048542213,0.013774353,-0.038268927,-0.08877302,0.009356098,-0.011256759,-0.10859344,0.053594545,0.03626397,0.01642973,0.080400005,0.14749078,-0.010356045,0.02606975,-0.20605974,-0.04796269,0.18094452,0.046312463,0.021401314,-0.14914997,-0.11084649,-0.07977933,-0.08396571,-0.1605967,-0.049700353,-0.084573075,-0.102785,-0.041540295,-0.06454927,-0.08165647,-0.049562026,-0.0575676,-0.04429075,-0.024255792,-0.17043461,-0.053933974,-0.012786479,0.012377479,0.0065068775,-0.011139699,-0.114867404,-0.22685811,-0.265336,-0.014827906,0.11325293,0.03420916,-0.086714126,-0.20587264,-0.10456218,-0.08884057,-0.1019091,-0.12880024,-0.10683523,0.037532322,-0.00919217,0.013090465,0.027972305,0.04504481,0.005263277,-0.023091583,-0.13907818,-0.062850654,0.0031390425,-0.110716976,-0.1314444,-0.09157326,-0.09752508,-0.22095457,-0.25150076,-0.17884684,-0.19330533,0.016631816,0.11170299,-0.016984552,-0.0852924,-0.024008783,0.033179525,0.053146504,-0.09321639,-0.1695735,-0.104684845,-0.030667942,0.0005395903,-0.00045880373,-0.036850177,-0.02002949,-0.07466469,-0.047695782,-0.11085515,-0.059699047,-0.05884865,-0.13478866,0.143895,0.017044308,-0.08868439,-0.16502865,-0.18329304,-0.07052773,-0.3075913,-0.05670362,0.09114321,-0.017810835,0.030704768,-0.05592645,0.003626415,-0.086195186,-0.02091072,-0.09032763,-0.020794656,0.07532351,0.050157305,-0.0039489786,0.044751436,-0.005788001,0.01324302,-0.026446126,0.06758834,-0.0076057212,-0.040444992,0.014118186,-0.07067869,0.104557335,0.034437444,-0.04872614,-0.23125581,-0.17597698,-0.09483166,-0.027950946,-0.09952294,-0.007506757,-0.066857204,-0.19358392,-0.19995977,-0.0804397,-0.04452415,-0.034544844,-0.023165148,0.060435284,0.03099708,-0.045414686,0.021944083,0.03696771,-0.059930902,-0.04146314,0.021549601,-0.041510586,-0.0952195,-0.0697127,-0.08837915,0.07991252,0.059709348,-0.12705219,-0.077173695,-0.25889415,0.01930841,0.1847792,0.13747074,0.09293321,0.0124419425,-0.018414995,-0.08053253,-0.16389829,-0.07503513,-0.014393652,-0.043288726,-0.042016797,-0.010087438,-0.049993917,0.018799225,0.0141721,-0.030986227,-0.051653903,0.058972582,-0.030090408,-0.023827864,0.05978649,-0.049488973,-0.000113727474,0.064646356,-0.0004493408,-0.030868666,0.04911888,-0.0023974979,0.082344145,0.12159696,0.20984761,0.19360894,-0.053508893,-0.04326559,-0.14573829,-0.014114767,-0.021747002,-0.0868032,-0.010313289,-0.041776188,0.040087238,-0.04866172,0.045385137,-0.04249717,0.006791091,-0.054319147,-0.015246141,0.05091078,0.088916324,-0.016041802,-0.04644923,-0.054425146,-0.14589925,-0.19266006,-0.15338318,-0.18533817,-0.034555435,0.05622774,0.04535581,0.053009838,-0.05401705,-0.109606415,-0.053121287,-0.010355559,-0.011250064,0.05439455,-0.018734733,0.025067028,-0.019240648,-0.017573608,-0.036870126,-0.010352054,-0.04814608,0.024815783,-0.033645917,0.123155184,0.17418346,-0.022723906,-0.02536479,-0.055791784,-0.0669784,-0.0841286,-0.22295074,-0.12693526,0.03473527,0.04913907,-0.021403896,0.12043359,0.012409452,0.04143444,0.1038609,-0.007259302,0.054521583,0.035155706,-0.039607044,0.013006548,0.028998643,-0.049736716,-0.04811257,-0.036077365,0.08312292,-0.028042758,-0.11066849,0.0049000965,0.07445983,0.03249562,0.06363196,-0.00027477538,-0.008330138,-0.08846111,0.036439646,0.0074074315,0.14068988,0.08278027,0.0011533307,0.014188244,-0.022034789,0.046945494,0.113520145,0.013070068,0.120886706,-0.018148176,0.032299872,0.015669977,0.03545657,0.014275235,-0.13261639,0.068258874,0.089373805,-0.027030556,0.049114868,0.013388024,-0.06908805,-0.061560847,0.061763495,0.0075272433,-0.011140829,0.0026120753,-0.0068172263,0.021241698,-0.05655273,0.103349045,0.008284302,-0.035507098,-0.046563443,0.0868409,-0.005360597,-0.003597817,-0.044052605,-0.007948273,0.0009017178,0.010712588,0.022072276,-0.030505696,-0.03423436,-0.008994419,-0.0054346053,0.07071626,0.0049644914,0.06949228,-0.11752946,0.005762697,-0.062142175,-0.033399187,0.033341717,0.10951869,-0.025403531,-0.06530914,0.0004720759,0.076561235,0.022366015,0.074258894,-0.06364685,0.033341356,0.009043364,0.07303104,-0.034633555,-0.0037706709,0.014283292,0.044035677,-0.042127382,-0.009920665,-0.034112826,0.0740072,-0.030747466,-0.0015083527,-0.004817957,-0.03136086,0.028046768,-0.033204764,-0.059314635,-0.086636215,-0.046401743,0.02302328,-0.004597831,0.010439558,-0.04107368,0.025173863,0.05970961,0.05573961,0.09695419,-0.044994656,-0.025813658,0.10192955,-0.058645416,-0.021698225,0.0017881365,0.048157927,0.00789132,0.044923335,-0.10243244,-0.08524238,-0.06287179,-0.031054584,-0.1197793,-0.02215189,-0.03125932,0.044940237,0.07122253,-0.071379766,-0.0030116409,-0.034377377,-0.08424904,0.028117206,0.032929875,-0.0010960691,0.028805386,-0.017491888,0.0072436687,-0.0005246199,0.10113833,0.0061162068,0.034174774,-0.023773,-0.05290601,-0.082515456,-0.009058093,-0.019526191,-0.07133873,0.01284704,0.094226494,-0.07131715,-0.01707595,0.073988594,0.047714554,-0.03697929,0.011776686,-0.02136116,-0.019549133,-0.08273931,-0.10976839,0.012420214,0.099070825,-0.052193664,-0.03414678,0.008896105,-0.05740746,-0.0605063,-0.020494655,0.03046411,-0.021198563,-0.19429435,0.017291762,-0.038668163,-0.019663673,-0.024530087,-0.075171895,0.0035095972,0.04997492,0.05493517,0.029606842,0.065541536,0.045916136,-0.09533143,0.018353894,-0.093964346,-0.013497599,-0.07871898,-0.07105236,-0.0071332,0.18245535,0.20810942,0.0589013,0.06844491,0.032225553,-0.04760025,-0.1250116,-0.16914475,0.0070529804,-0.074706964,-0.00741275,-0.003299747,0.021956997,0.09353296,0.014029948,-0.10460747,-0.035218976,0.05809047,0.031173356,-0.00022000163,0.016222285,-0.07155818,-0.1765098,-0.0213534,-0.08299671,0.04598718,-0.03802486,0.09584754,0.017029982,0.03380838,-0.037194718,0.16157246,-0.13619016,-0.18676299,-0.0308211,-0.014159577,-0.00657474,-0.0861079,-0.008014217,0.05225059,-0.008058704,0.012166953,-0.12941414,-0.014611619,0.07875402,0.060193855,-0.030782355,0.0364994,0.045629736,-0.15075244,-0.1441581,-0.16022258,-0.09129478,-0.023232553,0.05437549,0.15680666,0.11915278,-0.0081065055,-0.0032542066,0.023469765,-0.043624464,-0.0966615,0.07391345,0.2605823,0.19124289,-0.10208988,-0.0025309226,0.054380674,-0.070959106,0.10686404,0.008620656,-0.0012226102,0.024261998,0.017364468,0.050389867,-0.034527324,-0.017093461,-0.08549154,-0.09199319,-0.05643037,0.07195157,-0.05379542,0.1291225,0.1561382,-0.019081086,0.25763968,0.2620636,0.34773806,0.19734392,0.049092893,0.039739296,0.06166294,0.1933133,0.09829823,0.04513636,-0.12866002,-0.053028982,0.031505574,-0.013633484,0.02201702,-0.0066024694,-0.04589666,-0.022504646,0.062745355,-0.10654025,-0.1060136,-0.16507536,-0.13601835,-0.19036125,-0.07065573,0.20650415,0.20446645,0.2299991,0.21603817,0.3756371,0.33270788,0.1978474,-0.07184395,0.11034744,0.04518704,0.1797382,0.19333267,0.05830421,-0.00084443286,0.0428515,0.07549127,-0.019308206,0.00296193,0.07243419,-0.07352469,-0.18203786,-0.015997428,0.009052742,0.0052195126,-0.21351206,-0.14509453,-0.26896918,-0.22460136,-0.05172723,0.25503457,0.20430417,-0.08833193,0.025026634,0.27282196,0.13792586,0.00860495,0.13203926,-0.020775383,0.089569524,0.19502836,0.19624367,0.058151655,0.01130563,-0.10468134,0.017522769,0.05496677,0.012278334,0.004914364,-0.031455543,0.05200861,-0.00078188727,-0.02809563,-0.16180946,-0.082908064,-0.14915568,-0.18828496,-0.049621917,0.15970172,0.19419393,0.08287032,-0.008593489,0.09667743,0.11204915,-0.115188174,0.12086786,0.04835311,0.21467313,0.28725126,0.24893355,0.117372274,0.060105804,-0.067558184,0.0253263,-0.008223639,-0.08258694,-0.03307629,-0.09172962,-0.045429256,-0.11532185,0.089564145,-0.023501815,-0.18051633,-0.2620034,-0.05911645,-0.14876066,0.13581815,0.13633226,-0.0029184064,-0.16791067,-0.028310025,0.0377274,-0.047744792,0.046244137,0.17118664,0.07396171,0.24280834,0.14451793,0.14651588,-0.043745413,-0.05454732,-0.0020612637,-0.09601065,-0.07756189,-0.071139395,0.101300314,-0.020012842,-0.009196735,-0.068231985,-0.11041076,-0.053661108,0.01839471,-0.05052985,-0.11756727,-0.05323677,0.005459007,-0.032789424,-0.15451492,0.013108143,0.1357288,0.1479867,0.08243928,-0.011091772,0.0051190318,0.12252166,-0.06324432,0.034148492,0.019963162,-0.041290775,-0.012136993,0.04124919,-0.024464974,-0.060082395,0.05202815,-0.0927359,-0.011788448,-0.111828476,-0.053557783,-0.0053731143,-0.03626834,-0.119070165,-0.10347087,-0.10480253,-0.16457428,-0.113538556,-0.094026595,-0.10523871,0.00036539268,0.14636002,-0.061235644,0.093732856,0.010601694,0.08376036,0.0058493507,0.051732134,0.041774597,0.01774642,-0.053987823,-0.11185315,0.041288443,0.06945591,0.11024795,0.067869656,-0.120441705,0.08684937,0.01090844,-0.048037995,-0.0011740488,-0.070021965,-0.036640476,-0.01859271,-0.20359837,0.007832555,-0.22713032,-0.052422713,-0.17908223,-0.16618882,-0.034662213,0.055783123,0.06665052,0.10716551,0.0894719,-0.0006013588,-0.06058497,-0.069460906,-0.05379637,0.01625775,-0.047196947,-0.0023998863,-0.009806135,-0.036185585,0.08857132,0.04810661,-0.0408072,0.015873417,0.03952646,0.034215778,0.015106476,-0.21268718,-0.044850618,-0.00059422414,-0.10374892,-0.17622428,-0.16667737,-0.27303168,0.00940621,-0.034588646,0.039148226,0.1316145,0.13818014,-0.04440704,-0.021868048,0.0302246,0.036112927,-0.015614557,0.032568555,-0.022709342,0.06509651,0.018450897,0.24702193,0.06796388,-0.04059417,-0.07791638,0.04544576,0.08702642,-0.09423618,-0.21823111,-0.18029617,-0.14944671,-0.10063579,-0.0952877,-0.29020968,-0.24253112,-0.09609634,-0.022549255,-0.002150633,0.018845921,-0.038093776,-0.0018957263,-0.057518177,-0.051050756,-0.010094402,-0.009554615,0.059957717,-0.097401,0.1366782,0.16578722,0.15426524,0.11140301,0.12669623,0.013399879,-0.08158225,-0.20085438,-0.3916312,-0.20967734,-0.15717295,-0.09862385,-0.035535235,-0.054783702,-0.14829944,-0.18965721,-0.146507,-0.1316151,0.004144532,0.047505327,-0.1413152,0.006972602,-0.059821535,-0.025360605,0.011764368,-0.17939408,-0.06646631,-0.024451211,0.09140306,0.23664115,0.2672199,0.19207892,0.28657615,0.022219185,-0.14292806,-0.3389536,-0.51848555,-0.40731332,-0.18235634,-0.072393276,0.013588851,0.10107957,-0.14630377,-0.19016096,-0.17967904,-0.06924021,0.03746161,-0.006836807,0.030324932,-0.057926454,-0.070939966,-0.0012576036,0.06462267,-0.096512266,-0.073025934,-0.17295784,0.067133576,0.120410085,0.2104936,0.104027025,0.25764626,0.0173606,-0.17359535,-0.22020386,-0.1783646,-0.25005367,-0.029930381,0.020828316,-0.13862598,-0.07526928,-0.17127258,-0.17000492,-0.15006606,-0.003427478,0.07214188,-0.035304062,-0.15390992,-0.027009493,-0.010926999,0.002848737,-0.017820476,-0.04135174,-0.03593406,-0.036948565,-0.010039404,0.21540564,0.1461496,0.09651794,0.27566782,0.11140676,0.017465048,0.08236046,-0.022164693,0.03503878,-0.13512358,-0.095301494,-0.19854409,-0.05461596,-0.1944817,-0.19358599,-0.21069379,-0.10052688,-0.0098485965,-0.13202152,-0.05663242,-0.09382924,0.011173159,0.06136418,-0.043808114,0.013800385,0.08493746,0.00040498553,-0.032469463,0.104327925,0.08186625,0.064309545,0.12024816,0.10614293,0.16320713,0.06272218,0.044016313,-0.035206977,-0.2640499,-0.092381515,-0.2944316,-0.14249837,-0.1964297,-0.14367297,-0.21537821,-0.103859164,-0.06453941,-0.060836554,-0.1344995,-0.05983549,0.018175157,0.027500646,0.02886862,0.06046474,-0.07751143,-0.07521905,-0.101300366,0.07972501,0.28861544,0.14733972,0.08807081,0.10563818,0.25898743,0.21144141,0.1854475,0.060355064,-0.07888159,-0.0403848,-0.26385254,-0.19653004,-0.2191416,-0.14881465,-0.114916205,-0.24441239,-0.07347096,-0.04682982,0.04356078,0.0113788545,0.0016817364,-0.014489494,-0.07112044,-0.054867856,-0.03556138,-0.022010105,0.07921427,0.029837422,0.009355818,0.15243375,0.037608024,-0.0047637327,0.3535284,0.2605192,0.106260344,0.044769704,-0.17486495,-0.2524414,-0.0426679,-0.11324283,-0.23015538,-0.15879823,-0.18255489,0.022373432,0.01808608,-0.07912898,0.036357056,0.13753554,-0.0039057287,-0.012134611,-0.10730176,0.013509483,0.072071694,0.009347954,-0.0152314175,0.07477465,-0.045823622,0.06692343,0.04604582,0.12600088,0.24325758,0.21555704,0.25203955,0.09415885,-0.19334635,-0.06151895,-0.08439183,-0.030591791,-0.024777899,-0.13730489,-0.016810888,-0.060754314,-0.035774533,0.10321956,-0.09042798,-0.01868201,-0.13243352,-0.06463211,0.057626255,-0.061044287,-0.037154082,0.04816384,-0.04348502,-0.0135768065,-0.048195776,-0.04315631,-0.096244864,-0.08958116,0.0074541173,0.11230792,0.09050871,-0.035166536,-0.07083273,-0.073507525,-0.015715884,-0.0829233,0.018932343,-0.05908173,-0.03557043,-0.038975865,0.0007527198,-0.056395315,-0.061416548,-0.018698165,0.048137844,-0.0042920248,-0.031756416,0.0262306,-0.015404887,-0.14104554,0.021655316,0.013335852,-0.11414593,-0.074259,0.0618274,-0.01735993,0.0017191148,0.0777449,0.065560214,0.12213157,0.100759484,0.012677255,-0.051995847,-0.0046004774,-0.07425516,-0.030661738,0.014495222,0.017611759,-0.077072956,0.0006466941,-0.06768682,0.01497281,-0.05459904,-0.12686652,-0.045701,0.09746192,0.034253094,-0.009048571,0.03345153,-0.059148084,0.044686086,0.047893774,0.064743176,0.10905134,-0.07080869,0.08683655,0.018166732,0.013904405,-0.008293129,0.029636769,0.035688683,0.028139163,-0.020924548,0.029347591,0.024107905,0.023136958,0.07462685,0.009992988,-0.07056187,0.010092232,-0.03170319,0.03168366,0.0402045,-0.03475419,-0.085026406,0.050787915,0.023666356,0.03422069,0.043962546,-0.005706525,-0.03521251,-0.09348639,0.016119577,-0.014806776,-0.04013366,0.016055768,0.024913698,0.03462412,0.012070442,0.03756317,0.01956824,0.039328583,0.077893674,0.04342224,-0.00660987,0.08370009,-0.015800523,-0.07337678,0.040444825,-0.041205566,0.09281698,0.021260463,-0.0077446303,-0.028363379,0.06512479,0.010736836,-0.027204717,0.022792868,-0.0675298,-0.007964475,0.014866033,0.04357768,0.06349662,-0.0392809,0.013087845,-0.051874932,-0.03607028,-0.042966597,0.030753488,-0.07254442,-0.06811147,-0.01780189,0.014416457,0.036821797,-0.11336639,0.0028864248,-0.018387316,-0.080792226,0.005982982,-0.0014698216,0.008323537,0.010549872,0.086044915,-0.016786862,0.06441013,-0.05414487,-0.01105246,0.017243775,0.073950924,0.065040156,0.0070649036,-0.035350386,-0.095474094,0.0611403,-0.04015385,0.077358045,0.019862896,-0.023205852,-0.106648,0.032173272,-0.05660848,-0.031736642,0.11001263,-0.039332084,0.031696532,-0.013906019,0.0010752435,0.07933595,0.034566615,-0.0027316217,0.03724365,-0.00038600795,-0.024940478,0.0136153735,0.01694964,0.04220226,0.054292925,0.013959668,0.09229149,-0.020499842,-0.16383503,-0.21241915,0.021178033,-0.031797387,0.0026810854,0.007195381,-0.056739923,-0.033927392,0.10272154,-0.004222643,0.0014339935,-0.028953202,0.015486142,-0.059531182,-0.046449002,0.004194971,0.06795974,-0.07150374,0.031688068,-0.075809315,0.039646506,0.11950247,0.14147691,0.0066356366,-0.05755424,0.0782679,0.15648824,0.070813216,-0.01997491,-0.05362934,-0.012553265,-0.029457042,-0.048425436,0.09254253,0.038601168,-0.046026316,0.013669922,-0.031688787,0.0075348527,-0.026636269,0.005469942,0.027735732,-0.05220099,0.005762627,-0.07791288,-0.009224027,-0.055361904,-0.011650506,0.0539104,0.05815103,0.015703415,-0.0014722402,0.013251059,-0.03807346,-0.02884481,0.02220174,-0.044528387,0.033259634,-0.03679701,-0.07270412,-0.037655436,-0.080400445,-0.014482458,0.023882978,0.038417708,0.01748925,-0.039586116,0.10203434,-0.024637477,-0.021687124,-0.063658565,-0.054907057,0.02590135,0.11726336,0.070219375,-0.09226926,-0.08190259,0.011457273,-0.03727162,-0.08825598,-0.13520913,-0.20707941,-0.049329247,-0.01632202,0.11526431,-0.038308125,0.04382452,-0.093018085,-0.2559083,-0.24154326,-0.11393973,0.00724106,-0.020109307,-0.015908947,-0.023472521,0.014559054,0.08187396,-0.041989304,-0.028267123,-0.01706093,0.02192838,-0.007480213,-0.038832545,-0.09575493,-0.07676438,-0.08385426,-0.108839266,-0.08918311,-0.14194867,-0.117115155,-0.035721935,0.13196322,0.09138734,0.06878483,0.00819075,-0.127004,-0.105088785,-0.07876811,-0.11830655,-0.22781992,-0.13613904,-0.07717278,-0.04740435,0.00693199,-0.053130377,0.04283095,0.051617615,0.018302344,-0.03655641,0.010365395,0.044073258,-0.14540687,-0.216884,-0.1427055,-0.08476831,-0.12767518,0.12583122,0.014304676,0.15408452,0.061047103,0.06685678,0.018477032,0.011373563,-0.099402905,0.078857556,-0.0062524537,-0.027344694,-0.1175631,0.063478135,-0.049016796,-0.14700861,-0.107994445,-0.0068950495,-0.040054485,0.055631787,0.060016725,0.011776688,-0.008318559,-0.045348655,-0.03304007,-0.12645641,-0.13540177,0.07444648,0.05603835,0.15281811,0.19790876,0.081922896,0.07995929,0.05390535,0.06846051,0.037500087,0.08412003,0.06687743,0.057147063,-0.0811638,0.02224799,-0.0049532247,-0.06733218,-0.100844726,-0.0550945,0.076939024,-0.012004756,0.009574692,0.0048970114,-0.055594414,0.054883946,-0.033931676,0.05403165,-0.015250091,0.012701485,0.065324105,0.014942122,0.2365317,0.14390764,0.09876105,0.008947509,0.05799032,0.014313522,0.14222915,0.10708226,0.17855026,-0.018975047,-0.021384027,-0.108374655,-0.10488236,-0.20082279,-0.22356145,-0.13198815,0.03381715,-0.013336959,0.030937728,0.018733652,0.122091234,-0.05959086,0.15659764,0.028259723,0.10011765,0.09319005,0.0041177175,0.10977843,0.13575426,0.17610554,0.09462532,0.08911037,-0.035845928,-0.012100495,0.29922602,0.25594345,0.10088446,-0.05142516,-0.07092559,-0.19329314,-0.07129862,-0.045290068,-0.17716283,-0.10313782,-0.07622117,0.045250196,-0.0030390972,0.05562257,0.043515112,0.07786882,0.082559705,0.20937532,0.005589209,-0.08561988,-0.088190496,-0.036633223,-0.3166476,0.07246349,0.06584639,0.02512867,0.23806013,0.3701903,0.4349396,0.43472463,-0.032722805,-0.26342222,-0.23947889,-0.28868034,-0.07531991,-0.036314674,-0.038883496,-0.069741294,0.023054663,-0.0142284995,0.075133786,-0.0075819874,-0.12859279,0.03909275,0.030835725,0.016087994,-0.030171927,-0.05749672,-0.031244658,-0.13970846,-0.18985549,-0.059771948,0.016017161,0.049083006,0.17870873,0.36455086,0.22950722,-0.024981808,-0.12790953,-0.42564976,-0.27938578,-0.092101954,0.00056102325,-0.07793802,-0.054625303,0.0224312,-0.0011081529,0.013296387,0.021396736,0.006638364,-0.04315119,0.007340559,0.10672017,-0.018849475,-0.03666884,-0.24075402,-0.14554012,-0.18617536,-0.035123814,0.0630706,0.10554352,0.0511557,0.068552844,0.12867853,-0.000053662836,-0.28481254,-0.20840268,-0.2905625,-0.1144362,-0.08111517,-0.01393029,-0.053826284,-0.0006560982,0.035291925,0.050464395,-0.05620572,0.030633928,0.022467978,-0.024836682,0.029753532,-0.036279388,-0.049699802,-0.027872905,-0.12956598,-0.093716025,-0.06975746,-0.09861947,0.075864725,0.014020031,0.26977935,0.24314575,0.05904653,0.10616497,-0.1381669,-0.3610541,-0.25954196,-0.040830966,-0.15660109,0.051087353,0.07349257,-0.020841518,0.08070431,-0.04015738,0.002908831,-0.067369916,0.097148284,0.036764637,-0.05658631,-0.123107284,-0.107040435,-0.0028581987,-0.09684941,-0.0679369,0.120757416,0.026948303,0.15580308,0.051257953,0.097563654,0.12728669,0.1286563,0.05298155,-0.26673,-0.32670376,-0.27114642,-0.13477011,-0.16628106,-0.076524936,0.095689274,0.028080368,0.03663533,-0.013650627,0.009980374,0.056797877,0.010879917,0.10113277,-0.03832237,0.025008831,-0.11067849,-0.2770539,-0.09195688,0.059855342,-0.035016157,-0.019060606,0.021089295,-0.043104097,0.019383872,0.07078374,-0.15981986,-0.19336441,-0.15347084,-0.22399701,-0.17385288,-0.13056397,-0.0956318,-0.08589743,0.009815419,-0.0078877155,0.028596815,0.023976253,-0.017397359,0.027866779,-0.054010008,-0.00041774247,0.0087198205,-0.058501467,0.039780434,-0.07528538,-0.12068648,-0.0038393792,0.014343418,0.11897967,-0.0047278665,-0.15209517,0.018631754,0.036281314,-0.28121635,-0.16540451,-0.16578057,-0.15303107,-0.07891771,0.020714063,-0.03746352,0.14077601,0.024180843,0.059393734,0.087185085,-0.013266096,0.08302184,-0.025488291,0.0032523675,0.011016551,0.01740781,0.08596399,-0.0754117,-0.031508032,-0.023117404,0.07048771,0.13230951,0.04404651,-0.14911954,-0.07470473,-0.059729926,0.042933535,-0.21459718,-0.10212642,-0.1460938,0.04062855,-0.009104935,-0.04130029,0.019883793,0.046820138,0.0036894372,0.085117675,0.039012376,-0.07836239,-0.020999126,0.020412296,-0.022818362,0.081373274,0.049199756,0.042251788,-0.052897725,-0.14812727,-0.093516074,0.041451555,-0.0152327465,-0.043682028,-0.024500027,-0.08896875,-0.011325674,-0.087238386,-0.10323243,0.10748934,0.11803919,0.04737289,-0.04152809,0.24156672,0.13137136,0.052512493,-0.08349688,0.040022325,0.059501562,-0.027456531,-0.037132572,0.024514623,-0.025106128,-0.036879305,0.058477927,0.032497175,-0.09314691,0.010751496,0.056880727,0.06802897,-0.040823035,0.022667337,-0.1322991,0.003599844,-0.122644335,-0.031761665,0.026700992,0.13402437,0.06658916,-0.070737526,0.034095965,0.11776979,0.09869064,0.11486162,0.039000057,-0.08248123,0.08055168,-0.06433756,-0.11148712,0.060203794,-0.13361806,-0.020689227,0.06260277,0.03143281,0.05013857,0.005954993,0.048227735,0.106298834,0.11998408,0.027550653,-0.12868683,-0.083646625,0.099474646,0.062315807,0.13953993,-0.041091822,-0.029933553,0.0007319988,-0.06401437,0.15469575,0.15548298,0.08979749,-0.020475114,-0.009578503,-0.05126795,-0.00027007356,0.0024778845,0.025847394,-0.05492413,0.028802954,-0.09213504,-0.0063652964,-0.018606579,0.06859427,0.045748692,0.020546751,0.07786322,0.013330255,-0.1136176,-0.07942247,0.06882653,-0.060565885,0.07032997,-0.026246542,-0.024155898,0.0659836,-0.02415119,0.07631026,0.04874942,0.061350387,-0.0365314,-0.0519472,-0.036211446,-0.02442406,-0.030857017,0.005673303,-0.0062579857,-0.049849197,0.058830064,-0.0039610947,-0.03477335,-0.022802945,-0.095687486,-0.040311027,-0.1386814,-0.079032704,-0.062076643,-0.17303592,-0.14723605,-0.18628703,-0.15876183,-0.06486819,-0.01619837,0.0056098057,-0.11868986,-0.10661126,0.05270325,-0.020641385,-0.119457066,-0.026634827,-0.017894113,0.06947156,0.019354444,-0.018595895,0.020932665,0.026432566,0.039139323,0.07698371,0.039352857,-0.009242326,-0.051458277,-0.04235507,-0.083176814,-0.09120376,-0.12938115,-0.089841105,-0.08489439,-0.09379383,-0.004682228,-0.009620579,-0.018554548,-0.109864585,-0.02788626,-0.08690657,0.06449427,0.042984962,-0.023934435,0.028302794,0.112120904,0.07409646,0.03829388,0.087314285,0.09183575,-0.01886944,0.017429953,0.038746104,-0.0015614203,0.05703913,-0.031581078,-0.004132816,-0.0047511766,0.03530913,0.12205549,0.15542904,-0.12887914,0.18804371,0.06775085,-0.14637586,-0.019474313,0.033499654,0.040185302,-0.0077442857,-0.00022791486,-0.00033928995,0.06602012,0.013199833,-0.026061049,0.0067642285,-0.00032064735,0.03659797,0.060691558,0.024556894,-0.03459786,-0.06494219,-0.030288331,0.013290498,0.012724745,-0.021628005,-0.010574536,0.028605195,0.03071985,-0.012457321,0.002127069,0.018332422,-0.041843224,0.016131548,-0.05958773,0.037128102,0.048134316,-0.09126207,-0.016327355,-0.0065782783,0.0447936,0.0893605,-0.07276633,-0.08275373,-0.07866646,-0.04042697,0.004169587,0.0013717494,-0.049723532,0.011907877,-0.068097465,-0.011875829,0.030989178,-0.059919477,-0.042947147,-0.009116936,-0.0718223,0.024448816,-0.08531392,-0.038361695,0.051256906,-0.027346428,0.0059472364,-0.010806381,-0.014682247,-0.026941698,-0.017896244,-0.020638956,-0.07126288,0.07999673,-0.022907149,0.03338543,-0.049515363,0.014219949,-0.021125587,-0.09263832,0.0027299267,0.08704229,0.05285008,-0.010938215,-0.077822976,-0.04562386,0.08980372,0.07117676,0.040849216,-0.0076720845,-0.053914547,-0.077939115,-0.020595266,0.09449783,0.041815896,0.06108877,-0.0013738121,-0.0148754185,-0.022212315,0.056822296,-0.05106136,-0.0007746162,0.010199676,-0.09105078,-0.061933905,-0.09294877,-0.020021806,0.049254816,0.05487404,-0.04492849,0.01748337,0.029338544,-0.09346459,-0.017907292,-0.039685365,0.036758665,-0.081588775,0.035776034,-0.029920334,-0.036088314,-0.03783096,-0.03480361,0.076627344,0.048776854,-0.07627367,-0.009064063,0.043425925,-0.0068473667,0.026505074,0.06926168,-0.106699914,-0.04723106,-0.010878832,0.01501316,0.035822205,-0.07709023,0.05576505,-0.10314539,-0.08790018,0.020202277,0.0067999447,0.04727173,-0.09196231,0.06037844,0.020285752,0.18903157,0.042305473,-0.0519008,0.027402416,0.047662463,0.001990736,-0.010884849,0.060710117,-0.019595576,-0.009102188,-0.0037897218,0.0827653,-0.014953034,-0.09218523,-0.06978444,0.008709917,0.045645993,0.0046025678,0.075332195,0.02865198,-0.07191748,0.034968525,0.06920369,0.022072809,0.12533943,0.100679085,0.09815232,0.13226162,0.064127594,0.19001651,0.122845806,0.051429205,0.064432025,-0.0088748485,-0.042475604,0.0037296733,0.1324878,-0.012752592,-0.031811006,-0.041372232,0.020195037,0.056816656,0.07994346,-0.07846431,-0.03342129,-0.058902062,-0.038645618,0.0058919825,0.047166433,-0.057621017,-0.006646797,-0.07279629,0.021100082,0.029850965,-0.030793793,-0.04425901,-0.14307797,0.05953374,-0.04390637,0.0363617,0.020780124,-0.047754962,0.07265212,0.13018467,0.0073407465,0.11069037,0.10313051,-0.07999522,0.017221846,-0.01568123,0.047266115,-0.06350915,-0.022840694,-0.0063096825,-0.0013996898,0.020184522,0.014710883,0.06905875,-0.03702493,0.027286746,-0.11562345,-0.2376506,-0.069872364,-0.16268407,-0.15481563,-0.25459415,-0.023618836,0.071330085,-0.019629449,-0.13146424,-0.0140566435,0.02872721,-0.102462,-0.02517622,-0.061758194,-0.022206355,-0.057111505,-0.04204713,0.042945746,0.024332333,-0.028636884,-0.105594195,0.021970067,-0.0031507318,-0.0074936976,-0.009626546,-0.08005091,-0.17581052,-0.1969826,-0.24641189,-0.1742873,-0.0966392,-0.106394626,-0.021864975,-0.05697042,-0.095247716,-0.08389732,-0.03903956,-0.019543618,-0.0257233,-0.063220896,0.09725064,-0.023167709,-0.009411341,-0.06384375,0.023945566,-0.03643607,-0.03736321,-0.010249302,-0.08749926,0.050844382,0.014611367,-0.034245037,0.007146328,-0.13794656,-0.18545704,-0.1889611,-0.14363022,-0.020801615,-0.14927438,0.029323006,-0.09263322,0.011690458,0.06598964,0.051208425,0.010804561,0.062518634,0.10566686,0.038320925,-0.009452255,0.06702807,0.012261801,-0.07559925,-0.004694696,-0.06014343,-0.06714783,0.020441713,0.029201511,0.12881811,0.053476393,-0.024858268,-0.038936984,0.06771417,-0.016536972,-0.09137845,-0.023518983,0.06500005,0.073776424,0.09893375,0.103098296,0.12415953,0.009100618,-0.010745309,-0.04945239,-0.09882512,0.0811961,0.11601046,-0.022713473,0.08255103,0.12784486,-0.015054838,-0.11748631,-0.06746931,-0.084269695,0.00879465,-0.006846619,0.004454746,0.07057861,-0.048147377,0.016195005,0.083672844,-0.01595454,-0.07233594,0.057860106,0.12682137,0.15332931,0.097020425,0.18260764,0.056468606,0.071605556,0.030152254,-0.13088802,0.07460694,-0.017205302,0.052084368,-0.04667748,-0.0070698485,-0.039411776,-0.008414633,-0.06708079,-0.094694264,-0.1073375,0.029463474,-0.038947824,0.04672884,0.023752162,0.0151204225,0.013639367,0.0676631,0.07291324,0.06193932,-0.009092277,0.122670025,0.10124894,0.11671361,-0.07846691,0.17398928,0.13410465,-0.03382289,-0.14575733,-0.10602682,0.010108532,0.05460088,0.026554713,-0.035565674,-0.01005774,-0.019731212,-0.05924551,0.0030449058,0.036052454,-0.057647627,0.0038677633,-0.002631558,0.03709141,-0.071389765,-0.050353616,0.07339359,-0.12830828,-0.08024624,0.08666119,-0.013547918,-0.10142666,-0.2377475,-0.25683838,-0.03072867,0.017434146,-0.028618777,-0.07180177,-0.08508298,0.10617225,-0.00017827014,-0.049946576,-0.002947817,-0.06709475,-0.0942169,0.0044055637,-0.02042115,0.023560267,-0.016851276,-0.0265671,0.055342346,0.008589195,-0.04760379,-0.093739696,-0.15328398,-0.18306103,-0.22216856,-0.11113722,-0.18735902,-0.17636043,-0.2585128,-0.23357373,-0.009819253,-0.11634297,-0.12447973,0.011831926,0.05798662,0.021752862,0.015190772,-0.013395896,-0.010745272,-0.08777791,-0.024026532,0.12824102,0.0649526,-0.0072029918,0.006862016,-0.04060657,-0.034833305,-0.06333558,-0.099506356,-0.19037412,-0.14689623,-0.2136351,-0.27794135,-0.35431585,-0.2709165,-0.0951581,-0.122504264,0.08790304,0.07273534,-0.06383998,-0.052764162,0.019421568,0.09020412,-0.008985385,-0.13356343,-0.044468813,-0.008756407,-0.17076828,-0.06430435,0.023549452,0.0084312605,0.053071283,-0.018755475,0.036136784,0.006424405,0.017940735,-0.047379017,-0.043249324,-0.1383221,-0.019718211,-0.17422771,-0.074118234,-0.078024246,-0.060035545,0.067042634,0.17366113,0.06388955,-0.1877396,-0.17265658,-0.029778909,-0.06392453,-0.09699043,-0.26506758,-0.19356951,-0.16713452,-0.2011521,-0.032226473,-0.028990792,0.05389855,-0.13081485,-0.029990613,0.00809677,0.0059590684,0.040511172,-0.051925857,0.03760599,-0.025332535,0.059265148,0.05297622,0.11643589,-0.06410352,0.13549426,0.07542452,0.16891804,0.0029532844,-0.08321021,-0.07928467,-0.1419392,-0.15128848,-0.12515374,-0.11128468,-0.09954914,-0.13163903,-0.08859449,-0.049721494,0.120114736,0.008241456,0.025184924,0.0073913774,-0.010204136,-0.040874116,0.0077704694,-0.028881282,-0.06185018,-0.03411258,-0.028718038,-0.09133688,-0.017438248,0.09927017,0.15260255,0.11568842,0.17398494,0.014608354,-0.037888523,0.021876886,-0.12042844,-0.26943117,-0.24499781,-0.08578954,-0.074756294,-0.21128064,-0.014249192,0.078527674,0.08386343,0.002772024,-0.036696058,0.04655421,0.0048126774,-0.031815972,0.06561269,0.042627413,0.006010823,-0.008880068,-0.028216138,-0.03637171,-0.11622931,0.078380056,0.06408109,0.15985136,0.09292718,0.044387314,0.094103254,-0.08233888,-0.16667819,-0.094804436,-0.10512506,-0.09415677,-0.037390746,0.011069176,0.044350088,0.08357063,0.15965173,-0.038009144,0.050354317,-0.048611123,-0.042119507,0.04354236,0.015653972,0.14153156,0.16718118,-0.005912344,0.093777165,0.036032755,0.10388064,0.02619943,-0.04401202,-0.107752986,0.15227051,0.08868121,0.07871311,0.08192658,0.05515864,0.0047298027,0.0045248237,-0.019935785,0.011656105,-0.05331503,0.028822279,0.049628355,0.11833461,-0.0121188965,0.06716672,-0.011192471,0.0253811,0.047965102,0.09871874,0.09070551,0.11473492,0.09760045,0.1330542,0.13979386,0.006257104,-0.02295514,0.02993311,0.13817206,0.2038763,0.13494949,0.079404175,0.1659916,0.13887936,0.17983009,0.038117994,-0.11210827,-0.14066884,0.0060409303,0.050846968,0.09844152,0.06968122,0.054258972,0.072906055,0.045490466,0.008810852,0.07565003,0.06658305,0.040774643,0.008845429,0.16378361,0.104409814,0.062977135,-0.016180692,0.04357369,0.041669734,0.017301137,0.013992582,0.09819237,0.11423242,0.20023726,0.10235601,0.16465129,0.12961759,-0.051578704,-0.011675208,0.052215643,0.101831056,0.08782464,0.058534227,-0.03998737,0.010574587,0.056172527,0.015573671,0.10144193,0.10201256,0.13934441,0.017707784,0.0683268,0.014469136,-0.0814388,0.0608025,0.042307388,0.15110622,-0.06869853,-0.11459708,0.048757374,-0.003944226,-0.007714324,0.20717257,0.19567278,0.109221146,-0.016429499,0.051575966,0.04303923,0.07130628,-0.00560645,0.12218261,0.11126336,0.036312502,0.025981262,-0.04049007,-0.035387825,0.019763608,0.12945853,0.08061204,0.03723482,-0.033790264,-0.1098382,0.041194778,-0.08724717,0.008690286,0.060068075,0.042815357,0.012857881,0.021216372,0.098645404,0.20890155,0.14098333,0.13069731,0.024883935,-0.04715624,-0.039950084,-0.029783178,0.006766155,0.08144101,0.0100418655,-0.014337035,-0.015637785,0.11541274,-0.0025553873,-0.011112052,0.051211745,-0.021853747,-0.06898012,-0.1521326,-0.118306674,-0.05488674,-0.07992227,-0.0081287585,-0.079424545,0.019868696,-0.02122635,-0.1204066,0.098550744,0.0036698726,-0.04644884,0.03977751,0.028461296,0.0395553,-0.004412901,0.02094375,0.043847986,0.025284216,0.069339685,-0.08098204,-0.012755682,-0.050983455,-0.03390189,-0.058187224,-0.07812684,-0.07099802,-0.040956926,-0.06465756,-0.07036439,0.02526464,-0.02811306,-0.13569087,-0.047605097,0.04208274,-0.029820452,0.045358602,-0.039277136,-0.051551707,0.0022371619,-0.006741107,-0.055650685,-0.0437633,-0.09033227,-0.0026077,0.05410169,0.042933017,-0.04067055,0.015080028,0.031110052,0.010842207,-0.08402016,0.059501316,0.064225964,-0.042564202,-0.008249966,-0.0037362403,-0.037304528,-0.04917837,-0.080069855,-0.022993363,0.028682115,-0.02313675,0.040485226,-0.019448781,0.0033003523,0.028662806,-0.055979356,0.030557752,-0.014189267,0.07425352,-0.04437469,-0.065684475,0.03248797,0.010559189,0.015295707,-0.06510083,0.012825276,-0.014939971,-0.025462285,-0.055594817,0.010265792,0.13903736,0.09612765,-0.017185263,-0.02493978,0.02024392,-0.08693356,-0.017327042,-0.04157206,0.0682086,-0.060231704,-0.0036822201,0.06260693,0.0492476,-0.0038857171,0.0137669,-0.036661863,-0.0033285033,-0.061360355,0.008122604,0.014912011,-0.010476359,0.0068855225,0.039846852,0.051045757,-0.04731419,-0.001377184,-0.08684622,0.0053288494,-0.035553735,-0.033596445,-0.036830757,0.032167353,-0.025145661,-0.011449378,-0.008068119,0.019689787,-0.037387855,-0.031099118,-0.028426593,0.020643221,0.034866113,0.09122935,-0.02934952,-0.019855887,-0.09509253,-0.029997129,-0.048736036,0.015552374,0.04744344,0.07623451,-0.028720323,0.026569609,-0.08507824,-0.03067799,0.043967903,-0.04739334,0.03996198,-0.051863544,-0.032802474,-0.09575814,-0.029785167,0.031101197,0.05457918,0.07095871,0.016069045,-0.06814313,-0.0013096089,0.05886893,0.02558646,0.024373855,-0.071185835,0.11635449,0.032768086,0.032724176,-0.026286189,-0.021517958,-0.043673996,0.041203275,-0.04773015,-0.028257081,-0.0043794615,0.0064497367,-0.025816604,-0.062720284,-0.078983866,0.07781766,-0.15425746,-0.06434303,0.06292636,0.009621741,-0.0397051,0.008835392,0.057325836,-0.035218317,0.029348189,-0.039265007,-0.087526746,0.089770675,0.06874236,0.044670165,-0.091500305,-0.03598797,-0.0412478,-0.04796796,-0.00292833,-0.03845489,0.06496946,-0.06833565,0.000823332,0.06037917,-0.024993517,-0.000116479605,0.01077403,0.01086924,-0.07227326,-0.0744638,-0.048808865,-0.03164922,-0.06938008,-0.11722787,-0.054505654,-0.0010657405,0.037365627,0.06372177,-0.020591248,0.06188149,0.03852902,-0.033388387,0.118573874,0.04038379,0.02351223,0.0054075704,-0.026265914,-0.0015287534,0.046999916,0.02879523,-0.007849392,-0.15254824,-0.013071878,0.050622247,-0.10610928,-0.055459104,-0.073065594,-0.008088707,-0.049784567,-0.039305355,0.10261383,0.07147789,0.0894581,0.0814878,0.028679838,-0.0018403354,0.025250426,0.07656075,-0.12123911,-0.072420545,0.04531984,-0.00081774755,-0.04009112,-0.09245254,0.0020822969,-0.01802219,-0.020862462,0.00031158328,0.07107443,-0.039610665,0.0019177085,0.045478255,-0.025395641,-0.03855257,0.020025266,-0.11777508,-0.008012074,0.104290135,0.17036074,0.10324177,0.08393708,-0.0019978464,0.09549523,0.07891482,0.2541227,0.031455226,-0.12646933,0.0025229878,0.044686522,-0.080708,-0.022551518,0.021642042,0.045840673,0.0013420079,0.067315534,-0.0003288304,-0.033579875,-0.07671639,0.077750236,-0.12804821,-0.045666076,-0.022630397,-0.08995007,-0.069760725,-0.072364435,0.015386026,0.047211766,0.087784894,0.01984229,-0.007498735,-0.09178609,-0.021137374,0.1350641,0.0008904811,-0.13192791,-0.06143916,-0.11017632,-0.09397608,-0.08685878,0.037130997,0.088901386,-0.0014501128,0.08020118,-0.010260103,-0.042870007,-0.030766051,-0.086647905,-0.1335189,-0.008879291,-0.036679868,-0.07320882,-0.056955058,-0.054800116,0.05334114,0.055664778,0.057100736,-0.05490644,-0.12165371,0.0027129005,-0.0074428516,-0.00902165,-0.10181375,-0.12996952,0.15919939,0.018813336,-0.04223247,-0.12970266,-0.031437196,0.040324192,0.02919329,-0.08581668,0.029020034,-0.022408348,0.054674238,-0.020743914,0.0071002427,-0.112964794,0.10273867,-0.12763807,-0.022982592,-0.14640512,-0.13864651,0.16073467,0.12591173,0.0047939727,-0.022835212,-0.04014844,-0.09013457,-0.05206987,-0.14043744,-0.11814052,-0.010832381,-0.039386358,-0.074286036,-0.115997165,-0.023536326,0.08805577,-0.0062924884,0.034186874,0.027572699,-0.008523605,-0.1263018,0.025210138,-0.031375166,0.0066817873,-0.10304087,-0.047955357,-0.070750035,-0.13197099,-0.04540829,0.1420016,-0.032829754,-0.18270871,0.09230386,0.0012598103,-0.030576281,-0.028344845,0.050828483,-0.07815447,-0.124015324,0.0061659315,-0.1255827,-0.14731349,0.015699383,-0.0045006596,0.14233474,-0.07264237,-0.043193366,-0.0068682516,-0.062141363,-0.020479457,-0.08118345,-0.03392575,0.010063752,0.068537556,0.069035515,0.06258622,-0.06833784,-0.041991696,-0.021515656,-0.12679866,-0.036898084,0.035532583,0.05421945,0.2031182,0.038147643,-0.056819618,-0.20096008,-0.1449447,-0.06364082,-0.15374638,0.022796297,0.10820006,0.06262357,0.071021624,-0.0053674914,-0.061917875,-0.02658266,-0.008691903,-0.053148568,-0.041725114,0.060366526,0.14209908,0.016663816,-0.029820967,-0.08632867,-0.037965074,0.12954703,0.05467174,0.058827806,0.111062914,0.08526109,0.2072744,-0.028244203,-0.15570076,-0.12635306,-0.080714196,-0.03949007,-0.0028789404,-0.0020635151,-0.10341921,0.054988373,-0.04405368,-0.0043525975,0.07756413,-0.04337303,0.0144008575,0.027050542,-0.04242447,0.040444408,0.044136193,0.14599876,-0.14277929,-0.21859887,-0.098254986,0.08471009,0.089575045,0.082029514,0.13289665,0.08256638,0.21250013,-0.034683384,0.089667715,-0.10709929,-0.08254244,0.044354174,-0.07339273,-0.03921066,0.005516692,-0.07602957,0.011804414,-0.06371309,0.012362214,-0.09652277,-0.08750717,0.041120972,0.056530364,-0.08059365,-0.015103124,0.045786913,0.0040598493,-0.012305167,-0.121243864,-0.0303902,0.01232358,-0.17032875,0.027871795,0.1387828,0.1862504,-0.14513615,-0.017631931,-0.12053485,-0.10338938,-0.1277938,-0.06467024,-0.058792144,0.06855577,0.014482087,-0.033338245,-0.03168965,0.052106842,-0.1281628,0.009148212,-0.068544395,0.09907946,-0.023182357,0.012454167,-0.023691703,0.022497421,0.029179797,0.01407636,-0.104255386,-0.11938065,-0.28631356,-0.18588294,0.110019706,0.120113224,0.10003933,0.04904275,0.020217264,-0.17237496,-0.06851586,-0.060212933,-0.073453225,-0.034296717,-0.005375569,-0.13191192,0.013457116,0.024974123,-0.012672887,0.05013015,-0.05726654,-0.02422857,0.111909166,-0.023750553,-0.14263982,0.051760275,-0.015921736,-0.05737104,-0.14868236,-0.20919387,-0.33692035,-0.28862864,0.08541072,0.12461175,0.06575501,0.09203348,0.0024838683,-0.041252036,-0.1335632,-0.16685417,-0.07278506,-0.08782804,-0.030777847,-0.027529277,-0.0057051447,0.048669834,-0.056543443,-0.00013973191,-0.010232107,-0.009757683,-0.0022773957,-0.039960954,-0.027628077,-0.041494086,-0.07694047,-0.053197395,-0.17465052,-0.23271777,-0.30003184,-0.22756428,0.020767614,0.1237443,0.19107871,-0.058082614,0.05150974,-0.22966193,-0.18705122,0.010748955,-0.066222385,0.037548218,0.01513409,-0.0038352162,0.05451395,-0.03600167,-0.033655975,-0.028680192,0.0023681123,0.011867495,0.037601568,-0.09418451,-0.003005654,0.11909311,0.09302315,-0.131315,-0.1797072,-0.29225883,-0.17587036,-0.10605714,0.09220822,0.29959476,0.2524633,0.084439315,-0.021657996,-0.15785114,-0.12236542,0.04666388,0.03610424,-0.04304115,0.0066531776,0.044155147,0.018294586,-0.043091502,-0.0096811745,0.01830221,0.034287754,0.06895933,0.14573394,0.07103951,0.14384171,0.14786683,0.1013139,0.03723215,0.0094139455,0.001076882,-0.16219643,-0.27603886,0.16934033,0.38454783,0.22312413,0.14094214,0.019681599,-0.10911741,-0.10461093,0.009487544,0.09523296,-0.13817555,-0.031026375,0.037092544,-0.037609197,0.0021287196,-0.0068458384,0.0028287366,-0.022066524,0.09572156,0.104549915,0.055755142,0.2535272,0.2457798,0.20743136,0.2096537,0.21480729,-0.0064298837,-0.21278307,-0.11782858,0.20187728,0.15614782,0.4091179,0.0979855,-0.070197105,-0.17630357,-0.09994862,0.049595423,0.07979979,-0.023858767,0.055154476,0.0339853,-0.018957352,-0.0042945277,-0.014954387,-0.05824341,0.034345757,0.11117821,0.12861933,0.028896658,0.044288952,0.15773936,0.06604484,0.011247117,-0.14359722,-0.3137494,-0.191802,-0.0726341,0.18727729,0.14899515,0.10838832,0.07749662,-0.1018258,-0.15843773,-0.08264439,-0.048358824,0.051656827,-0.018539239,0.1241839,0.032296002,0.033185646,0.003662797,-0.04306858,0.013936041,-0.09905189,0.07291901,0.07041088,0.016790977,0.037001703,-0.019786885,-0.07368548,-0.23476002,-0.13961926,-0.2512837,-0.29734936,0.07500258,0.12584843,0.18249987,-0.03747545,0.026731983,-0.11475141,-0.0033577275,-0.04399788,-0.004602608,0.065025136,0.071870275,0.013410728,-0.006589817,-0.028171519,-0.05304851,-0.07670912,-0.06682494,-0.11944061,-0.05673754,-0.060908385,-0.08305032,-0.094675876,-0.21141021,-0.21875633,-0.20876734,-0.35768253,-0.33493733,-0.13056298,-0.01249932,0.2523132,0.05726499,0.17436588,-0.02120711,0.037597463,0.052935913,0.07989124,-0.023220157,0.07854249,0.06634922,0.021839615,0.024779014,-0.0024992446,-0.07992118,-0.039221507,0.023355704,-0.008054531,-0.09028763,-0.08016174,0.06786949,-0.09868648,-0.16146697,-0.17352611,-0.20704691,-0.30453545,-0.29181227,-0.14978361,0.09227587,0.18258369,0.14171922,0.104048446,0.1366,-0.0360511,0.077634215,0.086443305,-0.057570968,0.16600016,-0.050472178,-0.004709501,-0.033743326,0.022827534,-0.027827093,0.009855938,-0.03621734,0.015834369,-0.050439183,-0.006971157,0.01414289,0.080968685,-0.019193258,-0.038319837,-0.25066075,-0.23387715,-0.31599006,-0.08083517,0.020534256,0.21081005,0.13026042,0.09752188,0.14610182,0.26426858,0.15816674,0.102387495,0.15365206,-0.01512801,-0.021469375,0.03193484,-0.040049795,-0.010693085,-0.03649078,0.020767782,-0.010059748,0.0003490501,-0.028262625,-0.043100335,0.023918053,-0.045321967,-0.10331944,-0.039464142,-0.20486103,-0.16853599,0.014246099,-0.014282019,0.10805761,0.00656757,0.14526692,0.15959693,0.11040802,0.11676027,0.17777035,-0.025652703,-0.09370288,0.03471799,0.007851211,-0.0951027,0.015966222,0.0049064076,0.0069063473,-0.08035222,-0.081050225,-0.02308096,0.012172435,0.069300726,-0.0044852546,0.038286872,0.017710298,-0.020995554,0.009320521,-0.011113897,-0.04052893,0.12917888,0.05281157,0.06513125,0.12087599,0.15191953,0.0065218164,0.044232756,0.06173003,-0.04694222,-0.027599426,-0.05285801,-0.050759163,-0.0493336,-0.0031698723,0.06013035,-0.0004696944,0.003332852,-0.018833313,0.06725855,-0.08421754,-0.021106794,0.002342753,0.097540654,0.008973916,-0.0474774,-0.012129715,-0.06180814,-0.024932967,-0.020154143,0.044228576,-0.049273465,-0.02223794,-0.012963058,-0.032185763,0.084964715,-0.027090902,-0.055689942,0.059218977,0.03839331,0.046742115,-0.053412948,0.033253547,0.006286962,-0.029290853,0.016882414,-0.0021978016,0.08235598,-0.03776313,0.041461855,-0.050865196,-0.05135191,-0.044276454,-0.041801922,-0.01877423,0.0011205513,-0.080151536,-0.061562642,0.015748078,-0.088633314,0.021579258,0.022084808,-0.015043802,0.07791085,-0.118857175,0.044874463,0.13416857,-0.05029884,0.027071325,-0.05202018,-0.05811431,0.017938053,0.00277859,0.013602402,0.036802385,0.0632096,0.018920138,0.017071545,0.001757571,0.115567006,0.08042283,0.05150003,-0.029980073,0.010208229,0.045703903,0.083404765,-0.06187428,0.046000104,0.067861564,0.03987822,-0.09179022,-0.010431936,0.045858245,0.04647917,0.08363988,0.055185724,-0.007961662,0.0072753467,0.11713438,0.0069134953,0.036954362,-0.0018704188,-0.027238406,0.016904794,-0.04634957,-0.04503348,-0.010597172,0.017865041,-0.046904616,0.013281067,0.083376996,0.025899595,0.035373818,0.0066150404,-0.009074594,-0.014466255,-0.028750537,-0.0002669265,-0.07692244,-0.08913161,0.02899255,0.023744406,-0.058251068,0.07572439,0.043556128,-0.0944468,0.008938152,0.018752536,-0.055024423,0.027183622,0.0068761925,0.040835626,0.17206813,-0.029857649,0.004013979,0.050465316,-0.041279525,-0.058621325,0.060426053,0.022975259,0.033981647,0.017614003,0.18587688,-0.04111944,0.064797625,-0.043235224,0.029410465,0.022112863,0.008828173,0.025173409,-0.032176606,0.06985591,-0.0003328985,0.039112777,0.022650324,-0.048485734,-0.028676426,-0.02362355,-0.02457235,0.05767747,0.0074450974,0.09187659,0.08419107,-0.04632879,0.022714797,0.05578955,-0.01963881,0.03785797,0.078951955,0.04443807,0.051624645,0.11929031,-0.01992446,-0.06500895,0.1473929,0.0087466,-0.016361313,-0.0019169599,-0.07905091,-0.010945895,0.02754311,0.010755797,-0.039682172,0.090992406,-0.047636814,0.009089112,0.029686356,-0.06894201,0.020759797,0.062365137,-0.0220512,0.025927661,-0.09033238,0.009646611,0.0031414083,0.0041138777,-0.0644933,-0.031345237,-0.045955762,0.03606559,0.016749134,-0.00951734,0.018319255,0.001680989,0.04392482,0.043162193,-0.07777261,0.046562873,-0.023361146,0.027496072,0.0706054,0.023337979,-0.042673085,-0.041451886,0.0015199286,-0.050096966,-0.10865599,-0.030804977,-0.0871583,-0.024414051,-0.010030642,-0.06709621,-0.028872274,-0.038416702,-0.06661779,0.0021299887,0.05114558,0.069538996,0.07525132,-0.008752726,0.022482354,-0.0018150449,0.043636013,0.055306293,-0.05053043,0.07145949,-0.0288035,0.016891614,-0.027026989,0.055366665,0.050212197,-0.049436998,-0.027048314,0.01166057,0.009247101,-0.02039895,-0.06287795,0.034757856,-0.10359909,-0.06449881,-0.057188574,0.043719113,-0.078681774,-0.020664332,-0.02562904,-0.09427779,0.01694878,-0.04125555,-0.016019825,-0.0216141,-0.0062330053,0.019839719,-0.03740919,0.09657751,-0.049324796,0.068843514,-0.0033824071,0.07224345,-0.060018744,-0.039741848,-0.08024953,-0.05252808,0.07629827,-0.01357639,-0.05244979,-0.027681313,-0.030040547,-0.06420159,-0.101765476,0.1318685,0.12007286,-0.013302816,0.014008352,-0.05097829,-0.09217525,-0.06543154,0.07310034,0.01801912,0.027295062,0.03048747,0.02891781,-0.024328876,-0.004542339,-0.017800855,-0.040232554,-0.028240183,0.033857808,-0.03388336,-0.01832823,-0.000053006806,-0.108031325,0.051991984,-0.057134826,-0.024272876,-0.04190997,0.06839627,0.07023776,-0.016472414,0.0013764682,-0.02985542,0.042251147,-0.05853192,-0.10295163,-0.044858202,-0.031158872,-0.067807846,-0.013977399,0.019012643,-0.04581171,0.056626424,0.045380913,-0.020689586,-0.03519866,-0.023768792,-0.02478558,-0.04918617,-0.039409667,-0.07396606,0.10505249,-0.019170422,0.033171006,0.007239046,0.054964658,0.06374019,0.08831191,0.10761822,-0.11805429,0.10817018,-0.077069916,-0.04448965,0.031665724,-0.020494051,0.10729022,0.018479249,-0.095297,-0.124924906,-0.07803493,0.027863683,0.019632956,0.06605422,0.0134704,0.034818083,0.041043926,-0.04479065,-0.0046399874,0.0569512,0.019560222,0.033259027,-0.032694604,-0.058881927,0.031391766,-0.010862106,0.042159025,-0.057193644,0.052372914,0.020414747,0.03214595,0.02770146,0.10457581,-0.008881184,-0.097866684,-0.053978052,-0.09296896,-0.020436577,-0.025155516,-0.046984952,-0.039610196,-0.04437598,-0.066990994,0.024081605,-0.04699896,-0.02565339,0.010430291,-0.022083921,0.019409053,0.030398808,-0.004424855,-0.028208686,0.009508073,0.07943654,0.02672009,0.060699046,0.014710816,0.1057137,-0.05694915,0.042440243,-0.02940322,-0.0044456488,-0.09528389,-0.10396169,-0.029775454,-0.048401564,0.0049792724,0.07268507,-0.10036153,0.017508706,-0.036347594,0.07358259,0.027219104,0.024172243,0.025675066,0.083938956,0.07529701,0.035959896,-0.056566805,-0.09752384,-0.05319798,-0.018784458,0.0898337,-0.015515206,0.07265847,-0.0004369265,-0.0048006726,-0.052672975,-0.056892272,0.059132,0.004147581,-0.02535082,0.077939965,-0.010215162,-0.07322996,-0.0917941,0.059396576,-0.0055494662,-0.050920755,0.0713814,-0.0105215525,0.01644526,0.01594062,0.035959058,-0.08693147,0.054780602,-0.044363964,0.08467815,-0.064993866,-0.057671387,0.029422404,-0.077748604,-0.10979356,0.08330513,0.014046348,0.024586525,-0.032466594,-0.010041783,0.058699667,0.06008601,0.01600673,0.0025986559,-0.041537266,-0.03683773,0.04772544,-0.06580529,0.041586578,0.017314918,-0.053074438,-0.0146227665,0.016125692,-0.035222415,0.07393146,-0.036592122,0.004794989,-0.027697453,0.030755369,0.014195812,0.06302605,0.014490099,0.054722834,-0.02113495,-0.000022827951,-0.027839143,0.0033312666,0.08260246,0.03348983,-0.028851176,-0.13430762,0.043313075,0.07272915,0.003993055,-0.10198049,-0.034087323,0.1006895,0.03071269,-0.073593356,0.07409661,-0.0037011763,-0.013622687,-0.057447072,-0.091165625,-0.04342357,0.05689659,-0.065409936,0.046340372,0.06076675,-0.04723623,-0.02885099,-0.1189173,-0.12931259,0.04707955,0.05709819,-0.053395133,0.012905721,-0.0448436,-0.056207713,-0.01194902,-0.095307104,-0.0922641,0.013158731,0.023814697,-0.0067880093,0.040427044,-0.00071424484,-0.023813888,0.04783196,-0.032035545,-0.04876981,-0.048942283,-0.0027722511,-0.019467743,-0.020207308,0.07736345,0.029390095,0.020251207,-0.044538375,0.03262413,-0.034785353,-0.06380506,0.12032263,-0.045000203,-0.04155984,-0.08139312,-0.012551776,-0.058171816,0.025011644,0.06378673,-0.024902916,-0.017439982,0.07093548,-0.032930452,-0.051310822,0.025215326,-0.039363813,-0.050886918,0.02688617,0.02891934,-0.021681951,-0.087947376,0.0042677545,0.07369744,-0.03498889,0.037571527,-0.022664027,-0.0638064,0.06363837,0.094960764,0.015509679,-0.08195387,-0.012529006,-0.0127000725,-0.035788804,0.0434459,0.03470019,-0.034069043,0.006430699,-0.08454392,0.04584387,-0.008213278,-0.06682386,-0.0056454786,0.009180353,-0.022023773,0.029230703,-0.024803458,0.031992123,-0.012937777,-0.009493775,0.046675067,0.0019641616,-0.00799325,-0.034340706,-0.041695658,0.043089863,-0.034197345,-0.0685627,-0.0837493,-0.11417279,-0.11554313,0.047217563,0.102942534,-0.03519762,0.05860491,-0.032386277,0.005070066,0.17164536,-0.06607803,-0.054472644,0.0006512294,-0.00863347,0.06733849,-0.014762134,0.061379734,0.06840743,-0.03218289,0.0840153,-0.0006939247,0.011261274,-0.019948058,-0.0038269109,0.0330058,-0.04826755,-0.007996336,-0.080718994,0.0051602838,-0.037368298,-0.001384148,0.077776715,0.04926141,0.056267977,-0.11719611,-0.019108834,0.11803082,-0.0047207,0.17210129,0.12819949,0.0128476145,-0.036191326,-0.019362306,0.006142663,-0.016746694,0.003335441,-0.02911399,-0.034842603,0.0083301775,-0.03343115,0.01596932,-0.047253337,0.007924597,-0.10899255,-0.0962156,0.015256179,-0.029382618,0.05513357,0.0074365893,-0.083204985,0.008426548,-0.0034655402,-0.033454955,0.16782328,-0.025835266,0.082843244,-0.07164278,0.06712698,0.0032028537,0.0140359,-0.0786696,-0.028721921,0.072209366,0.07795359,0.0015241605,-0.024317259,-0.14393097,-0.009534877,0.044333447,0.09572719,0.079350576,0.078957014,-0.032021035,-0.013238828,-0.06080649,0.008209065,0.023780366,0.042489428,0.015461147,-0.054685015,0.022549884,0.009736157,-0.035797,-0.12173549,0.12100584,-0.026322607,0.025881607,0.0016073063,-0.053616166,-0.043199815,0.019253936,-0.024243088,-0.05218705,-0.009571532,-0.055293944,0.028030576,0.023522321,-0.032120448,0.067634344,-0.06800403,0.010096419,0.0018134322,0.037634846,0.11278264,0.07062034,-0.026426325,0.029786697,-0.026180595,0.05800046,-0.003992883,-0.03272974,0.0046061114,0.017970541,0.08319848,-0.07104471,0.010286304,0.01530358,0.015578239,0.039860554,-0.055875245,0.02859048,-0.04707817,0.006448365,-0.0061714468,-0.0429515,0.07116304,-0.041795507,-0.01481029,0.017956836,-0.05305176,-0.04555281,0.09690598,0.03829032,-0.023506224,-0.00091043627,-0.028916843,0.081758074,-0.007283414,0.020263294,-0.020418743,-0.028923435,-0.0030138923,-0.021902142,-0.011730215,0.0325648,-0.056604676,0.02519318,-0.08471567,-0.10361024,-0.13698405,-0.08118961,0.025096143,-0.07617987,-0.0234055,0.050500393,0.0053684376,0.026805257,-0.017808689,-0.016847393,0.012224038,0.0687324,-0.051138468,0.094763026,-0.019394139,-0.006376964,0.040158875,-0.041932836,0.03385129,-0.03309366,0.0188155,-0.06726651,0.01667393,0.019393634,0.022596834,-0.07285424,0.026429929,0.040673725,0.006502083,0.033111054,0.046817154,-0.08120151,0.053337943,0.017817374,-0.07158516,-0.035993766,-0.017005268,-0.008580533,-0.0060205455,0.025111938,0.04909012,-0.025744986,0.037696425,0.007320359,-0.0018277128,-0.012827779,-0.0639719,-0.06516414,0.027222024,0.01576585,0.047255743,0.07965565,0.07158492,0.0028038912,-0.047936264,0.019760864,0.020422427,-0.008835516,0.05015253,-0.024588387,0.010358256,-0.039689075,0.014333901,0.098980635,0.017277464,0.014445973,-0.04998549,-0.063576564,0.062667236,-0.06231508,-0.0030264242,0.07716749,-0.13261892,0.09961019,-0.010462642,-0.020304257,-0.06480074,0.08277261,0.06393299,0.005639019,0.05438367,0.025963783,-0.04021,-0.047459137,0.014526347,-0.0067871404,0.026703756,0.028085487,0.044408593,-0.070168994,0.010048764,-0.0092048645,-0.052106265,-0.02735533,0.0062635336,-0.04291891,-0.019300463,-0.045902602,0.015405513,-0.02546741,-0.04317643,0.04153767,-0.069236025,0.072211824,0.059509356,-0.0051618554,0.059360888,-0.00021815891,-0.12218465,0.04327209,-0.020589462,0.0246707,0.053035107,-0.019047854,-0.036396053,0.006909439,0.09491834,0.008692008,0.02679512,0.066930346,-0.059447538,0.008933645,0.017744306,-0.078027785,0.062104728,-0.061879557,-0.057760682,-0.03778122,0.019851761,-0.05039591,-0.0057606944,-0.14088237,-0.059936017,-0.0053687966,0.0037440723,0.06683822,0.024272243,-0.0134813655,-0.06478413,0.05229246,0.05801691,0.017952856,0.049938854,0.082600325,0.006045697,0.041799273,0.014049543,-0.10738611,-0.07900213,0.03505595,-0.073942535,-0.02852971,-0.04593664,-0.06581474,0.02584709,0.10553475,-0.05368599,-0.13248712,-0.026010862,-0.06292282,-0.018392589,-0.045318626,0.022728356,-0.038954858,0.059269547,0.024532143,0.11433377,0.029528731,0.041550957,0.08900866,0.04127094,0.058985278,-0.12997426,-0.008111087,0.017987432,0.0012931349,-0.050261352,-0.07921131,0.0063567255,-0.048112214,0.0047271727,-0.0069980235,-0.020862024,-0.021584114,-0.012356115,0.002956955,0.00011540477,0.038946684,-0.018695114,0.02664081,-0.0023618198,-0.02237217,0.031019324,-0.031537753,0.061370123,0.05360597,0.014857465,0.11629334,0.075308226,-0.030283818,-0.13843673,-0.03535694,-0.06840625,0.072164446,0.057818666,0.05574898,0.044393566,-0.04234156,0.023227245,0.1166269,0.16957508,0.019859219,-0.051096678,-0.060206834,0.045929577,-0.042083107,-0.00045476825,-0.090512805,0.032472707,-0.006737179,-0.017609058,-0.08639959,0.08873755,-0.055544592,0.033163372,0.124137536,-0.008449838,-0.034096234,-0.21895804,-0.022154933,-0.12493383,0.014078028,0.1092255,0.0015348095,0.0073718997,-0.09009884,-0.035695672,0.050686397,0.039022267,-0.003217816,0.031007823,-0.051234126,0.071615584,0.0010226738,0.01714848,0.08783212,0.04028685,0.056287497,-0.14584193,-0.023438634,-0.0016923178,0.046075866,0.08604152,0.05460873,0.005470717,-0.11298368,-0.22616114,-0.09059003,-0.06790116,-0.22120966,-0.082913026,-0.022186799,0.05598429,-0.028020224,-0.15725982,-0.03328383,-0.0012092127,0.006442166,0.010718874,0.036168117,-0.07215759,-0.025149811,-0.033105128,-0.0065266388,0.010311657,-0.043139,-0.0039347964,-0.090864725,0.053328194,0.15583451,0.12805042,-0.025882244,-0.1900019,-0.14069705,0.14597298,0.12728055,-0.14564341,-0.30238706,-0.14258051,-0.26953673,0.07523858,-0.039144624,-0.05880937,0.0900804,-0.011793854,0.0014039568,0.037788074,0.079999,0.08013572,0.023375764,0.017728133,-0.10284514,0.00011349971,0.02114944,-0.022248881,0.017003719,0.06375298,0.09645021,0.0073633716,-0.14882697,-0.2005533,-0.13994962,0.06913079,0.17388858,-0.18804331,-0.079128526,0.012681174,-0.19353212,0.009823504,-0.050660565,0.055786006,-0.061582483,-0.07132749,-0.09174342,-0.049113877,0.009731681,0.0040932456,0.0204039,0.033025466,-0.05723232,0.029193774,-0.012752836,0.020666212,0.0296449,0.07759462,0.046794552,0.11859586,-0.05496037,-0.1878081,-0.17669818,-0.14287408,0.14636998,-0.027601263,-0.038274914,-0.027763434,-0.09961981,0.007072957,0.0073923836,-0.04308569,-0.08456617,-0.13230327,-0.05664739,0.0215138,-0.047925986,0.0792665,-0.06301307,0.05886069,-0.060250595,0.010115816,0.017671755,0.16333157,0.05164186,0.10492946,0.097879834,0.19947971,0.12506491,-0.10383253,-0.2731893,-0.2276303,0.029952254,0.033989657,-0.15555316,-0.23893744,-0.120656095,0.06472365,-0.0389476,-0.028925547,-0.11949112,-0.05980244,-0.030170636,0.022654237,0.024304342,-0.035822805,0.01474707,0.10831824,-0.03552273,-0.0013674758,-0.025558185,0.01661657,0.19745973,0.029427296,0.1962816,0.27561623,0.056800038,-0.010462507,-0.105672926,-0.242844,-0.12811476,-0.06674291,-0.17529388,-0.32561395,-0.10448723,0.11957833,-0.033799272,-0.0493307,-0.19274294,-0.017170276,0.051677387,-0.057999816,-0.020841477,-0.062494285,-0.014768826,-0.05858044,-0.0014673372,0.040978085,-0.054488234,0.057809375,0.15666278,0.16070493,0.17038052,0.1193753,0.14499748,0.07024884,-0.042734556,-0.2946494,-0.36068273,-0.2423808,-0.08517406,-0.16641057,-0.13529305,0.0164724,-0.08131978,0.007982685,-0.06779336,0.0061816075,0.05090045,-0.02207698,-0.059994187,-0.025761683,-0.093490645,0.09700098,-0.03067942,-0.028341334,-0.07223443,0.0406494,0.19362935,0.060617372,0.07810385,0.23174088,0.1883978,0.16288742,0.090005875,0.057908468,-0.16070662,-0.15341431,0.08374443,-0.03393141,0.124876894,0.11144909,-0.094886824,0.016687,0.0853023,0.040082335,-0.116021916,-0.12734744,0.051090878,0.027003707,-0.025698438,0.029520461,-0.032085665,0.07405065,0.1214826,0.22347109,0.25446633,0.18382601,0.21778119,0.109747484,0.14700595,0.25585744,0.038347166,0.04589916,-0.04791099,-0.050053354,0.02747043,0.056534998,0.073836304,0.12197272,-0.26091984,-0.077353016,0.006615203,-0.04723044,-0.08380732,0.060936745,-0.09215904,-0.032086212,-0.048587523,0.06702544,0.010812198,0.120716736,0.07344433,0.024451526,0.0416855,0.22947757,0.24178354,0.0129514625,0.1870331,0.21882246,0.12933235,0.14703389,-0.036348917,-0.15793914,0.028003836,0.08323916,-0.0571984,-0.021226166,-0.23972559,-0.11094038,-0.07754416,-0.01379093,-0.055551503,0.0684904,0.025941199,0.062996335,-0.008495012,-0.009527805,0.0043777833,0.020013792,-0.019646985,0.014893521,0.12519115,0.038653,0.048872504,-0.07393313,0.0575071,0.18894796,0.103045724,-0.04210613,-0.10167562,-0.032164406,0.19335532,0.17971238,-0.09812979,0.009793997,-0.061932217,-0.14358789,-0.2083516,0.027296966,-0.06295255,-0.0025690573,-0.01554547,0.01684078,0.10412361,-0.050170626,0.05940782,-0.07484147,0.11220381,-0.048072487,0.05410527,-0.08772649,-0.061083876,-0.093852825,0.0688951,-0.005403752,-0.026815698,0.02096239,0.018300265,-0.13490424,0.2568845,0.029904181,-0.028071174,-0.059097428,-0.075414754,-0.16852418,-0.07055244,-0.0076644924,-0.061758574,0.012618832,0.05120571,-0.06633295,-0.012459643,-0.09119609,0.080500424,0.013154449,0.038471624,0.119924955,0.082095385,-0.027860317,-0.09099576,-0.06359895,0.05388746,-0.13066176,0.13866703,0.07808224,0.15635668,0.09445867,0.14500204,-0.19823736,-0.08162128,-0.017905071,-0.11986943,-0.19170749,-0.16595636,-0.036974505,0.03270471,-0.040696368,-0.060560092,0.023870863,0.004616858,-0.04310328,-0.007322923,-0.042107638,-0.029986441,-0.045371838,0.030766835,-0.009896679,-0.06822049,-0.034871463,0.02437662,-0.10308623,0.07008108,0.230402,0.21519016,0.16344944,0.0845891,-0.09109249,0.035964277,-0.1098404,-0.063651145,-0.012004421,-0.06451656,0.07792869,0.04638702,0.0043881466,0.013100163,0.004950695,0.051962387,0.0025867426,0.06707178,-0.007208826,-0.13823204,-0.024142098,-0.015116717,-0.04677027,-0.032580756,-0.14665037,-0.0021797805,-0.022351556,0.161674,0.24270387,0.3432358,0.2564343,0.22080141,-0.026224079,0.11117513,0.05144815,0.0076533766,0.08530923,0.04325905,0.15027826,0.054800503,-0.033574596,0.027863512,-0.074245505,0.033990312,-0.011978614,0.00378562,0.046948064,-0.014885064,-0.022776177,-0.18094175,-0.0823877,-0.13212106,-0.08569343,-0.01925843,0.14478289,0.18798412,0.23879218,0.21596317,0.23424086,0.06666669,0.110630095,0.10042938,0.14253841,0.012008342,0.17366609,0.10243447,0.06865257,-0.0058629657,0.03781778,0.11526835,-0.041510794,0.008615957,-0.0023904766,-0.03475721,0.02118588,-0.037472107,-0.028042268,-0.046952453,-0.1167257,-0.1319205,-0.13688144,-0.05409578,0.071801,0.14353079,0.006560179,0.05872235,0.011506948,0.09836866,0.019033361,-0.01877224,0.19078822,0.1361715,0.29492602,0.27311802,0.03848931,0.020820169,0.025514254,-0.02369066,-0.017233366,-0.020421622,0.01650476,0.013587131,-0.034340657,0.04797861,-0.02845047,-0.10545526,-0.07160946,-0.05372866,-0.089802355,-0.2038138,-0.27574065,-0.31701267,-0.106840596,0.01957175,-0.0050124144,0.056618426,-0.0007576358,0.2155958,0.25565082,0.22841911,0.25015154,0.20083204,0.024770565,0.049625445,0.04390507,0.019662488,0.014046276,-0.04128958,-0.082342446,0.05278173,0.0068465304,-0.012767921,-0.05657766,-0.10559599,-0.07873155,-0.1709384,-0.090378836,-0.18208688,-0.17693001,-0.16415793,-0.07031165,0.051317558,0.00096268964,0.045661267,-0.040353566,0.06284955,0.06801869,0.18057272,0.062632926,0.1265905,0.06979666,0.054768603,0.014710447,-0.010099424,0.039313383,0.0067016454,-0.00054560753,0.028355762,0.039491624,0.054217238,0.0044797873,-0.16337107,-0.016292514,-0.12515631,-0.11625824,-0.13792877,-0.09262125,-0.19525835,-0.12775825,-0.113041274,0.048657022,-0.13478446,0.004328623,0.0007549386,-0.13624799,0.031460285,-0.060882457,0.012911064,0.08077299,0.04513497,0.09211143,-0.07775693,-0.046473496,-0.023852192,0.023187824,0.05978224,-0.007841795,0.04176906,-0.05752578,-0.108347505,0.036776133,-0.032769445,-0.020148847,-0.031150682,-0.021578988,-0.03553194,-0.006896964,-0.030154927,0.07184829,-0.026438238,-0.082963645,0.01064116,-0.1528676,-0.012644209,0.008339199,0.0057950933,-0.03065336,0.03245736,0.00013666424,-0.002513286,0.023976795,0.08518434,0.038059223,0.047513213,0.060626894,0.056931436,-0.018896447,-0.024224477,-0.08633825,-0.05241957,0.0051922887,-0.016144196,-0.027400024,0.018559849,-0.011295393,-0.051016822,0.11037539,-0.046920083,0.021806326,0.021720085,-0.028981002,-0.01257373,-0.05254026,-0.09924478,-0.034228895,-0.021782547,-0.012550984,-0.00389821,0.08803357,0.020995975,-0.025894048,0.020176804,0.01469646,-0.0065613673,0.034453362,0.037971336,-0.011133347,-0.0010225702,-0.01800734,-0.0150055215,0.023812074,-0.029458623,-0.040003452,0.046424564,-0.026239006,-0.076874055,0.08589611,0.06947688,-0.011736643,-0.01717131,-0.031638782,0.011647996,0.04553811,0.028951043,-0.040135834,-0.050738446,-0.03929661,0.052434377,0.07683383,-0.039026145,-0.019574124,0.037069693,0.03789916,0.0031984628,0.023949474,0.075500585,0.06356944,-0.009748529,0.026192764,-0.0017787941,-0.020814981,-0.056528762,0.029376067,0.019418495,-0.024126025,0.013294407,0.042202134,-0.004659891,-0.069507696,-0.02743391,-0.01762654,-0.022862667,-0.012053268,-0.029730646,0.0071037393,0.050647862,-0.08996767,-0.02297291,0.026935536,-0.032188527,0.045561973,-0.025394306,0.060492236,-0.015733527,-0.12331821,-0.026031611,-0.082833,0.0302008,0.10643634,0.13859731,0.07556503,-0.041948646,-0.060265105,0.081823304,0.09642908,0.120001115,-0.02426087,-0.06123503,0.08634568,0.0621756,-0.018211717,-0.09818276,-0.012175781,0.05270107,-0.023610517,0.009959096,-0.06656147,-0.018533936,0.003928284,0.0054056873,0.017547846,0.00839338,-0.14915413,0.009892691,0.03596033,0.10026388,0.11416693,0.21230507,0.019355431,-0.040434007,-0.024703313,0.061559644,-0.022851076,0.0044331183,0.063869156,-0.04313764,0.024050856,-0.042188954,-0.06657458,0.059492547,-0.046603546,0.006553937,0.071590535,0.035239913,0.072971545,0.0027886305,-0.040571425,-0.015252682,0.0033980084,-0.056584705,-0.06480701,-0.042177316,-0.11730515,0.11900164,0.34837493,0.2608543,-0.04875016,0.072026916,0.08699425,0.019541,0.028999513,-0.17621146,-0.028328983,-0.19594717,-0.018402392,-0.027855707,0.00465545,0.024904037,-0.0385905,0.05323964,0.029013613,0.051750306,0.03040421,-0.025163032,0.00017195664,-0.046804577,-0.06422626,-0.0898321,0.022832958,0.05676957,0.09145111,0.15166384,0.11988656,0.08401594,0.04569499,0.06652777,0.018662082,-0.047551803,-0.040388215,-0.16396838,-0.16867237,-0.18797484,-0.092895314,-0.09517782,-0.049528386,-0.027301993,0.03536207,-0.026148586,-0.08047544,-0.05099986,0.049770456,-0.07595334,0.017038045,-0.084105685,-0.09611956,-0.15582876,-0.09782291,-0.052791227,0.17192891,0.23945339,0.08754704,0.13906476,-0.07213168,-0.02311772,-0.14313762,-0.08987701,-0.16447231,-0.05083709,-0.12638818,-0.12741974,-0.06444446,-0.013424403,0.026613649,-0.055728912,-0.023731256,-0.02458255,-0.05090253,0.013578106,-0.13972457,-0.01372362,-0.13318314,-0.09835001,-0.14999986,-0.23399052,-0.17826949,0.016127607,0.14526692,0.13426837,0.11706988,0.11021636,-0.026876265,-0.17593639,-0.24490468,-0.36344564,-0.2575591,-0.074391104,-0.14309156,-0.06483256,-0.038617417,-0.069960855,-0.0029557182,0.08707423,0.019247178,-0.02905301,-0.0010342305,0.05804024,-0.0027524144,-0.0215535,-0.017640058,-0.092938855,-0.10418044,-0.00025009003,-0.01375669,0.05107187,0.021891026,0.2723879,0.16623935,-0.023538733,-0.14574419,-0.27545097,-0.27819192,-0.3164181,-0.27826196,-0.006496005,-0.0039323466,0.055608083,-0.083493374,-0.12577854,0.012362377,-0.025618145,-0.00835977,0.110349186,-0.17516729,-0.010941546,-0.039328247,0.094874956,-0.022923885,-0.13864672,-0.05019933,0.03539327,-0.010089037,0.10001457,0.2889397,0.31403816,0.066922724,-0.11380297,-0.27832708,-0.090212665,-0.32998824,-0.27151486,0.022738619,-0.027872058,0.06851604,-0.019762175,-0.03831697,-0.0519018,-0.082766175,-0.08056491,0.038516086,0.092493705,-0.040154945,-0.07443517,-0.07937592,-0.06304272,-0.05729689,-0.113289796,-0.029968226,-0.19502552,0.0045223003,0.16322029,0.17669515,0.16109839,0.010071496,-0.27077723,-0.23825315,-0.17561857,-0.08643859,-0.19039857,-0.2143405,-0.0043600914,-0.04001765,-0.067906424,-0.2069272,-0.11445776,-0.088093996,0.009537418,0.029301519,0.018182643,0.004409885,0.044784233,-0.019932136,-0.08537723,-0.14657372,-0.094574526,-0.1886021,0.061545745,0.20312366,0.09047417,0.07259401,0.21038921,-0.1529253,-0.18010014,-0.10900713,0.05832866,0.13007528,0.10905788,0.057955477,0.115222655,0.08252274,-0.028192433,-0.12058817,-0.1214459,-0.14213644,-0.0044798497,-0.0047969357,-0.10142151,0.014861167,-0.03576669,0.0132893985,-0.12388067,-0.0822629,-0.1327944,-0.12517877,0.10332997,0.05730904,0.15249477,0.10270271,-0.11341797,-0.2468415,-0.033668157,0.16119927,0.099653825,0.24589358,0.27455038,-0.07125142,0.04152079,0.13010743,0.034637682,-0.10820853,-0.031057952,-0.06766215,-0.043421842,0.013556577,0.026049241,0.00059313537,-0.06087388,-0.043580975,0.019608377,-0.08657415,-0.15228416,0.016707793,0.05025101,0.11637938,0.014190763,-0.09791407,-0.2841799,-0.15339923,-0.0662589,-0.007873632,0.0780593,0.011197554,0.06903069,-0.06056537,-0.062473644,0.027656991,0.09022296,0.03601959,-0.013288221,-0.046160378,-0.046075918,-0.034422036,0.027766045,-0.05577015,-0.08624397,0.037589796,-0.1438037,-0.08564812,-0.12667212,-0.051669843,0.08706077,0.1681272,0.06332663,-0.015623032,-0.20927118,0.09962785,-0.061556745,0.030280821,0.13358851,0.09371708,0.101660006,-0.04842528,0.06271284,0.10733002,0.12454294,0.0435481,-0.18891335,-0.017607236,-0.0951869,0.0034641335,0.042333473,-0.05244932,-0.013887676,-0.015024199,-0.040521216,-0.13162582,-0.0037970066,0.1503691,0.1315262,0.053853773,0.06475674,-0.0037533597,-0.07697278,0.02000846,-0.12060643,0.028800724,0.08439306,0.033455282,-0.03133654,0.056066696,0.04770122,0.04294939,0.030243844,0.04897096,-0.10032624,-0.09399863,-0.10195657,-0.066603266,0.030463478,-0.022128496,0.099228844,-0.095149145,0.09330404,-0.07262311,-0.114657275,0.010259175,0.17161727,0.11964502,0.20880911,0.2144938,-0.031973127,-0.099394016,0.08986687,0.025461301,-0.03468186,-0.022854919,0.10942575,-0.017264716,-0.08815948,-0.059418797,-0.10143769,-0.07426788,0.055137403,0.04637239,-0.009624063,0.09786401,-0.120210275,0.053280618,0.07270034,-0.07263883,-0.06254014,-0.045293473,-0.01780079,0.0148765305,0.20037019,0.24233781,0.17638017,0.122362316,0.033280253,0.014249879,0.0013871168,-0.0865214,0.013597397,0.04029608,0.0028956076,0.009106952,-0.024046056,-0.05761066,-0.041802745,-0.0153600145,-0.00441972,0.015620483,-0.05116905,0.08129711,0.090527035,0.08941334,-0.038810458,-0.0046048327,-0.087338544,-0.08257418,-0.15783685,-0.03172673,-0.03852842,0.044378508,0.008730112,0.036244627,-0.04022368,0.06707413,-0.055910543,-0.039995395,0.053062487,0.14661689,0.09533515,0.1682276,-0.009387456,-0.036415458,-0.12531006,-0.009781168,-0.12500596,-0.08907499,-0.0072703,-0.0071222195,-0.04815946,0.020148046,-0.08655591,0.017384596,0.02846593,-0.07125703,-0.044801295,-0.039810434,0.01579684,0.04236264,0.01144554,-0.06928309,-0.070545234,-0.0724102,0.010260029,-0.04995551,0.056340832,0.01970891,-0.06951516,0.061893627,0.017960062,0.019698422,-0.105587356,0.050414335,-0.04677854,-0.06886371,-0.035371996,0.039922647,0.034017093,-0.034940254,-0.030066298,0.035460193,-0.09878827,-0.027833374,-0.06942674,-0.09759633,-0.10037077,-0.1154997,-0.10170418,-0.14478816,0.032720227,-0.1561426,0.09229847,0.025615826,0.09773175,0.05223435,0.045603584,0.007781997,-0.06618993,-0.048586357,-0.06027617,0.0045131617,-0.048448198,0.047577746,-0.07674063,0.017961388,-0.017708402,0.07154465,0.016389212,-0.09036603,-0.035738155,-0.013585713,-0.08121076,-0.18658665,-0.20425065,-0.22900131,-0.25243533,-0.012823537,-0.005777619,-0.051248603,-0.10084347,-0.06937774,-0.020008165,0.07301053,-0.068970166,-0.10981998,-0.024987232,-0.05174575,-0.0068715042,-0.0020783294,-0.0009998523,-0.06236418,-0.0032191174,0.03167356,-0.0348375,-0.066064715,0.110967964,0.006612291,-0.017816583,0.057482067,-0.032413457,-0.11185323,-0.14141886,-0.2272828,-0.1630193,-0.14559175,-0.0514949,0.015500378,-0.1134583,-0.009176899,0.07938995,0.0027808517,0.02404126,-0.09595388,-0.017913884,-0.10500674,-0.072933085,-0.0015889894,0.01687836,-0.093721546,0.037818767,-0.10449731,-0.04222057,-0.08724772,-0.05754669,-0.051193036,-0.079675585,-0.019609125,0.021671819,0.039900243,-0.068963535,-0.08434615,-0.1460008,-0.26364607,-0.19070233,-0.09620743,0.024830617,0.03992614,0.10794182,0.08093556,-0.023657985,-0.15240753,0.093300134,-0.012610565,-0.061933134,0.088276446,0.05939771,-0.15091436,-0.026350621,0.007572092,-0.104134254,0.08686353,0.05725087,-0.02177438,0.093623616,-0.0083032325,0.012711522,-0.0017035856,-0.0035430267,0.03229087,-0.093534924,-0.08200766,-0.05620223,-0.09200732,-0.07874119,-0.025400087,0.110428944,0.025484582,0.010946441,-0.1750239,0.03697765,0.07264087,-0.06354645,0.029096162,-0.026189087,-0.035965797,0.06413896,-0.08181477,-0.06626668,0.048465155,-0.024512583,-0.081369124,-0.055177912,0.013214789,-0.08833721,-0.022420822,0.0118421065,-0.088458076,0.04606876,-0.0120998565,-0.010967677,0.014612199,-0.030464511,-0.08374533,-0.09451493,-0.030636184,0.008023837,0.023027336,0.07421264,0.033281837,-0.028181363,0.01777457,0.01958777,-0.03623166,0.06369301,-0.08683093,-0.04592136,0.052875623,0.0065404377,-0.024363121,-0.0029046682,-0.03709417,-0.012789387,0.023340141,0.03706402,-0.077490576,0.06128091,-0.018102365,0.04097979,-0.07827289,-0.0015642433,-0.011317914,0.021218875,0.05751981,0.056636654,0.055109613,-0.020511271,0.053898234,0.017158512,-0.025470525,0.060057018,0.048272286,-0.020625,-0.056444813,0.019784424,-0.025663478,0.061189234,0.028088043,0.036996167,0.026860412,0.03420726,-0.023843266,-0.022971835,-0.014959213,-0.018750899,-0.010455524,0.1142061,0.037025146,-0.04679981,-0.04980309,0.024392497,-0.047541298,-0.034645632,0.057563838,0.045612983,0.02885706,-0.040051613,-0.037250455,-0.025341107,0.0022001558,-0.006141732,-0.00340837,-0.092046425,0.015618245,-0.033529475,0.036942095,-0.04935495,0.021148099,0.08591316,0.012544692,-0.0054213996,0.028253898,0.02759614,-0.010231075,0.07929158,0.050943617,-0.01359958,-0.0026672948,-0.0414902,-0.030357718,0.019825239,0.023617817,-0.103257574,-0.002038543,0.0017113227,0.009160038,0.006525715,-0.054920577,0.010489342,-0.110398866,-0.0294926,-0.059735127,0.03495048,0.040725503,0.07097196,-0.08797488,-0.043398295,0.041426525,0.013568367,0.012178294,-0.0067430562,0.11176213,-0.03925208,0.090184666,0.040998902,0.0626249,0.062384006,-0.025724059,-0.052954298,0.013390239,-0.04589825,0.02475479,0.02395727,-0.017484037,0.07506984,0.06951562,0.04993104,0.002446927,-0.030675292,0.01951984,-0.038286064,-0.025189294,0.05145976,-0.05935961,-0.078076586,0.043586385,0.059616048,-0.031125203,-0.0010157343,-0.17515047,0.052630533,0.069623694,0.031897854,-0.03518035,-0.087881945,0.0390009,-0.02050069,-0.030066783,-0.04949181,-0.05041241,0.08696541,-0.015516623,-0.10532069,-0.042377546,-0.0582602,0.048175573,0.014039154,0.05382066,0.005726354,-0.16732511,0.03825054,0.0037965646,-0.0017160868,-0.0724823,-0.035873342,-0.11301461,-0.06493912,-0.028371265,-0.0646555,-0.0067845643,0.05231088,-0.0074890773,0.011575793,-0.039140187,-0.05556741,-0.08566685,-0.10325203,-0.05371911,-0.018823778,0.010130068,-0.06425467,0.03113354,0.0009958104,-0.019359779,-0.0058733113,-0.018152218,-0.037852906,-0.04488389,-0.020088816,-0.023831693,0.09898405,-0.00982339,0.015247768,0.060758878,-0.037726037,-0.029531842,-0.042436976,-0.09465153,-0.05783357,-0.08405958,-0.0005375468,0.009491374,-0.018462375,0.025608169,0.009980855,-0.03677879,0.018935783,0.12882721,0.0049991086,-0.0666116,-0.0071578263,0.11996187,-0.03188382,-0.041654803,0.011090768,-0.041950237,0.14361708,0.004525094,-0.08766264,-0.14699247,-0.1199185,-0.14563183,-0.069566175,-0.039926983,-0.15367407,-0.11895026,0.013784719,-0.06342563,0.11331264,0.06683927,0.12269556,0.13799551,0.042568136,0.08148149,-0.008284598,0.03330598,-0.03370592,0.1208191,0.038005497,-0.034644477,-0.011005297,0.0443054,-0.046827197,0.0024789593,-0.005377284,0.0008285033,-0.13652807,-0.13323052,-0.14843592,-0.15636198,-0.21926415,-0.13711748,-0.12344999,-0.1729871,-0.062214777,-0.051488753,0.13634078,-0.045467976,-0.13955855,-0.06635891,0.07705382,-0.004071379,0.064750776,-0.03963468,0.030998353,-0.046709202,0.007683244,-0.06169681,-0.025447108,-0.037353724,-0.025443543,-0.07736468,-0.046760865,-0.052449968,-0.033094715,-0.027980972,-0.13883524,-0.21715714,-0.20814708,0.08477695,-0.09717893,-0.08920583,-0.09547933,0.06916683,0.19157508,0.18534699,-0.121562056,-0.12491299,-0.24375671,-0.034765754,-0.07045701,-0.007900204,0.08522576,0.052333612,0.05092987,-0.031319465,-0.042190645,-0.0093469415,0.010356774,0.0070660342,0.0034559204,0.033242777,-0.18472746,-0.13741076,-0.13336246,-0.14705576,-0.05838184,0.010378558,0.075857274,0.09753328,0.024207026,0.0693723,0.07530053,0.07541943,-0.10957862,-0.19469029,-0.33946556,-0.12969916,-0.10983481,-0.016002908,0.12590083,0.06466265,-0.004454053,0.021764988,-0.059554502,0.020532638,0.037676416,0.012411637,-0.15028273,-0.159521,-0.12828092,-0.12074857,-0.1636686,-0.077350326,-0.076083146,-0.1510176,-0.051278666,0.11010406,0.036365084,0.07767715,0.10445719,0.19277021,-0.029580122,-0.22909397,-0.047362007,-0.11333372,-0.2545215,-0.09485654,0.06299368,-0.058789264,-0.12473698,0.023066077,-0.05464388,-0.002666452,-0.08186417,0.0007030296,0.094205074,-0.04767331,0.013049898,0.022817964,-0.10364959,-0.018857008,-0.09462259,0.047945403,0.012717306,-0.02616749,0.11320429,0.020153463,0.03784331,0.11013023,-0.17422038,-0.18584302,-0.014091945,-0.036715195,-0.096751325,-0.037076414,0.16178514,-0.065758236,-0.039782137,0.047433328,-0.058189314,0.031838626,0.049113274,0.00444893,0.059451975,-0.024388064,0.16619913,0.18565294,-0.053921796,-0.026397416,0.016821621,-0.09350409,-0.09623937,-0.23306578,-0.05394633,-0.17510082,0.009964665,0.012818608,-0.1479209,-0.11093449,-0.14599128,-0.03388611,-0.058286227,-0.014943287,-0.07406068,0.03664257,-0.06375377,0.021669986,0.029409412,-0.07673203,0.03494074,0.022534143,-0.0020409385,-0.059703007,0.12310905,0.21878251,-0.00046393747,-0.15796596,-0.034282476,-0.08788592,-0.10134855,-0.104444034,-0.02248887,-0.2521014,-0.13393089,-0.14249101,-0.08650465,0.027506799,-0.053914912,-0.019358875,0.049721885,-0.0038651165,0.08946115,0.000021722573,-0.0274113,-0.021048795,-0.07328893,0.086215585,-0.032086615,0.04407069,0.043470707,0.121256165,0.19939885,0.114776485,0.02791938,-0.06141873,-0.006836753,-0.16521142,0.103134856,-0.026241347,-0.16398829,-0.3367114,-0.06618054,0.004446246,0.103042565,0.051914785,0.037448663,0.05524138,0.08651214,0.06981166,-0.08865483,0.06702745,0.013212094,-0.01151417,-0.026104733,0.10689151,-0.025239252,-0.011477738,0.0048023374,0.2189808,0.2151275,0.16380343,0.13720016,0.21981522,0.1152584,0.09624871,0.16612686,0.10632958,-0.14061351,-0.2713211,-0.055233642,0.06687967,0.15149191,0.16576047,-0.062176373,0.060481373,0.106527284,0.08147682,0.028301857,0.15607913,-0.012778892,-0.04485493,0.06625306,0.011383166,0.04477178,0.113783106,0.056364547,0.069292374,-0.107011005,-0.0016019462,0.0778636,0.21002077,0.3411343,0.14090098,0.16009304,0.014281817,-0.20859374,-0.012107352,0.17191048,-0.01604937,-0.026336761,0.111947365,-0.07931373,0.000012680516,-0.007896396,0.070836656,0.12800795,0.15990338,0.07657428,-0.07813435,-0.025271371,-0.03737106,-0.036827683,0.09989007,0.09757921,0.1748718,0.020887025,0.09996286,-0.039155256,0.010290042,0.09751459,0.15888491,0.22658022,0.022153942,0.051094316,0.26604483,0.19706208,0.17655948,0.050044373,0.09666378,0.173794,0.09752112,-0.00043881044,-0.00085665553,-0.03137144,0.062059395,-0.058005523,-0.030765427,0.09382467,-0.041972138,0.01663505,0.111586496,0.079226755,0.059782524,0.022998985,0.098598994,0.048351746,0.09970364,0.044205606,0.11409301,0.06705435,0.018338433,0.04263179,0.13047355,0.10002291,0.05222202,0.099585466,0.0713635,-0.062323455,0.08622294,0.013104223,-0.14404696,-0.13111916,-0.01950891,-0.021068322,0.061512087,0.003311539,-0.11977969,0.03725147,-0.017231604,-0.0061036535,-0.057141826,0.16042545,0.17914115,-0.020102177,0.073231325,0.12696704,0.038320106,0.08290291,0.07416727,0.26311186,0.15711512,0.07669898,-0.10017546,0.052709617,0.06168829,0.085801356,0.12992021,0.042904317,-0.016996425,0.05672443,-0.022980453,-0.05164598,-0.021954658,-0.056168158,0.001463522,0.11878443,-0.036182657,0.08583256,0.15675916,0.16106318,-0.053951137,0.04318319,0.02277146,-0.01606293,0.026959553,0.036643583,0.02679201,0.2233799,0.1952052,-0.031740323,-0.054569975,0.14721468,-0.024683941,0.124422245,0.027702998,0.08899528,0.10465061,0.11868429,-0.009366706,0.02942893,0.011736755,-0.008215928,-0.07862681,0.005611238,0.10669546,0.19018373,0.111825466,-0.07292893,0.029044084,0.2071921,0.04347927,0.07144314,-0.11817046,-0.041435923,0.004230151,-0.045342926,0.09280479,-0.042542323,0.13353248,0.11631463,0.0034045808,-0.0028625075,0.13201322,0.14408284,0.0939526,-0.039789304,0.04467233,0.035671733,0.0766893,-0.057835743,-0.0087714465,0.058445245,-0.02504347,0.09895599,0.08479918,0.054446056,0.13456127,0.27991882,0.22227754,0.025355484,0.028859556,0.06599551,-0.064973086,0.0093282,0.015111877,-0.13665609,-0.028475162,-0.025504658,-0.06153769,0.06146543,0.096233435,0.20400417,0.08929645,-0.01618257,-0.054928735,0.0040926374,-0.074441604,-0.04631296,0.06276382,-0.011427214,0.083910055,0.02540301,-0.027667435,-0.004253087,0.091868885,0.1824489,0.03452076,0.16649267,0.06160344,0.048865527,-0.24850193,-0.19137418,-0.103392415,-0.116141185,0.019116022,-0.08224485,-0.12896127,-0.093287624,0.07943608,0.17601027,0.15926766,-0.078320846,-0.05094739,-0.00079530536,0.015990699,0.07312408,-0.0053102933,0.0008012847,-0.012090865,0.0075464565,-0.093554914,-0.05017265,-0.078220785,0.0135590695,0.061419763,-0.041129373,-0.0984892,-0.10955518,-0.25315425,-0.12748419,-0.120246336,-0.1356869,-0.2695127,-0.052340616,-0.10705822,-0.02680037,0.04009985,0.098440096,0.005873164,0.015457747,-0.057105187,0.05083862,-0.010877181,-0.012767515,-0.035269,0.0048664915,-0.077162765,0.0045490265,-0.20229596,-0.044738766,-0.20355342,-0.17304774,-0.011022088,-0.09440381,-0.0734565,-0.15685876,-0.19751726,-0.24786723,-0.2645726,-0.19287318,-0.29698354,-0.16667932,-0.10615293,-0.16370983,-0.019005347,0.02189231,0.002034131,-0.015020174,0.06112226,0.029666916,-0.1362812,0.006324404,-0.05009007,-0.045325812,-0.09008386,0.058075186,-0.094863035,-0.008503535,-0.017230274,-0.12505098,-0.17859322,-0.2870027,-0.10568871,-0.19252077,-0.14690405,-0.16770989,-0.09392863,-0.04836491,-0.27415958,-0.06379944,-0.14335343,-0.13082571,-0.08587842,-0.09885769,-0.03257525,-0.037309464,0.052518208,0.008974529,-0.028785009,0.07837009,0.008218834,-0.0298532,-0.027110813,0.004628208,0.045145832,0.040608913,0.041272823,-0.06690675,-0.0123392455,-0.032400113,0.0098861605,0.100095175,0.042815972,-0.013046763,-0.06498651,-0.04930445,-0.16236867,-0.035811305,-0.03085152,-0.090952344,-0.07556745,-0.024216369,-0.0044070953,-0.032298453,0.009264071,0.03985842,-0.015099116,-0.033412844,0.04982262,0.008587697,0.022015734,-0.02831227,-0.010377225,0.040969655,-0.0013361846,0.018222295,-0.03385476,-0.020937428,0.0013064232,0.03850498,0.019173311,-0.106154844,-0.015416872,0.079008326,-0.027611937,-0.07435326,0.035370536,0.060786445,-0.064666405,-0.006737359,-0.0707872,-0.06894801,-0.006920198,-0.049831543,-0.04981265,-0.016557908,0.08654538,-0.0113526,-0.060117885,-0.03075712,-0.030669034,-0.06013523,-0.011393327,0.10631767,-0.00964759,-0.074102916,0.09555824,0.08594305,0.066125065,-0.022537172,0.011881478,-0.0028047815,0.0018071465,-0.05999029,-0.018429702,-0.040679626,-0.013500498,-0.0070611634,-0.014061294,0.055431236,-0.06086594,-0.10382026,-0.05794496,0.07491977,-0.026451342,0.06822701,-0.054840732,-0.011854913,-0.08764388,-0.0476185,-0.053484797,-0.06261219,-0.060032558,0.047347724,-0.028041318,-0.007313017,0.047583718,0.08112251,0.044520706,0.0043571675,0.024348222,0.043674394,-0.047161907,0.01719941,0.012714339,-0.01700588,0.04804801,-0.039397974,0.037141312,-0.035923023,-0.039406244,-0.052389853,-0.0225821,-0.05038436,0.042526532,-0.0047375984,0.035662483,-0.05092966,0.029534196,0.033917036,-0.06904336,0.043877404,0.05540894,-0.033808667,0.01610401,0.008351653,0.014206687,-0.014679109,-0.061190113,0.05713443,-0.04666816,-0.08539897,-0.1068441,0.023323799,-0.07418956,-0.0061584236,-0.0057973047,0.061218593,0.040149204,0.022835946,-0.0151949795,-0.016981272,0.00023200801,-0.064665854,0.0008162263,0.08703061,-0.029051313,-0.06712889,0.01664715,-0.014291195,0.007949712,0.0126681365,-0.005825721,0.082972676,-0.014394496,0.031101564,-0.09153777,-0.023661094,-0.0077718133,-0.017432591,-0.026691511,0.085864305,-0.0029390699,-0.04928958,0.02743359,-0.037351925,-0.03278475,0.017595707,-0.028019533,0.095343806,0.024349077,0.023867976,0.0022860633,0.0651843,-0.00041227046,-0.02145051,0.06599584,0.025172807,-0.009569387,0.08944016,0.017580422,0.014140425,0.00284796,0.042933132,0.037195344,-0.0807479,-0.014247771,0.10742834,-0.07070862,0.023412066,0.00790082,0.020217067,0.025225481,0.03226336,0.010896858,0.023332436,-0.061614834,-0.029402275,0.013959832,0.070611656,0.05682901,-0.017512359,0.045041032,-0.0208341,-0.10096134,-0.11379475,-0.068425536,-0.055669885,0.061253536,0.05369756,0.035913702,-0.057511292,0.021706525,0.041305874,0.06659628,0.07776804,-0.11518811,-0.0025545557,0.047344204,-0.00428511,-0.12972149,-0.06490858,-0.025248663,-0.104316175,0.056379985,-0.005864055,0.00063433195,0.054442454,-0.0066192895,0.058986623,-0.004035912,0.040921878,-0.028049264,-0.015408983,0.029978458,0.02523017,-0.010026994,0.06956673,0.026774695,0.01901798,0.05971385,-0.013443206,0.027997937,-0.0022289648,-0.0047805547,-0.06023956,0.024928598,-0.021474723,0.015934477,-0.025756536,0.025086239,-0.019014329,0.054743916,-0.02583606,0.017591003,-0.07294778,-0.117218845,0.09797087,0.044408727,0.013970901,0.048311274,0.023340357,-0.048375998,-0.07014122,0.11863905,-0.05354892,0.0012099454,-0.036483917,0.03220749,0.02648624,0.04002716,0.020985618,-0.037067957,-0.029699024,0.016305689,-0.05434804,0.008323408,-0.019931365,-0.033363163,-0.0746499,-0.069181636,0.063573055,-0.08116325,0.03605136,0.013317325,0.032113545,-0.005250084,-0.071945824,-0.03098503,-0.045781754,0.02033866,-0.06693487,-0.08733453,0.028942732,0.0403776,-0.08659533,-0.0420502,0.06020951,-0.033542812,-0.026172519,-0.012922159,0.0053060264,0.03450495,0.021530159,0.041763604,-0.032564584,-0.11588151,-0.033632446,0.006751779,0.0002112605,0.10797697,0.0067561003,-0.059079047,-0.011187661,-0.06650527,0.06969229,0.023116985,-0.019111747,0.005810957,0.05082002,-0.028763872,-0.07104256,-0.05514721,-0.025965117,0.06583006,-0.032981925,-0.026968677,0.04843717,-0.031576734,-0.03911044,0.005020422,-0.0991556,0.012811994,0.02250328,-0.027027896,-0.012690185,0.03495504,0.021107856,-0.06267763,-0.012553283,-0.03224543,-0.0035197167,0.052895956,0.004224198,0.010843836,-0.047340937,0.0025773596,-0.0004875207,0.02788108,0.052354477,0.012774071,-0.006900349,-0.056322586,-0.0653863,-0.03759339,-0.048713442,0.057499915,-0.0102610085,-0.062518425,0.018250428,0.033009667,0.036253646,-0.016627219,-0.018749721,0.03905728,-0.03951914,0.10303491,0.018672436,0.001699146,0.01512128,0.06871342,-0.09240145,-0.10397497,0.001010464,0.09264265,0.020103468,0.04543132,-0.025267465,-0.016954327,0.06371408,-0.020749588,0.095154345,-0.086074345,-0.03313009,0.02153674,0.016553637,-0.006105786,-0.06924601,-0.008360868,-0.008533328,0.009481204,-0.03438171,-0.002833946,-0.044162605,0.051062677,0.037424058,-0.0038281966,0.028416207,0.014643349,-0.06961566,-0.018101167,-0.09267261,-0.10240587,0.016654663,0.024759037,-0.0024220615,-0.026602084,-0.013283398,-0.028661495,0.0140930535,-0.07986526,-0.08082757,-0.029621296,-0.03637717,-0.016526222,-0.03403803,0.008430812,-0.033500478,-0.025710719,0.06377189,-0.039509192,0.077118084,0.017999705,-0.008027784,0.031966086,0.002275991,0.042878404,-0.041725274,0.07327863,-0.0524334,-0.040489595,-0.026629118,-0.104876645,0.044233266,0.06139941,0.010280814,0.07978924,-0.029584434,0.048784994,0.048897535,-0.06993665,-0.038833987,0.017165592,-0.0112363845,0.0051147374,-0.01764021,-0.038314003,0.028265953,0.029587505,0.0023771003,-0.09767916,0.007762612,-0.02104537,-0.05026439,-0.049690697,0.021029623,-0.013815211,-0.037745252,0.07507629,-0.09319062,-0.026821133,-0.05838774,-0.070693,-0.07011935,0.018278876,0.012715694,0.007353391,0.056384612,-0.037330408,-0.03187469,-0.02251713,