{"version":1,"layers":[{"Relu":[784,128]},{"Softmax":[128,10]}],"seed":"2891643042","error_function_type":"CrossEntropy","meta_data":{"accuracy":0.9799,"error":0.013044416,"epochs":10,"duration":{"secs":202,"nanos":910273000}},"weights":[{"v":1,"dim":[128,784],"data":[-0.08232986,-0.022458492,0.041093275,0.047604736,0.0024431292,0.04932907,0.113232955,0.025852235,-0.016964564,-0.023644144,0.09986552,-0.00018195248,-0.080065355,0.083477214,0.0024096493,0.03521101,-0.058179818,0.036629677,0.016275074,0.043799337,0.020855544,0.03820017,-0.07904821,0.05126347,0.04297556,-0.061739046,-0.06122127,0.05436078,-0.021927552,-0.1305477,-0.062320407,0.09419944,0.049022317,-0.022472639,-0.042991597,0.011433828,0.103598505,-0.04199043,-0.013248819,0.01043655,-0.0065673473,0.0025463416,0.03354053,-0.011962307,0.0010990188,0.005310436,0.012354851,-0.011390024,-0.009226565,-0.043200858,-0.01380121,0.02065836,0.06645827,0.0796128,0.0077696457,0.016863136,-0.037708234,-0.018376656,0.073067985,0.0064090667,-0.013892795,0.04441684,-0.058957595,-0.018346671,0.06349209,-0.03618528,-0.017256347,-0.07513233,-0.10115888,-0.103128776,-0.13314587,0.068582356,0.03678406,0.07432256,0.00905489,-0.0068890597,0.03060626,-0.014478303,0.047721945,-0.06183914,0.037893903,-0.030793881,-0.01666803,0.0449143,0.008770624,-0.023235518,0.006458675,-0.030578697,0.109487556,-0.054917246,-0.0027446963,0.14515299,-0.09704171,0.004638814,0.012558796,-0.10168795,-0.07126569,-0.099163905,-0.09050166,-0.16123065,-0.09733446,0.1668712,0.37258008,0.21297984,0.08940471,0.034425903,-0.035965078,0.0889021,0.07247597,0.032433107,-0.013169439,-0.027022263,-0.03469236,0.023510037,-0.018302774,-0.02638875,-0.044761624,0.0032101127,0.01336514,-0.095336616,0.012005368,0.061230566,-0.019773545,-0.07519287,-0.06987486,-0.07984028,-0.15752721,-0.18250148,-0.072925575,0.10917113,0.05211497,0.20895474,0.043299597,-0.004116837,0.03675889,0.076871574,0.062982984,-0.020894779,0.028924627,-0.017520253,-0.06710665,-0.03305796,0.040797487,0.027694795,0.018997852,-0.004519721,-0.020560192,0.04251605,-0.042046826,0.07188914,-0.013292759,-0.1909507,-0.19891576,-0.2455956,-0.17464699,-0.012452103,-0.014648151,0.031348962,0.118060134,0.013206735,-0.02914676,-0.09994239,-0.013357983,0.050074935,0.10115177,0.03954,0.012333335,-0.026564859,0.010377524,-0.0347176,-0.05647405,0.033990294,-0.02666381,0.07338457,-0.011674874,-0.039320197,0.028540673,-0.020804606,-0.027081119,-0.1972757,-0.12607522,-0.17037061,-0.10882393,-0.064029455,-0.03386412,0.0017435352,-0.0012076689,-0.054494694,0.001045398,0.06199514,-0.06108571,0.054048173,0.050102927,-0.09543409,0.023434272,-0.019320272,0.023235597,0.01589602,-0.05929881,-0.0068825665,0.07629871,0.06312157,-0.025735687,-0.08082201,0.06048566,-0.049335904,-0.14967236,-0.11587942,-0.11040337,-0.19556518,0.05519824,0.04303786,0.02291006,-0.018576333,-0.020413479,-0.0628131,-0.036306538,-0.10440673,-0.006806629,0.006850429,0.01854495,-0.10696688,0.05912246,-0.012026051,-0.07754687,0.037400726,-0.025542688,-0.018166447,-0.03788518,0.04710937,-0.05217652,-0.0025401888,-0.0025547352,-0.08112327,-0.21216504,-0.059149873,-0.20189174,-0.2592413,-0.19282249,-0.04370145,0.0038248075,0.10612423,-0.028593544,-0.014177979,0.043476716,-0.013036189,0.15687415,0.12301304,0.050759457,0.009792284,0.10016704,0.061181612,-0.0218295,0.0029765167,0.033760566,-0.024237443,-0.0009624909,0.10150826,-0.021917412,-0.06117116,0.001206318,-0.0046295975,-0.25625968,-0.16919214,-0.21130748,-0.15307274,-0.112152725,-0.033119254,0.22815983,0.16532648,0.10832476,0.020547688,0.066339254,0.04868827,0.08109328,0.043866135,0.037410367,-0.026956119,-0.036659487,-0.045039527,-0.018396823,-0.0014547639,0.06279131,-0.029385408,0.06766587,0.08505983,-0.03038571,-0.008878987,-0.06390646,-0.12480607,-0.08780335,-0.1382264,-0.14914097,-0.1854973,-0.018620227,0.21758935,0.12287215,0.054060396,0.005925045,0.01378939,-0.04140647,-0.0060469755,0.15329175,0.03897988,0.14374416,0.123935215,-0.009441394,0.048366502,-0.074954204,0.007971114,-0.053009342,-0.03979275,0.073297136,0.14126892,-0.015155888,0.016023913,-0.0026121368,-0.102326706,-0.14786354,0.021220129,-0.09072952,-0.20149265,0.09280045,0.22498518,0.022530608,0.037959926,0.007853122,-0.028229568,-0.037988227,-0.002141087,-0.042055275,0.02504224,0.05314513,0.023956623,0.071180284,0.007215962,0.013323147,-0.039160218,-0.042146735,-0.054752536,0.07447332,-0.049098134,0.027921757,-0.044182494,-0.20291716,-0.14197253,-0.16853909,-0.16216168,-0.07834506,0.13413832,0.31070662,0.07726972,0.0033432785,0.17721653,0.062706955,-0.23431994,-0.1906493,-0.0582086,0.005799097,-0.04080886,-0.050136786,-0.015806746,-0.0017637012,-0.049184714,0.13384753,0.030603984,-0.015014459,0.04775687,0.01335035,0.036678605,0.07552787,0.0836429,-0.016664056,-0.14807038,-0.08098521,-0.04827157,0.10400605,0.24642047,0.18813,-0.07798182,0.090748824,0.06373765,0.0046419636,-0.09353203,-0.15469779,-0.03789284,-0.14963275,0.015406993,0.018979117,0.09443075,-0.03236866,0.08505959,-0.010697762,0.025788061,-0.013694476,0.094014786,0.03893568,0.13048458,0.0553584,-0.07529157,-0.0870689,-0.052872173,-0.083964065,-0.09106745,-0.11604366,-0.0051223785,-0.08702566,-0.121335566,0.0026153703,-0.039735995,-0.23204039,-0.026760126,-0.014135444,-0.09000542,-0.053084772,-0.03403746,0.020299507,-0.022823583,-0.079085305,0.0808866,-0.01847907,0.0728247,0.06873435,0.042523645,0.005753024,0.093544625,0.08660905,0.04824057,0.033502795,-0.08724294,-0.11165562,-0.2655232,-0.1271434,-0.07112817,-0.08726449,-0.21020237,-0.047580887,-0.053143054,-0.0035573537,-0.017415868,-0.04251226,-0.08001483,-0.19128387,-0.024001742,-0.052930895,-0.08325826,-0.076843314,-0.041753124,-0.024533065,0.06211534,0.0058254586,-0.041325346,0.06520844,0.050601494,0.03485705,-0.0039898413,-0.017146753,-0.1392238,-0.10424951,-0.14771558,-0.025629384,-0.0352293,-0.14666198,-0.07360539,-0.019799547,0.1042272,0.072935484,0.007465136,-0.053477988,-0.07246493,-0.10886405,-0.05731932,-0.0023566259,-0.058635972,-0.061131496,0.040503763,0.06484748,0.077848576,-0.09741861,-0.100024536,0.043775145,0.13916278,0.056223795,0.09248436,-0.071934596,0.05256171,0.0016330027,0.07357717,-0.15574582,-0.07792884,-0.07148569,-0.025873587,0.1726351,0.019927327,0.02152409,0.10341634,-0.014177273,-0.09889279,-0.037273895,-0.059411407,-0.03439944,-0.06150037,0.024242466,-0.047191493,-0.027426638,0.022603473,0.0136920875,-0.05588559,0.053039394,0.114676714,0.07755525,0.04509148,0.097237416,0.17929581,0.15574354,0.16228515,0.044969395,0.10572874,-0.043336168,0.06309543,0.032626152,-0.05983976,0.010430784,-0.09917692,-0.057584785,-0.1442658,-0.122938044,0.009260871,-0.012673559,0.0027060388,0.026155626,0.013298129,0.04961021,0.038886342,-0.048376847,0.057688482,-0.011783333,0.03970652,0.26953635,0.19043674,0.1781632,0.12921487,0.2285201,0.13831776,0.1880446,0.14197303,0.08201889,0.052624933,0.0030236354,0.12719473,0.036632128,-0.03169657,-0.04602799,-0.08256244,-0.03426008,0.02429049,-0.034684185,0.004848872,0.0250189,-0.059529193,0.04594212,-0.002374332,-0.035273366,-0.0034305314,-0.036660094,0.074263975,0.10098623,0.0121369,0.021902816,0.055670552,0.07220124,0.13753241,0.1315436,0.16071825,0.22048102,-0.07983738,0.121296085,0.007607027,-0.03719155,-0.057256915,-0.04921618,-0.0055476865,-0.02208083,0.02819882,-0.027942702,-0.06843473,-0.06171977,-0.07959917,0.033111528,0.02368548,-0.011242218,-0.055202648,-0.16512036,-0.015594646,-0.083509155,-0.05820962,-0.012580703,-0.028322414,0.13677685,0.15968569,0.047209263,0.13136296,0.1079926,-0.12726687,0.002725833,-0.07660301,-0.045084406,-0.0076812278,-0.07754512,-0.101434015,-0.042935316,-0.06343632,-0.060020808,0.046025615,0.042627398,0.0122388685,0.000070496,-0.029603707,0.08807081,0.043744348,-0.10767318,-0.08751046,-0.15815905,-0.18464863,-0.16758822,0.08126931,-0.08349893,-0.13581923,-0.011996297,0.014484903,0.05272626,-0.08343152,-0.116818525,-0.11054853,-0.01212977,-0.11724939,-0.09735814,-0.045984406,-0.10378321,-0.05383198,-0.050021335,0.042347867,-0.06690648,-0.015663011,0.009315358,-0.052421078,0.05867313,-0.003609365,0.090322,-0.064115405,-0.12550965,-0.21059567,-0.20422095,-0.13604105,-0.16039467,-0.15143247,-0.11878207,0.02079165,-0.06588754,-0.030457638,-0.02908008,-0.103134915,-0.060511254,-0.045004424,-0.029421696,0.0059370627,-0.024805142,0.03147369,-0.040963408,-0.045960136,-0.052396093,-0.047749195,0.0012609321,0.059537716,-0.015271865,-0.105123974,-0.063421585,-0.048414387,-0.05193053,-0.11078029,0.039241306,-0.043390267,-0.049828663,-0.06929237,-0.05640894,0.10156267,-0.060977716,-0.0870275,-0.025038458,0.0020638097,-0.1219101,0.0075010345,-0.053176433,0.052505683,0.12212569,-0.055304095,-0.031409726,-0.04175631,-0.008679415,0.023151604,0.031569812,-0.056831032,-0.09635789,-0.053353317,0.030737946,-0.012151141,-0.050416216,-0.089397475,-0.006996586,0.004063283,0.013915164,-0.09552161,0.07556576,0.0035265863,-0.0019200345,-0.07499504,-0.017627098,0.040765874,-0.014712807,0.0018231459,-0.093523234,-0.028251188,0.028711483,-0.034006342,-0.019861503,0.067870624,-0.059915952,0.057400882,-0.06586506,0.0050722924,-0.01083869,-0.018784994,-0.0045385286,-0.04521126,-0.04678966,0.07286515,-0.12998064,-0.05546342,0.06640353,-0.040822495,-0.11322949,0.015779667,-0.027348153,-0.0672892,0.009022887,0.06421154,-0.042918026,0.056147363,-0.06249643,-0.070025735,-0.04322064,0.036473252,0.033963908,-0.11595964,0.0155411465,-0.012020378,-0.06160756,-0.050299242,0.006996318,0.0032936698,-0.08441942,-0.0142019205,-0.018354747,-0.018417338,-0.05142248,-0.100108534,0.0037118022,-0.13751116,-0.07342867,-0.035906065,0.08239872,0.07180547,0.03319403,-0.023630088,0.00031112446,0.03264933,0.067807995,0.02584689,-0.0026798972,0.042981476,0.015500448,0.031235568,0.023418332,0.00526037,0.03204924,-0.0060356995,0.040409587,0.036254987,0.04357721,-0.020835044,0.01667136,0.07394215,-0.10018686,-0.027505593,0.062124312,0.025817396,-0.03487799,-0.011931576,-0.010661991,-0.028025288,0.0016609846,0.0399015,-0.090017304,-0.041832577,-0.006648663,0.00812821,-0.03846225,-0.019355891,-0.08596863,0.013976074,-0.04167653,-0.020009387,-0.028218776,-0.047624387,-0.04107743,0.018422734,-0.060189065,-0.03244646,0.06109356,0.061500795,-0.1699047,0.037907116,0.047807846,-0.03720353,-0.01868059,0.008682997,-0.020815693,-0.02026428,-0.004681428,-0.052306395,0.025153123,0.013437413,0.02898956,-0.012062891,0.056450713,0.009373688,-0.03878687,0.019376555,-0.010662751,-0.0281316,-0.03648158,0.009026541,0.10683543,0.03530993,0.011368606,0.05818689,0.0013101475,-0.070696205,-0.031713363,0.035440847,-0.102486566,-0.019695368,0.018898562,0.056937322,0.044816222,0.029085184,-0.05097719,0.09907648,0.01903296,-0.012053649,-0.033897262,0.00292898,-0.06974633,0.009425467,-0.0060731596,0.053832475,0.046326723,0.028543448,-0.032991815,0.02844443,0.03735957,-0.06802263,0.03084762,0.05164969,-0.04870992,0.007911985,0.004600329,-0.010613773,0.014928768,0.04884767,0.04547655,0.009105365,-0.20574549,-0.029342052,-0.031511627,-0.08277474,-0.105039306,0.035554912,-0.03921922,-0.00094220147,-0.11329979,0.041648567,-0.017854476,0.071192704,-0.10202124,-0.011991813,-0.021124251,-0.0006477383,-0.043145455,0.05972558,0.005880014,0.06549292,-0.010444715,-0.06006422,0.031337224,-0.003052608,-0.0880145,-0.09084819,-0.13471973,-0.08393036,-0.2859519,-0.20697367,-0.18097205,-0.13403903,-0.110069424,-0.13739505,-0.08681913,0.025047293,-0.07610053,-0.1788935,-0.033785056,-0.03199805,-0.023046868,0.025398113,-0.0848709,-0.06588992,0.09055772,-0.055692196,0.018792398,-0.013479445,0.08035034,-0.03708941,0.20860215,0.17385341,0.10080034,-0.028333629,0.123039104,0.03770955,-0.10519303,-0.38854194,-0.34793714,-0.08791862,-0.16716509,-0.24549045,-0.1128432,-0.01889322,-0.17392339,-0.1390986,0.026072482,-0.07715031,0.04338134,-0.016662335,0.05989036,-0.0294055,0.04871305,-0.025791984,-0.029471934,0.19882356,0.081856705,0.12918164,0.120935015,0.1322966,0.14531744,0.086521335,0.17183043,0.11839951,-0.030190485,0.02128758,-0.09758339,0.16661543,0.22713853,-0.024903798,-0.015119479,0.08468426,0.061387185,-0.021536497,-0.066890776,0.010276583,-0.01124441,-0.06523743,-0.112348266,0.0332557,0.019765688,0.061635453,0.11261559,-0.025308965,0.12993264,0.12655056,0.10773622,0.13935669,0.0976727,-0.017383097,-0.11480258,0.0072511663,-0.2600321,-0.12939249,-0.059276603,0.107464395,0.3353714,0.013134027,0.035546836,0.06551374,0.030439004,0.0011444734,-0.06703881,-0.05000624,0.031562697,-0.05989694,-0.010373951,-0.046867833,0.0058669616,0.1198116,0.011530744,0.11285347,0.20535098,0.21437164,0.34444207,0.24936004,0.09345982,-0.0852998,0.004219676,-0.18134382,-0.12347835,0.010092703,0.010961622,-0.007334143,0.13964762,-0.08622833,-0.07243153,0.023455516,0.02985785,0.01754582,-0.117430374,-0.050000936,0.012904924,0.033771474,0.10370733,-0.0077984887,0.051939964,0.01580603,0.02317549,0.1404435,0.20917565,0.0938717,0.14586723,-0.041429285,-0.022033915,-0.058129348,0.03817024,-0.13118021,0.05017419,-0.022523751,-0.1195371,0.09279339,0.07792636,-0.11999158,-0.052989528,0.105440475,-0.054146644,-0.10734458,-0.023408314,0.0045632855,0.020715594,-0.03179292,-0.008885308,-0.005056496,0.0089499755,0.026044901,0.038902275,-0.020960586,0.1949785,0.103698425,0.027262706,0.026726516,0.10806807,0.17493592,-0.02816113,-0.050929308,-0.10891695,-0.052659754,0.08259269,0.032608043,-0.13317782,-0.025669085,0.0075435974,0.11948013,-0.043086555,-0.081197724,0.046796363,-0.054226886,-0.08140335,-0.020357398,0.04080238,-0.002603718,0.0067930813,0.047982134,0.03622906,0.07231115,0.06470223,0.100151956,0.25296944,0.058810867,0.24111335,0.41467032,0.29402438,0.15415445,0.015344188,-0.04009551,-0.21666834,-0.07364043,-0.045433417,-0.066810906,-0.07186985,-0.059060056,-0.065826334,-0.08620563,0.08487196,-0.0036644884,-0.009978045,0.06009822,-0.0031997946,0.02965062,0.05600859,0.08302059,-0.049490813,-0.123215616,-0.2221897,-0.07354602,0.05586573,0.051054772,-0.018751394,0.22590624,0.07133917,-0.114942454,-0.23858048,-0.08972696,-0.16773517,-0.028080178,-0.017693624,-0.13904743,-0.2708537,-0.1194227,-0.028465739,-0.12617134,-0.041144274,-0.0777816,-0.022370972,0.021128947,0.054174356,0.020990873,0.012466035,-0.03713979,-0.029568383,-0.10372746,-0.26333857,-0.2018108,-0.049193732,-0.04475361,0.044509184,0.025797019,-0.23230162,-0.24184062,-0.28811458,0.07663035,-0.08660099,-0.060496226,-0.073511295,-0.06525118,-0.14385289,0.09450621,0.059003294,0.06755974,-0.016403016,-0.026574729,0.0059340857,0.011191713,0.06513153,0.01681528,-0.08958053,-0.007078325,-0.044828232,0.0528702,-0.036371615,-0.124772735,-0.27172035,-0.17893879,-0.06647992,-0.033049695,-0.12295675,-0.23369971,-0.18334337,-0.053014677,-0.14817552,0.034676712,-0.08790393,0.03745512,-0.13172191,0.11205058,0.1542403,0.079123095,-0.019722924,-0.023507249,0.0056896233,0.06535737,0.02704128,-0.0095011825,0.025497591,0.019861901,-0.015550786,-0.104228646,-0.13773264,-0.1651934,-0.24348944,-0.24254695,-0.07082327,-0.19882274,-0.2594928,-0.07877698,0.23882212,0.20038295,-0.15194839,0.21309802,0.039983496,0.09860496,0.03869063,0.03792908,0.05521736,0.08940406,0.07167825,0.0073980405,0.016055467,0.05606049,-0.004341265,0.037039854,0.03338691,-0.020180237,0.037771016,-0.1807204,-0.20295592,-0.1570708,-0.05947879,-0.24090332,-0.20029908,-0.26706907,-0.23896314,-0.0152140595,0.24555126,0.29683596,0.072261006,0.25684422,0.047638394,0.11361824,0.0021285447,-0.019937923,0.005595905,0.062887415,0.05023009,-0.040429544,-0.06177635,-0.16070011,0.040076833,0.0078041865,0.059956655,-0.11434213,-0.050269965,-0.11736302,-0.1338341,-0.16243538,-0.35090682,-0.22366253,-0.18503043,-0.097286046,-0.03984831,0.010847881,0.12676401,0.25057462,0.16146043,0.12647687,0.09305136,-0.08988765,0.048363376,-0.038347233,-0.07262124,0.060489755,0.11713191,0.076306455,-0.043148518,-0.0025205447,0.004473189,-0.09525889,-0.06989237,-0.120835416,-0.15867946,-0.11500553,-0.11976413,-0.26614642,-0.25925294,-0.26023516,-0.14625016,-0.012593769,0.015332296,0.085110635,0.07058964,0.05542059,-0.053142466,0.11987586,0.14674218,-0.08933338,-0.00031899233,-0.15715395,-0.07962417,-0.05283993,0.029982792,-0.062262326,0.06499812,0.05598507,0.05680767,-0.029221196,-0.01747348,0.03428953,-0.039276738,-0.11671563,-0.18222964,-0.110195376,-0.14838399,-0.1228996,0.037029877,0.07186717,0.21114986,0.0051915017,-0.018356787,0.112335265,-0.08664267,-0.09169648,-0.008406828,-0.061665684,-0.056510262,-0.2701542,-0.07872502,-0.06161788,-0.0005113183,-0.007875241,0.033672318,-0.027600694,0.03758334,0.062292267,0.008812524,-0.014256785,-0.08335411,-0.15088962,-0.16924934,-0.10903302,-0.07335157,-0.025838874,0.0805501,0.2417324,0.3671035,0.080706306,0.0012760442,0.035679147,-0.112403266,-0.1704822,-0.24463321,-0.28128067,-0.10601437,-0.10697475,-0.20379768,-0.00074789516,-0.09342063,-0.008087599,-0.06815682,0.036518943,0.056454763,-0.019548457,0.038894773,-0.06739977,-0.1705824,-0.152121,-0.26989195,-0.26409784,0.07716253,-0.117124304,0.07833987,0.20392649,0.24714527,0.12586562,0.048305634,0.012395326,0.0061961156,-0.16709542,-0.3858222,-0.06918817,-0.17284673,-0.13348678,-0.11369069,0.03933856,-0.034836683,-0.023651024,-0.019214492,-0.01124598,-0.0018461095,0.004831739,0.059490014,-0.0016743484,0.0054779868,-0.19727133,-0.102412984,-0.10826785,-0.10911429,-0.06860951,0.03745446,0.0083704805,0.10693859,0.04514296,0.1425276,0.120686136,-0.07685069,-0.34835547,-0.18432137,-0.14004603,-0.07881143,-0.0963015,-0.076864675,-0.019031014,0.098853886,-0.061106987,-0.031922847,-0.025770564,-0.025892459,-0.005608812,-0.039990976,-0.03257295,0.020487435,-0.08481344,0.004195039,0.041778106,-0.14224552,-0.035699446,-0.059030965,0.01517731,0.25209984,0.32424855,0.21611452,0.048289254,-0.031549964,-0.12024425,-0.19632228,0.049335275,0.036640257,-0.0013947216,-0.051373526,-0.046131577,0.03247102,0.013004644,0.00904662,-0.013757943,-0.004200185,0.07727207,0.04689111,0.03731171,0.04371625,0.20642042,0.14422093,-0.106529154,-0.14308566,-0.2204383,-0.089076534,0.13150558,0.14585254,0.002832444,0.018799776,0.2575924,0.027634263,-0.16471057,-0.002677434,0.06318756,-0.049355134,0.11241868,-0.017111327,-0.008196536,-0.024519196,-0.038508173,-0.006309608,0.060435504,0.06487304,-0.019305462,-0.0054907063,-0.008951437,0.055187404,0.103587665,-0.000033225893,-0.07654553,0.00707888,-0.12011126,-0.021234322,0.009273817,0.0035201593,-0.093180105,0.09910863,0.25388077,-0.063029215,0.10268252,0.0072498024,-0.051972363,-0.06512271,-0.034295693,-0.06592297,-0.03761733,0.054565843,0.0053167134,0.07133008,0.046984088,0.112566106,0.043956418,0.02898841,-0.07105451,-0.029158348,-0.026683506,-0.132233,-0.0115345,0.07561474,0.036945052,-0.0019850018,-0.09647408,-0.031217936,-0.019238466,0.051186733,0.049061336,0.05849799,-0.044928104,-0.0025148303,-0.009868701,0.04885895,-0.025134511,-0.003295663,-0.059402652,0.0776756,-0.068729885,-0.05453812,-0.018112948,0.059084795,-0.02585216,-0.023797445,0.037742306,-0.01404916,-0.021249896,0.05276321,0.05273798,0.015985105,0.048622727,0.010260554,0.04229624,0.0034018145,-0.02339125,-0.103358485,0.025084745,0.09456849,-0.0272826,0.007479359,-0.024677997,-0.024299024,-0.021850573,-0.12078402,0.006127201,0.004126611,0.011455654,0.07201904,0.0017560727,-0.08295204,-0.0057294676,-0.03426648,0.0069658747,-0.00023751824,0.017134903,-0.04775758,-0.0077258954,-0.08228154,0.01524413,0.0724537,-0.0009725486,0.098253734,0.025413923,0.11426619,-0.0202616,0.06560157,-0.020083167,-0.0029518344,-0.012565445,0.059982438,-0.06727176,0.023519417,0.03529536,0.019534605,0.07086143,0.015832372,0.020857736,-0.043665055,0.04597655,0.010496535,0.04938615,0.04264126,0.007788904,-0.0017322763,0.022916114,0.003768025,-0.012358233,-0.0048362054,-0.031027881,0.03910603,0.0388372,-0.021232244,-0.044564094,-0.07060833,-0.034812085,-0.007107646,-0.028066285,-0.093808725,-0.0462434,0.08397291,-0.0880247,0.100095384,0.05366704,0.009321282,-0.023685794,0.03386043,-0.029532384,-0.028604055,0.0042136135,-0.041951913,-0.01297716,-0.03381138,0.05338915,0.0014209658,0.05838914,-0.011611261,0.09181693,-0.03851835,0.06356533,-0.01402979,-0.04279434,-0.066125244,0.012593351,-0.057912145,0.051054917,0.06258473,0.04607362,0.05909061,-0.042463098,0.038287994,-0.03938319,0.0065388796,0.04767451,0.07099158,0.04697203,0.108843006,0.079608515,0.12123993,0.01848919,0.064689524,0.04178627,-0.068158716,-0.033880014,-0.098171875,0.008185989,0.01531927,0.07320576,0.050985087,-0.01716758,0.057097625,0.03836556,0.03555203,0.0058768354,-0.028772602,0.011314371,-0.032857955,-0.025215022,-0.010401156,0.035594936,0.10151419,-0.0075337538,-0.016510049,0.092261285,-0.011737847,0.055632338,0.07273485,-0.026784785,-0.029196346,0.027528126,0.12234323,-0.11774545,0.026116533,-0.08491949,-0.0016482339,0.027143056,0.21774334,0.04163237,0.024673313,0.2445548,0.06917066,0.022824658,-0.11049541,-0.0035652593,0.006651215,-0.015044356,-0.03579865,-0.0048088934,-0.061470155,0.047674302,0.03873529,0.020297913,0.023221448,0.0092357425,0.009586072,-0.028050652,-0.060378544,-0.07799764,-0.16882387,-0.09687143,-0.04063031,0.05781889,-0.0028685355,0.15385413,0.14858362,0.1875642,0.08809605,0.100156344,0.055469584,-0.0122032,-0.01875445,-0.06412663,-0.07435979,-0.11885479,-0.061247874,-0.115130976,0.01481496,-0.029133292,0.11427592,-0.035640866,-0.01630159,0.08044639,-0.032405414,-0.09327774,-0.03394411,-0.06942516,-0.10549421,-0.23640245,-0.04194911,0.11136766,-0.04670546,-0.042462647,-0.059095215,0.031174507,0.14128089,0.085438214,0.19383068,0.09788288,-0.03213712,-0.0145360995,-0.07995301,-0.1883063,-0.07841153,-0.08611321,-0.042466987,0.052428707,0.034598347,0.030734552,-0.0062209847,0.023033496,0.0043178624,-0.06771971,-0.04384184,-0.06980114,-0.13641065,-0.052667856,0.060548812,-0.067951486,-0.20246904,-0.17004047,-0.272055,-0.14149398,-0.0027188037,0.23673478,0.38165465,0.20629278,-0.036944717,0.049888093,-0.021203013,-0.06933005,-0.04825821,-0.1350164,0.008975639,-0.090901,0.037159517,-0.043627888,-0.041624907,0.041117277,-0.06245869,-0.21140356,0.0028117064,-0.14841948,-0.08537157,-0.04840239,-0.03660813,-0.12042199,-0.16522689,-0.12752299,-0.16129538,-0.14367856,0.14853412,0.10442936,0.18057436,0.13337596,0.14102972,-0.047766242,0.056343228,-0.003993013,-0.17353077,-0.086368114,-0.0061147907,-0.03936315,-0.041174438,-0.045172688,-0.06121915,-0.0041063707,-0.042874917,-0.16538619,-0.11442339,-0.14769255,-0.13536048,-0.15527771,-0.065348566,-0.12697399,-0.05054569,-0.16016623,-0.08448926,-0.01449252,-0.21614693,-0.23352484,-0.20628822,0.28372455,0.3569378,0.05829554,-0.032544397,0.13084728,-0.054770365,-0.0038072022,-0.06179401,-0.03232733,-0.022754228,-0.0019041605,-0.026615774,0.010201968,0.051638924,-0.17659825,-0.25564325,0.04487056,0.115287125,-0.051746488,0.05041275,0.15237246,-0.07886073,0.1175058,0.100076206,0.14786536,-0.17537722,0.00028148064,-0.04095737,-0.016015345,0.16446345,0.10258434,0.04297745,0.30101112,0.07042423,-0.14827394,-0.15078518,0.012919923,0.025514685,-0.0073671085,-0.038189404,0.01717977,-0.113305464,-0.21718714,-0.03672032,0.2130459,0.09814024,0.12240722,0.05647522,0.08822916,0.110380106,0.07960509,0.09413874,-0.00019439586,-0.14263679,-0.12265112,-0.15976706,-0.005860124,0.16719325,0.115867645,0.11290246,0.24841918,0.25132138,-0.032253098,0.037597425,0.064925455,-0.00010437703,0.019687004,0.0351782,-0.019596308,-0.058230784,-0.07482827,-0.021500276,0.009658916,-0.057111993,0.22537859,0.15865716,0.15885647,-0.120798126,-0.08588027,-0.13677455,-0.065033495,-0.06333827,0.0095466105,-0.038765483,-0.07422131,0.04965518,0.087615445,0.09657082,0.22624956,0.0209292,0.068001114,0.029235873,0.079980284,-0.035083804,-0.011467534,0.024634143,-0.06854574,0.07396931,-0.057823073,0.034673564,-0.065840036,0.09527428,0.14662017,-0.033869673,0.018679148,-0.08080063,-0.246104,0.03755226,0.07479181,0.07341777,-0.021641603,-0.048385408,-0.0975265,-0.006489222,0.022918306,0.18867072,0.18599172,0.08486991,-0.020529011,-0.013811696,0.002818202,-0.00024223921,0.06980965,-0.06683427,-0.034394905,-0.025184194,0.04540367,0.07425093,0.0048278267,-0.030209398,0.022054955,0.0043176166,0.021266019,-0.030853588,-0.015444349,0.027828354,0.18704253,-0.02642598,-0.007344572,0.0005451246,-0.019900259,0.09933491,0.084005326,0.14300618,0.0021338323,0.06644063,0.050548356,0.025203034,0.02893013,0.021077553,0.05223252,0.027999273,-0.057281103,0.12106702,0.14613593,0.065990195,0.09401723,0.09004824,0.13221669,0.10213597,0.032921553,0.07494684,0.010456211,-0.042687446,-0.047154143,0.015906371,-0.1289202,0.012951717,0.08845298,0.03224623,-0.10315125,-0.12928052,0.05204845,-0.0049865195,-0.06150464,-0.013882076,0.022684135,0.038268644,0.061591867,-0.0442646,-0.09775659,0.07104967,0.039778743,-0.09116157,-0.07928294,0.106415614,0.29126683,0.2711001,0.041451164,-0.15581803,-0.20479576,-0.081298515,0.024615554,-0.015406689,0.01297428,-0.08776717,-0.075513,0.04846175,-0.10367065,-0.055645116,-0.17842133,-0.03576554,-0.052472312,-0.03969513,-0.03529116,0.020667668,0.044240326,-0.07788292,-0.05740911,-0.05613609,0.06527094,-0.07456029,0.0065018153,0.31374416,0.41041264,0.053360254,-0.1461146,-0.12456946,-0.18334523,0.0069048633,-0.061697103,-0.10501841,-0.052177425,-0.12881702,-0.07190322,-0.018657742,-0.10032959,-0.06691286,-0.13927282,-0.15167145,-0.03648525,0.040888995,-0.044644892,-0.015665442,0.05221867,-0.10649349,-0.059135254,-0.106683195,-0.0017824733,-0.03249556,0.11813258,0.3037261,0.3089054,-0.054909874,-0.35905454,-0.43320024,-0.14951935,-0.0138858585,-0.15538517,-0.043907978,-0.07299041,-0.057396024,-0.025901984,-0.07520207,-0.0696429,0.004613536,-0.06318029,0.012506778,-0.013724403,0.017292652,-0.015781555,0.036139358,0.037025902,-0.015239686,-0.10376434,-0.017806692,-0.0068086525,0.0834015,-0.08965858,0.25282034,0.32062155,-0.16409528,-0.4249852,-0.32345188,-0.051185347,-0.093786836,-0.15381844,-0.21833616,-0.16261801,-0.21948873,-0.1500634,-0.24511835,-0.06013455,0.020129457,0.0730124,-0.045024704,-0.008536931,0.0319139,-0.04809644,0.049476527,-0.038110685,0.04831947,-0.078994855,0.011863103,0.12001153,0.09907582,0.11874116,0.16470392,0.15112072,0.07273907,-0.28012607,-0.2603231,-0.11931153,-0.15049936,-0.106323585,-0.26553914,-0.13875616,-0.18095206,-0.17642434,-0.1894769,-0.063505255,-0.025901608,-0.0008811693,-0.04171881,-0.09143336,-0.015323278,0.02111095,-0.002338183,0.019034803,-0.021074645,0.050956357,0.0128108645,0.078670055,0.2000327,0.10659359,0.042506207,0.11922875,0.24841619,-0.050750844,-0.13630058,-0.18872675,-0.14406173,-0.0071991626,-0.08732899,0.037192587,-0.05536408,-0.11654075,-0.20351864,-0.0652716,0.009563667,-0.05533857,-0.008127937,0.026160195,-0.0103364885,0.024866244,0.0064921193,-0.045434736,0.071301244,-0.021046953,0.038073335,0.13700639,0.23918508,0.11047089,0.015290936,0.083771355,0.31114465,0.13005595,0.16279449,-0.06758538,0.010437574,-0.0658819,-0.00039128243,-0.061223842,-0.0423269,-0.117474005,-0.118148,-0.15696336,-0.13017403,-0.11411026,-0.038397867,0.008910268,0.051900093,0.023071641,0.03866501,0.09027487,0.026635429,-0.020399176,-0.029560609,-0.022068044,0.004068113,0.06902409,0.09279081,0.1590213,0.08069906,0.13456196,0.081448615,-0.029038584,-0.11773102,-0.077062555,-0.115546934,-0.08851381,-0.13707471,-0.008721472,-0.10697526,-0.005439386,-0.00088085356,-0.028468445,-0.06759535,0.0028649778,0.07054167,0.03536516,0.12632404,0.017133107,-0.07774814,-0.096668,0.0021443071,-0.04746252,-0.08627467,-0.106555544,0.0040784585,0.09919277,0.14774857,0.08934987,0.08915377,-0.10880003,-0.09670916,-0.10825222,-0.12103125,-0.16001946,-0.03161795,0.002440474,-0.019002507,0.028862638,0.03977528,0.029471736,-0.027014993,-0.023555584,-0.044291865,-0.05480144,0.023809807,0.035288595,-0.12141233,0.005212614,0.014720483,-0.12276504,0.008647546,0.055524275,0.084644005,0.08880292,0.07862629,0.12636727,-0.043693684,-0.06558884,0.027150037,-0.047431786,-0.096293926,-0.14282008,-0.052055016,-0.02293524,-0.021751143,-0.055685647,-0.03792194,0.060050234,0.04148425,-0.0060874447,-0.02168045,0.071871266,-0.015577124,-0.08800823,-0.027176589,-0.09332276,-0.010673629,0.017654905,0.014547126,0.007976751,0.032957356,0.06474671,0.035567846,-0.014023934,-0.04903894,0.012705504,0.013111748,0.07402417,-0.081743665,-0.00505437,-0.020421322,0.01808058,-0.006481309,0.06585713,-0.08820127,0.053569254,-0.016104884,-0.030947095,-0.036083475,0.00017309339,-0.048770424,0.008394926,-0.029912092,0.042269237,0.07681314,-0.021163296,0.009541648,0.03644939,-0.02706359,-0.022451714,0.043763977,-0.0020311212,-0.021995174,0.07327574,-0.00052994146,0.087260425,-0.080399424,-0.039295554,-0.031558245,0.03657766,0.11217075,0.0448459,0.028112588,0.000115149094,-0.020125886,0.017033948,-0.04906181,0.076033555,0.111734755,-0.04168173,-0.0815645,-0.11931997,0.045991838,0.07302605,0.039504725,0.057395782,-0.021582842,0.028648939,-0.021707442,-0.010063746,-0.030221717,0.016133377,-0.0045606005,0.018893514,0.04599137,-0.096411064,-0.054888003,-0.027350394,-0.09409584,0.07853238,-0.023702146,0.01883764,0.035475258,0.03507219,-0.015163478,-0.069415376,0.0028050041,-0.02104747,0.061788827,0.038362015,0.07414293,0.03018564,0.06385288,0.02667098,0.025353516,-0.046038598,0.032311544,-0.0025744839,-0.07708657,0.04903301,-0.015044317,-0.034238666,0.04890779,-0.028469034,-0.05147882,-0.03391253,-0.0033024028,-0.017421108,0.0343934,0.04932185,-0.077605814,-0.083278365,0.1300029,-0.0058315326,0.082666785,0.04669963,-0.041951593,0.043671284,-0.026104147,0.0037850882,0.025032941,-0.0068892227,-0.04646368,0.011092649,-0.059554886,0.045180634,0.04439692,0.04514504,0.048100732,-0.18476515,-0.06922933,-0.072834834,-0.033642944,-0.0017794875,-0.01731187,-0.06620978,0.013067577,-0.049495388,-0.049705923,0.016315278,0.02943703,0.020073738,0.03108308,0.056107625,0.004319802,-0.031787224,0.007154835,0.026883062,-0.081251405,-0.015722955,-0.015338059,0.14170894,0.02601502,0.06906033,0.13747013,0.021299846,-0.034671668,-0.07621597,-0.17758416,-0.08715309,-0.12941192,-0.09048866,-0.09557111,-0.028038265,0.061065394,-0.03022129,0.011365706,0.07483105,-0.034119904,-0.037733454,-0.04361773,-0.0011802525,0.020843556,-0.05563994,0.023336127,0.026817253,-0.021330075,0.012945934,0.019630233,0.0001373955,0.014009204,0.2637911,0.29081067,0.3316874,0.11623402,0.01752619,-0.2169286,-0.11078445,-0.011089409,-0.059983917,-0.012332283,-0.10502179,0.021081133,-0.010011933,0.04098678,0.009409772,0.047542743,0.046913456,-0.0007985375,-0.009301665,-0.021757508,0.056526873,-0.105538025,0.004795326,-0.1325108,0.0036798797,0.0021598847,0.09474071,0.13834377,0.2638219,0.3555519,0.43751138,0.19640052,-0.009975043,-0.0854649,-0.034678333,0.08712542,-0.12718347,-0.09728073,0.021985015,-0.12712501,-0.07765228,0.069910355,-0.049325723,0.03049436,0.09703717,0.031124653,0.04200624,0.023322983,-0.04883224,-0.07423651,-0.005499508,-0.08031314,-0.041006908,-0.012606686,0.04748635,0.23328497,0.22159511,0.19080423,0.3074456,0.43290895,0.50805753,0.46746323,0.33939418,0.20276618,-0.14573611,-0.17321666,-0.07101684,-0.06500536,-0.08552257,0.012994358,-0.00010562996,0.08460148,-0.05883348,-0.039462958,0.08318558,-0.02666571,0.015659854,-0.034262497,-0.09671177,-0.05065361,-0.118473776,0.07818067,0.016811704,0.07969566,0.15040854,0.06410319,0.330011,0.42456576,0.63509965,0.3140874,0.02066001,0.16916138,-0.25441268,-0.29235974,-0.11866443,-0.08750515,-0.29361668,-0.14120555,-0.09479503,-0.009295038,0.017807256,-0.021590952,-0.06217774,0.09816221,-0.011920182,0.0033510267,-0.16959642,-0.01923569,-0.06795002,0.21770985,-0.04416292,0.01893163,-0.01095915,0.009123468,0.010349052,0.16768843,0.0528633,-0.06780388,-0.16889201,0.09928161,0.07534356,-0.17319027,-0.09027117,-0.11927591,-0.25774452,-0.18480936,-0.016379314,0.07317137,0.04131684,0.025958437,-0.030858701,-0.007827851,0.07763635,0.024227658,-0.07063534,-0.08491122,-0.04225733,0.04100221,-0.065942995,-0.016750297,-0.15304849,-0.15256545,-0.2462369,-0.30326387,-0.35774884,-0.4126986,0.059539333,0.23788425,0.18351346,0.05367486,-0.1035026,-0.28056774,-0.07449651,-0.05121122,0.042415883,-0.012722255,0.03928789,0.032367833,-0.016566288,0.11494791,0.060611855,-0.064396605,0.07274745,0.029900147,0.10301985,0.09284557,-0.07114537,-0.22963077,0.002290536,-0.19578062,-0.31228966,-0.4273063,-0.43668947,-0.13711062,0.05535623,0.46217605,0.18820672,0.16250429,-0.12199482,-0.03396476,-0.0048985053,-0.030246379,0.006330293,0.030832851,0.0131961005,0.004056951,-0.003805416,-0.010766664,0.05086847,0.013138513,-0.041432735,0.023242436,0.03021189,0.0004403547,0.002484809,-0.005967496,-0.076461166,-0.17169882,-0.3703214,-0.30560356,-0.08197251,-0.10903216,0.2364129,0.061447173,0.16923429,0.23578174,-0.09689251,0.011783416,0.105758086,0.15120302,-0.022485303,0.016905006,0.02745619,-0.07389635,0.07747666,-0.076617084,-0.014354238,-0.04281352,-0.11990242,-0.030752603,-0.050669555,-0.06831599,-0.0036431118,-0.15846232,-0.24426134,-0.31148902,-0.31169078,-0.009773514,-0.017562378,-0.04614444,0.12458769,0.100984655,0.25934863,0.18756391,0.123340406,-0.11174489,-0.021272069,0.03091483,0.014214555,0.019370086,-0.0070575317,0.0046886476,0.11447446,0.009185758,-0.02354199,-0.12056781,-0.17153504,-0.19843511,-0.13972817,0.02275708,0.008877153,0.09707944,-0.15684809,-0.29518217,-0.015457428,-0.004066468,-0.02989444,0.027192444,-0.022837875,0.04361884,0.26122198,0.1574448,-0.049835138,-0.21165825,-0.15854214,-0.07190445,-0.07827634,-0.01083433,0.025702689,0.04546863,0.0512231,0.032356333,0.123053245,-0.0672118,-0.3115249,-0.13573058,-0.1562304,-0.20918308,-0.22405325,-0.099611685,-0.10205519,-0.15097873,0.07274437,0.040507488,0.20476879,-0.054914355,-0.055663675,0.085302845,0.08335837,-0.07889262,-0.051368084,-0.09468932,-0.090757586,-0.10453858,-0.07387164,-0.00063810946,-0.03141896,0.066114455,-0.008953766,0.09204686,0.004156366,-0.048672445,-0.14590754,-0.17087862,-0.13836533,-0.0211527,-0.11648993,-0.1442166,-0.011448096,-0.102074474,0.018988365,0.07962731,0.23795514,0.07847318,-0.07880683,0.04368155,-0.23082039,-0.093700804,-0.038041882,0.09143319,-0.07960198,-0.022059647,0.020768711,-0.0016865905,-0.05297179,0.006374729,0.0052647605,-0.08673412,-0.08750851,0.02226362,-0.06776962,-0.040127855,-0.110094026,-0.18047497,-0.037026588,-0.0057462156,0.1674216,0.14974767,-0.002760886,-0.0139467595,0.065906905,0.17446306,0.09341136,-0.050967894,-0.2559138,-0.059704628,-0.019258022,0.15265977,0.013691543,-0.08053489,-0.006225553,0.057846725,-0.1080639,0.0038881141,-0.009720236,0.0104257,-0.07455782,0.02756026,-0.041578364,-0.03377064,-0.18156387,-0.045604803,-0.099203356,-0.12126898,0.020670507,0.06390193,0.09155293,-0.025104374,0.06463915,0.054686658,0.10648914,-0.293388,-0.3631618,-0.27184764,-0.18389176,-0.09688561,-0.03839232,-0.06209475,-0.0023199748,-0.03527452,0.039389223,0.029153872,-0.07805223,-0.024536798,0.023877483,-0.10238356,-0.00031876718,-0.023443598,-0.10799648,-0.057165243,0.0510061,0.123211145,0.1802253,-0.010532025,-0.096721284,-0.19681172,0.0129792355,0.046291087,-0.0052501415,-0.21090446,-0.19541064,-0.21893898,-0.15013905,-0.015121665,-0.01629602,0.12620015,0.08329625,0.0055365553,-0.03812499,0.0148567455,-0.06549845,0.041103877,-0.0007664238,-0.032109704,-0.13970228,-0.15543583,-0.052131798,-0.028020294,0.061160438,0.18440554,0.032584418,-0.1318235,-0.20448376,-0.28830078,0.01234682,-0.060664166,0.054628484,-0.03805058,-0.030282404,-0.10625156,-0.25782788,-0.072027676,-0.0019596634,-0.0057877074,-0.050064668,-0.09540863,0.02388754,-0.006509313,-0.065504536,0.0038927214,0.15503304,-0.12197094,-0.09813028,-0.16136555,-0.05417423,0.0881708,0.13327412,0.21431014,0.08808635,0.030290179,-0.19701697,-0.3100608,-0.15714028,-0.049540482,-0.070986934,-0.085482776,-0.03088189,-0.10791848,-0.14199871,-0.10040811,0.05964365,0.0658412,-0.090853184,0.13967805,0.026682245,-0.046364564,-0.03961912,0.06996355,-0.02347579,-0.14831528,-0.04481323,-0.23933049,0.10536018,-0.028100388,0.008932028,-0.07480376,-0.16656528,0.026420398,-0.08844675,-0.03409317,-0.019716628,0.09128706,0.025187653,-0.1257914,-0.13653943,-0.2191941,-0.09642012,-0.0020037966,0.0301634,-0.043218207,0.0027016182,0.026568998,0.016072098,-0.026570471,-0.0176465,-0.02848408,0.009727029,-0.069732435,-0.09182494,-0.09539794,-0.062329948,-0.0056353733,-0.09719983,-0.04548424,-0.01940132,0.048124284,0.08480462,0.015663855,-0.01063584,-0.052476436,-0.07247674,-0.11811276,-0.018172221,0.025002621,-0.095947325,0.099123694,0.059211385,0.036226507,-0.07890277,0.025649194,-0.055531055,-0.015501687,-0.046921518,0.03948024,-0.08701184,-0.11027916,-0.05667952,-0.05761374,-0.058247786,0.016512057,-0.0721019,0.005524803,0.11378006,0.063658625,0.15712558,0.076634176,0.052719355,-0.010614096,0.03292694,0.035218455,0.16751817,0.02343679,-0.032559294,0.0145269325,-0.07684424,-0.0037921832,-0.072131865,-0.022775099,0.07516229,-0.047887515,-0.122804984,-0.027209364,-0.004779905,-0.048758302,-0.024755329,-0.080795266,-0.027493872,-0.118660726,-0.0946799,-0.094146974,-0.14129145,-0.039503235,0.12047237,0.035328,0.3104527,0.15388286,0.040714025,0.12292158,0.026192065,-0.031366523,0.07812713,0.03182877,0.015442878,0.0003269831,0.075185835,-0.06137984,-0.10501928,-0.022566464,0.024652604,0.0033480837,-0.04769729,0.04982048,-0.06092876,-0.035182536,0.011638342,0.01081839,0.05782914,0.15757655,0.07669704,-0.06209322,0.05669533,0.10004594,0.17283584,0.026153797,0.06697605,0.14844397,0.012413905,0.04946106,0.0115224505,-0.035877686,-0.12356484,-0.027507331,-0.0049320757,-0.07099597,-0.06244204,-0.101598434,0.018714538,-0.031845454,0.011460603,-0.06382571,0.03281008,-0.038442053,-0.0018795549,0.0022072634,0.022947654,0.06869831,-0.020206742,0.01671532,-0.0483437,0.15979914,-0.052717358,-0.004346171,0.027655723,0.009669905,0.0018604265,-0.05417812,-0.039500028,-0.023005307,0.0010488427,0.0578351,-0.035042472,0.03404527,-0.0078969365,-0.106874764,0.016865902,-0.0482611,0.01562644,0.03882837,0.053847264,-0.028589647,0.03380588,0.032535207,-0.042180948,0.07112421,0.012405383,0.026867753,-0.02156991,-0.0149274105,-0.00089540076,-0.095676206,-0.014583017,-0.0009946666,0.0058450345,-0.06589197,0.086512245,0.035410285,-0.044750806,-0.028537875,0.016155541,-0.021386687,-0.04680746,-0.030610807,0.05011546,0.03031466,-0.05824581,0.108673975,-0.044821266,-0.019311318,-0.009353648,0.021602128,-0.050610542,0.027032202,-0.0057321102,-0.023812653,0.015637713,-0.055739813,-0.06462775,-0.041104425,0.018564947,-0.01772891,0.0059527005,-0.0060245283,0.03212623,-0.09619263,-0.0011950722,-0.08212644,-0.11711276,-0.09861843,0.025508841,-0.0035769206,0.07537406,-0.013383444,0.048501562,0.022613296,-0.037186965,-0.07799503,-0.039121587,-0.04746546,0.040072843,0.009212715,0.04933604,0.09958503,0.13327256,0.03583332,-0.059512194,0.023709,-0.027213022,0.04531812,-0.064188115,-0.024433345,0.05247224,0.003765553,-0.034847703,-0.012677206,0.005786011,-0.078936346,0.018869122,-0.049488872,0.01746706,-0.04494704,-0.05835479,0.02864297,0.089431494,-0.05864464,-0.03722412,0.010547895,0.04934244,-0.09057829,0.0005776626,-0.07504435,-0.09123065,-0.024866963,0.022679346,-0.062858306,0.012649031,-0.031823438,-0.012714244,0.02645358,-0.08353183,-0.07840745,-0.07897497,-0.015032765,0.0035380574,-0.021991424,0.017522758,-0.013927199,-0.07894217,-0.070186205,-0.01485332,-0.1263181,-0.025804201,0.0017602957,-0.030061932,-0.033365574,0.09261348,-0.11125163,-0.035538938,-0.056330066,-0.0018675865,-0.057514463,0.05547759,-0.0027520629,0.0055921786,0.015258339,-0.018881595,0.041353792,0.06451461,-0.06540052,0.0335647,-0.16028835,-0.008665664,-0.0040413546,0.059942096,-0.043092605,-0.09392514,-0.016808309,-0.07945445,0.008182884,-0.034027528,-0.01448274,-0.064987116,-0.08540663,0.05963504,0.016351258,-0.07344646,-0.039379064,0.048675988,-0.050270204,0.014085472,0.017047817,0.024980608,-0.03327665,-0.014034314,-0.006111808,0.13335302,0.03240047,0.001985804,0.028205464,0.14467996,-0.012518022,0.076831155,0.04297253,0.020223537,0.071216404,0.011172876,0.019015267,0.025831306,0.0339236,0.04207621,-0.037147604,0.016400857,-0.080247484,0.04271666,-0.025806185,0.042977873,-0.051658463,0.015330787,-0.019446254,-0.06858282,-0.068820976,-0.0119197555,-0.07514292,-0.010344544,-0.026189642,0.04123986,0.044047784,-0.029570386,-0.035890818,0.015014038,-0.006486141,0.03306359,0.03729584,0.0041207806,-0.010198684,0.12451797,0.08669967,0.1015669,0.03569832,-0.018061878,0.0777072,-0.020422345,-0.04104351,-0.14062363,-0.08426723,-0.02299246,0.012965882,-0.03391893,-0.115118854,-0.07402368,-0.012739566,0.030743558,0.092534535,-0.0067551867,0.01032937,-0.0072919824,-0.005047428,-0.018066319,-0.05355332,-0.03330727,0.05992898,-0.0037645702,-0.11499603,0.09593021,0.015469617,0.03035681,-0.01686762,0.11764499,-0.020469634,0.0030620007,-0.02037324,-0.05673893,0.0037206647,0.019193534,0.028139351,0.08682125,-0.00838132,0.0018745004,0.18853934,0.07128376,0.043080255,0.034403518,-0.03801658,0.028836189,-0.017045902,-0.05842978,-0.002750607,-0.061323505,0.008992524,-0.05154132,-0.06136178,-0.124528565,-0.034852687,0.027660524,0.0065508382,0.039207548,-0.050823376,0.017951503,-0.10835541,-0.07240205,0.075284936,0.08587613,0.049985394,-0.006324899,-0.061883572,0.038160063,0.11865471,-0.011437505,0.07931148,0.019946989,-0.022667509,0.065752275,-0.037244234,0.089671575,-0.024690444,-0.010461464,-0.03801658,-0.02038219,-0.09222332,0.003651513,-0.08745405,0.023680896,0.11951624,0.10149533,-0.06323726,-0.0051070717,-0.07965037,0.083712466,-0.046998702,0.0035588946,0.026564246,-0.0821217,-0.041980814,0.0591468,-0.033286035,0.023797426,-0.041928474,0.025552448,-0.06324282,0.11052864,0.009634584,-0.033451065,-0.03807254,0.051300824,0.024277275,0.002259926,-0.0173607,-0.11522167,0.0012001568,-0.052813005,0.052522782,-0.061818466,-0.025761804,-0.034972064,-0.02726645,-0.03368134,0.014903106,0.031458423,-0.04853269,-0.07544072,-0.029502753,0.13518177,-0.01639154,0.027681367,-0.011447733,0.00977855,0.0021471824,-0.023930015,-0.00006124393,0.015115391,-0.027311558,0.05251963,-0.10069235,-0.07041535,-0.067130655,-0.10746798,0.035662442,0.006265274,0.017960865,0.03650285,-0.042127766,-0.16319627,-0.13853389,-0.10689325,-0.0041735074,-0.05306565,-0.027879817,-0.034147102,-0.0012195029,-0.0576017,0.037241608,-0.014738137,0.005612664,0.045244016,0.046511225,0.107003115,0.03802027,0.08515941,-0.045910757,-0.037068795,0.0012494923,-0.025704907,-0.033230852,-0.081022926,-0.027412692,-0.0677355,-0.04135618,-0.015221504,-0.041274216,-0.14780027,-0.13659883,-0.07110464,-0.06707615,-0.004630223,-0.08220541,0.026986165,0.0044273315,-0.1534957,-0.11297336,-0.09801405,-0.020246742,-0.0999736,-0.040209644,0.061462093,0.0007074855,0.10808264,-0.024446363,0.057000868,0.028782582,-0.11232149,-0.12633565,-0.0056423126,-0.0031166025,-0.09019136,-0.061516,-0.06998058,0.034077425,-0.108301654,-0.035799816,-0.110008925,-0.07727481,-0.034663107,-0.0009020353,-0.017156972,-0.10821728,-0.16083895,-0.10720785,-0.10035254,-0.101700105,0.011032506,-0.062314007,0.046087828,-0.01962318,-0.045775354,-0.08638666,0.011098025,-0.002283159,0.061945353,-0.03236152,-0.09698797,-0.17680153,0.09460737,-0.029024094,0.05387379,-0.037019935,-0.011180347,0.028113866,-0.15615647,-0.18945259,-0.08025091,0.009200341,0.016882079,-0.10784763,-0.17700578,-0.07986458,-0.070522994,-0.011211464,-0.04134232,-0.12588944,-0.027402455,-0.034004606,0.036548562,0.037688226,0.16758376,-0.04981122,0.037610542,0.008162001,-0.008808135,-0.045833334,0.05365183,0.046067234,-0.06308826,0.12658936,0.03967172,0.03692238,0.011323157,-0.033967134,0.052046075,-0.02120141,0.08505245,-0.056401517,-0.056116525,0.014073347,0.04299042,0.05985654,0.09152564,0.13781676,0.059656143,0.025015272,-0.006060677,-0.00599399,0.018005915,0.03740763,-0.11801649,-0.003955217,-0.0472607,-0.037314855,0.012025437,0.038497783,0.15011801,0.0647316,0.09651435,0.079091065,0.073366635,0.12180623,0.05859107,0.12187274,0.16378911,0.069491126,0.080614164,0.14728805,0.14449014,0.006409073,0.08356297,-0.1251556,-0.09007955,0.020350346,0.008675025,0.012555304,-0.029890768,0.01249358,0.04529436,-0.03950312,0.10482942,0.12261274,0.030293835,0.14686485,0.19463032,0.18450303,0.12826054,0.08739225,0.04649578,0.021409912,0.17110087,0.08298884,0.1605094,0.14113395,0.1598019,0.17240514,0.2312842,0.05657911,0.066089116,0.095313035,-0.046498895,0.019817077,-0.022825709,0.047157794,0.063689455,-0.012910126,0.022886194,0.082676366,0.08419368,-0.01035043,0.045400023,0.045679342,0.06929982,-0.010502665,-0.07151592,-0.07043999,0.0111775445,0.09741587,0.11323047,0.056117956,0.20496185,0.058891963,0.120904595,0.06921476,0.13183503,0.06865612,0.14379482,0.05485421,-0.07020004,0.01574236,-0.06648776,-0.03008292,0.014797167,-0.058186352,-0.030622985,0.035507884,0.0427032,0.07099729,0.028073506,-0.09978723,-0.09595605,-0.019256359,-0.06828261,-0.04834079,0.01220291,-0.06654956,-0.014985914,0.07571685,-0.019685227,-0.10458676,0.009576671,-0.08925796,-0.01918855,-0.024100402,-0.034736723,-0.0714734,0.005401809,0.03445261,0.039113346,-0.011134029,0.087449,0.0033980056,-0.06520492,0.028702933,-0.036885552,-0.03390424,0.0364385,0.06865118,0.010639877,-0.05087801,-0.058209967,0.050298713,0.0702509,0.007847664,-0.01331267,0.040452313,-0.13508554,-0.07242861,-0.15339437,-0.0673793,-0.059768148,-0.05442487,-0.052485928,0.04721541,-0.078680895,0.10005906,-0.04579386,-0.010051496,-0.07222675,-0.08348498,-0.06521954,-0.08401034,0.10633699,-0.021067865,-0.0020821935,-0.026460867,0.0022745884,-0.03990437,-0.12329186,0.01004959,-0.01094948,-0.11505352,0.050235484,0.12931292,-0.060895555,-0.09084295,-0.13097124,-0.11567208,-0.0020549467,0.045870125,-0.026430925,-0.05674998,0.0691123,-0.0054117553,-0.045941237,0.05937019,0.041764896,0.019869817,-0.016102662,-0.048565857,-0.027301826,-0.030625185,-0.070716396,-0.044050004,-0.09331594,0.0011491297,0.09842786,0.026073905,-0.0038411168,-0.05573896,-0.0010708183,0.14615321,0.017505774,-0.16090284,-0.062781595,-0.049800638,-0.018151037,-0.030496608,0.014356621,0.06516788,-0.0698072,-0.023630757,0.11089179,0.043359075,0.02149425,0.07605493,-0.09778868,-0.06683482,-0.016429663,-0.05137852,0.02935015,-0.047743395,0.042592816,0.022926701,0.00036746188,-0.028054073,0.022633536,-0.10736825,0.033174124,0.10993068,-0.014919353,-0.052953195,-0.019684574,-0.07659676,0.0003569519,0.008466104,0.020747488,-0.017144155,-0.13771541,-0.072184995,0.026174732,0.042069264,-0.14836136,-0.10736308,0.006309032,-0.01433914,-0.029707957,0.06389678,-0.040529694,0.02538294,-0.0018861681,0.06943034,0.047147658,-0.07467855,-0.0968817,-0.069819406,-0.014942915,-0.015251384,0.0037699465,0.058584705,-0.111715846,0.04372056,-0.0055513154,0.0030058085,0.12324827,0.0767359,-0.06743102,-0.056129873,-0.016191544,0.08640719,-0.09666225,0.01270131,0.033776708,-0.010086888,0.040026914,0.03815876,-0.025183622,0.090267435,0.04823371,-0.07477655,-0.059288315,-0.060506336,-0.06451924,-0.044980723,-0.06365345,0.0059202537,-0.045064848,-0.10956096,-0.08162837,-0.01782239,-0.049783196,0.029821277,0.036975864,-0.021337707,0.099434115,0.056184407,0.038878374,-0.042231876,-0.030911315,-0.0068495683,-0.0510571,0.026897099,-0.13606879,0.020686932,-0.008835096,-0.019124849,0.011455596,-0.03952384,0.012246934,-0.046589237,0.0010158066,-0.03854048,0.001821871,-0.06223778,0.11362704,0.0023124341,0.03683523,0.02898805,-0.0070948536,0.06482338,-0.0071745752,0.10349673,0.0056986385,0.041582573,0.019346958,0.027664099,0.026832765,-0.062070705,-0.006927917,0.01478459,-0.0196639,-0.028227594,0.00941571,0.012960045,-0.024388079,0.0069309864,-0.057757527,-0.05994905,0.009234722,-0.009875884,-0.016601352,-0.055007227,0.011898998,0.061404344,-0.004709099,0.09980617,0.08230679,0.014627318,-0.031879112,-0.0018021883,-0.073086776,-0.020753074,-0.057824794,0.030655634,-0.0069985692,0.055480205,-0.03850928,0.013041252,0.0032277766,-0.01889622,0.0033001953,0.09566611,-0.053445388,0.09035725,0.088681355,-0.05524029,-0.03096045,0.011513811,0.001444909,0.018324984,0.022515908,0.07092829,-0.03664802,-0.06619267,-0.03793773,0.022825092,-0.07045847,0.01573841,0.06045908,0.10045806,-0.024002425,0.004897141,0.032382566,0.025242154,0.02767985,-0.00689272,-0.12501128,-0.06413626,0.057802044,0.10124296,0.060364872,-0.008587085,0.012231195,0.009368709,0.033458963,-0.037517324,-0.024555929,-0.0127779385,0.034783654,0.011281132,-0.024374982,0.06599598,-0.01845582,0.016420286,-0.05283364,-0.057493024,0.035759274,0.006269545,-0.049637318,-0.08367873,-0.015926354,-0.08671418,0.03427555,-0.009953125,0.08894421,-0.027014192,-0.029798247,0.17011246,0.013195568,0.04571675,0.024053913,-0.02069024,0.003948884,0.063897945,0.014564176,0.014168412,-0.018394541,0.03862234,0.0042301654,0.022530485,0.051910035,0.033798255,0.08821702,0.006597292,0.033905882,-0.092112154,0.057212956,-0.08739446,0.042101018,-0.038851958,0.008580636,-0.043128397,-0.053481616,0.07353467,0.1303007,-0.06765329,0.072035134,0.01117868,0.055998523,-0.05818122,-0.060702395,-0.0046698237,0.041623797,0.0037001036,-0.06555993,-0.0154886255,-0.1027165,0.03121416,0.013013377,0.017943367,0.11482717,0.03213876,0.011242497,0.025736382,-0.074570276,0.02063615,0.093599446,-0.046249293,0.0030714825,-0.046367988,-0.004705045,-0.0071915505,0.03734957,0.06470916,0.051335435,0.15700015,0.08023269,0.089624405,-0.013519646,-0.053108554,-0.11592895,-0.18551368,0.115720354,-0.14485317,-0.0015984906,-0.010433444,0.07282477,0.05928554,0.07852817,0.052256316,-0.08190577,-0.017741632,0.0007923693,0.043626707,0.013334106,0.011946835,-0.030312419,0.10515679,-0.028089032,-0.012872758,0.0117882425,-0.03144757,-0.049531523,0.082694635,0.013389459,0.11982079,-0.095556825,-0.008040647,-0.124637544,-0.11482819,-0.13391113,-0.20574924,-0.091668114,-0.1114497,-0.02694939,0.03694706,0.13731237,0.070749655,0.11607299,0.034728363,0.079598665,0.013781236,-0.010329466,-0.061731443,-0.039986067,-0.08848388,0.028605629,0.021658925,-0.001283608,0.11072725,0.122962154,-0.10944677,0.05253147,0.0021056426,-0.08547841,-0.18358754,-0.11883015,-0.21573961,-0.17117566,-0.33496255,-0.16868104,-0.1089212,-0.08352718,-0.013407804,0.1255103,0.079305716,0.020786606,-0.03072116,-0.059788633,0.07213446,-0.004241761,-0.0037715205,-0.07787844,-0.00088183384,-0.017270034,-0.07041905,0.07509107,0.11063619,-0.023859564,-0.08381582,-0.07521651,-0.072228305,-0.113080956,-0.2783364,-0.20342033,-0.16480689,-0.11427293,-0.20772192,-0.24330886,-0.21637332,0.048713874,0.1390297,0.012889062,0.0741336,0.09809905,0.07178617,0.02558794,0.022835363,-0.053971626,-0.03262629,-0.08234893,-0.0066929795,-0.07819066,-0.078222364,-0.02944087,-0.109219685,-0.033954706,-0.20270322,-0.11744191,-0.15604694,-0.19697003,-0.12548424,-0.25926092,0.04555351,0.0006117581,-0.11139156,-0.08329696,-0.057146825,0.06886977,-0.0989416,-0.124611005,0.04812291,0.026647685,-0.0117822,0.0128021715,-0.01895054,-0.04947781,0.011513485,-0.01712266,-0.021794923,-0.16637304,-0.034798805,0.030700872,0.035853513,0.19559436,-0.14222941,0.015164249,-0.16283585,-0.2568816,-0.259508,-0.06325376,0.0014890425,0.005050452,-0.0075129936,0.07280359,0.028861413,0.026678702,-0.18554875,-0.06967945,0.05212638,-0.008419176,0.064258136,-0.05309947,0.09886369,0.008249193,-0.077183224,-0.029047517,-0.045770142,-0.08159832,-0.09531286,0.07109838,0.08084326,0.33344933,0.119558096,-0.021872403,-0.14449918,-0.2182706,-0.08075893,0.07838781,-0.029961104,0.010035608,0.013309973,0.045180395,-0.08107379,-0.086189285,-0.0046191774,-0.0060659847,-0.023706608,0.011261652,-0.036471065,-0.036506012,0.053034812,-0.016808586,-0.06224805,-0.015459071,-0.052661184,-0.057332955,0.04300323,0.19072697,0.1008232,0.2357268,0.020452386,0.11465023,-0.03420831,-0.3097909,-0.19868356,-0.029433487,-0.09789989,-0.009424623,-0.13935186,-0.026070181,-0.1567648,-0.252448,-0.16534828,0.07159491,0.035299916,0.0045512607,0.088463664,-0.0047104293,-0.0079447925,-0.083377734,-0.052956093,-0.14166403,-0.029190041,-0.08954962,0.06942437,0.26725888,0.11588424,0.16564067,0.17375472,0.13914348,-0.18227746,-0.31705734,-0.3976085,-0.17784625,0.03706841,-0.0983398,-0.3213159,-0.015836896,-0.087855935,0.14668934,-0.061993305,0.09355267,0.08131121,-0.033798378,0.006249465,-0.026283635,-0.058065474,0.009769911,0.023929192,-0.048641086,-0.13819754,-0.061348435,0.09099063,0.13193306,-0.0060045617,0.22648777,0.20633027,0.09554878,-0.16982873,-0.3674337,-0.31076503,-0.011054485,-0.10393463,-0.196578,0.03466572,0.14613046,0.06846063,0.045209642,0.086486414,0.09071316,-0.10203604,-0.032276496,-0.08661659,0.06112728,-0.007645741,0.020131826,-0.0046197255,-0.083626084,-0.14952688,-0.07619069,0.1040612,0.12387875,-0.004489505,0.20432904,0.3530031,0.291015,-0.025611741,-0.19714937,-0.12972386,-0.13280995,-0.26796818,-0.076835476,0.07273289,0.06457666,-0.102639124,0.050860856,0.0630104,0.050545108,0.058723535,-0.020683562,-0.024746217,0.091436684,0.029296027,0.029923247,0.014745891,-0.019933693,0.0071852054,0.026276035,0.047743537,0.11989487,0.12470427,0.23005986,0.22082242,0.28277397,0.2238141,-0.06619952,-0.008478852,-0.20978552,-0.082182676,-0.1305229,-0.21757594,-0.022863442,-0.11464499,-0.0030102837,0.103159785,-0.10064202,-0.0731917,0.032271855,-0.09472755,-0.05574992,-0.009071242,0.07750696,-0.042362485,0.10983457,-0.10455848,-0.0261317,0.0498082,0.08661857,0.05949989,-0.048559308,0.2585513,0.22444093,0.24906477,0.09519061,0.09197481,0.015755601,0.122978225,-0.19420393,-0.17372553,-0.14145929,-0.0010138347,-0.08898658,-0.17580608,0.050553802,-0.018333696,0.056938753,-0.119754456,-0.05407295,0.054775067,0.008898764,0.024893397,-0.05678327,-0.086519524,0.015425871,-0.04908442,0.0481645,0.18893218,0.10545554,0.30663717,0.24579847,0.2620067,0.1804595,0.100458905,0.22844666,0.2663069,-0.04215107,-0.2442404,-0.2611642,-0.2163212,-0.031502645,-0.017211562,-0.04109106,-0.030178538,-0.03633019,-0.087961845,-0.0023733051,0.0015525963,0.01016802,0.032233052,-0.050634388,-0.09289358,-0.07882995,-0.037658073,-0.09237699,-0.029367255,0.053723153,0.32531223,0.12564944,0.3790976,0.17378254,0.04209816,0.1008915,0.10926706,-0.22771065,-0.1571535,-0.14637068,-0.18892674,-0.030320669,-0.059361115,-0.038233563,-0.03995045,0.011691848,-0.033000827,-0.038259428,-0.01306335,-0.08876965,0.027812514,0.016729567,-0.12745538,-0.06678664,-0.1329607,-0.03509439,-0.098499626,0.09402706,0.2938923,0.23933882,0.32214507,0.063671045,0.047419183,0.09936773,-0.036590233,-0.10205069,-0.07032052,-0.14971209,-0.11692939,-0.04932263,-0.047752723,0.009529033,-0.057056323,-0.047060683,0.026838046,0.008882549,-0.001615271,-0.03733287,-0.035647858,-0.022419393,-0.09508052,-0.13864051,-0.22406957,-0.1650409,-0.048880294,0.14422359,0.35710144,0.1707459,0.28238845,0.087718576,-0.12547356,0.26129213,0.06679872,-0.07656087,0.036646657,-0.016425662,0.038281422,-0.01276683,0.029436389,-0.010875829,-0.103903174,-0.008176958,-0.008689872,-0.02464896,0.03074408,-0.03806468,-0.048548862,-0.0067671794,-0.13143289,-0.21396625,-0.25141957,-0.058541257,-0.00741782,0.16278425,0.10982442,0.29937336,0.25896004,0.19065724,0.2905518,0.22891879,0.1010221,0.052242357,-0.051433045,0.031453636,0.03929965,0.023160778,0.111812666,0.07045323,0.046159074,-0.03608684,0.14328483,0.040701464,0.12273378,0.04118326,-0.0014961195,-0.06589591,-0.062141698,-0.18265404,-0.26651913,-0.15261163,-0.13442437,-0.087096624,0.054339707,0.055019185,0.28000388,0.09422837,0.1161728,0.27542323,0.14001639,0.07298689,0.11575627,0.15512292,0.009452846,0.01920727,0.0365525,-0.18278699,-0.049779233,-0.01547191,0.08684245,0.049208984,-0.02159274,0.057152607,0.040662352,0.13759628,0.059458986,-0.032646485,-0.06732067,-0.22229685,-0.10635613,-0.15390515,-0.21051626,-0.3135619,-0.14248021,0.15193364,0.089027435,0.07298321,0.13220733,0.1151646,0.23748496,0.0108138975,0.10797283,-0.00017039855,-0.036789004,0.053811204,-0.04129118,-0.06739204,-0.008078236,0.059925683,0.08834881,0.050311405,0.051042993,-0.059504274,0.09189778,-0.0687859,-0.19067818,-0.14349583,-0.20108177,-0.13015102,-0.22683744,-0.03608104,-0.011903037,0.0016843707,-0.07821081,-0.12956199,0.12135803,-0.09622121,0.06642015,-0.10323232,-0.054182164,-0.005365278,-0.016523682,0.03229956,-0.02444648,-0.005594442,-0.0010429187,-0.023118855,0.07213157,-0.028650573,0.0024843747,-0.051606204,0.011915576,0.07945601,-0.029432748,-0.013363383,-0.09901663,-0.16280222,-0.15134111,0.010805225,-0.06579887,-0.018932916,-0.09538032,0.017099487,0.0056466395,0.0351423,0.081654884,0.014416373,0.01959294,-0.12690672,-0.08002224,-0.019597828,0.11684053,-0.045880027,-0.06332547,-0.063738406,-0.006556151,-0.029109724,0.085980184,-0.043881297,0.0943583,-0.071639694,-0.05155005,-0.051258363,-0.015738241,-0.077255554,-0.02728578,0.050752826,0.04748292,-0.0063711433,0.013454214,-0.05486898,-0.11607839,0.08700927,-0.0586781,-0.058211368,-0.03261922,-0.043403376,-0.021696983,0.013858541,0.003567936,0.018550234,0.025912428,-0.009541349,-0.022108868,0.02527698,-0.015319931,-0.0268773,0.013979056,-0.01160656,-0.029019082,-0.008519638,0.025530506,0.034479037,-0.0016685914,-0.04373883,0.06106796,0.009229457,0.012548984,0.01523696,-0.036422245,-0.055174988,0.10009678,0.02612614,0.03603509,-0.060555484,-0.1256635,-0.01806434,-0.036206774,0.016349433,-0.031581234,-0.01110315,0.007446157,0.010095177,0.010801376,-0.010679617,0.014604396,0.0033224968,0.06840298,0.0072215823,0.021014329,-0.062474087,-0.08644383,0.0050456543,-0.02158312,0.017081933,0.056841847,-0.07821571,0.039863557,0.03213907,-0.052208163,0.051561438,0.023837134,0.03564664,0.096475676,-0.029546712,0.061969474,-0.045837454,0.037407313,0.08625101,0.072160326,0.036313932,0.046813294,-0.03750073,0.04303605,0.17872699,-0.05330833,-0.005134661,-0.03367078,-0.0040727025,-0.017957354,-0.063336276,-0.028559143,-0.018576564,0.087606125,-0.022827186,-0.029969236,-0.010514616,-0.07539153,0.02458288,-0.010247789,-0.0478642,-0.04763752,-0.013340345,0.033195116,-0.06425119,-0.04179459,-0.02023586,0.026471173,0.05300294,0.00500406,0.06602858,-0.03727362,0.078528166,0.15251274,0.008520471,0.02857444,-0.03217444,0.029017087,0.0063383947,-0.009370597,-0.035026,-0.12071693,0.05544308,-0.04793359,0.0016375203,-0.07000859,0.0012673183,-0.04195287,0.0509352,-0.0044921376,0.0095088035,-0.043163892,0.008428728,-0.0047092657,-0.018908594,-0.05888295,-0.013413715,-0.020549202,-0.023832904,-0.008647363,0.0066161314,0.045201916,0.001923027,-0.030526012,-0.02984849,-0.07594455,-0.051350337,0.041773073,-0.016483232,-0.06490892,0.020855427,-0.019031892,0.08299192,-0.0058386754,0.046377108,-0.07767047,-0.083905086,0.095182836,0.027107509,0.017021736,-0.04225575,-0.04985724,-0.053073354,0.056573756,0.03542325,0.025745552,0.09373506,0.024696413,-0.020263923,-0.052047282,-0.035586104,-0.002037715,-0.0408929,0.005109937,-0.03625938,0.027660761,0.058601025,-0.064686276,-0.040416364,0.019462552,0.022585638,-0.0028793274,-0.051389474,-0.042052772,-0.07776797,0.028061109,0.030999918,0.014056817,0.024050074,0.031488076,-0.027432192,0.04661511,0.0026709912,-0.083256766,0.038112283,-0.014845554,-0.008910329,0.028224763,0.015011055,0.018301893,-0.03471251,-0.018109119,-0.004275756,-0.013534061,-0.06762584,-0.015838554,0.07421698,0.08681221,0.054627802,-0.013727623,-0.06335589,-0.0014820115,-0.07207627,0.04126677,-0.026425585,-0.014784076,-0.027247792,0.058838535,-0.01887305,0.010446183,-0.026237966,0.047657356,0.005779091,0.016529618,0.08250433,0.01626139,-0.08063056,-0.044506133,-0.04669157,-0.07318915,0.0529531,0.09979619,-0.051633697,-0.023709506,0.01154507,0.024150668,-0.061206225,0.024463266,0.062422235,-0.03966994,-0.05424843,-0.07221322,-0.04102413,-0.011649327,-0.0048207277,-0.07695068,0.0007115506,0.015842251,-0.028969992,0.02088239,-0.041588467,-0.08304737,-0.053751867,0.13055912,0.028590294,-0.08503927,-0.024121499,-0.010978165,-0.035848342,-0.022936866,-0.053883504,0.015990483,-0.07439543,-0.07719335,-0.00399859,0.042519953,-0.015025106,-0.06080584,0.0031463732,-0.080303796,-0.02708174,-0.020636009,0.04706009,-0.035175472,-0.049661778,0.05585023,0.0653016,0.07860763,-0.048213735,-0.10063928,0.022189897,0.0032472534,0.045121577,0.07944291,-0.011707697,-0.051770292,0.035016213,-0.046104122,-0.015913818,0.007241126,0.012749518,0.053248644,0.016589459,-0.029190008,0.039904475,0.0012443202,-0.036354627,-0.03540067,0.010525701,0.022492854,0.016948726,0.05934507,0.012199671,0.021976799,0.03754216,-0.0054969345,-0.046287607,-0.022398448,0.046665803,0.10010088,0.04837051,0.058221284,-0.019904312,-0.06286363,-0.07248345,-0.08501916,-0.017644806,-0.0043346756,-0.08227431,-0.06606258,-0.04537644,-0.0791417,0.011474282,-0.057925083,-0.047699135,0.10927682,-0.067893215,0.008660052,0.07373438,-0.11661063,-0.010361432,0.059123036,-0.042062,0.064079046,-0.041075435,-0.03604403,-0.005491556,-0.01191766,0.017369064,0.0037512458,-0.024972321,0.04436098,0.062450424,-0.036171857,0.028228294,0.08431584,-0.03492172,-0.14367804,-0.019711321,-0.021888984,0.030214831,0.019836655,-0.071459696,0.009733828,-0.030583994,0.019644361,0.0446759,0.040766567,0.03020316,0.007865763,0.06707316,-0.07232312,0.07852837,0.003694444,-0.056664392,0.0339699,0.018528843,-0.073350966,-0.09216824,0.016166206,-0.010808814,-0.06457053,0.001628038,-0.008028558,-0.1012321,-0.025515888,0.04680696,0.07835303,0.0021272963,0.015782734,0.014219653,0.004155312,0.027204515,-0.00004203752,-0.008440853,0.019486237,-0.11823307,-0.103346236,-0.0007464623,-0.008063102,-0.021443535,0.0025382757,0.01221474,-0.0409562,0.019852191,-0.03484453,0.025440125,-0.0044296393,-0.053645007,0.15448402,0.047901925,-0.033846892,-0.103814095,0.0022754883,0.09041712,0.13873215,-0.05118904,-0.022270417,-0.15637118,-0.015654126,-0.10123389,0.009877418,-0.047919624,-0.019429866,0.008447314,0.01924495,-0.0171731,0.06801396,0.03948067,-0.027612716,0.13142595,-0.036736287,0.017215889,-0.060955618,-0.06175725,-0.03014404,0.010601121,0.04005604,-0.034539733,-0.043718692,-0.06362946,-0.041687854,0.025989264,-0.02534857,0.072841324,0.012475287,0.009914295,0.009903105,0.12523712,0.12397839,-0.028829575,-0.030839138,-0.04217881,-0.045155365,0.023024501,0.0012462743,-0.037713505,-0.03197934,0.049831413,-0.006103941,-0.062191173,0.10161529,-0.043218512,-0.08164053,-0.04342843,0.024944069,-0.02689371,-0.046504945,-0.0059756576,-0.060224593,0.07844581,0.073549025,-0.026765974,0.08987089,-0.012059074,-0.0663355,0.043493003,0.03736424,-0.030885981,0.05421694,0.06786725,0.051283546,-0.031593833,0.003991339,0.0011312647,0.010489741,0.010629619,-0.058490124,-0.06823039,-0.00072949677,0.10141317,0.013436459,-0.0660026,-0.05488831,0.040296014,-0.01113293,-0.015879126,0.020957438,-0.028922005,-0.015285782,-0.07538714,-0.06654175,0.0027164922,0.00015638949,-0.003012826,0.072675094,-0.027770573,0.027682062,0.013842484,0.013277872,-0.08910033,0.01791768,-0.085099325,-0.055774286,-0.017138226,0.072813034,0.0030813653,0.013230517,0.03823854,0.002589226,-0.12258433,-0.036341425,-0.00065588945,0.062059768,-0.014307433,-0.0444208,0.06027542,-0.018697983,0.0031572387,-0.06205224,-0.035376985,-0.0063424045,0.007051724,0.00094711274,-0.03517394,0.058110703,0.11050524,-0.03661203,-0.051800113,-0.042399354,-0.13967769,0.10661906,0.053028464,-0.053386495,-0.019563045,0.008911256,0.01867094,0.06904314,0.014591437,0.023209738,-0.04037416,-0.05525197,0.039185967,-0.07970419,-0.016045492,0.10283366,0.015023108,0.079874605,0.003419492,0.0919419,-0.0019051925,-0.030231215,-0.12212802,0.041406617,0.010101777,0.033942692,0.09362938,-0.049680214,-0.006288789,0.047690496,0.033260673,-0.064357646,-0.06681882,0.06479287,0.051956333,-0.02461888,-0.065964155,0.05911408,-0.026416825,-0.029152913,0.0105039,0.0058010113,0.07622701,0.08485961,-0.01780055,0.056387648,-0.043114193,-0.0605077,-0.054778952,0.08205975,0.02155938,-0.055207826,0.0063525317,-0.052699618,0.020935781,-0.005245679,0.019603005,-0.023758521,0.014626851,0.09695598,0.02990516,-0.08030313,-0.0014551366,0.0013428483,0.091157086,-0.030150114,0.06352078,-0.04024303,-0.04636445,0.007048177,0.0470556,-0.008166125,0.023138732,0.009781822,-0.09256261,0.007920286,0.046324473,0.006322622,-0.05575188,-0.0060316576,-0.044485684,-0.0021828006,0.10644083,0.06948205,0.052284192,0.02270958,-0.021439714,-0.04001359,0.029862331,0.004024037,0.008491361,-0.021087667,-0.013364805,-0.029683793,-0.04141551,-0.060630996,-0.04763833,0.04594774,0.05016076,0.050374232,-0.046379704,0.010489891,-0.040292755,0.015496586,-0.023258846,0.016185146,-0.012629906,-0.02858241,0.012179032,-0.06878867,0.01227737,-0.04135971,-0.07779091,-0.05351034,-0.014741992,0.0137175685,0.058302,-0.0024467495,0.00029259294,0.06681864,0.042484332,0.020958278,-0.09799283,0.102565914,0.0133179985,-0.022413593,0.034710944,-0.022896316,0.028380591,0.06671309,-0.020140378,0.07173629,-0.09112556,0.004057772,-0.030435983,-0.042442985,0.027961517,0.0006859251,0.06289672,0.05014468,0.027005251,0.019521063,-0.0031300744,-0.016790159,-0.03778325,-0.047357723,0.038490977,-0.048064455,-0.038129818,-0.018169893,0.02247477,-0.088913225,0.010678461,-0.019255245,0.050446734,0.067782864,0.072602496,0.023208866,-0.043787297,-0.013279196,0.035219844,0.0031022253,-0.006459427,0.07077327,-0.031610597,-0.04610329,-0.017561974,-0.1192997,0.029350154,-0.02194217,-0.03877239,-0.02242875,0.095009685,0.005523543,-0.03571236,-0.036672454,-0.15203236,0.044228803,-0.024984797,-0.013489897,0.030669462,-0.09338667,-0.090928644,0.098494925,0.096508645,0.08669324,-0.024866331,-0.056862786,0.07445423,-0.02491495,-0.0294778,0.05799593,0.03351208,0.014158009,-0.03237686,-0.014137093,0.032705776,-0.003727367,0.0025757796,-0.0022528903,0.02100156,0.022688832,-0.0045079654,-0.016073529,-0.014273135,-0.009024065,-0.00776902,-0.025716346,-0.0026825587,-0.043586805,0.042487502,0.0012067445,0.07007938,0.032150928,0.02791384,0.016539281,0.033196814,-0.03275954,0.012492449,0.114865914,0.014550651,0.01150111,-0.003791179,0.044525515,0.04187604,0.013697833,0.049494695,-0.027888032,0.09280828,0.036617402,-0.068844296,-0.043594558,0.06547705,-0.05312314,0.0025682498,0.028111232,0.0071147387,0.031022307,0.023969576,-0.052738883,0.084835686,-0.0036699325,0.06808352,-0.0066181943,0.054780178,-0.058211118,0.04475006,0.0492438,0.10175036,0.1211542,0.026081385,-0.033868555,-0.027708847,-0.054302234,0.05446875,-0.051892035,-0.039416853,0.019902008,-0.022299075,-0.04405746,0.0015690312,0.00588105,-0.0023184018,-0.04226306,-0.041203562,-0.045031108,-0.027909255,-0.0054393564,0.03723724,-0.06182163,-0.03787575,0.013644038,0.023519438,-0.050105833,-0.027988644,0.041187517,-0.00040068486,-0.016506527,-0.057143535,-0.09419941,-0.011767436,-0.050650537,-0.052109756,0.062283672,-0.033933956,-0.035690945,0.054291658,0.075243495,-0.0856281,-0.03644394,0.013089312,-0.0810322,0.020213706,-0.011594611,0.038915385,0.08793858,-0.05275246,0.06762781,-0.006359998,-0.025427807,0.0031459501,-0.023743413,-0.043470502,-0.023030084,0.053936526,0.012183668,0.0065478827,0.07865957,0.055928927,-0.0069663012,0.030432006,-0.02920842,-0.009693691,-0.006853432,0.11404281,0.04559977,0.10608678,0.06466457,0.03593646,0.0067152884,-0.07794743,0.13065559,0.0952707,0.033094913,-0.07441404,0.053145587,0.057360295,-0.068187095,0.090584345,-0.009934263,0.047062736,-0.021875048,0.04361849,-0.058748372,-0.03881345,-0.05678899,-0.055818137,0.03269761,-0.03494128,0.016105674,0.051137563,-0.020261215,0.00080563774,-0.03342212,-0.0005896221,-0.043510575,0.036295548,-0.04114791,-0.040165428,-0.038969994,0.03462677,0.04125391,-0.06151027,-0.054882836,-0.00012592146,0.055007104,0.02467734,0.0031264338,0.0008619425,0.02166346,-0.0683881,-0.018807383,-0.029503737,-0.023325007,0.044216946,0.02356043,0.110157095,0.0031773096,0.043027245,0.04201736,0.0061416538,0.05754978,-0.029994685,0.0383975,0.05517641,0.12743536,0.23349914,0.0678012,-0.05955078,0.0072435,0.034458864,0.08045337,0.05609242,-0.047981184,0.09016635,0.0459871,-0.00016164866,-0.046839334,0.020787548,0.053470787,0.021656428,-0.00868705,0.064667135,0.019110199,0.05612848,-0.011171515,0.007720383,-0.026662843,0.017419789,-0.14716038,-0.11253368,-0.05011533,0.16167648,0.06130013,0.059887607,0.0668666,-0.02661601,0.011048686,-0.06328687,-0.067274265,-0.03396114,-0.03944823,-0.037171185,0.04856848,-0.044714656,-0.03181272,-0.0796236,0.011684906,-0.03050425,-0.018541642,-0.011409959,0.06325545,0.017069712,0.06372035,0.048374034,0.042863183,-0.009653249,-0.035886344,-0.044973165,0.044529095,0.28759164,0.06713871,-0.02809225,-0.019168131,-0.29729784,-0.18574189,-0.14933042,-0.042833034,0.017187146,-0.016133845,-0.028111875,0.12940826,-0.061416592,0.025663333,0.017181708,-0.011087513,0.053493347,0.046830885,-0.042439003,-0.014896916,0.21615924,0.100328535,0.0025388917,0.08741756,-0.17918538,-0.11968091,-0.02419708,0.2324463,0.31312227,0.24118292,0.24718198,0.011086838,-0.38788626,-0.43124306,-0.27680546,-0.16534868,-0.032854445,-0.1025968,-0.020247858,-0.04656417,0.03581953,-0.02199598,0.01534847,0.0010324301,0.045043286,-0.033320468,-0.006145602,-0.07202457,0.11540576,-0.0017179296,0.015604683,-0.2278561,-0.23110795,-0.24937214,0.015620025,-0.08310036,0.1286813,0.22661538,0.16525887,-0.19495659,-0.35311314,-0.43739626,-0.3933933,-0.23212083,-0.065965176,-0.0015660505,0.034483038,-0.01772836,-0.06038521,0.115419656,-0.016323013,-0.033228017,0.08404728,0.053426698,-0.032857403,0.08689032,0.02257341,-0.15422511,0.07661333,-0.26853797,-0.1792451,-0.052117344,0.02325407,0.23353246,0.18979736,0.46175465,0.02365093,-0.2667485,-0.27084145,-0.3548703,-0.27720958,-0.13482136,0.09167627,-0.024009148,0.055497818,0.0575747,0.0015843705,0.09133919,-0.0176772,0.047343902,-0.06747361,0.016659804,-0.017678207,0.111718,-0.0341032,-0.07914762,0.10180923,-0.09739837,-0.06803669,-0.012038235,-0.10893763,0.1218477,0.29683995,0.41721743,0.20868824,-0.45389855,-0.3608486,-0.38833186,-0.0839999,-0.06420676,0.14554182,-0.07890502,0.031368397,-0.01081877,0.035365578,-0.097674884,-0.039389987,0.048810627,0.038175568,0.07097271,-0.06295385,0.049385518,0.017816305,-0.0065652593,0.095046006,-0.0032474208,-0.19931147,-0.12662585,0.00066891004,-0.046861015,0.33451164,0.34254786,-0.023027241,-0.489346,-0.31334516,-0.16624628,-0.11197247,0.046096716,0.10888365,0.04134131,0.17155,-0.12613024,-0.027229011,0.030914214,0.09120818,0.0025504353,-0.062557,0.093591556,-0.0071082255,0.008724432,-0.07750679,0.010399185,0.19041917,-0.03326242,-0.25538573,-0.03994064,0.076787084,0.036355965,0.45646057,0.25315818,-0.19177952,-0.36413008,-0.12322727,-0.044499744,0.06950082,0.003415236,0.06635685,0.05445005,0.017668797,-0.033717588,-0.06572933,0.11269943,0.081910916,-0.022975374,0.03978447,-0.035117775,0.03758741,0.013612023,0.008787791,-0.085408986,-0.056046132,-0.05993906,-0.18737972,0.12500039,0.12817289,0.16289383,0.2532943,0.0068633184,-0.09681345,-0.22450142,-0.18591456,-0.18030801,-0.019390214,0.07408975,0.02476259,0.00795815,0.10581802,-0.06897008,0.002982703,-0.017183186,-0.06286337,0.03098855,0.059123985,-0.030276885,0.024832021,0.049506806,0.048171908,0.03706381,-0.06459089,-0.15252784,-0.14099194,0.10565814,0.16741511,0.27360272,0.23374261,0.04915552,-0.11941142,-0.10745017,-0.09609621,-0.10004478,0.07773861,0.090731785,0.09960958,0.16420774,0.04714589,-0.006836909,0.09551799,0.023555415,-0.04334678,-0.026060974,-0.038424965,0.07897379,-0.026492126,0.011583517,-0.027478885,-0.014008269,0.018768957,-0.11666723,-0.008455419,-0.10487582,0.08241271,0.21202661,-0.13328743,-0.10336342,-0.1734537,0.03897692,-0.035487894,0.086176276,0.262455,0.21428016,0.15147045,-0.00873986,-0.04452353,0.024516497,-0.059057027,-0.027637139,-0.04750364,0.05825537,-0.062640235,0.061649967,-0.038625658,-0.06647486,0.014842071,-0.07515781,-0.042036694,0.14722173,0.106424995,0.008566985,-0.08689142,0.069979794,-0.045471534,-0.030509762,0.011834954,0.09327156,0.23886071,-0.07199362,0.102235876,0.0986977,0.15975267,0.11951712,-0.016509976,-0.08917443,0.088807136,-0.043541506,-0.027637599,0.06962005,0.0112056555,-0.03503744,0.03856161,-0.076268256,-0.000035177705,-0.012077082,0.10093934,0.19024983,0.12872946,0.027133023,0.034590613,0.07017497,0.045081712,0.120814055,-0.111437134,0.11316277,0.026899176,-0.05068523,-0.08305352,0.048633117,0.04342831,0.03715562,-0.012276644,-0.016765121,-0.0041309595,0.12485744,-0.054927062,0.019223936,0.02518853,0.031797726,0.05696952,0.018855834,0.069499746,0.03323274,0.14396189,0.1563196,0.008963287,0.010910626,0.041744873,-0.06426398,0.05095798,0.1757151,0.014974892,0.07203817,-0.2128172,-0.09058792,-0.0060269083,-0.04641711,0.023629148,-0.044482782,-0.015588445,0.02410024,-0.0029557673,-0.020115532,-0.00573501,0.03422023,0.017864939,0.008513112,-0.041941203,-0.021438401,-0.056621548,0.032063585,-0.011427937,-0.05468269,0.0009257639,-0.07430442,-0.31034783,-0.06161093,0.26910236,0.23866157,0.14646743,0.04138204,-0.120916896,-0.15927461,-0.009413077,-0.1493647,0.03717414,0.06600596,-0.009732423,0.027996292,-0.13528188,0.13966867,-0.028940361,0.034181587,0.032310177,0.002063272,0.01691728,0.008459678,0.022514464,-0.13547139,-0.10407797,-0.09635859,-0.12575392,-0.16795565,-0.2565707,-0.07025171,0.19151147,0.05965742,0.10501401,0.014316109,0.024411263,0.04273353,0.109911464,-0.012296939,0.065749876,0.029052995,-0.021860445,0.08634303,0.015548841,0.03913504,0.014962267,0.016337125,0.08408528,0.048305802,-0.094641924,-0.021670079,-0.083405934,-0.050400026,-0.05437916,0.021920428,0.13706517,-0.058505293,-0.16644585,-0.005185982,0.06807682,0.01942866,0.006365212,-0.010276763,0.005751642,0.048870582,0.05026611,-0.039438896,-0.0673642,-0.15585978,0.0070188167,0.051048093,0.080315776,-0.009817374,0.035953607,-0.023605477,-0.021799108,0.047856618,-0.07333267,-0.054736655,-0.053016767,0.015188033,-0.12602772,-0.13897958,-0.0064607747,0.009574919,-0.07899098,0.047733683,0.054985438,-0.049231198,-0.012416182,-0.033385202,0.011256649,0.12052938,-0.019895783,-0.030913025,-0.01855239,0.00017537363,-0.10720605,0.02103899,-0.045326214,-0.0023174211,0.047011703,-0.015329355,-0.030192364,-0.011127721,0.0699337,0.08803975,-0.101996124,-0.06982812,-0.11087252,-0.10774374,-0.045425564,-0.09555267,-0.02887262,-0.09010375,-0.056662846,-0.087068446,-0.06408256,-0.14502992,-0.19924213,0.12129641,0.072320834,0.053067043,-0.06439417,0.011417441,-0.09678734,-0.06597242,0.038342755,0.006497638,-0.026656272,-0.02350258,0.007966775,0.043500777,0.0014820211,-0.11266731,-0.011892311,-0.039358664,-0.08216921,-0.08551433,-0.049290676,-0.020583864,0.046698064,-0.09859002,-0.064091116,-0.14642556,0.045070868,-0.09246821,-0.029532207,0.12007096,0.21689652,0.14179222,0.017605906,-0.093495436,-0.14103442,0.011628522,0.061319273,0.026480578,0.04671228,0.016673775,-0.020795316,-0.045174602,0.035655547,0.07504593,-0.07262366,0.053694412,-0.013702133,0.09698358,0.119679235,-0.025939014,-0.09293115,0.00093264005,0.027195388,0.03126621,0.16367422,0.030283496,0.07677035,0.048608176,0.1880308,0.031380374,0.01840487,-0.0905748,-0.05703767,-0.03810658,-0.0035159644,-0.020833353,-0.06829806,-0.027003882,-0.023553936,-0.03798835,0.027069049,-0.09548637,-0.032678694,0.10710705,-0.020661753,-0.12419244,0.013802049,0.14468704,0.29109436,-0.089322135,-0.19630355,0.021648813,0.028078413,-0.04966775,-0.016711306,-0.09393392,-0.0066204215,0.027092736,0.0023658576,-0.050774395,-0.01344215,-0.0047297925,-0.006041933,0.036670767,0.002243829,-0.0059705637,0.054187145,-0.03914309,0.053842466,0.00020909081,0.036977727,0.07469366,-0.0021793058,0.10657394,0.104838066,0.09792388,-0.02748667,-0.015095267,-0.102400616,-0.03165965,-0.061835524,-0.21942967,-0.103170626,-0.08631471,-0.060299154,-0.09239964,0.022380428,0.015818873,0.036043495,-0.009962667,0.035601214,0.05448918,0.010385013,0.026205586,-0.05666508,-0.11923023,-0.0016572739,0.08892348,-0.0034427657,-0.06817847,0.031707685,0.05641877,0.07891767,-0.021511907,-0.10413333,-0.077002846,-0.036506545,-0.018632364,0.023884296,-0.120011054,-0.05753085,-0.049803715,-0.015117086,-0.021810712,-0.017667705,0.03166989,-0.0024462899,0.056286797,0.03602523,-0.045815535,-0.031609144,-0.021066472,0.039325178,0.043704126,0.100648575,0.019111292,0.003164868,-0.015887043,-0.08831296,-0.001841946,-0.043916274,0.024121823,0.003074211,0.06553906,-0.003235974,0.05500602,-0.0019307182,0.019521296,-0.0459273,0.035466705,0.03015451,0.08824594,-0.081670605,0.007959448,-0.0127967885,-0.011230683,-0.002127958,-0.043642227,-0.04650864,-0.0012895225,0.01833875,0.050425064,0.026551276,0.014309603,0.07513714,0.017205358,-0.03694143,0.042406924,-0.05904087,-0.019808106,-0.022125766,0.0071270345,0.10085587,-0.111043215,-0.020514898,-0.02727061,-0.011585042,-0.060883008,0.09382037,0.030261314,-0.08378252,0.046287913,0.10659754,0.016373776,0.0009780395,-0.045817114,0.09898649,-0.031455394,-0.031158675,0.025914565,0.0048612054,-0.026405558,-0.064336635,-0.07873703,-0.078639224,0.073529415,-0.006483683,-0.014711076,-0.09728074,-0.020796577,-0.07197015,0.031694345,0.0068391007,0.04758982,-0.012576866,-0.020795112,0.014012788,0.059458785,0.018251246,-0.016495658,0.06446363,0.010343162,0.13445611,0.034607746,0.00026932123,-0.031611674,-0.0642562,0.010055449,0.036845393,-0.09376649,-0.0555674,-0.018379854,0.01739575,-0.09940309,-0.05234436,-0.07627674,0.031135697,-0.04669849,0.0829693,-0.05726451,0.035379637,0.048735894,-0.010980301,0.07354679,0.012386293,0.0010615833,-0.083677486,-0.0546815,0.0006768119,-0.04910789,0.0182459,0.000007470874,0.014531157,-0.048082206,0.09564385,-0.008401344,-0.018231701,0.09681308,0.0034558144,-0.006022387,0.05217208,0.10548492,-0.011652454,-0.08313693,0.035817087,0.04146482,-0.0065202015,-0.13138047,-0.09370228,-0.05303832,0.039036583,-0.090504125,0.04314479,0.049398005,-0.05793272,-0.05102688,0.04061205,-0.047783613,-0.008195895,0.04042483,0.08904018,-0.007160292,-0.01866609,-0.089280136,-0.010046714,0.014888891,0.04815687,0.008829626,-0.03022472,0.04316105,0.03465681,0.03082423,0.09576147,0.1477965,0.07246409,0.01296991,0.060441647,-0.056361746,-0.07591685,-0.06718484,-0.038167182,-0.046232034,-0.2741404,-0.10095013,0.00072936265,0.020956067,-0.06248695,0.037897933,-0.06102979,-0.06582266,0.1252627,-0.011831821,0.018970678,-0.031361,0.11666269,0.115631655,0.16540536,0.10994419,0.06438869,0.026807714,0.11441023,0.011822646,0.1358016,0.21389136,0.18961105,0.11142157,-0.04924969,-0.16144645,-0.2611301,-0.21869977,-0.097590424,-0.06469071,-0.062106136,-0.09520966,0.016891358,0.018276757,0.03726527,0.0080425395,-0.055297107,0.007758281,-0.01836923,0.038036905,0.044978175,0.103624195,0.03621135,0.0015989364,-0.03314231,-0.10436383,-0.09197407,-0.12719178,-0.053696815,0.015205653,0.21314178,0.2563047,-0.00017236726,-0.32287097,-0.37046853,-0.31068808,-0.1999626,-0.06502897,-0.027598666,0.15164962,0.049794294,0.015733806,0.04823797,-0.037633374,0.026353,-0.0018206628,0.10951465,0.041856527,0.076861575,0.064593,-0.036928408,-0.067689024,-0.114124335,-0.15966472,-0.07617871,-0.07082605,0.08354367,0.23880261,0.09243942,0.2455023,-0.036964383,-0.39908436,-0.46249402,-0.27690932,-0.1438705,0.005986066,0.14337897,0.051914852,-0.034793347,-0.027020952,-0.031001301,0.00481861,0.013120443,0.060782526,-0.11192354,0.08893993,0.016149372,-0.09890329,-0.0031772254,0.04147962,0.03647427,0.057736874,-0.26521653,0.0871364,0.27863884,0.2897837,0.35601398,0.13414209,-0.16760199,-0.4267872,-0.35321322,-0.25779927,-0.06337116,0.102021866,0.04740996,0.031162972,0.074932456,0.120404914,0.015559921,0.009171461,0.0090925135,-0.027558092,0.058050804,-0.013317001,-0.028872019,0.025175715,0.10301386,0.060115058,-0.07654874,-0.084783025,0.053165365,-0.033572778,0.31343538,0.46314538,0.27661625,-0.054718968,-0.38434678,-0.5012665,-0.16657674,-0.00290007,0.011181668,-0.08410245,0.003069153,-0.074948646,0.0036304153,-0.06990812,0.0064896345,-0.021618925,0.012296281,0.0033652892,-0.040244862,-0.050646085,-0.017035753,-0.042871915,-0.04987667,-0.03811386,-0.06409526,-0.02253941,0.15495229,0.20705917,0.47960943,0.19085205,-0.105765544,-0.29069185,-0.23862611,-0.39282024,-0.19219287,0.112302825,0.019307358,-0.018534118,0.07251836,-0.025459388,-0.13320166,0.0028808964,0.14046612,-0.029270813,0.01594464,0.022875728,0.017495759,-0.009041087,0.053797297,-0.028129503,-0.008550789,-0.0734621,-0.012011359,0.06356976,0.29360858,0.25265187,0.06682439,-0.052011542,-0.20150328,-0.253541,-0.25301456,-0.25454324,-0.06950003,0.17450838,0.07093154,0.14663595,0.04059965,-0.064807706,-0.026094455,0.08443636,-0.055750705,-0.0040304894,-0.0060864105,-0.00651118,0.07059669,0.10112164,-0.03547914,-0.045356352,-0.04738569,-0.07186531,0.13938244,0.1145249,-0.0044599534,-0.025522683,0.03431261,-0.03035422,-0.04838759,-0.2634429,-0.2729972,-0.110039316,0.20351581,0.06648911,0.07756424,0.055399418,0.004991678,-0.024235064,-0.063615724,0.050898727,0.0034738213,-0.0424402,-0.015122875,0.030726777,-0.052453924,-0.039699506,0.11136698,-0.050692137,-0.010055292,-0.06529568,0.23715863,0.24766319,-0.10086743,-0.13517702,-0.08241528,-0.060813084,-0.22219254,-0.05196807,-0.04433377,0.118867,0.2859723,0.17740287,0.008272371,0.043680087,0.09933585,0.030350817,-0.026229633,-0.01908859,0.03866034,0.07171579,-0.06638691,-0.024361985,0.024848945,0.0023593463,0.0048489072,0.017297229,0.0010935517,0.03427459,0.029082956,-0.022428188,-0.06527435,-0.027451672,-0.09550739,-0.04668483,-0.15024221,-0.031982254,-0.04350064,0.062074512,0.10851354,0.008635584,0.12066303,-0.016831355,0.046128523,-0.03039731,-0.041305907,0.02373221,0.059896596,-0.1053015,0.00792909,0.014635066,0.025538273,-0.017665341,-0.04598067,-0.021707714,-0.13340278,0.031073652,0.16314119,0.04511024,-0.054745663,0.07310706,-0.16686217,-0.15404204,-0.0045746504,0.035990413,0.16932146,0.063531995,0.20749235,-0.07935965,0.024271287,0.14583741,-0.007181533,-0.09631419,-0.060564395,-0.0004532593,0.021379754,0.0022616668,-0.05889239,0.03138427,-0.0890593,-0.023359869,0.09774879,0.00175754,-0.07377679,-0.021290543,0.018103886,0.04654933,0.065859005,-0.12222272,-0.10469225,0.0017145418,0.014454065,0.09016988,0.07200878,0.037945587,0.08638874,-0.013803257,-0.040131986,0.099506095,0.075372584,-0.03339107,0.0114731565,-0.00099227,-0.017434606,0.025412228,-0.10036637,0.0144630205,-0.037852276,-0.03226259,0.035258897,-0.05865282,-0.0670301,-0.030475987,0.016513692,0.049042873,-0.14957765,0.013429536,0.13032465,0.038909294,-0.09956199,0.04207546,-0.041716177,-0.10046474,0.03393568,-0.11300458,-0.049159482,-0.0027641326,0.069576256,-0.06016944,-0.0030379856,0.023807699,-0.090253994,-0.0176757,-0.026996197,0.019027006,-0.005543815,0.036756877,0.0154605815,-0.25005686,-0.20454791,-0.10805638,-0.022409564,0.05698105,-0.055588227,0.09750577,0.1216188,-0.056853406,-0.051357023,0.045864247,-0.07043551,-0.07452869,0.023661759,-0.108566746,-0.059162945,0.03905544,-0.021960974,-0.008024148,0.045559358,0.021367654,-0.061304256,0.086640835,0.032457396,-0.08933377,0.030602368,0.044248447,0.0036164157,-0.13962166,-0.21110512,-0.06223953,0.09518559,-0.034243654,0.075373285,0.022775326,-0.08415538,-0.12786494,-0.16306306,-0.07262037,-0.0012991566,-0.005619194,-0.02923777,-0.09860257,-0.11782674,0.014648575,-0.10430602,-0.028767362,-0.026365936,0.032143854,-0.042111177,0.036685944,0.13582814,0.078072086,-0.028563354,-0.004704027,-0.031984802,-0.03696871,0.0835965,-0.112994716,0.24922946,0.1017467,0.1713142,-0.005599152,-0.19218144,0.002274918,-0.16390778,0.011917262,-0.009239062,0.08277552,0.017625293,-0.092529014,0.086748846,0.12917745,0.13469927,-0.038727168,-0.010192987,-0.035725504,0.032112785,-0.018428495,0.08329825,0.010702755,0.031144734,0.037536748,-0.04113425,-0.12869813,-0.017908989,-0.05912186,0.009652693,-0.09187806,0.040644683,0.09279322,-0.17236131,-0.24519137,-0.12428366,-0.006264697,-0.07527483,0.014531022,-0.10376367,-0.10154153,-0.08185144,-0.013826897,-0.005316033,-0.09536038,-0.049934726,0.015387199,0.066013925,-0.04070083,-0.023315711,0.005472304,0.08802785,-0.05682591,-0.06165982,-0.049226232,-0.02321021,-0.07611388,-0.03566695,-0.04181346,0.062000457,0.11257871,0.13257746,-0.13623825,-0.068304256,-0.0021871564,-0.09734759,0.0049774684,-0.060317397,0.061616078,-0.020007981,0.019644443,-0.024161829,-0.077616766,-0.08920561,-0.01619357,-0.07343707,0.015200703,-0.17321478,-0.04356928,0.08341488,-0.019709187,-0.031031046,-0.058161706,0.03223508,0.047590893,0.117514886,0.08162609,0.1878044,0.11350058,-0.15822645,-0.09855913,0.033287514,-0.13641866,-0.12609577,-0.010062581,-0.026976034,-0.073338054,0.08081164,-0.020712879,-0.11032529,-0.01522962,-0.027867153,0.06654517,0.036329187,-0.0362543,-0.030128954,-0.007876917,0.031407446,-0.043179944,0.023290753,-0.021797238,0.043781344,0.02477833,0.068671525,0.15537152,0.157715,0.020669216,0.03862472,0.06192022,0.012384152,-0.24811152,-0.11080582,-0.07671125,-0.036315184,0.010772026,0.1458147,0.08827912,0.049137563,0.019057995,0.035194308,-0.017361559,0.008911408,-0.029218556,-0.029292481,0.091013454,0.03664373,-0.036299065,0.077071816,0.11615473,0.08110906,0.03556747,0.0422621,0.038891785,0.12341136,0.028717985,-0.06519423,-0.090915166,-0.05730709,-0.13694923,-0.12635241,-0.085611336,-0.02113375,0.06408094,0.027016023,0.007887072,0.08537699,0.0006057778,-0.02416146,-0.08008929,0.012354264,-0.017321907,-0.03174506,0.050733168,-0.0024689804,-0.060331788,0.033089824,0.03193128,0.038790736,0.07588829,-0.035284515,-0.0034961884,-0.0100283,-0.062149413,-0.009786364,-0.006118298,-0.014529131,0.008079425,-0.056730352,-0.017797386,-0.0644771,-0.0756842,0.07206147,0.044137266,0.018213693,-0.004599292,0.08988858,-0.015017187,-0.03847782,-0.03909509,0.015387673,-0.03656292,-0.0026232998,0.08814933,0.02484752,0.002320032,-0.07057155,-0.01509172,0.054245632,0.022098113,0.06635058,-0.06396385,-0.053267423,0.028963465,-0.013069871,-0.008918894,-0.06539989,0.005966728,-0.07382465,0.04243379,0.10098032,0.024928214,-0.024581118,-0.03391654,-0.005585389,-0.04598729,-0.046252828,0.07695649,-0.01964785,-0.04381509,-0.024089959,-0.03184832,0.037042536,-0.07221861,-0.08031669,0.022631604,0.029951965,-0.015582265,0.024272956,-0.022019174,-0.03176344,-0.0020723958,0.020941539,0.073004454,0.034139775,0.042322688,-0.027104057,-0.098084055,0.06509846,0.06442988,-0.034696553,0.015115649,-0.030653285,0.099082455,-0.05788373,-0.024780799,0.04002064,-0.025559237,0.031118073,-0.0040731444,0.05981777,-0.11493345,0.062137682,-0.027405508,0.10828482,-0.013924904,0.016948907,0.14358586,-0.005937036,-0.031385705,0.1071993,0.0343664,0.018306805,-0.024285574,0.03661346,0.021642635,-0.048749983,-0.07039885,0.035198096,-0.008259526,0.031103374,0.03730071,0.059776388,-0.0056562065,-0.05468562,0.061853185,-0.036277413,0.06980807,-0.047026448,0.036939196,-0.06865901,0.041681953,0.08362002,0.009484409,0.04237222,0.014157127,-0.0033535354,0.0957593,0.017908126,-0.04386921,0.13675039,0.018961508,-0.048809472,0.010091999,0.061606526,-0.02703018,0.1116011,-0.041478172,0.011334584,0.0445115,-0.025209077,-0.023130927,-0.0472132,-0.10788407,0.04282943,0.0104507245,-0.019088771,0.043887053,-0.021501137,-0.0024455388,0.07424043,0.09004445,0.2084196,0.15708679,0.12910591,0.1582956,-0.040419295,-0.09310878,-0.14571863,-0.23532172,-0.06439845,-0.09283865,0.09065079,-0.008809077,0.052641135,0.11261541,0.013343844,-0.009654782,0.0052655707,-0.011413237,-0.06058336,-0.010222276,0.012422192,-0.0644169,0.04369911,-0.023627061,0.035033688,0.086946726,0.13494945,0.14122093,0.043377314,-0.09486275,-0.1393254,-0.0152994,-0.08859911,-0.14906842,-0.118005104,0.06379134,0.016746202,-0.004103732,-0.096804544,-0.18459946,-0.035766896,0.0333254,0.026758855,0.0103467135,-0.015405184,0.011854674,-0.07863066,-0.084707916,0.0048807734,0.048667006,-0.10297456,-0.122068375,-0.14145388,-0.05892537,-0.093404636,-0.08517246,-0.253789,-0.278388,-0.0803955,0.017009424,0.012961504,0.06802436,-0.037198234,0.025629526,0.11589159,0.21755156,0.04533451,-0.07327934,0.043613613,0.034974284,0.044149037,-0.042564936,-0.011536624,0.077154584,0.05224821,0.010336541,0.06761954,0.08460688,-0.030339532,-0.058780555,-0.20852157,-0.08647832,-0.24004255,-0.4859986,-0.2805202,-0.22820543,-0.1650574,-0.119740374,-0.14930162,0.10707571,-0.29680607,-0.4643813,-0.21732497,-0.1645031,-0.1108668,0.02369686,-0.19953437,-0.006274884,0.01161559,-0.0065764072,0.008929029,0.032622773,-0.0013147028,-0.0028637978,0.024005169,0.17386103,-0.013701642,-0.11062569,-0.081774026,-0.06739621,-0.2645409,-0.19479838,-0.14154206,-0.10240991,-0.21882124,-0.20583607,-0.14327224,0.13069732,-0.0076918122,-0.25862432,-0.31642374,-0.24902068,-0.08134898,-0.16858704,-0.12806976,0.04123555,0.19420986,0.0018650576,0.0015689087,0.08696438,-0.036870904,-0.04621588,-0.002719904,0.08941012,-0.03468381,-0.041755963,-0.04483969,0.035291668,-0.07967793,-0.0028884192,-0.058499057,-0.23354784,-0.23450054,-0.17327836,-0.032885652,0.2553617,0.09632814,-0.17879331,-0.18954685,-0.09936055,-0.028109886,-0.10414706,-0.13830377,-0.13789605,-0.07271367,-0.07911609,-0.072775684,-0.06434748,-0.0010522217,0.013403129,0.08061401,-0.01589995,-0.10323527,-0.13447726,0.039842993,-0.23113078,-0.23636983,-0.1344448,-0.23315886,-0.115152046,0.031754307,0.044083852,-0.03658374,0.13446443,-0.16886589,-0.1829875,-0.19380577,0.0830114,-0.08890649,-0.106061175,0.010070704,-0.10085909,-0.05516153,0.05968252,-0.07979717,-0.0028744366,0.05508603,0.046444144,0.04533989,-0.045624062,0.108117074,0.092270195,-0.07875739,0.041521866,-0.10170859,0.020424105,-0.0015826032,0.048414957,-0.09420053,-0.04381469,-0.09217847,0.0076452517,0.04131367,-0.10316694,-0.12313016,0.017267229,0.003418409,-0.05600988,-0.062036112,0.056753118,-0.1687885,-0.020494467,0.003443086,-0.06443838,-0.007035389,0.050128814,0.022934021,-0.10214966,-0.02158009,-0.01074275,0.0746072,0.022812812,-0.16280018,-0.20867163,0.0060107643,-0.08425415,-0.30688474,-0.001842547,-0.14855023,0.13050239,0.16298722,0.043096013,0.07951351,0.007086744,0.007813485,-0.031769957,-0.12267207,0.011001347,-0.08393432,-0.032003887,0.04310448,-0.052802224,0.009784942,0.009479336,-0.18810973,-0.14389697,-0.15604153,0.03510081,0.04119118,-0.040340103,-0.103980534,0.025183419,0.040243555,0.069396146,0.061869778,-0.018982692,-0.21507692,0.02364592,0.0616296,-0.11687889,-0.088879324,0.02929386,0.013266399,0.08228003,0.0067929807,0.23225333,-0.00050804275,0.01853986,0.050473996,-0.009879977,0.075607866,0.007880291,0.00074698986,-0.111047015,-0.0704354,0.108421005,-0.06730603,0.043927453,0.013637437,-0.058405057,0.036971617,0.18427716,0.2097525,-0.08445756,-0.21282567,-0.1078573,-0.17245401,-0.060240924,0.19402027,-0.0063505773,-0.022412384,0.11265302,0.15748334,0.25800294,0.016785719,0.05425174,0.03592123,0.035385538,-0.048190817,0.05018301,-0.0147758955,-0.15286349,0.07999499,0.24287717,0.043000095,0.048172724,0.16127867,0.063700385,0.14805108,0.101995654,0.17280643,0.0072315056,-0.059719898,0.0024765998,0.04795388,0.12326906,0.10459313,-0.041054003,0.03640597,0.1771614,0.28060055,0.298665,0.09305602,-0.061538372,0.058290232,0.007887699,-0.04195241,-0.0021240572,-0.08784841,-0.027021123,0.15690544,0.11431516,0.21454601,0.07194545,0.08620051,0.09758238,-0.028656986,0.19225988,0.2068647,0.006506287,0.024713613,0.30474284,0.22134374,0.11328639,0.1564498,-0.036893927,-0.058211684,0.027486062,0.17553805,0.21495084,0.13250406,0.010160805,-0.012430142,-0.09812666,-0.04727179,0.016269114,0.043087184,0.019219436,0.026739763,0.11842579,0.27633426,0.032538597,0.08139732,0.12111829,0.06793071,0.04465083,-0.03900327,0.15202934,0.24075788,0.27690452,0.313207,0.017697873,0.17713147,0.046466175,0.089813575,0.17530788,0.15327393,0.10396939,0.06218319,0.04776648,-0.044758964,-0.039204028,0.040666107,-0.012994812,-0.0105284,-0.01019109,-0.0057039787,0.05373185,0.057871874,0.03634944,-0.059717685,-0.0199977,0.060046915,0.13098846,0.08982327,0.10639547,0.20285118,0.2711622,0.18852401,0.07225218,0.09456635,0.12902535,0.20288949,0.09777941,0.09602996,-0.034295097,0.06880667,0.012746392,0.051447555,0.027318211,-0.042823203,-0.03258223,0.058770757,-0.01694022,0.0071827415,0.074643075,0.19447398,-0.031533416,0.009985561,0.24068642,0.022905128,0.18984191,0.05563369,0.2424661,0.345634,0.3385523,0.036590002,0.1753908,0.034224752,-0.14147574,0.05750876,-0.012380673,-0.028235415,-0.012623353,0.021364877,-0.060609736,0.0021864823,-0.04658663,0.037609115,0.12768054,0.10845063,0.06845011,0.17370984,-0.0060533,0.08865635,0.012158665,0.004563218,0.11202595,-0.026667947,-0.049523562,-0.12955888,0.45683372,0.3543141,0.18961483,0.11750275,0.076474786,0.0055520097,-0.04052176,-0.026765814,0.07750444,-0.062276214,-0.09659404,-0.009787117,0.13794741,-0.009587415,0.016196804,-0.02111235,0.10313474,0.17450209,0.04300056,0.09846419,-0.12247075,0.063878864,0.11625238,0.14932695,0.09147369,0.062537685,0.0046228683,-0.05920715,0.00055184594,0.29584762,-0.09561682,-0.047346428,0.0028701907,-0.13270622,0.08033308,0.11724305,-0.0035960448,-0.16101025,-0.19968025,-0.03251018,-0.08247804,0.08613646,-0.013235079,-0.011469908,0.06928522,0.03872256,0.1307183,0.044437677,0.06058287,0.10246481,0.18529257,0.21117316,0.19481054,0.24680631,0.22090212,0.1361013,-0.06862613,-0.11048739,-0.14394581,0.041663118,0.0060025034,-0.1010885,-0.1884757,0.09343739,-0.12640187,-0.10672666,-0.22127882,-0.025004944,0.00958019,0.052412618,0.0027944397,0.05275483,-0.076177716,0.0022955302,0.010663155,-0.07791214,-0.026561277,0.12944305,0.10174717,0.18962567,0.38076562,0.17612745,0.051064473,-0.18621162,-0.28433904,-0.08808054,-0.25907406,-0.23641387,-0.075848415,-0.16624685,-0.21341623,-0.09567378,-0.086310424,-0.20192035,-0.15507145,0.00429727,0.039114337,-0.061321575,0.039268278,-0.0051361453,0.027660605,0.09066044,0.009102992,-0.115871936,-0.18965085,-0.2164052,-0.07494731,-0.1200224,-0.21842061,-0.4110146,-0.35020787,-0.54538107,-0.40131772,-0.25860536,-0.4252206,-0.3469268,-0.19258732,-0.3476929,-0.25487134,-0.16926172,-0.14465962,-0.1079381,-0.21114203,-0.05400971,0.045185722,-0.0018250442,-0.04519005,0.004916408,-0.044802375,-0.042207606,-0.083696194,-0.09121343,-0.29320654,-0.28334346,-0.43889725,-0.38449165,-0.41940477,-0.56979597,-0.41890264,-0.5017933,-0.37062228,-0.2486667,-0.18939118,-0.22051689,-0.23086771,-0.20053679,-0.10195702,-0.0024256052,-0.046903163,-0.01679436,0.0066297646,0.037966494,-0.03611863,0.07774202,-0.07132831,0.004557498,-0.06590586,-0.0944329,-0.05035978,-0.022897,-0.12323626,-0.19649729,-0.32247594,-0.29119572,-0.2376908,-0.17121832,-0.17532293,-0.21745539,-0.19189511,-0.21062413,-0.043094754,-0.17228909,-0.069738515,-0.16377538,-0.16323094,-0.08779666,-0.03396666,0.0013252222,0.0014572614,0.07343647,0.059288133,0.05578816,0.021741848,-0.049618974,-0.014876778,0.022845393,-0.027832948,0.031381804,-0.02451979,0.002186584,-0.10756505,-0.086232394,-0.09206099,-0.087923974,-0.078492396,-0.1467479,-0.09803977,-0.024425205,-0.046886273,-0.019132752,-0.010743437,-0.06579591,0.012268483,-0.08693523,0.009032994,-0.049937446,-0.021036675,0.020652138,0.019359533,-0.008270631,0.01106664,-0.01887963,0.054455016,0.0073026475,-0.07898116,-0.07632472,0.09956954,-0.045897353,0.13112731,-0.10263285,-0.05319499,-0.010523335,0.09399204,-0.054498285,-0.03759226,-0.042415835,0.0055560926,-0.06360699,0.0036400885,-0.03366585,-0.06770193,-0.010175718,0.0130893905,0.05835881,0.032897115,0.0112079,-0.031084098,0.014226389,0.023547243,-0.08541542,0.052637886,-0.04431091,-0.07793399,-0.0037082077,0.06037948,0.011186372,0.030040663,-0.011876178,-0.0031425126,0.03691009,-0.05824768,0.058575444,-0.038408592,0.09483701,0.039684862,-0.025742756,0.07493145,0.032920048,0.04507011,-0.018145964,-0.051695228,0.13775542,0.014124738,0.0044079507,0.0027385529,0.002292856,-0.051317587,-0.031274945,-0.019379599,-0.043766305,-0.02249739,-0.0111421095,0.005355528,-0.034123413,0.03993551,0.008059063,-0.044405587,-0.03478065,-0.027799152,-0.022758588,0.058395334,0.0318993,-0.05865888,0.030165669,0.0695704,0.12267708,-0.021975502,0.002033489,-0.009936336,0.052057154,-0.015865296,-0.045855306,0.042768367,-0.061012615,-0.011703467,-0.0024485525,-0.08124372,-0.033716824,0.04952606,-0.008644158,0.04026996,0.005289178,0.09004321,0.03417854,0.014325674,0.02839599,-0.053258862,-0.028763864,0.039157383,0.08958039,-0.032199807,-0.032067973,0.05885317,-0.06546219,0.002520528,0.08106458,-0.12568025,-0.018097328,-0.026593568,0.020827368,0.01579247,0.009581937,-0.053717844,0.048864044,0.19468883,0.006887962,-0.0564022,0.0100459885,0.014561329,0.007913623,-0.04030249,-0.0022762944,0.021212976,0.030741807,0.04115488,-0.00061414606,0.020288944,0.09624716,-0.015043961,-0.004726417,0.14546728,-0.005967494,-0.009299521,-0.05327717,-0.04173872,0.036452796,0.050789405,-0.032592967,-0.0708803,0.02773275,0.11675367,0.007956812,-0.04047358,-0.057993233,-0.064911425,0.1096021,0.06578129,0.095897175,0.14034772,0.031445943,0.04438233,0.080063425,0.18109162,0.13137136,0.15698874,0.1780701,0.19335853,0.086946175,-0.038140144,0.10463715,-0.038821936,0.14489919,0.08001592,0.03442572,0.10392502,0.09950635,0.019384757,0.018201431,0.05659473,-0.046576828,0.022286214,-0.11532588,-0.11946173,0.0409636,0.20036651,0.1194536,0.07389658,0.027826896,-0.22711803,0.07390331,0.26263425,0.08362217,0.21796612,0.024051538,0.11848637,0.18286106,0.062284525,0.16535583,0.120943666,-0.009874655,-0.0782791,-0.086981945,-0.0058588115,0.025521247,-0.025756055,-0.002798425,-0.037475616,-0.034846026,0.021893397,0.102825604,0.071065836,0.1842818,0.09543921,0.13030574,0.090379424,0.096428476,-0.061395675,-0.080920845,0.10373532,0.03095945,-0.022875672,0.1403714,-0.008869261,-0.017704112,-0.034903158,-0.022646682,-0.0489694,-0.0899197,-0.0093364185,-0.12264504,0.032565586,-0.0040504145,-0.0076146056,-0.036640637,0.05520495,0.039339416,0.08179604,0.039826047,-0.028252965,0.058480393,0.18906435,0.14782919,0.0049339323,-0.02541208,-0.00937887,-0.21646018,-0.1888141,-0.19273989,-0.25069395,-0.017911527,-0.15857954,0.013964236,0.05078338,-0.048101567,-0.06686961,-0.16436361,-0.22993433,-0.059648287,0.051053077,0.018324658,-0.069889784,-0.052889228,-0.0409341,-0.0009181336,0.09368814,0.03829579,0.09195138,0.14065126,0.15630737,0.2124601,-0.17209207,-0.12690224,-0.08155213,-0.068275176,0.11081006,-0.08338495,-0.31824955,-0.009045845,-0.06464353,-0.093422525,0.06787326,0.14737472,-0.044707295,-0.1370588,-0.17507637,-0.11359912,-0.04490636,0.030122494,0.021112055,0.074623525,0.0801973,0.038292978,0.052187763,0.06034663,0.110828124,-0.12322609,0.17323391,-0.05721859,-0.08317166,-0.1480269,-0.000043066502,-0.066471905,0.029758582,0.08824292,0.11044795,-0.06919188,-0.0151168695,0.15531224,0.020025965,0.06602609,-0.029566607,-0.009517014,-0.019099893,0.09911232,-0.02236574,0.04912332,0.009619397,0.028955342,-0.08494531,-0.08481079,0.017272128,0.004765966,0.020718025,-0.03185881,0.01155322,-0.07790375,-0.065075025,0.09645366,0.18517303,0.12068727,0.12025064,0.17060308,0.17897412,-0.05952013,-0.019252118,0.11082012,0.11634328,0.030830111,-0.02826318,-0.05898282,0.064312905,0.052145306,-0.10089915,0.013893717,0.09272463,0.0045765494,0.06947937,-0.024607759,0.006001357,0.09303965,0.11387089,0.18054754,-0.057230033,-0.09149882,0.008476988,0.09328753,-0.073245466,-0.0054645794,0.31044084,0.35007074,0.3667751,0.18604094,-0.16607931,0.024815021,-0.049726352,-0.15461436,-0.0779307,-0.043959767,0.059183966,0.07249453,0.09164053,-0.031838257,0.058527548,0.023754178,0.009419254,0.06899891,0.027977124,0.043010812,-0.008425469,-0.07954992,-0.05911865,0.069405414,-0.048398934,-0.20798892,-0.12702584,-0.06026489,0.18467963,0.28731257,0.31539208,0.38914016,0.0010512869,-0.056598086,-0.10070485,-0.12765731,-0.075287975,-0.110653915,-0.094063185,-0.063474275,0.03761333,0.039461985,0.065733336,0.089945905,0.029816136,-0.061538566,0.05629594,0.058252048,0.050447714,-0.07451811,-0.14374918,-0.2964191,-0.16430867,-0.2756835,-0.45563453,0.0643472,0.24717742,0.29691267,0.2947343,0.25433123,0.084387146,-0.016112775,-0.068634525,-0.14754649,0.13029298,-0.05710343,-0.09829236,-0.10375894,0.014776031,0.060157545,0.0415623,0.03621314,0.045602195,0.024272563,-0.05802985,0.08338061,-0.026041752,-0.07201338,-0.10624118,-0.371148,-0.1335008,-0.22941616,-0.13217871,-0.04001012,0.1495586,0.4061746,0.30994657,0.109407715,0.07331599,0.10653319,-0.10593466,0.13482065,-0.02177865,-0.020736229,-0.068714924,-0.0042562825,-0.106162295,-0.023390913,0.05914383,0.07033918,-0.058206107,0.05328978,-0.029601987,-0.061693754,-0.054405835,-0.22717309,-0.033908196,-0.106344804,0.00031495566,-0.15922919,-0.20713748,0.059285115,0.0115295155,0.33132407,0.512638,0.20637085,